FANN_FLO_2.1
num_layers=4
learning_rate=0.500000
connection_rate=1.000000
network_type=0
learning_momentum=0.000000
training_algorithm=2
train_error_function=1
train_stop_function=0
cascade_output_change_fraction=0.010000
quickprop_decay=-0.000100
quickprop_mu=1.750000
rprop_increase_factor=1.200000
rprop_decrease_factor=0.500000
rprop_delta_min=0.000000
rprop_delta_max=50.000000
rprop_delta_zero=0.100000
cascade_output_stagnation_epochs=12
cascade_candidate_change_fraction=0.010000
cascade_candidate_stagnation_epochs=12
cascade_max_out_epochs=150
cascade_min_out_epochs=50
cascade_max_cand_epochs=150
cascade_min_cand_epochs=50
cascade_num_candidate_groups=2
bit_fail_limit=3.49999994039535522461e-01
cascade_candidate_limit=1.00000000000000000000e+03
cascade_weight_multiplier=4.00000005960464477539e-01
cascade_activation_functions_count=10
cascade_activation_functions=3 5 7 8 10 11 14 15 16 17 
cascade_activation_steepnesses_count=4
cascade_activation_steepnesses=2.50000000000000000000e-01 5.00000000000000000000e-01 7.50000000000000000000e-01 1.00000000000000000000e+00 
layer_sizes=10 9 3 2 
scale_included=0
neurons (num_inputs, activation_function, activation_steepness)=(0, 0, 0.00000000000000000000e+00) (0, 0, 0.00000000000000000000e+00) (0, 0, 0.00000000000000000000e+00) (0, 0, 0.00000000000000000000e+00) (0, 0, 0.00000000000000000000e+00) (0, 0, 0.00000000000000000000e+00) (0, 0, 0.00000000000000000000e+00) (0, 0, 0.00000000000000000000e+00) (0, 0, 0.00000000000000000000e+00) (0, 0, 0.00000000000000000000e+00) (10, 3, 5.00000000000000000000e-01) (10, 3, 5.00000000000000000000e-01) (10, 3, 5.00000000000000000000e-01) (10, 3, 5.00000000000000000000e-01) (10, 3, 5.00000000000000000000e-01) (10, 3, 5.00000000000000000000e-01) (10, 3, 5.00000000000000000000e-01) (10, 3, 5.00000000000000000000e-01) (0, 3, 0.00000000000000000000e+00) (9, 3, 5.00000000000000000000e-01) (9, 3, 5.00000000000000000000e-01) (0, 3, 0.00000000000000000000e+00) (3, 3, 5.00000000000000000000e-01) (0, 3, 0.00000000000000000000e+00) 
connections (connected_to_neuron, weight)=(0, -1.60773029327392578125e+01) (1, -1.47659981250762939453e+00) (2, -2.14799094200134277344e+00) (3, 4.82528400421142578125e+00) (4, 3.39764237403869628906e+00) (5, 2.60973644256591796875e+00) (6, -2.46996760368347167969e+00) (7, 1.75586700439453125000e+00) (8, 3.67287087440490722656e+00) (9, -9.82913553714752197266e-01) (0, -8.23179781436920166016e-01) (1, -1.87389934062957763672e+00) (2, -6.55266427993774414062e+00) (3, 4.85186189413070678711e-01) (4, 8.45939540863037109375e+00) (5, -1.19889593124389648438e+00) (6, 1.19532510638236999512e-01) (7, 1.71686697006225585938e+00) (8, -5.59549033641815185547e-01) (9, -2.09328031539916992188e+00) (0, -6.42216145992279052734e-01) (1, 1.80482828617095947266e+00) (2, -1.45595967769622802734e+00) (3, -1.67203760147094726562e+00) (4, 2.49321293830871582031e+00) (5, -1.76270425319671630859e+00) (6, 4.61166977882385253906e-01) (7, 2.14772149920463562012e-01) (8, -8.14101982116699218750e+00) (9, -3.57355773448944091797e-01) (0, -6.29611158370971679688e+00) (1, 4.65983200073242187500e+00) (2, -4.87350225448608398438e-01) (3, -4.85705089569091796875e+00) (4, 8.59647810459136962891e-01) (5, -9.35969114303588867188e-01) (6, -1.25093383789062500000e+03) (7, 7.21090614795684814453e-01) (8, 1.08100354671478271484e+00) (9, -1.51427733898162841797e+00) (0, -1.80494710803031921387e-01) (1, 4.67067432403564453125e+00) (2, -7.05317306518554687500e+00) (3, -1.34632587432861328125e+00) (4, 2.93364381790161132812e+00) (5, 5.19561815261840820312e+00) (6, 2.51919478178024291992e-01) (7, -5.30408203601837158203e-01) (8, -4.68275755643844604492e-01) (9, -1.63178896903991699219e+00) (0, 1.53613770008087158203e+00) (1, 8.83938503265380859375e+00) (2, 7.40321516990661621094e-01) (3, 1.34073915481567382812e+01) (4, 4.94748711585998535156e-01) (5, -8.92824709415435791016e-01) (6, -8.08554232120513916016e-01) (7, 3.79134535789489746094e-01) (8, 3.57770353555679321289e-01) (9, -6.76892375946044921875e+00) (0, 1.08430194854736328125e+00) (1, 1.62549839019775390625e+01) (2, 1.41370749473571777344e+00) (3, -5.60602307319641113281e-01) (4, -3.90264081954956054688e+00) (5, -1.47297739982604980469e+00) (6, -6.27173781394958496094e-01) (7, 2.11463466286659240723e-01) (8, -1.52770700454711914062e+01) (9, -3.17518997192382812500e+00) (0, 4.81646394729614257812e+00) (1, 1.65329837799072265625e+01) (2, 4.04038095474243164062e+00) (3, -5.58468520641326904297e-01) (4, -7.20803308486938476562e+00) (5, -1.63422644138336181641e+00) (6, -6.86474204063415527344e-01) (7, -2.03946717083454132080e-02) (8, -1.56385135650634765625e+01) (9, -3.89894318580627441406e+00) (10, -7.41310045123100280762e-02) (11, 8.79739761352539062500e+00) (12, -9.17938575148582458496e-02) (13, 3.30255538225173950195e-01) (14, 4.77245903015136718750e+00) (15, 3.06849694252014160156e+00) (16, -1.40895962715148925781e+00) (17, -4.87690830230712890625e+00) (18, 8.15321385860443115234e-01) (10, -3.99080514907836914062e+00) (11, -1.78551483154296875000e+00) (12, 4.51659059524536132812e+00) (13, -2.52906608581542968750e+00) (14, 3.04774451255798339844e+00) (15, -2.51931762695312500000e+00) (16, -2.46074843406677246094e+00) (17, -4.14593458175659179688e+00) (18, 1.73536646366119384766e+00) (19, 8.88214588165283203125e-01) (20, -4.30561494827270507812e+00) (21, 2.19930425286293029785e-01) 
