FANN_FLO_2.1
num_layers=4
learning_rate=0.500000
connection_rate=1.000000
network_type=0
learning_momentum=0.000000
training_algorithm=2
train_error_function=1
train_stop_function=0
cascade_output_change_fraction=0.010000
quickprop_decay=-0.000100
quickprop_mu=1.750000
rprop_increase_factor=1.200000
rprop_decrease_factor=0.500000
rprop_delta_min=0.000000
rprop_delta_max=50.000000
rprop_delta_zero=0.100000
cascade_output_stagnation_epochs=12
cascade_candidate_change_fraction=0.010000
cascade_candidate_stagnation_epochs=12
cascade_max_out_epochs=150
cascade_min_out_epochs=50
cascade_max_cand_epochs=150
cascade_min_cand_epochs=50
cascade_num_candidate_groups=2
bit_fail_limit=3.49999994039535522461e-01
cascade_candidate_limit=1.00000000000000000000e+03
cascade_weight_multiplier=4.00000005960464477539e-01
cascade_activation_functions_count=10
cascade_activation_functions=3 5 7 8 10 11 14 15 16 17 
cascade_activation_steepnesses_count=4
cascade_activation_steepnesses=2.50000000000000000000e-01 5.00000000000000000000e-01 7.50000000000000000000e-01 1.00000000000000000000e+00 
layer_sizes=10 3 3 2 
scale_included=0
neurons (num_inputs, activation_function, activation_steepness)=(0, 0, 0.00000000000000000000e+00) (0, 0, 0.00000000000000000000e+00) (0, 0, 0.00000000000000000000e+00) (0, 0, 0.00000000000000000000e+00) (0, 0, 0.00000000000000000000e+00) (0, 0, 0.00000000000000000000e+00) (0, 0, 0.00000000000000000000e+00) (0, 0, 0.00000000000000000000e+00) (0, 0, 0.00000000000000000000e+00) (0, 0, 0.00000000000000000000e+00) (10, 3, 5.00000000000000000000e-01) (10, 3, 5.00000000000000000000e-01) (0, 3, 0.00000000000000000000e+00) (3, 3, 5.00000000000000000000e-01) (3, 3, 5.00000000000000000000e-01) (0, 3, 0.00000000000000000000e+00) (3, 3, 5.00000000000000000000e-01) (0, 3, 0.00000000000000000000e+00) 
connections (connected_to_neuron, weight)=(0, -2.86681437492370605469e+00) (1, 6.02763032913208007812e+00) (2, 1.28059816360473632812e+00) (3, 2.56262034177780151367e-01) (4, 1.20957431793212890625e+01) (5, -1.00869810581207275391e+00) (6, -1.50355224609375000000e+01) (7, -6.31009340286254882812e+00) (8, -8.56283664703369140625e+00) (9, 4.51393175125122070312e+00) (0, 2.56547832489013671875e+00) (1, 4.34930152893066406250e+01) (2, 1.27511014938354492188e+01) (3, 1.40829193592071533203e+00) (4, -1.17021226882934570312e+01) (5, 2.60299563407897949219e+00) (6, -4.01858749389648437500e+01) (7, 1.41138684749603271484e+00) (8, 3.63941836357116699219e+00) (9, -5.31043672561645507812e+00) (10, 3.11234874725341796875e+01) (11, -1.20544719696044921875e+01) (12, 3.58884215354919433594e+00) (10, 1.22539558410644531250e+01) (11, -9.83494472503662109375e+00) (12, 3.83822751045227050781e+00) (13, 1.67449438571929931641e+00) (14, 1.61366283893585205078e+00) (15, -2.42775535583496093750e+00) 
