FANN_FLO_2.1
num_layers=3
learning_rate=0.400000
connection_rate=1.000000
network_type=0
learning_momentum=0.000000
training_algorithm=2
train_error_function=1
train_stop_function=0
cascade_output_change_fraction=0.010000
quickprop_decay=-0.000100
quickprop_mu=1.750000
rprop_increase_factor=1.200000
rprop_decrease_factor=0.500000
rprop_delta_min=0.000000
rprop_delta_max=50.000000
rprop_delta_zero=0.100000
cascade_output_stagnation_epochs=12
cascade_candidate_change_fraction=0.010000
cascade_candidate_stagnation_epochs=12
cascade_max_out_epochs=150
cascade_min_out_epochs=50
cascade_max_cand_epochs=150
cascade_min_cand_epochs=50
cascade_num_candidate_groups=2
bit_fail_limit=3.49999994039535522461e-01
cascade_candidate_limit=1.00000000000000000000e+03
cascade_weight_multiplier=4.00000005960464477539e-01
cascade_activation_functions_count=10
cascade_activation_functions=3 5 7 8 10 11 14 15 16 17 
cascade_activation_steepnesses_count=4
cascade_activation_steepnesses=2.50000000000000000000e-01 5.00000000000000000000e-01 7.50000000000000000000e-01 1.00000000000000000000e+00 
layer_sizes=7 9 2 
scale_included=0
neurons (num_inputs, activation_function, activation_steepness)=(0, 0, 0.00000000000000000000e+00) (0, 0, 0.00000000000000000000e+00) (0, 0, 0.00000000000000000000e+00) (0, 0, 0.00000000000000000000e+00) (0, 0, 0.00000000000000000000e+00) (0, 0, 0.00000000000000000000e+00) (0, 0, 0.00000000000000000000e+00) (7, 3, 5.00000000000000000000e-01) (7, 3, 5.00000000000000000000e-01) (7, 3, 5.00000000000000000000e-01) (7, 3, 5.00000000000000000000e-01) (7, 3, 5.00000000000000000000e-01) (7, 3, 5.00000000000000000000e-01) (7, 3, 5.00000000000000000000e-01) (7, 3, 5.00000000000000000000e-01) (0, 3, 0.00000000000000000000e+00) (9, 3, 5.00000000000000000000e-01) (0, 3, 0.00000000000000000000e+00) 
connections (connected_to_neuron, weight)=(0, 6.02622389793395996094e-01) (1, -2.81960868835449218750e+00) (2, -2.84655404090881347656e+00) (3, -1.91646158695220947266e+00) (4, 6.07498526573181152344e-01) (5, -1.50000000000000000000e+03) (6, 4.86710023880004882812e+00) (0, 1.23137950897216796875e+00) (1, 2.39025330543518066406e+00) (2, -1.28196954727172851562e+00) (3, 5.93901443481445312500e+00) (4, -1.42148971557617187500e+01) (5, -3.31824922561645507812e+00) (6, -2.85672688484191894531e+00) (0, -1.25195431709289550781e+00) (1, 1.99536010622978210449e-01) (2, 1.68137111663818359375e+01) (3, -5.06465005874633789062e+00) (4, 6.49110412597656250000e+00) (5, -6.54692840576171875000e+00) (6, 5.69898545742034912109e-01) (0, 3.98131757974624633789e-01) (1, -3.19630312919616699219e+00) (2, 1.72586956024169921875e+01) (3, -1.38928556442260742188e+00) (4, -6.05907030403614044189e-02) (5, -2.89654874801635742188e+00) (6, 4.51526355743408203125e+00) (0, -4.96759444475173950195e-01) (1, -1.31461229324340820312e+01) (2, -2.55263153076171875000e+02) (3, 5.86286687850952148438e+00) (4, -3.07715463638305664062e+00) (5, 9.67407703399658203125e+00) (6, 9.40404757857322692871e-02) (0, 1.06473560333251953125e+01) (1, -1.11421470642089843750e+01) (2, 8.07142734527587890625e-01) (3, -1.99518859386444091797e+00) (4, -5.69010198116302490234e-01) (5, 3.94925975799560546875e+00) (6, -4.19137525558471679688e+00) (0, -1.70776271820068359375e+01) (1, 1.47023696899414062500e+01) (2, -8.85911750793457031250e+00) (3, -1.90651834011077880859e+00) (4, -1.45221149921417236328e+00) (5, 3.44881916046142578125e+00) (6, 2.94791293144226074219e+00) (0, 3.40677428245544433594e+00) (1, -4.90629243850708007812e+00) (2, -1.49600112438201904297e+00) (3, -3.66640973091125488281e+00) (4, -1.28370261192321777344e+00) (5, -1.50000000000000000000e+03) (6, 5.08079433441162109375e+00) (7, -5.95074653625488281250e-01) (8, -1.29894769191741943359e+00) (9, -1.09218704700469970703e+00) (10, -4.45745468139648437500e-01) (11, -6.39270305633544921875e-01) (12, -8.82924842834472656250e+00) (13, -3.02972888946533203125e+00) (14, -1.38202154636383056641e+00) (15, 1.82470691204071044922e+00) 
