FANN_FLO_2.1
num_layers=4
learning_rate=0.500000
connection_rate=1.000000
network_type=0
learning_momentum=0.000000
training_algorithm=2
train_error_function=1
train_stop_function=0
cascade_output_change_fraction=0.010000
quickprop_decay=-0.000100
quickprop_mu=1.750000
rprop_increase_factor=1.200000
rprop_decrease_factor=0.500000
rprop_delta_min=0.000000
rprop_delta_max=50.000000
rprop_delta_zero=0.100000
cascade_output_stagnation_epochs=12
cascade_candidate_change_fraction=0.010000
cascade_candidate_stagnation_epochs=12
cascade_max_out_epochs=150
cascade_min_out_epochs=50
cascade_max_cand_epochs=150
cascade_min_cand_epochs=50
cascade_num_candidate_groups=2
bit_fail_limit=3.49999994039535522461e-01
cascade_candidate_limit=1.00000000000000000000e+03
cascade_weight_multiplier=4.00000005960464477539e-01
cascade_activation_functions_count=10
cascade_activation_functions=3 5 7 8 10 11 14 15 16 17 
cascade_activation_steepnesses_count=4
cascade_activation_steepnesses=2.50000000000000000000e-01 5.00000000000000000000e-01 7.50000000000000000000e-01 1.00000000000000000000e+00 
layer_sizes=2 5 5 3 
scale_included=0
neurons (num_inputs, activation_function, activation_steepness)=(0, 0, 0.00000000000000000000e+00) (0, 0, 0.00000000000000000000e+00) (2, 3, 5.00000000000000000000e-01) (2, 3, 5.00000000000000000000e-01) (2, 3, 5.00000000000000000000e-01) (2, 3, 5.00000000000000000000e-01) (0, 3, 0.00000000000000000000e+00) (5, 3, 5.00000000000000000000e-01) (5, 3, 5.00000000000000000000e-01) (5, 3, 5.00000000000000000000e-01) (5, 3, 5.00000000000000000000e-01) (0, 3, 0.00000000000000000000e+00) (5, 0, 5.00000000000000000000e-01) (5, 0, 5.00000000000000000000e-01) (0, 0, 0.00000000000000000000e+00) 
connections (connected_to_neuron, weight)=(0, 2.20849838256835937500e+01) (1, -5.91091060638427734375e+00) (0, 1.51523437500000000000e+01) (1, -1.65288615226745605469e+00) (0, 1.40429143905639648438e+01) (1, -6.65022039413452148438e+00) (0, 1.48056020736694335938e+01) (1, -2.26638936996459960938e+00) (2, 3.11121463775634765625e-01) (3, -1.38362538814544677734e+00) (4, -1.54843688011169433594e+00) (5, -1.51006889343261718750e+00) (6, 8.65232765674591064453e-01) (2, -2.62157583236694335938e+00) (3, 3.51267313957214355469e+00) (4, -1.13021764755249023438e+01) (5, 3.46191382408142089844e+00) (6, 1.76880323886871337891e+00) (2, -2.08384323120117187500e+00) (3, -4.66502815485000610352e-01) (4, -3.36801767349243164062e+00) (5, -6.11080288887023925781e-01) (6, 1.58962166309356689453e+00) (2, -6.03952503204345703125e+00) (3, 4.21229219436645507812e+00) (4, -5.83197832107543945312e+00) (5, 3.78815126419067382812e+00) (6, -4.38509106636047363281e-01) (7, 2.90080499649047851562e+00) (8, -5.73475599288940429688e-01) (9, -1.76269397139549255371e-01) (10, -2.13854718208312988281e+00) (11, 2.26549878716468811035e-01) (7, 2.51065182685852050781e+00) (8, -6.19614660739898681641e-01) (9, 3.07286500930786132812e+00) (10, 9.79715168476104736328e-01) (11, -2.09129405021667480469e+00) 
