FANN_FLO_2.1
num_layers=4
learning_rate=0.500000
connection_rate=1.000000
network_type=0
learning_momentum=0.000000
training_algorithm=2
train_error_function=1
train_stop_function=0
cascade_output_change_fraction=0.010000
quickprop_decay=-0.000100
quickprop_mu=1.750000
rprop_increase_factor=1.200000
rprop_decrease_factor=0.500000
rprop_delta_min=0.000000
rprop_delta_max=50.000000
rprop_delta_zero=0.100000
cascade_output_stagnation_epochs=12
cascade_candidate_change_fraction=0.010000
cascade_candidate_stagnation_epochs=12
cascade_max_out_epochs=150
cascade_min_out_epochs=50
cascade_max_cand_epochs=150
cascade_min_cand_epochs=50
cascade_num_candidate_groups=2
bit_fail_limit=3.49999994039535522461e-01
cascade_candidate_limit=1.00000000000000000000e+03
cascade_weight_multiplier=4.00000005960464477539e-01
cascade_activation_functions_count=10
cascade_activation_functions=3 5 7 8 10 11 14 15 16 17 
cascade_activation_steepnesses_count=4
cascade_activation_steepnesses=2.50000000000000000000e-01 5.00000000000000000000e-01 7.50000000000000000000e-01 1.00000000000000000000e+00 
layer_sizes=10 3 3 2 
scale_included=0
neurons (num_inputs, activation_function, activation_steepness)=(0, 0, 0.00000000000000000000e+00) (0, 0, 0.00000000000000000000e+00) (0, 0, 0.00000000000000000000e+00) (0, 0, 0.00000000000000000000e+00) (0, 0, 0.00000000000000000000e+00) (0, 0, 0.00000000000000000000e+00) (0, 0, 0.00000000000000000000e+00) (0, 0, 0.00000000000000000000e+00) (0, 0, 0.00000000000000000000e+00) (0, 0, 0.00000000000000000000e+00) (10, 3, 5.00000000000000000000e-01) (10, 3, 5.00000000000000000000e-01) (0, 3, 0.00000000000000000000e+00) (3, 3, 5.00000000000000000000e-01) (3, 3, 5.00000000000000000000e-01) (0, 3, 0.00000000000000000000e+00) (3, 3, 5.00000000000000000000e-01) (0, 3, 0.00000000000000000000e+00) 
connections (connected_to_neuron, weight)=(0, -9.54845523834228515625e+00) (1, -3.09920253753662109375e+01) (2, 3.25037574768066406250e+01) (3, 2.90363073348999023438e+00) (4, 5.94924926757812500000e+00) (5, 1.14584407806396484375e+01) (6, 2.85510092973709106445e-01) (7, 5.57119941711425781250e+00) (8, -3.40762405395507812500e+01) (9, 9.44925117492675781250e+00) (0, -7.32995986938476562500e+00) (1, -2.70034866333007812500e+01) (2, 2.60921740531921386719e+00) (3, 8.54803979396820068359e-01) (4, -7.55280637741088867188e+00) (5, -1.57625207901000976562e+01) (6, -5.30556440353393554688e-02) (7, 1.92333259582519531250e+01) (8, 2.70896720886230468750e+01) (9, -2.23751783370971679688e+00) (10, 1.49063061523437500000e+03) (11, -1.50000000000000000000e+03) (12, 7.63324594497680664062e+00) (10, -5.24244956970214843750e+01) (11, -8.08014984130859375000e+01) (12, 5.31310768127441406250e+01) (13, -1.82036745548248291016e+00) (14, 1.41627275943756103516e+00) (15, 1.00895380973815917969e+00) 
