FANN_FLO_2.1
num_layers=3
learning_rate=0.500000
connection_rate=1.000000
network_type=0
learning_momentum=0.000000
training_algorithm=2
train_error_function=1
train_stop_function=0
cascade_output_change_fraction=0.010000
quickprop_decay=-0.000100
quickprop_mu=1.750000
rprop_increase_factor=1.200000
rprop_decrease_factor=0.500000
rprop_delta_min=0.000000
rprop_delta_max=50.000000
rprop_delta_zero=0.100000
cascade_output_stagnation_epochs=12
cascade_candidate_change_fraction=0.010000
cascade_candidate_stagnation_epochs=12
cascade_max_out_epochs=150
cascade_min_out_epochs=50
cascade_max_cand_epochs=150
cascade_min_cand_epochs=50
cascade_num_candidate_groups=2
bit_fail_limit=3.49999994039535522461e-01
cascade_candidate_limit=1.00000000000000000000e+03
cascade_weight_multiplier=4.00000005960464477539e-01
cascade_activation_functions_count=10
cascade_activation_functions=3 5 7 8 10 11 14 15 16 17 
cascade_activation_steepnesses_count=4
cascade_activation_steepnesses=2.50000000000000000000e-01 5.00000000000000000000e-01 7.50000000000000000000e-01 1.00000000000000000000e+00 
layer_sizes=10 5 2 
scale_included=0
neurons (num_inputs, activation_function, activation_steepness)=(0, 0, 0.00000000000000000000e+00) (0, 0, 0.00000000000000000000e+00) (0, 0, 0.00000000000000000000e+00) (0, 0, 0.00000000000000000000e+00) (0, 0, 0.00000000000000000000e+00) (0, 0, 0.00000000000000000000e+00) (0, 0, 0.00000000000000000000e+00) (0, 0, 0.00000000000000000000e+00) (0, 0, 0.00000000000000000000e+00) (0, 0, 0.00000000000000000000e+00) (10, 3, 5.00000000000000000000e-01) (10, 3, 5.00000000000000000000e-01) (10, 3, 5.00000000000000000000e-01) (10, 3, 5.00000000000000000000e-01) (0, 3, 0.00000000000000000000e+00) (5, 3, 5.00000000000000000000e-01) (0, 3, 0.00000000000000000000e+00) 
connections (connected_to_neuron, weight)=(0, -1.17050634765625000000e+03) (1, -1.50000000000000000000e+03) (2, -1.48232653808593750000e+03) (3, -1.49897875976562500000e+03) (4, -1.50000000000000000000e+03) (5, -1.50000000000000000000e+03) (6, -1.47853002929687500000e+03) (7, -1.44184094238281250000e+03) (8, -1.49306030273437500000e+03) (9, -4.54210662841796875000e+00) (0, -1.56796669960021972656e+00) (1, 1.50000000000000000000e+03) (2, 1.49999804687500000000e+03) (3, 1.49944299316406250000e+03) (4, 1.50000000000000000000e+03) (5, 1.50000000000000000000e+03) (6, 1.49779028320312500000e+03) (7, 4.13307037353515625000e+01) (8, 1.49688134765625000000e+03) (9, 1.57742443084716796875e+01) (0, -2.65175551176071166992e-01) (1, -2.60782714843750000000e+02) (2, -1.49558813476562500000e+03) (3, 3.82486909627914428711e-01) (4, -2.59933410644531250000e+02) (5, -1.49728491210937500000e+03) (6, 3.77413034439086914062e+00) (7, 6.74343933105468750000e+02) (8, 1.07410461425781250000e+03) (9, 7.80994057655334472656e-01) (0, 5.13298940658569335938e+00) (1, 2.14171295166015625000e+01) (2, 2.19215965270996093750e+00) (3, -1.29507780075073242188e+00) (4, -4.09567260742187500000e+00) (5, 7.32026863098144531250e+00) (6, -2.62200298309326171875e+01) (7, -9.49162006378173828125e+00) (8, -2.94978094100952148438e+00) (9, 2.39556789398193359375e+00) (10, 1.50000000000000000000e+03) (11, -6.38068020343780517578e-01) (12, 3.78945779800415039062e+00) (13, 3.84605622291564941406e+00) (14, -2.31463456153869628906e+00) 
