FANN_FLO_2.1
num_layers=4
learning_rate=0.400000
connection_rate=1.000000
network_type=0
learning_momentum=0.000000
training_algorithm=2
train_error_function=1
train_stop_function=0
cascade_output_change_fraction=0.010000
quickprop_decay=-0.000100
quickprop_mu=1.750000
rprop_increase_factor=1.200000
rprop_decrease_factor=0.500000
rprop_delta_min=0.000000
rprop_delta_max=50.000000
rprop_delta_zero=0.100000
cascade_output_stagnation_epochs=12
cascade_candidate_change_fraction=0.010000
cascade_candidate_stagnation_epochs=12
cascade_max_out_epochs=150
cascade_min_out_epochs=50
cascade_max_cand_epochs=150
cascade_min_cand_epochs=50
cascade_num_candidate_groups=2
bit_fail_limit=3.49999994039535522461e-01
cascade_candidate_limit=1.00000000000000000000e+03
cascade_weight_multiplier=4.00000005960464477539e-01
cascade_activation_functions_count=10
cascade_activation_functions=3 5 7 8 10 11 14 15 16 17 
cascade_activation_steepnesses_count=4
cascade_activation_steepnesses=2.50000000000000000000e-01 5.00000000000000000000e-01 7.50000000000000000000e-01 1.00000000000000000000e+00 
layer_sizes=7 5 3 2 
scale_included=0
neurons (num_inputs, activation_function, activation_steepness)=(0, 0, 0.00000000000000000000e+00) (0, 0, 0.00000000000000000000e+00) (0, 0, 0.00000000000000000000e+00) (0, 0, 0.00000000000000000000e+00) (0, 0, 0.00000000000000000000e+00) (0, 0, 0.00000000000000000000e+00) (0, 0, 0.00000000000000000000e+00) (7, 3, 5.00000000000000000000e-01) (7, 3, 5.00000000000000000000e-01) (7, 3, 5.00000000000000000000e-01) (7, 3, 5.00000000000000000000e-01) (0, 3, 0.00000000000000000000e+00) (5, 3, 5.00000000000000000000e-01) (5, 3, 5.00000000000000000000e-01) (0, 3, 0.00000000000000000000e+00) (3, 3, 5.00000000000000000000e-01) (0, 3, 0.00000000000000000000e+00) 
connections (connected_to_neuron, weight)=(0, -1.50000000000000000000e+03) (1, -1.50000000000000000000e+03) (2, -1.50000000000000000000e+03) (3, -1.50000000000000000000e+03) (4, -1.50000000000000000000e+03) (5, 1.02726965332031250000e+03) (6, 3.21125626564025878906e+00) (0, -4.33423095703125000000e+02) (1, 3.89549499511718750000e+02) (2, -4.96763977050781250000e+02) (3, -2.49788188934326171875e+00) (4, 1.66669807434082031250e+01) (5, 3.39055519104003906250e+01) (6, -1.05213270187377929688e+01) (0, -4.10501937866210937500e+01) (1, 5.06814181804656982422e-01) (2, -9.71193542480468750000e+02) (3, 1.50000000000000000000e+03) (4, -6.55509643554687500000e+01) (5, -2.72367218017578125000e+02) (6, -4.56867361068725585938e+00) (0, -3.79796028137207031250e+01) (1, -3.65944976806640625000e+01) (2, 1.48596630859375000000e+03) (3, -1.50000000000000000000e+03) (4, -1.50000000000000000000e+03) (5, 1.49510888671875000000e+03) (6, 4.12479686737060546875e+00) (7, 1.50000000000000000000e+03) (8, -2.12122201919555664062e-01) (9, -2.80967445373535156250e+01) (10, 2.42589435577392578125e+01) (11, 3.19641566276550292969e+00) (7, 1.50000000000000000000e+03) (8, -2.33475551605224609375e+01) (9, 5.32163143157958984375e+00) (10, 1.77366466522216796875e+01) (11, 5.21181663498282432556e-03) (12, -1.39633524417877197266e+00) (13, -1.56239557266235351562e+00) (14, -1.12856471538543701172e+00) 
