FANN_FLO_2.1
num_layers=4
learning_rate=0.400000
connection_rate=1.000000
network_type=0
learning_momentum=0.000000
training_algorithm=2
train_error_function=1
train_stop_function=0
cascade_output_change_fraction=0.010000
quickprop_decay=-0.000100
quickprop_mu=1.750000
rprop_increase_factor=1.200000
rprop_decrease_factor=0.500000
rprop_delta_min=0.000000
rprop_delta_max=50.000000
rprop_delta_zero=0.100000
cascade_output_stagnation_epochs=12
cascade_candidate_change_fraction=0.010000
cascade_candidate_stagnation_epochs=12
cascade_max_out_epochs=150
cascade_min_out_epochs=50
cascade_max_cand_epochs=150
cascade_min_cand_epochs=50
cascade_num_candidate_groups=2
bit_fail_limit=3.49999994039535522461e-01
cascade_candidate_limit=1.00000000000000000000e+03
cascade_weight_multiplier=4.00000005960464477539e-01
cascade_activation_functions_count=10
cascade_activation_functions=3 5 7 8 10 11 14 15 16 17 
cascade_activation_steepnesses_count=4
cascade_activation_steepnesses=2.50000000000000000000e-01 5.00000000000000000000e-01 7.50000000000000000000e-01 1.00000000000000000000e+00 
layer_sizes=7 9 5 2 
scale_included=0
neurons (num_inputs, activation_function, activation_steepness)=(0, 0, 0.00000000000000000000e+00) (0, 0, 0.00000000000000000000e+00) (0, 0, 0.00000000000000000000e+00) (0, 0, 0.00000000000000000000e+00) (0, 0, 0.00000000000000000000e+00) (0, 0, 0.00000000000000000000e+00) (0, 0, 0.00000000000000000000e+00) (7, 3, 5.00000000000000000000e-01) (7, 3, 5.00000000000000000000e-01) (7, 3, 5.00000000000000000000e-01) (7, 3, 5.00000000000000000000e-01) (7, 3, 5.00000000000000000000e-01) (7, 3, 5.00000000000000000000e-01) (7, 3, 5.00000000000000000000e-01) (7, 3, 5.00000000000000000000e-01) (0, 3, 0.00000000000000000000e+00) (9, 3, 5.00000000000000000000e-01) (9, 3, 5.00000000000000000000e-01) (9, 3, 5.00000000000000000000e-01) (9, 3, 5.00000000000000000000e-01) (0, 3, 0.00000000000000000000e+00) (5, 3, 5.00000000000000000000e-01) (0, 3, 0.00000000000000000000e+00) 
connections (connected_to_neuron, weight)=(0, 3.25578427314758300781e+00) (1, -1.00547389984130859375e+01) (2, -1.69386386871337890625e+01) (3, -2.15670660138130187988e-01) (4, -4.27892017364501953125e+00) (5, -1.50000000000000000000e+03) (6, 2.34018898010253906250e+00) (0, -7.86483466625213623047e-01) (1, 6.40633225440979003906e-01) (2, -1.33597946166992187500e+01) (3, -8.64338397979736328125e+00) (4, 2.52454042434692382812e+00) (5, -1.77614164352416992188e+00) (6, -2.17305317521095275879e-01) (0, -6.70468330383300781250e-01) (1, -3.69846296310424804688e+00) (2, 1.36780071258544921875e+01) (3, -1.63221025466918945312e+00) (4, -1.12518377304077148438e+01) (5, 3.04048490524291992188e+00) (6, 5.23841857910156250000e+00) (0, -2.61187744140625000000e+00) (1, -3.84479188919067382812e+00) (2, -1.48396142578125000000e+03) (3, 1.00407056808471679688e+01) (4, -1.62773056030273437500e+01) (5, 3.01618456840515136719e+00) (6, -1.56944334506988525391e+00) (0, -1.98186147212982177734e+00) (1, -6.52459383010864257812e+00) (2, 3.97867369651794433594e+00) (3, -9.31994915008544921875e-01) (4, -1.34932219982147216797e+00) (5, 3.34887194633483886719e+00) (6, 4.03529262542724609375e+00) (0, -9.25014305114746093750e+00) (1, -4.13087654113769531250e+00) (2, -1.48376660156250000000e+03) (3, -5.02891876220703125000e+02) (4, -2.40516647338867187500e+02) (5, 8.12438201904296875000e+00) (6, 1.08501732349395751953e+00) (0, -2.51102352142333984375e+00) (1, 4.39286756515502929688e+00) (2, -4.23562469482421875000e+01) (3, 9.55091059207916259766e-01) (4, -9.07465839385986328125e+00) (5, -6.52337837219238281250e+00) (6, 2.04468679428100585938e+00) (0, -1.51813998818397521973e-01) (1, -1.75579398870468139648e-01) (2, 5.82216310501098632812e+00) (3, -5.46248722076416015625e+00) (4, -9.98076171875000000000e+01) (5, 3.32507514953613281250e+01) (6, 3.85783720016479492188e+00) (7, -7.96446456909179687500e+01) (8, 2.75558423995971679688e+00) (9, -4.61106920242309570312e+00) (10, 1.50000000000000000000e+03) (11, 2.13557796478271484375e+01) (12, 1.50000000000000000000e+03) (13, 2.19305458068847656250e+01) (14, -2.23845171928405761719e+00) (15, -4.44090318679809570312e+00) (7, 1.58803815841674804688e+01) (8, 1.50000000000000000000e+03) (9, 6.83814811706542968750e+00) (10, 1.50000000000000000000e+03) (11, -2.12409186363220214844e+00) (12, 1.50000000000000000000e+03) (13, -4.60684242248535156250e+01) (14, -3.37382555007934570312e+00) (15, -1.38948559761047363281e+00) (7, 5.71435987949371337891e-01) (8, 1.19832038879394531250e+02) (9, 6.43147850036621093750e+00) (10, 1.50000000000000000000e+03) (11, 5.27911365032196044922e-01) (12, 1.50000000000000000000e+03) (13, 1.86322128772735595703e+00) (14, 2.92456674575805664062e+00) (15, -5.48488473892211914062e+00) (7, 4.85877647399902343750e+01) (8, 6.38764114379882812500e+01) (9, 2.16513214111328125000e+01) (10, 1.50000000000000000000e+03) (11, -1.25758275985717773438e+01) (12, 1.50000000000000000000e+03) (13, -4.41455793380737304688e+00) (14, -6.85660219192504882812e+00) (15, -5.57887363433837890625e+00) (16, -1.51251864433288574219e+00) (17, -4.54034388065338134766e-01) (18, -5.17787337303161621094e-01) (19, -1.01587402820587158203e+00) (20, -5.50540745258331298828e-01) 
