FANN_FLO_2.1
num_layers=4
learning_rate=0.500000
connection_rate=1.000000
network_type=0
learning_momentum=0.000000
training_algorithm=2
train_error_function=1
train_stop_function=0
cascade_output_change_fraction=0.010000
quickprop_decay=-0.000100
quickprop_mu=1.750000
rprop_increase_factor=1.200000
rprop_decrease_factor=0.500000
rprop_delta_min=0.000000
rprop_delta_max=50.000000
rprop_delta_zero=0.100000
cascade_output_stagnation_epochs=12
cascade_candidate_change_fraction=0.010000
cascade_candidate_stagnation_epochs=12
cascade_max_out_epochs=150
cascade_min_out_epochs=50
cascade_max_cand_epochs=150
cascade_min_cand_epochs=50
cascade_num_candidate_groups=2
bit_fail_limit=3.49999994039535522461e-01
cascade_candidate_limit=1.00000000000000000000e+03
cascade_weight_multiplier=4.00000005960464477539e-01
cascade_activation_functions_count=10
cascade_activation_functions=3 5 7 8 10 11 14 15 16 17 
cascade_activation_steepnesses_count=4
cascade_activation_steepnesses=2.50000000000000000000e-01 5.00000000000000000000e-01 7.50000000000000000000e-01 1.00000000000000000000e+00 
layer_sizes=10 9 5 2 
scale_included=0
neurons (num_inputs, activation_function, activation_steepness)=(0, 0, 0.00000000000000000000e+00) (0, 0, 0.00000000000000000000e+00) (0, 0, 0.00000000000000000000e+00) (0, 0, 0.00000000000000000000e+00) (0, 0, 0.00000000000000000000e+00) (0, 0, 0.00000000000000000000e+00) (0, 0, 0.00000000000000000000e+00) (0, 0, 0.00000000000000000000e+00) (0, 0, 0.00000000000000000000e+00) (0, 0, 0.00000000000000000000e+00) (10, 3, 5.00000000000000000000e-01) (10, 3, 5.00000000000000000000e-01) (10, 3, 5.00000000000000000000e-01) (10, 3, 5.00000000000000000000e-01) (10, 3, 5.00000000000000000000e-01) (10, 3, 5.00000000000000000000e-01) (10, 3, 5.00000000000000000000e-01) (10, 3, 5.00000000000000000000e-01) (0, 3, 0.00000000000000000000e+00) (9, 3, 5.00000000000000000000e-01) (9, 3, 5.00000000000000000000e-01) (9, 3, 5.00000000000000000000e-01) (9, 3, 5.00000000000000000000e-01) (0, 3, 0.00000000000000000000e+00) (5, 3, 5.00000000000000000000e-01) (0, 3, 0.00000000000000000000e+00) 
connections (connected_to_neuron, weight)=(0, 4.19517308473587036133e-01) (1, -4.80383574962615966797e-01) (2, 2.51304321289062500000e+01) (3, 1.36395416259765625000e+01) (4, -1.47801542282104492188e+01) (5, 1.79309082031250000000e+00) (6, -2.36729884147644042969e+00) (7, 3.17738980054855346680e-01) (8, 6.92645324707031250000e+02) (9, -4.68311119079589843750e+00) (0, -1.44387257099151611328e+00) (1, 9.33539867401123046875e+00) (2, 1.28112583160400390625e+01) (3, -9.50933361053466796875e+00) (4, 1.26009244918823242188e+01) (5, -9.14621639251708984375e+00) (6, 2.84854578971862792969e+00) (7, -7.54360854625701904297e-01) (8, -4.29702644348144531250e+01) (9, 6.46248674392700195312e+00) (0, -1.01435298919677734375e+01) (1, -1.15145902633666992188e+01) (2, 2.67274641990661621094e+00) (3, -6.51904726028442382812e+00) (4, 1.84343397617340087891e+00) (5, 1.00144433975219726562e+00) (6, 4.19761390686035156250e+01) (7, -1.03273779153823852539e-01) (8, -2.60997390747070312500e+01) (9, -1.16033065319061279297e+00) (0, 4.89962463378906250000e+01) (1, -4.71355974674224853516e-01) (2, -3.89050692319869995117e-01) (3, 1.50000000000000000000e+03) (4, -4.54773025512695312500e+01) (5, 1.06861696243286132812e+01) (6, 8.41931213378906250000e+02) (7, 3.44800910949707031250e+01) (8, 1.20840173339843750000e+03) (9, 1.10777990722656250000e+03) (0, 8.99063110351562500000e-01) (1, 5.82043123245239257812e+00) (2, 3.63710570335388183594e+00) (3, -3.89246076345443725586e-01) (4, 1.22372732162475585938e+01) (5, 8.13330554962158203125e+00) (6, -8.74389648437500000000e+00) (7, -2.38928198814392089844e-01) (8, -2.74699668884277343750e+01) (9, 1.36961400508880615234e+00) (0, -3.31527404785156250000e+01) (1, 4.21122817993164062500e+01) (2, 5.44509701430797576904e-02) (3, -8.98611267089843750000e+02) (4, 9.56086883544921875000e+01) (5, 9.39778313040733337402e-02) (6, -4.77374481201171875000e+02) (7, -1.85739307403564453125e+01) (8, -1.01847534179687500000e+03) (9, -7.49296386718750000000e+02) (0, -2.36051177978515625000e+00) (1, 1.05182580947875976562e+01) (2, 3.62304949760437011719e+00) (3, 2.45330054312944412231e-02) (4, 1.79887886047363281250e+01) (5, 3.74174189567565917969e+00) (6, -1.18756017684936523438e+01) (7, -1.16525840759277343750e+00) (8, -2.36510906219482421875e+01) (9, -1.09080247581005096436e-01) (0, 6.87977433204650878906e-01) (1, -1.47500028610229492188e+01) (2, -4.61130030453205108643e-02) (3, 6.59407520294189453125e+00) (4, 6.96284914016723632812e+00) (5, 4.51136767864227294922e-01) (6, -1.00697517395019531250e+01) (7, -5.02243712544441223145e-02) (8, 2.37321319580078125000e+01) (9, -3.79601550102233886719e+00) (10, -4.97951507568359375000e+02) (11, 1.50000000000000000000e+03) (12, 1.49992456054687500000e+03) (13, -2.53069381713867187500e+01) (14, 7.05767456054687500000e+02) (15, 1.50000000000000000000e+03) (16, 2.14970947265625000000e+02) (17, -1.12222503662109375000e+02) (18, -4.75645399093627929688e+00) (10, -4.42875213623046875000e+01) (11, 1.50000000000000000000e+03) (12, 1.50000000000000000000e+03) (13, -2.70796184539794921875e+01) (14, 5.00716613769531250000e+02) (15, 1.50000000000000000000e+03) (16, 4.29743499755859375000e+02) (17, -5.92161560058593750000e+02) (18, -1.10874662399291992188e+01) (10, -6.22845172882080078125e+00) (11, 1.50000000000000000000e+03) (12, 1.50000000000000000000e+03) (13, -2.11155719757080078125e+01) (14, 1.16314111328125000000e+03) (15, 1.50000000000000000000e+03) (16, -6.54919067382812500000e+02) (17, -2.10598785400390625000e+02) (18, -7.22371435165405273438e+00) (10, -1.31399523925781250000e+03) (11, 1.50000000000000000000e+03) (12, 1.50000000000000000000e+03) (13, -1.49293012619018554688e+01) (14, 5.95497070312500000000e+02) (15, 1.50000000000000000000e+03) (16, 1.38882348632812500000e+03) (17, -1.52660781860351562500e+02) (18, -4.84654283523559570312e+00) (19, 7.95425713062286376953e-01) (20, 7.10672318935394287109e-01) (21, 1.22004652023315429688e+00) (22, 8.19176852703094482422e-01) (23, -2.73456144332885742188e+00) 
