FANN_FLO_2.1
num_layers=4
learning_rate=0.400000
connection_rate=1.000000
network_type=0
learning_momentum=0.000000
training_algorithm=2
train_error_function=1
train_stop_function=0
cascade_output_change_fraction=0.010000
quickprop_decay=-0.000100
quickprop_mu=1.750000
rprop_increase_factor=1.200000
rprop_decrease_factor=0.500000
rprop_delta_min=0.000000
rprop_delta_max=50.000000
rprop_delta_zero=0.100000
cascade_output_stagnation_epochs=12
cascade_candidate_change_fraction=0.010000
cascade_candidate_stagnation_epochs=12
cascade_max_out_epochs=150
cascade_min_out_epochs=50
cascade_max_cand_epochs=150
cascade_min_cand_epochs=50
cascade_num_candidate_groups=2
bit_fail_limit=3.49999994039535522461e-01
cascade_candidate_limit=1.00000000000000000000e+03
cascade_weight_multiplier=4.00000005960464477539e-01
cascade_activation_functions_count=10
cascade_activation_functions=3 5 7 8 10 11 14 15 16 17 
cascade_activation_steepnesses_count=4
cascade_activation_steepnesses=2.50000000000000000000e-01 5.00000000000000000000e-01 7.50000000000000000000e-01 1.00000000000000000000e+00 
layer_sizes=7 9 5 2 
scale_included=0
neurons (num_inputs, activation_function, activation_steepness)=(0, 0, 0.00000000000000000000e+00) (0, 0, 0.00000000000000000000e+00) (0, 0, 0.00000000000000000000e+00) (0, 0, 0.00000000000000000000e+00) (0, 0, 0.00000000000000000000e+00) (0, 0, 0.00000000000000000000e+00) (0, 0, 0.00000000000000000000e+00) (7, 3, 5.00000000000000000000e-01) (7, 3, 5.00000000000000000000e-01) (7, 3, 5.00000000000000000000e-01) (7, 3, 5.00000000000000000000e-01) (7, 3, 5.00000000000000000000e-01) (7, 3, 5.00000000000000000000e-01) (7, 3, 5.00000000000000000000e-01) (7, 3, 5.00000000000000000000e-01) (0, 3, 0.00000000000000000000e+00) (9, 3, 5.00000000000000000000e-01) (9, 3, 5.00000000000000000000e-01) (9, 3, 5.00000000000000000000e-01) (9, 3, 5.00000000000000000000e-01) (0, 3, 0.00000000000000000000e+00) (5, 3, 5.00000000000000000000e-01) (0, 3, 0.00000000000000000000e+00) 
connections (connected_to_neuron, weight)=(0, 1.81490707397460937500e+01) (1, 5.64895534515380859375e+00) (2, 1.18319839477539062500e+02) (3, -5.01826248168945312500e+01) (4, -7.98615341186523437500e+01) (5, 7.40862071514129638672e-01) (6, -1.77869272232055664062e+00) (0, -1.60985499620437622070e-01) (1, -4.44100141525268554688e+00) (2, 5.61437463760375976562e+00) (3, 1.58061904907226562500e+01) (4, -1.83518657684326171875e+01) (5, 7.96718692779541015625e+00) (6, 1.59814691543579101562e+00) (0, -1.66609704494476318359e+00) (1, 6.96251535415649414062e+00) (2, -2.29343967437744140625e+01) (3, -5.77479696273803710938e+00) (4, -1.22570371627807617188e+01) (5, -5.37492847442626953125e+00) (6, 5.82235217094421386719e-01) (0, -3.47733998298645019531e+00) (1, -1.08299866318702697754e-01) (2, 9.94271564483642578125e+00) (3, -2.75346064567565917969e+00) (4, -3.03405451774597167969e+00) (5, 2.67831802368164062500e+00) (6, 3.39651465415954589844e+00) (0, -1.51439371109008789062e+01) (1, -5.16139602661132812500e+00) (2, 1.56983566284179687500e+00) (3, 2.41987061500549316406e+00) (4, 1.02081584930419921875e+00) (5, 9.43509483337402343750e+00) (6, 1.87455642223358154297e+00) (0, 6.05467987060546875000e+00) (1, -5.48661422729492187500e+00) (2, 1.42912845611572265625e+01) (3, 8.44931423664093017578e-01) (4, -2.94363522529602050781e+00) (5, 8.56029987335205078125e+00) (6, 1.94726660847663879395e-01) (0, -2.00549435615539550781e+00) (1, -6.76646270751953125000e+01) (2, 2.61033020019531250000e+01) (3, -1.87927937507629394531e+00) (4, -6.91446971893310546875e+00) (5, 3.24078407287597656250e+01) (6, 1.81351989507675170898e-01) (0, -1.85048538208007812500e+02) (1, -2.72156188964843750000e+02) (2, 1.39032995605468750000e+03) (3, -1.61878252029418945312e+00) (4, -1.30124096679687500000e+03) (5, -4.11342010498046875000e+02) (6, 8.92118930816650390625e-01) (7, 1.50000000000000000000e+03) (8, -3.38633275032043457031e+00) (9, 8.24064826965332031250e+00) (10, 1.72632579803466796875e+01) (11, -3.38308072090148925781e+00) (12, -7.86189413070678710938e+00) (13, 1.50000000000000000000e+03) (14, 1.50000000000000000000e+03) (15, -5.02159714698791503906e-01) (7, 1.50000000000000000000e+03) (8, 1.43386507034301757812e+01) (9, 4.89857597351074218750e+01) (10, -5.80939579010009765625e+00) (11, -1.50000000000000000000e+03) (12, -4.19337177276611328125e+00) (13, 1.50000000000000000000e+03) (14, 1.50000000000000000000e+03) (15, -1.41224992275238037109e+00) (7, 1.48727392578125000000e+03) (8, -1.48630859375000000000e+03) (9, 1.44848657226562500000e+03) (10, 1.97805957794189453125e+01) (11, -2.01371154785156250000e+01) (12, -4.62212181091308593750e+00) (13, 1.50000000000000000000e+03) (14, 1.50000000000000000000e+03) (15, -2.33574295043945312500e+00) (7, 1.50000000000000000000e+03) (8, -1.20539102554321289062e+01) (9, 1.42001635742187500000e+03) (10, 1.33888111114501953125e+01) (11, -1.64754505157470703125e+01) (12, -9.74149346351623535156e-01) (13, 1.50000000000000000000e+03) (14, 1.50000000000000000000e+03) (15, 7.90601396560668945312e+00) (16, -1.32733273506164550781e+00) (17, -7.91577756404876708984e-01) (18, -2.95985549688339233398e-01) (19, -1.04413175582885742188e+00) (20, -5.68412959575653076172e-01) 
