FANN_FLO_2.1
num_layers=4
learning_rate=0.400000
connection_rate=1.000000
network_type=0
learning_momentum=0.000000
training_algorithm=2
train_error_function=1
train_stop_function=0
cascade_output_change_fraction=0.010000
quickprop_decay=-0.000100
quickprop_mu=1.750000
rprop_increase_factor=1.200000
rprop_decrease_factor=0.500000
rprop_delta_min=0.000000
rprop_delta_max=50.000000
rprop_delta_zero=0.100000
cascade_output_stagnation_epochs=12
cascade_candidate_change_fraction=0.010000
cascade_candidate_stagnation_epochs=12
cascade_max_out_epochs=150
cascade_min_out_epochs=50
cascade_max_cand_epochs=150
cascade_min_cand_epochs=50
cascade_num_candidate_groups=2
bit_fail_limit=3.49999994039535522461e-01
cascade_candidate_limit=1.00000000000000000000e+03
cascade_weight_multiplier=4.00000005960464477539e-01
cascade_activation_functions_count=10
cascade_activation_functions=3 5 7 8 10 11 14 15 16 17 
cascade_activation_steepnesses_count=4
cascade_activation_steepnesses=2.50000000000000000000e-01 5.00000000000000000000e-01 7.50000000000000000000e-01 1.00000000000000000000e+00 
layer_sizes=7 5 5 2 
scale_included=0
neurons (num_inputs, activation_function, activation_steepness)=(0, 0, 0.00000000000000000000e+00) (0, 0, 0.00000000000000000000e+00) (0, 0, 0.00000000000000000000e+00) (0, 0, 0.00000000000000000000e+00) (0, 0, 0.00000000000000000000e+00) (0, 0, 0.00000000000000000000e+00) (0, 0, 0.00000000000000000000e+00) (7, 3, 5.00000000000000000000e-01) (7, 3, 5.00000000000000000000e-01) (7, 3, 5.00000000000000000000e-01) (7, 3, 5.00000000000000000000e-01) (0, 3, 0.00000000000000000000e+00) (5, 3, 5.00000000000000000000e-01) (5, 3, 5.00000000000000000000e-01) (5, 3, 5.00000000000000000000e-01) (5, 3, 5.00000000000000000000e-01) (0, 3, 0.00000000000000000000e+00) (5, 3, 5.00000000000000000000e-01) (0, 3, 0.00000000000000000000e+00) 
connections (connected_to_neuron, weight)=(0, -1.50000000000000000000e+03) (1, -1.50000000000000000000e+03) (2, 1.00971820068359375000e+03) (3, -1.50000000000000000000e+03) (4, -1.50000000000000000000e+03) (5, 1.50000000000000000000e+03) (6, 1.65556550025939941406e+00) (0, -7.40800048828125000000e+02) (1, -7.40800048828125000000e+02) (2, -3.62075256347656250000e+02) (3, -7.15800048828125000000e+02) (4, -7.15800048828125000000e+02) (5, 7.40800048828125000000e+02) (6, 1.21118271350860595703e+00) (0, -1.26380004882812500000e+03) (1, -1.26380004882812500000e+03) (2, 1.33080358886718750000e+03) (3, -1.22780004882812500000e+03) (4, -1.22780004882812500000e+03) (5, 1.33280004882812500000e+03) (6, 7.57754516601562500000e+01) (0, 1.50000000000000000000e+03) (1, 1.50000000000000000000e+03) (2, 7.45433105468750000000e+02) (3, 1.50000000000000000000e+03) (4, 1.50000000000000000000e+03) (5, -1.50000000000000000000e+03) (6, 8.78391170501708984375e+00) (7, 1.48549804687500000000e+03) (8, -7.84199951171875000000e+02) (9, 2.26481986045837402344e+00) (10, 1.53066453933715820312e+01) (11, -4.74668443202972412109e-02) (7, 1.48549804687500000000e+03) (8, -7.84199951171875000000e+02) (9, 2.31289434432983398438e+00) (10, -5.02920646667480468750e+01) (11, 1.40422433614730834961e-01) (7, 1.48549804687500000000e+03) (8, -7.84199951171875000000e+02) (9, -1.82803192138671875000e+02) (10, -6.04989433288574218750e+00) (11, 1.70466825366020202637e-01) (7, 1.48549804687500000000e+03) (8, -7.84199951171875000000e+02) (9, 6.84558200836181640625e+00) (10, -2.61737942695617675781e-01) (11, -3.94666373729705810547e-01) (12, -2.00388455390930175781e+00) (13, -3.60897064208984375000e+00) (14, -6.70032799243927001953e-01) (15, -6.91851377487182617188e-01) (16, -5.64886510372161865234e-01) 
