FANN_FLO_2.1
num_layers=4
learning_rate=0.500000
connection_rate=1.000000
network_type=0
learning_momentum=0.000000
training_algorithm=2
train_error_function=1
train_stop_function=0
cascade_output_change_fraction=0.010000
quickprop_decay=-0.000100
quickprop_mu=1.750000
rprop_increase_factor=1.200000
rprop_decrease_factor=0.500000
rprop_delta_min=0.000000
rprop_delta_max=50.000000
rprop_delta_zero=0.100000
cascade_output_stagnation_epochs=12
cascade_candidate_change_fraction=0.010000
cascade_candidate_stagnation_epochs=12
cascade_max_out_epochs=150
cascade_min_out_epochs=50
cascade_max_cand_epochs=150
cascade_min_cand_epochs=50
cascade_num_candidate_groups=2
bit_fail_limit=3.49999994039535522461e-01
cascade_candidate_limit=1.00000000000000000000e+03
cascade_weight_multiplier=4.00000005960464477539e-01
cascade_activation_functions_count=10
cascade_activation_functions=3 5 7 8 10 11 14 15 16 17 
cascade_activation_steepnesses_count=4
cascade_activation_steepnesses=2.50000000000000000000e-01 5.00000000000000000000e-01 7.50000000000000000000e-01 1.00000000000000000000e+00 
layer_sizes=10 5 5 2 
scale_included=0
neurons (num_inputs, activation_function, activation_steepness)=(0, 0, 0.00000000000000000000e+00) (0, 0, 0.00000000000000000000e+00) (0, 0, 0.00000000000000000000e+00) (0, 0, 0.00000000000000000000e+00) (0, 0, 0.00000000000000000000e+00) (0, 0, 0.00000000000000000000e+00) (0, 0, 0.00000000000000000000e+00) (0, 0, 0.00000000000000000000e+00) (0, 0, 0.00000000000000000000e+00) (0, 0, 0.00000000000000000000e+00) (10, 3, 5.00000000000000000000e-01) (10, 3, 5.00000000000000000000e-01) (10, 3, 5.00000000000000000000e-01) (10, 3, 5.00000000000000000000e-01) (0, 3, 0.00000000000000000000e+00) (5, 3, 5.00000000000000000000e-01) (5, 3, 5.00000000000000000000e-01) (5, 3, 5.00000000000000000000e-01) (5, 3, 5.00000000000000000000e-01) (0, 3, 0.00000000000000000000e+00) (5, 3, 5.00000000000000000000e-01) (0, 3, 0.00000000000000000000e+00) 
connections (connected_to_neuron, weight)=(0, 1.42516431808471679688e+01) (1, 1.35344104003906250000e+03) (2, -7.83243179321289062500e+01) (3, 1.49347045898437500000e+03) (4, 3.51669036865234375000e+02) (5, 8.10769592285156250000e+02) (6, -1.17982763671875000000e+03) (7, 1.24302697753906250000e+03) (8, 1.44350622558593750000e+03) (9, 5.75676193237304687500e+01) (0, -2.19749188423156738281e+00) (1, -2.14068114757537841797e-01) (2, -7.51491260528564453125e+00) (3, 3.08351821899414062500e+01) (4, -1.57341861724853515625e+01) (5, -2.20575928688049316406e+00) (6, -6.25336933135986328125e+00) (7, 1.84880905151367187500e+01) (8, 1.46230516433715820312e+01) (9, 3.58976066112518310547e-01) (0, 1.42758440971374511719e+00) (1, -2.86669278144836425781e+00) (2, -1.92553126811981201172e+00) (3, 7.96558856964111328125e+00) (4, -4.12103385925292968750e+01) (5, 1.29367500543594360352e-01) (6, -1.34854526519775390625e+01) (7, 1.69581985473632812500e+01) (8, 5.57228565216064453125e+00) (9, 9.02782535552978515625e+00) (0, -2.71167663574218750000e+02) (1, 1.08654199218750000000e+03) (2, 1.65635185241699218750e+01) (3, 9.18757873535156250000e+02) (4, 1.00695770263671875000e+03) (5, 1.16889916992187500000e+03) (6, -1.11671130371093750000e+03) (7, 1.23674267578125000000e+03) (8, 1.49619335937500000000e+03) (9, 7.78981781005859375000e+00) (10, -1.80610198974609375000e+01) (11, -2.56098198890686035156e+00) (12, 9.70849304199218750000e+01) (13, -1.54521760940551757812e+01) (14, -2.40564022064208984375e+01) (10, 6.03259611129760742188e+00) (11, -1.38521362304687500000e+03) (12, -1.38496948242187500000e+03) (13, 1.49199447631835937500e+01) (14, 1.58037004470825195312e+01) (10, -8.11260498046875000000e+02) (11, 1.01212725830078125000e+03) (12, -1.45308544921875000000e+03) (13, -1.90109992027282714844e+00) (14, -1.68111610412597656250e+00) (10, 2.30952429771423339844e+00) (11, 5.60074882507324218750e+01) (12, -7.55098495483398437500e+01) (13, -4.07578754425048828125e+00) (14, -2.01247348785400390625e+01) (15, -2.49531173706054687500e+00) (16, -1.74583554267883300781e+00) (17, 8.00047874450683593750e-01) (18, -3.72511893510818481445e-01) (19, 9.40506637096405029297e-01) 
