FANN_FLO_2.1
num_layers=3
learning_rate=0.400000
connection_rate=1.000000
network_type=0
learning_momentum=0.000000
training_algorithm=2
train_error_function=1
train_stop_function=0
cascade_output_change_fraction=0.010000
quickprop_decay=-0.000100
quickprop_mu=1.750000
rprop_increase_factor=1.200000
rprop_decrease_factor=0.500000
rprop_delta_min=0.000000
rprop_delta_max=50.000000
rprop_delta_zero=0.100000
cascade_output_stagnation_epochs=12
cascade_candidate_change_fraction=0.010000
cascade_candidate_stagnation_epochs=12
cascade_max_out_epochs=150
cascade_min_out_epochs=50
cascade_max_cand_epochs=150
cascade_min_cand_epochs=50
cascade_num_candidate_groups=2
bit_fail_limit=3.49999994039535522461e-01
cascade_candidate_limit=1.00000000000000000000e+03
cascade_weight_multiplier=4.00000005960464477539e-01
cascade_activation_functions_count=10
cascade_activation_functions=3 5 7 8 10 11 14 15 16 17 
cascade_activation_steepnesses_count=4
cascade_activation_steepnesses=2.50000000000000000000e-01 5.00000000000000000000e-01 7.50000000000000000000e-01 1.00000000000000000000e+00 
layer_sizes=65 5 65 
scale_included=0
neurons (num_inputs, activation_function, activation_steepness)=(0, 0, 0.00000000000000000000e+00) (0, 0, 0.00000000000000000000e+00) (0, 0, 0.00000000000000000000e+00) (0, 0, 0.00000000000000000000e+00) (0, 0, 0.00000000000000000000e+00) (0, 0, 0.00000000000000000000e+00) (0, 0, 0.00000000000000000000e+00) (0, 0, 0.00000000000000000000e+00) (0, 0, 0.00000000000000000000e+00) (0, 0, 0.00000000000000000000e+00) (0, 0, 0.00000000000000000000e+00) (0, 0, 0.00000000000000000000e+00) (0, 0, 0.00000000000000000000e+00) (0, 0, 0.00000000000000000000e+00) (0, 0, 0.00000000000000000000e+00) (0, 0, 0.00000000000000000000e+00) (0, 0, 0.00000000000000000000e+00) (0, 0, 0.00000000000000000000e+00) (0, 0, 0.00000000000000000000e+00) (0, 0, 0.00000000000000000000e+00) (0, 0, 0.00000000000000000000e+00) (0, 0, 0.00000000000000000000e+00) (0, 0, 0.00000000000000000000e+00) (0, 0, 0.00000000000000000000e+00) (0, 0, 0.00000000000000000000e+00) (0, 0, 0.00000000000000000000e+00) (0, 0, 0.00000000000000000000e+00) (0, 0, 0.00000000000000000000e+00) (0, 0, 0.00000000000000000000e+00) (0, 0, 0.00000000000000000000e+00) (0, 0, 0.00000000000000000000e+00) (0, 0, 0.00000000000000000000e+00) (0, 0, 0.00000000000000000000e+00) (0, 0, 0.00000000000000000000e+00) (0, 0, 0.00000000000000000000e+00) (0, 0, 0.00000000000000000000e+00) (0, 0, 0.00000000000000000000e+00) (0, 0, 0.00000000000000000000e+00) (0, 0, 0.00000000000000000000e+00) (0, 0, 0.00000000000000000000e+00) (0, 0, 0.00000000000000000000e+00) (0, 0, 0.00000000000000000000e+00) (0, 0, 0.00000000000000000000e+00) (0, 0, 0.00000000000000000000e+00) (0, 0, 0.00000000000000000000e+00) (0, 0, 0.00000000000000000000e+00) (0, 0, 0.00000000000000000000e+00) (0, 0, 0.00000000000000000000e+00) (0, 0, 0.00000000000000000000e+00) (0, 0, 0.00000000000000000000e+00) (0, 0, 0.00000000000000000000e+00) (0, 0, 0.00000000000000000000e+00) (0, 0, 0.00000000000000000000e+00) (0, 0, 0.00000000000000000000e+00) (0, 0, 0.00000000000000000000e+00) (0, 0, 0.00000000000000000000e+00) (0, 0, 0.00000000000000000000e+00) (0, 0, 0.00000000000000000000e+00) (0, 0, 0.00000000000000000000e+00) (0, 0, 0.00000000000000000000e+00) (0, 0, 0.00000000000000000000e+00) (0, 0, 0.00000000000000000000e+00) (0, 0, 0.00000000000000000000e+00) (0, 0, 0.00000000000000000000e+00) (0, 0, 0.00000000000000000000e+00) (65, 3, 5.00000000000000000000e-01) (65, 3, 5.00000000000000000000e-01) (65, 3, 5.00000000000000000000e-01) (65, 3, 5.00000000000000000000e-01) (0, 3, 0.00000000000000000000e+00) (5, 5, 5.00000000000000000000e-01) (5, 5, 5.00000000000000000000e-01) (5, 5, 5.00000000000000000000e-01) (5, 5, 5.00000000000000000000e-01) (5, 5, 5.00000000000000000000e-01) (5, 5, 5.00000000000000000000e-01) (5, 5, 5.00000000000000000000e-01) (5, 5, 5.00000000000000000000e-01) (5, 5, 5.00000000000000000000e-01) (5, 5, 5.00000000000000000000e-01) (5, 5, 5.00000000000000000000e-01) (5, 5, 5.00000000000000000000e-01) (5, 5, 5.00000000000000000000e-01) (5, 5, 5.00000000000000000000e-01) (5, 5, 5.00000000000000000000e-01) (5, 5, 5.00000000000000000000e-01) (5, 5, 5.00000000000000000000e-01) (5, 5, 5.00000000000000000000e-01) (5, 5, 5.00000000000000000000e-01) (5, 5, 5.00000000000000000000e-01) (5, 5, 5.00000000000000000000e-01) (5, 5, 5.00000000000000000000e-01) (5, 5, 5.00000000000000000000e-01) (5, 5, 5.00000000000000000000e-01) (5, 5, 5.00000000000000000000e-01) (5, 5, 5.00000000000000000000e-01) (5, 5, 5.00000000000000000000e-01) (5, 5, 5.00000000000000000000e-01) (5, 5, 5.00000000000000000000e-01) (5, 5, 5.00000000000000000000e-01) (5, 5, 5.00000000000000000000e-01) (5, 5, 5.00000000000000000000e-01) (5, 5, 5.00000000000000000000e-01) (5, 5, 5.00000000000000000000e-01) (5, 5, 5.00000000000000000000e-01) (5, 5, 5.00000000000000000000e-01) (5, 5, 5.00000000000000000000e-01) (5, 5, 5.00000000000000000000e-01) (5, 5, 5.00000000000000000000e-01) (5, 5, 5.00000000000000000000e-01) (5, 5, 5.00000000000000000000e-01) (5, 5, 5.00000000000000000000e-01) (5, 5, 5.00000000000000000000e-01) (5, 5, 5.00000000000000000000e-01) (5, 5, 5.00000000000000000000e-01) (5, 5, 5.00000000000000000000e-01) (5, 5, 5.00000000000000000000e-01) (5, 5, 5.00000000000000000000e-01) (5, 5, 5.00000000000000000000e-01) (5, 5, 5.00000000000000000000e-01) (5, 5, 5.00000000000000000000e-01) (5, 5, 5.00000000000000000000e-01) (5, 5, 5.00000000000000000000e-01) (5, 5, 5.00000000000000000000e-01) (5, 5, 5.00000000000000000000e-01) (5, 5, 5.00000000000000000000e-01) (5, 5, 5.00000000000000000000e-01) (5, 5, 5.00000000000000000000e-01) (5, 5, 5.00000000000000000000e-01) (5, 5, 5.00000000000000000000e-01) (5, 5, 5.00000000000000000000e-01) (5, 5, 5.00000000000000000000e-01) (5, 5, 5.00000000000000000000e-01) (5, 5, 5.00000000000000000000e-01) (0, 5, 0.00000000000000000000e+00) 
connections (connected_to_neuron, weight)=(0, 4.46940958499908447266e-03) (1, -8.00855085253715515137e-02) (2, -1.41963750123977661133e-01) (3, -5.12947998940944671631e-02) (4, 1.81837722659111022949e-01) (5, -5.85998222231864929199e-03) (6, 2.34943464398384094238e-01) (7, -9.95882153511047363281e-02) (8, -1.69099748134613037109e-01) (9, 2.49252375215291976929e-03) (10, 1.12066738307476043701e-01) (11, -1.19773149490356445312e-01) (12, 2.50465869903564453125e-01) (13, 1.00097432732582092285e-01) (14, 6.20768927037715911865e-02) (15, -2.88545191287994384766e-01) (16, -2.48991057276725769043e-01) (17, 8.53754729032516479492e-02) (18, -1.28021684940904378891e-03) (19, 1.54666319489479064941e-01) (20, 1.80717259645462036133e-01) (21, -1.11633569002151489258e-01) (22, -2.90364950895309448242e-01) (23, 1.15264482796192169189e-01) (24, -2.22898080945014953613e-01) (25, -9.39969643950462341309e-02) (26, -9.96036361902952194214e-03) (27, 1.43625944852828979492e-01) (28, -1.66822951287031173706e-02) (29, -2.67735794186592102051e-02) (30, 1.00775048136711120605e-01) (31, -2.84892562776803970337e-02) (32, 3.16959142684936523438e-01) (33, 2.15395316481590270996e-01) (34, -2.27415561676025390625e-02) (35, 8.06885436177253723145e-02) (36, 1.15436436608433723450e-02) (37, 1.62213474512100219727e-01) (38, 3.46068255603313446045e-02) (39, 9.88175645470619201660e-02) (40, 7.30439051985740661621e-02) (41, 9.33144465088844299316e-02) (42, 4.60721492767333984375e-01) (43, 2.44429528713226318359e-01) (44, -1.38207608833909034729e-02) (45, 8.68606418371200561523e-02) (46, 1.51234015822410583496e-01) (47, 1.76276594400405883789e-01) (48, 9.19970870018005371094e-02) (49, 1.21409945189952850342e-01) (50, 2.95139253139495849609e-01) (51, 1.30683965981006622314e-02) (52, 2.75826573371887207031e-01) (53, 1.66190758347511291504e-01) (54, 1.73180535435676574707e-01) (55, -5.17275892198085784912e-02) (56, 1.30787625908851623535e-01) (57, 3.78574311733245849609e-01) (58, 1.43657922744750976562e-01) (59, 6.31452262401580810547e-01) (60, -6.43853843212127685547e-02) (61, -6.87246269080787897110e-04) (62, 1.01456224918365478516e-01) (63, 6.04041106998920440674e-02) (64, -5.53578324615955352783e-02) (0, -1.21024775505065917969e+00) (1, -3.48205655813217163086e-01) (2, -8.59526290893554687500e+01) (3, -1.17558264732360839844e+00) (4, 9.77845955640077590942e-03) (5, 1.23570489883422851562e+00) (6, 3.06012821197509765625e+00) (7, -1.71512082219123840332e-01) (8, -3.06498980522155761719e+00) (9, -2.18767642974853515625e+01) (10, -6.91705989837646484375e+00) (11, 1.00769400596618652344e-01) (12, -4.01543229818344116211e-01) (13, 1.42728552222251892090e-01) (14, 1.11740775406360626221e-01) (15, -1.79362428188323974609e+00) (16, -1.01171588897705078125e+01) (17, -1.70734569430351257324e-01) (18, -1.06129068881273269653e-02) (19, 2.59743779897689819336e-01) (20, -4.37258571386337280273e-01) (21, -2.80866336822509765625e+00) (22, -9.33844268321990966797e-01) (23, -1.79027542471885681152e-01) (24, -2.88351511955261230469e+00) (25, -7.52051055431365966797e-01) (26, 9.77496355772018432617e-02) (27, 2.34689578413963317871e-01) (28, 1.21960319578647613525e-01) (29, 1.12062491476535797119e-01) (30, 1.65383547544479370117e-01) (31, 6.38297319412231445312e-01) (32, -1.02936029434204101562e+00) (33, -1.09227669239044189453e+00) (34, -7.80733227729797363281e-01) (35, 3.53520661592483520508e-01) (36, 1.78479865193367004395e-01) (37, 4.55512285232543945312e-01) (38, 1.53812897205352783203e+00) (39, -1.26277980804443359375e+01) (40, -9.82460796833038330078e-01) (41, -7.54837691783905029297e-01) (42, -4.68715399503707885742e-01) (43, 4.66741442680358886719e-01) (44, 2.57371515035629272461e-01) (45, 4.01513719558715820312e+00) (46, 1.42137014865875244141e+00) (47, 8.21648180484771728516e-01) (48, -3.87910366058349609375e-01) (49, 3.96253180503845214844e+00) (50, 1.07883110642433166504e-01) (51, 2.78927057981491088867e-01) (52, 8.37071895599365234375e-01) (53, -2.13481831550598144531e+00) (54, 1.07122659683227539062e+00) (55, 1.29317367076873779297e+00) (56, 6.41974210739135742188e+00) (57, 1.46785962581634521484e+00) (58, 6.08386421203613281250e+00) (59, 1.07078638076782226562e+01) (60, 2.83375778198242187500e+01) (61, 1.61525857448577880859e+00) (62, 1.87050652503967285156e+00) (63, 1.55673614501953125000e+02) (64, -2.52556762695312500000e+01) (0, 5.14659248292446136475e-02) (1, 5.97968399524688720703e-01) (2, 1.96771919727325439453e-01) (3, 1.10234804451465606689e-01) (4, -1.17032870650291442871e-01) (5, 1.05604648590087890625e-01) (6, 1.91198974847793579102e-01) (7, 3.41159552335739135742e-01) (8, 7.80545711517333984375e-01) (9, 1.52080401778221130371e-01) (10, 1.82516083121299743652e-01) (11, -8.87587219476699829102e-02) (12, -8.43122005462646484375e-02) (13, 9.16537642478942871094e-02) (14, -1.34513899683952331543e-03) (15, -1.38273928314447402954e-02) (16, 3.16266536712646484375e-01) (17, 2.55383819341659545898e-01) (18, 2.17895627021789550781e-01) (19, 7.62621164321899414062e-02) (20, 1.76538387313485145569e-03) (21, -6.08004108071327209473e-02) (22, -9.80589315295219421387e-02) (23, -1.76562979817390441895e-01) (24, 1.93716749548912048340e-01) (25, 1.52269527316093444824e-01) (26, -4.37700413167476654053e-02) (27, -5.08591011166572570801e-02) (28, -8.82678180932998657227e-02) (29, -1.42816841602325439453e-01) (30, 1.17033600807189941406e-01) (31, 1.05674766004085540771e-01) (32, 2.22401529550552368164e-01) (33, 1.69672906398773193359e-01) (34, -7.46875628829002380371e-02) (35, -8.25733244419097900391e-02) (36, -1.34045630693435668945e-01) (37, -1.49900719523429870605e-01) (38, -2.14098300784826278687e-02) (39, -1.15998730063438415527e-01) (40, 1.60371944308280944824e-01) (41, 2.26985722780227661133e-01) (42, -7.99882635474205017090e-02) (43, -4.55517768859863281250e-02) (44, -5.43989874422550201416e-02) (45, 2.66499463468790054321e-02) (46, -5.39434747770428657532e-03) (47, -5.97296189516782760620e-03) (48, 1.14964641630649566650e-01) (49, 5.13476282358169555664e-02) (50, -3.64706754684448242188e-01) (51, 3.43188382685184478760e-02) (52, -9.04288738965988159180e-02) (53, -4.35349792242050170898e-01) (54, 2.94020716100931167603e-02) (55, 2.36253082752227783203e-01) (56, -4.89386111497879028320e-01) (57, 4.82171773910522460938e-02) (58, -6.46097302436828613281e-01) (59, 2.27727890014648437500e-02) (60, -4.60100024938583374023e-01) (61, 3.39490883052349090576e-02) (62, -2.41884008049964904785e-01) (63, -3.20333480834960937500e-01) (64, -2.21971893310546875000e+00) (0, 1.38177096843719482422e-01) (1, 1.51578903198242187500e-01) (2, 1.60450026392936706543e-01) (3, -7.49933198094367980957e-02) (4, 9.84455421566963195801e-02) (5, 2.21685931086540222168e-01) (6, 3.02717477083206176758e-01) (7, -5.00327274203300476074e-02) (8, 8.95283650606870651245e-03) (9, 1.52162641286849975586e-01) (10, 3.40827673673629760742e-01) (11, 8.42761434614658355713e-03) (12, 3.92626076936721801758e-02) (13, -8.88800714164972305298e-03) (14, 3.13737913966178894043e-02) (15, 2.50486940145492553711e-01) (16, -1.70357942581176757812e-01) (17, 5.33868297934532165527e-02) (18, 2.98144996166229248047e-01) (19, 1.78692338522523641586e-03) (20, 1.84356421232223510742e-02) (21, 1.78629681468009948730e-01) (22, -1.78070999681949615479e-02) (23, -1.72953993082046508789e-01) (24, -8.73780623078346252441e-02) (25, 7.14031755924224853516e-02) (26, 4.43631857633590698242e-02) (27, -3.38489972054958343506e-02) (28, -7.39323487505316734314e-03) (29, 1.43813379108905792236e-02) (30, 2.03889653086662292480e-01) (31, 1.01395703852176666260e-01) (32, -5.45260682702064514160e-02) (33, -2.08261981606483459473e-02) (34, 6.71748369932174682617e-02) (35, 7.02248886227607727051e-02) (36, -3.61890457570552825928e-02) (37, 1.11221894621849060059e-01) (38, 1.75878793001174926758e-01) (39, 2.32524871826171875000e-01) (40, 6.54975771903991699219e-02) (41, -5.05893416702747344971e-02) (42, -1.77813395857810974121e-01) (43, -6.37069642543792724609e-02) (44, 1.46788373589515686035e-01) (45, -2.25495681166648864746e-01) (46, 9.41869691014289855957e-02) (47, -7.75071978569030761719e-03) (48, -9.13975313305854797363e-02) (49, -2.48325124382972717285e-01) (50, -2.93894499540328979492e-01) (51, 8.37462469935417175293e-02) (52, 5.05545549094676971436e-02) (53, 7.98136219382286071777e-02) (54, 2.21406102180480957031e-01) (55, -1.97813153266906738281e-01) (56, -4.82344508171081542969e-01) (57, -2.00305864214897155762e-01) (58, -1.21488384902477264404e-01) (59, -2.01748311519622802734e-01) (60, -2.35871508717536926270e-01) (61, 1.11647143959999084473e-01) (62, 1.94778814911842346191e-01) (63, 4.18558046221733093262e-02) (64, -1.85273873805999755859e+00) (65, 7.82535672187805175781e-01) (66, -8.48794542253017425537e-03) (67, 6.68097019195556640625e-01) (68, 1.18221855163574218750e+00) (69, -6.12350225448608398438e-01) (65, 2.19953760504722595215e-01) (66, -4.64607030153274536133e-02) (67, 1.47948288917541503906e+00) (68, -2.01459717750549316406e+00) (69, 2.23867185413837432861e-02) (65, -1.94862142205238342285e-01) (66, -8.81111323833465576172e-02) (67, 5.67293643951416015625e-01) (68, 1.11728966236114501953e+00) (69, -1.15325294435024261475e-01) (65, 3.38492356240749359131e-02) (66, 2.90410965681076049805e-02) (67, -1.55599355697631835938e-01) (68, -2.39062160253524780273e-01) (69, 3.24494987726211547852e-02) (65, -8.25791731476783752441e-02) (66, 9.74825769662857055664e-02) (67, -2.84225270152091979980e-02) (68, 5.67894101142883300781e-01) (69, -3.58730629086494445801e-02) (65, -6.22956315055489540100e-04) (66, 8.01827535033226013184e-02) (67, 6.83164775371551513672e-01) (68, -6.73553586006164550781e-01) (69, 2.14909277856349945068e-02) (65, -1.77785637788474559784e-03) (66, 4.24463907256722450256e-03) (67, 1.05231672525405883789e-01) (68, -6.56427741050720214844e-02) (69, 4.19050084019545465708e-05) (65, 4.29470129311084747314e-02) (66, -2.06926790997385978699e-03) (67, -1.88995953649282455444e-02) (68, -2.10729032754898071289e-01) (69, 9.99063905328512191772e-03) (65, -5.40416622243355959654e-05) (66, -2.25771889090538024902e-02) (67, -1.74165561795234680176e-01) (68, 3.76644171774387359619e-02) (69, 1.35382832959294319153e-02) (65, 8.13549291342496871948e-03) (66, -6.53990590944886207581e-03) (67, -6.65636658668518066406e-02) (68, 1.64736527949571609497e-02) (69, -6.85364997480064630508e-04) (65, 7.24536599591374397278e-03) (66, -3.57234937837347388268e-04) (67, -2.28390898555517196655e-02) (68, -3.65850925445556640625e-02) (69, 3.61749064177274703979e-03) (65, 4.15765913203358650208e-03) (66, -6.63180509582161903381e-03) (67, -4.78686485439538955688e-03) (68, -1.55459833331406116486e-03) (69, -1.27636722754687070847e-03) (65, -3.65027412772178649902e-02) (66, -9.14580468088388442993e-03) (67, 4.18353639543056488037e-02) (68, 1.72074601054191589355e-01) (69, -9.79273207485675811768e-03) (65, 2.10492294281721115112e-02) (66, 6.83888909406960010529e-04) (67, 2.83596664667129516602e-02) (68, -1.41554579138755798340e-01) (69, 6.69676670804619789124e-03) (65, -2.84340674988925457001e-03) (66, 5.81800006330013275146e-03) (67, -1.72446221113204956055e-02) (68, -2.24628951400518417358e-03) (69, 3.11248959042131900787e-03) (65, 4.54213051125407218933e-03) (66, -2.40040768403559923172e-04) (67, -3.61664295196533203125e-02) (68, -1.42089230939745903015e-02) (69, 3.27668013051152229309e-03) (65, 1.41442427411675453186e-03) (66, 3.95417679101228713989e-03) (67, 2.51976009458303451538e-02) (68, -1.99763849377632141113e-02) (69, -3.75083560356870293617e-04) (65, 2.87835719063878059387e-03) (66, 1.47968837991356849670e-02) (67, -2.63727712444961071014e-03) (68, -1.41332997009158134460e-02) (69, 1.13381203846074640751e-04) (65, -2.63559923041611909866e-05) (66, 1.03445183485746383667e-02) (67, 1.07550732791423797607e-02) (68, -1.37939658015966415405e-02) (69, 2.83894973108544945717e-04) (65, -1.05274859815835952759e-02) (66, -3.48138180561363697052e-03) (67, 3.08249294757843017578e-02) (68, 5.91273196041584014893e-02) (69, -5.83203835412859916687e-03) (65, 2.57480563595890998840e-03) (66, 3.49175941664725542068e-04) (67, -4.11914847791194915771e-03) (68, -8.66806507110595703125e-03) (69, 2.81467073364183306694e-05) (65, 1.23315257951617240906e-03) (66, 1.17710107588209211826e-04) (67, -1.43308984115719795227e-03) (68, -6.51494180783629417419e-03) (69, 6.73224334605038166046e-04) (65, 1.70298258308321237564e-03) (66, 1.48980645462870597839e-04) (67, -9.55073814839124679565e-03) (68, -3.19230393506586551666e-03) (69, 6.71141082420945167542e-04) (65, 2.41457344964146614075e-03) (66, -4.87269088625907897949e-03) (67, -8.44181980937719345093e-03) (68, -3.19712026976048946381e-03) (69, 2.86407128442078828812e-04) (65, -1.94051163271069526672e-03) (66, -7.95874558389186859131e-03) (67, -1.31589744705706834793e-03) (68, 1.87343452125787734985e-02) (69, -1.40380882658064365387e-03) (65, 4.68973303213715553284e-03) (66, -5.00493310391902923584e-03) (67, -3.96600272506475448608e-03) (68, -2.49349772930145263672e-02) (69, 1.50204042438417673111e-03) (65, 1.29536856547929346561e-05) (66, 1.87881305464543402195e-05) (67, 4.06243256293237209320e-04) (68, 1.42780411988496780396e-03) (69, -8.78991413628682494164e-05) (65, -1.47550564724951982498e-03) (66, -1.48914099554531276226e-04) (67, 4.55302232876420021057e-03) (68, 1.07995290309190750122e-02) (69, -9.80350188910961151123e-04) (65, 1.44328878377564251423e-05) (66, 7.21724180039018392563e-04) (67, 2.94463802129030227661e-03) (68, 5.56327495723962783813e-03) (69, -1.10279931686818599701e-03) (65, -7.90896068792790174484e-04) (66, 1.09523352875839918852e-04) (67, 2.65276641584932804108e-03) (68, 5.47817349433898925781e-03) (69, -4.98305773362517356873e-04) (65, -1.12590426579117774963e-03) (66, 2.11277932976372539997e-04) (67, 2.99656530842185020447e-03) (68, 7.41650676354765892029e-03) (69, -6.64940511342138051987e-04) (65, 9.28218825720250606537e-04) (66, 1.56140624312683939934e-04) (67, -3.57836345210671424866e-03) (68, 3.65860667079687118530e-03) (69, -6.90738146658986806870e-04) (65, -3.88586107874289155006e-04) (66, -4.89685044158250093460e-06) (67, 7.29264051187783479691e-04) (68, 2.11876863613724708557e-03) (69, -2.37687403568997979164e-04) (65, 1.66868208907544612885e-03) (66, 8.80630614119581878185e-05) (67, -4.68052830547094345093e-03) (68, -9.79233626276254653931e-03) (69, 9.59304510615766048431e-04) (65, -6.64901454001665115356e-04) (66, -1.21639757708180695772e-04) (67, 6.18377525825053453445e-04) (68, 3.25291440822184085846e-03) (69, -4.17895789723843336105e-04) (65, -1.50990381371229887009e-03) (66, 5.09808523929677903652e-05) (67, 4.72271721810102462769e-03) (68, 9.80693474411964416504e-03) (69, -1.07037695124745368958e-03) (65, 2.36835941905155777931e-04) (66, 2.81588610960170626640e-04) (67, 4.69108903780579566956e-03) (68, 1.07744866982102394104e-02) (69, -1.92191684618592262268e-03) (65, -1.52120238635689020157e-03) (66, -8.76910125953145325184e-05) (67, 3.67436674423515796661e-03) (68, 9.07413288950920104980e-03) (69, -1.07510888483375310898e-03) (65, 1.14456797018647193909e-03) (66, 6.53530296403914690018e-05) (67, -2.46849306859076023102e-03) (68, -6.32925936952233314514e-03) (69, 6.90079992637038230896e-04) (65, 1.62648083642125129700e-03) (66, 1.33311608806252479553e-04) (67, -3.11716087162494659424e-03) (68, -8.27398430556058883667e-03) (69, 6.97239651344716548920e-04) (65, -1.03095849044620990753e-03) (66, -8.64477115101180970669e-05) (67, 1.64891418535262346268e-03) (68, 6.45037367939949035645e-03) (69, -7.56981025915592908859e-04) (65, -7.34509885660372674465e-05) (66, 1.43683835631236433983e-04) (67, 2.47773976298049092293e-04) (68, 1.49513268843293190002e-03) (69, -1.72268555616028606892e-04) (65, 7.43734941352158784866e-04) (66, 1.25642312923446297646e-04) (67, -4.78013796964660286903e-04) (68, -2.66181142069399356842e-03) (69, 1.47258455399423837662e-04) (65, 3.78989556338638067245e-04) (66, 3.67836822988465428352e-04) (67, 7.42428237572312355042e-04) (68, 1.52323348447680473328e-03) (69, -2.52378202276304364204e-04) (65, 1.30762788467109203339e-03) (66, 5.75160884181968867779e-05) (67, -2.42363358847796916962e-03) (68, -6.62971055135130882263e-03) (69, 5.80170773901045322418e-04) (65, -1.52098946273326873779e-03) (66, -7.33696724637411534786e-05) (67, 3.64135461859405040741e-03) (68, 9.05652996152639389038e-03) (69, -9.41962294746190309525e-04) (65, -9.55772702582180500031e-04) (66, -1.24899263028055429459e-04) (67, 1.49706273805350065231e-03) (68, 4.92149917408823966980e-03) (69, -5.83354907575994729996e-04) (65, 1.88937666825950145721e-03) (66, 4.60966475657187402248e-05) (67, -5.17782988026738166809e-03) (68, -1.08014084398746490479e-02) (69, 1.10176566522568464279e-03) (65, 1.51496543549001216888e-03) (66, 6.12093936069868505001e-05) (67, -2.29138275608420372009e-03) (68, -6.25606020912528038025e-03) (69, 4.00095159420743584633e-04) (65, -3.64205508958548307419e-04) (66, 1.70772880665026605129e-04) (67, 2.33521583140827715397e-04) (68, 2.24675517529249191284e-03) (69, -1.42729331855662167072e-04) (65, 1.48643646389245986938e-03) (66, 2.24829680519178509712e-04) (67, -2.08669388666749000549e-03) (68, -6.27474719658493995667e-03) (69, 2.51494871918112039566e-04) (65, 9.93859139271080493927e-04) (66, 1.59189512487500905991e-04) (67, -1.99157744646072387695e-03) (68, -5.46885514631867408752e-03) (69, 4.14777285186573863029e-04) (65, -1.32473360281437635422e-03) (66, 1.87113575520925223827e-04) (67, 4.35918895527720451355e-03) (68, 9.99947916716337203979e-03) (69, -9.19799320399761199951e-04) (65, -1.40391266904771327972e-03) (66, -1.34395479108206927776e-04) (67, 3.57363908551633358002e-03) (68, 8.50055739283561706543e-03) (69, -9.94843197986483573914e-04) (65, 1.53126986697316169739e-03) (66, -9.42271435633301734924e-06) (67, -2.22707074135541915894e-03) (68, -7.70910084247589111328e-03) (69, 4.40904143033549189568e-04) (65, 1.09348946716636419296e-03) (66, 1.53152417624369263649e-04) (67, -2.06165178678929805756e-03) (68, -5.29028894379734992981e-03) (69, 3.21102183079347014427e-04) (65, 1.96507637156173586845e-04) (66, -2.85657733911648392677e-06) (67, -3.86661238735541701317e-04) (68, -1.26008177176117897034e-03) (69, 1.07213352748658508062e-04) (65, -1.13095028791576623917e-03) (66, -1.22313998872414231300e-04) (67, 2.53189867362380027771e-03) (68, 7.19880731776356697083e-03) (69, -8.88106820639222860336e-04) (65, 2.81189568340778350830e-05) (66, 1.73263382748700678349e-04) (67, 3.97714844439178705215e-04) (68, -7.86477248766459524632e-05) (69, 1.03317834145855158567e-04) (65, 1.58193288370966911316e-03) (66, 1.05016661109402775764e-05) (67, -3.31985391676425933838e-03) (68, -7.96805042773485183716e-03) (69, 5.76743856072425842285e-04) (65, 6.56606629490852355957e-04) (66, 5.41324698133394122124e-06) (67, -1.00539159029722213745e-03) (68, -3.65332840010523796082e-03) (69, 2.05027346964925527573e-04) (65, 1.41865154728293418884e-03) (66, 1.80911854840815067291e-04) (67, -3.01021896302700042725e-03) (68, -7.13008781895041465759e-03) (69, 5.48312324099242687225e-04) (65, -9.67198633588850498199e-04) (66, -3.82295183953829109669e-05) (67, 3.01977084018290042877e-03) (68, 7.60472612455487251282e-03) (69, -8.35312355775386095047e-04) (65, -7.00399221386760473251e-04) (66, -1.96676846826449036598e-05) (67, 1.94188847672194242477e-03) (68, 4.66653797775506973267e-03) (69, -7.17839167919009923935e-04) 
