FANN_FLO_2.1
num_layers=4
learning_rate=0.400000
connection_rate=1.000000
network_type=0
learning_momentum=0.000000
training_algorithm=2
train_error_function=1
train_stop_function=0
cascade_output_change_fraction=0.010000
quickprop_decay=-0.000100
quickprop_mu=1.750000
rprop_increase_factor=1.200000
rprop_decrease_factor=0.500000
rprop_delta_min=0.000000
rprop_delta_max=50.000000
rprop_delta_zero=0.100000
cascade_output_stagnation_epochs=12
cascade_candidate_change_fraction=0.010000
cascade_candidate_stagnation_epochs=12
cascade_max_out_epochs=150
cascade_min_out_epochs=50
cascade_max_cand_epochs=150
cascade_min_cand_epochs=50
cascade_num_candidate_groups=2
bit_fail_limit=3.49999994039535522461e-01
cascade_candidate_limit=1.00000000000000000000e+03
cascade_weight_multiplier=4.00000005960464477539e-01
cascade_activation_functions_count=10
cascade_activation_functions=3 5 7 8 10 11 14 15 16 17 
cascade_activation_steepnesses_count=4
cascade_activation_steepnesses=2.50000000000000000000e-01 5.00000000000000000000e-01 7.50000000000000000000e-01 1.00000000000000000000e+00 
layer_sizes=7 9 5 2 
scale_included=0
neurons (num_inputs, activation_function, activation_steepness)=(0, 0, 0.00000000000000000000e+00) (0, 0, 0.00000000000000000000e+00) (0, 0, 0.00000000000000000000e+00) (0, 0, 0.00000000000000000000e+00) (0, 0, 0.00000000000000000000e+00) (0, 0, 0.00000000000000000000e+00) (0, 0, 0.00000000000000000000e+00) (7, 3, 5.00000000000000000000e-01) (7, 3, 5.00000000000000000000e-01) (7, 3, 5.00000000000000000000e-01) (7, 3, 5.00000000000000000000e-01) (7, 3, 5.00000000000000000000e-01) (7, 3, 5.00000000000000000000e-01) (7, 3, 5.00000000000000000000e-01) (7, 3, 5.00000000000000000000e-01) (0, 3, 0.00000000000000000000e+00) (9, 3, 5.00000000000000000000e-01) (9, 3, 5.00000000000000000000e-01) (9, 3, 5.00000000000000000000e-01) (9, 3, 5.00000000000000000000e-01) (0, 3, 0.00000000000000000000e+00) (5, 3, 5.00000000000000000000e-01) (0, 3, 0.00000000000000000000e+00) 
connections (connected_to_neuron, weight)=(0, -2.70724678039550781250e+00) (1, -5.43657922744750976562e+00) (2, 6.30520057678222656250e+01) (3, -2.27110290527343750000e+01) (4, -1.16091895103454589844e+00) (5, 2.62492513656616210938e+00) (6, 5.24045372009277343750e+00) (0, -1.16847219467163085938e+01) (1, -6.18024873733520507812e+00) (2, 4.81156959533691406250e+01) (3, -5.31661109924316406250e+01) (4, 2.97750339508056640625e+01) (5, -7.08359861373901367188e+00) (6, -2.10788774490356445312e+00) (0, -5.44287919998168945312e+00) (1, 6.58563995361328125000e+00) (2, 2.53085041046142578125e+01) (3, -1.15695323944091796875e+01) (4, -5.37553644180297851562e+00) (5, -9.50687900185585021973e-02) (6, 2.02354717254638671875e+00) (0, -5.96698641777038574219e-01) (1, -1.87955960631370544434e-01) (2, 3.41209754943847656250e+01) (3, -1.61293106079101562500e+01) (4, -1.04130148887634277344e+00) (5, -3.37202334776520729065e-03) (6, 2.54718661308288574219e+00) (0, 3.76531720161437988281e+00) (1, 1.25988316535949707031e+00) (2, 1.87256698608398437500e+01) (3, -3.14636669158935546875e+01) (4, -5.87467193603515625000e+00) (5, 4.27372074127197265625e+00) (6, 3.69803404808044433594e+00) (0, 1.83471698760986328125e+01) (1, 6.79563951492309570312e+00) (2, 3.30353279113769531250e+01) (3, -4.27369956970214843750e+01) (4, 3.79975771903991699219e+00) (5, -3.15628856420516967773e-01) (6, 4.72480118274688720703e-01) (0, -9.47345495223999023438e-01) (1, -7.44174718856811523438e+00) (2, 1.07608131408691406250e+02) (3, -2.22296657562255859375e+01) (4, -1.42500896453857421875e+01) (5, 5.54037904739379882812e+00) (6, 3.50025939941406250000e+00) (0, -2.18804645538330078125e+00) (1, -3.96854305267333984375e+00) (2, 4.12392578125000000000e+01) (3, -1.31325054168701171875e+01) (4, -3.16441178321838378906e-01) (5, 1.40483319759368896484e+00) (6, 3.66392254829406738281e+00) (7, 1.50000000000000000000e+03) (8, -1.43600854492187500000e+03) (9, 1.50000000000000000000e+03) (10, 1.50000000000000000000e+03) (11, 1.50000000000000000000e+03) (12, -8.52725372314453125000e+01) (13, 1.50000000000000000000e+03) (14, 1.50000000000000000000e+03) (15, -1.40930099487304687500e+02) (7, 1.50000000000000000000e+03) (8, -1.40355126953125000000e+03) (9, 1.50000000000000000000e+03) (10, 1.50000000000000000000e+03) (11, 1.50000000000000000000e+03) (12, 1.50000000000000000000e+03) (13, 1.50000000000000000000e+03) (14, 1.50000000000000000000e+03) (15, 6.41728973388671875000e+00) (7, 1.50000000000000000000e+03) (8, -1.48537573242187500000e+03) (9, 1.50000000000000000000e+03) (10, 1.50000000000000000000e+03) (11, 1.50000000000000000000e+03) (12, -8.24430694580078125000e+01) (13, 1.50000000000000000000e+03) (14, 1.50000000000000000000e+03) (15, 7.35194253921508789062e+00) (7, 1.50000000000000000000e+03) (8, -1.50000000000000000000e+03) (9, 1.50000000000000000000e+03) (10, 1.50000000000000000000e+03) (11, 1.50000000000000000000e+03) (12, 4.58650299072265625000e+02) (13, 1.50000000000000000000e+03) (14, 1.50000000000000000000e+03) (15, 3.24230623245239257812e+00) (16, -1.06505310535430908203e+00) (17, -7.81137108802795410156e-01) (18, -4.59833949804306030273e-01) (19, -5.06401836872100830078e-01) (20, -4.07707750797271728516e-01) 
