FANN_FLO_2.1
num_layers=3
learning_rate=0.400000
connection_rate=1.000000
network_type=0
learning_momentum=0.000000
training_algorithm=2
train_error_function=1
train_stop_function=0
cascade_output_change_fraction=0.010000
quickprop_decay=-0.000100
quickprop_mu=1.750000
rprop_increase_factor=1.200000
rprop_decrease_factor=0.500000
rprop_delta_min=0.000000
rprop_delta_max=50.000000
rprop_delta_zero=0.100000
cascade_output_stagnation_epochs=12
cascade_candidate_change_fraction=0.010000
cascade_candidate_stagnation_epochs=12
cascade_max_out_epochs=150
cascade_min_out_epochs=50
cascade_max_cand_epochs=150
cascade_min_cand_epochs=50
cascade_num_candidate_groups=2
bit_fail_limit=3.49999994039535522461e-01
cascade_candidate_limit=1.00000000000000000000e+03
cascade_weight_multiplier=4.00000005960464477539e-01
cascade_activation_functions_count=10
cascade_activation_functions=3 5 7 8 10 11 14 15 16 17 
cascade_activation_steepnesses_count=4
cascade_activation_steepnesses=2.50000000000000000000e-01 5.00000000000000000000e-01 7.50000000000000000000e-01 1.00000000000000000000e+00 
layer_sizes=65 5 65 
scale_included=0
neurons (num_inputs, activation_function, activation_steepness)=(0, 0, 0.00000000000000000000e+00) (0, 0, 0.00000000000000000000e+00) (0, 0, 0.00000000000000000000e+00) (0, 0, 0.00000000000000000000e+00) (0, 0, 0.00000000000000000000e+00) (0, 0, 0.00000000000000000000e+00) (0, 0, 0.00000000000000000000e+00) (0, 0, 0.00000000000000000000e+00) (0, 0, 0.00000000000000000000e+00) (0, 0, 0.00000000000000000000e+00) (0, 0, 0.00000000000000000000e+00) (0, 0, 0.00000000000000000000e+00) (0, 0, 0.00000000000000000000e+00) (0, 0, 0.00000000000000000000e+00) (0, 0, 0.00000000000000000000e+00) (0, 0, 0.00000000000000000000e+00) (0, 0, 0.00000000000000000000e+00) (0, 0, 0.00000000000000000000e+00) (0, 0, 0.00000000000000000000e+00) (0, 0, 0.00000000000000000000e+00) (0, 0, 0.00000000000000000000e+00) (0, 0, 0.00000000000000000000e+00) (0, 0, 0.00000000000000000000e+00) (0, 0, 0.00000000000000000000e+00) (0, 0, 0.00000000000000000000e+00) (0, 0, 0.00000000000000000000e+00) (0, 0, 0.00000000000000000000e+00) (0, 0, 0.00000000000000000000e+00) (0, 0, 0.00000000000000000000e+00) (0, 0, 0.00000000000000000000e+00) (0, 0, 0.00000000000000000000e+00) (0, 0, 0.00000000000000000000e+00) (0, 0, 0.00000000000000000000e+00) (0, 0, 0.00000000000000000000e+00) (0, 0, 0.00000000000000000000e+00) (0, 0, 0.00000000000000000000e+00) (0, 0, 0.00000000000000000000e+00) (0, 0, 0.00000000000000000000e+00) (0, 0, 0.00000000000000000000e+00) (0, 0, 0.00000000000000000000e+00) (0, 0, 0.00000000000000000000e+00) (0, 0, 0.00000000000000000000e+00) (0, 0, 0.00000000000000000000e+00) (0, 0, 0.00000000000000000000e+00) (0, 0, 0.00000000000000000000e+00) (0, 0, 0.00000000000000000000e+00) (0, 0, 0.00000000000000000000e+00) (0, 0, 0.00000000000000000000e+00) (0, 0, 0.00000000000000000000e+00) (0, 0, 0.00000000000000000000e+00) (0, 0, 0.00000000000000000000e+00) (0, 0, 0.00000000000000000000e+00) (0, 0, 0.00000000000000000000e+00) (0, 0, 0.00000000000000000000e+00) (0, 0, 0.00000000000000000000e+00) (0, 0, 0.00000000000000000000e+00) (0, 0, 0.00000000000000000000e+00) (0, 0, 0.00000000000000000000e+00) (0, 0, 0.00000000000000000000e+00) (0, 0, 0.00000000000000000000e+00) (0, 0, 0.00000000000000000000e+00) (0, 0, 0.00000000000000000000e+00) (0, 0, 0.00000000000000000000e+00) (0, 0, 0.00000000000000000000e+00) (0, 0, 0.00000000000000000000e+00) (65, 3, 5.00000000000000000000e-01) (65, 3, 5.00000000000000000000e-01) (65, 3, 5.00000000000000000000e-01) (65, 3, 5.00000000000000000000e-01) (0, 3, 0.00000000000000000000e+00) (5, 5, 5.00000000000000000000e-01) (5, 5, 5.00000000000000000000e-01) (5, 5, 5.00000000000000000000e-01) (5, 5, 5.00000000000000000000e-01) (5, 5, 5.00000000000000000000e-01) (5, 5, 5.00000000000000000000e-01) (5, 5, 5.00000000000000000000e-01) (5, 5, 5.00000000000000000000e-01) (5, 5, 5.00000000000000000000e-01) (5, 5, 5.00000000000000000000e-01) (5, 5, 5.00000000000000000000e-01) (5, 5, 5.00000000000000000000e-01) (5, 5, 5.00000000000000000000e-01) (5, 5, 5.00000000000000000000e-01) (5, 5, 5.00000000000000000000e-01) (5, 5, 5.00000000000000000000e-01) (5, 5, 5.00000000000000000000e-01) (5, 5, 5.00000000000000000000e-01) (5, 5, 5.00000000000000000000e-01) (5, 5, 5.00000000000000000000e-01) (5, 5, 5.00000000000000000000e-01) (5, 5, 5.00000000000000000000e-01) (5, 5, 5.00000000000000000000e-01) (5, 5, 5.00000000000000000000e-01) (5, 5, 5.00000000000000000000e-01) (5, 5, 5.00000000000000000000e-01) (5, 5, 5.00000000000000000000e-01) (5, 5, 5.00000000000000000000e-01) (5, 5, 5.00000000000000000000e-01) (5, 5, 5.00000000000000000000e-01) (5, 5, 5.00000000000000000000e-01) (5, 5, 5.00000000000000000000e-01) (5, 5, 5.00000000000000000000e-01) (5, 5, 5.00000000000000000000e-01) (5, 5, 5.00000000000000000000e-01) (5, 5, 5.00000000000000000000e-01) (5, 5, 5.00000000000000000000e-01) (5, 5, 5.00000000000000000000e-01) (5, 5, 5.00000000000000000000e-01) (5, 5, 5.00000000000000000000e-01) (5, 5, 5.00000000000000000000e-01) (5, 5, 5.00000000000000000000e-01) (5, 5, 5.00000000000000000000e-01) (5, 5, 5.00000000000000000000e-01) (5, 5, 5.00000000000000000000e-01) (5, 5, 5.00000000000000000000e-01) (5, 5, 5.00000000000000000000e-01) (5, 5, 5.00000000000000000000e-01) (5, 5, 5.00000000000000000000e-01) (5, 5, 5.00000000000000000000e-01) (5, 5, 5.00000000000000000000e-01) (5, 5, 5.00000000000000000000e-01) (5, 5, 5.00000000000000000000e-01) (5, 5, 5.00000000000000000000e-01) (5, 5, 5.00000000000000000000e-01) (5, 5, 5.00000000000000000000e-01) (5, 5, 5.00000000000000000000e-01) (5, 5, 5.00000000000000000000e-01) (5, 5, 5.00000000000000000000e-01) (5, 5, 5.00000000000000000000e-01) (5, 5, 5.00000000000000000000e-01) (5, 5, 5.00000000000000000000e-01) (5, 5, 5.00000000000000000000e-01) (5, 5, 5.00000000000000000000e-01) (0, 5, 0.00000000000000000000e+00) 
connections (connected_to_neuron, weight)=(0, 3.23900723457336425781e+00) (1, 5.77211904525756835938e+00) (2, 9.58075046539306640625e+00) (3, 2.52421283721923828125e+01) (4, 4.20933008193969726562e+00) (5, 1.05640153884887695312e+01) (6, 1.03925189971923828125e+01) (7, 9.49359416961669921875e+00) (8, 6.63314151763916015625e+00) (9, 1.01154386997222900391e+00) (10, 1.21337950229644775391e+00) (11, 1.67978298664093017578e+00) (12, 7.64246597290039062500e+01) (13, 8.48338699340820312500e+00) (14, 9.24250411987304687500e+00) (15, 9.04214763641357421875e+00) (16, 7.28029966354370117188e-01) (17, 9.53968524932861328125e-01) (18, 1.28105425834655761719e+00) (19, 1.71351661682128906250e+01) (20, 6.13448095321655273438e+00) (21, 8.15637493133544921875e+00) (22, 1.07008218765258789062e+01) (23, 8.38358211517333984375e+00) (24, 9.43082273006439208984e-01) (25, 9.83534872531890869141e-01) (26, -4.07473891973495483398e-01) (27, -2.35388374328613281250e+00) (28, -5.11503553390502929688e+00) (29, 6.14217901229858398438e+00) (30, 8.38609504699707031250e+00) (31, 8.40932464599609375000e+00) (32, 2.05586071014404296875e+01) (33, -6.74829721450805664062e-01) (34, -1.24490356445312500000e+00) (35, -3.37657237052917480469e+00) (36, -6.91485834121704101562e+00) (37, -3.17013835906982421875e+00) (38, 9.15731811523437500000e+00) (39, 8.02785205841064453125e+00) (40, 3.46565985679626464844e+00) (41, -5.29795825481414794922e-01) (42, -1.01137362420558929443e-01) (43, -1.35371792316436767578e+00) (44, -4.51461935043334960938e+00) (45, -1.67399370670318603516e+00) (46, 2.45523381233215332031e+00) (47, -9.48977768421173095703e-01) (48, -1.88658905029296875000e+00) (49, -2.14856982231140136719e+00) (50, -1.38406729698181152344e+00) (51, -3.31029987335205078125e+00) (52, -5.22562170028686523438e+00) (53, -4.85156726837158203125e+00) (54, -8.48313140869140625000e+00) (55, -5.53966283798217773438e+00) (56, -7.91053485870361328125e+00) (57, -2.67058229446411132812e+00) (58, -2.91396284103393554688e+00) (59, -7.67975568771362304688e+00) (60, -9.23973007202148437500e+01) (61, -1.10670166015625000000e+01) (62, -7.46603631973266601562e+00) (63, -4.84034729003906250000e+00) (64, -4.62676658630371093750e+01) (0, -1.29292368888854980469e-01) (1, -2.65960305929183959961e-01) (2, -1.10582031309604644775e-01) (3, 2.90980607271194458008e-01) (4, -4.75517362356185913086e-02) (5, 2.76221960783004760742e-01) (6, 7.12715983390808105469e-02) (7, 1.61526769399642944336e-01) (8, -9.21028032898902893066e-02) (9, -2.58095592260360717773e-01) (10, -2.07940965890884399414e-01) (11, 8.14877375960350036621e-02) (12, 3.43771189451217651367e-01) (13, 1.44875198602676391602e-01) (14, -3.06277930736541748047e-01) (15, -3.19164663553237915039e-01) (16, 3.42925190925598144531e-01) (17, -1.41507580876350402832e-01) (18, -1.59868419170379638672e-01) (19, -2.78361648321151733398e-01) (20, 1.41207963228225708008e-01) (21, 2.86244988441467285156e-01) (22, 1.13030873239040374756e-01) (23, 1.55318051576614379883e-01) (24, -2.97129422426223754883e-01) (25, -1.41088530421257019043e-01) (26, 7.82066434621810913086e-02) (27, 1.66923955082893371582e-01) (28, -1.45982533693313598633e-01) (29, 2.31263265013694763184e-01) (30, 2.03050196170806884766e-01) (31, 4.69623297452926635742e-01) (32, 6.47932523861527442932e-04) (33, 9.56765562295913696289e-02) (34, -1.49739384651184082031e-01) (35, 1.80497214198112487793e-01) (36, -6.57795742154121398926e-02) (37, 2.10882231593132019043e-01) (38, 2.63959318399429321289e-01) (39, 8.09959396719932556152e-02) (40, -1.07608221471309661865e-01) (41, -1.03130280971527099609e-01) (42, -2.83777434378862380981e-02) (43, 6.97615966200828552246e-02) (44, -3.51286709308624267578e-01) (45, 9.35443565249443054199e-02) (46, 3.95701974630355834961e-02) (47, 2.40814134478569030762e-01) (48, -9.47557836771011352539e-02) (49, -2.08383560180664062500e-01) (50, 9.16608497500419616699e-02) (51, -1.08014553785324096680e-01) (52, -1.88868880271911621094e-01) (53, 1.73073634505271911621e-01) (54, -3.27377431094646453857e-02) (55, 2.08475172519683837891e-01) (56, -7.65320509672164916992e-02) (57, -6.91599771380424499512e-02) (58, 1.40787348151206970215e-01) (59, -3.94373387098312377930e-01) (60, -2.02162191271781921387e-01) (61, 1.12376034259796142578e-01) (62, 3.40244621038436889648e-02) (63, 1.72006815671920776367e-01) (64, -2.13082671165466308594e+00) (0, 2.48839870095252990723e-01) (1, 1.14835903048515319824e-01) (2, -5.65023869276046752930e-02) (3, -2.10398867726325988770e-01) (4, -2.61442027986049652100e-02) (5, 1.01828843355178833008e-01) (6, 2.13509455323219299316e-01) (7, -8.97975862026214599609e-02) (8, -1.00048415362834930420e-01) (9, -6.97152968496084213257e-03) (10, -1.11647881567478179932e-01) (11, -8.33731964230537414551e-02) (12, 1.26123338937759399414e-01) (13, -6.98386803269386291504e-02) (14, 2.30226173996925354004e-01) (15, -3.93414139747619628906e-01) (16, 9.72282513976097106934e-02) (17, 2.11362197995185852051e-01) (18, -1.95798464119434356689e-02) (19, 4.76155057549476623535e-02) (20, 7.91118741035461425781e-02) (21, 1.40693306922912597656e-01) (22, 6.28280863165855407715e-02) (23, 1.86544567346572875977e-01) (24, -1.66687697172164916992e-01) (25, -2.53522917628288269043e-02) (26, -1.21801666915416717529e-01) (27, -8.57907980680465698242e-02) (28, 2.85892367362976074219e-01) (29, 7.25029930472373962402e-02) (30, 1.22234337031841278076e-02) (31, 2.12723314762115478516e-01) (32, 2.02998846769332885742e-01) (33, 4.36688244342803955078e-01) (34, -1.82164862751960754395e-01) (35, 1.52952522039413452148e-01) (36, 2.57081925868988037109e-01) (37, 1.48618549108505249023e-01) (38, 4.81654964387416839600e-02) (39, 1.26853600144386291504e-01) (40, 2.90264517068862915039e-01) (41, 2.04113960266113281250e-01) (42, 3.20738524198532104492e-01) (43, -2.54341036081314086914e-01) (44, -4.87688243389129638672e-01) (45, 1.27953469753265380859e-01) (46, 9.47202444076538085938e-02) (47, 1.23394407331943511963e-01) (48, 1.54492348432540893555e-01) (49, 2.95766979455947875977e-01) (50, 2.37866416573524475098e-01) (51, 1.73213884234428405762e-01) (52, 1.49287477135658264160e-01) (53, 1.11750513315200805664e-01) (54, -7.97726660966873168945e-02) (55, -3.94131578505039215088e-02) (56, -7.28781521320343017578e-02) (57, -3.85513305664062500000e-01) (58, -3.81404221057891845703e-01) (59, 5.24711124598979949951e-02) (60, 2.40286499261856079102e-01) (61, 1.54921635985374450684e-01) (62, -5.83863705396652221680e-02) (63, -4.92734052240848541260e-02) (64, -1.20883750915527343750e+00) (0, -1.65183472633361816406e+00) (1, -1.92314720153808593750e+00) (2, -3.70123863220214843750e+00) (3, -1.35415160655975341797e+00) (4, -1.16301012039184570312e+00) (5, -8.00152003765106201172e-01) (6, -2.83181238174438476562e+00) (7, -3.83843326568603515625e+00) (8, -1.60122215747833251953e+00) (9, -2.52625465393066406250e+00) (10, -1.09105901718139648438e+01) (11, -2.44510674476623535156e+00) (12, -1.11135530471801757812e+00) (13, -7.73664116859436035156e-02) (14, -9.66284513473510742188e-01) (15, -1.02302913665771484375e+01) (16, -1.55338346958160400391e+00) (17, -2.43474159240722656250e+01) (18, -1.46063613891601562500e+00) (19, -5.70731658935546875000e+01) (20, -1.05769443511962890625e+00) (21, -1.35434642434120178223e-01) (22, -2.96461343765258789062e+00) (23, -1.61544871330261230469e+00) (24, -1.54774248600006103516e+00) (25, -1.54797458648681640625e+00) (26, -1.40680301189422607422e+00) (27, -1.21784055233001708984e+00) (28, -1.11027228832244873047e+00) (29, 5.28202578425407409668e-03) (30, 8.33427980542182922363e-02) (31, -3.64792019128799438477e-01) (32, -1.44201505184173583984e+00) (33, -3.10237616300582885742e-01) (34, -1.13177990913391113281e+00) (35, -6.64114832878112792969e-01) (36, 8.89833569526672363281e-02) (37, 1.35929763317108154297e-01) (38, 1.05556622147560119629e-01) (39, -2.98064917325973510742e-01) (40, -2.40746453404426574707e-01) (41, -2.70430415868759155273e-01) (42, -1.64740979671478271484e-01) (43, -1.45963028073310852051e-01) (44, 1.18791863322257995605e-01) (45, 1.63389101624488830566e-01) (46, -9.46319568902254104614e-03) (47, -8.07071506977081298828e-01) (48, 1.52072995901107788086e-01) (49, 1.14382505416870117188e-02) (50, 3.47509719431400299072e-02) (51, 6.58604651689529418945e-02) (52, -2.14476093649864196777e-01) (53, -4.49097231030464172363e-02) (54, -9.07581970095634460449e-02) (55, 7.39300576969981193542e-03) (56, 4.21658083796501159668e-02) (57, 1.43554598093032836914e-01) (58, 1.64479404687881469727e-01) (59, 9.98305082321166992188e-02) (60, 1.29596889019012451172e-01) (61, 2.39690598100423812866e-02) (62, 6.12757429480552673340e-02) (63, -5.62339186668395996094e-01) (64, -4.90362319946289062500e+01) (65, 8.70405435562133789062e-02) (66, 1.54027147218585014343e-02) (67, 1.86018908023834228516e+00) (68, -2.52564340829849243164e-01) (69, -4.45838928222656250000e-01) (65, 1.57981097698211669922e-01) (66, -2.70766377449035644531e+00) (67, 2.95171171426773071289e-01) (68, -8.25770571827888488770e-02) (69, 2.22770005464553833008e-01) (65, 3.96014243364334106445e-01) (66, 3.76517027616500854492e-01) (67, -7.33406022191047668457e-02) (68, -1.83946918696165084839e-02) (69, -2.20525618642568588257e-02) (65, 7.08010867238044738770e-02) (66, -1.30086615681648254395e-01) (67, 6.23114546760916709900e-03) (68, 1.28813078626990318298e-02) (69, 1.04823671281337738037e-02) (65, 1.72918498516082763672e-01) (66, -3.50224286317825317383e-01) (67, 5.52474297583103179932e-02) (68, -4.04468009946867823601e-05) (69, 2.36286744475364685059e-02) (65, 6.40781875699758529663e-03) (66, -8.71236473321914672852e-02) (67, -4.09930869936943054199e-02) (68, 1.98454651981592178345e-02) (69, 1.85486283153295516968e-02) (65, 9.92281548678874969482e-03) (66, -2.71587241441011428833e-02) (67, 2.85006351768970489502e-02) (68, -6.76812743768095970154e-03) (69, -5.77453710138797760010e-03) (65, -3.80173623561859130859e-02) (66, -7.94479772448539733887e-02) (67, 2.47856862843036651611e-02) (68, -4.73100226372480392456e-03) (69, 2.77593987993896007538e-03) (65, -4.42103482782840728760e-02) (66, 1.17024362087249755859e-01) (67, -4.79876697063446044922e-02) (68, -1.36279975995421409607e-02) (69, -1.94704509340226650238e-03) (65, 2.43860355112701654434e-04) (66, -2.88481023162603378296e-02) (67, -4.74038394168019294739e-03) (68, -1.03524117730557918549e-03) (69, 3.40611161664128303528e-03) (65, 1.46072898060083389282e-02) (66, -4.44738147780299186707e-03) (67, -2.46428302489221096039e-03) (68, -8.07483773678541183472e-03) (69, 1.15364848170429468155e-03) (65, -6.48131743073463439941e-02) (66, -1.49232000112533569336e-02) (67, 1.53773499187082052231e-03) (68, 8.36077670101076364517e-04) (69, 1.03626982308924198151e-03) (65, -8.56911689043045043945e-02) (66, -4.17560562491416931152e-02) (67, 1.19115347042679786682e-02) (68, 7.37877935171127319336e-03) (69, 2.30595702305436134338e-03) (65, -8.83255060762166976929e-03) (66, 1.98913533240556716919e-02) (67, -1.45294726826250553131e-03) (68, 5.03958715125918388367e-03) (69, -3.00960475578904151917e-03) (65, -1.09086709562689065933e-03) (66, 4.45575937628746032715e-02) (67, -4.66683134436607360840e-03) (68, 8.96716862916946411133e-03) (69, -3.39277996681630611420e-03) (65, -1.40012172050774097443e-03) (66, -2.21447348594665527344e-02) (67, 3.42107057804241776466e-04) (68, -7.01100751757621765137e-03) (69, 2.67026037909090518951e-03) (65, 9.15516458917409181595e-04) (66, 2.27442644536495208740e-02) (67, -3.76099953427910804749e-03) (68, 2.37226442550309002399e-04) (69, -1.86487159226089715958e-03) (65, -1.30806574597954750061e-02) (66, -1.67981721460819244385e-02) (67, 6.43243966624140739441e-03) (68, 1.80093548260629177094e-03) (69, 5.99133607465773820877e-04) (65, -3.85370366275310516357e-02) (66, 2.18336544930934906006e-02) (67, 1.15585292223840951920e-03) (68, -4.09090379253029823303e-03) (69, -2.41595995612442493439e-03) (65, -1.44936991855502128601e-02) (66, 3.72479972429573535919e-03) (67, 8.18111177068203687668e-04) (68, 8.74660850968211889267e-04) (69, -5.79977931920439004898e-04) (65, -2.50735273584723472595e-03) (66, -9.25722531974315643311e-03) (67, 9.77831543423235416412e-04) (68, 4.89941216073930263519e-04) (69, 4.33143344707787036896e-04) (65, -7.37499722163192927837e-05) (66, -3.68062828783877193928e-05) (67, -1.30397820612415671349e-04) (68, -9.61012628977186977863e-05) (69, -8.41351647977717220783e-05) (65, 3.32234812958631664515e-05) (66, -6.02781772613525390625e-04) (67, 2.13738749152980744839e-04) (68, 7.98971450421959161758e-05) (69, 8.32804071251302957535e-05) (65, 2.79211584711447358131e-04) (66, 5.44842041563242673874e-04) (67, -1.54894252773374319077e-04) (68, 5.75256883166730403900e-04) (69, -4.90025340695865452290e-05) (65, 1.15410173311829566956e-02) (66, -1.04363048449158668518e-02) (67, -7.56272522266954183578e-04) (68, -1.84643431566655635834e-03) (69, 1.53495022095739841461e-03) (65, 5.67792099900543689728e-04) (66, 8.19283165037631988525e-03) (67, -2.36935308203101158142e-03) (68, -2.28235381655395030975e-04) (69, -3.35675838869065046310e-04) (65, -5.24047238286584615707e-04) (66, -1.45467661786824464798e-03) (67, -1.49463268462568521500e-03) (68, -1.20225199498236179352e-03) (69, 5.23997121490538120270e-04) (65, -4.09020780352875590324e-04) (66, -2.94053717516362667084e-03) (67, -1.67658971622586250305e-03) (68, -1.45347148645669221878e-03) (69, 9.04768472537398338318e-04) (65, -1.73342450580094009638e-05) (66, 8.30920034786686301231e-05) (67, -1.09954256913624703884e-04) (68, -1.65436315000988543034e-04) (69, 1.30128792079631239176e-05) (65, -3.40458645951002836227e-05) (66, 5.10716170538216829300e-04) (67, -2.83920177025720477104e-04) (68, -2.16584041481837630272e-04) (69, -7.82418646849691867828e-06) (65, 9.42772603593766689301e-05) (66, 1.63118820637464523315e-03) (67, -2.34041115618310868740e-04) (68, 9.02761094039306044579e-05) (69, -5.39199718332383781672e-05) (65, -5.66049347980879247189e-05) (66, -6.25337052042596042156e-05) (67, 4.59713919553905725479e-05) (68, -5.85062880418263375759e-05) (69, -7.46392688597552478313e-05) (65, 1.24753247946500778198e-02) (66, -1.81636447086930274963e-03) (67, -2.62666470371186733246e-03) (68, -9.21878439839929342270e-04) (69, 8.66380578372627496719e-04) (65, 3.01114778267219662666e-04) (66, 8.66998860146850347519e-04) (67, 2.54765822319313883781e-04) (68, 4.40463802078738808632e-04) (69, 1.32441091409418731928e-05) (65, -2.20497895497828722000e-05) (66, 9.37468023039400577545e-04) (67, -2.06704164156690239906e-04) (68, -5.17092921654693782330e-05) (69, -1.05520179204177111387e-04) (65, 9.20392994885332882404e-05) (66, 2.98345228657126426697e-04) (67, 1.75369626958854496479e-04) (68, 3.92267131246626377106e-04) (69, -7.04732519807294011116e-06) (65, 1.68664613738656044006e-04) (66, -6.06862013228237628937e-04) (67, 1.27008039271458983421e-04) (68, 1.79413240402936935425e-04) (69, 3.35446311510168015957e-05) (65, 1.00009274319745600224e-05) (66, 4.76429340778850018978e-05) (67, 8.17189211375080049038e-05) (68, 5.38468229933641850948e-05) (69, 1.44663281389512121677e-05) (65, -4.67058271169662475586e-05) (66, -4.25788195570930838585e-04) (67, 1.20222590339835733175e-04) (68, 1.73539592651650309563e-05) (69, -6.17601544945500791073e-05) (65, -1.80122689926065504551e-04) (66, 3.45298496540635824203e-04) (67, -1.23063044156879186630e-04) (68, -1.38549177790991961956e-04) (69, -9.64993232628330588341e-05) (65, 2.67438881564885377884e-05) (66, 5.62521105166524648666e-04) (67, 7.01129829394631087780e-05) (68, 7.59321192163042724133e-05) (69, 5.97103789914399385452e-05) (65, 1.46244259667582809925e-04) (66, 8.81009560544043779373e-04) (67, 1.75312292412854731083e-04) (68, 2.51020159339532256126e-04) (69, 3.06919719150755554438e-05) (65, -1.09412103483919054270e-05) (66, 3.33870884787756949663e-05) (67, 5.22519876540172845125e-05) (68, -6.92659814376384019852e-05) (69, -2.00397953449282795191e-05) (65, -8.28277043183334171772e-05) (66, -4.70468017738312482834e-04) (67, -5.80018604523502290249e-05) (68, -2.11312857572920620441e-04) (69, -5.83571600145660340786e-05) (65, 8.69269570102915167809e-06) (66, -2.54410610068589448929e-04) (67, 3.58769902959465980530e-04) (68, 1.21105680591426789761e-04) (69, 1.70029161381535232067e-04) (65, -5.20130779477767646313e-05) (66, 3.54797928594052791595e-04) (67, -1.49194762343540787697e-04) (68, -5.84887384320609271526e-05) (69, -8.95488046808168292046e-05) (65, -8.25589304440654814243e-05) (66, 4.49027516879141330719e-04) (67, -2.96058133244514465332e-04) (68, -2.54420679993927478790e-04) (69, -9.92226196103729307652e-05) (65, 5.48781608813442289829e-05) (66, 1.43746088724583387375e-04) (67, 3.46474771504290401936e-05) (68, -8.94727272680029273033e-05) (69, 3.68100372725166380405e-05) (65, 9.30248133954592049122e-05) (66, -1.75623048562556505203e-04) (67, 2.29228622629307210445e-04) (68, 1.88356541912071406841e-04) (69, 3.43440624419599771500e-05) (65, -2.54027254413813352585e-05) (66, -3.28896887367591261864e-04) (67, 1.78779766429215669632e-04) (68, 8.75375044415704905987e-05) (69, -6.23360319877974689007e-05) (65, -6.37274497421458363533e-05) (66, -1.69510531122796237469e-05) (67, -9.25133499549701809883e-05) (68, -9.14786505745723843575e-05) (69, -6.11987634329125285149e-05) (65, -7.08028164808638393879e-05) (66, 1.16493063978850841522e-03) (67, -7.97294851508922874928e-05) (68, -9.02512765605933964252e-05) (69, 3.18757083732634782791e-05) (65, 3.07313239318318665028e-05) (66, 2.57714855251833796501e-04) (67, -1.12193520180881023407e-04) (68, -6.28143025096505880356e-05) (69, 7.07289073034189641476e-05) (65, 3.76316893380135297775e-06) (66, 1.13537447759881615639e-04) (67, 5.63185058126691728830e-05) (68, 7.59189279051497578621e-05) (69, 4.56257876066956669092e-05) (65, 1.55318484758026897907e-05) (66, 8.64310655742883682251e-04) (67, -6.28499547019600868225e-05) (68, 5.37003579665906727314e-05) (69, -4.16668626712635159492e-06) (65, 3.25062574120238423347e-04) (66, -9.67029918683692812920e-05) (67, 2.18427492654882371426e-04) (68, 8.67631315486505627632e-05) (69, 1.26284008729271590710e-04) (65, 1.30686501506716012955e-04) (66, 1.91184968571178615093e-04) (67, -1.73426778928842395544e-05) (68, 2.91663200187031179667e-05) (69, 1.68599028256721794605e-04) (65, 1.64821496582590043545e-04) (66, 4.34305147791747003794e-05) (67, 1.98142821318469941616e-04) (68, 8.84132605278864502907e-05) (69, 1.31522072479128837585e-04) (65, 2.57913896348327398300e-04) (66, 8.87987029273062944412e-04) (67, -4.91449827677570283413e-06) (68, 1.39222582220099866390e-04) (69, 7.04706035321578383446e-05) (65, -1.10960856545716524124e-04) (66, 3.85117455152794718742e-04) (67, 4.92905455757863819599e-05) (68, 5.04554554936476051807e-05) (69, 8.94368713488802313805e-06) (65, 4.56367415608838200569e-05) (66, -8.32820078358054161072e-05) (67, 5.68121322430670261383e-07) (68, 7.79500260250642895699e-05) (69, 3.60174199158791452646e-05) (65, 1.76108806044794619083e-04) (66, 1.06851395685225725174e-03) (67, -4.95273234264459460974e-05) (68, 1.02281148429028689861e-04) (69, 8.04941664682701230049e-05) (65, 1.54039604240097105503e-04) (66, 1.74240834894590079784e-04) (67, 1.66689729667268693447e-04) (68, 8.91766540007665753365e-05) (69, 1.11707442556507885456e-04) (65, -8.38108753669075667858e-05) (66, 5.79294792260043323040e-05) (67, -1.88738631550222635269e-04) (68, -1.47918879520148038864e-04) (69, -3.42060229741036891937e-05) 
