FANN_FLO_2.1
num_layers=4
learning_rate=0.500000
connection_rate=1.000000
network_type=0
learning_momentum=0.000000
training_algorithm=2
train_error_function=1
train_stop_function=0
cascade_output_change_fraction=0.010000
quickprop_decay=-0.000100
quickprop_mu=1.750000
rprop_increase_factor=1.200000
rprop_decrease_factor=0.500000
rprop_delta_min=0.000000
rprop_delta_max=50.000000
rprop_delta_zero=0.100000
cascade_output_stagnation_epochs=12
cascade_candidate_change_fraction=0.010000
cascade_candidate_stagnation_epochs=12
cascade_max_out_epochs=150
cascade_min_out_epochs=50
cascade_max_cand_epochs=150
cascade_min_cand_epochs=50
cascade_num_candidate_groups=2
bit_fail_limit=3.49999994039535522461e-01
cascade_candidate_limit=1.00000000000000000000e+03
cascade_weight_multiplier=4.00000005960464477539e-01
cascade_activation_functions_count=10
cascade_activation_functions=3 5 7 8 10 11 14 15 16 17 
cascade_activation_steepnesses_count=4
cascade_activation_steepnesses=2.50000000000000000000e-01 5.00000000000000000000e-01 7.50000000000000000000e-01 1.00000000000000000000e+00 
layer_sizes=10 5 5 2 
scale_included=0
neurons (num_inputs, activation_function, activation_steepness)=(0, 0, 0.00000000000000000000e+00) (0, 0, 0.00000000000000000000e+00) (0, 0, 0.00000000000000000000e+00) (0, 0, 0.00000000000000000000e+00) (0, 0, 0.00000000000000000000e+00) (0, 0, 0.00000000000000000000e+00) (0, 0, 0.00000000000000000000e+00) (0, 0, 0.00000000000000000000e+00) (0, 0, 0.00000000000000000000e+00) (0, 0, 0.00000000000000000000e+00) (10, 3, 5.00000000000000000000e-01) (10, 3, 5.00000000000000000000e-01) (10, 3, 5.00000000000000000000e-01) (10, 3, 5.00000000000000000000e-01) (0, 3, 0.00000000000000000000e+00) (5, 3, 5.00000000000000000000e-01) (5, 3, 5.00000000000000000000e-01) (5, 3, 5.00000000000000000000e-01) (5, 3, 5.00000000000000000000e-01) (0, 3, 0.00000000000000000000e+00) (5, 3, 5.00000000000000000000e-01) (0, 3, 0.00000000000000000000e+00) 
connections (connected_to_neuron, weight)=(0, 1.50000000000000000000e+03) (1, 1.50000000000000000000e+03) (2, 1.50000000000000000000e+03) (3, -5.99666870117187500000e+02) (4, -1.50000000000000000000e+03) (5, 1.50000000000000000000e+03) (6, -1.50000000000000000000e+03) (7, -1.50000000000000000000e+03) (8, -6.42751281738281250000e+02) (9, -1.07859730720520019531e+00) (0, 1.50000000000000000000e+03) (1, 1.50000000000000000000e+03) (2, 1.50000000000000000000e+03) (3, -7.76010253906250000000e+02) (4, -1.03737219238281250000e+03) (5, 1.50000000000000000000e+03) (6, -1.50000000000000000000e+03) (7, -1.50000000000000000000e+03) (8, -1.08569604492187500000e+03) (9, 4.90849345922470092773e-01) (0, 1.50000000000000000000e+03) (1, 1.50000000000000000000e+03) (2, 1.50000000000000000000e+03) (3, -1.27796105957031250000e+03) (4, -1.50000000000000000000e+03) (5, 1.50000000000000000000e+03) (6, -1.50000000000000000000e+03) (7, -1.50000000000000000000e+03) (8, -1.50000000000000000000e+03) (9, 1.54430923461914062500e+01) (0, -4.42242193222045898438e+00) (1, -1.49243164062500000000e+00) (2, -1.31223926544189453125e+01) (3, -1.37945187091827392578e+00) (4, -9.20828342437744140625e+00) (5, 7.02629041671752929688e+00) (6, 8.29191684722900390625e+00) (7, 1.60467185974121093750e+01) (8, -1.19982337951660156250e+00) (9, 3.73533082008361816406e+00) (10, -1.50000000000000000000e+03) (11, -1.50000000000000000000e+03) (12, -1.37332153320312500000e+03) (13, -1.36849288940429687500e+01) (14, 2.99691629409790039062e+00) (10, -1.59360866546630859375e+01) (11, -5.38778781890869140625e+00) (12, 2.13244247436523437500e+00) (13, 2.87963275909423828125e+01) (14, 2.06020951271057128906e+00) (10, -1.50000000000000000000e+03) (11, -1.50000000000000000000e+03) (12, -1.37332153320312500000e+03) (13, -1.19026708984375000000e+03) (14, 4.89601802825927734375e+00) (10, -1.50000000000000000000e+03) (11, -1.50000000000000000000e+03) (12, -1.37332153320312500000e+03) (13, -1.19026708984375000000e+03) (14, 1.24942693710327148438e+01) (15, 1.50000000000000000000e+03) (16, -1.23026657104492187500e+00) (17, 1.50000000000000000000e+03) (18, 1.50000000000000000000e+03) (19, 8.76122653484344482422e-01) 
