FANN_FLO_2.1
num_layers=4
learning_rate=0.400000
connection_rate=1.000000
network_type=0
learning_momentum=0.000000
training_algorithm=2
train_error_function=1
train_stop_function=0
cascade_output_change_fraction=0.010000
quickprop_decay=-0.000100
quickprop_mu=1.750000
rprop_increase_factor=1.200000
rprop_decrease_factor=0.500000
rprop_delta_min=0.000000
rprop_delta_max=50.000000
rprop_delta_zero=0.100000
cascade_output_stagnation_epochs=12
cascade_candidate_change_fraction=0.010000
cascade_candidate_stagnation_epochs=12
cascade_max_out_epochs=150
cascade_min_out_epochs=50
cascade_max_cand_epochs=150
cascade_min_cand_epochs=50
cascade_num_candidate_groups=2
bit_fail_limit=3.49999994039535522461e-01
cascade_candidate_limit=1.00000000000000000000e+03
cascade_weight_multiplier=4.00000005960464477539e-01
cascade_activation_functions_count=10
cascade_activation_functions=3 5 7 8 10 11 14 15 16 17 
cascade_activation_steepnesses_count=4
cascade_activation_steepnesses=2.50000000000000000000e-01 5.00000000000000000000e-01 7.50000000000000000000e-01 1.00000000000000000000e+00 
layer_sizes=7 9 9 2 
scale_included=0
neurons (num_inputs, activation_function, activation_steepness)=(0, 0, 0.00000000000000000000e+00) (0, 0, 0.00000000000000000000e+00) (0, 0, 0.00000000000000000000e+00) (0, 0, 0.00000000000000000000e+00) (0, 0, 0.00000000000000000000e+00) (0, 0, 0.00000000000000000000e+00) (0, 0, 0.00000000000000000000e+00) (7, 3, 5.00000000000000000000e-01) (7, 3, 5.00000000000000000000e-01) (7, 3, 5.00000000000000000000e-01) (7, 3, 5.00000000000000000000e-01) (7, 3, 5.00000000000000000000e-01) (7, 3, 5.00000000000000000000e-01) (7, 3, 5.00000000000000000000e-01) (7, 3, 5.00000000000000000000e-01) (0, 3, 0.00000000000000000000e+00) (9, 3, 5.00000000000000000000e-01) (9, 3, 5.00000000000000000000e-01) (9, 3, 5.00000000000000000000e-01) (9, 3, 5.00000000000000000000e-01) (9, 3, 5.00000000000000000000e-01) (9, 3, 5.00000000000000000000e-01) (9, 3, 5.00000000000000000000e-01) (9, 3, 5.00000000000000000000e-01) (0, 3, 0.00000000000000000000e+00) (9, 3, 5.00000000000000000000e-01) (0, 3, 0.00000000000000000000e+00) 
connections (connected_to_neuron, weight)=(0, 2.21344637870788574219e+00) (1, -4.09581899642944335938e+00) (2, 3.98447203636169433594e+00) (3, -3.74124026298522949219e+00) (4, -1.09930682182312011719e+00) (5, 3.75839328765869140625e+00) (6, 5.18790245056152343750e-01) (0, 1.02168922424316406250e+01) (1, -1.00029029846191406250e+01) (2, 1.84587430953979492188e+00) (3, -7.14064300060272216797e-01) (4, 2.93922632932662963867e-01) (5, 5.70023059844970703125e+00) (6, -5.05030918121337890625e+00) (0, 1.50000000000000000000e+03) (1, 3.87848205566406250000e+02) (2, 1.45473901367187500000e+03) (3, 1.50000000000000000000e+03) (4, 1.50000000000000000000e+03) (5, 2.01068758964538574219e+00) (6, 5.90996217727661132812e+00) (0, -6.93624877929687500000e+00) (1, 2.32389760017395019531e+00) (2, 6.06944580078125000000e+01) (3, -6.86653747558593750000e+01) (4, -2.42516660690307617188e+00) (5, -1.31487463378906250000e+03) (6, 1.14154458045959472656e+00) (0, 3.92780227661132812500e+01) (1, 3.72964739799499511719e+00) (2, 8.40817932128906250000e+02) (3, -1.19539299011230468750e+02) (4, -7.34138717651367187500e+01) (5, -2.91478767395019531250e+01) (6, -5.88113250732421875000e+01) (0, -4.48213219642639160156e-01) (1, -7.33661746978759765625e+00) (2, 8.05404567718505859375e+00) (3, -1.04898986816406250000e+01) (4, -2.28340435028076171875e+00) (5, 9.81012916564941406250e+00) (6, 2.52898168563842773438e+00) (0, -7.82699871063232421875e+00) (1, 6.15544271469116210938e+00) (2, -4.70686864852905273438e+00) (3, -5.02255058288574218750e+00) (4, -1.85973453521728515625e+00) (5, -1.42715917968750000000e+03) (6, 3.62283563613891601562e+00) (0, 1.49075520038604736328e+00) (1, -3.62980437278747558594e+00) (2, -1.22726619243621826172e+00) (3, -9.49139308929443359375e+00) (4, -2.71535992622375488281e+00) (5, 1.13081722259521484375e+01) (6, 4.41088104248046875000e+00) (7, 1.39299731445312500000e+03) (8, 1.49864233398437500000e+03) (9, 1.81124649047851562500e+02) (10, 1.34080004882812500000e+03) (11, -1.41677198410034179688e+01) (12, 1.49988293457031250000e+03) (13, 2.70962219238281250000e+02) (14, -6.62866638183593750000e+02) (15, -5.83255271911621093750e+01) (7, 4.15333414077758789062e+00) (8, 1.13257627487182617188e+01) (9, -3.93531894683837890625e+00) (10, 1.34080004882812500000e+03) (11, -2.72067021578550338745e-02) (12, 5.87506389617919921875e+00) (13, 1.57698688507080078125e+01) (14, -1.02977991104125976562e+01) (15, -3.15255928039550781250e+00) (7, 3.27131581306457519531e+00) (8, 3.97772169113159179688e+00) (9, -1.30328309535980224609e+00) (10, 1.34080004882812500000e+03) (11, -1.99474906921386718750e+00) (12, 3.64281415939331054688e+00) (13, 4.18473701477050781250e+01) (14, -1.79972127079963684082e-01) (15, -3.72060632705688476562e+00) (7, 1.46856652832031250000e+03) (8, 1.49864233398437500000e+03) (9, 4.86976959228515625000e+02) (10, 1.34080004882812500000e+03) (11, -1.41677198410034179688e+01) (12, 1.49988293457031250000e+03) (13, 3.49097839355468750000e+02) (14, -1.48880261230468750000e+03) (15, -1.46131765842437744141e+00) (7, 1.32299755859375000000e+03) (8, 1.49864233398437500000e+03) (9, -5.70048255920410156250e+01) (10, 1.34080004882812500000e+03) (11, -1.41677198410034179688e+01) (12, 1.49988293457031250000e+03) (13, 4.26805877685546875000e+02) (14, -7.00106018066406250000e+02) (15, -3.58056831359863281250e+00) (7, 1.37712829589843750000e+03) (8, 1.49864233398437500000e+03) (9, 1.26522094726562500000e+03) (10, 1.34080004882812500000e+03) (11, -1.41677198410034179688e+01) (12, 1.49988293457031250000e+03) (13, 2.40362197875976562500e+02) (14, -1.41202819824218750000e+03) (15, -9.91661310195922851562e-01) (7, 1.38966760253906250000e+03) (8, 1.49829797363281250000e+03) (9, 3.01387603759765625000e+02) (10, 1.34080004882812500000e+03) (11, -1.41677198410034179688e+01) (12, 1.49988293457031250000e+03) (13, 3.14626007080078125000e+02) (14, -6.66519592285156250000e+02) (15, -7.20664680004119873047e-01) (7, -6.57157802581787109375e+00) (8, 5.37851409912109375000e+01) (9, -8.28689765930175781250e+00) (10, 1.34080004882812500000e+03) (11, -1.41677198410034179688e+01) (12, 1.71563751220703125000e+02) (13, 5.81460723876953125000e+01) (14, -2.28660621643066406250e+01) (15, -5.06182479858398437500e+00) (16, -2.88471043109893798828e-01) (17, -3.71735882759094238281e+00) (18, -7.78524279594421386719e-01) (19, -1.23442009091377258301e-01) (20, -1.27111837267875671387e-01) (21, -1.82206526398658752441e-01) (22, -2.04656884074211120605e-01) (23, -2.60622352361679077148e-01) (24, -2.24509745836257934570e-01) 
