FANN_FLO_2.1
num_layers=4
learning_rate=0.500000
connection_rate=1.000000
network_type=0
learning_momentum=0.000000
training_algorithm=2
train_error_function=1
train_stop_function=0
cascade_output_change_fraction=0.010000
quickprop_decay=-0.000100
quickprop_mu=1.750000
rprop_increase_factor=1.200000
rprop_decrease_factor=0.500000
rprop_delta_min=0.000000
rprop_delta_max=50.000000
rprop_delta_zero=0.100000
cascade_output_stagnation_epochs=12
cascade_candidate_change_fraction=0.010000
cascade_candidate_stagnation_epochs=12
cascade_max_out_epochs=150
cascade_min_out_epochs=50
cascade_max_cand_epochs=150
cascade_min_cand_epochs=50
cascade_num_candidate_groups=2
bit_fail_limit=3.49999994039535522461e-01
cascade_candidate_limit=1.00000000000000000000e+03
cascade_weight_multiplier=4.00000005960464477539e-01
cascade_activation_functions_count=10
cascade_activation_functions=3 5 7 8 10 11 14 15 16 17 
cascade_activation_steepnesses_count=4
cascade_activation_steepnesses=2.50000000000000000000e-01 5.00000000000000000000e-01 7.50000000000000000000e-01 1.00000000000000000000e+00 
layer_sizes=2 5 5 3 
scale_included=0
neurons (num_inputs, activation_function, activation_steepness)=(0, 0, 0.00000000000000000000e+00) (0, 0, 0.00000000000000000000e+00) (2, 3, 5.00000000000000000000e-01) (2, 3, 5.00000000000000000000e-01) (2, 3, 5.00000000000000000000e-01) (2, 3, 5.00000000000000000000e-01) (0, 3, 0.00000000000000000000e+00) (5, 3, 5.00000000000000000000e-01) (5, 3, 5.00000000000000000000e-01) (5, 3, 5.00000000000000000000e-01) (5, 3, 5.00000000000000000000e-01) (0, 3, 0.00000000000000000000e+00) (5, 0, 5.00000000000000000000e-01) (5, 0, 5.00000000000000000000e-01) (0, 0, 0.00000000000000000000e+00) 
connections (connected_to_neuron, weight)=(0, -5.13513679504394531250e+01) (1, 2.43385868072509765625e+01) (0, 1.51446352005004882812e+01) (1, -2.27172660827636718750e+00) (0, 1.49254626464843750000e+03) (1, -4.26707124710083007812e+00) (0, 4.66807891845703125000e+02) (1, -2.09320106506347656250e+01) (2, -1.45753417968750000000e+03) (3, -1.04249694824218750000e+03) (4, -1.49967797851562500000e+03) (5, -1.49146166992187500000e+03) (6, -1.74546992778778076172e+00) (2, 3.84661412239074707031e+00) (3, 5.34220886230468750000e+00) (4, 4.80143096923828125000e+02) (5, -4.74357635498046875000e+02) (6, -8.00115489959716796875e+00) (2, -1.09647417068481445312e+00) (3, -3.03693628311157226562e+00) (4, -1.07911384105682373047e+00) (5, -1.68085908889770507812e+00) (6, 5.88996124267578125000e+00) (2, 1.26098394393920898438e+00) (3, -1.31575050354003906250e+01) (4, 7.60756969451904296875e+00) (5, 8.39774250984191894531e-01) (6, 3.14746999740600585938e+00) (7, 1.50000000000000000000e+03) (8, -6.87189280986785888672e-01) (9, 3.67493700981140136719e+00) (10, -2.95459818840026855469e+00) (11, -1.70365810394287109375e-01) (7, 1.50000000000000000000e+03) (8, -3.71772170066833496094e+00) (9, 2.46642470359802246094e+00) (10, 3.45544171333312988281e+00) (11, -2.40003600716590881348e-01) 
