FANN_FLO_2.1
num_layers=3
learning_rate=0.400000
connection_rate=1.000000
network_type=0
learning_momentum=0.000000
training_algorithm=2
train_error_function=1
train_stop_function=0
cascade_output_change_fraction=0.010000
quickprop_decay=-0.000100
quickprop_mu=1.750000
rprop_increase_factor=1.200000
rprop_decrease_factor=0.500000
rprop_delta_min=0.000000
rprop_delta_max=50.000000
rprop_delta_zero=0.100000
cascade_output_stagnation_epochs=12
cascade_candidate_change_fraction=0.010000
cascade_candidate_stagnation_epochs=12
cascade_max_out_epochs=150
cascade_min_out_epochs=50
cascade_max_cand_epochs=150
cascade_min_cand_epochs=50
cascade_num_candidate_groups=2
bit_fail_limit=3.49999994039535522461e-01
cascade_candidate_limit=1.00000000000000000000e+03
cascade_weight_multiplier=4.00000005960464477539e-01
cascade_activation_functions_count=10
cascade_activation_functions=3 5 7 8 10 11 14 15 16 17 
cascade_activation_steepnesses_count=4
cascade_activation_steepnesses=2.50000000000000000000e-01 5.00000000000000000000e-01 7.50000000000000000000e-01 1.00000000000000000000e+00 
layer_sizes=7 9 2 
scale_included=0
neurons (num_inputs, activation_function, activation_steepness)=(0, 0, 0.00000000000000000000e+00) (0, 0, 0.00000000000000000000e+00) (0, 0, 0.00000000000000000000e+00) (0, 0, 0.00000000000000000000e+00) (0, 0, 0.00000000000000000000e+00) (0, 0, 0.00000000000000000000e+00) (0, 0, 0.00000000000000000000e+00) (7, 3, 5.00000000000000000000e-01) (7, 3, 5.00000000000000000000e-01) (7, 3, 5.00000000000000000000e-01) (7, 3, 5.00000000000000000000e-01) (7, 3, 5.00000000000000000000e-01) (7, 3, 5.00000000000000000000e-01) (7, 3, 5.00000000000000000000e-01) (7, 3, 5.00000000000000000000e-01) (0, 3, 0.00000000000000000000e+00) (9, 3, 5.00000000000000000000e-01) (0, 3, 0.00000000000000000000e+00) 
connections (connected_to_neuron, weight)=(0, 6.05780506134033203125e+00) (1, -1.08088158071041107178e-01) (2, -4.41112422943115234375e+00) (3, 3.36247038841247558594e+00) (4, 2.10958838462829589844e+00) (5, -9.31386053562164306641e-01) (6, -1.20406079292297363281e+00) (0, 1.00051987171173095703e+00) (1, 9.43136632442474365234e-01) (2, 7.39405035972595214844e-01) (3, -5.36682903766632080078e-01) (4, -1.13912880420684814453e+00) (5, 2.40808439254760742188e+00) (6, 2.25163125991821289062e+00) (0, 7.43400275707244873047e-01) (1, 2.45110601186752319336e-01) (2, -6.28237199783325195312e+00) (3, 2.04849267005920410156e+00) (4, -4.28180122375488281250e+00) (5, 1.04993419647216796875e+01) (6, 2.13546705245971679688e+00) (0, -1.65156483650207519531e+00) (1, -1.57866585254669189453e+00) (2, -1.46902132034301757812e+00) (3, 2.29262685775756835938e+00) (4, -1.60130470991134643555e-01) (5, 6.89743328094482421875e+00) (6, -4.36120843887329101562e+00) (0, 1.12200725078582763672e+00) (1, 9.56227481365203857422e-01) (2, -2.20035886764526367188e+00) (3, -1.01967883110046386719e+00) (4, -1.99477696418762207031e+00) (5, 6.16389083862304687500e+00) (6, 9.46496486663818359375e-01) (0, -2.55555415153503417969e+00) (1, 6.85213029384613037109e-01) (2, -1.42167603969573974609e+00) (3, 4.31647419929504394531e-01) (4, -6.00400507450103759766e-01) (5, 1.32003104686737060547e+00) (6, 1.05959737300872802734e+00) (0, -3.72484660148620605469e+00) (1, -2.73888707160949707031e+00) (2, -1.71468305587768554688e+00) (3, 9.86401259899139404297e-01) (4, 2.75247812271118164062e+00) (5, 3.86742532253265380859e-01) (6, -1.66667258739471435547e+00) (0, 2.00276899337768554688e+00) (1, -4.93038415908813476562e-01) (2, 4.04281429946422576904e-02) (3, 9.25016701221466064453e-01) (4, 1.79667007923126220703e+00) (5, -2.99579114653170108795e-03) (6, -4.89271104335784912109e-01) (7, 8.90329182147979736328e-01) (8, -5.64499497413635253906e-01) (9, -2.01000690460205078125e+00) (10, 3.22163367271423339844e+00) (11, -6.05108201503753662109e-01) (12, -7.38904237747192382812e-01) (13, 6.08151626586914062500e+00) (14, 7.78829514980316162109e-01) (15, -9.52385514974594116211e-02) 
