FANN_FLO_2.1
num_layers=4
learning_rate=0.500000
connection_rate=1.000000
network_type=0
learning_momentum=0.000000
training_algorithm=2
train_error_function=1
train_stop_function=0
cascade_output_change_fraction=0.010000
quickprop_decay=-0.000100
quickprop_mu=1.750000
rprop_increase_factor=1.200000
rprop_decrease_factor=0.500000
rprop_delta_min=0.000000
rprop_delta_max=50.000000
rprop_delta_zero=0.100000
cascade_output_stagnation_epochs=12
cascade_candidate_change_fraction=0.010000
cascade_candidate_stagnation_epochs=12
cascade_max_out_epochs=150
cascade_min_out_epochs=50
cascade_max_cand_epochs=150
cascade_min_cand_epochs=50
cascade_num_candidate_groups=2
bit_fail_limit=3.49999994039535522461e-01
cascade_candidate_limit=1.00000000000000000000e+03
cascade_weight_multiplier=4.00000005960464477539e-01
cascade_activation_functions_count=10
cascade_activation_functions=3 5 7 8 10 11 14 15 16 17 
cascade_activation_steepnesses_count=4
cascade_activation_steepnesses=2.50000000000000000000e-01 5.00000000000000000000e-01 7.50000000000000000000e-01 1.00000000000000000000e+00 
layer_sizes=10 3 3 2 
scale_included=0
neurons (num_inputs, activation_function, activation_steepness)=(0, 0, 0.00000000000000000000e+00) (0, 0, 0.00000000000000000000e+00) (0, 0, 0.00000000000000000000e+00) (0, 0, 0.00000000000000000000e+00) (0, 0, 0.00000000000000000000e+00) (0, 0, 0.00000000000000000000e+00) (0, 0, 0.00000000000000000000e+00) (0, 0, 0.00000000000000000000e+00) (0, 0, 0.00000000000000000000e+00) (0, 0, 0.00000000000000000000e+00) (10, 3, 5.00000000000000000000e-01) (10, 3, 5.00000000000000000000e-01) (0, 3, 0.00000000000000000000e+00) (3, 3, 5.00000000000000000000e-01) (3, 3, 5.00000000000000000000e-01) (0, 3, 0.00000000000000000000e+00) (3, 3, 5.00000000000000000000e-01) (0, 3, 0.00000000000000000000e+00) 
connections (connected_to_neuron, weight)=(0, -6.53333091735839843750e+00) (1, -6.60186100006103515625e+00) (2, -2.23519110679626464844e+00) (3, 3.54195595718920230865e-03) (4, -3.31707310676574707031e+00) (5, 2.55706858634948730469e+00) (6, 4.37300157546997070312e+00) (7, 7.63208627700805664062e+00) (8, 9.16263294219970703125e+00) (9, -1.71118104457855224609e+00) (0, -1.32895431518554687500e+01) (1, -4.76035976409912109375e+00) (2, -1.67716550827026367188e+00) (3, -2.07802486419677734375e+00) (4, -1.38087809085845947266e+00) (5, -4.06995105743408203125e+00) (6, 2.81674957275390625000e+00) (7, 1.04600696563720703125e+01) (8, 2.11535472869873046875e+01) (9, -5.02299070358276367188e+00) (10, -8.43026733398437500000e+00) (11, -2.04248313903808593750e+01) (12, 4.46458244323730468750e+00) (10, -9.03582477569580078125e+00) (11, 2.33331012725830078125e+01) (12, -1.08767330646514892578e+00) (13, 1.78480672836303710938e+00) (14, 2.34283542633056640625e+00) (15, -1.46608316898345947266e+00) 
