FANN_FLO_2.1
num_layers=3
learning_rate=0.500000
connection_rate=1.000000
network_type=0
learning_momentum=0.000000
training_algorithm=2
train_error_function=1
train_stop_function=0
cascade_output_change_fraction=0.010000
quickprop_decay=-0.000100
quickprop_mu=1.750000
rprop_increase_factor=1.200000
rprop_decrease_factor=0.500000
rprop_delta_min=0.000000
rprop_delta_max=50.000000
rprop_delta_zero=0.100000
cascade_output_stagnation_epochs=12
cascade_candidate_change_fraction=0.010000
cascade_candidate_stagnation_epochs=12
cascade_max_out_epochs=150
cascade_min_out_epochs=50
cascade_max_cand_epochs=150
cascade_min_cand_epochs=50
cascade_num_candidate_groups=2
bit_fail_limit=3.49999994039535522461e-01
cascade_candidate_limit=1.00000000000000000000e+03
cascade_weight_multiplier=4.00000005960464477539e-01
cascade_activation_functions_count=10
cascade_activation_functions=3 5 7 8 10 11 14 15 16 17 
cascade_activation_steepnesses_count=4
cascade_activation_steepnesses=2.50000000000000000000e-01 5.00000000000000000000e-01 7.50000000000000000000e-01 1.00000000000000000000e+00 
layer_sizes=10 5 2 
scale_included=0
neurons (num_inputs, activation_function, activation_steepness)=(0, 0, 0.00000000000000000000e+00) (0, 0, 0.00000000000000000000e+00) (0, 0, 0.00000000000000000000e+00) (0, 0, 0.00000000000000000000e+00) (0, 0, 0.00000000000000000000e+00) (0, 0, 0.00000000000000000000e+00) (0, 0, 0.00000000000000000000e+00) (0, 0, 0.00000000000000000000e+00) (0, 0, 0.00000000000000000000e+00) (0, 0, 0.00000000000000000000e+00) (10, 3, 5.00000000000000000000e-01) (10, 3, 5.00000000000000000000e-01) (10, 3, 5.00000000000000000000e-01) (10, 3, 5.00000000000000000000e-01) (0, 3, 0.00000000000000000000e+00) (5, 3, 5.00000000000000000000e-01) (0, 3, 0.00000000000000000000e+00) 
connections (connected_to_neuron, weight)=(0, 8.92454683780670166016e-01) (1, 1.39711356163024902344e+00) (2, -1.13073647022247314453e+00) (3, -1.04210197925567626953e-01) (4, -2.92909574508666992188e+00) (5, 2.58280336856842041016e-01) (6, 1.42684352397918701172e+00) (7, -1.17908067703247070312e+01) (8, -3.68453836441040039062e+00) (9, 9.06803226470947265625e+00) (0, 1.04910812377929687500e+01) (1, 1.56740653514862060547e+00) (2, -2.23185634613037109375e+00) (3, 1.35625243186950683594e-01) (4, -1.39551019668579101562e+00) (5, 3.75305533409118652344e-01) (6, 2.68499732017517089844e+00) (7, -3.09644412994384765625e+00) (8, -1.51224489212036132812e+01) (9, 3.22541475296020507812e+00) (0, 5.23440885543823242188e+00) (1, 1.92609906196594238281e+00) (2, -1.38557887077331542969e+00) (3, -1.25007659196853637695e-01) (4, -6.87321090698242187500e+00) (5, 1.51326894760131835938e-01) (6, 8.56295049190521240234e-01) (7, -5.87865495681762695312e+00) (8, -3.50648832321166992188e+00) (9, 4.97678613662719726562e+00) (0, -9.54095482826232910156e-01) (1, -4.20256185531616210938e+00) (2, -8.45358657836914062500e+00) (3, -6.43309307098388671875e+00) (4, 3.22652006149291992188e+00) (5, 2.56176710128784179688e+00) (6, 5.99568939208984375000e+00) (7, 1.05991053581237792969e+00) (8, 2.58490967750549316406e+00) (9, 2.44914636015892028809e-01) (10, 3.34988689422607421875e+00) (11, 6.06895685195922851562e-01) (12, 1.32396543025970458984e+00) (13, 4.20393228530883789062e+00) (14, -4.36331844329833984375e+00) 
