FANN_FLO_2.1
num_layers=3
learning_rate=0.500000
connection_rate=1.000000
network_type=0
learning_momentum=0.000000
training_algorithm=2
train_error_function=1
train_stop_function=0
cascade_output_change_fraction=0.010000
quickprop_decay=-0.000100
quickprop_mu=1.750000
rprop_increase_factor=1.200000
rprop_decrease_factor=0.500000
rprop_delta_min=0.000000
rprop_delta_max=50.000000
rprop_delta_zero=0.100000
cascade_output_stagnation_epochs=12
cascade_candidate_change_fraction=0.010000
cascade_candidate_stagnation_epochs=12
cascade_max_out_epochs=150
cascade_min_out_epochs=50
cascade_max_cand_epochs=150
cascade_min_cand_epochs=50
cascade_num_candidate_groups=2
bit_fail_limit=3.49999994039535522461e-01
cascade_candidate_limit=1.00000000000000000000e+03
cascade_weight_multiplier=4.00000005960464477539e-01
cascade_activation_functions_count=10
cascade_activation_functions=3 5 7 8 10 11 14 15 16 17 
cascade_activation_steepnesses_count=4
cascade_activation_steepnesses=2.50000000000000000000e-01 5.00000000000000000000e-01 7.50000000000000000000e-01 1.00000000000000000000e+00 
layer_sizes=10 3 2 
scale_included=0
neurons (num_inputs, activation_function, activation_steepness)=(0, 0, 0.00000000000000000000e+00) (0, 0, 0.00000000000000000000e+00) (0, 0, 0.00000000000000000000e+00) (0, 0, 0.00000000000000000000e+00) (0, 0, 0.00000000000000000000e+00) (0, 0, 0.00000000000000000000e+00) (0, 0, 0.00000000000000000000e+00) (0, 0, 0.00000000000000000000e+00) (0, 0, 0.00000000000000000000e+00) (0, 0, 0.00000000000000000000e+00) (10, 3, 5.00000000000000000000e-01) (10, 3, 5.00000000000000000000e-01) (0, 3, 0.00000000000000000000e+00) (3, 3, 5.00000000000000000000e-01) (0, 3, 0.00000000000000000000e+00) 
connections (connected_to_neuron, weight)=(0, 3.75370526313781738281e+00) (1, 5.31034708023071289062e+00) (2, -6.65614414215087890625e+00) (3, -2.12691843509674072266e-01) (4, 3.55584716796875000000e+00) (5, 4.23231697082519531250e+00) (6, -5.76467227935791015625e+00) (7, 1.43941259384155273438e+00) (8, -3.99239206314086914062e+00) (9, 1.34946656227111816406e+00) (0, -2.45302215218544006348e-01) (1, 1.80247306823730468750e+01) (2, -1.69531905651092529297e+00) (3, -9.99206733703613281250e+00) (4, 1.08835048675537109375e+01) (5, 2.73734641075134277344e+00) (6, -2.15804076194763183594e+00) (7, -6.91517639160156250000e+00) (8, -1.09146776199340820312e+01) (9, -1.28953528404235839844e+00) (10, -2.71909761428833007812e+00) (11, 3.48894739151000976562e+00) (12, 1.95843249559402465820e-01) 
