FANN_FLO_2.1
num_layers=3
learning_rate=0.400000
connection_rate=1.000000
network_type=0
learning_momentum=0.000000
training_algorithm=2
train_error_function=1
train_stop_function=0
cascade_output_change_fraction=0.010000
quickprop_decay=-0.000100
quickprop_mu=1.750000
rprop_increase_factor=1.200000
rprop_decrease_factor=0.500000
rprop_delta_min=0.000000
rprop_delta_max=50.000000
rprop_delta_zero=0.100000
cascade_output_stagnation_epochs=12
cascade_candidate_change_fraction=0.010000
cascade_candidate_stagnation_epochs=12
cascade_max_out_epochs=150
cascade_min_out_epochs=50
cascade_max_cand_epochs=150
cascade_min_cand_epochs=50
cascade_num_candidate_groups=2
bit_fail_limit=3.49999994039535522461e-01
cascade_candidate_limit=1.00000000000000000000e+03
cascade_weight_multiplier=4.00000005960464477539e-01
cascade_activation_functions_count=10
cascade_activation_functions=3 5 7 8 10 11 14 15 16 17 
cascade_activation_steepnesses_count=4
cascade_activation_steepnesses=2.50000000000000000000e-01 5.00000000000000000000e-01 7.50000000000000000000e-01 1.00000000000000000000e+00 
layer_sizes=7 9 2 
scale_included=0
neurons (num_inputs, activation_function, activation_steepness)=(0, 0, 0.00000000000000000000e+00) (0, 0, 0.00000000000000000000e+00) (0, 0, 0.00000000000000000000e+00) (0, 0, 0.00000000000000000000e+00) (0, 0, 0.00000000000000000000e+00) (0, 0, 0.00000000000000000000e+00) (0, 0, 0.00000000000000000000e+00) (7, 3, 5.00000000000000000000e-01) (7, 3, 5.00000000000000000000e-01) (7, 3, 5.00000000000000000000e-01) (7, 3, 5.00000000000000000000e-01) (7, 3, 5.00000000000000000000e-01) (7, 3, 5.00000000000000000000e-01) (7, 3, 5.00000000000000000000e-01) (7, 3, 5.00000000000000000000e-01) (0, 3, 0.00000000000000000000e+00) (9, 3, 5.00000000000000000000e-01) (0, 3, 0.00000000000000000000e+00) 
connections (connected_to_neuron, weight)=(0, 8.24837625026702880859e-01) (1, 1.30327641963958740234e+00) (2, 1.99421441555023193359e+00) (3, -8.05262184143066406250e+00) (4, 4.50714159011840820312e+00) (5, -1.15573048591613769531e+00) (6, 1.44964694976806640625e+00) (0, 4.18790340423583984375e+00) (1, 9.46419620513916015625e+00) (2, 3.89213299751281738281e+00) (3, 3.73743742704391479492e-01) (4, -5.28013992309570312500e+00) (5, -4.43377065658569335938e+00) (6, 1.52771756052970886230e-01) (0, 2.97275662422180175781e+00) (1, -7.50908374786376953125e-01) (2, -8.78014683723449707031e-01) (3, 7.79928386211395263672e-01) (4, 1.34113800525665283203e+00) (5, -5.34780979156494140625e-01) (6, 3.95898103713989257812e-01) (0, -2.88189697265625000000e+00) (1, 4.96698200702667236328e-01) (2, 5.13210356235504150391e-01) (3, -1.67854809761047363281e+00) (4, -1.44148194789886474609e+00) (5, 3.97345423698425292969e-01) (6, 9.48571443557739257812e-01) (0, 7.76004612445831298828e-01) (1, 3.94060432910919189453e-01) (2, 4.21664953231811523438e-01) (3, 7.88545548915863037109e-01) (4, 2.59540581703186035156e+00) (5, 4.93755757808685302734e-01) (6, -1.16764879226684570312e+00) (0, -3.71860480308532714844e+00) (1, -1.65546572208404541016e+00) (2, -1.47992455959320068359e+00) (3, 7.04855144023895263672e-01) (4, 1.34658813476562500000e+00) (5, 8.79377555847167968750e+00) (6, -4.68626022338867187500e+00) (0, -2.19960808753967285156e+00) (1, 5.42074024677276611328e-01) (2, -1.00447304546833038330e-01) (3, -1.61216199398040771484e+00) (4, -1.39989244937896728516e+00) (5, 4.05687004327774047852e-01) (6, 9.68194842338562011719e-01) (0, 1.64885497093200683594e+00) (1, 1.08632683753967285156e+00) (2, -5.30874204635620117188e+00) (3, -1.89053618907928466797e+00) (4, -7.15666151046752929688e+00) (5, 1.54938278198242187500e+01) (6, 1.83318614959716796875e+00) (7, -1.18081784248352050781e+00) (8, -1.41401171684265136719e+00) (9, 9.19540226459503173828e-01) (10, -7.25308895111083984375e-01) (11, 1.39039516448974609375e+00) (12, 2.40114569664001464844e+00) (13, -8.15951526165008544922e-01) (14, -2.19652485847473144531e+00) (15, 7.78965115547180175781e-01) 
