FANN_FLO_2.1
num_layers=4
learning_rate=0.500000
connection_rate=1.000000
network_type=0
learning_momentum=0.000000
training_algorithm=2
train_error_function=1
train_stop_function=0
cascade_output_change_fraction=0.010000
quickprop_decay=-0.000100
quickprop_mu=1.750000
rprop_increase_factor=1.200000
rprop_decrease_factor=0.500000
rprop_delta_min=0.000000
rprop_delta_max=50.000000
rprop_delta_zero=0.100000
cascade_output_stagnation_epochs=12
cascade_candidate_change_fraction=0.010000
cascade_candidate_stagnation_epochs=12
cascade_max_out_epochs=150
cascade_min_out_epochs=50
cascade_max_cand_epochs=150
cascade_min_cand_epochs=50
cascade_num_candidate_groups=2
bit_fail_limit=3.49999994039535522461e-01
cascade_candidate_limit=1.00000000000000000000e+03
cascade_weight_multiplier=4.00000005960464477539e-01
cascade_activation_functions_count=10
cascade_activation_functions=3 5 7 8 10 11 14 15 16 17 
cascade_activation_steepnesses_count=4
cascade_activation_steepnesses=2.50000000000000000000e-01 5.00000000000000000000e-01 7.50000000000000000000e-01 1.00000000000000000000e+00 
layer_sizes=10 9 9 2 
scale_included=0
neurons (num_inputs, activation_function, activation_steepness)=(0, 0, 0.00000000000000000000e+00) (0, 0, 0.00000000000000000000e+00) (0, 0, 0.00000000000000000000e+00) (0, 0, 0.00000000000000000000e+00) (0, 0, 0.00000000000000000000e+00) (0, 0, 0.00000000000000000000e+00) (0, 0, 0.00000000000000000000e+00) (0, 0, 0.00000000000000000000e+00) (0, 0, 0.00000000000000000000e+00) (0, 0, 0.00000000000000000000e+00) (10, 3, 5.00000000000000000000e-01) (10, 3, 5.00000000000000000000e-01) (10, 3, 5.00000000000000000000e-01) (10, 3, 5.00000000000000000000e-01) (10, 3, 5.00000000000000000000e-01) (10, 3, 5.00000000000000000000e-01) (10, 3, 5.00000000000000000000e-01) (10, 3, 5.00000000000000000000e-01) (0, 3, 0.00000000000000000000e+00) (9, 3, 5.00000000000000000000e-01) (9, 3, 5.00000000000000000000e-01) (9, 3, 5.00000000000000000000e-01) (9, 3, 5.00000000000000000000e-01) (9, 3, 5.00000000000000000000e-01) (9, 3, 5.00000000000000000000e-01) (9, 3, 5.00000000000000000000e-01) (9, 3, 5.00000000000000000000e-01) (0, 3, 0.00000000000000000000e+00) (9, 3, 5.00000000000000000000e-01) (0, 3, 0.00000000000000000000e+00) 
connections (connected_to_neuron, weight)=(0, -8.92925918102264404297e-01) (1, 7.30840384960174560547e-01) (2, -5.57535886764526367188e+00) (3, 9.32024717330932617188e-01) (4, 8.98081302642822265625e+00) (5, 5.00925970077514648438e+00) (6, -7.07248640060424804688e+00) (7, -4.59730482101440429688e+00) (8, -7.48258924484252929688e+00) (9, 1.09290158748626708984e+00) (0, -1.49652465820312500000e+03) (1, -7.40416625976562500000e+02) (2, -1.50000000000000000000e+03) (3, 1.49998767089843750000e+03) (4, 1.49999914550781250000e+03) (5, 1.50000000000000000000e+03) (6, 1.50000000000000000000e+03) (7, 1.50000000000000000000e+03) (8, 1.49982922363281250000e+03) (9, 6.35558700561523437500e+00) (0, -1.50000000000000000000e+03) (1, -1.50000000000000000000e+03) (2, -1.50000000000000000000e+03) (3, 1.50000000000000000000e+03) (4, 1.50000000000000000000e+03) (5, 1.50000000000000000000e+03) (6, 1.50000000000000000000e+03) (7, 1.50000000000000000000e+03) (8, 1.50000000000000000000e+03) (9, 1.16169190406799316406e+00) (0, 8.71295715332031250000e+02) (1, 1.17565710449218750000e+03) (2, 1.42205822753906250000e+03) (3, -1.41411132812500000000e+03) (4, -1.34060620117187500000e+03) (5, -1.39378967285156250000e+03) (6, -1.50000000000000000000e+03) (7, -1.47811193847656250000e+03) (8, -1.43121789550781250000e+03) (9, -8.55223655700683593750e+00) (0, -1.50000000000000000000e+03) (1, -1.50000000000000000000e+03) (2, -1.50000000000000000000e+03) (3, 1.50000000000000000000e+03) (4, 1.50000000000000000000e+03) (5, 1.49262072753906250000e+03) (6, 1.50000000000000000000e+03) (7, 1.50000000000000000000e+03) (8, 1.49982922363281250000e+03) (9, 8.50511360168457031250e+00) (0, -1.50000000000000000000e+03) (1, -1.50000000000000000000e+03) (2, -1.50000000000000000000e+03) (3, 1.50000000000000000000e+03) (4, 1.50000000000000000000e+03) (5, 1.50000000000000000000e+03) (6, 1.50000000000000000000e+03) (7, 1.50000000000000000000e+03) (8, 1.49982922363281250000e+03) (9, 1.45538208007812500000e+02) (0, 1.08462731933593750000e+03) (1, 1.05099694824218750000e+03) (2, 7.45210449218750000000e+02) (3, -1.47811193847656250000e+03) (4, -1.34150671386718750000e+03) (5, -1.38750061035156250000e+03) (6, -1.50000000000000000000e+03) (7, -1.47811193847656250000e+03) (8, -2.40245025634765625000e+02) (9, -5.90441093444824218750e+01) (0, -1.50000000000000000000e+03) (1, -1.50000000000000000000e+03) (2, -1.50000000000000000000e+03) (3, 1.50000000000000000000e+03) (4, 1.50000000000000000000e+03) (5, 1.49538464355468750000e+03) (6, 1.50000000000000000000e+03) (7, 1.50000000000000000000e+03) (8, 1.49982922363281250000e+03) (9, -4.44878053665161132812e+00) (10, 8.34679641723632812500e+01) (11, -5.35417556762695312500e-01) (12, -7.30370521545410156250e-01) (13, 9.84876037597656250000e+02) (14, -6.00467562675476074219e-01) (15, -7.70388722419738769531e-01) (16, 6.03681213378906250000e+02) (17, -6.22909545898437500000e+00) (18, -1.85444355010986328125e-01) (10, 1.34346065521240234375e+01) (11, -4.57661360502243041992e-01) (12, -7.09102272987365722656e-01) (13, 5.87342895507812500000e+02) (14, -6.04865312576293945312e-01) (15, -6.24830055236816406250e+00) (16, 1.38025354003906250000e+03) (17, -1.60072116851806640625e+01) (18, 1.86682835221290588379e-01) (10, 3.01829223632812500000e+01) (11, -6.18001639842987060547e-01) (12, -3.18046182394027709961e-01) (13, 9.84876037597656250000e+02) (14, -8.87743830680847167969e-01) (15, -7.71091580390930175781e-01) (16, 6.03681213378906250000e+02) (17, 2.03862730413675308228e-02) (18, 7.53104686737060546875e-02) (10, 6.42512588500976562500e+01) (11, -3.85967159271240234375e+00) (12, -8.71086359024047851562e-01) (13, 9.84876037597656250000e+02) (14, -5.53147077560424804688e-01) (15, -2.00078845024108886719e+00) (16, 6.03681213378906250000e+02) (17, 9.47283267974853515625e-01) (18, -2.12350219488143920898e-01) (10, 5.85222740173339843750e+01) (11, -8.51552844047546386719e-01) (12, -9.02213573455810546875e-01) (13, 9.84876037597656250000e+02) (14, -6.01010918617248535156e-01) (15, -6.12242579460144042969e-01) (16, 6.03681213378906250000e+02) (17, -2.72808122634887695312e+00) (18, -1.97984889149665832520e-01) (10, 6.85299634933471679688e-01) (11, -5.64687622070312500000e+02) (12, -1.01970825195312500000e+01) (13, 7.29255798339843750000e+02) (14, -4.86761360168457031250e+01) (15, -5.34650329589843750000e+02) (16, 4.04330047607421875000e+02) (17, -1.10940051269531250000e+03) (18, -2.97988009452819824219e+00) (10, 1.96023178100585937500e+01) (11, -2.68329095840454101562e+00) (12, -2.88917869329452514648e-01) (13, 1.49999340820312500000e+03) (14, -8.27865421772003173828e-01) (15, -1.31098413467407226562e+00) (16, 1.38025354003906250000e+03) (17, 2.86384701728820800781e+00) (18, 1.69617645442485809326e-02) (10, 4.65723907470703125000e+02) (11, -6.60815656185150146484e-01) (12, -7.60654151439666748047e-01) (13, 9.84876037597656250000e+02) (14, -1.20029556751251220703e+00) (15, -1.34690749645233154297e+00) (16, 6.03681213378906250000e+02) (17, -4.64521694183349609375e+00) (18, -2.43864104151725769043e-01) (19, 1.05263292789459228516e+00) (20, -7.62441148981451988220e-03) (21, 5.77602624893188476562e-01) (22, 3.10864746570587158203e-01) (23, 6.19867146015167236328e-01) (24, 1.02917419433593750000e+02) (25, -6.32205188274383544922e-01) (26, 7.63855695724487304688e-01) (27, -1.82838308811187744141e+00) 
