FANN_FLO_2.1
num_layers=4
learning_rate=0.400000
connection_rate=1.000000
network_type=0
learning_momentum=0.000000
training_algorithm=2
train_error_function=1
train_stop_function=0
cascade_output_change_fraction=0.010000
quickprop_decay=-0.000100
quickprop_mu=1.750000
rprop_increase_factor=1.200000
rprop_decrease_factor=0.500000
rprop_delta_min=0.000000
rprop_delta_max=50.000000
rprop_delta_zero=0.100000
cascade_output_stagnation_epochs=12
cascade_candidate_change_fraction=0.010000
cascade_candidate_stagnation_epochs=12
cascade_max_out_epochs=150
cascade_min_out_epochs=50
cascade_max_cand_epochs=150
cascade_min_cand_epochs=50
cascade_num_candidate_groups=2
bit_fail_limit=3.49999994039535522461e-01
cascade_candidate_limit=1.00000000000000000000e+03
cascade_weight_multiplier=4.00000005960464477539e-01
cascade_activation_functions_count=10
cascade_activation_functions=3 5 7 8 10 11 14 15 16 17 
cascade_activation_steepnesses_count=4
cascade_activation_steepnesses=2.50000000000000000000e-01 5.00000000000000000000e-01 7.50000000000000000000e-01 1.00000000000000000000e+00 
layer_sizes=7 5 3 2 
scale_included=0
neurons (num_inputs, activation_function, activation_steepness)=(0, 0, 0.00000000000000000000e+00) (0, 0, 0.00000000000000000000e+00) (0, 0, 0.00000000000000000000e+00) (0, 0, 0.00000000000000000000e+00) (0, 0, 0.00000000000000000000e+00) (0, 0, 0.00000000000000000000e+00) (0, 0, 0.00000000000000000000e+00) (7, 3, 5.00000000000000000000e-01) (7, 3, 5.00000000000000000000e-01) (7, 3, 5.00000000000000000000e-01) (7, 3, 5.00000000000000000000e-01) (0, 3, 0.00000000000000000000e+00) (5, 3, 5.00000000000000000000e-01) (5, 3, 5.00000000000000000000e-01) (0, 3, 0.00000000000000000000e+00) (3, 3, 5.00000000000000000000e-01) (0, 3, 0.00000000000000000000e+00) 
connections (connected_to_neuron, weight)=(0, -1.46167175292968750000e+03) (1, -1.48018542480468750000e+03) (2, -6.59390014648437500000e+02) (3, -1.44162243652343750000e+03) (4, -1.47141589355468750000e+03) (5, 1.50000000000000000000e+03) (6, -4.77075672149658203125e+00) (0, 1.50000000000000000000e+03) (1, 1.50000000000000000000e+03) (2, 1.06353248596191406250e+02) (3, 1.49987841796875000000e+03) (4, 1.50000000000000000000e+03) (5, -1.50000000000000000000e+03) (6, 5.20167493820190429688e+00) (0, 2.17364749908447265625e+01) (1, 3.53790779113769531250e+01) (2, 1.13529005050659179688e+01) (3, -9.23479614257812500000e+01) (4, -6.26218843460083007812e+00) (5, 1.50000000000000000000e+03) (6, 2.02065300941467285156e+00) (0, -7.50419425964355468750e+00) (1, -1.68888330459594726562e+00) (2, 1.89612317085266113281e+00) (3, -4.10266733169555664062e+00) (4, -2.65660834312438964844e+00) (5, -4.96805496513843536377e-02) (6, 8.79568290710449218750e+00) (7, 1.50000000000000000000e+03) (8, -1.25369775390625000000e+03) (9, 1.09876623535156250000e+03) (10, 1.50000000000000000000e+03) (11, -2.00832509994506835938e+00) (7, 1.50000000000000000000e+03) (8, -2.05057926177978515625e+01) (9, -8.15058517456054687500e+00) (10, 1.50000000000000000000e+03) (11, -8.22010707855224609375e+00) (12, -1.15249300003051757812e+00) (13, -1.97780787944793701172e+00) (14, 1.09470218420028686523e-01) 
