FANN_FLO_2.1
num_layers=4
learning_rate=0.400000
connection_rate=1.000000
network_type=0
learning_momentum=0.000000
training_algorithm=2
train_error_function=1
train_stop_function=0
cascade_output_change_fraction=0.010000
quickprop_decay=-0.000100
quickprop_mu=1.750000
rprop_increase_factor=1.200000
rprop_decrease_factor=0.500000
rprop_delta_min=0.000000
rprop_delta_max=50.000000
rprop_delta_zero=0.100000
cascade_output_stagnation_epochs=12
cascade_candidate_change_fraction=0.010000
cascade_candidate_stagnation_epochs=12
cascade_max_out_epochs=150
cascade_min_out_epochs=50
cascade_max_cand_epochs=150
cascade_min_cand_epochs=50
cascade_num_candidate_groups=2
bit_fail_limit=3.49999994039535522461e-01
cascade_candidate_limit=1.00000000000000000000e+03
cascade_weight_multiplier=4.00000005960464477539e-01
cascade_activation_functions_count=10
cascade_activation_functions=3 5 7 8 10 11 14 15 16 17 
cascade_activation_steepnesses_count=4
cascade_activation_steepnesses=2.50000000000000000000e-01 5.00000000000000000000e-01 7.50000000000000000000e-01 1.00000000000000000000e+00 
layer_sizes=7 5 3 2 
scale_included=0
neurons (num_inputs, activation_function, activation_steepness)=(0, 0, 0.00000000000000000000e+00) (0, 0, 0.00000000000000000000e+00) (0, 0, 0.00000000000000000000e+00) (0, 0, 0.00000000000000000000e+00) (0, 0, 0.00000000000000000000e+00) (0, 0, 0.00000000000000000000e+00) (0, 0, 0.00000000000000000000e+00) (7, 3, 5.00000000000000000000e-01) (7, 3, 5.00000000000000000000e-01) (7, 3, 5.00000000000000000000e-01) (7, 3, 5.00000000000000000000e-01) (0, 3, 0.00000000000000000000e+00) (5, 3, 5.00000000000000000000e-01) (5, 3, 5.00000000000000000000e-01) (0, 3, 0.00000000000000000000e+00) (3, 3, 5.00000000000000000000e-01) (0, 3, 0.00000000000000000000e+00) 
connections (connected_to_neuron, weight)=(0, -6.47942781448364257812e+00) (1, -1.17880010604858398438e+00) (2, 9.45217346191406250000e+02) (3, -1.19066821289062500000e+03) (4, 2.49229984283447265625e+01) (5, -3.68914246559143066406e+00) (6, 7.49635410308837890625e+00) (0, -1.01894960403442382812e+01) (1, 3.33819079399108886719e+00) (2, 6.60653400421142578125e+00) (3, -1.35579109191894531250e+01) (4, -4.54373931884765625000e+00) (5, 3.07796478271484375000e+00) (6, 1.31243228912353515625e+01) (0, -1.42955062866210937500e+02) (1, 3.17806196212768554688e+00) (2, -6.45651550292968750000e+01) (3, 4.10658630371093750000e+02) (4, 1.57534927368164062500e+02) (5, -2.75007232666015625000e+02) (6, 6.43919181823730468750e+00) (0, -1.91196691989898681641e+00) (1, -1.78492411971092224121e-01) (2, -2.30973220825195312500e+02) (3, 1.13434762954711914062e+01) (4, -6.75217914581298828125e+00) (5, 6.55485486984252929688e+00) (6, -4.88865435123443603516e-01) (7, -2.08935782313346862793e-01) (8, 2.85525417327880859375e+00) (9, 1.45506644248962402344e+00) (10, -1.84004759788513183594e+00) (11, -2.44217085838317871094e+00) (7, -1.49669519042968750000e+03) (8, 1.55952041625976562500e+02) (9, -2.22527740478515625000e+02) (10, 1.37190284729003906250e+01) (11, -1.60607290267944335938e+00) (12, -2.76140093803405761719e+00) (13, -1.29910933971405029297e+00) (14, -6.22606635093688964844e-01) 
