FANN_FLO_2.1
num_layers=3
learning_rate=0.400000
connection_rate=1.000000
network_type=0
learning_momentum=0.000000
training_algorithm=2
train_error_function=1
train_stop_function=0
cascade_output_change_fraction=0.010000
quickprop_decay=-0.000100
quickprop_mu=1.750000
rprop_increase_factor=1.200000
rprop_decrease_factor=0.500000
rprop_delta_min=0.000000
rprop_delta_max=50.000000
rprop_delta_zero=0.100000
cascade_output_stagnation_epochs=12
cascade_candidate_change_fraction=0.010000
cascade_candidate_stagnation_epochs=12
cascade_max_out_epochs=150
cascade_min_out_epochs=50
cascade_max_cand_epochs=150
cascade_min_cand_epochs=50
cascade_num_candidate_groups=2
bit_fail_limit=3.49999994039535522461e-01
cascade_candidate_limit=1.00000000000000000000e+03
cascade_weight_multiplier=4.00000005960464477539e-01
cascade_activation_functions_count=10
cascade_activation_functions=3 5 7 8 10 11 14 15 16 17 
cascade_activation_steepnesses_count=4
cascade_activation_steepnesses=2.50000000000000000000e-01 5.00000000000000000000e-01 7.50000000000000000000e-01 1.00000000000000000000e+00 
layer_sizes=7 9 2 
scale_included=0
neurons (num_inputs, activation_function, activation_steepness)=(0, 0, 0.00000000000000000000e+00) (0, 0, 0.00000000000000000000e+00) (0, 0, 0.00000000000000000000e+00) (0, 0, 0.00000000000000000000e+00) (0, 0, 0.00000000000000000000e+00) (0, 0, 0.00000000000000000000e+00) (0, 0, 0.00000000000000000000e+00) (7, 3, 5.00000000000000000000e-01) (7, 3, 5.00000000000000000000e-01) (7, 3, 5.00000000000000000000e-01) (7, 3, 5.00000000000000000000e-01) (7, 3, 5.00000000000000000000e-01) (7, 3, 5.00000000000000000000e-01) (7, 3, 5.00000000000000000000e-01) (7, 3, 5.00000000000000000000e-01) (0, 3, 0.00000000000000000000e+00) (9, 3, 5.00000000000000000000e-01) (0, 3, 0.00000000000000000000e+00) 
connections (connected_to_neuron, weight)=(0, -3.19615125656127929688e+00) (1, 3.04515528678894042969e+00) (2, -2.35927066802978515625e+01) (3, -3.96007680892944335938e+00) (4, -2.90849518775939941406e+00) (5, 5.18459856510162353516e-01) (6, 4.56241750717163085938e+00) (0, 3.41637325286865234375e+00) (1, -7.43601024150848388672e-01) (2, 8.81443786621093750000e+00) (3, -5.26717329025268554688e+00) (4, -5.41187000274658203125e+00) (5, 1.40093043446540832520e-01) (6, 1.12909746170043945312e+00) (0, -9.13377571105957031250e+00) (1, 6.64231300354003906250e+00) (2, -1.00126981735229492188e+01) (3, -6.56717920303344726562e+00) (4, -1.13754451274871826172e+00) (5, 3.45469903945922851562e+00) (6, 3.52922797203063964844e+00) (0, 2.96615362167358398438e+00) (1, -4.96658277511596679688e+00) (2, 9.23965549468994140625e+00) (3, -7.45172739028930664062e+00) (4, 3.09791326522827148438e+00) (5, -8.74809622764587402344e-02) (6, 3.04362416267395019531e-01) (0, -5.23987007141113281250e+00) (1, 3.05742526054382324219e+00) (2, 4.94464778900146484375e+00) (3, -1.72535383701324462891e+00) (4, -1.23764526844024658203e+00) (5, -1.41491943359375000000e+03) (6, 1.31732022762298583984e+00) (0, -8.52902030944824218750e+00) (1, 8.30496788024902343750e+00) (2, -3.99471626281738281250e+01) (3, -2.36409291625022888184e-01) (4, 9.78000938892364501953e-01) (5, 5.68284845352172851562e+00) (6, 2.12163043022155761719e+00) (0, -1.04764795303344726562e+00) (1, -1.08701896667480468750e+00) (2, 3.69009494781494140625e+00) (3, -2.82622790336608886719e+00) (4, -1.07373273372650146484e+00) (5, -9.39497575163841247559e-02) (6, 6.51779711246490478516e-01) (0, 4.47621202468872070312e+00) (1, -7.25389528274536132812e+00) (2, 5.82016324996948242188e+00) (3, -2.95066237449645996094e+00) (4, -1.06525957584381103516e+00) (5, 3.73682880401611328125e+00) (6, -1.70661592483520507812e+00) (7, -4.18457269668579101562e-01) (8, -7.54022061824798583984e-01) (9, -6.06465697288513183594e-01) (10, -1.15722477436065673828e+00) (11, -1.11136703491210937500e+01) (12, -6.46472990512847900391e-01) (13, 1.57410411834716796875e+01) (14, -9.58100509643554687500e+00) (15, -2.75830984115600585938e-01) 
