FANN_FLO_2.1
num_layers=4
learning_rate=0.500000
connection_rate=1.000000
network_type=0
learning_momentum=0.000000
training_algorithm=2
train_error_function=1
train_stop_function=0
cascade_output_change_fraction=0.010000
quickprop_decay=-0.000100
quickprop_mu=1.750000
rprop_increase_factor=1.200000
rprop_decrease_factor=0.500000
rprop_delta_min=0.000000
rprop_delta_max=50.000000
rprop_delta_zero=0.100000
cascade_output_stagnation_epochs=12
cascade_candidate_change_fraction=0.010000
cascade_candidate_stagnation_epochs=12
cascade_max_out_epochs=150
cascade_min_out_epochs=50
cascade_max_cand_epochs=150
cascade_min_cand_epochs=50
cascade_num_candidate_groups=2
bit_fail_limit=3.49999994039535522461e-01
cascade_candidate_limit=1.00000000000000000000e+03
cascade_weight_multiplier=4.00000005960464477539e-01
cascade_activation_functions_count=10
cascade_activation_functions=3 5 7 8 10 11 14 15 16 17 
cascade_activation_steepnesses_count=4
cascade_activation_steepnesses=2.50000000000000000000e-01 5.00000000000000000000e-01 7.50000000000000000000e-01 1.00000000000000000000e+00 
layer_sizes=10 9 3 2 
scale_included=0
neurons (num_inputs, activation_function, activation_steepness)=(0, 0, 0.00000000000000000000e+00) (0, 0, 0.00000000000000000000e+00) (0, 0, 0.00000000000000000000e+00) (0, 0, 0.00000000000000000000e+00) (0, 0, 0.00000000000000000000e+00) (0, 0, 0.00000000000000000000e+00) (0, 0, 0.00000000000000000000e+00) (0, 0, 0.00000000000000000000e+00) (0, 0, 0.00000000000000000000e+00) (0, 0, 0.00000000000000000000e+00) (10, 3, 5.00000000000000000000e-01) (10, 3, 5.00000000000000000000e-01) (10, 3, 5.00000000000000000000e-01) (10, 3, 5.00000000000000000000e-01) (10, 3, 5.00000000000000000000e-01) (10, 3, 5.00000000000000000000e-01) (10, 3, 5.00000000000000000000e-01) (10, 3, 5.00000000000000000000e-01) (0, 3, 0.00000000000000000000e+00) (9, 3, 5.00000000000000000000e-01) (9, 3, 5.00000000000000000000e-01) (0, 3, 0.00000000000000000000e+00) (3, 3, 5.00000000000000000000e-01) (0, 3, 0.00000000000000000000e+00) 
connections (connected_to_neuron, weight)=(0, 1.50000000000000000000e+03) (1, 1.39786621093750000000e+03) (2, 1.50000000000000000000e+03) (3, 1.40448364257812500000e+03) (4, 3.21415344238281250000e+02) (5, 3.11596862792968750000e+02) (6, 1.35490991210937500000e+03) (7, 1.72730178833007812500e+02) (8, 1.01085937500000000000e+02) (9, 5.89818298339843750000e+02) (0, 4.52129507064819335938e+00) (1, 1.73011837005615234375e+01) (2, 6.00662052631378173828e-01) (3, 3.67647695541381835938e+00) (4, -2.98483872413635253906e+00) (5, -9.57031190395355224609e-01) (6, 4.44496679306030273438e+00) (7, -5.10498094558715820312e+00) (8, -1.39245634078979492188e+01) (9, -5.77726244926452636719e-01) (0, -6.21773838996887207031e-01) (1, 1.04475446045398712158e-01) (2, 5.38158941268920898438e+00) (3, -6.20008289813995361328e-01) (4, -8.10483872890472412109e-01) (5, 1.93741813302040100098e-01) (6, -3.38239548727869987488e-03) (7, -4.98459386825561523438e+00) (8, -1.65333688259124755859e-01) (9, 4.27175074815750122070e-01) (0, -5.34488677978515625000e+00) (1, -7.65337657928466796875e+00) (2, -6.23446798324584960938e+00) (3, -9.24609184265136718750e+00) (4, -3.23686718940734863281e+00) (5, 1.23085775375366210938e+01) (6, -1.33898344039916992188e+01) (7, -4.38458740711212158203e-01) (8, 1.96594200134277343750e+01) (9, 3.35496187210083007812e+00) (0, -2.28190088272094726562e+00) (1, -1.42195770263671875000e+02) (2, -9.36667480468750000000e+01) (3, -2.61186981201171875000e+00) (4, -2.35943746566772460938e+00) (5, 5.83475351333618164062e+00) (6, -3.60154205322265625000e+02) (7, -8.02009046077728271484e-01) (8, 4.88547027111053466797e-01) (9, 1.72375428676605224609e+00) (0, -5.73121309280395507812e-01) (1, -2.80550569295883178711e-01) (2, 3.83814382553100585938e+00) (3, -6.61985695362091064453e-01) (4, -1.90688920021057128906e+00) (5, 2.05505952239036560059e-01) (6, 9.56470146775245666504e-02) (7, -3.76889467239379882812e+00) (8, 1.32900983095169067383e-01) (9, 9.50697064399719238281e-01) (0, 4.46407318115234375000e+00) (1, 3.60598325729370117188e+00) (2, 1.75974690914154052734e+00) (3, 4.98152446746826171875e+00) (4, -9.24135589599609375000e+00) (5, -1.37045507431030273438e+01) (6, 2.83546409606933593750e+01) (7, 1.64048614501953125000e+01) (8, -1.89882850646972656250e+00) (9, -7.86760449409484863281e-01) (0, -1.65442049503326416016e+00) (1, -1.03791952133178710938e+00) (2, 4.74439430236816406250e+00) (3, -8.01828205585479736328e-01) (4, -7.26942956447601318359e-01) (5, 2.59874582290649414062e-01) (6, -7.95814674347639083862e-03) (7, -3.78371047973632812500e+00) (8, -4.75092077255249023438e+00) (9, 4.91900235414505004883e-01) (10, -1.41152596473693847656e+00) (11, -5.95346164703369140625e+00) (12, 3.27002096176147460938e+00) (13, 4.05093622207641601562e+00) (14, 1.51470541954040527344e-01) (15, 2.02950000762939453125e+01) (16, -1.75732696056365966797e+00) (17, -1.50727767944335937500e+01) (18, -1.24007664620876312256e-01) (10, 1.96329746246337890625e+01) (11, 9.56747283935546875000e+01) (12, 4.85308723449707031250e+01) (13, 9.44407806396484375000e+01) (14, 1.51470541954040527344e-01) (15, 3.58757400512695312500e+01) (16, -1.87633919715881347656e+00) (17, 3.73639526367187500000e+02) (18, 2.00337352752685546875e+01) (19, 3.17199063301086425781e+00) (20, 2.17920684814453125000e+00) (21, -4.41521024703979492188e+00) 
