FANN_FLO_2.1
num_layers=3
learning_rate=0.400000
connection_rate=1.000000
network_type=0
learning_momentum=0.000000
training_algorithm=2
train_error_function=1
train_stop_function=0
cascade_output_change_fraction=0.010000
quickprop_decay=-0.000100
quickprop_mu=1.750000
rprop_increase_factor=1.200000
rprop_decrease_factor=0.500000
rprop_delta_min=0.000000
rprop_delta_max=50.000000
rprop_delta_zero=0.100000
cascade_output_stagnation_epochs=12
cascade_candidate_change_fraction=0.010000
cascade_candidate_stagnation_epochs=12
cascade_max_out_epochs=150
cascade_min_out_epochs=50
cascade_max_cand_epochs=150
cascade_min_cand_epochs=50
cascade_num_candidate_groups=2
bit_fail_limit=3.49999994039535522461e-01
cascade_candidate_limit=1.00000000000000000000e+03
cascade_weight_multiplier=4.00000005960464477539e-01
cascade_activation_functions_count=10
cascade_activation_functions=3 5 7 8 10 11 14 15 16 17 
cascade_activation_steepnesses_count=4
cascade_activation_steepnesses=2.50000000000000000000e-01 5.00000000000000000000e-01 7.50000000000000000000e-01 1.00000000000000000000e+00 
layer_sizes=7 9 2 
scale_included=0
neurons (num_inputs, activation_function, activation_steepness)=(0, 0, 0.00000000000000000000e+00) (0, 0, 0.00000000000000000000e+00) (0, 0, 0.00000000000000000000e+00) (0, 0, 0.00000000000000000000e+00) (0, 0, 0.00000000000000000000e+00) (0, 0, 0.00000000000000000000e+00) (0, 0, 0.00000000000000000000e+00) (7, 3, 5.00000000000000000000e-01) (7, 3, 5.00000000000000000000e-01) (7, 3, 5.00000000000000000000e-01) (7, 3, 5.00000000000000000000e-01) (7, 3, 5.00000000000000000000e-01) (7, 3, 5.00000000000000000000e-01) (7, 3, 5.00000000000000000000e-01) (7, 3, 5.00000000000000000000e-01) (0, 3, 0.00000000000000000000e+00) (9, 3, 5.00000000000000000000e-01) (0, 3, 0.00000000000000000000e+00) 
connections (connected_to_neuron, weight)=(0, -9.70311820507049560547e-01) (1, 1.76285254955291748047e+00) (2, 2.78915476799011230469e+00) (3, -2.43705677986145019531e+00) (4, 6.64785385131835937500e+00) (5, -1.25071010589599609375e+01) (6, 5.21858024597167968750e+00) (0, 1.79584980010986328125e+00) (1, 2.06859731674194335938e+00) (2, 2.03252434730529785156e+00) (3, -8.74868488311767578125e+00) (4, 1.63724088668823242188e+00) (5, -8.84320437908172607422e-01) (6, 2.36892056465148925781e+00) (0, 2.51281089782714843750e+01) (1, 1.83159065246582031250e+00) (2, 1.50207233428955078125e+00) (3, -1.27511243820190429688e+01) (4, -1.08970689773559570312e+00) (5, 3.64885163307189941406e+00) (6, 2.32919836044311523438e+00) (0, 3.66728043556213378906e+00) (1, 1.88044810295104980469e+00) (2, 8.97347068786621093750e+00) (3, -9.09415006637573242188e-01) (4, -3.13817381858825683594e+00) (5, -6.89538860321044921875e+00) (6, 2.07344698905944824219e+00) (0, -6.05046212673187255859e-01) (1, -5.37282228469848632812e-01) (2, -1.19925945997238159180e-01) (3, -1.43723443150520324707e-01) (4, 4.18784475326538085938e+00) (5, 9.37795545905828475952e-03) (6, -8.75904142856597900391e-01) (0, -3.78459215164184570312e-01) (1, 3.33607584238052368164e-01) (2, 2.70350456237792968750e-01) (3, 9.55307900905609130859e-01) (4, 3.91423439979553222656e+00) (5, 1.27930831909179687500e+00) (6, -1.73060607910156250000e+00) (0, -3.97559821605682373047e-01) (1, -5.04102945327758789062e-01) (2, 2.38299155235290527344e+00) (3, 8.80049586296081542969e-01) (4, 7.27425336837768554688e-01) (5, 1.24779677391052246094e+00) (6, -1.05642020702362060547e+00) (0, -1.08553433418273925781e+00) (1, -9.47226822376251220703e-01) (2, 1.23373377323150634766e+00) (3, -8.02083015441894531250e-01) (4, 5.35525798797607421875e+00) (5, -3.22959232330322265625e+00) (6, -1.05163371562957763672e+00) (7, -1.83000123500823974609e+00) (8, -1.05988132953643798828e+00) (9, -6.92943692207336425781e-01) (10, -1.44384241104125976562e+00) (11, 9.41561877727508544922e-01) (12, 8.85492384433746337891e-01) (13, 9.49185550212860107422e-01) (14, 2.84373879432678222656e+00) (15, -4.36736792325973510742e-02) 
