FANN_FLO_2.1
num_layers=4
learning_rate=0.500000
connection_rate=1.000000
network_type=0
learning_momentum=0.000000
training_algorithm=2
train_error_function=1
train_stop_function=0
cascade_output_change_fraction=0.010000
quickprop_decay=-0.000100
quickprop_mu=1.750000
rprop_increase_factor=1.200000
rprop_decrease_factor=0.500000
rprop_delta_min=0.000000
rprop_delta_max=50.000000
rprop_delta_zero=0.100000
cascade_output_stagnation_epochs=12
cascade_candidate_change_fraction=0.010000
cascade_candidate_stagnation_epochs=12
cascade_max_out_epochs=150
cascade_min_out_epochs=50
cascade_max_cand_epochs=150
cascade_min_cand_epochs=50
cascade_num_candidate_groups=2
bit_fail_limit=3.49999994039535522461e-01
cascade_candidate_limit=1.00000000000000000000e+03
cascade_weight_multiplier=4.00000005960464477539e-01
cascade_activation_functions_count=10
cascade_activation_functions=3 5 7 8 10 11 14 15 16 17 
cascade_activation_steepnesses_count=4
cascade_activation_steepnesses=2.50000000000000000000e-01 5.00000000000000000000e-01 7.50000000000000000000e-01 1.00000000000000000000e+00 
layer_sizes=10 9 3 2 
scale_included=0
neurons (num_inputs, activation_function, activation_steepness)=(0, 0, 0.00000000000000000000e+00) (0, 0, 0.00000000000000000000e+00) (0, 0, 0.00000000000000000000e+00) (0, 0, 0.00000000000000000000e+00) (0, 0, 0.00000000000000000000e+00) (0, 0, 0.00000000000000000000e+00) (0, 0, 0.00000000000000000000e+00) (0, 0, 0.00000000000000000000e+00) (0, 0, 0.00000000000000000000e+00) (0, 0, 0.00000000000000000000e+00) (10, 3, 5.00000000000000000000e-01) (10, 3, 5.00000000000000000000e-01) (10, 3, 5.00000000000000000000e-01) (10, 3, 5.00000000000000000000e-01) (10, 3, 5.00000000000000000000e-01) (10, 3, 5.00000000000000000000e-01) (10, 3, 5.00000000000000000000e-01) (10, 3, 5.00000000000000000000e-01) (0, 3, 0.00000000000000000000e+00) (9, 3, 5.00000000000000000000e-01) (9, 3, 5.00000000000000000000e-01) (0, 3, 0.00000000000000000000e+00) (3, 3, 5.00000000000000000000e-01) (0, 3, 0.00000000000000000000e+00) 
connections (connected_to_neuron, weight)=(0, 1.14686759948730468750e+02) (1, 1.49448909759521484375e+01) (2, 4.45218383789062500000e+02) (3, 1.19612479209899902344e+00) (4, -6.75109176635742187500e+01) (5, 2.65938568115234375000e+00) (6, 3.92816036939620971680e-01) (7, 2.33012723922729492188e+00) (8, 1.49998937988281250000e+03) (9, 2.94645404815673828125e+01) (0, 3.30720496177673339844e+00) (1, -8.66509246826171875000e+00) (2, -4.35285711288452148438e+00) (3, 3.96647238731384277344e+00) (4, -3.09514433145523071289e-01) (5, -4.55257948487997055054e-03) (6, -5.29931366443634033203e-01) (7, 4.51655089855194091797e-01) (8, 9.19558429718017578125e+00) (9, -1.45390057563781738281e+00) (0, 8.49057495594024658203e-01) (1, -1.09074020385742187500e+01) (2, -4.00156879425048828125e+00) (3, 1.40479803085327148438e+00) (4, 2.86605191230773925781e+00) (5, 9.07209813594818115234e-01) (6, 4.79501676559448242188e+00) (7, 2.75310724973678588867e-01) (8, 7.16707944869995117188e+00) (9, 5.61389446258544921875e-01) (0, -2.68327951431274414062e-01) (1, -1.44819965362548828125e+01) (2, 4.09486114978790283203e-01) (3, 4.45361644029617309570e-01) (4, 3.87897431850433349609e-01) (5, 1.45926749706268310547e+00) (6, 2.12782073020935058594e+00) (7, 5.31078726053237915039e-02) (8, 8.94824409484863281250e+00) (9, 2.42945480346679687500e+00) (0, -2.57669315338134765625e+01) (1, 2.37203264236450195312e+00) (2, 2.62371850013732910156e+00) (3, 1.71434724330902099609e+00) (4, 1.00701200962066650391e+00) (5, 1.43833124637603759766e+00) (6, 1.29779708385467529297e+00) (7, 9.03545856475830078125e-01) (8, 4.34205055236816406250e+00) (9, 2.00040623545646667480e-01) (0, 5.04302501678466796875e+00) (1, 3.86488747596740722656e+00) (2, 2.12593841552734375000e+00) (3, 1.27307713031768798828e+00) (4, -4.80751991271972656250e+00) (5, -8.90803635120391845703e-02) (6, 1.73220753669738769531e-01) (7, 3.54871332645416259766e-01) (8, -1.04653263092041015625e+01) (9, -7.04013824462890625000e-01) (0, 4.89638417959213256836e-01) (1, -1.38702526092529296875e+01) (2, 1.83116942644119262695e-01) (3, 5.06444752216339111328e-01) (4, 5.29374003410339355469e-01) (5, 1.08557009696960449219e+00) (6, 2.61571073532104492188e+00) (7, 5.32948851585388183594e-01) (8, 9.41640090942382812500e+00) (9, 1.60062491893768310547e+00) (0, 1.00340616703033447266e+00) (1, -1.28539218902587890625e+01) (2, 9.58056211471557617188e-01) (3, 1.05499970912933349609e+00) (4, 2.35767984390258789062e+00) (5, 1.87839186191558837891e+00) (6, 4.75044536590576171875e+00) (7, 5.90236842632293701172e-01) (8, 3.27916193008422851562e+00) (9, -7.66292661428451538086e-02) (10, 1.29248046875000000000e+00) (11, 3.93898463249206542969e+00) (12, -1.57370209693908691406e+00) (13, -4.35256242752075195312e+00) (14, 1.40036077499389648438e+01) (15, 9.93287086486816406250e+00) (16, -2.27104902267456054688e+00) (17, -6.74509286880493164062e+00) (18, 8.92441272735595703125e-01) (10, 1.01438546180725097656e+00) (11, 1.75645694732666015625e+01) (12, -1.21024274826049804688e+00) (13, -3.58158826828002929688e+00) (14, 9.22961711883544921875e+00) (15, 7.71744537353515625000e+00) (16, -6.84674263000488281250e+00) (17, -2.43454313278198242188e+00) (18, 7.71423399448394775391e-01) (19, 1.62064027786254882812e+00) (20, 1.45450282096862792969e+00) (21, -2.20036792755126953125e+00) 
