FANN_FLO_2.1
num_layers=3
learning_rate=0.400000
connection_rate=1.000000
network_type=0
learning_momentum=0.000000
training_algorithm=2
train_error_function=1
train_stop_function=0
cascade_output_change_fraction=0.010000
quickprop_decay=-0.000100
quickprop_mu=1.750000
rprop_increase_factor=1.200000
rprop_decrease_factor=0.500000
rprop_delta_min=0.000000
rprop_delta_max=50.000000
rprop_delta_zero=0.100000
cascade_output_stagnation_epochs=12
cascade_candidate_change_fraction=0.010000
cascade_candidate_stagnation_epochs=12
cascade_max_out_epochs=150
cascade_min_out_epochs=50
cascade_max_cand_epochs=150
cascade_min_cand_epochs=50
cascade_num_candidate_groups=2
bit_fail_limit=3.49999994039535522461e-01
cascade_candidate_limit=1.00000000000000000000e+03
cascade_weight_multiplier=4.00000005960464477539e-01
cascade_activation_functions_count=10
cascade_activation_functions=3 5 7 8 10 11 14 15 16 17 
cascade_activation_steepnesses_count=4
cascade_activation_steepnesses=2.50000000000000000000e-01 5.00000000000000000000e-01 7.50000000000000000000e-01 1.00000000000000000000e+00 
layer_sizes=7 5 2 
scale_included=0
neurons (num_inputs, activation_function, activation_steepness)=(0, 0, 0.00000000000000000000e+00) (0, 0, 0.00000000000000000000e+00) (0, 0, 0.00000000000000000000e+00) (0, 0, 0.00000000000000000000e+00) (0, 0, 0.00000000000000000000e+00) (0, 0, 0.00000000000000000000e+00) (0, 0, 0.00000000000000000000e+00) (7, 3, 5.00000000000000000000e-01) (7, 3, 5.00000000000000000000e-01) (7, 3, 5.00000000000000000000e-01) (7, 3, 5.00000000000000000000e-01) (0, 3, 0.00000000000000000000e+00) (5, 3, 5.00000000000000000000e-01) (0, 3, 0.00000000000000000000e+00) 
connections (connected_to_neuron, weight)=(0, -6.92386198043823242188e+00) (1, 6.10664069652557373047e-01) (2, 3.89664878845214843750e+01) (3, 4.07867908477783203125e-01) (4, -4.59277486801147460938e+00) (5, 3.78765439987182617188e+00) (6, 3.43910694122314453125e+00) (0, 1.28992996215820312500e+01) (1, -1.30393667221069335938e+01) (2, 7.12095880508422851562e+00) (3, -1.20690441131591796875e+00) (4, 1.46923273801803588867e-01) (5, -5.62305688858032226562e+00) (6, 5.74366855621337890625e+00) (0, -1.11095066070556640625e+01) (1, 8.83046531677246093750e+00) (2, -5.30606842041015625000e+00) (3, -2.80195903778076171875e+00) (4, -8.18891584873199462891e-01) (5, 3.02756190299987792969e+00) (6, 2.46839928627014160156e+00) (0, -8.11510682106018066406e-01) (1, 3.95482826232910156250e+00) (2, -3.38399553298950195312e+00) (3, -9.88114547729492187500e+00) (4, -3.96189665794372558594e+00) (5, 1.02564191818237304688e+00) (6, 4.59285688400268554688e+00) (7, -4.75599229335784912109e-01) (8, -4.37148284912109375000e+00) (9, -4.03885555267333984375e+00) (10, -3.24928551912307739258e-01) (11, 3.41898036003112792969e+00) 
