FANN_FLO_2.1
num_layers=4
learning_rate=0.400000
connection_rate=1.000000
network_type=0
learning_momentum=0.000000
training_algorithm=2
train_error_function=1
train_stop_function=0
cascade_output_change_fraction=0.010000
quickprop_decay=-0.000100
quickprop_mu=1.750000
rprop_increase_factor=1.200000
rprop_decrease_factor=0.500000
rprop_delta_min=0.000000
rprop_delta_max=50.000000
rprop_delta_zero=0.100000
cascade_output_stagnation_epochs=12
cascade_candidate_change_fraction=0.010000
cascade_candidate_stagnation_epochs=12
cascade_max_out_epochs=150
cascade_min_out_epochs=50
cascade_max_cand_epochs=150
cascade_min_cand_epochs=50
cascade_num_candidate_groups=2
bit_fail_limit=3.49999994039535522461e-01
cascade_candidate_limit=1.00000000000000000000e+03
cascade_weight_multiplier=4.00000005960464477539e-01
cascade_activation_functions_count=10
cascade_activation_functions=3 5 7 8 10 11 14 15 16 17 
cascade_activation_steepnesses_count=4
cascade_activation_steepnesses=2.50000000000000000000e-01 5.00000000000000000000e-01 7.50000000000000000000e-01 1.00000000000000000000e+00 
layer_sizes=7 9 9 2 
scale_included=0
neurons (num_inputs, activation_function, activation_steepness)=(0, 0, 0.00000000000000000000e+00) (0, 0, 0.00000000000000000000e+00) (0, 0, 0.00000000000000000000e+00) (0, 0, 0.00000000000000000000e+00) (0, 0, 0.00000000000000000000e+00) (0, 0, 0.00000000000000000000e+00) (0, 0, 0.00000000000000000000e+00) (7, 3, 5.00000000000000000000e-01) (7, 3, 5.00000000000000000000e-01) (7, 3, 5.00000000000000000000e-01) (7, 3, 5.00000000000000000000e-01) (7, 3, 5.00000000000000000000e-01) (7, 3, 5.00000000000000000000e-01) (7, 3, 5.00000000000000000000e-01) (7, 3, 5.00000000000000000000e-01) (0, 3, 0.00000000000000000000e+00) (9, 3, 5.00000000000000000000e-01) (9, 3, 5.00000000000000000000e-01) (9, 3, 5.00000000000000000000e-01) (9, 3, 5.00000000000000000000e-01) (9, 3, 5.00000000000000000000e-01) (9, 3, 5.00000000000000000000e-01) (9, 3, 5.00000000000000000000e-01) (9, 3, 5.00000000000000000000e-01) (0, 3, 0.00000000000000000000e+00) (9, 3, 5.00000000000000000000e-01) (0, 3, 0.00000000000000000000e+00) 
connections (connected_to_neuron, weight)=(0, 6.23726501464843750000e+02) (1, -9.74153213500976562500e+01) (2, -1.31802148437500000000e+03) (3, -1.50000000000000000000e+03) (4, -9.35522937774658203125e+00) (5, -3.99245338439941406250e+01) (6, -2.41780710220336914062e+00) (0, -1.29071655273437500000e+01) (1, 9.19004726409912109375e+00) (2, -1.44500000000000000000e+03) (3, -1.50000000000000000000e+03) (4, -1.50000000000000000000e+03) (5, 1.00345056152343750000e+03) (6, -3.11400270462036132812e+00) (0, 8.42606258392333984375e+00) (1, 3.01187896728515625000e+01) (2, -1.28209887695312500000e+03) (3, -1.02584130859375000000e+03) (4, -1.34558557128906250000e+03) (5, 1.01541778564453125000e+03) (6, 2.69412827491760253906e+00) (0, -9.82054042816162109375e+00) (1, 3.64530968666076660156e+00) (2, 7.35448265075683593750e+00) (3, 1.06273031234741210938e+01) (4, -1.35970640182495117188e+00) (5, 7.10060238838195800781e-01) (6, 4.11969184875488281250e+00) (0, -3.25231132507324218750e+01) (1, 1.16249799728393554688e+01) (2, -1.48898425292968750000e+03) (3, -1.50000000000000000000e+03) (4, -1.34954272460937500000e+03) (5, 1.00743762207031250000e+03) (6, -1.88272247314453125000e+01) (0, -1.15049829483032226562e+01) (1, 9.19428539276123046875e+00) (2, -1.47356213378906250000e+03) (3, -1.50000000000000000000e+03) (4, -1.32941577148437500000e+03) (5, 1.02532690429687500000e+03) (6, -4.10365180969238281250e+01) (0, -1.08303413391113281250e+01) (1, -3.94707153320312500000e+02) (2, -1.44935522460937500000e+03) (3, -1.50000000000000000000e+03) (4, -1.32886535644531250000e+03) (5, 1.26790185546875000000e+03) (6, -3.38351845741271972656e+00) (0, 2.63934356689453125000e+02) (1, -1.10837654113769531250e+02) (2, -1.46546105957031250000e+03) (3, -1.50000000000000000000e+03) (4, -1.34529113769531250000e+03) (5, 1.13683422851562500000e+03) (6, -3.34733390808105468750e+00) (7, -1.45823132991790771484e+00) (8, 7.38198303222656250000e+02) (9, -1.02832040786743164062e+01) (10, 2.85547828674316406250e+01) (11, 1.50000000000000000000e+03) (12, 1.50000000000000000000e+03) (13, 1.50000000000000000000e+03) (14, 1.79942359924316406250e+01) (15, -3.67572927474975585938e+00) (7, -4.47174119949340820312e+00) (8, 7.38198303222656250000e+02) (9, -2.54129714965820312500e+01) (10, 2.45851345062255859375e+01) (11, 1.50000000000000000000e+03) (12, 1.50000000000000000000e+03) (13, 1.50000000000000000000e+03) (14, 2.22272891998291015625e+01) (15, -2.76863598823547363281e+00) (7, 1.50000000000000000000e+03) (8, 6.27198364257812500000e+02) (9, -1.57631635665893554688e+00) (10, 1.30357761383056640625e+01) (11, 1.50000000000000000000e+03) (12, 1.50000000000000000000e+03) (13, 1.50000000000000000000e+03) (14, 1.42698740959167480469e+00) (15, -9.43301391601562500000e+00) (7, -4.82725128173828125000e+02) (8, 6.95448455810546875000e+01) (9, 1.35877246093750000000e+03) (10, 1.10606347656250000000e+03) (11, 6.05418243408203125000e+01) (12, -6.38699279785156250000e+02) (13, -1.50000000000000000000e+03) (14, -2.46600326538085937500e+02) (15, -6.51974391937255859375e+00) (7, -2.95041799545288085938e+00) (8, 7.79238281250000000000e+02) (9, -1.12312498092651367188e+01) (10, 3.60951728820800781250e+01) (11, 1.50000000000000000000e+03) (12, 1.50000000000000000000e+03) (13, 1.50000000000000000000e+03) (14, 1.32223100662231445312e+01) (15, -8.82488822937011718750e+00) (7, -1.56678094863891601562e+01) (8, 6.27198364257812500000e+02) (9, -1.57018327713012695312e+01) (10, 6.88319396972656250000e+01) (11, 1.50000000000000000000e+03) (12, 1.50000000000000000000e+03) (13, 1.50000000000000000000e+03) (14, -6.80722713470458984375e+00) (15, 7.40371370315551757812e+00) (7, 1.50000000000000000000e+03) (8, 6.27198364257812500000e+02) (9, -2.13977737426757812500e+01) (10, -2.26431579589843750000e+01) (11, 1.50000000000000000000e+03) (12, 1.50000000000000000000e+03) (13, 1.50000000000000000000e+03) (14, 1.45744964599609375000e+02) (15, 1.22695503234863281250e+01) (7, 6.91614151000976562500e+00) (8, 7.79238281250000000000e+02) (9, -1.00012130737304687500e+01) (10, 5.71549491882324218750e+01) (11, 1.50000000000000000000e+03) (12, 1.50000000000000000000e+03) (13, 1.50000000000000000000e+03) (14, 1.28476200103759765625e+01) (15, -2.49746875762939453125e+01) (16, -3.55491399765014648438e-01) (17, -2.24191009998321533203e-01) (18, -1.13385188579559326172e+00) (19, 4.97673481702804565430e-01) (20, -3.84920477867126464844e-01) (21, -3.27753782272338867188e-01) (22, -4.17719602584838867188e-01) (23, -4.65876519680023193359e-01) (24, -2.11752101778984069824e-01) 
