FANN_FLO_2.1
num_layers=4
learning_rate=0.500000
connection_rate=1.000000
network_type=0
learning_momentum=0.000000
training_algorithm=2
train_error_function=1
train_stop_function=0
cascade_output_change_fraction=0.010000
quickprop_decay=-0.000100
quickprop_mu=1.750000
rprop_increase_factor=1.200000
rprop_decrease_factor=0.500000
rprop_delta_min=0.000000
rprop_delta_max=50.000000
rprop_delta_zero=0.100000
cascade_output_stagnation_epochs=12
cascade_candidate_change_fraction=0.010000
cascade_candidate_stagnation_epochs=12
cascade_max_out_epochs=150
cascade_min_out_epochs=50
cascade_max_cand_epochs=150
cascade_min_cand_epochs=50
cascade_num_candidate_groups=2
bit_fail_limit=3.49999994039535522461e-01
cascade_candidate_limit=1.00000000000000000000e+03
cascade_weight_multiplier=4.00000005960464477539e-01
cascade_activation_functions_count=10
cascade_activation_functions=3 5 7 8 10 11 14 15 16 17 
cascade_activation_steepnesses_count=4
cascade_activation_steepnesses=2.50000000000000000000e-01 5.00000000000000000000e-01 7.50000000000000000000e-01 1.00000000000000000000e+00 
layer_sizes=10 5 5 2 
scale_included=0
neurons (num_inputs, activation_function, activation_steepness)=(0, 0, 0.00000000000000000000e+00) (0, 0, 0.00000000000000000000e+00) (0, 0, 0.00000000000000000000e+00) (0, 0, 0.00000000000000000000e+00) (0, 0, 0.00000000000000000000e+00) (0, 0, 0.00000000000000000000e+00) (0, 0, 0.00000000000000000000e+00) (0, 0, 0.00000000000000000000e+00) (0, 0, 0.00000000000000000000e+00) (0, 0, 0.00000000000000000000e+00) (10, 3, 5.00000000000000000000e-01) (10, 3, 5.00000000000000000000e-01) (10, 3, 5.00000000000000000000e-01) (10, 3, 5.00000000000000000000e-01) (0, 3, 0.00000000000000000000e+00) (5, 3, 5.00000000000000000000e-01) (5, 3, 5.00000000000000000000e-01) (5, 3, 5.00000000000000000000e-01) (5, 3, 5.00000000000000000000e-01) (0, 3, 0.00000000000000000000e+00) (5, 3, 5.00000000000000000000e-01) (0, 3, 0.00000000000000000000e+00) 
connections (connected_to_neuron, weight)=(0, 1.95428442955017089844e+00) (1, 2.55598211288452148438e+00) (2, 6.11800003051757812500e+00) (3, -3.12841844558715820312e+00) (4, -5.14497108459472656250e+01) (5, -1.01159410476684570312e+01) (6, 1.06612796783447265625e+01) (7, 1.02591300964355468750e+02) (8, 7.03859329223632812500e+01) (9, -4.83666572570800781250e+01) (0, -2.60186719894409179688e+00) (1, -2.44631934165954589844e+00) (2, 1.22704706192016601562e+01) (3, -2.31449947357177734375e+01) (4, -5.00066528320312500000e+01) (5, -1.03692233562469482422e+00) (6, -1.10405063629150390625e+01) (7, 8.63689346313476562500e+01) (8, 5.16831169128417968750e+01) (9, -2.09045619964599609375e+01) (0, -1.92047655582427978516e+00) (1, 1.33691177368164062500e+01) (2, 7.98805141448974609375e+00) (3, -1.41708421707153320312e+01) (4, -5.36489753723144531250e+01) (5, -7.92069625854492187500e+00) (6, 1.44458036422729492188e+01) (7, 6.74431533813476562500e+01) (8, 2.69510574340820312500e+01) (9, -1.68928451538085937500e+01) (0, 1.51716222763061523438e+01) (1, 3.05649757385253906250e+00) (2, 1.03211050033569335938e+01) (3, 9.54706192016601562500e-01) (4, -7.19547195434570312500e+01) (5, -1.68044013977050781250e+01) (6, -2.26557998657226562500e+01) (7, 8.36374893188476562500e+01) (8, 3.97202529907226562500e+01) (9, -1.50730447769165039062e+01) (10, -1.50000000000000000000e+03) (11, -1.50000000000000000000e+03) (12, -1.50000000000000000000e+03) (13, -1.50000000000000000000e+03) (14, -2.60845994949340820312e+00) (10, -1.50000000000000000000e+03) (11, -1.50000000000000000000e+03) (12, -1.50000000000000000000e+03) (13, -1.50000000000000000000e+03) (14, -2.65205917358398437500e+01) (10, -1.50000000000000000000e+03) (11, -1.50000000000000000000e+03) (12, -1.50000000000000000000e+03) (13, -1.50000000000000000000e+03) (14, -1.42851390838623046875e+01) (10, -1.50000000000000000000e+03) (11, -1.50000000000000000000e+03) (12, -1.50000000000000000000e+03) (13, -1.50000000000000000000e+03) (14, -2.60973596572875976562e+00) (15, 1.01033306121826171875e+01) (16, 6.95671606063842773438e+00) (17, 5.67396593093872070312e+00) (18, 1.01015319824218750000e+01) (19, -3.96988004446029663086e-01) 
