FANN_FLO_2.1
num_layers=3
learning_rate=0.500000
connection_rate=1.000000
network_type=0
learning_momentum=0.000000
training_algorithm=2
train_error_function=1
train_stop_function=0
cascade_output_change_fraction=0.010000
quickprop_decay=-0.000100
quickprop_mu=1.750000
rprop_increase_factor=1.200000
rprop_decrease_factor=0.500000
rprop_delta_min=0.000000
rprop_delta_max=50.000000
rprop_delta_zero=0.100000
cascade_output_stagnation_epochs=12
cascade_candidate_change_fraction=0.010000
cascade_candidate_stagnation_epochs=12
cascade_max_out_epochs=150
cascade_min_out_epochs=50
cascade_max_cand_epochs=150
cascade_min_cand_epochs=50
cascade_num_candidate_groups=2
bit_fail_limit=3.49999994039535522461e-01
cascade_candidate_limit=1.00000000000000000000e+03
cascade_weight_multiplier=4.00000005960464477539e-01
cascade_activation_functions_count=10
cascade_activation_functions=3 5 7 8 10 11 14 15 16 17 
cascade_activation_steepnesses_count=4
cascade_activation_steepnesses=2.50000000000000000000e-01 5.00000000000000000000e-01 7.50000000000000000000e-01 1.00000000000000000000e+00 
layer_sizes=10 5 2 
scale_included=0
neurons (num_inputs, activation_function, activation_steepness)=(0, 0, 0.00000000000000000000e+00) (0, 0, 0.00000000000000000000e+00) (0, 0, 0.00000000000000000000e+00) (0, 0, 0.00000000000000000000e+00) (0, 0, 0.00000000000000000000e+00) (0, 0, 0.00000000000000000000e+00) (0, 0, 0.00000000000000000000e+00) (0, 0, 0.00000000000000000000e+00) (0, 0, 0.00000000000000000000e+00) (0, 0, 0.00000000000000000000e+00) (10, 3, 5.00000000000000000000e-01) (10, 3, 5.00000000000000000000e-01) (10, 3, 5.00000000000000000000e-01) (10, 3, 5.00000000000000000000e-01) (0, 3, 0.00000000000000000000e+00) (5, 3, 5.00000000000000000000e-01) (0, 3, 0.00000000000000000000e+00) 
connections (connected_to_neuron, weight)=(0, 6.22615478515625000000e+02) (1, 2.45963516235351562500e+02) (2, -1.19700573730468750000e+03) (3, 1.71376013755798339844e+00) (4, 5.02437986433506011963e-02) (5, -4.19489406049251556396e-02) (6, 4.31635171175003051758e-01) (7, 5.22962436079978942871e-02) (8, -7.07694217562675476074e-02) (9, -1.27174961566925048828e+00) (0, 1.52068614959716796875e+00) (1, 6.77355861663818359375e+00) (2, 1.82341060638427734375e+01) (3, 8.85423600673675537109e-01) (4, -2.48629435896873474121e-01) (5, 1.32537813186645507812e+01) (6, -4.17924547195434570312e+00) (7, -2.14703702926635742188e+00) (8, -3.16946372985839843750e+01) (9, -1.27527904510498046875e+00) (0, 2.20405411720275878906e+00) (1, 9.74105167388916015625e+00) (2, 1.31827869415283203125e+01) (3, 1.74114227294921875000e+00) (4, 3.99083280563354492188e+00) (5, 1.30097837448120117188e+01) (6, -3.84463667869567871094e+00) (7, -1.62181682586669921875e+01) (8, -1.14265289306640625000e+01) (9, -7.13985490798950195312e+00) (0, -2.59325242042541503906e+00) (1, -1.17710602283477783203e+00) (2, -9.22984741210937500000e+02) (3, 1.66780221462249755859e+00) (4, 3.62857095897197723389e-02) (5, 6.60658168792724609375e+00) (6, 1.03278946876525878906e+00) (7, 2.39805251359939575195e-01) (8, 7.30924926757812500000e+02) (9, -1.37706100940704345703e-01) (10, 1.07124149799346923828e+00) (11, 2.31824445724487304688e+00) (12, 9.64101731777191162109e-01) (13, 2.72323489189147949219e+00) (14, -2.37966203689575195312e+00) 
