FANN_FLO_2.1
num_layers=4
learning_rate=0.500000
connection_rate=1.000000
network_type=0
learning_momentum=0.000000
training_algorithm=2
train_error_function=1
train_stop_function=0
cascade_output_change_fraction=0.010000
quickprop_decay=-0.000100
quickprop_mu=1.750000
rprop_increase_factor=1.200000
rprop_decrease_factor=0.500000
rprop_delta_min=0.000000
rprop_delta_max=50.000000
rprop_delta_zero=0.100000
cascade_output_stagnation_epochs=12
cascade_candidate_change_fraction=0.010000
cascade_candidate_stagnation_epochs=12
cascade_max_out_epochs=150
cascade_min_out_epochs=50
cascade_max_cand_epochs=150
cascade_min_cand_epochs=50
cascade_num_candidate_groups=2
bit_fail_limit=3.49999994039535522461e-01
cascade_candidate_limit=1.00000000000000000000e+03
cascade_weight_multiplier=4.00000005960464477539e-01
cascade_activation_functions_count=10
cascade_activation_functions=3 5 7 8 10 11 14 15 16 17 
cascade_activation_steepnesses_count=4
cascade_activation_steepnesses=2.50000000000000000000e-01 5.00000000000000000000e-01 7.50000000000000000000e-01 1.00000000000000000000e+00 
layer_sizes=10 9 9 2 
scale_included=0
neurons (num_inputs, activation_function, activation_steepness)=(0, 0, 0.00000000000000000000e+00) (0, 0, 0.00000000000000000000e+00) (0, 0, 0.00000000000000000000e+00) (0, 0, 0.00000000000000000000e+00) (0, 0, 0.00000000000000000000e+00) (0, 0, 0.00000000000000000000e+00) (0, 0, 0.00000000000000000000e+00) (0, 0, 0.00000000000000000000e+00) (0, 0, 0.00000000000000000000e+00) (0, 0, 0.00000000000000000000e+00) (10, 3, 5.00000000000000000000e-01) (10, 3, 5.00000000000000000000e-01) (10, 3, 5.00000000000000000000e-01) (10, 3, 5.00000000000000000000e-01) (10, 3, 5.00000000000000000000e-01) (10, 3, 5.00000000000000000000e-01) (10, 3, 5.00000000000000000000e-01) (10, 3, 5.00000000000000000000e-01) (0, 3, 0.00000000000000000000e+00) (9, 3, 5.00000000000000000000e-01) (9, 3, 5.00000000000000000000e-01) (9, 3, 5.00000000000000000000e-01) (9, 3, 5.00000000000000000000e-01) (9, 3, 5.00000000000000000000e-01) (9, 3, 5.00000000000000000000e-01) (9, 3, 5.00000000000000000000e-01) (9, 3, 5.00000000000000000000e-01) (0, 3, 0.00000000000000000000e+00) (9, 3, 5.00000000000000000000e-01) (0, 3, 0.00000000000000000000e+00) 
connections (connected_to_neuron, weight)=(0, -6.02806663513183593750e+00) (1, 2.47332394123077392578e-01) (2, -2.20682353973388671875e+01) (3, 5.04421830177307128906e-01) (4, 1.69430327415466308594e+00) (5, 4.19382190704345703125e+00) (6, 1.05718135833740234375e+01) (7, -1.61928851157426834106e-02) (8, 2.75611072778701782227e-01) (9, -7.47593820095062255859e-01) (0, -5.00888776779174804688e+00) (1, 3.62198877334594726562e+00) (2, 3.53351593017578125000e+00) (3, 2.67249822616577148438e+00) (4, 6.37905645370483398438e+00) (5, -7.90488243103027343750e-01) (6, 8.41116666793823242188e-01) (7, -2.62609100341796875000e+00) (8, -3.51538538932800292969e-01) (9, -2.67531228065490722656e+00) (0, 1.50000000000000000000e+03) (1, 1.50000000000000000000e+03) (2, 1.50000000000000000000e+03) (3, 1.50000000000000000000e+03) (4, 1.50000000000000000000e+03) (5, 1.61697616577148437500e+01) (6, 1.50000000000000000000e+03) (7, -1.70139968395233154297e+00) (8, 1.39340808105468750000e+03) (9, -2.28529381752014160156e+00) (0, -6.20727729797363281250e+00) (1, 2.40417385101318359375e+00) (2, 4.82999175786972045898e-01) (3, 5.66384375095367431641e-01) (4, -1.73601076006889343262e-01) (5, 4.38095760345458984375e+00) (6, 3.01356291770935058594e+00) (7, -1.40956487655639648438e+01) (8, 3.71766638755798339844e+00) (9, 1.32037401199340820312e+00) (0, -6.34636116027832031250e+00) (1, 6.26569032669067382812e-01) (2, 3.20921033620834350586e-01) (3, -4.25433337688446044922e-01) (4, 3.89023947715759277344e+00) (5, 1.24918842315673828125e+01) (6, -9.95952224731445312500e+00) (7, -1.67062699794769287109e+00) (8, 2.27037906646728515625e+00) (9, -1.86437678337097167969e+00) (0, -4.60436916351318359375e+00) (1, 7.74996459484100341797e-01) (2, 2.79498219490051269531e+00) (3, 1.21892642974853515625e+00) (4, 7.10245943069458007812e+00) (5, 1.71877231597900390625e+01) (6, -3.06428170204162597656e+00) (7, -6.04996681213378906250e+00) (8, -8.15419852733612060547e-01) (9, -2.41388463973999023438e+00) (0, -6.62526941299438476562e+00) (1, 8.03486061096191406250e+00) (2, 1.28279089927673339844e+00) (3, -4.24257135391235351562e+00) (4, 1.24319732189178466797e+00) (5, 2.18755531311035156250e+00) (6, -1.57980239391326904297e+00) (7, -3.76049208641052246094e+00) (8, 7.07374906539916992188e+00) (9, 3.26107084751129150391e-01) (0, -8.64427375793457031250e+00) (1, 3.95311212539672851562e+00) (2, 1.10623943805694580078e+00) (3, -2.92229723930358886719e+00) (4, 5.10530948638916015625e+00) (5, 3.66426730155944824219e+00) (6, -5.15275096893310546875e+00) (7, -5.06494092941284179688e+00) (8, 2.26537656784057617188e+00) (9, 9.18041050434112548828e-01) (10, -1.82295775413513183594e+00) (11, 1.28593587875366210938e+00) (12, 1.39275646209716796875e+00) (13, -3.95255317687988281250e+01) (14, -8.06757435202598571777e-02) (15, 1.38792729377746582031e+00) (16, 2.85512447357177734375e-01) (17, 1.76733541488647460938e+00) (18, 6.01386129856109619141e-01) (10, 1.49978100585937500000e+03) (11, 2.47789049148559570312e+00) (12, 2.42574000358581542969e+00) (13, -4.26474487304687500000e+02) (14, -1.48298339843750000000e+03) (15, 2.77185106277465820312e+00) (16, 1.28651562500000000000e+03) (17, 5.93013000488281250000e+02) (18, -6.66299104690551757812e-01) (10, 3.76353931427001953125e+00) (11, -1.06506586074829101562e+00) (12, -9.63521957397460937500e-01) (13, -6.01741333007812500000e+02) (14, -3.92730712890625000000e-01) (15, -1.04080367088317871094e+00) (16, -7.01839208602905273438e-01) (17, 2.90752502441406250000e+02) (18, 4.11524677276611328125e+00) (10, 1.49978100585937500000e+03) (11, 1.55160307884216308594e+00) (12, 1.66595137119293212891e+00) (13, -4.30936584472656250000e+02) (14, -1.49783288574218750000e+03) (15, 1.55826783180236816406e+00) (16, 1.28654980468750000000e+03) (17, 6.13135314941406250000e+02) (18, -7.62396037578582763672e-01) (10, -3.74946355819702148438e+00) (11, 5.95251560211181640625e-01) (12, 2.49135389924049377441e-01) (13, -1.37849073410034179688e+01) (14, -6.65139257907867431641e-01) (15, -1.55066326260566711426e-01) (16, -5.38055896759033203125e-01) (17, -7.30246603488922119141e-01) (18, 2.19135570526123046875e+00) (10, 1.49978100585937500000e+03) (11, 1.93133747577667236328e+00) (12, 2.08420276641845703125e+00) (13, -4.30923034667968750000e+02) (14, -1.49902795410156250000e+03) (15, 2.03824234008789062500e+00) (16, 1.28654895019531250000e+03) (17, 6.12488891601562500000e+02) (18, -9.99056026339530944824e-02) (10, -2.03481030464172363281e+00) (11, -1.39063453674316406250e+00) (12, -1.41656184196472167969e+00) (13, 8.46174418926239013672e-01) (14, 3.31283235549926757812e+00) (15, -1.23145669698715209961e-01) (16, -9.58729684352874755859e-01) (17, -4.57796859741210937500e+00) (18, 1.33830606937408447266e+00) (10, 1.49978100585937500000e+03) (11, 1.02810168266296386719e+00) (12, 1.11396253108978271484e+00) (13, -4.30931945800781250000e+02) (14, -1.49756018066406250000e+03) (15, 1.53073489665985107422e+00) (16, 1.28654785156250000000e+03) (17, 6.13289001464843750000e+02) (18, -7.21976906061172485352e-02) (19, 3.77230882644653320312e-01) (20, 2.14321911334991455078e-01) (21, 6.74137353897094726562e-01) (22, 2.04446166753768920898e-01) (23, -3.10752272605895996094e+00) (24, 2.17629909515380859375e-01) (25, -5.93332290649414062500e-01) (26, 1.94688558578491210938e-01) (27, 8.84378328919410705566e-02) 
