FANN_FLO_2.1
num_layers=4
learning_rate=0.400000
connection_rate=1.000000
network_type=0
learning_momentum=0.000000
training_algorithm=2
train_error_function=1
train_stop_function=0
cascade_output_change_fraction=0.010000
quickprop_decay=-0.000100
quickprop_mu=1.750000
rprop_increase_factor=1.200000
rprop_decrease_factor=0.500000
rprop_delta_min=0.000000
rprop_delta_max=50.000000
rprop_delta_zero=0.100000
cascade_output_stagnation_epochs=12
cascade_candidate_change_fraction=0.010000
cascade_candidate_stagnation_epochs=12
cascade_max_out_epochs=150
cascade_min_out_epochs=50
cascade_max_cand_epochs=150
cascade_min_cand_epochs=50
cascade_num_candidate_groups=2
bit_fail_limit=3.49999994039535522461e-01
cascade_candidate_limit=1.00000000000000000000e+03
cascade_weight_multiplier=4.00000005960464477539e-01
cascade_activation_functions_count=10
cascade_activation_functions=3 5 7 8 10 11 14 15 16 17 
cascade_activation_steepnesses_count=4
cascade_activation_steepnesses=2.50000000000000000000e-01 5.00000000000000000000e-01 7.50000000000000000000e-01 1.00000000000000000000e+00 
layer_sizes=7 9 9 2 
scale_included=0
neurons (num_inputs, activation_function, activation_steepness)=(0, 0, 0.00000000000000000000e+00) (0, 0, 0.00000000000000000000e+00) (0, 0, 0.00000000000000000000e+00) (0, 0, 0.00000000000000000000e+00) (0, 0, 0.00000000000000000000e+00) (0, 0, 0.00000000000000000000e+00) (0, 0, 0.00000000000000000000e+00) (7, 3, 5.00000000000000000000e-01) (7, 3, 5.00000000000000000000e-01) (7, 3, 5.00000000000000000000e-01) (7, 3, 5.00000000000000000000e-01) (7, 3, 5.00000000000000000000e-01) (7, 3, 5.00000000000000000000e-01) (7, 3, 5.00000000000000000000e-01) (7, 3, 5.00000000000000000000e-01) (0, 3, 0.00000000000000000000e+00) (9, 3, 5.00000000000000000000e-01) (9, 3, 5.00000000000000000000e-01) (9, 3, 5.00000000000000000000e-01) (9, 3, 5.00000000000000000000e-01) (9, 3, 5.00000000000000000000e-01) (9, 3, 5.00000000000000000000e-01) (9, 3, 5.00000000000000000000e-01) (9, 3, 5.00000000000000000000e-01) (0, 3, 0.00000000000000000000e+00) (9, 3, 5.00000000000000000000e-01) (0, 3, 0.00000000000000000000e+00) 
connections (connected_to_neuron, weight)=(0, -1.49311804199218750000e+03) (1, -1.50000000000000000000e+03) (2, -1.47586889648437500000e+03) (3, -1.44894982910156250000e+03) (4, -1.93553180694580078125e+01) (5, 1.15388146972656250000e+03) (6, 8.36210906505584716797e-01) (0, 5.08174240589141845703e-01) (1, -4.29884958267211914062e+00) (2, 2.90118002891540527344e+00) (3, 1.48576939105987548828e+00) (4, -5.89280891418457031250e+00) (5, 1.88466620445251464844e+00) (6, 6.95192754268646240234e-01) (0, -8.85855865478515625000e+00) (1, 7.05767393112182617188e+00) (2, -1.75087654590606689453e+00) (3, -5.21052479743957519531e-01) (4, -6.36697769165039062500e+00) (5, -3.83345770835876464844e+00) (6, 1.32861697673797607422e+00) (0, 4.20975506305694580078e-01) (1, -2.94257044792175292969e-01) (2, 2.52395319938659667969e+00) (3, 2.04351305961608886719e+00) (4, -7.89707565307617187500e+00) (5, -3.85162949562072753906e+00) (6, 1.25299417972564697266e+00) (0, 1.66942715644836425781e+00) (1, -3.71316361427307128906e+00) (2, -2.67777919769287109375e-01) (3, -4.61727809906005859375e+00) (4, 1.29107713699340820312e+00) (5, 1.66686153411865234375e+00) (6, 6.89031124114990234375e-01) (0, -6.75563573837280273438e+00) (1, 2.99080014228820800781e+00) (2, -2.25611042976379394531e+00) (3, -3.24360430240631103516e-01) (4, -3.18233680725097656250e+00) (5, -7.89007902145385742188e-01) (6, 1.35983741283416748047e+00) (0, -1.50000000000000000000e+03) (1, -1.50000000000000000000e+03) (2, -1.43945788574218750000e+03) (3, -1.50000000000000000000e+03) (4, -1.82708633422851562500e+02) (5, 1.50000000000000000000e+03) (6, -1.37369990348815917969e+00) (0, -5.42598581314086914062e+00) (1, 4.87183380126953125000e+00) (2, 3.12996417284011840820e-01) (3, -8.89096081256866455078e-01) (4, -2.02890682220458984375e+00) (5, -5.48366069793701171875e+00) (6, 1.52757227420806884766e+00) (7, 1.47512316894531250000e+03) (8, 3.48763632774353027344e+00) (9, 3.27484207153320312500e+01) (10, -1.04276504516601562500e+01) (11, 2.89057469367980957031e+00) (12, -2.54742069244384765625e+01) (13, 1.56538474559783935547e+00) (14, 2.72967910766601562500e+00) (15, -2.40716004371643066406e+00) (7, 1.50000000000000000000e+03) (8, 4.27929000854492187500e+01) (9, 1.23193191528320312500e+02) (10, 1.82935066223144531250e+01) (11, 2.76676177978515625000e+00) (12, -4.62577056884765625000e+01) (13, -1.30072603225708007812e+01) (14, -7.09301996231079101562e+00) (15, -2.39612841606140136719e+00) (7, 1.50000000000000000000e+03) (8, 1.69386911392211914062e+00) (9, -9.51493930816650390625e+00) (10, -7.09246158599853515625e+00) (11, -5.52511739730834960938e+00) (12, -1.00534505844116210938e+01) (13, 3.16997051239013671875e+01) (14, 2.03702659606933593750e+01) (15, -3.37566971778869628906e+00) (7, 1.50000000000000000000e+03) (8, 8.62856197357177734375e+00) (9, 7.47724380493164062500e+01) (10, -6.03891658782958984375e+00) (11, 3.39016270637512207031e+00) (12, -2.79842796325683593750e+01) (13, 4.59143829345703125000e+02) (14, 2.77799218893051147461e-02) (15, -3.12480211257934570312e+00) (7, 1.50000000000000000000e+03) (8, 3.51199507713317871094e+00) (9, 3.48070487976074218750e+01) (10, -1.49257688522338867188e+01) (11, 2.29697847366333007812e+00) (12, -1.74126930236816406250e+01) (13, 3.17297041416168212891e-01) (14, 2.95922994613647460938e+00) (15, -2.26139736175537109375e+00) (7, 1.50000000000000000000e+03) (8, 4.96246480941772460938e+00) (9, 4.41514892578125000000e+01) (10, -2.94869279861450195312e+00) (11, 1.72640895843505859375e+00) (12, -2.34589353203773498535e-01) (13, 2.08837081909179687500e+02) (14, -2.06537079811096191406e+00) (15, -2.73370361328125000000e+00) (7, 1.50000000000000000000e+03) (8, 7.79481506347656250000e+00) (9, 3.43566093444824218750e+01) (10, -1.21210432052612304688e+01) (11, 2.85053634643554687500e+00) (12, -2.75921306610107421875e+01) (13, 1.14249967038631439209e-01) (14, 6.67736470699310302734e-01) (15, -2.57228732109069824219e+00) (7, 1.50000000000000000000e+03) (8, 1.46229690551757812500e+02) (9, 6.39399299621582031250e+01) (10, -5.28160362243652343750e+01) (11, 1.00454711914062500000e+01) (12, 2.63509613037109375000e+02) (13, 1.90339309692382812500e+02) (14, -4.94596624374389648438e+00) (15, -4.63705110549926757812e+00) (16, -3.36007237434387207031e-01) (17, -5.49011707305908203125e-01) (18, -1.44095063209533691406e+00) (19, -7.07898736000061035156e-01) (20, -2.20234346389770507812e+00) (21, -4.59891110658645629883e-01) (22, -3.32286667823791503906e+00) (23, -5.98107397556304931641e-01) (24, -3.82821224629878997803e-02) 
