FANN_FLO_2.1
num_layers=4
learning_rate=0.500000
connection_rate=1.000000
network_type=0
learning_momentum=0.000000
training_algorithm=2
train_error_function=1
train_stop_function=0
cascade_output_change_fraction=0.010000
quickprop_decay=-0.000100
quickprop_mu=1.750000
rprop_increase_factor=1.200000
rprop_decrease_factor=0.500000
rprop_delta_min=0.000000
rprop_delta_max=50.000000
rprop_delta_zero=0.100000
cascade_output_stagnation_epochs=12
cascade_candidate_change_fraction=0.010000
cascade_candidate_stagnation_epochs=12
cascade_max_out_epochs=150
cascade_min_out_epochs=50
cascade_max_cand_epochs=150
cascade_min_cand_epochs=50
cascade_num_candidate_groups=2
bit_fail_limit=3.49999994039535522461e-01
cascade_candidate_limit=1.00000000000000000000e+03
cascade_weight_multiplier=4.00000005960464477539e-01
cascade_activation_functions_count=10
cascade_activation_functions=3 5 7 8 10 11 14 15 16 17 
cascade_activation_steepnesses_count=4
cascade_activation_steepnesses=2.50000000000000000000e-01 5.00000000000000000000e-01 7.50000000000000000000e-01 1.00000000000000000000e+00 
layer_sizes=2 5 5 3 
scale_included=0
neurons (num_inputs, activation_function, activation_steepness)=(0, 0, 0.00000000000000000000e+00) (0, 0, 0.00000000000000000000e+00) (2, 3, 5.00000000000000000000e-01) (2, 3, 5.00000000000000000000e-01) (2, 3, 5.00000000000000000000e-01) (2, 3, 5.00000000000000000000e-01) (0, 3, 0.00000000000000000000e+00) (5, 3, 5.00000000000000000000e-01) (5, 3, 5.00000000000000000000e-01) (5, 3, 5.00000000000000000000e-01) (5, 3, 5.00000000000000000000e-01) (0, 3, 0.00000000000000000000e+00) (5, 0, 5.00000000000000000000e-01) (5, 0, 5.00000000000000000000e-01) (0, 0, 0.00000000000000000000e+00) 
connections (connected_to_neuron, weight)=(0, -3.08034896850585937500e+01) (1, 2.85594964027404785156e+00) (0, 3.72987709045410156250e+01) (1, 1.16792663574218750000e+02) (0, -1.48716030120849609375e+01) (1, 5.45290708541870117188e+00) (0, -2.10465602874755859375e+01) (1, 1.85101187229156494141e+00) (2, -6.14036273956298828125e+00) (3, 7.90083825588226318359e-01) (4, 9.85932064056396484375e+00) (5, -2.79320955276489257812e+00) (6, -2.05533885955810546875e+00) (2, -5.04757019042968750000e+02) (3, 1.24468679428100585938e+01) (4, 2.40193328857421875000e+01) (5, -1.29983117675781250000e+03) (6, 1.30603303909301757812e+01) (2, 2.44512920379638671875e+01) (3, -8.71516048908233642578e-01) (4, -3.90400576591491699219e+00) (5, -3.15310516357421875000e+01) (6, 3.46087384223937988281e+00) (2, -2.82811951637268066406e+00) (3, 1.22346699237823486328e+00) (4, 2.62598943710327148438e+00) (5, 9.47400569915771484375e+00) (6, -5.16108083724975585938e+00) (7, -2.29619789123535156250e+00) (8, -1.63074657320976257324e-01) (9, 1.59440433979034423828e+00) (10, 1.54810333251953125000e+00) (11, -1.97078719735145568848e-01) (7, -1.04084245860576629639e-01) (8, -1.59476190805435180664e-01) (9, -2.34501695632934570312e+00) (10, 1.84258508682250976562e+00) (11, 2.65586495399475097656e-01) 
