FANN_FLO_2.1
num_layers=4
learning_rate=0.500000
connection_rate=1.000000
network_type=0
learning_momentum=0.000000
training_algorithm=2
train_error_function=1
train_stop_function=0
cascade_output_change_fraction=0.010000
quickprop_decay=-0.000100
quickprop_mu=1.750000
rprop_increase_factor=1.200000
rprop_decrease_factor=0.500000
rprop_delta_min=0.000000
rprop_delta_max=50.000000
rprop_delta_zero=0.100000
cascade_output_stagnation_epochs=12
cascade_candidate_change_fraction=0.010000
cascade_candidate_stagnation_epochs=12
cascade_max_out_epochs=150
cascade_min_out_epochs=50
cascade_max_cand_epochs=150
cascade_min_cand_epochs=50
cascade_num_candidate_groups=2
bit_fail_limit=3.49999994039535522461e-01
cascade_candidate_limit=1.00000000000000000000e+03
cascade_weight_multiplier=4.00000005960464477539e-01
cascade_activation_functions_count=10
cascade_activation_functions=3 5 7 8 10 11 14 15 16 17 
cascade_activation_steepnesses_count=4
cascade_activation_steepnesses=2.50000000000000000000e-01 5.00000000000000000000e-01 7.50000000000000000000e-01 1.00000000000000000000e+00 
layer_sizes=10 5 5 2 
scale_included=0
neurons (num_inputs, activation_function, activation_steepness)=(0, 0, 0.00000000000000000000e+00) (0, 0, 0.00000000000000000000e+00) (0, 0, 0.00000000000000000000e+00) (0, 0, 0.00000000000000000000e+00) (0, 0, 0.00000000000000000000e+00) (0, 0, 0.00000000000000000000e+00) (0, 0, 0.00000000000000000000e+00) (0, 0, 0.00000000000000000000e+00) (0, 0, 0.00000000000000000000e+00) (0, 0, 0.00000000000000000000e+00) (10, 3, 5.00000000000000000000e-01) (10, 3, 5.00000000000000000000e-01) (10, 3, 5.00000000000000000000e-01) (10, 3, 5.00000000000000000000e-01) (0, 3, 0.00000000000000000000e+00) (5, 3, 5.00000000000000000000e-01) (5, 3, 5.00000000000000000000e-01) (5, 3, 5.00000000000000000000e-01) (5, 3, 5.00000000000000000000e-01) (0, 3, 0.00000000000000000000e+00) (5, 3, 5.00000000000000000000e-01) (0, 3, 0.00000000000000000000e+00) 
connections (connected_to_neuron, weight)=(0, -8.21554565429687500000e+00) (1, 9.33042716979980468750e+00) (2, -9.47359848022460937500e+00) (3, 8.99718105792999267578e-01) (4, 4.58183336257934570312e+00) (5, 7.62657976150512695312e+00) (6, -5.86408281326293945312e+00) (7, 6.70775592327117919922e-01) (8, -6.77691102027893066406e-02) (9, -7.02340424060821533203e-01) (0, -8.62656307220458984375e+00) (1, 9.38577461242675781250e+00) (2, -9.52820968627929687500e+00) (3, 9.78263795375823974609e-01) (4, 4.44498252868652343750e+00) (5, 7.84203481674194335938e+00) (6, -5.98423767089843750000e+00) (7, 3.20733964443206787109e-01) (8, 6.10122740268707275391e-01) (9, -9.55862104892730712891e-01) (0, -3.94110655784606933594e+00) (1, 2.03262710571289062500e+00) (2, -2.25897049903869628906e+00) (3, 1.99584591388702392578e+00) (4, 5.94693279266357421875e+00) (5, 1.55959814786911010742e-01) (6, -3.45720863342285156250e+00) (7, -3.21224212646484375000e-01) (8, -3.66888666152954101562e+00) (9, 1.25818336009979248047e+00) (0, -7.57464265823364257812e+00) (1, 3.50792288780212402344e+00) (2, 3.48962879180908203125e+00) (3, 1.82433843612670898438e+00) (4, 7.30925369262695312500e+00) (5, 4.93857353925704956055e-01) (6, 9.56061661243438720703e-01) (7, 7.33055591583251953125e-01) (8, -2.26335334777832031250e+01) (9, 8.12323868274688720703e-01) (10, 7.19184112548828125000e+00) (11, 8.32150459289550781250e+00) (12, -9.34430789947509765625e+00) (13, 1.03194503784179687500e+01) (14, -1.59912228584289550781e+00) (10, 7.23259210586547851562e+00) (11, 8.15226554870605468750e+00) (12, -9.32238292694091796875e+00) (13, 1.02614002227783203125e+01) (14, -1.53359508514404296875e+00) (10, 5.55006408691406250000e+00) (11, 8.57747650146484375000e+00) (12, -8.12778186798095703125e+00) (13, 9.47554969787597656250e+00) (14, -1.40292596817016601562e+00) (10, -3.42855739593505859375e+00) (11, -7.76105499267578125000e+00) (12, 9.21463203430175781250e+00) (13, -8.72506713867187500000e+00) (14, -1.05356287956237792969e+00) (15, 5.28820693492889404297e-01) (16, 3.39349240064620971680e-01) (17, 2.99472898244857788086e-01) (18, -2.03308367729187011719e+00) (19, -2.67141878604888916016e-01) 
