FANN_FLO_2.1
num_layers=4
learning_rate=0.400000
connection_rate=1.000000
network_type=0
learning_momentum=0.000000
training_algorithm=2
train_error_function=1
train_stop_function=0
cascade_output_change_fraction=0.010000
quickprop_decay=-0.000100
quickprop_mu=1.750000
rprop_increase_factor=1.200000
rprop_decrease_factor=0.500000
rprop_delta_min=0.000000
rprop_delta_max=50.000000
rprop_delta_zero=0.100000
cascade_output_stagnation_epochs=12
cascade_candidate_change_fraction=0.010000
cascade_candidate_stagnation_epochs=12
cascade_max_out_epochs=150
cascade_min_out_epochs=50
cascade_max_cand_epochs=150
cascade_min_cand_epochs=50
cascade_num_candidate_groups=2
bit_fail_limit=3.49999994039535522461e-01
cascade_candidate_limit=1.00000000000000000000e+03
cascade_weight_multiplier=4.00000005960464477539e-01
cascade_activation_functions_count=10
cascade_activation_functions=3 5 7 8 10 11 14 15 16 17 
cascade_activation_steepnesses_count=4
cascade_activation_steepnesses=2.50000000000000000000e-01 5.00000000000000000000e-01 7.50000000000000000000e-01 1.00000000000000000000e+00 
layer_sizes=7 3 3 2 
scale_included=0
neurons (num_inputs, activation_function, activation_steepness)=(0, 0, 0.00000000000000000000e+00) (0, 0, 0.00000000000000000000e+00) (0, 0, 0.00000000000000000000e+00) (0, 0, 0.00000000000000000000e+00) (0, 0, 0.00000000000000000000e+00) (0, 0, 0.00000000000000000000e+00) (0, 0, 0.00000000000000000000e+00) (7, 3, 5.00000000000000000000e-01) (7, 3, 5.00000000000000000000e-01) (0, 3, 0.00000000000000000000e+00) (3, 3, 5.00000000000000000000e-01) (3, 3, 5.00000000000000000000e-01) (0, 3, 0.00000000000000000000e+00) (3, 3, 5.00000000000000000000e-01) (0, 3, 0.00000000000000000000e+00) 
connections (connected_to_neuron, weight)=(0, -2.85225868225097656250e+01) (1, -9.03398513793945312500e+00) (2, 1.22739410400390625000e+02) (3, -3.35479698181152343750e+01) (4, -1.52676725387573242188e+01) (5, 8.97741699218750000000e+01) (6, -5.00602073669433593750e+01) (0, -9.81018829345703125000e+00) (1, 7.13698005676269531250e+00) (2, -9.92845153808593750000e+00) (3, -4.90607118606567382812e+00) (4, -1.93147695064544677734e+00) (5, -2.07382008433341979980e-01) (6, 2.45270252227783203125e+00) (7, 8.51323986053466796875e+00) (8, 6.00736923217773437500e+01) (9, -2.08533596992492675781e+00) (7, 3.66299366950988769531e+00) (8, 5.42455530166625976562e+00) (9, -4.16842907667160034180e-01) (10, -1.13202583789825439453e+00) (11, -1.87172377109527587891e+00) (12, -6.53835415840148925781e-01) 
