FANN_FLO_2.1
num_layers=3
learning_rate=0.400000
connection_rate=1.000000
network_type=0
learning_momentum=0.000000
training_algorithm=2
train_error_function=1
train_stop_function=0
cascade_output_change_fraction=0.010000
quickprop_decay=-0.000100
quickprop_mu=1.750000
rprop_increase_factor=1.200000
rprop_decrease_factor=0.500000
rprop_delta_min=0.000000
rprop_delta_max=50.000000
rprop_delta_zero=0.100000
cascade_output_stagnation_epochs=12
cascade_candidate_change_fraction=0.010000
cascade_candidate_stagnation_epochs=12
cascade_max_out_epochs=150
cascade_min_out_epochs=50
cascade_max_cand_epochs=150
cascade_min_cand_epochs=50
cascade_num_candidate_groups=2
bit_fail_limit=3.49999994039535522461e-01
cascade_candidate_limit=1.00000000000000000000e+03
cascade_weight_multiplier=4.00000005960464477539e-01
cascade_activation_functions_count=10
cascade_activation_functions=3 5 7 8 10 11 14 15 16 17 
cascade_activation_steepnesses_count=4
cascade_activation_steepnesses=2.50000000000000000000e-01 5.00000000000000000000e-01 7.50000000000000000000e-01 1.00000000000000000000e+00 
layer_sizes=7 9 2 
scale_included=0
neurons (num_inputs, activation_function, activation_steepness)=(0, 0, 0.00000000000000000000e+00) (0, 0, 0.00000000000000000000e+00) (0, 0, 0.00000000000000000000e+00) (0, 0, 0.00000000000000000000e+00) (0, 0, 0.00000000000000000000e+00) (0, 0, 0.00000000000000000000e+00) (0, 0, 0.00000000000000000000e+00) (7, 3, 5.00000000000000000000e-01) (7, 3, 5.00000000000000000000e-01) (7, 3, 5.00000000000000000000e-01) (7, 3, 5.00000000000000000000e-01) (7, 3, 5.00000000000000000000e-01) (7, 3, 5.00000000000000000000e-01) (7, 3, 5.00000000000000000000e-01) (7, 3, 5.00000000000000000000e-01) (0, 3, 0.00000000000000000000e+00) (9, 3, 5.00000000000000000000e-01) (0, 3, 0.00000000000000000000e+00) 
connections (connected_to_neuron, weight)=(0, -4.91338014602661132812e+00) (1, -1.71424198150634765625e+00) (2, -1.87860476970672607422e+00) (3, 7.91458487510681152344e-01) (4, 2.04199266433715820312e+00) (5, 1.00909245014190673828e+00) (6, -1.55254387855529785156e+00) (0, 1.07399880886077880859e-01) (1, -8.83663773536682128906e-01) (2, -1.73729157447814941406e+00) (3, 2.21462464332580566406e+00) (4, -4.80181276798248291016e-01) (5, 5.18745517730712890625e+00) (6, -3.29184031486511230469e+00) (0, -5.17718315124511718750e+00) (1, -1.46633350849151611328e+00) (2, -1.11831605434417724609e+00) (3, 1.40673494338989257812e+00) (4, 1.32160472869873046875e+00) (5, -2.04642653465270996094e-01) (6, -3.06447297334671020508e-01) (0, 3.46249818801879882812e-01) (1, 4.28051441907882690430e-01) (2, -4.19509172439575195312e+00) (3, 3.02107048034667968750e+00) (4, -5.79939174652099609375e+00) (5, 1.32521553039550781250e+01) (6, 1.08729398250579833984e+00) (0, -3.19071745872497558594e+00) (1, 3.85064363479614257812e-01) (2, 1.09574174880981445312e+00) (3, -1.47073674201965332031e+00) (4, -2.78246021270751953125e+00) (5, -8.89922454953193664551e-02) (6, 1.58817195892333984375e+00) (0, -1.24939227104187011719e+00) (1, 1.36891782283782958984e-01) (2, -5.37359833717346191406e-01) (3, -8.83606433868408203125e-01) (4, -1.16507768630981445312e+00) (5, -3.32696795463562011719e-01) (6, -3.47482055425643920898e-01) (0, 2.89418756961822509766e-01) (1, -8.66477906703948974609e-01) (2, -1.72573041915893554688e+00) (3, 1.69819152355194091797e+00) (4, -1.18813864886760711670e-01) (5, 4.57277059555053710938e+00) (6, -3.07169985771179199219e+00) (0, 4.60816800594329833984e-01) (1, 5.70808947086334228516e-01) (2, 1.11217474937438964844e+00) (3, -7.81627774238586425781e-01) (4, 3.31103968620300292969e+00) (5, 4.14656609296798706055e-01) (6, 8.71831774711608886719e-02) (7, 3.85649824142456054688e+00) (8, 2.72829055786132812500e+00) (9, 2.50196814537048339844e+00) (10, -3.39216923713684082031e+00) (11, -8.20950806140899658203e-01) (12, -2.64057636260986328125e+00) (13, 1.00970387458801269531e+00) (14, 6.49173259735107421875e-01) (15, 3.53605523705482482910e-02) 
