FANN_FLO_2.1
num_layers=4
learning_rate=0.500000
connection_rate=1.000000
network_type=0
learning_momentum=0.000000
training_algorithm=2
train_error_function=1
train_stop_function=0
cascade_output_change_fraction=0.010000
quickprop_decay=-0.000100
quickprop_mu=1.750000
rprop_increase_factor=1.200000
rprop_decrease_factor=0.500000
rprop_delta_min=0.000000
rprop_delta_max=50.000000
rprop_delta_zero=0.100000
cascade_output_stagnation_epochs=12
cascade_candidate_change_fraction=0.010000
cascade_candidate_stagnation_epochs=12
cascade_max_out_epochs=150
cascade_min_out_epochs=50
cascade_max_cand_epochs=150
cascade_min_cand_epochs=50
cascade_num_candidate_groups=2
bit_fail_limit=3.49999994039535522461e-01
cascade_candidate_limit=1.00000000000000000000e+03
cascade_weight_multiplier=4.00000005960464477539e-01
cascade_activation_functions_count=10
cascade_activation_functions=3 5 7 8 10 11 14 15 16 17 
cascade_activation_steepnesses_count=4
cascade_activation_steepnesses=2.50000000000000000000e-01 5.00000000000000000000e-01 7.50000000000000000000e-01 1.00000000000000000000e+00 
layer_sizes=10 9 5 2 
scale_included=0
neurons (num_inputs, activation_function, activation_steepness)=(0, 0, 0.00000000000000000000e+00) (0, 0, 0.00000000000000000000e+00) (0, 0, 0.00000000000000000000e+00) (0, 0, 0.00000000000000000000e+00) (0, 0, 0.00000000000000000000e+00) (0, 0, 0.00000000000000000000e+00) (0, 0, 0.00000000000000000000e+00) (0, 0, 0.00000000000000000000e+00) (0, 0, 0.00000000000000000000e+00) (0, 0, 0.00000000000000000000e+00) (10, 3, 5.00000000000000000000e-01) (10, 3, 5.00000000000000000000e-01) (10, 3, 5.00000000000000000000e-01) (10, 3, 5.00000000000000000000e-01) (10, 3, 5.00000000000000000000e-01) (10, 3, 5.00000000000000000000e-01) (10, 3, 5.00000000000000000000e-01) (10, 3, 5.00000000000000000000e-01) (0, 3, 0.00000000000000000000e+00) (9, 3, 5.00000000000000000000e-01) (9, 3, 5.00000000000000000000e-01) (9, 3, 5.00000000000000000000e-01) (9, 3, 5.00000000000000000000e-01) (0, 3, 0.00000000000000000000e+00) (5, 3, 5.00000000000000000000e-01) (0, 3, 0.00000000000000000000e+00) 
connections (connected_to_neuron, weight)=(0, 3.15736938476562500000e+02) (1, 1.49022937011718750000e+03) (2, 1.50535812377929687500e+01) (3, -6.11746826171875000000e+02) (4, 1.49725354003906250000e+03) (5, 2.28192558288574218750e+01) (6, -1.21203564453125000000e+03) (7, -2.65756866455078125000e+02) (8, -1.33143261718750000000e+03) (9, 8.31553077697753906250e+00) (0, 1.49531921386718750000e+03) (1, 1.42775830078125000000e+03) (2, 4.33576507568359375000e+02) (3, 5.25590148925781250000e+02) (4, 1.31372180175781250000e+03) (5, 1.04722497558593750000e+03) (6, 1.24592016601562500000e+03) (7, 1.31390344238281250000e+03) (8, 1.42775830078125000000e+03) (9, 1.12066373825073242188e+01) (0, -1.55651733398437500000e+02) (1, -5.63163879394531250000e+02) (2, 1.02918237304687500000e+03) (3, 2.77764190673828125000e+02) (4, 1.29369964599609375000e+02) (5, -9.01974182128906250000e+02) (6, 2.38504837036132812500e+02) (7, 3.63184051513671875000e+02) (8, -6.02611572265625000000e+02) (9, -4.87551867961883544922e-01) (0, 1.44615905761718750000e+03) (1, 1.42775830078125000000e+03) (2, -8.18042053222656250000e+02) (3, 4.37097930908203125000e+02) (4, 1.42729003906250000000e+03) (5, 2.85196929931640625000e+02) (6, 1.45756567382812500000e+03) (7, 1.37746887207031250000e+03) (8, 1.42775830078125000000e+03) (9, 1.98098327636718750000e+02) (0, -1.59640467166900634766e+00) (1, -1.33682785034179687500e+02) (2, -9.96947479248046875000e+00) (3, 4.53914356231689453125e+00) (4, -3.34510231018066406250e+01) (5, -3.37922334671020507812e+00) (6, 3.18654136657714843750e+01) (7, -2.81146913766860961914e-01) (8, 1.79210693359375000000e+02) (9, -5.28402805328369140625e+00) (0, 1.44615905761718750000e+03) (1, 1.42775830078125000000e+03) (2, 1.56963211059570312500e+02) (3, 5.63456420898437500000e+02) (4, 1.41911669921875000000e+03) (5, 2.47622039794921875000e+02) (6, 1.47467773437500000000e+03) (7, 1.42520678710937500000e+03) (8, 1.42775830078125000000e+03) (9, 6.89176208496093750000e+02) (0, -3.58967471122741699219e+00) (1, -2.19965481758117675781e+00) (2, 9.74501770019531250000e+02) (3, 3.23863536119461059570e-01) (4, -1.49677581787109375000e+02) (5, -6.23123054504394531250e+01) (6, 2.08371615409851074219e+00) (7, -1.91337788105010986328e+00) (8, -9.14930358886718750000e+02) (9, -2.46369409561157226562e+00) (0, 4.72409820556640625000e+01) (1, -5.74005432128906250000e+02) (2, 9.74501770019531250000e+02) (3, 1.09980258941650390625e+01) (4, -8.72457641601562500000e+02) (5, -9.50982788085937500000e+02) (6, 2.12233486175537109375e+01) (7, 3.90630149841308593750e+01) (8, -8.11016662597656250000e+02) (9, 3.24630856513977050781e-01) (10, 5.84866905212402343750e+01) (11, 9.68648223876953125000e+01) (12, -5.83696960449218750000e+02) (13, 2.90905395507812500000e+02) (14, -1.50000000000000000000e+03) (15, 2.39184631347656250000e+02) (16, -7.16768127441406250000e+02) (17, -2.65800048828125000000e+02) (18, 2.13350811004638671875e+01) (10, -9.73971801757812500000e+02) (11, 6.00316572189331054688e+00) (12, 1.35437231063842773438e+01) (13, 1.36519058227539062500e+02) (14, -1.50000000000000000000e+03) (15, 4.15560684204101562500e+01) (16, -5.50986328125000000000e+02) (17, 5.62107910156250000000e+02) (18, -3.63844451904296875000e+01) (10, 6.75723361968994140625e+00) (11, -2.96495223045349121094e+00) (12, 2.84632515907287597656e+00) (13, -1.89440059661865234375e+01) (14, -1.50000000000000000000e+03) (15, -8.85395717620849609375e+00) (16, 1.47382030487060546875e+01) (17, 3.26806330680847167969e+00) (18, 3.06700563430786132812e+00) (10, -1.64828826904296875000e+02) (11, -2.48771712183952331543e-01) (12, 2.30385036468505859375e+01) (13, 1.01666191101074218750e+02) (14, 1.50000000000000000000e+03) (15, -3.06314134597778320312e+00) (16, 8.41332885742187500000e+02) (17, 1.50000000000000000000e+03) (18, -1.97478294372558593750e+00) (19, 7.50000000000000000000e+02) (20, 1.05267596244812011719e+00) (21, 4.46538352966308593750e+00) (22, -9.78153288364410400391e-01) (23, 7.95657873153686523438e-01) 
