FANN_FLO_2.1
num_layers=3
learning_rate=0.400000
connection_rate=1.000000
network_type=0
learning_momentum=0.000000
training_algorithm=2
train_error_function=1
train_stop_function=0
cascade_output_change_fraction=0.010000
quickprop_decay=-0.000100
quickprop_mu=1.750000
rprop_increase_factor=1.200000
rprop_decrease_factor=0.500000
rprop_delta_min=0.000000
rprop_delta_max=50.000000
rprop_delta_zero=0.100000
cascade_output_stagnation_epochs=12
cascade_candidate_change_fraction=0.010000
cascade_candidate_stagnation_epochs=12
cascade_max_out_epochs=150
cascade_min_out_epochs=50
cascade_max_cand_epochs=150
cascade_min_cand_epochs=50
cascade_num_candidate_groups=2
bit_fail_limit=3.49999994039535522461e-01
cascade_candidate_limit=1.00000000000000000000e+03
cascade_weight_multiplier=4.00000005960464477539e-01
cascade_activation_functions_count=10
cascade_activation_functions=3 5 7 8 10 11 14 15 16 17 
cascade_activation_steepnesses_count=4
cascade_activation_steepnesses=2.50000000000000000000e-01 5.00000000000000000000e-01 7.50000000000000000000e-01 1.00000000000000000000e+00 
layer_sizes=7 9 2 
scale_included=0
neurons (num_inputs, activation_function, activation_steepness)=(0, 0, 0.00000000000000000000e+00) (0, 0, 0.00000000000000000000e+00) (0, 0, 0.00000000000000000000e+00) (0, 0, 0.00000000000000000000e+00) (0, 0, 0.00000000000000000000e+00) (0, 0, 0.00000000000000000000e+00) (0, 0, 0.00000000000000000000e+00) (7, 3, 5.00000000000000000000e-01) (7, 3, 5.00000000000000000000e-01) (7, 3, 5.00000000000000000000e-01) (7, 3, 5.00000000000000000000e-01) (7, 3, 5.00000000000000000000e-01) (7, 3, 5.00000000000000000000e-01) (7, 3, 5.00000000000000000000e-01) (7, 3, 5.00000000000000000000e-01) (0, 3, 0.00000000000000000000e+00) (9, 3, 5.00000000000000000000e-01) (0, 3, 0.00000000000000000000e+00) 
connections (connected_to_neuron, weight)=(0, -1.38994512557983398438e+01) (1, 1.30004863739013671875e+01) (2, 5.80139815807342529297e-01) (3, -3.21167445182800292969e+00) (4, -1.65041875839233398438e+00) (5, 4.00958204269409179688e+00) (6, 1.09891033172607421875e+00) (0, -1.25781655311584472656e+00) (1, -2.45331811904907226562e+00) (2, 8.13317394256591796875e+00) (3, -9.49744606018066406250e+00) (4, -1.51738414764404296875e+01) (5, 1.18778171539306640625e+01) (6, -3.99761609733104705811e-02) (0, 1.59968316555023193359e-01) (1, -5.40474429726600646973e-02) (2, -1.49186486816406250000e+03) (3, -2.17722969055175781250e+01) (4, 5.21239614486694335938e+00) (5, -1.50000000000000000000e+03) (6, 7.96012729406356811523e-02) (0, -1.48587427139282226562e+01) (1, 7.20972537994384765625e+00) (2, -4.86421060562133789062e+00) (3, -2.27926826477050781250e+00) (4, -2.75636148452758789062e+00) (5, 1.77751111984252929688e+00) (6, 8.37227821350097656250e+00) (0, -1.07909879684448242188e+01) (1, 6.17440007627010345459e-02) (2, -1.08945465087890625000e+00) (3, -3.59411382675170898438e+00) (4, -4.72360515594482421875e+00) (5, -1.65248858928680419922e+00) (6, 1.37708377838134765625e+01) (0, 1.23981785774230957031e+00) (1, 6.98237895965576171875e-01) (2, -3.02901172637939453125e+01) (3, -2.19251728057861328125e+01) (4, 7.33043336868286132812e+00) (5, 2.09183067083358764648e-01) (6, -1.67175590991973876953e+00) (0, -3.26823091506958007812e+00) (1, 5.29841136932373046875e+00) (2, -3.43885498046875000000e+01) (3, -2.18364429473876953125e+00) (4, -1.16053879261016845703e+00) (5, 7.25882196426391601562e+00) (6, 2.90433496236801147461e-01) (0, 1.27259569168090820312e+01) (1, -1.30038938522338867188e+01) (2, 3.91038632392883300781e+00) (3, -9.34282183647155761719e-01) (4, 4.97606694698333740234e-01) (5, -6.70308208465576171875e+00) (6, 6.69334840774536132812e+00) (7, -2.99166226387023925781e+00) (8, -3.44558119773864746094e-01) (9, -1.50000000000000000000e+03) (10, -8.47913324832916259766e-01) (11, -1.98363170027732849121e-01) (12, -8.61295998096466064453e-01) (13, -4.48546558618545532227e-01) (14, -4.35583305358886718750e+00) (15, 3.28271102905273437500e+00) 
