FANN_FLO_2.1
num_layers=3
learning_rate=0.400000
connection_rate=1.000000
network_type=0
learning_momentum=0.000000
training_algorithm=2
train_error_function=1
train_stop_function=0
cascade_output_change_fraction=0.010000
quickprop_decay=-0.000100
quickprop_mu=1.750000
rprop_increase_factor=1.200000
rprop_decrease_factor=0.500000
rprop_delta_min=0.000000
rprop_delta_max=50.000000
rprop_delta_zero=0.100000
cascade_output_stagnation_epochs=12
cascade_candidate_change_fraction=0.010000
cascade_candidate_stagnation_epochs=12
cascade_max_out_epochs=150
cascade_min_out_epochs=50
cascade_max_cand_epochs=150
cascade_min_cand_epochs=50
cascade_num_candidate_groups=2
bit_fail_limit=3.49999994039535522461e-01
cascade_candidate_limit=1.00000000000000000000e+03
cascade_weight_multiplier=4.00000005960464477539e-01
cascade_activation_functions_count=10
cascade_activation_functions=3 5 7 8 10 11 14 15 16 17 
cascade_activation_steepnesses_count=4
cascade_activation_steepnesses=2.50000000000000000000e-01 5.00000000000000000000e-01 7.50000000000000000000e-01 1.00000000000000000000e+00 
layer_sizes=65 3 65 
scale_included=0
neurons (num_inputs, activation_function, activation_steepness)=(0, 0, 0.00000000000000000000e+00) (0, 0, 0.00000000000000000000e+00) (0, 0, 0.00000000000000000000e+00) (0, 0, 0.00000000000000000000e+00) (0, 0, 0.00000000000000000000e+00) (0, 0, 0.00000000000000000000e+00) (0, 0, 0.00000000000000000000e+00) (0, 0, 0.00000000000000000000e+00) (0, 0, 0.00000000000000000000e+00) (0, 0, 0.00000000000000000000e+00) (0, 0, 0.00000000000000000000e+00) (0, 0, 0.00000000000000000000e+00) (0, 0, 0.00000000000000000000e+00) (0, 0, 0.00000000000000000000e+00) (0, 0, 0.00000000000000000000e+00) (0, 0, 0.00000000000000000000e+00) (0, 0, 0.00000000000000000000e+00) (0, 0, 0.00000000000000000000e+00) (0, 0, 0.00000000000000000000e+00) (0, 0, 0.00000000000000000000e+00) (0, 0, 0.00000000000000000000e+00) (0, 0, 0.00000000000000000000e+00) (0, 0, 0.00000000000000000000e+00) (0, 0, 0.00000000000000000000e+00) (0, 0, 0.00000000000000000000e+00) (0, 0, 0.00000000000000000000e+00) (0, 0, 0.00000000000000000000e+00) (0, 0, 0.00000000000000000000e+00) (0, 0, 0.00000000000000000000e+00) (0, 0, 0.00000000000000000000e+00) (0, 0, 0.00000000000000000000e+00) (0, 0, 0.00000000000000000000e+00) (0, 0, 0.00000000000000000000e+00) (0, 0, 0.00000000000000000000e+00) (0, 0, 0.00000000000000000000e+00) (0, 0, 0.00000000000000000000e+00) (0, 0, 0.00000000000000000000e+00) (0, 0, 0.00000000000000000000e+00) (0, 0, 0.00000000000000000000e+00) (0, 0, 0.00000000000000000000e+00) (0, 0, 0.00000000000000000000e+00) (0, 0, 0.00000000000000000000e+00) (0, 0, 0.00000000000000000000e+00) (0, 0, 0.00000000000000000000e+00) (0, 0, 0.00000000000000000000e+00) (0, 0, 0.00000000000000000000e+00) (0, 0, 0.00000000000000000000e+00) (0, 0, 0.00000000000000000000e+00) (0, 0, 0.00000000000000000000e+00) (0, 0, 0.00000000000000000000e+00) (0, 0, 0.00000000000000000000e+00) (0, 0, 0.00000000000000000000e+00) (0, 0, 0.00000000000000000000e+00) (0, 0, 0.00000000000000000000e+00) (0, 0, 0.00000000000000000000e+00) (0, 0, 0.00000000000000000000e+00) (0, 0, 0.00000000000000000000e+00) (0, 0, 0.00000000000000000000e+00) (0, 0, 0.00000000000000000000e+00) (0, 0, 0.00000000000000000000e+00) (0, 0, 0.00000000000000000000e+00) (0, 0, 0.00000000000000000000e+00) (0, 0, 0.00000000000000000000e+00) (0, 0, 0.00000000000000000000e+00) (0, 0, 0.00000000000000000000e+00) (65, 3, 5.00000000000000000000e-01) (65, 3, 5.00000000000000000000e-01) (0, 3, 0.00000000000000000000e+00) (3, 5, 5.00000000000000000000e-01) (3, 5, 5.00000000000000000000e-01) (3, 5, 5.00000000000000000000e-01) (3, 5, 5.00000000000000000000e-01) (3, 5, 5.00000000000000000000e-01) (3, 5, 5.00000000000000000000e-01) (3, 5, 5.00000000000000000000e-01) (3, 5, 5.00000000000000000000e-01) (3, 5, 5.00000000000000000000e-01) (3, 5, 5.00000000000000000000e-01) (3, 5, 5.00000000000000000000e-01) (3, 5, 5.00000000000000000000e-01) (3, 5, 5.00000000000000000000e-01) (3, 5, 5.00000000000000000000e-01) (3, 5, 5.00000000000000000000e-01) (3, 5, 5.00000000000000000000e-01) (3, 5, 5.00000000000000000000e-01) (3, 5, 5.00000000000000000000e-01) (3, 5, 5.00000000000000000000e-01) (3, 5, 5.00000000000000000000e-01) (3, 5, 5.00000000000000000000e-01) (3, 5, 5.00000000000000000000e-01) (3, 5, 5.00000000000000000000e-01) (3, 5, 5.00000000000000000000e-01) (3, 5, 5.00000000000000000000e-01) (3, 5, 5.00000000000000000000e-01) (3, 5, 5.00000000000000000000e-01) (3, 5, 5.00000000000000000000e-01) (3, 5, 5.00000000000000000000e-01) (3, 5, 5.00000000000000000000e-01) (3, 5, 5.00000000000000000000e-01) (3, 5, 5.00000000000000000000e-01) (3, 5, 5.00000000000000000000e-01) (3, 5, 5.00000000000000000000e-01) (3, 5, 5.00000000000000000000e-01) (3, 5, 5.00000000000000000000e-01) (3, 5, 5.00000000000000000000e-01) (3, 5, 5.00000000000000000000e-01) (3, 5, 5.00000000000000000000e-01) (3, 5, 5.00000000000000000000e-01) (3, 5, 5.00000000000000000000e-01) (3, 5, 5.00000000000000000000e-01) (3, 5, 5.00000000000000000000e-01) (3, 5, 5.00000000000000000000e-01) (3, 5, 5.00000000000000000000e-01) (3, 5, 5.00000000000000000000e-01) (3, 5, 5.00000000000000000000e-01) (3, 5, 5.00000000000000000000e-01) (3, 5, 5.00000000000000000000e-01) (3, 5, 5.00000000000000000000e-01) (3, 5, 5.00000000000000000000e-01) (3, 5, 5.00000000000000000000e-01) (3, 5, 5.00000000000000000000e-01) (3, 5, 5.00000000000000000000e-01) (3, 5, 5.00000000000000000000e-01) (3, 5, 5.00000000000000000000e-01) (3, 5, 5.00000000000000000000e-01) (3, 5, 5.00000000000000000000e-01) (3, 5, 5.00000000000000000000e-01) (3, 5, 5.00000000000000000000e-01) (3, 5, 5.00000000000000000000e-01) (3, 5, 5.00000000000000000000e-01) (3, 5, 5.00000000000000000000e-01) (3, 5, 5.00000000000000000000e-01) (0, 5, 0.00000000000000000000e+00) 
connections (connected_to_neuron, weight)=(0, 1.61278590559959411621e-01) (1, -1.42466248944401741028e-02) (2, 1.21560059487819671631e-01) (3, 7.11800530552864074707e-02) (4, 7.63160586357116699219e-02) (5, -7.19049200415611267090e-02) (6, 1.23163722455501556396e-01) (7, 5.20489439368247985840e-02) (8, 2.87552010267972946167e-02) (9, 6.88006579875946044922e-02) (10, 8.25623422861099243164e-02) (11, 1.54115229845046997070e-01) (12, 1.49901941418647766113e-01) (13, -8.45508947968482971191e-02) (14, -1.87575161457061767578e-01) (15, -7.36913532018661499023e-02) (16, 1.06776840984821319580e-01) (17, 7.72531181573867797852e-02) (18, 6.08667433261871337891e-02) (19, -4.44332845509052276611e-02) (20, 1.27265512943267822266e-01) (21, -1.21108308434486389160e-01) (22, 8.21339245885610580444e-03) (23, -5.00929020345211029053e-02) (24, 3.22888076305389404297e-01) (25, 6.98506832122802734375e-02) (26, -1.83453895151615142822e-02) (27, 8.16650763154029846191e-02) (28, 7.76890441775321960449e-02) (29, -1.16936482489109039307e-01) (30, -1.56058683991432189941e-01) (31, 8.72142240405082702637e-03) (32, 1.14150106906890869141e-01) (33, 6.31450265645980834961e-02) (34, 5.99193274974822998047e-02) (35, -1.43667394295334815979e-02) (36, 1.78686141967773437500e-01) (37, -7.50122517347335815430e-02) (38, -8.37092921137809753418e-02) (39, 1.94015484303236007690e-02) (40, 2.12959758937358856201e-02) (41, 5.18068820238113403320e-02) (42, 7.96077623963356018066e-02) (43, 5.42166344821453094482e-02) (44, 1.54249563813209533691e-01) (45, 2.07076892256736755371e-01) (46, -6.36756094172596931458e-03) (47, 3.24297547340393066406e-02) (48, 5.61767704784870147705e-02) (49, 1.75133198499679565430e-01) (50, -9.60046201944351196289e-02) (51, -4.06271629035472869873e-02) (52, 3.99497002363204956055e-02) (53, -9.44044739007949829102e-02) (54, -1.25677704811096191406e-01) (55, -7.06336647272109985352e-02) (56, -3.06030884385108947754e-02) (57, -1.03797353804111480713e-02) (58, -4.35025170445442199707e-02) (59, -1.56569704413414001465e-02) (60, 1.43096908926963806152e-01) (61, -1.23380891978740692139e-01) (62, 9.75924655795097351074e-02) (63, -1.75935119390487670898e-01) (64, -1.44638013839721679688e+00) (0, -1.94521471858024597168e-01) (1, -1.52687951922416687012e-01) (2, 5.90005256235599517822e-02) (3, 1.13870259374380111694e-02) (4, 3.12241483479738235474e-02) (5, -2.87433043122291564941e-02) (6, 1.51082918047904968262e-01) (7, 1.81073829531669616699e-01) (8, -4.09664362668991088867e-02) (9, -1.09416946768760681152e-01) (10, 2.10383590310811996460e-02) (11, -1.32026744540780782700e-03) (12, 9.10521969199180603027e-02) (13, 7.69729614257812500000e-02) (14, 5.64420521259307861328e-02) (15, 1.76990807056427001953e-01) (16, -4.79446612298488616943e-02) (17, -1.52444809675216674805e-01) (18, 6.28696531057357788086e-02) (19, -7.88083951920270919800e-03) (20, 7.69179016351699829102e-02) (21, 8.84588658809661865234e-02) (22, -2.28186130523681640625e-01) (23, 1.23311311006546020508e-01) (24, 9.17453095316886901855e-02) (25, -1.16082742810249328613e-01) (26, -1.40250563621520996094e-01) (27, -1.71885490417480468750e-02) (28, -6.65222248062491416931e-03) (29, 1.33912950754165649414e-01) (30, 2.62700140476226806641e-01) (31, 2.03163549304008483887e-01) (32, -1.05726040899753570557e-01) (33, -2.41326227784156799316e-01) (34, -5.10811246931552886963e-02) (35, 9.09758172929286956787e-03) (36, 4.51229214668273925781e-02) (37, 1.71666741371154785156e-01) (38, 6.57985433936119079590e-02) (39, 3.12285929918289184570e-01) (40, -2.10500985383987426758e-01) (41, 3.05447638034820556641e-01) (42, -1.75997108221054077148e-01) (43, 6.06784410774707794189e-02) (44, 1.17427684366703033447e-01) (45, 1.20983280241489410400e-01) (46, 1.19111679494380950928e-01) (47, 1.58269807696342468262e-01) (48, -1.10757142305374145508e-01) (49, 2.00976178050041198730e-01) (50, -2.24626451730728149414e-01) (51, -3.96477691829204559326e-02) (52, 1.13117836415767669678e-01) (53, 2.38824278116226196289e-01) (54, 1.38203844428062438965e-01) (55, 2.06361800432205200195e-01) (56, -9.91510674357414245605e-02) (57, -1.17074660956859588623e-01) (58, 1.16477750241756439209e-01) (59, 2.44724191725254058838e-02) (60, 2.11393937468528747559e-01) (61, 2.60534197092056274414e-01) (62, 1.21816188097000122070e-01) (63, 3.33814561367034912109e-01) (64, -1.10279589891433715820e-01) (65, 2.27211713790893554688e+00) (66, 6.52418792247772216797e-01) (67, -7.54922568798065185547e-01) (65, 1.33519196510314941406e+00) (66, -5.25307297706604003906e-01) (67, -1.40979737043380737305e-02) (65, 5.45628607273101806641e-01) (66, -1.99934750795364379883e-01) (67, -8.84221494197845458984e-03) (65, -5.28707168996334075928e-02) (66, 7.09076737985014915466e-03) (67, 6.32357783615589141846e-03) (65, -1.28501087427139282227e-01) (66, 7.40863829851150512695e-02) (67, -1.31501508876681327820e-02) (65, -8.45172479748725891113e-02) (66, 2.51867286860942840576e-02) (67, 4.84114186838269233704e-03) (65, -3.11347525566816329956e-02) (66, 7.12865265086293220520e-03) (67, 4.28084516897797584534e-03) (65, -5.38855753839015960693e-02) (66, 3.82521636784076690674e-02) (67, -8.26073158532381057739e-03) (65, -1.08938202261924743652e-01) (66, 4.04400266706943511963e-02) (67, 3.19856335408985614777e-03) (65, 5.39819560945034027100e-02) (66, -1.85901410877704620361e-02) (67, -2.02275067567825317383e-03) (65, 1.78964994847774505615e-02) (66, -8.45259893685579299927e-03) (67, 5.57073450181633234024e-04) (65, 3.95119488239288330078e-02) (66, -1.52200199663639068604e-02) (67, -9.72155889030545949936e-04) (65, 2.24068369716405868530e-02) (66, -1.21934441849589347839e-02) (67, 1.07666314579546451569e-03) (65, 4.04781550168991088867e-02) (66, -1.41446543857455253601e-02) (67, -2.06180196255445480347e-03) (65, -1.05764437466859817505e-02) (66, 5.79730654135346412659e-03) (67, -1.17250159382820129395e-03) (65, 5.18410978838801383972e-03) (66, -4.44590300321578979492e-03) (67, 1.57713121734559535980e-03) (65, -1.23550770804286003113e-02) (66, 7.77349574491381645203e-03) (67, -1.08117051422595977783e-03) (65, 2.20899526029825210571e-02) (66, -1.28036607056856155396e-02) (67, 1.70594989322125911713e-03) (65, -1.50977279990911483765e-02) (66, 6.94409152492880821228e-03) (67, -2.31159385293722152710e-04) (65, -1.68751704040914773941e-03) (66, 2.24702234845608472824e-04) (67, 3.24992579407989978790e-04) (65, -6.15974748507142066956e-03) (66, 1.28237216267734766006e-03) (67, 5.40455104783177375793e-04) (65, -5.31198340468108654022e-04) (66, 4.74942906294018030167e-04) (67, 1.65943201864138245583e-04) (65, 3.68848140351474285126e-03) (66, -1.79485406260937452316e-03) (67, 1.62832497153431177139e-04) (65, -3.22968000546097755432e-04) (66, -6.72728856443427503109e-05) (67, 8.63780296640470623970e-05) (65, 6.09673140570521354675e-03) (66, 3.40284386766143143177e-05) (67, -1.66947382967919111252e-03) (65, -1.00536635145545005798e-02) (66, 4.65880008414387702942e-03) (67, -4.73213673103600740433e-04) (65, 5.39327797014266252518e-04) (66, -1.07699655927717685699e-03) (67, 5.25738985743373632431e-04) (65, 5.46318897977471351624e-03) (66, -1.52279657777398824692e-03) (67, -3.20550898322835564613e-04) (65, -7.55963847041130065918e-04) (66, 7.06559629179537296295e-04) (67, -1.70372484717518091202e-04) (65, -4.91542322561144828796e-03) (66, 1.61664793267846107483e-03) (67, 1.46974984090775251389e-04) (65, 5.77051760046742856503e-05) (66, 9.40421523409895598888e-05) (67, -2.19677604036405682564e-04) (65, 1.48015783634036779404e-03) (66, 1.30814500153064727783e-04) (67, -2.23927301703952252865e-04) (65, 8.71764132170937955379e-05) (66, -5.82753738854080438614e-04) (67, 3.44985543051734566689e-04) (65, -4.88265155581757426262e-04) (66, 1.67100079124793410301e-04) (67, -1.48621620610356330872e-05) (65, 4.35886817285791039467e-04) (66, -1.16726325359195470810e-04) (67, 6.88243890181183815002e-05) (65, 1.68058928102254867554e-03) (66, -6.01144623942673206329e-04) (67, 3.91048743040300905704e-05) (65, -1.22477707918733358383e-03) (66, 4.52036270871758460999e-04) (67, 1.14361384476069360971e-04) (65, -1.27036706544458866119e-03) (66, 7.28463579434901475906e-04) (67, 1.90558785106986761093e-05) (65, 5.02651440910995006561e-04) (66, 5.16093605256173759699e-05) (67, 8.58206331031396985054e-05) (65, 7.05475395079702138901e-04) (66, 3.63470666343346238136e-04) (67, -6.19923521298915147781e-05) (65, -5.29761484358459711075e-04) (66, 2.24442977923899888992e-04) (67, -4.35577385360375046730e-06) (65, 9.98040311969816684723e-04) (66, -1.94953157915733754635e-04) (67, 1.76475121406838297844e-04) (65, -1.42448674887418746948e-03) (66, 2.67104565864428877831e-04) (67, 2.29997953283600509167e-04) (65, 3.90752771636471152306e-04) (66, -5.14585335622541606426e-05) (67, -1.18631774967070668936e-04) (65, 9.63491154834628105164e-04) (66, -2.38946740864776074886e-04) (67, 1.26864251797087490559e-04) (65, -1.73068838194012641907e-03) (66, 8.78758146427571773529e-04) (67, -2.43553222389891743660e-06) (65, 5.92759985011070966721e-04) (66, -3.25452798279002308846e-04) (67, -4.49992076028138399124e-05) (65, -1.86630105599761009216e-03) (66, 9.93887078948318958282e-04) (67, 2.70894379355013370514e-05) (65, -2.07781631615944206715e-05) (66, -6.93137844791635870934e-05) (67, 5.35366052645258605480e-05) (65, -8.11008096206933259964e-04) (66, 3.13502881908789277077e-04) (67, 8.37536863400600850582e-05) (65, 7.27510254364460706711e-04) (66, -3.58360237441956996918e-04) (67, 2.81454049400053918362e-05) (65, 4.98581386636942625046e-04) (66, -3.59583296813070774078e-04) (67, -1.60413357662037014961e-04) (65, 6.92853762302547693253e-04) (66, -2.08469456993043422699e-04) (67, 1.02274825621861964464e-04) (65, 9.04512999113649129868e-04) (66, -5.14956074766814708710e-04) (67, -7.28554514353163540363e-05) (65, 1.37698673643171787262e-03) (66, -4.52831533038988709450e-04) (67, 1.46337304613552987576e-04) (65, 6.27895118668675422668e-04) (66, -2.48038209974765777588e-04) (67, 3.64712977898307144642e-05) (65, 1.30157102830708026886e-04) (66, 2.67844079644419252872e-05) (67, 3.59626792487688362598e-05) (65, -4.65071439975872635841e-04) (66, 4.34263929491862654686e-04) (67, -2.18614062760025262833e-04) (65, 1.40612490940839052200e-03) (66, -7.50602222979068756104e-04) (67, -1.73240186995826661587e-05) (65, 2.59867723798379302025e-04) (66, -2.29827390285208821297e-04) (67, -4.63893302367068827152e-05) (65, 6.17364639765582978725e-05) (66, -9.44977145991288125515e-05) (67, -4.95161220896989107132e-05) (65, 1.40730361454188823700e-03) (66, -3.60987702151760458946e-04) (67, 1.96998793398961424828e-04) (65, 1.47235917393118143082e-03) (66, -3.52408125763759016991e-04) (67, 1.73896725755184888840e-04) (65, -7.60251423344016075134e-04) (66, 1.21060940728057175875e-04) (67, 1.42490229336544871330e-04) 
