FANN_FLO_2.1
num_layers=4
learning_rate=0.500000
connection_rate=1.000000
network_type=0
learning_momentum=0.000000
training_algorithm=2
train_error_function=1
train_stop_function=0
cascade_output_change_fraction=0.010000
quickprop_decay=-0.000100
quickprop_mu=1.750000
rprop_increase_factor=1.200000
rprop_decrease_factor=0.500000
rprop_delta_min=0.000000
rprop_delta_max=50.000000
rprop_delta_zero=0.100000
cascade_output_stagnation_epochs=12
cascade_candidate_change_fraction=0.010000
cascade_candidate_stagnation_epochs=12
cascade_max_out_epochs=150
cascade_min_out_epochs=50
cascade_max_cand_epochs=150
cascade_min_cand_epochs=50
cascade_num_candidate_groups=2
bit_fail_limit=3.49999994039535522461e-01
cascade_candidate_limit=1.00000000000000000000e+03
cascade_weight_multiplier=4.00000005960464477539e-01
cascade_activation_functions_count=10
cascade_activation_functions=3 5 7 8 10 11 14 15 16 17 
cascade_activation_steepnesses_count=4
cascade_activation_steepnesses=2.50000000000000000000e-01 5.00000000000000000000e-01 7.50000000000000000000e-01 1.00000000000000000000e+00 
layer_sizes=2 5 3 3 
scale_included=0
neurons (num_inputs, activation_function, activation_steepness)=(0, 0, 0.00000000000000000000e+00) (0, 0, 0.00000000000000000000e+00) (2, 3, 5.00000000000000000000e-01) (2, 3, 5.00000000000000000000e-01) (2, 3, 5.00000000000000000000e-01) (2, 3, 5.00000000000000000000e-01) (0, 3, 0.00000000000000000000e+00) (5, 3, 5.00000000000000000000e-01) (5, 3, 5.00000000000000000000e-01) (0, 3, 0.00000000000000000000e+00) (3, 0, 5.00000000000000000000e-01) (3, 0, 5.00000000000000000000e-01) (0, 0, 0.00000000000000000000e+00) 
connections (connected_to_neuron, weight)=(0, 4.16353454589843750000e+01) (1, 5.49394798278808593750e+00) (0, 6.47832641601562500000e+01) (1, 3.52609825134277343750e+00) (0, 1.14190039062500000000e+03) (1, -4.79566841125488281250e+01) (0, 1.13471899414062500000e+03) (1, 2.69705295562744140625e+01) (2, -4.87935495376586914062e+00) (3, -1.48236645507812500000e+03) (4, 1.48077563476562500000e+03) (5, 2.01416707038879394531e+00) (6, 1.75978273153305053711e-01) (2, 2.69113731384277343750e+00) (3, -3.37806320190429687500e+00) (4, -1.37155993652343750000e+03) (5, -4.44554597139358520508e-01) (6, 1.94861698150634765625e+00) (7, 1.56623439788818359375e+01) (8, 2.26080608367919921875e+00) (9, -1.71811115741729736328e+00) (7, 9.04393768310546875000e+00) (8, 2.91090464591979980469e+00) (9, -1.92210361361503601074e-01) 
