FANN_FLO_2.1
num_layers=4
learning_rate=0.500000
connection_rate=1.000000
network_type=0
learning_momentum=0.000000
training_algorithm=2
train_error_function=1
train_stop_function=0
cascade_output_change_fraction=0.010000
quickprop_decay=-0.000100
quickprop_mu=1.750000
rprop_increase_factor=1.200000
rprop_decrease_factor=0.500000
rprop_delta_min=0.000000
rprop_delta_max=50.000000
rprop_delta_zero=0.100000
cascade_output_stagnation_epochs=12
cascade_candidate_change_fraction=0.010000
cascade_candidate_stagnation_epochs=12
cascade_max_out_epochs=150
cascade_min_out_epochs=50
cascade_max_cand_epochs=150
cascade_min_cand_epochs=50
cascade_num_candidate_groups=2
bit_fail_limit=3.49999994039535522461e-01
cascade_candidate_limit=1.00000000000000000000e+03
cascade_weight_multiplier=4.00000005960464477539e-01
cascade_activation_functions_count=10
cascade_activation_functions=3 5 7 8 10 11 14 15 16 17 
cascade_activation_steepnesses_count=4
cascade_activation_steepnesses=2.50000000000000000000e-01 5.00000000000000000000e-01 7.50000000000000000000e-01 1.00000000000000000000e+00 
layer_sizes=10 5 5 2 
scale_included=0
neurons (num_inputs, activation_function, activation_steepness)=(0, 0, 0.00000000000000000000e+00) (0, 0, 0.00000000000000000000e+00) (0, 0, 0.00000000000000000000e+00) (0, 0, 0.00000000000000000000e+00) (0, 0, 0.00000000000000000000e+00) (0, 0, 0.00000000000000000000e+00) (0, 0, 0.00000000000000000000e+00) (0, 0, 0.00000000000000000000e+00) (0, 0, 0.00000000000000000000e+00) (0, 0, 0.00000000000000000000e+00) (10, 3, 5.00000000000000000000e-01) (10, 3, 5.00000000000000000000e-01) (10, 3, 5.00000000000000000000e-01) (10, 3, 5.00000000000000000000e-01) (0, 3, 0.00000000000000000000e+00) (5, 3, 5.00000000000000000000e-01) (5, 3, 5.00000000000000000000e-01) (5, 3, 5.00000000000000000000e-01) (5, 3, 5.00000000000000000000e-01) (0, 3, 0.00000000000000000000e+00) (5, 3, 5.00000000000000000000e-01) (0, 3, 0.00000000000000000000e+00) 
connections (connected_to_neuron, weight)=(0, 1.03235008239746093750e+02) (1, -8.34078639745712280273e-02) (2, -3.76924247741699218750e+01) (3, 8.33979892730712890625e+00) (4, -7.39036560058593750000e+01) (5, 2.39065628051757812500e+01) (6, 2.59131640195846557617e-01) (7, -1.01784431934356689453e+00) (8, 1.92625653743743896484e+00) (9, 6.49998605251312255859e-01) (0, 9.51909561157226562500e+01) (1, -6.20791435241699218750e+00) (2, -4.28353424072265625000e+01) (3, 4.17399597167968750000e+00) (4, -9.30559921264648437500e+00) (5, 1.95164260864257812500e+01) (6, 6.07309997081756591797e-01) (7, -4.98098760843276977539e-01) (8, -2.18138236999511718750e+01) (9, 2.58560955524444580078e-01) (0, -6.24839878082275390625e+00) (1, -8.89613418579101562500e+01) (2, -2.89298648834228515625e+01) (3, -1.16637954711914062500e+01) (4, -1.15465881347656250000e+02) (5, 7.28888168334960937500e+01) (6, -2.97266364097595214844e+00) (7, -3.09909973144531250000e+01) (8, 3.00580078125000000000e+02) (9, -1.44097650051116943359e+00) (0, -4.47837432861328125000e+02) (1, -5.20505332946777343750e+01) (2, -4.03591499328613281250e+01) (3, 9.58947658538818359375e+00) (4, -1.95713470458984375000e+02) (5, 5.45452880859375000000e+02) (6, -2.33844876289367675781e+00) (7, 6.64818823337554931641e-01) (8, 3.31763397216796875000e+02) (9, 5.62783908843994140625e+00) (10, -4.04113197326660156250e+01) (11, -8.29274139404296875000e+01) (12, -6.02104902267456054688e+00) (13, -1.12237228393554687500e+02) (14, 1.27983314514160156250e+02) (10, -6.81887149810791015625e-01) (11, 3.56837302446365356445e-01) (12, 1.50000000000000000000e+03) (13, 1.50000000000000000000e+03) (14, 2.39511847496032714844e+00) (10, -1.49128454589843750000e+03) (11, -1.49410070800781250000e+03) (12, -1.48565661621093750000e+03) (13, -1.47238842773437500000e+03) (14, -3.99932813644409179688e+00) (10, -1.49128454589843750000e+03) (11, -5.87113952636718750000e+02) (12, -2.37399673461914062500e+01) (13, -3.04812488555908203125e+01) (14, 5.37267417907714843750e+01) (15, 2.03073048591613769531e+00) (16, -1.49905240535736083984e+00) (17, 1.50000000000000000000e+03) (18, 4.79078143835067749023e-01) (19, 1.55968725681304931641e-01) 
