FANN_FLO_2.1
num_layers=4
learning_rate=0.500000
connection_rate=1.000000
network_type=0
learning_momentum=0.000000
training_algorithm=2
train_error_function=1
train_stop_function=0
cascade_output_change_fraction=0.010000
quickprop_decay=-0.000100
quickprop_mu=1.750000
rprop_increase_factor=1.200000
rprop_decrease_factor=0.500000
rprop_delta_min=0.000000
rprop_delta_max=50.000000
rprop_delta_zero=0.100000
cascade_output_stagnation_epochs=12
cascade_candidate_change_fraction=0.010000
cascade_candidate_stagnation_epochs=12
cascade_max_out_epochs=150
cascade_min_out_epochs=50
cascade_max_cand_epochs=150
cascade_min_cand_epochs=50
cascade_num_candidate_groups=2
bit_fail_limit=3.49999994039535522461e-01
cascade_candidate_limit=1.00000000000000000000e+03
cascade_weight_multiplier=4.00000005960464477539e-01
cascade_activation_functions_count=10
cascade_activation_functions=3 5 7 8 10 11 14 15 16 17 
cascade_activation_steepnesses_count=4
cascade_activation_steepnesses=2.50000000000000000000e-01 5.00000000000000000000e-01 7.50000000000000000000e-01 1.00000000000000000000e+00 
layer_sizes=2 5 3 3 
scale_included=0
neurons (num_inputs, activation_function, activation_steepness)=(0, 0, 0.00000000000000000000e+00) (0, 0, 0.00000000000000000000e+00) (2, 3, 5.00000000000000000000e-01) (2, 3, 5.00000000000000000000e-01) (2, 3, 5.00000000000000000000e-01) (2, 3, 5.00000000000000000000e-01) (0, 3, 0.00000000000000000000e+00) (5, 3, 5.00000000000000000000e-01) (5, 3, 5.00000000000000000000e-01) (0, 3, 0.00000000000000000000e+00) (3, 0, 5.00000000000000000000e-01) (3, 0, 5.00000000000000000000e-01) (0, 0, 0.00000000000000000000e+00) 
connections (connected_to_neuron, weight)=(0, -1.48008260726928710938e+01) (1, 2.16994786262512207031e+00) (0, 2.25133647918701171875e+01) (1, -8.96158814430236816406e-01) (0, -1.99659576416015625000e+01) (1, 5.92075061798095703125e+00) (0, -3.24486184120178222656e+00) (1, 1.01296579837799072266e+00) (2, -4.27797794342041015625e-01) (3, 3.49731016159057617188e+00) (4, -4.14179277420043945312e+00) (5, -1.60099655389785766602e-01) (6, 8.88310074806213378906e-01) (2, -9.49339389801025390625e+00) (3, -5.19182205200195312500e-01) (4, 7.30434322357177734375e+00) (5, 3.82245922088623046875e+00) (6, -9.69469964504241943359e-01) (7, -8.48775684833526611328e-01) (8, -3.53872323036193847656e+00) (9, 2.17652940750122070312e+00) (7, -4.10462427139282226562e+00) (8, 2.42093610763549804688e+00) (9, 7.64842033386230468750e-01) 
