FANN_FLO_2.1
num_layers=4
learning_rate=0.400000
connection_rate=1.000000
network_type=0
learning_momentum=0.000000
training_algorithm=2
train_error_function=1
train_stop_function=0
cascade_output_change_fraction=0.010000
quickprop_decay=-0.000100
quickprop_mu=1.750000
rprop_increase_factor=1.200000
rprop_decrease_factor=0.500000
rprop_delta_min=0.000000
rprop_delta_max=50.000000
rprop_delta_zero=0.100000
cascade_output_stagnation_epochs=12
cascade_candidate_change_fraction=0.010000
cascade_candidate_stagnation_epochs=12
cascade_max_out_epochs=150
cascade_min_out_epochs=50
cascade_max_cand_epochs=150
cascade_min_cand_epochs=50
cascade_num_candidate_groups=2
bit_fail_limit=3.49999994039535522461e-01
cascade_candidate_limit=1.00000000000000000000e+03
cascade_weight_multiplier=4.00000005960464477539e-01
cascade_activation_functions_count=10
cascade_activation_functions=3 5 7 8 10 11 14 15 16 17 
cascade_activation_steepnesses_count=4
cascade_activation_steepnesses=2.50000000000000000000e-01 5.00000000000000000000e-01 7.50000000000000000000e-01 1.00000000000000000000e+00 
layer_sizes=7 3 3 2 
scale_included=0
neurons (num_inputs, activation_function, activation_steepness)=(0, 0, 0.00000000000000000000e+00) (0, 0, 0.00000000000000000000e+00) (0, 0, 0.00000000000000000000e+00) (0, 0, 0.00000000000000000000e+00) (0, 0, 0.00000000000000000000e+00) (0, 0, 0.00000000000000000000e+00) (0, 0, 0.00000000000000000000e+00) (7, 3, 5.00000000000000000000e-01) (7, 3, 5.00000000000000000000e-01) (0, 3, 0.00000000000000000000e+00) (3, 3, 5.00000000000000000000e-01) (3, 3, 5.00000000000000000000e-01) (0, 3, 0.00000000000000000000e+00) (3, 3, 5.00000000000000000000e-01) (0, 3, 0.00000000000000000000e+00) 
connections (connected_to_neuron, weight)=(0, -4.12663841247558593750e+01) (1, 4.16436576843261718750e+01) (2, -4.42723327636718750000e+02) (3, 1.80767369270324707031e+00) (4, 4.79054957628250122070e-01) (5, 7.37006855010986328125e+00) (6, 3.61360049247741699219e+00) (0, -6.36808252334594726562e+00) (1, 4.76907157897949218750e+00) (2, -3.27576351165771484375e+00) (3, -1.95114183425903320312e+00) (4, -8.44292044639587402344e-01) (5, 1.33233070373535156250e+00) (6, 2.41489887237548828125e+00) (7, -5.50439596176147460938e-01) (8, 4.78378963470458984375e+00) (9, -2.98328995704650878906e+00) (7, -5.85958480834960937500e+00) (8, 6.36158704757690429688e+00) (9, -2.02976179122924804688e+00) (10, -2.41637492179870605469e+00) (11, -1.76687109470367431641e+00) (12, -3.70107799768447875977e-01) 
