FANN_FLO_2.1
num_layers=4
learning_rate=0.500000
connection_rate=1.000000
network_type=0
learning_momentum=0.000000
training_algorithm=2
train_error_function=1
train_stop_function=0
cascade_output_change_fraction=0.010000
quickprop_decay=-0.000100
quickprop_mu=1.750000
rprop_increase_factor=1.200000
rprop_decrease_factor=0.500000
rprop_delta_min=0.000000
rprop_delta_max=50.000000
rprop_delta_zero=0.100000
cascade_output_stagnation_epochs=12
cascade_candidate_change_fraction=0.010000
cascade_candidate_stagnation_epochs=12
cascade_max_out_epochs=150
cascade_min_out_epochs=50
cascade_max_cand_epochs=150
cascade_min_cand_epochs=50
cascade_num_candidate_groups=2
bit_fail_limit=3.49999994039535522461e-01
cascade_candidate_limit=1.00000000000000000000e+03
cascade_weight_multiplier=4.00000005960464477539e-01
cascade_activation_functions_count=10
cascade_activation_functions=3 5 7 8 10 11 14 15 16 17 
cascade_activation_steepnesses_count=4
cascade_activation_steepnesses=2.50000000000000000000e-01 5.00000000000000000000e-01 7.50000000000000000000e-01 1.00000000000000000000e+00 
layer_sizes=10 3 3 2 
scale_included=0
neurons (num_inputs, activation_function, activation_steepness)=(0, 0, 0.00000000000000000000e+00) (0, 0, 0.00000000000000000000e+00) (0, 0, 0.00000000000000000000e+00) (0, 0, 0.00000000000000000000e+00) (0, 0, 0.00000000000000000000e+00) (0, 0, 0.00000000000000000000e+00) (0, 0, 0.00000000000000000000e+00) (0, 0, 0.00000000000000000000e+00) (0, 0, 0.00000000000000000000e+00) (0, 0, 0.00000000000000000000e+00) (10, 3, 5.00000000000000000000e-01) (10, 3, 5.00000000000000000000e-01) (0, 3, 0.00000000000000000000e+00) (3, 3, 5.00000000000000000000e-01) (3, 3, 5.00000000000000000000e-01) (0, 3, 0.00000000000000000000e+00) (3, 3, 5.00000000000000000000e-01) (0, 3, 0.00000000000000000000e+00) 
connections (connected_to_neuron, weight)=(0, -2.37341737747192382812e+00) (1, -2.60881805419921875000e+00) (2, 1.73897072672843933105e-01) (3, -3.55840301513671875000e+00) (4, -9.83366250991821289062e-01) (5, 6.95536899566650390625e+00) (6, 8.90658569335937500000e+00) (7, 5.74087984859943389893e-02) (8, -2.27742165327072143555e-01) (9, -3.58366322517395019531e+00) (0, -5.84184694290161132812e+00) (1, -7.09280347824096679688e+00) (2, 2.90063500404357910156e+00) (3, -1.21646499633789062500e+00) (4, -7.18514728546142578125e+00) (5, 1.33902060985565185547e+00) (6, 9.63520228862762451172e-01) (7, 1.43171625137329101562e+01) (8, 6.14227008819580078125e+00) (9, 1.10827758908271789551e-01) (10, 3.43125319480895996094e+00) (11, -7.17930126190185546875e+00) (12, 7.11510241031646728516e-01) (10, 1.54846277236938476562e+01) (11, -1.00013933181762695312e+01) (12, 9.49050307273864746094e-01) (13, 8.00864577293395996094e-01) (14, 2.09510827064514160156e+00) (15, -1.20115995407104492188e+00) 
