FANN_FLO_2.1
num_layers=3
learning_rate=0.400000
connection_rate=1.000000
network_type=0
learning_momentum=0.000000
training_algorithm=2
train_error_function=1
train_stop_function=0
cascade_output_change_fraction=0.010000
quickprop_decay=-0.000100
quickprop_mu=1.750000
rprop_increase_factor=1.200000
rprop_decrease_factor=0.500000
rprop_delta_min=0.000000
rprop_delta_max=50.000000
rprop_delta_zero=0.100000
cascade_output_stagnation_epochs=12
cascade_candidate_change_fraction=0.010000
cascade_candidate_stagnation_epochs=12
cascade_max_out_epochs=150
cascade_min_out_epochs=50
cascade_max_cand_epochs=150
cascade_min_cand_epochs=50
cascade_num_candidate_groups=2
bit_fail_limit=3.49999994039535522461e-01
cascade_candidate_limit=1.00000000000000000000e+03
cascade_weight_multiplier=4.00000005960464477539e-01
cascade_activation_functions_count=10
cascade_activation_functions=3 5 7 8 10 11 14 15 16 17 
cascade_activation_steepnesses_count=4
cascade_activation_steepnesses=2.50000000000000000000e-01 5.00000000000000000000e-01 7.50000000000000000000e-01 1.00000000000000000000e+00 
layer_sizes=7 9 2 
scale_included=0
neurons (num_inputs, activation_function, activation_steepness)=(0, 0, 0.00000000000000000000e+00) (0, 0, 0.00000000000000000000e+00) (0, 0, 0.00000000000000000000e+00) (0, 0, 0.00000000000000000000e+00) (0, 0, 0.00000000000000000000e+00) (0, 0, 0.00000000000000000000e+00) (0, 0, 0.00000000000000000000e+00) (7, 3, 5.00000000000000000000e-01) (7, 3, 5.00000000000000000000e-01) (7, 3, 5.00000000000000000000e-01) (7, 3, 5.00000000000000000000e-01) (7, 3, 5.00000000000000000000e-01) (7, 3, 5.00000000000000000000e-01) (7, 3, 5.00000000000000000000e-01) (7, 3, 5.00000000000000000000e-01) (0, 3, 0.00000000000000000000e+00) (9, 3, 5.00000000000000000000e-01) (0, 3, 0.00000000000000000000e+00) 
connections (connected_to_neuron, weight)=(0, 3.76373499631881713867e-01) (1, 1.19824910163879394531e+00) (2, 1.14200954437255859375e+01) (3, -9.73256969451904296875e+00) (4, 4.07987451553344726562e+00) (5, 7.91768193244934082031e-01) (6, -2.99239182472229003906e+00) (0, 1.33865385055541992188e+01) (1, -1.40437507629394531250e+01) (2, 2.91625919342041015625e+01) (3, -2.86498713493347167969e+00) (4, -8.01264107227325439453e-01) (5, -7.73289203643798828125e+00) (6, 7.35011768341064453125e+00) (0, -1.49303169250488281250e+01) (1, 1.32467432022094726562e+01) (2, -4.17286920547485351562e+00) (3, -1.20884919166564941406e+00) (4, -7.99320459365844726562e-01) (5, 4.10480833053588867188e+00) (6, 1.48163950443267822266e+00) (0, -2.11121365427970886230e-01) (1, 2.21388602256774902344e+00) (2, 3.21780753135681152344e+00) (3, -3.65867376327514648438e+00) (4, 2.82673746347427368164e-01) (5, 1.53496600687503814697e-02) (6, 1.88841089606285095215e-01) (0, -9.71372222900390625000e+00) (1, -4.75338649749755859375e+00) (2, -3.11731204986572265625e+01) (3, 1.13469734191894531250e+01) (4, -1.47215473651885986328e+00) (5, -3.51320981979370117188e+00) (6, 7.81379127502441406250e+00) (0, 1.40974551439285278320e-01) (1, 4.06271409988403320312e+00) (2, 6.64834797382354736328e-01) (3, -1.65358090400695800781e+00) (4, -2.76001691818237304688e+00) (5, -2.37726688385009765625e+00) (6, -1.43544852733612060547e+00) (0, 1.46383476257324218750e+01) (1, -1.57807712554931640625e+01) (2, 1.54790964126586914062e+01) (3, -1.69841051101684570312e+00) (4, -4.83971595764160156250e-01) (5, -6.59411954879760742188e+00) (6, 7.40562725067138671875e+00) (0, 1.48185729980468750000e+01) (1, -1.73549079895019531250e+01) (2, -1.39473819732666015625e+00) (3, -3.68663024902343750000e+00) (4, -1.68824315071105957031e+00) (5, -3.45166039466857910156e+00) (6, 6.72711086273193359375e+00) (7, -8.03968489170074462891e-01) (8, -5.62246859073638916016e-01) (9, -4.29539442062377929688e+00) (10, 3.65503221750259399414e-01) (11, -1.86344653367996215820e-01) (12, -9.00603115558624267578e-01) (13, -8.08303773403167724609e-01) (14, -2.42129540443420410156e+00) (15, 2.70700240135192871094e+00) 
