FANN_FLO_2.1
num_layers=4
learning_rate=0.500000
connection_rate=1.000000
network_type=0
learning_momentum=0.000000
training_algorithm=2
train_error_function=1
train_stop_function=0
cascade_output_change_fraction=0.010000
quickprop_decay=-0.000100
quickprop_mu=1.750000
rprop_increase_factor=1.200000
rprop_decrease_factor=0.500000
rprop_delta_min=0.000000
rprop_delta_max=50.000000
rprop_delta_zero=0.100000
cascade_output_stagnation_epochs=12
cascade_candidate_change_fraction=0.010000
cascade_candidate_stagnation_epochs=12
cascade_max_out_epochs=150
cascade_min_out_epochs=50
cascade_max_cand_epochs=150
cascade_min_cand_epochs=50
cascade_num_candidate_groups=2
bit_fail_limit=3.49999994039535522461e-01
cascade_candidate_limit=1.00000000000000000000e+03
cascade_weight_multiplier=4.00000005960464477539e-01
cascade_activation_functions_count=10
cascade_activation_functions=3 5 7 8 10 11 14 15 16 17 
cascade_activation_steepnesses_count=4
cascade_activation_steepnesses=2.50000000000000000000e-01 5.00000000000000000000e-01 7.50000000000000000000e-01 1.00000000000000000000e+00 
layer_sizes=10 5 5 2 
scale_included=0
neurons (num_inputs, activation_function, activation_steepness)=(0, 0, 0.00000000000000000000e+00) (0, 0, 0.00000000000000000000e+00) (0, 0, 0.00000000000000000000e+00) (0, 0, 0.00000000000000000000e+00) (0, 0, 0.00000000000000000000e+00) (0, 0, 0.00000000000000000000e+00) (0, 0, 0.00000000000000000000e+00) (0, 0, 0.00000000000000000000e+00) (0, 0, 0.00000000000000000000e+00) (0, 0, 0.00000000000000000000e+00) (10, 3, 5.00000000000000000000e-01) (10, 3, 5.00000000000000000000e-01) (10, 3, 5.00000000000000000000e-01) (10, 3, 5.00000000000000000000e-01) (0, 3, 0.00000000000000000000e+00) (5, 3, 5.00000000000000000000e-01) (5, 3, 5.00000000000000000000e-01) (5, 3, 5.00000000000000000000e-01) (5, 3, 5.00000000000000000000e-01) (0, 3, 0.00000000000000000000e+00) (5, 3, 5.00000000000000000000e-01) (0, 3, 0.00000000000000000000e+00) 
connections (connected_to_neuron, weight)=(0, 1.28320703506469726562e+01) (1, 3.77532052993774414062e+00) (2, 6.47714920043945312500e+01) (3, -3.71651530265808105469e+00) (4, -4.05570536851882934570e-01) (5, -5.71105957031250000000e+00) (6, -2.32916622161865234375e+01) (7, 2.38984525203704833984e-01) (8, -8.79697501659393310547e-01) (9, -1.05045080184936523438e+00) (0, 2.43775770068168640137e-01) (1, 6.70216023921966552734e-01) (2, -1.77145272493362426758e-01) (3, -1.49931514263153076172e+00) (4, 2.54147589206695556641e-01) (5, 5.85156583786010742188e+00) (6, 9.09420430660247802734e-01) (7, -7.20872640609741210938e+00) (8, -1.01550459861755371094e+00) (9, 8.30158531665802001953e-01) (0, 2.08137664794921875000e+01) (1, -2.26807668805122375488e-01) (2, 9.59320247173309326172e-01) (3, 3.08385372161865234375e+00) (4, -1.12235200405120849609e+00) (5, -1.05463390350341796875e+01) (6, -4.04586791992187500000e+00) (7, 1.47533893585205078125e+00) (8, 4.94470167160034179688e+00) (9, 2.88057827949523925781e+00) (0, 5.88256931304931640625e+00) (1, -4.71750736236572265625e+00) (2, 3.64122939109802246094e+00) (3, 7.43577241897583007812e-01) (4, -1.71442627906799316406e+00) (5, -1.80176067352294921875e+01) (6, 1.20013892650604248047e+00) (7, 1.18016967773437500000e+01) (8, 5.20704388618469238281e-01) (9, 1.69249355792999267578e-01) (10, 9.29627807617187500000e+02) (11, 5.56528091430664062500e+01) (12, 2.37141415476799011230e-01) (13, -9.81865768432617187500e+01) (14, 4.24825996160507202148e-01) (10, -2.07064247131347656250e+00) (11, 9.35585117340087890625e+00) (12, -4.98509025573730468750e+00) (13, 7.66526508331298828125e+00) (14, -2.42096424102783203125e-01) (10, -1.21085157394409179688e+01) (11, 2.55073871612548828125e+01) (12, -6.20493364334106445312e+00) (13, 1.57567548751831054688e+01) (14, -3.00847530364990234375e-01) (10, 2.56179690361022949219e+00) (11, 1.58192033767700195312e+01) (12, -1.80274784564971923828e+00) (13, -3.29522705078125000000e+01) (14, 2.27541756629943847656e+00) (15, -3.55682730674743652344e+00) (16, 1.45716452598571777344e+00) (17, 1.24699807167053222656e+00) (18, 2.20800733566284179688e+00) (19, -1.59395083785057067871e-01) 
