FANN_FLO_2.1
num_layers=4
learning_rate=0.400000
connection_rate=1.000000
network_type=0
learning_momentum=0.000000
training_algorithm=2
train_error_function=1
train_stop_function=0
cascade_output_change_fraction=0.010000
quickprop_decay=-0.000100
quickprop_mu=1.750000
rprop_increase_factor=1.200000
rprop_decrease_factor=0.500000
rprop_delta_min=0.000000
rprop_delta_max=50.000000
rprop_delta_zero=0.100000
cascade_output_stagnation_epochs=12
cascade_candidate_change_fraction=0.010000
cascade_candidate_stagnation_epochs=12
cascade_max_out_epochs=150
cascade_min_out_epochs=50
cascade_max_cand_epochs=150
cascade_min_cand_epochs=50
cascade_num_candidate_groups=2
bit_fail_limit=3.49999994039535522461e-01
cascade_candidate_limit=1.00000000000000000000e+03
cascade_weight_multiplier=4.00000005960464477539e-01
cascade_activation_functions_count=10
cascade_activation_functions=3 5 7 8 10 11 14 15 16 17 
cascade_activation_steepnesses_count=4
cascade_activation_steepnesses=2.50000000000000000000e-01 5.00000000000000000000e-01 7.50000000000000000000e-01 1.00000000000000000000e+00 
layer_sizes=7 9 5 2 
scale_included=0
neurons (num_inputs, activation_function, activation_steepness)=(0, 0, 0.00000000000000000000e+00) (0, 0, 0.00000000000000000000e+00) (0, 0, 0.00000000000000000000e+00) (0, 0, 0.00000000000000000000e+00) (0, 0, 0.00000000000000000000e+00) (0, 0, 0.00000000000000000000e+00) (0, 0, 0.00000000000000000000e+00) (7, 3, 5.00000000000000000000e-01) (7, 3, 5.00000000000000000000e-01) (7, 3, 5.00000000000000000000e-01) (7, 3, 5.00000000000000000000e-01) (7, 3, 5.00000000000000000000e-01) (7, 3, 5.00000000000000000000e-01) (7, 3, 5.00000000000000000000e-01) (7, 3, 5.00000000000000000000e-01) (0, 3, 0.00000000000000000000e+00) (9, 3, 5.00000000000000000000e-01) (9, 3, 5.00000000000000000000e-01) (9, 3, 5.00000000000000000000e-01) (9, 3, 5.00000000000000000000e-01) (0, 3, 0.00000000000000000000e+00) (5, 3, 5.00000000000000000000e-01) (0, 3, 0.00000000000000000000e+00) 
connections (connected_to_neuron, weight)=(0, -1.44911071777343750000e+03) (1, -3.00826416015625000000e+02) (2, -1.70064697265625000000e+01) (3, -8.91815307617187500000e+02) (4, -4.77961853027343750000e+02) (5, 6.14977722167968750000e+01) (6, 6.20603752136230468750e+00) (0, -1.50000000000000000000e+03) (1, -1.50000000000000000000e+03) (2, 1.50000000000000000000e+03) (3, -1.50000000000000000000e+03) (4, -1.50000000000000000000e+03) (5, 4.68610321044921875000e+02) (6, 4.92378377914428710938e+00) (0, 1.50000000000000000000e+03) (1, 1.50000000000000000000e+03) (2, -1.50000000000000000000e+03) (3, 1.50000000000000000000e+03) (4, 1.50000000000000000000e+03) (5, -1.49345043945312500000e+03) (6, 3.76747703552246093750e+00) (0, -1.50000000000000000000e+03) (1, -1.50000000000000000000e+03) (2, 1.50000000000000000000e+03) (3, -1.50000000000000000000e+03) (4, -1.50000000000000000000e+03) (5, 1.50000000000000000000e+03) (6, 3.14502716064453125000e-01) (0, -1.31322717285156250000e+03) (1, -9.05615356445312500000e+02) (2, -3.98026123046875000000e+01) (3, -1.14370397949218750000e+03) (4, -1.14370397949218750000e+03) (5, 1.07880261230468750000e+03) (6, 1.17685714721679687500e+02) (0, -1.56045589447021484375e+01) (1, -1.87334022521972656250e+01) (2, -1.46388586425781250000e+03) (3, 4.77221031188964843750e+01) (4, 2.16227149963378906250e+01) (5, -6.39669677734375000000e+02) (6, 9.54893016815185546875e+00) (0, -1.50000000000000000000e+03) (1, -1.50000000000000000000e+03) (2, 1.50000000000000000000e+03) (3, -1.50000000000000000000e+03) (4, -1.50000000000000000000e+03) (5, 1.50000000000000000000e+03) (6, 7.12002086639404296875e+00) (0, -1.50000000000000000000e+03) (1, -1.50000000000000000000e+03) (2, 1.50000000000000000000e+03) (3, -1.50000000000000000000e+03) (4, -1.50000000000000000000e+03) (5, 6.20158264160156250000e+02) (6, 3.80026674270629882812e+00) (7, 1.50000000000000000000e+03) (8, 1.50000000000000000000e+03) (9, 9.41963806152343750000e+02) (10, 1.50000000000000000000e+03) (11, 1.50000000000000000000e+03) (12, 9.96721618652343750000e+02) (13, 7.37371887207031250000e+02) (14, 1.50000000000000000000e+03) (15, -1.74273452758789062500e+01) (7, 1.50000000000000000000e+03) (8, 1.50000000000000000000e+03) (9, 1.02503921508789062500e+02) (10, 1.52700805664062500000e+01) (11, 7.23256530761718750000e+01) (12, -8.96996855735778808594e-01) (13, 9.00964355468750000000e+02) (14, 1.50000000000000000000e+03) (15, 3.68362312316894531250e+01) (7, 1.16689123535156250000e+03) (8, 1.50000000000000000000e+03) (9, -6.86408400535583496094e-01) (10, 5.39985961914062500000e+01) (11, -2.34356994628906250000e+01) (12, -8.96996855735778808594e-01) (13, 6.70565246582031250000e+02) (14, 1.50000000000000000000e+03) (15, 1.55426943302154541016e+00) (7, 1.50000000000000000000e+03) (8, 1.50000000000000000000e+03) (9, 1.04357002258300781250e+02) (10, -1.45468811035156250000e+02) (11, -2.43082092285156250000e+02) (12, -8.96996855735778808594e-01) (13, 6.70565246582031250000e+02) (14, 1.50000000000000000000e+03) (15, 4.83272743225097656250e+01) (16, 2.89499580860137939453e-01) (17, -5.20798087120056152344e-01) (18, -2.04674243927001953125e+00) (19, -5.19933581352233886719e-01) (20, -5.38393795490264892578e-01) 
