FANN_FLO_2.1
num_layers=4
learning_rate=0.500000
connection_rate=1.000000
network_type=0
learning_momentum=0.000000
training_algorithm=2
train_error_function=1
train_stop_function=0
cascade_output_change_fraction=0.010000
quickprop_decay=-0.000100
quickprop_mu=1.750000
rprop_increase_factor=1.200000
rprop_decrease_factor=0.500000
rprop_delta_min=0.000000
rprop_delta_max=50.000000
rprop_delta_zero=0.100000
cascade_output_stagnation_epochs=12
cascade_candidate_change_fraction=0.010000
cascade_candidate_stagnation_epochs=12
cascade_max_out_epochs=150
cascade_min_out_epochs=50
cascade_max_cand_epochs=150
cascade_min_cand_epochs=50
cascade_num_candidate_groups=2
bit_fail_limit=3.49999994039535522461e-01
cascade_candidate_limit=1.00000000000000000000e+03
cascade_weight_multiplier=4.00000005960464477539e-01
cascade_activation_functions_count=10
cascade_activation_functions=3 5 7 8 10 11 14 15 16 17 
cascade_activation_steepnesses_count=4
cascade_activation_steepnesses=2.50000000000000000000e-01 5.00000000000000000000e-01 7.50000000000000000000e-01 1.00000000000000000000e+00 
layer_sizes=10 3 3 2 
scale_included=0
neurons (num_inputs, activation_function, activation_steepness)=(0, 0, 0.00000000000000000000e+00) (0, 0, 0.00000000000000000000e+00) (0, 0, 0.00000000000000000000e+00) (0, 0, 0.00000000000000000000e+00) (0, 0, 0.00000000000000000000e+00) (0, 0, 0.00000000000000000000e+00) (0, 0, 0.00000000000000000000e+00) (0, 0, 0.00000000000000000000e+00) (0, 0, 0.00000000000000000000e+00) (0, 0, 0.00000000000000000000e+00) (10, 3, 5.00000000000000000000e-01) (10, 3, 5.00000000000000000000e-01) (0, 3, 0.00000000000000000000e+00) (3, 3, 5.00000000000000000000e-01) (3, 3, 5.00000000000000000000e-01) (0, 3, 0.00000000000000000000e+00) (3, 3, 5.00000000000000000000e-01) (0, 3, 0.00000000000000000000e+00) 
connections (connected_to_neuron, weight)=(0, -3.10838961601257324219e+00) (1, -3.59875941276550292969e+00) (2, 1.48938134312629699707e-01) (3, -1.77902722358703613281e+00) (4, 1.61255192756652832031e+00) (5, 8.18575143814086914062e-01) (6, -3.51264953613281250000e+00) (7, 3.09198707342147827148e-01) (8, -3.72033762931823730469e+00) (9, 5.79711866378784179688e+00) (0, 1.08901004791259765625e+01) (1, 1.29043504595756530762e-01) (2, -3.12870562076568603516e-01) (3, -3.03756046295166015625e+00) (4, -4.03289794921875000000e+00) (5, -3.36146429181098937988e-02) (6, -1.27616491699218750000e+03) (7, -1.25519271850585937500e+02) (8, 3.30416297912597656250e+01) (9, -3.14796566963195800781e+00) (10, 5.57814826965332031250e+01) (11, 7.71771240234375000000e+02) (12, -2.19824504852294921875e+01) (10, 2.38477020263671875000e+01) (11, -1.80555629730224609375e+01) (12, -6.78890228271484375000e+00) (13, 1.47170877456665039062e+00) (14, 2.80404114723205566406e+00) (15, -3.40636420249938964844e+00) 
