FANN_FLO_2.1
num_layers=3
learning_rate=0.400000
connection_rate=1.000000
network_type=0
learning_momentum=0.000000
training_algorithm=2
train_error_function=1
train_stop_function=0
cascade_output_change_fraction=0.010000
quickprop_decay=-0.000100
quickprop_mu=1.750000
rprop_increase_factor=1.200000
rprop_decrease_factor=0.500000
rprop_delta_min=0.000000
rprop_delta_max=50.000000
rprop_delta_zero=0.100000
cascade_output_stagnation_epochs=12
cascade_candidate_change_fraction=0.010000
cascade_candidate_stagnation_epochs=12
cascade_max_out_epochs=150
cascade_min_out_epochs=50
cascade_max_cand_epochs=150
cascade_min_cand_epochs=50
cascade_num_candidate_groups=2
bit_fail_limit=3.49999994039535522461e-01
cascade_candidate_limit=1.00000000000000000000e+03
cascade_weight_multiplier=4.00000005960464477539e-01
cascade_activation_functions_count=10
cascade_activation_functions=3 5 7 8 10 11 14 15 16 17 
cascade_activation_steepnesses_count=4
cascade_activation_steepnesses=2.50000000000000000000e-01 5.00000000000000000000e-01 7.50000000000000000000e-01 1.00000000000000000000e+00 
layer_sizes=19 3 3 
scale_included=0
neurons (num_inputs, activation_function, activation_steepness)=(0, 0, 0.00000000000000000000e+00) (0, 0, 0.00000000000000000000e+00) (0, 0, 0.00000000000000000000e+00) (0, 0, 0.00000000000000000000e+00) (0, 0, 0.00000000000000000000e+00) (0, 0, 0.00000000000000000000e+00) (0, 0, 0.00000000000000000000e+00) (0, 0, 0.00000000000000000000e+00) (0, 0, 0.00000000000000000000e+00) (0, 0, 0.00000000000000000000e+00) (0, 0, 0.00000000000000000000e+00) (0, 0, 0.00000000000000000000e+00) (0, 0, 0.00000000000000000000e+00) (0, 0, 0.00000000000000000000e+00) (0, 0, 0.00000000000000000000e+00) (0, 0, 0.00000000000000000000e+00) (0, 0, 0.00000000000000000000e+00) (0, 0, 0.00000000000000000000e+00) (0, 0, 0.00000000000000000000e+00) (19, 3, 5.00000000000000000000e-01) (19, 3, 5.00000000000000000000e-01) (0, 3, 0.00000000000000000000e+00) (3, 3, 5.00000000000000000000e-01) (3, 3, 5.00000000000000000000e-01) (0, 3, 0.00000000000000000000e+00) 
connections (connected_to_neuron, weight)=(0, 1.35021848678588867188e+01) (1, 8.56653988361358642578e-01) (2, -2.14835953712463378906e+00) (3, 2.06471443176269531250e+01) (4, -1.07706725597381591797e+00) (5, 9.66403579711914062500e+00) (6, 1.61930561065673828125e+01) (7, -6.27884101867675781250e+00) (8, -1.67363586425781250000e+01) (9, -2.38689117431640625000e+01) (10, 2.79772305488586425781e+00) (11, 1.91327106952667236328e+00) (12, -1.14196405410766601562e+01) (13, -6.52676403522491455078e-01) (14, 8.49843978881835937500e+00) (15, 5.28629112243652343750e+00) (16, -4.18490934371948242188e+00) (17, -4.94382858276367187500e+00) (18, -7.27132737636566162109e-01) (0, -6.44912910461425781250e+00) (1, -4.70592617988586425781e-01) (2, 3.88991802930831909180e-01) (3, -7.14500379562377929688e+00) (4, -3.38335335254669189453e-01) (5, 8.50996196269989013672e-01) (6, -6.84234809875488281250e+00) (7, 1.49410021305084228516e+00) (8, 1.44880402088165283203e+00) (9, 7.96821975708007812500e+00) (10, -6.03685557842254638672e-01) (11, 4.47630524635314941406e-01) (12, 6.79329919815063476562e+00) (13, -8.76542389392852783203e-01) (14, -2.32718563079833984375e+00) (15, 2.80516219139099121094e+00) (16, -4.27561879158020019531e-01) (17, 3.45956206321716308594e-01) (18, -2.40157008171081542969e+00) (19, -1.07868599891662597656e+00) (20, -1.72841084003448486328e+00) (21, 5.19664704799652099609e-01) (19, 1.07926678657531738281e+00) (20, 1.72911810874938964844e+00) (21, -5.19574403762817382812e-01) 
