FANN_FLO_2.1
num_layers=3
learning_rate=0.400000
connection_rate=1.000000
network_type=0
learning_momentum=0.000000
training_algorithm=2
train_error_function=1
train_stop_function=0
cascade_output_change_fraction=0.010000
quickprop_decay=-0.000100
quickprop_mu=1.750000
rprop_increase_factor=1.200000
rprop_decrease_factor=0.500000
rprop_delta_min=0.000000
rprop_delta_max=50.000000
rprop_delta_zero=0.100000
cascade_output_stagnation_epochs=12
cascade_candidate_change_fraction=0.010000
cascade_candidate_stagnation_epochs=12
cascade_max_out_epochs=150
cascade_min_out_epochs=50
cascade_max_cand_epochs=150
cascade_min_cand_epochs=50
cascade_num_candidate_groups=2
bit_fail_limit=3.49999994039535522461e-01
cascade_candidate_limit=1.00000000000000000000e+03
cascade_weight_multiplier=4.00000005960464477539e-01
cascade_activation_functions_count=10
cascade_activation_functions=3 5 7 8 10 11 14 15 16 17 
cascade_activation_steepnesses_count=4
cascade_activation_steepnesses=2.50000000000000000000e-01 5.00000000000000000000e-01 7.50000000000000000000e-01 1.00000000000000000000e+00 
layer_sizes=7 9 2 
scale_included=0
neurons (num_inputs, activation_function, activation_steepness)=(0, 0, 0.00000000000000000000e+00) (0, 0, 0.00000000000000000000e+00) (0, 0, 0.00000000000000000000e+00) (0, 0, 0.00000000000000000000e+00) (0, 0, 0.00000000000000000000e+00) (0, 0, 0.00000000000000000000e+00) (0, 0, 0.00000000000000000000e+00) (7, 3, 5.00000000000000000000e-01) (7, 3, 5.00000000000000000000e-01) (7, 3, 5.00000000000000000000e-01) (7, 3, 5.00000000000000000000e-01) (7, 3, 5.00000000000000000000e-01) (7, 3, 5.00000000000000000000e-01) (7, 3, 5.00000000000000000000e-01) (7, 3, 5.00000000000000000000e-01) (0, 3, 0.00000000000000000000e+00) (9, 3, 5.00000000000000000000e-01) (0, 3, 0.00000000000000000000e+00) 
connections (connected_to_neuron, weight)=(0, -1.58764724731445312500e+01) (1, 1.32898206710815429688e+01) (2, -6.03935718536376953125e+00) (3, -5.15538454055786132812e+00) (4, -2.41855025291442871094e-01) (5, 3.81301403045654296875e+00) (6, 2.51168060302734375000e+00) (0, 1.12858028411865234375e+01) (1, -1.04912548065185546875e+01) (2, -1.62092952728271484375e+01) (3, -2.39301592111587524414e-01) (4, -4.49691009521484375000e+00) (5, -4.86268997192382812500e+00) (6, 6.01086425781250000000e+00) (0, 1.59412240982055664062e+01) (1, -1.67177906036376953125e+01) (2, 7.93319368362426757812e+00) (3, -7.00840890407562255859e-01) (4, 1.73590153455734252930e-01) (5, -4.71136808395385742188e+00) (6, 5.00222301483154296875e+00) (0, -5.58871126174926757812e+00) (1, 2.92377829551696777344e+00) (2, -1.77598392963409423828e+00) (3, -3.27184104919433593750e+00) (4, -7.73212790489196777344e-01) (5, 2.62076091766357421875e+00) (6, 1.29963862895965576172e+00) (0, -3.28746628761291503906e+00) (1, 3.76569461822509765625e+00) (2, -1.49256765842437744141e+00) (3, -2.94359636306762695312e+00) (4, -9.51454520225524902344e-01) (5, 2.13191199302673339844e+00) (6, 1.55620718002319335938e+00) (0, -7.10850715637207031250e+00) (1, -5.73502969741821289062e+00) (2, 2.21942400932312011719e+00) (3, -7.81963586807250976562e-01) (4, 3.83401441574096679688e+00) (5, 2.52928161621093750000e+00) (6, 1.04640817642211914062e+01) (0, -4.18676519393920898438e+00) (1, 5.50849771499633789062e+00) (2, 2.00678154826164245605e-01) (3, -3.32433760166168212891e-01) (4, -4.28055077791213989258e-01) (5, 4.89675951004028320312e+00) (6, -7.26517081260681152344e-01) (0, -3.07612075805664062500e+01) (1, 1.08506574630737304688e+01) (2, 3.02116432189941406250e+01) (3, 1.47990503311157226562e+01) (4, -6.45667538046836853027e-02) (5, -9.40804290771484375000e+00) (6, 3.18993306159973144531e+00) (7, -2.84532976150512695312e+00) (8, -4.70920473337173461914e-01) (9, -3.70866727828979492188e+00) (10, -4.53006148338317871094e-01) (11, -1.00968432426452636719e+00) (12, 1.39227831363677978516e+00) (13, -9.75835978984832763672e-01) (14, -8.50487709045410156250e-01) (15, 2.26306128501892089844e+00) 
