FANN_FLO_2.1
num_layers=3
learning_rate=0.400000
connection_rate=1.000000
network_type=0
learning_momentum=0.000000
training_algorithm=2
train_error_function=1
train_stop_function=0
cascade_output_change_fraction=0.010000
quickprop_decay=-0.000100
quickprop_mu=1.750000
rprop_increase_factor=1.200000
rprop_decrease_factor=0.500000
rprop_delta_min=0.000000
rprop_delta_max=50.000000
rprop_delta_zero=0.100000
cascade_output_stagnation_epochs=12
cascade_candidate_change_fraction=0.010000
cascade_candidate_stagnation_epochs=12
cascade_max_out_epochs=150
cascade_min_out_epochs=50
cascade_max_cand_epochs=150
cascade_min_cand_epochs=50
cascade_num_candidate_groups=2
bit_fail_limit=3.49999994039535522461e-01
cascade_candidate_limit=1.00000000000000000000e+03
cascade_weight_multiplier=4.00000005960464477539e-01
cascade_activation_functions_count=10
cascade_activation_functions=3 5 7 8 10 11 14 15 16 17 
cascade_activation_steepnesses_count=4
cascade_activation_steepnesses=2.50000000000000000000e-01 5.00000000000000000000e-01 7.50000000000000000000e-01 1.00000000000000000000e+00 
layer_sizes=7 9 2 
scale_included=0
neurons (num_inputs, activation_function, activation_steepness)=(0, 0, 0.00000000000000000000e+00) (0, 0, 0.00000000000000000000e+00) (0, 0, 0.00000000000000000000e+00) (0, 0, 0.00000000000000000000e+00) (0, 0, 0.00000000000000000000e+00) (0, 0, 0.00000000000000000000e+00) (0, 0, 0.00000000000000000000e+00) (7, 3, 5.00000000000000000000e-01) (7, 3, 5.00000000000000000000e-01) (7, 3, 5.00000000000000000000e-01) (7, 3, 5.00000000000000000000e-01) (7, 3, 5.00000000000000000000e-01) (7, 3, 5.00000000000000000000e-01) (7, 3, 5.00000000000000000000e-01) (7, 3, 5.00000000000000000000e-01) (0, 3, 0.00000000000000000000e+00) (9, 3, 5.00000000000000000000e-01) (0, 3, 0.00000000000000000000e+00) 
connections (connected_to_neuron, weight)=(0, 9.53840351104736328125e+00) (1, -8.97420406341552734375e+00) (2, 4.24171161651611328125e+00) (3, 8.75943839550018310547e-01) (4, -1.19921527802944183350e-01) (5, -4.14426183700561523438e+00) (6, 4.10697937011718750000e+00) (0, 1.16410436630249023438e+01) (1, -1.08309249877929687500e+01) (2, 4.87512922286987304688e+00) (3, 1.19798028469085693359e+00) (4, 1.43569514155387878418e-01) (5, -4.30897521972656250000e+00) (6, 4.11096048355102539062e+00) (0, -6.75476551055908203125e+00) (1, 7.16641139984130859375e+00) (2, -1.23349618911743164062e+00) (3, -9.03154432773590087891e-01) (4, -1.06652033329010009766e+00) (5, -4.20547676086425781250e+00) (6, -8.40877771377563476562e-01) (0, 1.09300308227539062500e+01) (1, -1.26493940353393554688e+01) (2, 8.75808894634246826172e-01) (3, -1.68431770801544189453e+00) (4, -1.99035978317260742188e+00) (5, -2.42445468902587890625e+00) (6, 4.40024328231811523438e+00) (0, -1.54048323631286621094e-01) (1, 1.41872239112854003906e+00) (2, -1.23870916366577148438e+01) (3, -6.25772237777709960938e+00) (4, 1.55105793476104736328e+00) (5, 9.31997656822204589844e-01) (6, -1.80006134510040283203e+00) (0, -6.46397650241851806641e-01) (1, 6.10849320888519287109e-01) (2, -5.69029808044433593750e+00) (3, -6.08578538894653320312e+00) (4, 3.66857075691223144531e+00) (5, 7.88562774658203125000e-01) (6, -1.44324660301208496094e+00) (0, -1.86821568012237548828e+00) (1, -5.41378676891326904297e-01) (2, -2.42884472012519836426e-01) (3, -3.52541446685791015625e+00) (4, -1.50758528709411621094e+00) (5, 6.91146945953369140625e+00) (6, -1.72796022891998291016e+00) (0, -3.16645026206970214844e+00) (1, -1.48166589736938476562e+01) (2, 7.02921056747436523438e+00) (3, 2.95671367645263671875e+00) (4, -2.98916012048721313477e-01) (5, 5.88609313964843750000e+00) (6, 1.11139755249023437500e+01) (7, -4.77073103189468383789e-01) (8, -2.51869106292724609375e+00) (9, -8.64574813842773437500e+00) (10, -7.25494921207427978516e-01) (11, -4.61658895015716552734e-01) (12, -9.28991496562957763672e-01) (13, -3.21112918853759765625e+00) (14, -9.16995465755462646484e-01) (15, 3.27266788482666015625e+00) 
