FANN_FLO_2.1
num_layers=3
learning_rate=0.500000
connection_rate=1.000000
network_type=0
learning_momentum=0.000000
training_algorithm=2
train_error_function=1
train_stop_function=0
cascade_output_change_fraction=0.010000
quickprop_decay=-0.000100
quickprop_mu=1.750000
rprop_increase_factor=1.200000
rprop_decrease_factor=0.500000
rprop_delta_min=0.000000
rprop_delta_max=50.000000
rprop_delta_zero=0.100000
cascade_output_stagnation_epochs=12
cascade_candidate_change_fraction=0.010000
cascade_candidate_stagnation_epochs=12
cascade_max_out_epochs=150
cascade_min_out_epochs=50
cascade_max_cand_epochs=150
cascade_min_cand_epochs=50
cascade_num_candidate_groups=2
bit_fail_limit=3.49999994039535522461e-01
cascade_candidate_limit=1.00000000000000000000e+03
cascade_weight_multiplier=4.00000005960464477539e-01
cascade_activation_functions_count=10
cascade_activation_functions=3 5 7 8 10 11 14 15 16 17 
cascade_activation_steepnesses_count=4
cascade_activation_steepnesses=2.50000000000000000000e-01 5.00000000000000000000e-01 7.50000000000000000000e-01 1.00000000000000000000e+00 
layer_sizes=10 9 2 
scale_included=0
neurons (num_inputs, activation_function, activation_steepness)=(0, 0, 0.00000000000000000000e+00) (0, 0, 0.00000000000000000000e+00) (0, 0, 0.00000000000000000000e+00) (0, 0, 0.00000000000000000000e+00) (0, 0, 0.00000000000000000000e+00) (0, 0, 0.00000000000000000000e+00) (0, 0, 0.00000000000000000000e+00) (0, 0, 0.00000000000000000000e+00) (0, 0, 0.00000000000000000000e+00) (0, 0, 0.00000000000000000000e+00) (10, 3, 5.00000000000000000000e-01) (10, 3, 5.00000000000000000000e-01) (10, 3, 5.00000000000000000000e-01) (10, 3, 5.00000000000000000000e-01) (10, 3, 5.00000000000000000000e-01) (10, 3, 5.00000000000000000000e-01) (10, 3, 5.00000000000000000000e-01) (10, 3, 5.00000000000000000000e-01) (0, 3, 0.00000000000000000000e+00) (9, 3, 5.00000000000000000000e-01) (0, 3, 0.00000000000000000000e+00) 
connections (connected_to_neuron, weight)=(0, -4.10572481155395507812e+00) (1, 2.48635911941528320312e+00) (2, -6.36308729648590087891e-01) (3, -2.09262866973876953125e+01) (4, 5.69117367267608642578e-01) (5, 1.65740337371826171875e+01) (6, -1.94959509372711181641e+00) (7, 1.70406162738800048828e-01) (8, 2.96949893236160278320e-01) (9, 8.79147589206695556641e-01) (0, 6.16418266296386718750e+00) (1, 1.41057097911834716797e+00) (2, -1.94966526031494140625e+01) (3, 9.21577167510986328125e+00) (4, 4.15314584970474243164e-01) (5, -4.64271831512451171875e+00) (6, 1.12205958366394042969e+00) (7, -2.83939421176910400391e-01) (8, -1.47965085506439208984e+00) (9, 3.18483501672744750977e-01) (0, -4.09674692153930664062e+00) (1, 5.70375299453735351562e+00) (2, 2.04709514975547790527e-01) (3, -5.14628791809082031250e+00) (4, 5.89903116226196289062e-01) (5, 1.24562911987304687500e+01) (6, -1.98694694042205810547e+00) (7, -1.63578529357910156250e+01) (8, -2.15643107891082763672e-01) (9, 2.14215159416198730469e+00) (0, 1.18269853591918945312e+01) (1, 1.85256147384643554688e+00) (2, -2.61506538391113281250e+01) (3, 7.20125150680541992188e+00) (4, 2.85434991121292114258e-01) (5, -2.60300278663635253906e+00) (6, 2.39801454544067382812e+00) (7, -2.23512686789035797119e-02) (8, -2.41650748252868652344e+00) (9, 2.73098438978195190430e-01) (0, -4.12120532989501953125e+00) (1, 5.18391180038452148438e+00) (2, 4.96306598186492919922e-01) (3, -5.74900102615356445312e+00) (4, 4.01070594787597656250e-01) (5, 8.85096549987792968750e+00) (6, -7.58459043502807617188e+00) (7, -6.89947986602783203125e+00) (8, -6.39257729053497314453e-01) (9, 2.83108878135681152344e+00) (0, -4.19202184677124023438e+00) (1, 1.01148653030395507812e+01) (2, 6.16604924201965332031e-01) (3, -2.44743347167968750000e+00) (4, 3.76594454050064086914e-01) (5, 1.09991874694824218750e+01) (6, -7.25806951522827148438e+00) (7, -1.47493562698364257812e+01) (8, -5.40808856487274169922e-01) (9, 9.52442407608032226562e-01) (0, 3.49088859558105468750e+00) (1, 2.82621145248413085938e+00) (2, -4.81251335144042968750e+00) (3, 3.26689630746841430664e-01) (4, 4.15525823831558227539e-01) (5, -5.75961923599243164062e+00) (6, -2.73409485816955566406e+00) (7, -4.21731397509574890137e-02) (8, 1.38294911384582519531e+00) (9, -6.69295847415924072266e-01) (0, 2.81843638420104980469e+00) (1, 3.39943432807922363281e+00) (2, -4.70419359207153320312e+00) (3, -4.35129463672637939453e-01) (4, -1.42415237426757812500e+00) (5, 3.27553820610046386719e+00) (6, -1.45455926656723022461e-01) (7, -5.23787546157836914062e+00) (8, -2.76794672012329101562e+00) (9, 4.83166038990020751953e-01) (10, 1.32686066627502441406e+00) (11, 1.65230667591094970703e+00) (12, 1.42352759838104248047e+00) (13, 2.64879322052001953125e+00) (14, 5.47906756401062011719e-01) (15, 9.88362491130828857422e-01) (16, -1.76953747868537902832e-01) (17, 2.91419059038162231445e-01) (18, -3.40616393089294433594e+00) 
