FANN_FLO_2.1
num_layers=4
learning_rate=0.400000
connection_rate=1.000000
network_type=0
learning_momentum=0.000000
training_algorithm=2
train_error_function=1
train_stop_function=0
cascade_output_change_fraction=0.010000
quickprop_decay=-0.000100
quickprop_mu=1.750000
rprop_increase_factor=1.200000
rprop_decrease_factor=0.500000
rprop_delta_min=0.000000
rprop_delta_max=50.000000
rprop_delta_zero=0.100000
cascade_output_stagnation_epochs=12
cascade_candidate_change_fraction=0.010000
cascade_candidate_stagnation_epochs=12
cascade_max_out_epochs=150
cascade_min_out_epochs=50
cascade_max_cand_epochs=150
cascade_min_cand_epochs=50
cascade_num_candidate_groups=2
bit_fail_limit=3.49999994039535522461e-01
cascade_candidate_limit=1.00000000000000000000e+03
cascade_weight_multiplier=4.00000005960464477539e-01
cascade_activation_functions_count=10
cascade_activation_functions=3 5 7 8 10 11 14 15 16 17 
cascade_activation_steepnesses_count=4
cascade_activation_steepnesses=2.50000000000000000000e-01 5.00000000000000000000e-01 7.50000000000000000000e-01 1.00000000000000000000e+00 
layer_sizes=7 9 9 2 
scale_included=0
neurons (num_inputs, activation_function, activation_steepness)=(0, 0, 0.00000000000000000000e+00) (0, 0, 0.00000000000000000000e+00) (0, 0, 0.00000000000000000000e+00) (0, 0, 0.00000000000000000000e+00) (0, 0, 0.00000000000000000000e+00) (0, 0, 0.00000000000000000000e+00) (0, 0, 0.00000000000000000000e+00) (7, 3, 5.00000000000000000000e-01) (7, 3, 5.00000000000000000000e-01) (7, 3, 5.00000000000000000000e-01) (7, 3, 5.00000000000000000000e-01) (7, 3, 5.00000000000000000000e-01) (7, 3, 5.00000000000000000000e-01) (7, 3, 5.00000000000000000000e-01) (7, 3, 5.00000000000000000000e-01) (0, 3, 0.00000000000000000000e+00) (9, 3, 5.00000000000000000000e-01) (9, 3, 5.00000000000000000000e-01) (9, 3, 5.00000000000000000000e-01) (9, 3, 5.00000000000000000000e-01) (9, 3, 5.00000000000000000000e-01) (9, 3, 5.00000000000000000000e-01) (9, 3, 5.00000000000000000000e-01) (9, 3, 5.00000000000000000000e-01) (0, 3, 0.00000000000000000000e+00) (9, 3, 5.00000000000000000000e-01) (0, 3, 0.00000000000000000000e+00) 
connections (connected_to_neuron, weight)=(0, 2.86854028701782226562e-01) (1, 1.28957176208496093750e+00) (2, 6.39736633300781250000e+01) (3, -5.39955091476440429688e+00) (4, -1.64407711029052734375e+01) (5, -2.35856151580810546875e+00) (6, 1.63038897514343261719e+00) (0, 2.92386198043823242188e+00) (1, -5.32070541381835937500e+00) (2, -1.26172680664062500000e+03) (3, -2.22057132720947265625e+01) (4, -5.95619850158691406250e+01) (5, 1.63856948852539062500e+02) (6, -2.53906147554516792297e-03) (0, -2.63302731513977050781e+00) (1, 1.85014343261718750000e+00) (2, -4.26899566650390625000e+01) (3, -3.92791295051574707031e+00) (4, -2.49121952056884765625e+00) (5, 2.31784105300903320312e+00) (6, 3.19541883468627929688e+00) (0, -1.61305125802755355835e-02) (1, 1.07423745095729827881e-01) (2, -3.30005455017089843750e+01) (3, -1.04918136596679687500e+01) (4, 1.52641582489013671875e+00) (5, 1.33724927902221679688e-01) (6, 2.18874096870422363281e+00) (0, -9.75973606109619140625e+00) (1, 3.68105888366699218750e+00) (2, -1.88236212730407714844e+00) (3, -4.84132021665573120117e-01) (4, -1.39466214179992675781e+00) (5, -1.24982043457031250000e+03) (6, 5.55880403518676757812e+00) (0, 1.80672422051429748535e-01) (1, -5.50193190574645996094e-01) (2, 1.72409954071044921875e+01) (3, 3.27832078933715820312e+00) (4, -1.10541276931762695312e+01) (5, -3.05343866348266601562e-01) (6, 8.81003916263580322266e-01) (0, -2.08894901275634765625e+01) (1, 1.56875133514404296875e+01) (2, -7.86351776123046875000e+00) (3, -4.90617418289184570312e+00) (4, -1.59460985660552978516e+00) (5, -1.16633923339843750000e+03) (6, 7.56435918807983398438e+00) (0, 5.62366545200347900391e-01) (1, -4.56216239929199218750e+00) (2, -2.55766654014587402344e+00) (3, -8.64947319030761718750e+00) (4, 6.75132647156715393066e-02) (5, 4.84318542480468750000e+00) (6, 5.28985738754272460938e-01) (7, 1.50000000000000000000e+03) (8, 6.02203491210937500000e+02) (9, -8.48150253295898437500e+01) (10, 9.53623886108398437500e+01) (11, -7.05241680145263671875e-01) (12, 1.50000000000000000000e+03) (13, 1.51332597732543945312e+01) (14, 4.09891815185546875000e+01) (15, -9.24203395843505859375e+00) (7, 1.50000000000000000000e+03) (8, 1.09078155517578125000e+02) (9, -9.40557861328125000000e+02) (10, 1.50000000000000000000e+03) (11, 1.50000000000000000000e+03) (12, 6.47232971191406250000e+02) (13, 1.50000000000000000000e+03) (14, 2.27671051025390625000e+02) (15, -7.23802490234375000000e+01) (7, 1.35237622070312500000e+03) (8, 1.22144140625000000000e+03) (9, -1.43887182617187500000e+03) (10, 2.24177902221679687500e+02) (11, 1.50000000000000000000e+03) (12, 1.23395950317382812500e+02) (13, 1.50000000000000000000e+03) (14, -3.50258789062500000000e+01) (15, -1.26093888282775878906e+00) (7, -1.50000000000000000000e+03) (8, 3.17842498779296875000e+02) (9, -1.14017211914062500000e+03) (10, -1.50000000000000000000e+03) (11, -1.50000000000000000000e+03) (12, -1.50000000000000000000e+03) (13, -1.50000000000000000000e+03) (14, -8.00640991210937500000e+02) (15, -3.56629341840744018555e-01) (7, 1.50000000000000000000e+03) (8, 6.02203491210937500000e+02) (9, -1.22283532714843750000e+03) (10, 1.50000000000000000000e+03) (11, 1.50000000000000000000e+03) (12, 1.15408178710937500000e+03) (13, 1.50000000000000000000e+03) (14, 1.42994613647460937500e+02) (15, -2.16743731498718261719e+00) (7, -7.59594202041625976562e-01) (8, 1.85245132446289062500e+01) (9, -8.27867889404296875000e+00) (10, -1.66935920715332031250e+00) (11, -1.23115339279174804688e+01) (12, 1.01075124740600585938e+01) (13, 3.28130264282226562500e+01) (14, 5.55848770141601562500e+01) (15, -1.79614677429199218750e+01) (7, -1.77905548095703125000e+02) (8, 3.37772491455078125000e+02) (9, 3.42255096435546875000e+01) (10, -1.50000000000000000000e+03) (11, -1.50000000000000000000e+03) (12, -1.49064483642578125000e+02) (13, -1.50000000000000000000e+03) (14, -6.18100402832031250000e+02) (15, -7.71469473838806152344e-01) (7, 1.50000000000000000000e+03) (8, 6.02203491210937500000e+02) (9, -8.54778930664062500000e+02) (10, 1.50000000000000000000e+03) (11, 1.50000000000000000000e+03) (12, 1.21988183593750000000e+03) (13, 1.50000000000000000000e+03) (14, 6.38431930541992187500e+01) (15, -1.42043197154998779297e+00) (16, -7.53648281097412109375e-01) (17, -4.06486481428146362305e-01) (18, -6.33661076426506042480e-02) (19, 4.16319084167480468750e+00) (20, -5.50146818161010742188e-01) (21, -1.42069578170776367188e+00) (22, 6.91557228565216064453e-01) (23, -1.11056946218013763428e-01) (24, -1.70200258493423461914e-01) 
