FANN_FLO_2.1
num_layers=3
learning_rate=0.500000
connection_rate=1.000000
network_type=0
learning_momentum=0.000000
training_algorithm=2
train_error_function=1
train_stop_function=0
cascade_output_change_fraction=0.010000
quickprop_decay=-0.000100
quickprop_mu=1.750000
rprop_increase_factor=1.200000
rprop_decrease_factor=0.500000
rprop_delta_min=0.000000
rprop_delta_max=50.000000
rprop_delta_zero=0.100000
cascade_output_stagnation_epochs=12
cascade_candidate_change_fraction=0.010000
cascade_candidate_stagnation_epochs=12
cascade_max_out_epochs=150
cascade_min_out_epochs=50
cascade_max_cand_epochs=150
cascade_min_cand_epochs=50
cascade_num_candidate_groups=2
bit_fail_limit=3.49999994039535522461e-01
cascade_candidate_limit=1.00000000000000000000e+03
cascade_weight_multiplier=4.00000005960464477539e-01
cascade_activation_functions_count=10
cascade_activation_functions=3 5 7 8 10 11 14 15 16 17 
cascade_activation_steepnesses_count=4
cascade_activation_steepnesses=2.50000000000000000000e-01 5.00000000000000000000e-01 7.50000000000000000000e-01 1.00000000000000000000e+00 
layer_sizes=10 5 2 
scale_included=0
neurons (num_inputs, activation_function, activation_steepness)=(0, 0, 0.00000000000000000000e+00) (0, 0, 0.00000000000000000000e+00) (0, 0, 0.00000000000000000000e+00) (0, 0, 0.00000000000000000000e+00) (0, 0, 0.00000000000000000000e+00) (0, 0, 0.00000000000000000000e+00) (0, 0, 0.00000000000000000000e+00) (0, 0, 0.00000000000000000000e+00) (0, 0, 0.00000000000000000000e+00) (0, 0, 0.00000000000000000000e+00) (10, 3, 5.00000000000000000000e-01) (10, 3, 5.00000000000000000000e-01) (10, 3, 5.00000000000000000000e-01) (10, 3, 5.00000000000000000000e-01) (0, 3, 0.00000000000000000000e+00) (5, 3, 5.00000000000000000000e-01) (0, 3, 0.00000000000000000000e+00) 
connections (connected_to_neuron, weight)=(0, 7.12911009788513183594e-01) (1, 2.55614757537841796875e+00) (2, -3.62852454185485839844e-01) (3, 3.27178448438644409180e-01) (4, -1.42943489551544189453e+00) (5, 9.59817290306091308594e-01) (6, 9.40019428730010986328e-01) (7, -8.10024642944335937500e+00) (8, -1.36756587028503417969e+00) (9, 3.09835624694824218750e+00) (0, -6.02364763617515563965e-02) (1, -6.37373256683349609375e+00) (2, -1.26318550109863281250e+01) (3, -7.80885994434356689453e-01) (4, 7.14178800582885742188e-01) (5, 6.50252532958984375000e+00) (6, 4.47440671920776367188e+00) (7, -1.26525923609733581543e-01) (8, 1.81034362316131591797e+00) (9, 5.59279263019561767578e-01) (0, 2.98396289348602294922e-01) (1, 2.55606865882873535156e+00) (2, -9.56612944602966308594e-01) (3, 4.24050718545913696289e-01) (4, -7.06608891487121582031e-01) (5, 6.14446043968200683594e-01) (6, 1.90567791461944580078e+00) (7, -1.45280351638793945312e+01) (8, -4.15116357803344726562e+00) (9, 8.40876770019531250000e+00) (0, -4.46034002304077148438e+00) (1, -5.94257771968841552734e-01) (2, -3.22307419776916503906e+00) (3, 1.59911632537841796875e+00) (4, 2.88154053688049316406e+00) (5, 1.25749635696411132812e+00) (6, 1.30694890022277832031e+00) (7, -2.35125684738159179688e+00) (8, 1.83377349376678466797e+00) (9, 1.89807164669036865234e+00) (10, 1.14808189868927001953e+00) (11, 5.06191015243530273438e+00) (12, 4.11055564880371093750e+00) (13, -2.14149260520935058594e+00) (14, -3.05157017707824707031e+00) 
