FANN_FLO_2.1
num_layers=3
learning_rate=0.500000
connection_rate=1.000000
network_type=0
learning_momentum=0.000000
training_algorithm=2
train_error_function=1
train_stop_function=0
cascade_output_change_fraction=0.010000
quickprop_decay=-0.000100
quickprop_mu=1.750000
rprop_increase_factor=1.200000
rprop_decrease_factor=0.500000
rprop_delta_min=0.000000
rprop_delta_max=50.000000
rprop_delta_zero=0.100000
cascade_output_stagnation_epochs=12
cascade_candidate_change_fraction=0.010000
cascade_candidate_stagnation_epochs=12
cascade_max_out_epochs=150
cascade_min_out_epochs=50
cascade_max_cand_epochs=150
cascade_min_cand_epochs=50
cascade_num_candidate_groups=2
bit_fail_limit=3.49999994039535522461e-01
cascade_candidate_limit=1.00000000000000000000e+03
cascade_weight_multiplier=4.00000005960464477539e-01
cascade_activation_functions_count=10
cascade_activation_functions=3 5 7 8 10 11 14 15 16 17 
cascade_activation_steepnesses_count=4
cascade_activation_steepnesses=2.50000000000000000000e-01 5.00000000000000000000e-01 7.50000000000000000000e-01 1.00000000000000000000e+00 
layer_sizes=10 5 2 
scale_included=0
neurons (num_inputs, activation_function, activation_steepness)=(0, 0, 0.00000000000000000000e+00) (0, 0, 0.00000000000000000000e+00) (0, 0, 0.00000000000000000000e+00) (0, 0, 0.00000000000000000000e+00) (0, 0, 0.00000000000000000000e+00) (0, 0, 0.00000000000000000000e+00) (0, 0, 0.00000000000000000000e+00) (0, 0, 0.00000000000000000000e+00) (0, 0, 0.00000000000000000000e+00) (0, 0, 0.00000000000000000000e+00) (10, 3, 5.00000000000000000000e-01) (10, 3, 5.00000000000000000000e-01) (10, 3, 5.00000000000000000000e-01) (10, 3, 5.00000000000000000000e-01) (0, 3, 0.00000000000000000000e+00) (5, 3, 5.00000000000000000000e-01) (0, 3, 0.00000000000000000000e+00) 
connections (connected_to_neuron, weight)=(0, 1.27580623626708984375e+01) (1, -1.86816864013671875000e+01) (2, -1.50000000000000000000e+03) (3, 5.03885149955749511719e-01) (4, 2.51582741737365722656e+00) (5, 2.20111602783203125000e+02) (6, 1.05957579612731933594e+00) (7, -1.53613710403442382812e+00) (8, 9.58755737304687500000e+02) (9, 5.82550317049026489258e-02) (0, 1.09334287643432617188e+01) (1, -1.13022022247314453125e+01) (2, -1.50000000000000000000e+03) (3, 7.27271938323974609375e+00) (4, 2.21347778320312500000e+02) (5, 1.18760485839843750000e+03) (6, -1.22540760040283203125e+00) (7, -1.29508898925781250000e+03) (8, 7.33281631469726562500e+01) (9, -3.93845329284667968750e+01) (0, 1.34335784912109375000e+01) (1, -1.55804481506347656250e+01) (2, -1.50000000000000000000e+03) (3, 7.04054951667785644531e-01) (4, 1.47402505874633789062e+01) (5, 1.26612573242187500000e+03) (6, -2.06660437583923339844e+00) (7, -1.50000000000000000000e+03) (8, 1.16232336425781250000e+03) (9, -5.51148939132690429688e+00) (0, 1.49848878383636474609e-01) (1, 1.56913690567016601562e+01) (2, 1.51758480072021484375e+01) (3, 1.77578127384185791016e+00) (4, 4.05673313140869140625e+00) (5, 1.24366369247436523438e+01) (6, -4.23011350631713867188e+00) (7, -5.69848585128784179688e+00) (8, -3.31956405639648437500e+01) (9, -3.50769352912902832031e+00) (10, 9.20448899269104003906e-01) (11, 9.96044874191284179688e-01) (12, 9.05233383178710937500e-01) (13, 2.79223966598510742188e+00) (14, -1.94881391525268554688e+00) 
