FANN_FLO_2.1
num_layers=3
learning_rate=0.400000
connection_rate=1.000000
network_type=0
learning_momentum=0.000000
training_algorithm=2
train_error_function=1
train_stop_function=0
cascade_output_change_fraction=0.010000
quickprop_decay=-0.000100
quickprop_mu=1.750000
rprop_increase_factor=1.200000
rprop_decrease_factor=0.500000
rprop_delta_min=0.000000
rprop_delta_max=50.000000
rprop_delta_zero=0.100000
cascade_output_stagnation_epochs=12
cascade_candidate_change_fraction=0.010000
cascade_candidate_stagnation_epochs=12
cascade_max_out_epochs=150
cascade_min_out_epochs=50
cascade_max_cand_epochs=150
cascade_min_cand_epochs=50
cascade_num_candidate_groups=2
bit_fail_limit=3.49999994039535522461e-01
cascade_candidate_limit=1.00000000000000000000e+03
cascade_weight_multiplier=4.00000005960464477539e-01
cascade_activation_functions_count=10
cascade_activation_functions=3 5 7 8 10 11 14 15 16 17 
cascade_activation_steepnesses_count=4
cascade_activation_steepnesses=2.50000000000000000000e-01 5.00000000000000000000e-01 7.50000000000000000000e-01 1.00000000000000000000e+00 
layer_sizes=7 9 2 
scale_included=0
neurons (num_inputs, activation_function, activation_steepness)=(0, 0, 0.00000000000000000000e+00) (0, 0, 0.00000000000000000000e+00) (0, 0, 0.00000000000000000000e+00) (0, 0, 0.00000000000000000000e+00) (0, 0, 0.00000000000000000000e+00) (0, 0, 0.00000000000000000000e+00) (0, 0, 0.00000000000000000000e+00) (7, 3, 5.00000000000000000000e-01) (7, 3, 5.00000000000000000000e-01) (7, 3, 5.00000000000000000000e-01) (7, 3, 5.00000000000000000000e-01) (7, 3, 5.00000000000000000000e-01) (7, 3, 5.00000000000000000000e-01) (7, 3, 5.00000000000000000000e-01) (7, 3, 5.00000000000000000000e-01) (0, 3, 0.00000000000000000000e+00) (9, 3, 5.00000000000000000000e-01) (0, 3, 0.00000000000000000000e+00) 
connections (connected_to_neuron, weight)=(0, 2.54988455772399902344e+00) (1, 7.53377735614776611328e-01) (2, -4.70057517290115356445e-01) (3, -2.70627236366271972656e+00) (4, 1.49357545375823974609e+00) (5, 6.29753053188323974609e-01) (6, 1.58954632282257080078e+00) (0, 1.39441263675689697266e+00) (1, 1.26631617546081542969e+00) (2, -9.62852382659912109375e+00) (3, -8.34512293338775634766e-01) (4, 3.37712073326110839844e+00) (5, 5.28223657608032226562e+00) (6, 1.32021319866180419922e+00) (0, -5.01339817047119140625e+00) (1, -2.96978521347045898438e+00) (2, 3.98752212524414062500e-01) (3, 1.35585594177246093750e+00) (4, 1.71030938625335693359e+00) (5, 1.57745704054832458496e-01) (6, -1.77754795551300048828e+00) (0, -6.26329708099365234375e+00) (1, -6.06210768222808837891e-01) (2, 3.20185828208923339844e+00) (3, -2.06973958015441894531e+00) (4, -1.11133790016174316406e+00) (5, 1.37939429283142089844e+00) (6, 6.86317861080169677734e-01) (0, -1.73490428924560546875e+00) (1, -1.80698478221893310547e+00) (2, -2.41497254371643066406e+00) (3, 2.14304423332214355469e+00) (4, -5.36684393882751464844e-02) (5, 9.67360877990722656250e+00) (6, -4.90874099731445312500e+00) (0, 1.38712179660797119141e+00) (1, 5.92414319515228271484e-01) (2, -3.47169804573059082031e+00) (3, -4.13991880416870117188e+00) (4, -4.79633474349975585938e+00) (5, 1.49112024307250976562e+01) (6, 4.02018070220947265625e-01) (0, -2.62391257286071777344e+00) (1, -3.68202209472656250000e+00) (2, -2.31179881095886230469e+00) (3, 6.65976047515869140625e-01) (4, 1.91126310825347900391e+00) (5, 4.03010702133178710938e+00) (6, -3.09615683555603027344e+00) (0, 3.37780737876892089844e+00) (1, 1.82894074916839599609e+00) (2, -1.21212351322174072266e+00) (3, 1.36792278289794921875e+00) (4, 2.34843683242797851562e+00) (5, -1.22406482696533203125e+00) (6, -1.88447821140289306641e+00) (7, -1.81104138493537902832e-01) (8, -8.11750948429107666016e-01) (9, 6.65734529495239257812e+00) (10, -1.33713901042938232422e+00) (11, 2.74750924110412597656e+00) (12, -2.25939655303955078125e+00) (13, 2.67212057113647460938e+00) (14, 8.85548174381256103516e-01) (15, -1.58095813822001218796e-03) 
