FANN_FLO_2.1
num_layers=4
learning_rate=0.500000
connection_rate=1.000000
network_type=0
learning_momentum=0.000000
training_algorithm=2
train_error_function=1
train_stop_function=0
cascade_output_change_fraction=0.010000
quickprop_decay=-0.000100
quickprop_mu=1.750000
rprop_increase_factor=1.200000
rprop_decrease_factor=0.500000
rprop_delta_min=0.000000
rprop_delta_max=50.000000
rprop_delta_zero=0.100000
cascade_output_stagnation_epochs=12
cascade_candidate_change_fraction=0.010000
cascade_candidate_stagnation_epochs=12
cascade_max_out_epochs=150
cascade_min_out_epochs=50
cascade_max_cand_epochs=150
cascade_min_cand_epochs=50
cascade_num_candidate_groups=2
bit_fail_limit=3.49999994039535522461e-01
cascade_candidate_limit=1.00000000000000000000e+03
cascade_weight_multiplier=4.00000005960464477539e-01
cascade_activation_functions_count=10
cascade_activation_functions=3 5 7 8 10 11 14 15 16 17 
cascade_activation_steepnesses_count=4
cascade_activation_steepnesses=2.50000000000000000000e-01 5.00000000000000000000e-01 7.50000000000000000000e-01 1.00000000000000000000e+00 
layer_sizes=10 9 3 2 
scale_included=0
neurons (num_inputs, activation_function, activation_steepness)=(0, 0, 0.00000000000000000000e+00) (0, 0, 0.00000000000000000000e+00) (0, 0, 0.00000000000000000000e+00) (0, 0, 0.00000000000000000000e+00) (0, 0, 0.00000000000000000000e+00) (0, 0, 0.00000000000000000000e+00) (0, 0, 0.00000000000000000000e+00) (0, 0, 0.00000000000000000000e+00) (0, 0, 0.00000000000000000000e+00) (0, 0, 0.00000000000000000000e+00) (10, 3, 5.00000000000000000000e-01) (10, 3, 5.00000000000000000000e-01) (10, 3, 5.00000000000000000000e-01) (10, 3, 5.00000000000000000000e-01) (10, 3, 5.00000000000000000000e-01) (10, 3, 5.00000000000000000000e-01) (10, 3, 5.00000000000000000000e-01) (10, 3, 5.00000000000000000000e-01) (0, 3, 0.00000000000000000000e+00) (9, 3, 5.00000000000000000000e-01) (9, 3, 5.00000000000000000000e-01) (0, 3, 0.00000000000000000000e+00) (3, 3, 5.00000000000000000000e-01) (0, 3, 0.00000000000000000000e+00) 
connections (connected_to_neuron, weight)=(0, 1.50000000000000000000e+03) (1, 7.26740658283233642578e-01) (2, -9.15339946746826171875e+00) (3, 1.13233556747436523438e+01) (4, 1.96791738271713256836e-01) (5, 2.05011177062988281250e+01) (6, 1.50000000000000000000e+03) (7, 1.50000000000000000000e+03) (8, 1.50000000000000000000e+03) (9, -1.48246479034423828125e+00) (0, -5.63189983367919921875e+00) (1, -2.93089437484741210938e+00) (2, -5.27583360671997070312e+00) (3, 1.34873640537261962891e+00) (4, -9.19460773468017578125e-01) (5, -8.86736333370208740234e-01) (6, 9.60453796386718750000e+00) (7, 1.33438122272491455078e+00) (8, -6.47721350193023681641e-01) (9, -9.22550320625305175781e-01) (0, -4.51983734130859375000e+02) (1, 3.02011346817016601562e+00) (2, -5.49400634765625000000e+01) (3, -6.15979537963867187500e+01) (4, 4.89218568801879882812e+00) (5, 7.03387817382812500000e+02) (6, 9.33846801757812500000e+02) (7, -4.18743286132812500000e+01) (8, 1.87394924163818359375e+01) (9, -3.18766331672668457031e+00) (0, 8.65152925252914428711e-02) (1, -1.46962165832519531250e+01) (2, -1.16670083999633789062e+01) (3, 3.79560494422912597656e+00) (4, -1.04403972625732421875e-01) (5, 2.64630299061536788940e-02) (6, 1.59011983871459960938e+01) (7, 9.57671356201171875000e+00) (8, 2.23663792014122009277e-01) (9, -1.54129371047019958496e-01) (0, 1.44383513927459716797e+00) (1, -2.27731966972351074219e+00) (2, -2.73621177673339843750e+00) (3, 2.98352384567260742188e+00) (4, -7.96077072620391845703e-01) (5, -1.08171343803405761719e+00) (6, 3.66014927625656127930e-01) (7, 1.93865287303924560547e+00) (8, -2.30661794543266296387e-01) (9, -4.41164880990982055664e-01) (0, 7.97758042812347412109e-01) (1, -7.25247240066528320312e+00) (2, -3.35147929191589355469e+00) (3, 2.29738831520080566406e+00) (4, -1.51173448562622070312e+00) (5, -8.46154987812042236328e-01) (6, 7.09702908992767333984e-01) (7, 2.03525161743164062500e+00) (8, 3.90360295772552490234e-01) (9, -8.69249522686004638672e-01) (0, 2.37377896904945373535e-01) (1, -1.38300094604492187500e+01) (2, -8.19755649566650390625e+00) (3, 3.90549731254577636719e+00) (4, -3.08779418468475341797e-01) (5, -7.25272476673126220703e-01) (6, 1.89043788909912109375e+01) (7, 3.80693364143371582031e+00) (8, 1.93106651306152343750e-01) (9, -3.39191943407058715820e-01) (0, -3.53843188285827636719e+00) (1, -1.13536005020141601562e+01) (2, -7.91347146034240722656e-01) (3, 2.69656515121459960938e+00) (4, -1.76610555499792098999e-02) (5, -9.53632175922393798828e-01) (6, 4.30567169189453125000e+00) (7, 1.27857990264892578125e+01) (8, -7.60088801383972167969e-01) (9, -4.53506737947463989258e-01) (10, 1.65924537181854248047e+00) (11, 7.60006666183471679688e+00) (12, 8.38393196463584899902e-02) (13, -5.31288146972656250000e+00) (14, 1.48788642883300781250e+00) (15, 1.36857664585113525391e+00) (16, -2.20205426216125488281e+00) (17, 4.46647405624389648438e-01) (18, 1.05865657329559326172e+00) (10, 1.21323776245117187500e+00) (11, 3.08058404922485351562e+00) (12, 1.08857095241546630859e+00) (13, -3.86608290672302246094e+00) (14, 1.55970108509063720703e+00) (15, 1.54361629486083984375e+00) (16, -1.51870799064636230469e+00) (17, -5.53309738636016845703e-01) (18, 9.10429596900939941406e-01) (19, 1.04300010204315185547e+00) (20, 1.90369474887847900391e+00) (21, -1.95322549343109130859e+00) 
