FANN_FLO_2.1
num_layers=3
learning_rate=0.400000
connection_rate=1.000000
network_type=0
learning_momentum=0.000000
training_algorithm=2
train_error_function=1
train_stop_function=0
cascade_output_change_fraction=0.010000
quickprop_decay=-0.000100
quickprop_mu=1.750000
rprop_increase_factor=1.200000
rprop_decrease_factor=0.500000
rprop_delta_min=0.000000
rprop_delta_max=50.000000
rprop_delta_zero=0.100000
cascade_output_stagnation_epochs=12
cascade_candidate_change_fraction=0.010000
cascade_candidate_stagnation_epochs=12
cascade_max_out_epochs=150
cascade_min_out_epochs=50
cascade_max_cand_epochs=150
cascade_min_cand_epochs=50
cascade_num_candidate_groups=2
bit_fail_limit=3.49999994039535522461e-01
cascade_candidate_limit=1.00000000000000000000e+03
cascade_weight_multiplier=4.00000005960464477539e-01
cascade_activation_functions_count=10
cascade_activation_functions=3 5 7 8 10 11 14 15 16 17 
cascade_activation_steepnesses_count=4
cascade_activation_steepnesses=2.50000000000000000000e-01 5.00000000000000000000e-01 7.50000000000000000000e-01 1.00000000000000000000e+00 
layer_sizes=19 3 3 
scale_included=0
neurons (num_inputs, activation_function, activation_steepness)=(0, 0, 0.00000000000000000000e+00) (0, 0, 0.00000000000000000000e+00) (0, 0, 0.00000000000000000000e+00) (0, 0, 0.00000000000000000000e+00) (0, 0, 0.00000000000000000000e+00) (0, 0, 0.00000000000000000000e+00) (0, 0, 0.00000000000000000000e+00) (0, 0, 0.00000000000000000000e+00) (0, 0, 0.00000000000000000000e+00) (0, 0, 0.00000000000000000000e+00) (0, 0, 0.00000000000000000000e+00) (0, 0, 0.00000000000000000000e+00) (0, 0, 0.00000000000000000000e+00) (0, 0, 0.00000000000000000000e+00) (0, 0, 0.00000000000000000000e+00) (0, 0, 0.00000000000000000000e+00) (0, 0, 0.00000000000000000000e+00) (0, 0, 0.00000000000000000000e+00) (0, 0, 0.00000000000000000000e+00) (19, 3, 5.00000000000000000000e-01) (19, 3, 5.00000000000000000000e-01) (0, 3, 0.00000000000000000000e+00) (3, 3, 5.00000000000000000000e-01) (3, 3, 5.00000000000000000000e-01) (0, 3, 0.00000000000000000000e+00) 
connections (connected_to_neuron, weight)=(0, -9.94036579132080078125e+00) (1, -1.16821022033691406250e+01) (2, -5.13263559341430664062e+00) (3, -1.75236928462982177734e+00) (4, 1.88513202667236328125e+01) (5, 1.01817045211791992188e+01) (6, 3.65166139602661132812e+00) (7, 2.43892669677734375000e+00) (8, 7.54305458068847656250e+00) (9, -9.13761425018310546875e+00) (10, -4.93904829025268554688e+00) (11, 9.89538788795471191406e-01) (12, -9.38111782073974609375e+00) (13, 8.79481136798858642578e-01) (14, 2.10889506340026855469e+00) (15, 9.74441528320312500000e+00) (16, 1.17185964584350585938e+01) (17, 1.67906725406646728516e+00) (18, 4.26743841171264648438e+00) (0, 6.68039321899414062500e+00) (1, 5.91530942916870117188e+00) (2, -2.96021842956542968750e+00) (3, 1.36173760890960693359e+00) (4, 4.84620761871337890625e+00) (5, 5.35263538360595703125e+00) (6, 6.56052970886230468750e+00) (7, -7.06235170364379882812e+00) (8, -2.32196903228759765625e+00) (9, 1.57856750488281250000e+01) (10, 1.24772489070892333984e+00) (11, 6.94735908508300781250e+00) (12, -1.13333463668823242188e+01) (13, 1.28231263160705566406e+00) (14, 3.37888669967651367188e+00) (15, 1.15302944183349609375e+00) (16, -7.45706033706665039062e+00) (17, -2.15098571777343750000e+00) (18, 8.53902697563171386719e-01) (19, -8.20299148559570312500e-01) (20, -1.94756913185119628906e+00) (21, 2.10571908950805664062e+00) (19, 8.17583024501800537109e-01) (20, 1.88340437412261962891e+00) (21, -2.03759717941284179688e+00) 
