FANN_FLO_2.1
num_layers=3
learning_rate=0.400000
connection_rate=1.000000
network_type=0
learning_momentum=0.000000
training_algorithm=2
train_error_function=1
train_stop_function=0
cascade_output_change_fraction=0.010000
quickprop_decay=-0.000100
quickprop_mu=1.750000
rprop_increase_factor=1.200000
rprop_decrease_factor=0.500000
rprop_delta_min=0.000000
rprop_delta_max=50.000000
rprop_delta_zero=0.100000
cascade_output_stagnation_epochs=12
cascade_candidate_change_fraction=0.010000
cascade_candidate_stagnation_epochs=12
cascade_max_out_epochs=150
cascade_min_out_epochs=50
cascade_max_cand_epochs=150
cascade_min_cand_epochs=50
cascade_num_candidate_groups=2
bit_fail_limit=3.49999994039535522461e-01
cascade_candidate_limit=1.00000000000000000000e+03
cascade_weight_multiplier=4.00000005960464477539e-01
cascade_activation_functions_count=10
cascade_activation_functions=3 5 7 8 10 11 14 15 16 17 
cascade_activation_steepnesses_count=4
cascade_activation_steepnesses=2.50000000000000000000e-01 5.00000000000000000000e-01 7.50000000000000000000e-01 1.00000000000000000000e+00 
layer_sizes=7 5 2 
scale_included=0
neurons (num_inputs, activation_function, activation_steepness)=(0, 0, 0.00000000000000000000e+00) (0, 0, 0.00000000000000000000e+00) (0, 0, 0.00000000000000000000e+00) (0, 0, 0.00000000000000000000e+00) (0, 0, 0.00000000000000000000e+00) (0, 0, 0.00000000000000000000e+00) (0, 0, 0.00000000000000000000e+00) (7, 3, 5.00000000000000000000e-01) (7, 3, 5.00000000000000000000e-01) (7, 3, 5.00000000000000000000e-01) (7, 3, 5.00000000000000000000e-01) (0, 3, 0.00000000000000000000e+00) (5, 3, 5.00000000000000000000e-01) (0, 3, 0.00000000000000000000e+00) 
connections (connected_to_neuron, weight)=(0, -1.21118755340576171875e+01) (1, 1.00910224914550781250e+01) (2, -3.20810437202453613281e+00) (3, -1.64933383464813232422e-01) (4, -5.36055922508239746094e-01) (5, 1.49999890136718750000e+03) (6, 1.45323359966278076172e+00) (0, 9.13582038879394531250e+00) (1, -1.10349264144897460938e+01) (2, 2.57589745521545410156e+00) (3, -1.38872849941253662109e+00) (4, -1.92617237567901611328e+00) (5, -2.80196619033813476562e+00) (6, 4.72576761245727539062e+00) (0, -4.77668666839599609375e+00) (1, 6.17930507659912109375e+00) (2, 2.32311189174652099609e-01) (3, -3.70908355712890625000e+00) (4, 2.01096490025520324707e-01) (5, -4.22261571884155273438e+00) (6, -1.85718321800231933594e+00) (0, 8.26884460449218750000e+00) (1, -1.78386955261230468750e+01) (2, 3.72715568542480468750e+01) (3, -3.50707817077636718750e+01) (4, 7.08144283294677734375e+00) (5, 8.48700618743896484375e+00) (6, -1.65283966064453125000e+00) (7, -3.31403040885925292969e+00) (8, -2.71022391319274902344e+00) (9, -4.91339302062988281250e+00) (10, -2.27588605880737304688e+00) (11, 1.72527778148651123047e+00) 
