FANN_FLO_2.1
num_layers=3
learning_rate=0.400000
connection_rate=1.000000
network_type=0
learning_momentum=0.000000
training_algorithm=2
train_error_function=1
train_stop_function=0
cascade_output_change_fraction=0.010000
quickprop_decay=-0.000100
quickprop_mu=1.750000
rprop_increase_factor=1.200000
rprop_decrease_factor=0.500000
rprop_delta_min=0.000000
rprop_delta_max=50.000000
rprop_delta_zero=0.100000
cascade_output_stagnation_epochs=12
cascade_candidate_change_fraction=0.010000
cascade_candidate_stagnation_epochs=12
cascade_max_out_epochs=150
cascade_min_out_epochs=50
cascade_max_cand_epochs=150
cascade_min_cand_epochs=50
cascade_num_candidate_groups=2
bit_fail_limit=3.49999994039535522461e-01
cascade_candidate_limit=1.00000000000000000000e+03
cascade_weight_multiplier=4.00000005960464477539e-01
cascade_activation_functions_count=10
cascade_activation_functions=3 5 7 8 10 11 14 15 16 17 
cascade_activation_steepnesses_count=4
cascade_activation_steepnesses=2.50000000000000000000e-01 5.00000000000000000000e-01 7.50000000000000000000e-01 1.00000000000000000000e+00 
layer_sizes=7 5 2 
scale_included=0
neurons (num_inputs, activation_function, activation_steepness)=(0, 0, 0.00000000000000000000e+00) (0, 0, 0.00000000000000000000e+00) (0, 0, 0.00000000000000000000e+00) (0, 0, 0.00000000000000000000e+00) (0, 0, 0.00000000000000000000e+00) (0, 0, 0.00000000000000000000e+00) (0, 0, 0.00000000000000000000e+00) (7, 3, 5.00000000000000000000e-01) (7, 3, 5.00000000000000000000e-01) (7, 3, 5.00000000000000000000e-01) (7, 3, 5.00000000000000000000e-01) (0, 3, 0.00000000000000000000e+00) (5, 3, 5.00000000000000000000e-01) (0, 3, 0.00000000000000000000e+00) 
connections (connected_to_neuron, weight)=(0, -3.63490486145019531250e+00) (1, -1.75603544712066650391e+00) (2, -2.73359704017639160156e+00) (3, 4.59056806564331054688e+00) (4, 8.02822530269622802734e-01) (5, -2.34477430582046508789e-01) (6, -4.17415571212768554688e+00) (0, -6.43926239013671875000e+00) (1, -2.66931629180908203125e+00) (2, -2.39213323593139648438e+00) (3, 4.70057189464569091797e-01) (4, 3.69446921348571777344e+00) (5, 3.62492978572845458984e-01) (6, -1.50475367903709411621e-01) (0, 8.10064375400543212891e-01) (1, -1.39613544940948486328e+00) (2, -2.09077167510986328125e+00) (3, 2.86466693878173828125e+00) (4, 4.07521158456802368164e-01) (5, 5.76360321044921875000e+00) (6, -4.81406497955322265625e+00) (0, -1.03395664691925048828e+00) (1, 5.76174736022949218750e-01) (2, -4.29127264022827148438e+00) (3, 1.85852301120758056641e+00) (4, -3.91043305397033691406e+00) (5, 1.33622798919677734375e+01) (6, 8.41410338878631591797e-01) (7, 4.05597877502441406250e+00) (8, 2.73111009597778320312e+00) (9, 3.38831281661987304688e+00) (10, -3.14166045188903808594e+00) (11, 6.12341463565826416016e-01) 
