FANN_FLO_2.1
num_layers=3
learning_rate=0.500000
connection_rate=1.000000
network_type=0
learning_momentum=0.000000
training_algorithm=2
train_error_function=1
train_stop_function=0
cascade_output_change_fraction=0.010000
quickprop_decay=-0.000100
quickprop_mu=1.750000
rprop_increase_factor=1.200000
rprop_decrease_factor=0.500000
rprop_delta_min=0.000000
rprop_delta_max=50.000000
rprop_delta_zero=0.100000
cascade_output_stagnation_epochs=12
cascade_candidate_change_fraction=0.010000
cascade_candidate_stagnation_epochs=12
cascade_max_out_epochs=150
cascade_min_out_epochs=50
cascade_max_cand_epochs=150
cascade_min_cand_epochs=50
cascade_num_candidate_groups=2
bit_fail_limit=3.49999994039535522461e-01
cascade_candidate_limit=1.00000000000000000000e+03
cascade_weight_multiplier=4.00000005960464477539e-01
cascade_activation_functions_count=10
cascade_activation_functions=3 5 7 8 10 11 14 15 16 17 
cascade_activation_steepnesses_count=4
cascade_activation_steepnesses=2.50000000000000000000e-01 5.00000000000000000000e-01 7.50000000000000000000e-01 1.00000000000000000000e+00 
layer_sizes=10 3 2 
scale_included=0
neurons (num_inputs, activation_function, activation_steepness)=(0, 0, 0.00000000000000000000e+00) (0, 0, 0.00000000000000000000e+00) (0, 0, 0.00000000000000000000e+00) (0, 0, 0.00000000000000000000e+00) (0, 0, 0.00000000000000000000e+00) (0, 0, 0.00000000000000000000e+00) (0, 0, 0.00000000000000000000e+00) (0, 0, 0.00000000000000000000e+00) (0, 0, 0.00000000000000000000e+00) (0, 0, 0.00000000000000000000e+00) (10, 3, 5.00000000000000000000e-01) (10, 3, 5.00000000000000000000e-01) (0, 3, 0.00000000000000000000e+00) (3, 3, 5.00000000000000000000e-01) (0, 3, 0.00000000000000000000e+00) 
connections (connected_to_neuron, weight)=(0, -4.75942564010620117188e+00) (1, 2.59486675262451171875e+01) (2, -2.99875020980834960938e+00) (3, -3.08586025238037109375e+00) (4, 5.46273708343505859375e+00) (5, 8.89507675170898437500e+00) (6, -5.49382162094116210938e+00) (7, -1.19644441604614257812e+01) (8, -1.94559803009033203125e+01) (9, 2.03608584403991699219e+00) (0, -1.47446166992187500000e+03) (1, -3.12173843383789062500e+00) (2, -1.49638439941406250000e+03) (3, 6.60135864257812500000e+02) (4, 5.86638987064361572266e-01) (5, 5.05934906005859375000e+00) (6, 2.86007080078125000000e+02) (7, 5.34721277654170989990e-03) (8, 1.18093066406250000000e+03) (9, 2.08330780267715454102e-01) (10, 2.53880596160888671875e+00) (11, 2.52749061584472656250e+00) (12, -1.65948140621185302734e+00) 
