FANN_FLO_2.1
num_layers=4
learning_rate=0.400000
connection_rate=1.000000
network_type=0
learning_momentum=0.000000
training_algorithm=2
train_error_function=1
train_stop_function=0
cascade_output_change_fraction=0.010000
quickprop_decay=-0.000100
quickprop_mu=1.750000
rprop_increase_factor=1.200000
rprop_decrease_factor=0.500000
rprop_delta_min=0.000000
rprop_delta_max=50.000000
rprop_delta_zero=0.100000
cascade_output_stagnation_epochs=12
cascade_candidate_change_fraction=0.010000
cascade_candidate_stagnation_epochs=12
cascade_max_out_epochs=150
cascade_min_out_epochs=50
cascade_max_cand_epochs=150
cascade_min_cand_epochs=50
cascade_num_candidate_groups=2
bit_fail_limit=3.49999994039535522461e-01
cascade_candidate_limit=1.00000000000000000000e+03
cascade_weight_multiplier=4.00000005960464477539e-01
cascade_activation_functions_count=10
cascade_activation_functions=3 5 7 8 10 11 14 15 16 17 
cascade_activation_steepnesses_count=4
cascade_activation_steepnesses=2.50000000000000000000e-01 5.00000000000000000000e-01 7.50000000000000000000e-01 1.00000000000000000000e+00 
layer_sizes=7 5 3 2 
scale_included=0
neurons (num_inputs, activation_function, activation_steepness)=(0, 0, 0.00000000000000000000e+00) (0, 0, 0.00000000000000000000e+00) (0, 0, 0.00000000000000000000e+00) (0, 0, 0.00000000000000000000e+00) (0, 0, 0.00000000000000000000e+00) (0, 0, 0.00000000000000000000e+00) (0, 0, 0.00000000000000000000e+00) (7, 3, 5.00000000000000000000e-01) (7, 3, 5.00000000000000000000e-01) (7, 3, 5.00000000000000000000e-01) (7, 3, 5.00000000000000000000e-01) (0, 3, 0.00000000000000000000e+00) (5, 3, 5.00000000000000000000e-01) (5, 3, 5.00000000000000000000e-01) (0, 3, 0.00000000000000000000e+00) (3, 3, 5.00000000000000000000e-01) (0, 3, 0.00000000000000000000e+00) 
connections (connected_to_neuron, weight)=(0, -8.92027187347412109375e+00) (1, 3.12028961181640625000e+02) (2, -3.34489974975585937500e+01) (3, -9.73996887207031250000e+02) (4, -1.73009765148162841797e+00) (5, -1.50000000000000000000e+03) (6, -6.31728649139404296875e+00) (0, -1.03024559020996093750e+01) (1, 6.38963842391967773438e+00) (2, 4.27115964889526367188e+00) (3, -4.63747501373291015625e+00) (4, -2.06291007995605468750e+00) (5, 1.45632052421569824219e+00) (6, 5.93704938888549804688e+00) (0, -4.54434814453125000000e+01) (1, 1.30021743774414062500e+02) (2, 2.52430587768554687500e+02) (3, -2.47324951171875000000e+02) (4, -1.27549438476562500000e+01) (5, -5.79915885925292968750e+01) (6, -2.40633532404899597168e-01) (0, 7.47203636169433593750e+00) (1, 3.00331268310546875000e+02) (2, -1.15781240463256835938e+01) (3, -1.00854675292968750000e+03) (4, -6.78778171539306640625e-01) (5, -1.79622055053710937500e+02) (6, -4.70599079132080078125e+00) (7, 1.54686713218688964844e+00) (8, 5.26478147506713867188e+00) (9, -1.95985519886016845703e+00) (10, -2.08087253570556640625e+00) (11, -1.84207963943481445312e+00) (7, 2.79180550575256347656e+00) (8, 2.05629444122314453125e+00) (9, 2.58234530687332153320e-01) (10, -1.22336173057556152344e+00) (11, -2.82023286819458007812e+00) (12, -1.75967764854431152344e+00) (13, -2.68681454658508300781e+00) (14, -7.05046951770782470703e-01) 
