FANN_FLO_2.1
num_layers=3
learning_rate=0.400000
connection_rate=1.000000
network_type=0
learning_momentum=0.000000
training_algorithm=2
train_error_function=1
train_stop_function=0
cascade_output_change_fraction=0.010000
quickprop_decay=-0.000100
quickprop_mu=1.750000
rprop_increase_factor=1.200000
rprop_decrease_factor=0.500000
rprop_delta_min=0.000000
rprop_delta_max=50.000000
rprop_delta_zero=0.100000
cascade_output_stagnation_epochs=12
cascade_candidate_change_fraction=0.010000
cascade_candidate_stagnation_epochs=12
cascade_max_out_epochs=150
cascade_min_out_epochs=50
cascade_max_cand_epochs=150
cascade_min_cand_epochs=50
cascade_num_candidate_groups=2
bit_fail_limit=3.49999994039535522461e-01
cascade_candidate_limit=1.00000000000000000000e+03
cascade_weight_multiplier=4.00000005960464477539e-01
cascade_activation_functions_count=10
cascade_activation_functions=3 5 7 8 10 11 14 15 16 17 
cascade_activation_steepnesses_count=4
cascade_activation_steepnesses=2.50000000000000000000e-01 5.00000000000000000000e-01 7.50000000000000000000e-01 1.00000000000000000000e+00 
layer_sizes=7 9 2 
scale_included=0
neurons (num_inputs, activation_function, activation_steepness)=(0, 0, 0.00000000000000000000e+00) (0, 0, 0.00000000000000000000e+00) (0, 0, 0.00000000000000000000e+00) (0, 0, 0.00000000000000000000e+00) (0, 0, 0.00000000000000000000e+00) (0, 0, 0.00000000000000000000e+00) (0, 0, 0.00000000000000000000e+00) (7, 3, 5.00000000000000000000e-01) (7, 3, 5.00000000000000000000e-01) (7, 3, 5.00000000000000000000e-01) (7, 3, 5.00000000000000000000e-01) (7, 3, 5.00000000000000000000e-01) (7, 3, 5.00000000000000000000e-01) (7, 3, 5.00000000000000000000e-01) (7, 3, 5.00000000000000000000e-01) (0, 3, 0.00000000000000000000e+00) (9, 3, 5.00000000000000000000e-01) (0, 3, 0.00000000000000000000e+00) 
connections (connected_to_neuron, weight)=(0, -7.97569465637207031250e+00) (1, -2.20010900497436523438e+00) (2, -3.20571160316467285156e+00) (3, 7.36193835735321044922e-01) (4, 7.56180107593536376953e-01) (5, 1.23737583160400390625e+01) (6, 6.64279818534851074219e-01) (0, -5.15174150466918945312e+00) (1, -3.09366083145141601562e+00) (2, -1.72241139411926269531e+00) (3, 5.23249149322509765625e-01) (4, 3.32995676994323730469e+00) (5, -6.13399088382720947266e-01) (6, -8.21542680263519287109e-01) (0, -2.76208066940307617188e+00) (1, -3.14176821708679199219e+00) (2, -3.54966235160827636719e+00) (3, 6.94892525672912597656e-01) (4, 4.23119115829467773438e+00) (5, 5.65583896636962890625e+00) (6, -3.61393213272094726562e+00) (0, -4.57783079147338867188e+00) (1, -2.78438401222229003906e+00) (2, -2.77989029884338378906e+00) (3, 6.46437227725982666016e-01) (4, 2.84742093086242675781e+00) (5, -1.38055533170700073242e-01) (6, -9.92535114288330078125e-01) (0, -3.50116944313049316406e+00) (1, -1.83358526229858398438e+00) (2, 6.29614055156707763672e-01) (3, 8.60196685791015625000e+00) (4, 1.42066109180450439453e+00) (5, -5.03969240188598632812e+00) (6, -1.57035696506500244141e+00) (0, -4.59268331527709960938e+00) (1, -2.91426444053649902344e+00) (2, -2.56241893768310546875e+00) (3, 9.50118675827980041504e-02) (4, 3.48657512664794921875e+00) (5, -1.69980004429817199707e-01) (6, -1.14527201652526855469e+00) (0, -2.67543792724609375000e-01) (1, -1.50832712650299072266e+00) (2, -2.27732276916503906250e+00) (3, 3.94211483001708984375e+00) (4, -1.95485246181488037109e+00) (5, 1.23570232391357421875e+01) (6, -8.18683815002441406250e+00) (0, -1.77898240089416503906e+00) (1, -2.31347060203552246094e+00) (2, -3.89859604835510253906e+00) (3, 2.87132310867309570312e+00) (4, -3.40441733598709106445e-01) (5, 6.88157939910888671875e+00) (6, -2.73460173606872558594e+00) (7, -2.16171526908874511719e+00) (8, 3.29423046112060546875e+00) (9, 9.81365025043487548828e-01) (10, 1.31222295761108398438e+00) (11, 7.37852871417999267578e-01) (12, 1.29760169982910156250e+00) (13, 1.82105028629302978516e+00) (14, 3.64619821310043334961e-01) (15, -3.84369969367980957031e-01) 
