FANN_FLO_2.1
num_layers=3
learning_rate=0.400000
connection_rate=1.000000
network_type=0
learning_momentum=0.000000
training_algorithm=2
train_error_function=1
train_stop_function=0
cascade_output_change_fraction=0.010000
quickprop_decay=-0.000100
quickprop_mu=1.750000
rprop_increase_factor=1.200000
rprop_decrease_factor=0.500000
rprop_delta_min=0.000000
rprop_delta_max=50.000000
rprop_delta_zero=0.100000
cascade_output_stagnation_epochs=12
cascade_candidate_change_fraction=0.010000
cascade_candidate_stagnation_epochs=12
cascade_max_out_epochs=150
cascade_min_out_epochs=50
cascade_max_cand_epochs=150
cascade_min_cand_epochs=50
cascade_num_candidate_groups=2
bit_fail_limit=3.49999994039535522461e-01
cascade_candidate_limit=1.00000000000000000000e+03
cascade_weight_multiplier=4.00000005960464477539e-01
cascade_activation_functions_count=10
cascade_activation_functions=3 5 7 8 10 11 14 15 16 17 
cascade_activation_steepnesses_count=4
cascade_activation_steepnesses=2.50000000000000000000e-01 5.00000000000000000000e-01 7.50000000000000000000e-01 1.00000000000000000000e+00 
layer_sizes=7 9 2 
scale_included=0
neurons (num_inputs, activation_function, activation_steepness)=(0, 0, 0.00000000000000000000e+00) (0, 0, 0.00000000000000000000e+00) (0, 0, 0.00000000000000000000e+00) (0, 0, 0.00000000000000000000e+00) (0, 0, 0.00000000000000000000e+00) (0, 0, 0.00000000000000000000e+00) (0, 0, 0.00000000000000000000e+00) (7, 3, 5.00000000000000000000e-01) (7, 3, 5.00000000000000000000e-01) (7, 3, 5.00000000000000000000e-01) (7, 3, 5.00000000000000000000e-01) (7, 3, 5.00000000000000000000e-01) (7, 3, 5.00000000000000000000e-01) (7, 3, 5.00000000000000000000e-01) (7, 3, 5.00000000000000000000e-01) (0, 3, 0.00000000000000000000e+00) (9, 3, 5.00000000000000000000e-01) (0, 3, 0.00000000000000000000e+00) 
connections (connected_to_neuron, weight)=(0, -1.10311284661293029785e-01) (1, 1.13262760639190673828e+00) (2, 3.19833827018737792969e+00) (3, -2.47896385192871093750e+00) (4, 5.49691867828369140625e+00) (5, -1.15762939453125000000e+01) (6, 5.10025310516357421875e+00) (0, -1.10172319412231445312e+00) (1, -1.08427643775939941406e+00) (2, -2.62172788381576538086e-01) (3, 8.25540959835052490234e-01) (4, 3.96440458297729492188e+00) (5, -2.78538680076599121094e+00) (6, -2.31275051832199096680e-01) (0, 3.00241355895996093750e+01) (1, 1.84283769130706787109e+00) (2, 4.56013107299804687500e+00) (3, -8.72630405426025390625e+00) (4, -4.25934934616088867188e+00) (5, -8.73304679989814758301e-02) (6, 1.26876842975616455078e+00) (0, 2.32774209976196289062e+00) (1, -6.34952843189239501953e-01) (2, -2.14031934738159179688e+00) (3, 1.18134438991546630859e+00) (4, 3.78928112983703613281e+00) (5, -5.56855142116546630859e-01) (6, -3.49794358015060424805e-01) (0, 1.44158840179443359375e+00) (1, -2.77108728885650634766e-01) (2, -1.20716440677642822266e+00) (3, 1.30014812946319580078e+00) (4, 3.62308478355407714844e+00) (5, 2.37366259098052978516e-02) (6, -1.51222825050354003906e-01) (0, 1.62682628631591796875e+00) (1, -5.74777007102966308594e-01) (2, -9.95691657066345214844e-01) (3, 1.21884000301361083984e+00) (4, 3.10316538810729980469e+00) (5, -8.48428964614868164062e-01) (6, -2.85631477832794189453e-01) (0, 1.23315305709838867188e+01) (1, 3.31506252288818359375e+00) (2, 1.39818310737609863281e+00) (3, -2.61939668655395507812e+00) (4, -5.03508472442626953125e+00) (5, -3.65388989448547363281e+00) (6, 1.28681862354278564453e+00) (0, 1.91269659996032714844e+00) (1, 1.24934434890747070312e+00) (2, -1.08099069595336914062e+01) (3, -3.87382292747497558594e+00) (4, -1.26495659351348876953e+00) (5, 9.22163963317871093750e+00) (6, 3.95527410507202148438e+00) (7, -2.40858268737792968750e+00) (8, 1.76810383796691894531e+00) (9, -7.27896451950073242188e-01) (10, 1.14127659797668457031e+00) (11, 1.01026546955108642578e+00) (12, 1.15232646465301513672e+00) (13, -1.14424562454223632812e+00) (14, -9.80160892009735107422e-01) (15, -5.16367070376873016357e-02) 
