FANN_FLO_2.1
num_layers=4
learning_rate=0.400000
connection_rate=1.000000
network_type=0
learning_momentum=0.000000
training_algorithm=2
train_error_function=1
train_stop_function=0
cascade_output_change_fraction=0.010000
quickprop_decay=-0.000100
quickprop_mu=1.750000
rprop_increase_factor=1.200000
rprop_decrease_factor=0.500000
rprop_delta_min=0.000000
rprop_delta_max=50.000000
rprop_delta_zero=0.100000
cascade_output_stagnation_epochs=12
cascade_candidate_change_fraction=0.010000
cascade_candidate_stagnation_epochs=12
cascade_max_out_epochs=150
cascade_min_out_epochs=50
cascade_max_cand_epochs=150
cascade_min_cand_epochs=50
cascade_num_candidate_groups=2
bit_fail_limit=3.49999994039535522461e-01
cascade_candidate_limit=1.00000000000000000000e+03
cascade_weight_multiplier=4.00000005960464477539e-01
cascade_activation_functions_count=10
cascade_activation_functions=3 5 7 8 10 11 14 15 16 17 
cascade_activation_steepnesses_count=4
cascade_activation_steepnesses=2.50000000000000000000e-01 5.00000000000000000000e-01 7.50000000000000000000e-01 1.00000000000000000000e+00 
layer_sizes=7 9 9 2 
scale_included=0
neurons (num_inputs, activation_function, activation_steepness)=(0, 0, 0.00000000000000000000e+00) (0, 0, 0.00000000000000000000e+00) (0, 0, 0.00000000000000000000e+00) (0, 0, 0.00000000000000000000e+00) (0, 0, 0.00000000000000000000e+00) (0, 0, 0.00000000000000000000e+00) (0, 0, 0.00000000000000000000e+00) (7, 3, 5.00000000000000000000e-01) (7, 3, 5.00000000000000000000e-01) (7, 3, 5.00000000000000000000e-01) (7, 3, 5.00000000000000000000e-01) (7, 3, 5.00000000000000000000e-01) (7, 3, 5.00000000000000000000e-01) (7, 3, 5.00000000000000000000e-01) (7, 3, 5.00000000000000000000e-01) (0, 3, 0.00000000000000000000e+00) (9, 3, 5.00000000000000000000e-01) (9, 3, 5.00000000000000000000e-01) (9, 3, 5.00000000000000000000e-01) (9, 3, 5.00000000000000000000e-01) (9, 3, 5.00000000000000000000e-01) (9, 3, 5.00000000000000000000e-01) (9, 3, 5.00000000000000000000e-01) (9, 3, 5.00000000000000000000e-01) (0, 3, 0.00000000000000000000e+00) (9, 3, 5.00000000000000000000e-01) (0, 3, 0.00000000000000000000e+00) 
connections (connected_to_neuron, weight)=(0, -2.26189064979553222656e+00) (1, 3.50283789634704589844e+00) (2, -5.84507274627685546875e+00) (3, -3.00053763389587402344e+00) (4, -1.73809266090393066406e+00) (5, -6.64577007293701171875e+00) (6, 3.76942485570907592773e-01) (0, 1.07918751239776611328e+00) (1, -4.36059617996215820312e+00) (2, 7.75093317031860351562e-01) (3, -5.38041925430297851562e+00) (4, -1.28197610378265380859e+00) (5, 3.56825733184814453125e+00) (6, 7.19494581222534179688e-01) (0, -1.46728456020355224609e+00) (1, 2.84862470626831054688e+00) (2, 4.60021495819091796875e+00) (3, -2.90822267532348632812e+00) (4, -1.83251786231994628906e+00) (5, -8.28641605377197265625e+00) (6, 6.75581991672515869141e-01) (0, -4.13960605859756469727e-01) (1, -4.94565337896347045898e-01) (2, -1.96737372875213623047e+00) (3, -3.20855188369750976562e+00) (4, 5.69418147206306457520e-02) (5, -1.39366018772125244141e+00) (6, 1.02870762348175048828e+00) (0, -5.07492840290069580078e-01) (1, -1.67639865875244140625e+01) (2, 4.01539146900177001953e-01) (3, -1.15129268169403076172e+00) (4, -1.43088746070861816406e+00) (5, 2.64022707939147949219e+00) (6, 1.78584122657775878906e+00) (0, -3.11864638328552246094e+00) (1, 3.07719141244888305664e-01) (2, -8.13667893409729003906e-01) (3, -4.08502674102783203125e+00) (4, -6.63247883319854736328e-01) (5, 1.34349834918975830078e+00) (6, 1.52646327018737792969e+00) (0, -2.15814054012298583984e-01) (1, -1.08060669898986816406e+00) (2, 4.13082629442214965820e-01) (3, -8.67135906219482421875e+00) (4, 2.34708285331726074219e+00) (5, 4.98891770839691162109e-01) (6, 1.58108398318290710449e-01) (0, -6.86735343933105468750e+00) (1, 3.43929505348205566406e+00) (2, -4.34298658370971679688e+00) (3, -2.21860909461975097656e+00) (4, -2.03970283269882202148e-01) (5, -7.02504253387451171875e+00) (6, 1.90714836120605468750e+00) (7, 2.20740437507629394531e+00) (8, 2.23595542907714843750e+01) (9, 1.70698916912078857422e+00) (10, -1.35140304565429687500e+01) (11, -2.42107543945312500000e+02) (12, 9.42631912231445312500e+00) (13, 1.33187341690063476562e+00) (14, 6.04347801208496093750e+00) (15, -2.47088098526000976562e+00) (7, 1.43920922279357910156e+00) (8, -8.99219989776611328125e+00) (9, 1.37932956218719482422e+00) (10, -1.18958270549774169922e+00) (11, 1.06264333724975585938e+01) (12, 2.06903433799743652344e+00) (13, 9.55522894859313964844e-01) (14, 4.08092498779296875000e+00) (15, -2.88400745391845703125e+00) (7, 7.36144065856933593750e-01) (8, 1.37876915931701660156e+00) (9, 1.74127089977264404297e+00) (10, -9.72952902317047119141e-01) (11, 1.82763412475585937500e+02) (12, -5.03337192535400390625e+00) (13, 4.41936105489730834961e-01) (14, 2.35496568679809570312e+00) (15, -2.01179790496826171875e+00) (7, 1.84269750118255615234e+00) (8, -2.13530521392822265625e+01) (9, 1.92624294757843017578e+00) (10, -1.98652255535125732422e+00) (11, 5.20225219726562500000e+01) (12, 2.14126062393188476562e+00) (13, 1.11498665809631347656e+00) (14, 5.13984584808349609375e+00) (15, -2.57161068916320800781e+00) (7, 1.14452016353607177734e+00) (8, 1.64011347293853759766e+00) (9, -1.69625720977783203125e+01) (10, -8.92718505859375000000e+00) (11, 2.04915115356445312500e+02) (12, -7.52718782424926757812e+00) (13, 9.38155555725097656250e+00) (14, 1.53293323516845703125e+01) (15, -3.78227639198303222656e+00) (7, 4.26699727773666381836e-01) (8, 1.88123965263366699219e+00) (9, 1.71820878982543945312e+00) (10, -1.11287379264831542969e+00) (11, 2.04868659973144531250e+01) (12, -4.29123449325561523438e+00) (13, 1.72056972980499267578e-01) (14, 6.74347639083862304688e+00) (15, -2.01239347457885742188e+00) (7, 2.07326158881187438965e-01) (8, 1.61854982376098632812e+00) (9, 1.76935827732086181641e+00) (10, -1.18715524673461914062e+00) (11, -1.92970371246337890625e+01) (12, -4.31890630722045898438e+00) (13, 5.83693802356719970703e-01) (14, 2.05848288536071777344e+00) (15, -2.15649724006652832031e+00) (7, -2.23402652740478515625e+01) (8, 7.26508808135986328125e+00) (9, 1.17550349235534667969e+00) (10, -1.48342084884643554688e+00) (11, 1.23349609375000000000e+01) (12, -8.53348064422607421875e+00) (13, 1.25569272041320800781e+00) (14, 3.67792963981628417969e+00) (15, -2.33999490737915039062e+00) (16, -1.10485017299652099609e+00) (17, -2.10852551460266113281e+00) (18, -2.24898546934127807617e-01) (19, -4.77722311019897460938e+00) (20, -4.76982653141021728516e-01) (21, -4.31337416172027587891e-01) (22, -3.17339748144149780273e-01) (23, -1.13617258071899414062e+01) (24, -2.99561887979507446289e-01) 
