FANN_FLO_2.1
num_layers=4
learning_rate=0.500000
connection_rate=1.000000
network_type=0
learning_momentum=0.000000
training_algorithm=2
train_error_function=1
train_stop_function=0
cascade_output_change_fraction=0.010000
quickprop_decay=-0.000100
quickprop_mu=1.750000
rprop_increase_factor=1.200000
rprop_decrease_factor=0.500000
rprop_delta_min=0.000000
rprop_delta_max=50.000000
rprop_delta_zero=0.100000
cascade_output_stagnation_epochs=12
cascade_candidate_change_fraction=0.010000
cascade_candidate_stagnation_epochs=12
cascade_max_out_epochs=150
cascade_min_out_epochs=50
cascade_max_cand_epochs=150
cascade_min_cand_epochs=50
cascade_num_candidate_groups=2
bit_fail_limit=3.49999994039535522461e-01
cascade_candidate_limit=1.00000000000000000000e+03
cascade_weight_multiplier=4.00000005960464477539e-01
cascade_activation_functions_count=10
cascade_activation_functions=3 5 7 8 10 11 14 15 16 17 
cascade_activation_steepnesses_count=4
cascade_activation_steepnesses=2.50000000000000000000e-01 5.00000000000000000000e-01 7.50000000000000000000e-01 1.00000000000000000000e+00 
layer_sizes=10 9 9 2 
scale_included=0
neurons (num_inputs, activation_function, activation_steepness)=(0, 0, 0.00000000000000000000e+00) (0, 0, 0.00000000000000000000e+00) (0, 0, 0.00000000000000000000e+00) (0, 0, 0.00000000000000000000e+00) (0, 0, 0.00000000000000000000e+00) (0, 0, 0.00000000000000000000e+00) (0, 0, 0.00000000000000000000e+00) (0, 0, 0.00000000000000000000e+00) (0, 0, 0.00000000000000000000e+00) (0, 0, 0.00000000000000000000e+00) (10, 3, 5.00000000000000000000e-01) (10, 3, 5.00000000000000000000e-01) (10, 3, 5.00000000000000000000e-01) (10, 3, 5.00000000000000000000e-01) (10, 3, 5.00000000000000000000e-01) (10, 3, 5.00000000000000000000e-01) (10, 3, 5.00000000000000000000e-01) (10, 3, 5.00000000000000000000e-01) (0, 3, 0.00000000000000000000e+00) (9, 3, 5.00000000000000000000e-01) (9, 3, 5.00000000000000000000e-01) (9, 3, 5.00000000000000000000e-01) (9, 3, 5.00000000000000000000e-01) (9, 3, 5.00000000000000000000e-01) (9, 3, 5.00000000000000000000e-01) (9, 3, 5.00000000000000000000e-01) (9, 3, 5.00000000000000000000e-01) (0, 3, 0.00000000000000000000e+00) (9, 3, 5.00000000000000000000e-01) (0, 3, 0.00000000000000000000e+00) 
connections (connected_to_neuron, weight)=(0, -3.94481315612792968750e+01) (1, 3.64868044853210449219e-01) (2, -1.92410354614257812500e+01) (3, 6.66639862060546875000e+01) (4, 8.05774092674255371094e-01) (5, -2.25238084793090820312e-01) (6, 5.04154562950134277344e-01) (7, 5.91036319732666015625e-01) (8, 2.04410147666931152344e+00) (9, 5.05000710487365722656e-01) (0, 1.07031278610229492188e+01) (1, -3.87703585624694824219e+00) (2, -2.15042924880981445312e+00) (3, 1.71557694673538208008e-01) (4, -3.08374977111816406250e+00) (5, -4.41569924354553222656e-01) (6, 1.38550400733947753906e+00) (7, 2.95437276363372802734e-01) (8, -3.46977323293685913086e-01) (9, -6.00660622119903564453e-01) (0, 1.03075921535491943359e+00) (1, -2.65072178840637207031e+00) (2, -1.48703718185424804688e+00) (3, 1.31255686283111572266e+00) (4, 1.77270483970642089844e+00) (5, -5.00309705734252929688e+00) (6, 2.88033413887023925781e+00) (7, 1.30506622791290283203e+00) (8, -2.28325295448303222656e+00) (9, -1.21946537494659423828e+00) (0, -7.03315854072570800781e-01) (1, 1.06692743301391601562e+00) (2, 4.73466825485229492188e+00) (3, -1.32763206958770751953e-01) (4, 1.17292016744613647461e-01) (5, -2.56697893142700195312e-01) (6, 6.06664419174194335938e-01) (7, 8.22269916534423828125e-01) (8, -2.96560943126678466797e-01) (9, 4.11765664815902709961e-01) (0, -1.61591758728027343750e+01) (1, -7.84971857070922851562e+00) (2, -1.96291983127593994141e+00) (3, 2.54767298698425292969e+00) (4, 8.45893764495849609375e+00) (5, 6.09909725189208984375e+00) (6, 3.00492405891418457031e+00) (7, 2.92776155471801757812e+00) (8, 2.09272384643554687500e-01) (9, 1.22270393371582031250e+01) (0, 3.76739954948425292969e+00) (1, -1.26143503189086914062e+01) (2, -8.66587448120117187500e+00) (3, 4.41968411207199096680e-01) (4, 9.64536285400390625000e+00) (5, -8.92968475818634033203e-01) (6, 5.01672363281250000000e+00) (7, 1.23830413818359375000e+00) (8, -1.05284464359283447266e+00) (9, 1.27515971660614013672e+00) (0, -2.93500161170959472656e+00) (1, -2.68416423797607421875e+01) (2, -4.73365020751953125000e+00) (3, 2.48900508880615234375e+01) (4, 3.82954454421997070312e+00) (5, -6.05647802352905273438e+00) (6, 1.58416309356689453125e+01) (7, 1.00365388393402099609e+00) (8, 4.89692896604537963867e-01) (9, 3.84685206413269042969e+00) (0, -3.70387434959411621094e+00) (1, -3.98001939058303833008e-01) (2, -6.91839218139648437500e+00) (3, 6.96746826171875000000e+00) (4, 4.19097781181335449219e-01) (5, -3.73212426900863647461e-01) (6, 4.55443799495697021484e-01) (7, 5.24208664894104003906e-01) (8, -9.94615629315376281738e-02) (9, 2.50387191772460937500e-01) (10, 2.92704849243164062500e+01) (11, 2.57370239257812500000e+02) (12, -1.39480065917968750000e+03) (13, 9.58599243164062500000e+01) (14, -1.61136722564697265625e+01) (15, -2.38228359222412109375e+01) (16, -1.19852221012115478516e+00) (17, -1.62358493804931640625e+01) (18, -1.01375460624694824219e+00) (10, -3.69494557380676269531e+00) (11, -1.44066877365112304688e+01) (12, 1.07159782409667968750e+02) (13, 6.29793214797973632812e+00) (14, 2.28457760810852050781e+00) (15, 4.09736633300781250000e+00) (16, -1.94477349519729614258e-01) (17, -1.34651374816894531250e+00) (18, -3.75111140310764312744e-02) (10, -5.91803312301635742188e-01) (11, -1.68277244567871093750e+01) (12, 4.19384479522705078125e+00) (13, 7.04279899597167968750e+00) (14, 5.04010343551635742188e+00) (15, 5.25903522968292236328e-01) (16, 1.18880987167358398438e+00) (17, -1.96155059337615966797e+00) (18, 3.44838356971740722656e+00) (10, 5.20206260681152343750e+00) (11, -3.31242775917053222656e+00) (12, 2.14811386108398437500e+02) (13, -3.19016337394714355469e+00) (14, 1.38215854763984680176e-01) (15, -4.62674283981323242188e+00) (16, -5.52246713638305664062e+00) (17, 1.78868618011474609375e+01) (18, 5.57013988494873046875e-01) (10, 6.72390937805175781250e-01) (11, 4.84597253799438476562e+00) (12, -6.19686126708984375000e+01) (13, -3.17960500717163085938e+00) (14, -1.37747538089752197266e+00) (15, 1.03428339958190917969e+00) (16, 2.11235833168029785156e+00) (17, 2.74125647544860839844e+00) (18, -1.27537131309509277344e-01) (10, -1.76536483764648437500e+01) (11, -3.33570404052734375000e+01) (12, 2.15970344543457031250e+01) (13, 1.14459327697753906250e+02) (14, -2.09795246124267578125e+01) (15, -2.59435024261474609375e+01) (16, -1.23717701435089111328e+00) (17, -2.33203563690185546875e+01) (18, -1.20037579536437988281e+00) (10, -3.76739716529846191406e+00) (11, -3.67604279518127441406e+00) (12, 3.46150398254394531250e+01) (13, 6.64842653274536132812e+00) (14, 2.13073420524597167969e+00) (15, -5.55870890617370605469e-01) (16, -1.18404693901538848877e-01) (17, -8.55219364166259765625e+00) (18, 1.62320956587791442871e-02) (10, -8.12785625457763671875e+00) (11, -1.11728916168212890625e+01) (12, 7.50827836990356445312e+00) (13, 7.26271152496337890625e+00) (14, 2.80471110343933105469e+00) (15, 5.37979650497436523438e+00) (16, 5.24731576442718505859e-01) (17, 2.79113140106201171875e+01) (18, 4.39404219388961791992e-01) (19, -3.47073822021484375000e+01) (20, 3.34907680749893188477e-01) (21, 3.02534759044647216797e-01) (22, -4.23152595758438110352e-01) (23, -3.72686266899108886719e+00) (24, 3.47105026245117187500e+01) (25, 2.99624234437942504883e-01) (26, 3.51919114589691162109e-01) (27, 5.63417971134185791016e-02) 
