FANN_FLO_2.1
num_layers=4
learning_rate=0.400000
connection_rate=1.000000
network_type=0
learning_momentum=0.000000
training_algorithm=2
train_error_function=1
train_stop_function=0
cascade_output_change_fraction=0.010000
quickprop_decay=-0.000100
quickprop_mu=1.750000
rprop_increase_factor=1.200000
rprop_decrease_factor=0.500000
rprop_delta_min=0.000000
rprop_delta_max=50.000000
rprop_delta_zero=0.100000
cascade_output_stagnation_epochs=12
cascade_candidate_change_fraction=0.010000
cascade_candidate_stagnation_epochs=12
cascade_max_out_epochs=150
cascade_min_out_epochs=50
cascade_max_cand_epochs=150
cascade_min_cand_epochs=50
cascade_num_candidate_groups=2
bit_fail_limit=3.49999994039535522461e-01
cascade_candidate_limit=1.00000000000000000000e+03
cascade_weight_multiplier=4.00000005960464477539e-01
cascade_activation_functions_count=10
cascade_activation_functions=3 5 7 8 10 11 14 15 16 17 
cascade_activation_steepnesses_count=4
cascade_activation_steepnesses=2.50000000000000000000e-01 5.00000000000000000000e-01 7.50000000000000000000e-01 1.00000000000000000000e+00 
layer_sizes=7 9 9 2 
scale_included=0
neurons (num_inputs, activation_function, activation_steepness)=(0, 0, 0.00000000000000000000e+00) (0, 0, 0.00000000000000000000e+00) (0, 0, 0.00000000000000000000e+00) (0, 0, 0.00000000000000000000e+00) (0, 0, 0.00000000000000000000e+00) (0, 0, 0.00000000000000000000e+00) (0, 0, 0.00000000000000000000e+00) (7, 3, 5.00000000000000000000e-01) (7, 3, 5.00000000000000000000e-01) (7, 3, 5.00000000000000000000e-01) (7, 3, 5.00000000000000000000e-01) (7, 3, 5.00000000000000000000e-01) (7, 3, 5.00000000000000000000e-01) (7, 3, 5.00000000000000000000e-01) (7, 3, 5.00000000000000000000e-01) (0, 3, 0.00000000000000000000e+00) (9, 3, 5.00000000000000000000e-01) (9, 3, 5.00000000000000000000e-01) (9, 3, 5.00000000000000000000e-01) (9, 3, 5.00000000000000000000e-01) (9, 3, 5.00000000000000000000e-01) (9, 3, 5.00000000000000000000e-01) (9, 3, 5.00000000000000000000e-01) (9, 3, 5.00000000000000000000e-01) (0, 3, 0.00000000000000000000e+00) (9, 3, 5.00000000000000000000e-01) (0, 3, 0.00000000000000000000e+00) 
connections (connected_to_neuron, weight)=(0, -6.56293296813964843750e+00) (1, 4.05902338027954101562e+00) (2, -1.73080813884735107422e+00) (3, -5.70447874069213867188e+00) (4, -5.53039729595184326172e-01) (5, -5.13889408111572265625e+00) (6, 2.05023789405822753906e+00) (0, -5.49094295501708984375e+00) (1, 3.94033765792846679688e+00) (2, 5.06811439990997314453e-01) (3, -1.55649662017822265625e+00) (4, -1.71263587474822998047e+00) (5, -5.05418682098388671875e+00) (6, 1.01560151576995849609e+00) (0, -2.39256024360656738281e+00) (1, -2.82705020904541015625e+00) (2, -6.76933956146240234375e+00) (3, -6.14369094371795654297e-01) (4, -5.08929669857025146484e-01) (5, 5.71478271484375000000e+00) (6, 3.35380578041076660156e+00) (0, -3.76992034912109375000e+00) (1, 1.43552446365356445312e+00) (2, 4.95173406600952148438e+00) (3, -5.65883874893188476562e+00) (4, -7.50400066375732421875e-01) (5, 8.96360695362091064453e-01) (6, 2.79643416404724121094e+00) (0, -3.80139946937561035156e+00) (1, 1.40671193599700927734e+00) (2, 1.69347529299557209015e-03) (3, -4.44750308990478515625e+00) (4, -8.87709438800811767578e-01) (5, 6.98155641555786132812e-01) (6, 1.93524062633514404297e+00) (0, 3.57055830955505371094e+00) (1, -6.90582799911499023438e+00) (2, 2.44717903137207031250e+01) (3, -4.31059211492538452148e-01) (4, -1.23975849151611328125e+00) (5, -5.91287612915039062500e+00) (6, 1.73693776130676269531e+00) (0, -5.73313426971435546875e+00) (1, -2.77774006128311157227e-01) (2, -2.82785463333129882812e+00) (3, -1.29349431991577148438e+01) (4, -3.07037830352783203125e+00) (5, 3.47212171554565429688e+00) (6, 4.53098964691162109375e+00) (0, -6.18616759777069091797e-01) (1, -3.08911252021789550781e+00) (2, 7.24228084087371826172e-01) (3, -7.32351303100585937500e+00) (4, -1.47722887992858886719e+00) (5, 5.48260974884033203125e+00) (6, -6.94325387477874755859e-01) (7, 2.90421638488769531250e+01) (8, 1.91762371063232421875e+01) (9, 2.95199565887451171875e+01) (10, 5.37070894241333007812e+00) (11, -3.27600021362304687500e+01) (12, 2.48081111907958984375e+00) (13, -1.28550138473510742188e+01) (14, 5.64190340042114257812e+00) (15, -7.62618494033813476562e+00) (7, 9.60419387817382812500e+01) (8, -1.14924077987670898438e+01) (9, 4.29251241683959960938e+00) (10, 6.74264907836914062500e+00) (11, -3.14421248435974121094e+00) (12, 4.40156507492065429688e+00) (13, -5.94677009582519531250e+01) (14, 7.13371582031250000000e+01) (15, -8.35403633117675781250e+00) (7, 4.81673126220703125000e+02) (8, -3.29538955688476562500e+01) (9, 1.96156005859375000000e+01) (10, 2.78409934043884277344e+00) (11, 4.77763557434082031250e+00) (12, 2.29960989952087402344e+00) (13, -1.16047677993774414062e+01) (14, -8.62079799175262451172e-01) (15, -1.15827169418334960938e+01) (7, 1.09270172119140625000e+01) (8, 1.66206836700439453125e+01) (9, 2.08563923835754394531e+00) (10, 1.20971083641052246094e+00) (11, 1.07811284065246582031e+00) (12, -6.85302972793579101562e+00) (13, -1.86086883544921875000e+01) (14, 7.22173995971679687500e+01) (15, -6.25456619262695312500e+00) (7, 9.93933582305908203125e+00) (8, 4.25689220428466796875e+00) (9, 4.13084983825683593750e+00) (10, 3.52523595094680786133e-01) (11, 4.98716861009597778320e-01) (12, -6.03760528564453125000e+00) (13, -9.49541568756103515625e+00) (14, 5.23563146591186523438e+00) (15, -3.36262941360473632812e+00) (7, 2.93371129035949707031e+00) (8, 2.57369232177734375000e+00) (9, 2.51813316345214843750e+00) (10, 1.24395167827606201172e+00) (11, 8.73682975769042968750e-01) (12, -3.25658988952636718750e+00) (13, -1.08487491607666015625e+01) (14, 5.78886556625366210938e+00) (15, -2.48778581619262695312e+00) (7, 7.98580408096313476562e+00) (8, 4.92142868041992187500e+00) (9, -1.23846495151519775391e+00) (10, 4.43782061338424682617e-01) (11, -9.29970836639404296875e+00) (12, -2.18645676970481872559e-01) (13, -2.00651335716247558594e+00) (14, 1.14024181365966796875e+01) (15, -1.55339896678924560547e+00) (7, 9.86310291290283203125e+00) (8, 5.04001760482788085938e+00) (9, 2.51591652631759643555e-01) (10, 3.72642159461975097656e-01) (11, -1.18290376663208007812e+01) (12, 8.99902954697608947754e-02) (13, -1.73946368694305419922e+00) (14, 1.18379926681518554688e+01) (15, -1.70307838916778564453e+00) (16, -3.72826755046844482422e-01) (17, -2.39988625049591064453e-01) (18, -2.33106389641761779785e-01) (19, -4.83663827180862426758e-01) (20, -4.10602092742919921875e-01) (21, -2.70566076040267944336e-01) (22, -1.19087123870849609375e+00) (23, -7.24606895446777343750e+00) (24, 3.13602954149246215820e-01) 
