FANN_FLO_2.1
num_layers=4
learning_rate=0.500000
connection_rate=1.000000
network_type=0
learning_momentum=0.000000
training_algorithm=2
train_error_function=1
train_stop_function=0
cascade_output_change_fraction=0.010000
quickprop_decay=-0.000100
quickprop_mu=1.750000
rprop_increase_factor=1.200000
rprop_decrease_factor=0.500000
rprop_delta_min=0.000000
rprop_delta_max=50.000000
rprop_delta_zero=0.100000
cascade_output_stagnation_epochs=12
cascade_candidate_change_fraction=0.010000
cascade_candidate_stagnation_epochs=12
cascade_max_out_epochs=150
cascade_min_out_epochs=50
cascade_max_cand_epochs=150
cascade_min_cand_epochs=50
cascade_num_candidate_groups=2
bit_fail_limit=3.49999994039535522461e-01
cascade_candidate_limit=1.00000000000000000000e+03
cascade_weight_multiplier=4.00000005960464477539e-01
cascade_activation_functions_count=10
cascade_activation_functions=3 5 7 8 10 11 14 15 16 17 
cascade_activation_steepnesses_count=4
cascade_activation_steepnesses=2.50000000000000000000e-01 5.00000000000000000000e-01 7.50000000000000000000e-01 1.00000000000000000000e+00 
layer_sizes=2 5 5 3 
scale_included=0
neurons (num_inputs, activation_function, activation_steepness)=(0, 0, 0.00000000000000000000e+00) (0, 0, 0.00000000000000000000e+00) (2, 3, 5.00000000000000000000e-01) (2, 3, 5.00000000000000000000e-01) (2, 3, 5.00000000000000000000e-01) (2, 3, 5.00000000000000000000e-01) (0, 3, 0.00000000000000000000e+00) (5, 3, 5.00000000000000000000e-01) (5, 3, 5.00000000000000000000e-01) (5, 3, 5.00000000000000000000e-01) (5, 3, 5.00000000000000000000e-01) (0, 3, 0.00000000000000000000e+00) (5, 0, 5.00000000000000000000e-01) (5, 0, 5.00000000000000000000e-01) (0, 0, 0.00000000000000000000e+00) 
connections (connected_to_neuron, weight)=(0, -2.78331089019775390625e+01) (1, 8.68141746520996093750e+00) (0, -2.57477283477783203125e+01) (1, 5.66404342651367187500e+00) (0, -8.73478546142578125000e+01) (1, 2.82417225837707519531e+00) (0, -4.01924858093261718750e+01) (1, 4.18903064727783203125e+00) (2, 2.03458297729492187500e+02) (3, 1.93800773620605468750e+01) (4, -1.68147613525390625000e+02) (5, -5.72442245483398437500e+01) (6, -5.61563587188720703125e+00) (2, -1.03964102268218994141e+00) (3, -2.57865023612976074219e+00) (4, -2.67552971839904785156e+00) (5, -2.43920922279357910156e+00) (6, 3.63084316253662109375e+00) (2, 8.82642364501953125000e+00) (3, -4.28870588541030883789e-01) (4, -2.55857396125793457031e+00) (5, -6.94073152542114257812e+00) (6, -8.64467501640319824219e-01) (2, 4.41216421127319335938e+00) (3, 1.94017156958580017090e-01) (4, 3.14631152153015136719e+00) (5, -7.96009123325347900391e-01) (6, -3.88736438751220703125e+00) (7, -7.07847356796264648438e-01) (8, -1.34767436981201171875e+00) (9, -1.23831045627593994141e+00) (10, -6.30193650722503662109e-01) (11, 1.41929793357849121094e+00) (7, 2.20308840274810791016e-01) (8, -2.34475326538085937500e+00) (9, 1.05803859233856201172e+00) (10, 1.83891487121582031250e+00) (11, -8.87733921408653259277e-02) 
