FANN_FLO_2.1
num_layers=4
learning_rate=0.500000
connection_rate=1.000000
network_type=0
learning_momentum=0.000000
training_algorithm=2
train_error_function=1
train_stop_function=0
cascade_output_change_fraction=0.010000
quickprop_decay=-0.000100
quickprop_mu=1.750000
rprop_increase_factor=1.200000
rprop_decrease_factor=0.500000
rprop_delta_min=0.000000
rprop_delta_max=50.000000
rprop_delta_zero=0.100000
cascade_output_stagnation_epochs=12
cascade_candidate_change_fraction=0.010000
cascade_candidate_stagnation_epochs=12
cascade_max_out_epochs=150
cascade_min_out_epochs=50
cascade_max_cand_epochs=150
cascade_min_cand_epochs=50
cascade_num_candidate_groups=2
bit_fail_limit=3.49999994039535522461e-01
cascade_candidate_limit=1.00000000000000000000e+03
cascade_weight_multiplier=4.00000005960464477539e-01
cascade_activation_functions_count=10
cascade_activation_functions=3 5 7 8 10 11 14 15 16 17 
cascade_activation_steepnesses_count=4
cascade_activation_steepnesses=2.50000000000000000000e-01 5.00000000000000000000e-01 7.50000000000000000000e-01 1.00000000000000000000e+00 
layer_sizes=10 9 5 2 
scale_included=0
neurons (num_inputs, activation_function, activation_steepness)=(0, 0, 0.00000000000000000000e+00) (0, 0, 0.00000000000000000000e+00) (0, 0, 0.00000000000000000000e+00) (0, 0, 0.00000000000000000000e+00) (0, 0, 0.00000000000000000000e+00) (0, 0, 0.00000000000000000000e+00) (0, 0, 0.00000000000000000000e+00) (0, 0, 0.00000000000000000000e+00) (0, 0, 0.00000000000000000000e+00) (0, 0, 0.00000000000000000000e+00) (10, 3, 5.00000000000000000000e-01) (10, 3, 5.00000000000000000000e-01) (10, 3, 5.00000000000000000000e-01) (10, 3, 5.00000000000000000000e-01) (10, 3, 5.00000000000000000000e-01) (10, 3, 5.00000000000000000000e-01) (10, 3, 5.00000000000000000000e-01) (10, 3, 5.00000000000000000000e-01) (0, 3, 0.00000000000000000000e+00) (9, 3, 5.00000000000000000000e-01) (9, 3, 5.00000000000000000000e-01) (9, 3, 5.00000000000000000000e-01) (9, 3, 5.00000000000000000000e-01) (0, 3, 0.00000000000000000000e+00) (5, 3, 5.00000000000000000000e-01) (0, 3, 0.00000000000000000000e+00) 
connections (connected_to_neuron, weight)=(0, -3.61855792999267578125e+00) (1, -1.69452655315399169922e+00) (2, -1.46852722167968750000e+02) (3, -3.06132674217224121094e-01) (4, 3.12291860580444335938e-01) (5, 3.41917306184768676758e-01) (6, 1.03091919422149658203e+00) (7, -4.27757561206817626953e-01) (8, 2.77172595262527465820e-01) (9, 3.91935139894485473633e-01) (0, -2.00276464223861694336e-01) (1, 6.37164413928985595703e-01) (2, -2.42087602615356445312e+00) (3, -8.67989003658294677734e-01) (4, -1.27296996116638183594e+00) (5, -2.12754979729652404785e-02) (6, -1.22361898422241210938e+00) (7, -5.92026948928833007812e-01) (8, -3.18305134773254394531e-01) (9, 6.57457470893859863281e-01) (0, -1.33863568305969238281e+00) (1, 2.58794951438903808594e+00) (2, 5.69458067417144775391e-01) (3, -1.40916454792022705078e+00) (4, -4.50205132365226745605e-02) (5, -2.24890160560607910156e+00) (6, -1.38774585723876953125e+00) (7, -8.75588834285736083984e-01) (8, -1.23204851150512695312e+00) (9, 2.31915879249572753906e+00) (0, -2.23323798179626464844e+00) (1, 1.51581430435180664062e+00) (2, -4.50724649429321289062e+00) (3, -2.44295373558998107910e-01) (4, 1.86954760551452636719e+00) (5, 5.17462909221649169922e-01) (6, -1.60475564002990722656e+00) (7, 3.64848315715789794922e-01) (8, -2.01562976837158203125e+00) (9, 5.56923151016235351562e-01) (0, -6.93631291389465332031e-01) (1, 7.67003446817398071289e-02) (2, -2.63494718819856643677e-02) (3, -1.28558158874511718750e+00) (4, 5.31723201274871826172e-01) (5, -8.80179941654205322266e-01) (6, -1.23108553886413574219e+00) (7, -9.17617857456207275391e-01) (8, -1.17298042774200439453e+00) (9, 1.96774089336395263672e+00) (0, -1.26736330986022949219e+00) (1, 9.86335873603820800781e-01) (2, -1.89074248075485229492e-01) (3, -2.79395961761474609375e+00) (4, -2.16096147894859313965e-01) (5, 1.10894680023193359375e+00) (6, -3.98947906494140625000e+00) (7, -1.15772724151611328125e+00) (8, -1.45845532417297363281e+00) (9, 2.74515128135681152344e+00) (0, -9.76301014423370361328e-01) (1, 1.65299862623214721680e-01) (2, -9.16505432128906250000e+00) (3, -3.25423628091812133789e-01) (4, 7.36997351050376892090e-02) (5, -2.31675162911415100098e-01) (6, 5.50379991531372070312e+00) (7, 1.65623021125793457031e+00) (8, -6.99671626091003417969e-01) (9, 5.07096409797668457031e-01) (0, -1.00302994251251220703e+00) (1, 6.42246723175048828125e-01) (2, -4.55474071204662322998e-02) (3, -1.17411255836486816406e+00) (4, 3.62907141447067260742e-01) (5, -8.88318717479705810547e-01) (6, -2.63944673538208007812e+00) (7, -1.10807991027832031250e+00) (8, -1.46507430076599121094e+00) (9, 2.93461203575134277344e+00) (10, 1.29118900299072265625e+01) (11, 6.26724541187286376953e-01) (12, 1.99032175540924072266e+00) (13, -1.02591915130615234375e+01) (14, 2.38535857200622558594e+00) (15, 4.20449686050415039062e+00) (16, 6.81665706634521484375e+00) (17, 2.16810178756713867188e+00) (18, -1.00883758068084716797e+00) (10, 1.16367645263671875000e+01) (11, 3.95633488893508911133e-01) (12, 2.69468188285827636719e+00) (13, -9.20494174957275390625e+00) (14, 1.57625651359558105469e+00) (15, 2.86568927764892578125e+00) (16, 4.21519851684570312500e+00) (17, 2.44549632072448730469e+00) (18, -3.37836414575576782227e-01) (10, 3.79763484001159667969e+00) (11, 9.24368679523468017578e-01) (12, 1.55621910095214843750e+00) (13, -1.14713640213012695312e+01) (14, 3.18154668807983398438e+00) (15, 4.50252008438110351562e+00) (16, 6.26462030410766601562e+00) (17, 1.69373738765716552734e+00) (18, -7.08215773105621337891e-01) (10, -2.32566642761230468750e+00) (11, -2.67377591133117675781e+00) (12, -2.22958064079284667969e+00) (13, 1.17420291900634765625e+01) (14, -1.85221755504608154297e+00) (15, -4.84184360504150390625e+00) (16, -7.20024585723876953125e+00) (17, -2.09291458129882812500e+00) (18, 1.42130267620086669922e+00) (19, 2.50416547060012817383e-01) (20, 3.43919426202774047852e-01) (21, 2.86789029836654663086e-01) (22, -9.61239147186279296875e+00) (23, 1.49452060461044311523e-01) 
