FANN_FLO_2.1
num_layers=4
learning_rate=0.500000
connection_rate=1.000000
network_type=0
learning_momentum=0.000000
training_algorithm=2
train_error_function=1
train_stop_function=0
cascade_output_change_fraction=0.010000
quickprop_decay=-0.000100
quickprop_mu=1.750000
rprop_increase_factor=1.200000
rprop_decrease_factor=0.500000
rprop_delta_min=0.000000
rprop_delta_max=50.000000
rprop_delta_zero=0.100000
cascade_output_stagnation_epochs=12
cascade_candidate_change_fraction=0.010000
cascade_candidate_stagnation_epochs=12
cascade_max_out_epochs=150
cascade_min_out_epochs=50
cascade_max_cand_epochs=150
cascade_min_cand_epochs=50
cascade_num_candidate_groups=2
bit_fail_limit=3.49999994039535522461e-01
cascade_candidate_limit=1.00000000000000000000e+03
cascade_weight_multiplier=4.00000005960464477539e-01
cascade_activation_functions_count=10
cascade_activation_functions=3 5 7 8 10 11 14 15 16 17 
cascade_activation_steepnesses_count=4
cascade_activation_steepnesses=2.50000000000000000000e-01 5.00000000000000000000e-01 7.50000000000000000000e-01 1.00000000000000000000e+00 
layer_sizes=10 5 3 2 
scale_included=0
neurons (num_inputs, activation_function, activation_steepness)=(0, 0, 0.00000000000000000000e+00) (0, 0, 0.00000000000000000000e+00) (0, 0, 0.00000000000000000000e+00) (0, 0, 0.00000000000000000000e+00) (0, 0, 0.00000000000000000000e+00) (0, 0, 0.00000000000000000000e+00) (0, 0, 0.00000000000000000000e+00) (0, 0, 0.00000000000000000000e+00) (0, 0, 0.00000000000000000000e+00) (0, 0, 0.00000000000000000000e+00) (10, 3, 5.00000000000000000000e-01) (10, 3, 5.00000000000000000000e-01) (10, 3, 5.00000000000000000000e-01) (10, 3, 5.00000000000000000000e-01) (0, 3, 0.00000000000000000000e+00) (5, 3, 5.00000000000000000000e-01) (5, 3, 5.00000000000000000000e-01) (0, 3, 0.00000000000000000000e+00) (3, 3, 5.00000000000000000000e-01) (0, 3, 0.00000000000000000000e+00) 
connections (connected_to_neuron, weight)=(0, -1.71443271636962890625e+01) (1, 2.70996093750000000000e+00) (2, 3.45111310482025146484e-01) (3, 1.78547829389572143555e-01) (4, 4.90677976608276367188e+00) (5, 1.36941070556640625000e+01) (6, -4.96372365951538085938e+00) (7, -1.11257874965667724609e+00) (8, -4.19852852821350097656e-01) (9, 1.10690128803253173828e+00) (0, -3.19489078521728515625e+01) (1, -2.96473741531372070312e+00) (2, -1.80618143081665039062e+00) (3, 5.27183580398559570312e+00) (4, 8.40858697891235351562e-01) (5, -5.18043661117553710938e+00) (6, 2.35996570587158203125e+01) (7, 9.01844859123229980469e-01) (8, 9.15040671825408935547e-01) (9, 2.38520771265029907227e-01) (0, -1.73680648803710937500e+01) (1, 2.24208593368530273438e+00) (2, 4.72493320703506469727e-01) (3, 1.97143573313951492310e-02) (4, 5.21174335479736328125e+00) (5, 1.70325069427490234375e+01) (6, -5.00422811508178710938e+00) (7, -1.12395548820495605469e+00) (8, -4.47233390808105468750e+00) (9, 7.05163717269897460938e-01) (0, -2.90526161193847656250e+01) (1, -8.39914798736572265625e+00) (2, -7.10966825485229492188e-01) (3, 1.72640848159790039062e+00) (4, -4.92503553628921508789e-01) (5, -3.23359519243240356445e-01) (6, 2.65462951660156250000e+01) (7, 3.61118704080581665039e-01) (8, 4.30867969989776611328e-01) (9, 2.40839228034019470215e-01) (10, 1.07676916122436523438e+01) (11, 1.69821739196777343750e+01) (12, 4.27584838867187500000e+00) (13, 4.64753341674804687500e+00) (14, -6.26515388488769531250e+00) (10, 7.97777986526489257812e+00) (11, 1.66870555877685546875e+01) (12, 6.13576221466064453125e+00) (13, 4.40344285964965820312e+00) (14, -5.67704820632934570312e+00) (15, 1.57965111732482910156e+00) (16, 9.96871531009674072266e-01) (17, -1.70663881301879882812e+00) 
