FANN_FLO_2.1
num_layers=4
learning_rate=0.400000
connection_rate=1.000000
network_type=0
learning_momentum=0.000000
training_algorithm=2
train_error_function=1
train_stop_function=0
cascade_output_change_fraction=0.010000
quickprop_decay=-0.000100
quickprop_mu=1.750000
rprop_increase_factor=1.200000
rprop_decrease_factor=0.500000
rprop_delta_min=0.000000
rprop_delta_max=50.000000
rprop_delta_zero=0.100000
cascade_output_stagnation_epochs=12
cascade_candidate_change_fraction=0.010000
cascade_candidate_stagnation_epochs=12
cascade_max_out_epochs=150
cascade_min_out_epochs=50
cascade_max_cand_epochs=150
cascade_min_cand_epochs=50
cascade_num_candidate_groups=2
bit_fail_limit=3.49999994039535522461e-01
cascade_candidate_limit=1.00000000000000000000e+03
cascade_weight_multiplier=4.00000005960464477539e-01
cascade_activation_functions_count=10
cascade_activation_functions=3 5 7 8 10 11 14 15 16 17 
cascade_activation_steepnesses_count=4
cascade_activation_steepnesses=2.50000000000000000000e-01 5.00000000000000000000e-01 7.50000000000000000000e-01 1.00000000000000000000e+00 
layer_sizes=7 9 9 2 
scale_included=0
neurons (num_inputs, activation_function, activation_steepness)=(0, 0, 0.00000000000000000000e+00) (0, 0, 0.00000000000000000000e+00) (0, 0, 0.00000000000000000000e+00) (0, 0, 0.00000000000000000000e+00) (0, 0, 0.00000000000000000000e+00) (0, 0, 0.00000000000000000000e+00) (0, 0, 0.00000000000000000000e+00) (7, 3, 5.00000000000000000000e-01) (7, 3, 5.00000000000000000000e-01) (7, 3, 5.00000000000000000000e-01) (7, 3, 5.00000000000000000000e-01) (7, 3, 5.00000000000000000000e-01) (7, 3, 5.00000000000000000000e-01) (7, 3, 5.00000000000000000000e-01) (7, 3, 5.00000000000000000000e-01) (0, 3, 0.00000000000000000000e+00) (9, 3, 5.00000000000000000000e-01) (9, 3, 5.00000000000000000000e-01) (9, 3, 5.00000000000000000000e-01) (9, 3, 5.00000000000000000000e-01) (9, 3, 5.00000000000000000000e-01) (9, 3, 5.00000000000000000000e-01) (9, 3, 5.00000000000000000000e-01) (9, 3, 5.00000000000000000000e-01) (0, 3, 0.00000000000000000000e+00) (9, 3, 5.00000000000000000000e-01) (0, 3, 0.00000000000000000000e+00) 
connections (connected_to_neuron, weight)=(0, -6.99992036819458007812e+00) (1, 2.22110295295715332031e+00) (2, 8.66583862304687500000e+01) (3, -4.03002357482910156250e+01) (4, -1.48288202285766601562e+01) (5, 2.03462433815002441406e+00) (6, 1.70278644561767578125e+01) (0, -1.96147823333740234375e+01) (1, 1.22925043106079101562e+01) (2, 3.81181764602661132812e+00) (3, -1.66947174072265625000e+01) (4, -6.17337560653686523438e+00) (5, 4.40824604034423828125e+00) (6, 1.09213705062866210938e+01) (0, -1.34687719726562500000e+03) (1, -1.23671435546875000000e+03) (2, 4.56180816650390625000e+02) (3, -7.98311157226562500000e+02) (4, -1.41148510742187500000e+03) (5, 3.68386474609375000000e+02) (6, 5.97039245605468750000e+02) (0, -6.01312065124511718750e+00) (1, 2.62745451927185058594e+00) (2, 7.41712112426757812500e+01) (3, -3.28783035278320312500e+01) (4, -1.27309217453002929688e+01) (5, 1.56808376312255859375e+00) (6, 1.36416435241699218750e+01) (0, 6.14462547302246093750e+01) (1, -3.61318435668945312500e+01) (2, -2.71476806640625000000e+02) (3, -3.24164123535156250000e+01) (4, -5.17198638916015625000e+01) (5, 7.20340499877929687500e+01) (6, 5.80631780624389648438e+00) (0, -1.42212670898437500000e+03) (1, -8.79111511230468750000e+02) (2, 1.13340354919433593750e+02) (3, -5.20696777343750000000e+02) (4, -1.46311889648437500000e+03) (5, 4.87287231445312500000e+02) (6, 1.93449687957763671875e+01) (0, -1.34687719726562500000e+03) (1, -1.23671435546875000000e+03) (2, 4.56180816650390625000e+02) (3, -8.00950195312500000000e+02) (4, -1.41148510742187500000e+03) (5, 7.22576477050781250000e+02) (6, 2.48065353393554687500e+02) (0, 1.90206754207611083984e+00) (1, 1.50837767124176025391e+00) (2, -5.40612854003906250000e+02) (3, 2.55272598266601562500e+01) (4, -1.30173110961914062500e+01) (5, 4.66546554565429687500e+01) (6, -1.11523792147636413574e-01) (7, 1.50000000000000000000e+03) (8, 1.50000000000000000000e+03) (9, 1.50000000000000000000e+03) (10, 1.50000000000000000000e+03) (11, 1.49222802734375000000e+03) (12, 1.50000000000000000000e+03) (13, 1.50000000000000000000e+03) (14, -1.50000000000000000000e+03) (15, 9.13105964660644531250e+00) (7, 1.50000000000000000000e+03) (8, 1.50000000000000000000e+03) (9, 1.50000000000000000000e+03) (10, 1.50000000000000000000e+03) (11, 1.49222802734375000000e+03) (12, 1.50000000000000000000e+03) (13, 1.50000000000000000000e+03) (14, -1.50000000000000000000e+03) (15, 1.64062671661376953125e+01) (7, 1.50000000000000000000e+03) (8, 1.50000000000000000000e+03) (9, 1.50000000000000000000e+03) (10, 1.50000000000000000000e+03) (11, 1.49222802734375000000e+03) (12, 1.50000000000000000000e+03) (13, 1.50000000000000000000e+03) (14, -1.50000000000000000000e+03) (15, 1.56025104522705078125e+01) (7, 1.50000000000000000000e+03) (8, 1.50000000000000000000e+03) (9, 1.50000000000000000000e+03) (10, 1.50000000000000000000e+03) (11, 1.47760388183593750000e+03) (12, 1.50000000000000000000e+03) (13, 1.50000000000000000000e+03) (14, -1.49751428222656250000e+03) (15, 1.14244985580444335938e+01) (7, 1.50000000000000000000e+03) (8, 1.50000000000000000000e+03) (9, 1.50000000000000000000e+03) (10, 1.50000000000000000000e+03) (11, 1.49222802734375000000e+03) (12, 1.50000000000000000000e+03) (13, 1.50000000000000000000e+03) (14, -1.50000000000000000000e+03) (15, 1.60791969299316406250e+01) (7, 1.50000000000000000000e+03) (8, 1.50000000000000000000e+03) (9, 1.50000000000000000000e+03) (10, 1.50000000000000000000e+03) (11, 1.47397583007812500000e+03) (12, 1.50000000000000000000e+03) (13, 1.50000000000000000000e+03) (14, -1.48915869140625000000e+03) (15, 4.40905952453613281250e+00) (7, 1.50000000000000000000e+03) (8, 1.50000000000000000000e+03) (9, 1.50000000000000000000e+03) (10, 1.50000000000000000000e+03) (11, 1.43507482910156250000e+03) (12, 1.50000000000000000000e+03) (13, 1.50000000000000000000e+03) (14, -1.50000000000000000000e+03) (15, -9.32648544311523437500e+01) (7, 1.50000000000000000000e+03) (8, 1.50000000000000000000e+03) (9, 1.50000000000000000000e+03) (10, 1.50000000000000000000e+03) (11, 1.49222802734375000000e+03) (12, 1.50000000000000000000e+03) (13, 1.50000000000000000000e+03) (14, -1.50000000000000000000e+03) (15, 8.72685623168945312500e+00) (16, -3.84699076414108276367e-01) (17, -5.48010617494583129883e-02) (18, -3.59085649251937866211e-02) (19, -8.69612157344818115234e-01) (20, -2.70871609449386596680e-01) (21, -3.57370942831039428711e-01) (22, -9.53994929790496826172e-01) (23, -1.25047728419303894043e-01) (24, -9.09501761198043823242e-02) 
