FANN_FLO_2.1
num_layers=4
learning_rate=0.500000
connection_rate=1.000000
network_type=0
learning_momentum=0.000000
training_algorithm=2
train_error_function=1
train_stop_function=0
cascade_output_change_fraction=0.010000
quickprop_decay=-0.000100
quickprop_mu=1.750000
rprop_increase_factor=1.200000
rprop_decrease_factor=0.500000
rprop_delta_min=0.000000
rprop_delta_max=50.000000
rprop_delta_zero=0.100000
cascade_output_stagnation_epochs=12
cascade_candidate_change_fraction=0.010000
cascade_candidate_stagnation_epochs=12
cascade_max_out_epochs=150
cascade_min_out_epochs=50
cascade_max_cand_epochs=150
cascade_min_cand_epochs=50
cascade_num_candidate_groups=2
bit_fail_limit=3.49999994039535522461e-01
cascade_candidate_limit=1.00000000000000000000e+03
cascade_weight_multiplier=4.00000005960464477539e-01
cascade_activation_functions_count=10
cascade_activation_functions=3 5 7 8 10 11 14 15 16 17 
cascade_activation_steepnesses_count=4
cascade_activation_steepnesses=2.50000000000000000000e-01 5.00000000000000000000e-01 7.50000000000000000000e-01 1.00000000000000000000e+00 
layer_sizes=10 3 3 2 
scale_included=0
neurons (num_inputs, activation_function, activation_steepness)=(0, 0, 0.00000000000000000000e+00) (0, 0, 0.00000000000000000000e+00) (0, 0, 0.00000000000000000000e+00) (0, 0, 0.00000000000000000000e+00) (0, 0, 0.00000000000000000000e+00) (0, 0, 0.00000000000000000000e+00) (0, 0, 0.00000000000000000000e+00) (0, 0, 0.00000000000000000000e+00) (0, 0, 0.00000000000000000000e+00) (0, 0, 0.00000000000000000000e+00) (10, 3, 5.00000000000000000000e-01) (10, 3, 5.00000000000000000000e-01) (0, 3, 0.00000000000000000000e+00) (3, 3, 5.00000000000000000000e-01) (3, 3, 5.00000000000000000000e-01) (0, 3, 0.00000000000000000000e+00) (3, 3, 5.00000000000000000000e-01) (0, 3, 0.00000000000000000000e+00) 
connections (connected_to_neuron, weight)=(0, -1.67883014678955078125e+01) (1, -4.97740364074707031250e+00) (2, -7.02980279922485351562e+00) (3, -7.09585100412368774414e-02) (4, -2.55340814590454101562e+00) (5, 1.34678153991699218750e+01) (6, 2.51095123291015625000e+01) (7, 9.49851226806640625000e+00) (8, 5.16582548618316650391e-01) (9, -1.89721548557281494141e+00) (0, -3.04109077453613281250e+01) (1, 7.35029876232147216797e-01) (2, 7.35079407691955566406e-01) (3, 5.45469343662261962891e-01) (4, 8.48731136322021484375e+00) (5, 1.38819932937622070312e+00) (6, 2.88817749023437500000e+01) (7, -8.21831798553466796875e+00) (8, 4.69871330261230468750e+00) (9, -1.60763275623321533203e+00) (10, -1.33867599487304687500e+02) (11, 1.47203216552734375000e+02) (12, 8.37436199188232421875e+00) (10, -1.89899826049804687500e+02) (11, 2.13455444335937500000e+02) (12, 1.00253257751464843750e+01) (13, 6.05863034725189208984e-01) (14, 1.75426876544952392578e+00) (15, -1.49598193168640136719e+00) 
