FANN_FLO_2.1
num_layers=3
learning_rate=0.400000
connection_rate=1.000000
network_type=0
learning_momentum=0.000000
training_algorithm=2
train_error_function=1
train_stop_function=0
cascade_output_change_fraction=0.010000
quickprop_decay=-0.000100
quickprop_mu=1.750000
rprop_increase_factor=1.200000
rprop_decrease_factor=0.500000
rprop_delta_min=0.000000
rprop_delta_max=50.000000
rprop_delta_zero=0.100000
cascade_output_stagnation_epochs=12
cascade_candidate_change_fraction=0.010000
cascade_candidate_stagnation_epochs=12
cascade_max_out_epochs=150
cascade_min_out_epochs=50
cascade_max_cand_epochs=150
cascade_min_cand_epochs=50
cascade_num_candidate_groups=2
bit_fail_limit=3.49999994039535522461e-01
cascade_candidate_limit=1.00000000000000000000e+03
cascade_weight_multiplier=4.00000005960464477539e-01
cascade_activation_functions_count=10
cascade_activation_functions=3 5 7 8 10 11 14 15 16 17 
cascade_activation_steepnesses_count=4
cascade_activation_steepnesses=2.50000000000000000000e-01 5.00000000000000000000e-01 7.50000000000000000000e-01 1.00000000000000000000e+00 
layer_sizes=19 3 3 
scale_included=0
neurons (num_inputs, activation_function, activation_steepness)=(0, 0, 0.00000000000000000000e+00) (0, 0, 0.00000000000000000000e+00) (0, 0, 0.00000000000000000000e+00) (0, 0, 0.00000000000000000000e+00) (0, 0, 0.00000000000000000000e+00) (0, 0, 0.00000000000000000000e+00) (0, 0, 0.00000000000000000000e+00) (0, 0, 0.00000000000000000000e+00) (0, 0, 0.00000000000000000000e+00) (0, 0, 0.00000000000000000000e+00) (0, 0, 0.00000000000000000000e+00) (0, 0, 0.00000000000000000000e+00) (0, 0, 0.00000000000000000000e+00) (0, 0, 0.00000000000000000000e+00) (0, 0, 0.00000000000000000000e+00) (0, 0, 0.00000000000000000000e+00) (0, 0, 0.00000000000000000000e+00) (0, 0, 0.00000000000000000000e+00) (0, 0, 0.00000000000000000000e+00) (19, 3, 5.00000000000000000000e-01) (19, 3, 5.00000000000000000000e-01) (0, 3, 0.00000000000000000000e+00) (3, 3, 5.00000000000000000000e-01) (3, 3, 5.00000000000000000000e-01) (0, 3, 0.00000000000000000000e+00) 
connections (connected_to_neuron, weight)=(0, -1.16700363159179687500e+01) (1, -1.22595608234405517578e+00) (2, -2.22663354873657226562e+00) (3, -6.73953676223754882812e+00) (4, 7.76427888870239257812e+00) (5, -1.71209335327148437500e+00) (6, -1.22682607173919677734e+00) (7, -2.96649813652038574219e+00) (8, 8.79399013519287109375e+00) (9, 8.90142917633056640625e+00) (10, -8.75205039978027343750e-01) (11, 1.66108489036560058594e+00) (12, 7.59691715240478515625e+00) (13, 2.03954339027404785156e+00) (14, -2.12606048583984375000e+00) (15, 3.24321484565734863281e+00) (16, -2.75358343124389648438e+00) (17, 2.29512214660644531250e+00) (18, -2.54832839965820312500e+00) (0, 8.59298896789550781250e+00) (1, -1.45919844508171081543e-01) (2, 2.30104422569274902344e+00) (3, 7.89304399490356445312e+00) (4, -4.56887388229370117188e+00) (5, 9.60287630558013916016e-01) (6, 1.12707364559173583984e+00) (7, 1.59013354778289794922e+00) (8, -5.10180568695068359375e+00) (9, -8.50581359863281250000e+00) (10, 2.48287618160247802734e-01) (11, -1.17134630680084228516e+00) (12, -6.36539077758789062500e+00) (13, -2.15221428871154785156e+00) (14, 1.65255296230316162109e+00) (15, -2.17605566978454589844e+00) (16, 1.72089338302612304688e+00) (17, -4.34060484170913696289e-01) (18, -5.75583338737487792969e-01) (19, -1.89603149890899658203e+00) (20, -2.20420670509338378906e+00) (21, 1.29695022106170654297e+00) (19, 1.89444601535797119141e+00) (20, 2.19865918159484863281e+00) (21, -1.29442787170410156250e+00) 
