FANN_FLO_2.1
num_layers=3
learning_rate=0.400000
connection_rate=1.000000
network_type=0
learning_momentum=0.000000
training_algorithm=2
train_error_function=1
train_stop_function=0
cascade_output_change_fraction=0.010000
quickprop_decay=-0.000100
quickprop_mu=1.750000
rprop_increase_factor=1.200000
rprop_decrease_factor=0.500000
rprop_delta_min=0.000000
rprop_delta_max=50.000000
rprop_delta_zero=0.100000
cascade_output_stagnation_epochs=12
cascade_candidate_change_fraction=0.010000
cascade_candidate_stagnation_epochs=12
cascade_max_out_epochs=150
cascade_min_out_epochs=50
cascade_max_cand_epochs=150
cascade_min_cand_epochs=50
cascade_num_candidate_groups=2
bit_fail_limit=3.49999994039535522461e-01
cascade_candidate_limit=1.00000000000000000000e+03
cascade_weight_multiplier=4.00000005960464477539e-01
cascade_activation_functions_count=10
cascade_activation_functions=3 5 7 8 10 11 14 15 16 17 
cascade_activation_steepnesses_count=4
cascade_activation_steepnesses=2.50000000000000000000e-01 5.00000000000000000000e-01 7.50000000000000000000e-01 1.00000000000000000000e+00 
layer_sizes=7 9 2 
scale_included=0
neurons (num_inputs, activation_function, activation_steepness)=(0, 0, 0.00000000000000000000e+00) (0, 0, 0.00000000000000000000e+00) (0, 0, 0.00000000000000000000e+00) (0, 0, 0.00000000000000000000e+00) (0, 0, 0.00000000000000000000e+00) (0, 0, 0.00000000000000000000e+00) (0, 0, 0.00000000000000000000e+00) (7, 3, 5.00000000000000000000e-01) (7, 3, 5.00000000000000000000e-01) (7, 3, 5.00000000000000000000e-01) (7, 3, 5.00000000000000000000e-01) (7, 3, 5.00000000000000000000e-01) (7, 3, 5.00000000000000000000e-01) (7, 3, 5.00000000000000000000e-01) (7, 3, 5.00000000000000000000e-01) (0, 3, 0.00000000000000000000e+00) (9, 3, 5.00000000000000000000e-01) (0, 3, 0.00000000000000000000e+00) 
connections (connected_to_neuron, weight)=(0, -2.95261693000793457031e+00) (1, -2.26720428466796875000e+00) (2, -5.77295541763305664062e-01) (3, 1.83151900768280029297e+00) (4, 4.63940858840942382812e-01) (5, 4.34185791015625000000e+00) (6, -1.51425635814666748047e+00) (0, -6.33555233478546142578e-01) (1, -8.41808676719665527344e-01) (2, 3.25181341171264648438e+00) (3, -4.10155630111694335938e+00) (4, 4.47263956069946289062e+00) (5, -1.50354480743408203125e+01) (6, 1.06762993335723876953e+00) (0, -2.87256217002868652344e+00) (1, -3.29825043678283691406e+00) (2, -2.37563991546630859375e+00) (3, 9.30478811264038085938e-01) (4, 3.25964045524597167969e+00) (5, 8.41898620128631591797e-01) (6, -1.96293306350708007812e+00) (0, 1.74166762828826904297e+00) (1, -1.31530368328094482422e+00) (2, -2.23492145538330078125e+00) (3, 1.86177265644073486328e+00) (4, -1.43950688838958740234e+00) (5, 9.73514652252197265625e+00) (6, -5.83815860748291015625e+00) (0, -1.11181652545928955078e+00) (1, 3.08264166116714477539e-01) (2, 2.62668967247009277344e+00) (3, 6.86179351806640625000e+00) (4, 5.37115752696990966797e-01) (5, -1.06599044799804687500e+01) (6, -8.84257078170776367188e-01) (0, -3.92362046241760253906e+00) (1, -2.97487616539001464844e+00) (2, -8.03031921386718750000e+00) (3, 1.17427027225494384766e+00) (4, 1.22681117057800292969e+00) (5, 5.87005090713500976562e+00) (6, 9.50135946273803710938e-01) (0, -1.47503840923309326172e+00) (1, -3.04467749595642089844e+00) (2, -6.92643022537231445312e+00) (3, -3.94396543502807617188e-01) (4, 4.81668615341186523438e+00) (5, 2.94771456718444824219e+00) (6, -1.79297232627868652344e+00) (0, 4.53571701049804687500e+00) (1, 3.25476670265197753906e+00) (2, 1.31560325622558593750e-01) (3, -3.91898298263549804688e+00) (4, 5.27897896245121955872e-03) (5, -6.46957159042358398438e-01) (6, 6.37646853923797607422e-01) (7, -1.63828063011169433594e+00) (8, 3.00766706466674804688e+00) (9, 9.88218605518341064453e-01) (10, 2.90481853485107421875e+00) (11, 1.21902167797088623047e+00) (12, 7.94060409069061279297e-01) (13, 1.00995934009552001953e+00) (14, -2.23725247383117675781e+00) (15, -3.29616069793701171875e-01) 
