FANN_FLO_2.1
num_layers=3
learning_rate=0.400000
connection_rate=1.000000
network_type=0
learning_momentum=0.000000
training_algorithm=2
train_error_function=1
train_stop_function=0
cascade_output_change_fraction=0.010000
quickprop_decay=-0.000100
quickprop_mu=1.750000
rprop_increase_factor=1.200000
rprop_decrease_factor=0.500000
rprop_delta_min=0.000000
rprop_delta_max=50.000000
rprop_delta_zero=0.100000
cascade_output_stagnation_epochs=12
cascade_candidate_change_fraction=0.010000
cascade_candidate_stagnation_epochs=12
cascade_max_out_epochs=150
cascade_min_out_epochs=50
cascade_max_cand_epochs=150
cascade_min_cand_epochs=50
cascade_num_candidate_groups=2
bit_fail_limit=3.49999994039535522461e-01
cascade_candidate_limit=1.00000000000000000000e+03
cascade_weight_multiplier=4.00000005960464477539e-01
cascade_activation_functions_count=10
cascade_activation_functions=3 5 7 8 10 11 14 15 16 17 
cascade_activation_steepnesses_count=4
cascade_activation_steepnesses=2.50000000000000000000e-01 5.00000000000000000000e-01 7.50000000000000000000e-01 1.00000000000000000000e+00 
layer_sizes=7 9 2 
scale_included=0
neurons (num_inputs, activation_function, activation_steepness)=(0, 0, 0.00000000000000000000e+00) (0, 0, 0.00000000000000000000e+00) (0, 0, 0.00000000000000000000e+00) (0, 0, 0.00000000000000000000e+00) (0, 0, 0.00000000000000000000e+00) (0, 0, 0.00000000000000000000e+00) (0, 0, 0.00000000000000000000e+00) (7, 3, 5.00000000000000000000e-01) (7, 3, 5.00000000000000000000e-01) (7, 3, 5.00000000000000000000e-01) (7, 3, 5.00000000000000000000e-01) (7, 3, 5.00000000000000000000e-01) (7, 3, 5.00000000000000000000e-01) (7, 3, 5.00000000000000000000e-01) (7, 3, 5.00000000000000000000e-01) (0, 3, 0.00000000000000000000e+00) (9, 3, 5.00000000000000000000e-01) (0, 3, 0.00000000000000000000e+00) 
connections (connected_to_neuron, weight)=(0, -2.12490749359130859375e+00) (1, 2.75247907638549804688e+00) (2, 7.90163803100585937500e+01) (3, -1.04328622817993164062e+01) (4, -1.25713348388671875000e+01) (5, 8.91780376434326171875e+00) (6, 3.13571286201477050781e+00) (0, -1.09542407989501953125e+01) (1, 1.05377798080444335938e+01) (2, -4.88005542755126953125e+00) (3, -2.54904603958129882812e+00) (4, 1.00124645233154296875e+00) (5, 7.49073553085327148438e+00) (6, -2.02438712120056152344e-01) (0, -1.48107302188873291016e+00) (1, 2.09080114960670471191e-01) (2, 6.38553917407989501953e-01) (3, -4.91959524154663085938e+00) (4, -3.01101636886596679688e+00) (5, 5.03485165536403656006e-02) (6, 6.60759925842285156250e-01) (0, 8.20070934295654296875e+00) (1, -9.81876730918884277344e-01) (2, -2.62958979606628417969e+00) (3, -1.49780168533325195312e+01) (4, -1.29634599685668945312e+01) (5, 1.44821679592132568359e+00) (6, 2.56705880165100097656e+00) (0, -9.51400756835937500000e+00) (1, -2.12993621826171875000e+01) (2, 1.79154624938964843750e+01) (3, 1.57117443084716796875e+01) (4, 5.92772912979125976562e+00) (5, -1.92779624462127685547e+00) (6, 7.25386285781860351562e+00) (0, -5.84285068511962890625e+00) (1, 5.14260816574096679688e+00) (2, -4.24318999052047729492e-01) (3, -4.50810164213180541992e-01) (4, -2.14495658874511718750e+00) (5, -1.43523083496093750000e+03) (6, -1.10025502741336822510e-01) (0, -9.68087863922119140625e+00) (1, 1.08471536636352539062e+01) (2, -1.02223644256591796875e+01) (3, 5.38712024688720703125e-01) (4, 8.91509771347045898438e-01) (5, 6.07607078552246093750e+00) (6, -9.29875552654266357422e-01) (0, 7.85194635391235351562e+00) (1, -8.92317771911621093750e+00) (2, 2.51253890991210937500e+00) (3, -2.94260978698730468750e+00) (4, -7.69573152065277099609e-01) (5, -1.91473913192749023438e+00) (6, 3.63854193687438964844e+00) (7, -2.74831891059875488281e-01) (8, -1.98501181602478027344e+00) (9, 3.51607871055603027344e+00) (10, -5.21276772022247314453e-01) (11, -5.08268058300018310547e-01) (12, -6.41668701171875000000e+00) (13, -2.05493235588073730469e+00) (14, -3.94018936157226562500e+00) (15, 3.20457315444946289062e+00) 
