FANN_FLO_2.1
num_layers=4
learning_rate=0.400000
connection_rate=1.000000
network_type=0
learning_momentum=0.000000
training_algorithm=2
train_error_function=1
train_stop_function=0
cascade_output_change_fraction=0.010000
quickprop_decay=-0.000100
quickprop_mu=1.750000
rprop_increase_factor=1.200000
rprop_decrease_factor=0.500000
rprop_delta_min=0.000000
rprop_delta_max=50.000000
rprop_delta_zero=0.100000
cascade_output_stagnation_epochs=12
cascade_candidate_change_fraction=0.010000
cascade_candidate_stagnation_epochs=12
cascade_max_out_epochs=150
cascade_min_out_epochs=50
cascade_max_cand_epochs=150
cascade_min_cand_epochs=50
cascade_num_candidate_groups=2
bit_fail_limit=3.49999994039535522461e-01
cascade_candidate_limit=1.00000000000000000000e+03
cascade_weight_multiplier=4.00000005960464477539e-01
cascade_activation_functions_count=10
cascade_activation_functions=3 5 7 8 10 11 14 15 16 17 
cascade_activation_steepnesses_count=4
cascade_activation_steepnesses=2.50000000000000000000e-01 5.00000000000000000000e-01 7.50000000000000000000e-01 1.00000000000000000000e+00 
layer_sizes=7 9 9 2 
scale_included=0
neurons (num_inputs, activation_function, activation_steepness)=(0, 0, 0.00000000000000000000e+00) (0, 0, 0.00000000000000000000e+00) (0, 0, 0.00000000000000000000e+00) (0, 0, 0.00000000000000000000e+00) (0, 0, 0.00000000000000000000e+00) (0, 0, 0.00000000000000000000e+00) (0, 0, 0.00000000000000000000e+00) (7, 3, 5.00000000000000000000e-01) (7, 3, 5.00000000000000000000e-01) (7, 3, 5.00000000000000000000e-01) (7, 3, 5.00000000000000000000e-01) (7, 3, 5.00000000000000000000e-01) (7, 3, 5.00000000000000000000e-01) (7, 3, 5.00000000000000000000e-01) (7, 3, 5.00000000000000000000e-01) (0, 3, 0.00000000000000000000e+00) (9, 3, 5.00000000000000000000e-01) (9, 3, 5.00000000000000000000e-01) (9, 3, 5.00000000000000000000e-01) (9, 3, 5.00000000000000000000e-01) (9, 3, 5.00000000000000000000e-01) (9, 3, 5.00000000000000000000e-01) (9, 3, 5.00000000000000000000e-01) (9, 3, 5.00000000000000000000e-01) (0, 3, 0.00000000000000000000e+00) (9, 3, 5.00000000000000000000e-01) (0, 3, 0.00000000000000000000e+00) 
connections (connected_to_neuron, weight)=(0, -2.50626316070556640625e+01) (1, -7.69047439098358154297e-01) (2, -1.37145788574218750000e+03) (3, -7.05024169921875000000e+02) (4, 2.50224566459655761719e+00) (5, -1.36329089355468750000e+03) (6, 6.96692466735839843750e-01) (0, -3.58659477233886718750e+01) (1, 1.99368801116943359375e+01) (2, -1.23771447753906250000e+03) (3, 1.86065307617187500000e+02) (4, -1.45768493652343750000e+03) (5, 1.12243798828125000000e+03) (6, 4.54559624195098876953e-01) (0, -1.53188695907592773438e+01) (1, 1.44086561203002929688e+01) (2, -3.94120402634143829346e-02) (3, -1.95082092285156250000e+00) (4, -8.66566717624664306641e-01) (5, -1.46352490234375000000e+03) (6, 1.06368100643157958984e+00) (0, -2.27052612304687500000e+02) (1, 3.44882756471633911133e-01) (2, -1.37145788574218750000e+03) (3, -1.36647033691406250000e+03) (4, 1.04179428100585937500e+02) (5, -1.36329089355468750000e+03) (6, -1.77805633544921875000e+01) (0, 9.59731769561767578125e+00) (1, -1.09881038665771484375e+01) (2, 2.38569331169128417969e+00) (3, -3.19693064689636230469e+00) (4, -5.86615741252899169922e-01) (5, 5.50370073318481445312e+00) (6, -3.46635174751281738281e+00) (0, -1.21465222167968750000e+03) (1, 6.07597470283508300781e-01) (2, -1.37145788574218750000e+03) (3, -1.36647033691406250000e+03) (4, 1.04177246093750000000e+02) (5, -1.36329089355468750000e+03) (6, -3.67296943664550781250e+01) (0, -9.64372634887695312500e+00) (1, 4.23237991333007812500e+00) (2, -2.19250888824462890625e+01) (3, -3.75109982490539550781e+00) (4, -1.98908388614654541016e+00) (5, -1.47284887695312500000e+03) (6, 9.00418853759765625000e+00) (0, -1.96130867004394531250e+01) (1, 8.68042945861816406250e-01) (2, -1.37145788574218750000e+03) (3, 5.00737762451171875000e+00) (4, 1.05707359313964843750e+01) (5, -1.36329089355468750000e+03) (6, 3.97507405281066894531e+00) (7, 1.50000000000000000000e+03) (8, -1.46745458984375000000e+03) (9, -8.31005764007568359375e+00) (10, 1.50000000000000000000e+03) (11, 1.49306091308593750000e+03) (12, 1.50000000000000000000e+03) (13, 3.78246450424194335938e+00) (14, 1.50000000000000000000e+03) (15, -1.70209276676177978516e+00) (7, -5.50000000000000000000e+02) (8, -4.86556121826171875000e+02) (9, 1.49192932128906250000e+03) (10, 1.50000000000000000000e+03) (11, 1.45787536621093750000e+03) (12, 1.50000000000000000000e+03) (13, 1.25823486328125000000e+03) (14, -5.59199951171875000000e+02) (15, -1.14408617019653320312e+01) (7, 6.50000000000000000000e+02) (8, -5.42788269042968750000e+02) (9, 1.49439013671875000000e+03) (10, 1.50000000000000000000e+03) (11, 1.45698669433593750000e+03) (12, 1.50000000000000000000e+03) (13, 1.32819665527343750000e+03) (14, 1.58000488281250000000e+01) (15, -2.96400475502014160156e+00) (7, -1.50000000000000000000e+03) (8, -1.33467590332031250000e+03) (9, 1.49416577148437500000e+03) (10, 1.50000000000000000000e+03) (11, 1.45696801757812500000e+03) (12, 1.50000000000000000000e+03) (13, -4.16826782226562500000e+02) (14, -1.50000000000000000000e+03) (15, -2.51332610845565795898e-01) (7, 1.50000000000000000000e+03) (8, 2.68526434898376464844e+00) (9, 3.29868388175964355469e+00) (10, 1.50000000000000000000e+03) (11, 3.69800400733947753906e+00) (12, 1.50000000000000000000e+03) (13, 1.09841442108154296875e+00) (14, 1.50000000000000000000e+03) (15, -2.09590888023376464844e+00) (7, 1.50000000000000000000e+03) (8, 1.98348775506019592285e-01) (9, 4.97253227233886718750e+00) (10, 1.50000000000000000000e+03) (11, 5.19414043426513671875e+00) (12, 1.50000000000000000000e+03) (13, 8.55053067207336425781e-02) (14, 1.50000000000000000000e+03) (15, -3.60159420967102050781e+00) (7, -1.50000000000000000000e+03) (8, 1.23383032226562500000e+03) (9, -5.44383056640625000000e+02) (10, 1.50000000000000000000e+03) (11, 1.15941137695312500000e+03) (12, 1.50000000000000000000e+03) (13, -1.04510314941406250000e+03) (14, -1.50000000000000000000e+03) (15, 8.45455169677734375000e+00) (7, 1.50000000000000000000e+03) (8, -1.46597644042968750000e+03) (9, -5.82341718673706054688e+00) (10, 1.50000000000000000000e+03) (11, 1.49622229003906250000e+03) (12, 1.50000000000000000000e+03) (13, 2.61340856552124023438e+00) (14, 1.50000000000000000000e+03) (15, -1.75835859775543212891e+00) (16, -8.33789825439453125000e-01) (17, 2.36779764294624328613e-01) (18, 3.14133279025554656982e-02) (19, 1.19839504361152648926e-01) (20, -1.70081853866577148438e+00) (21, -5.82603359222412109375e+00) (22, 5.26045449078083038330e-02) (23, -5.60625851154327392578e-01) (24, -4.99999336898326873779e-02) 
