FANN_FLO_2.1
num_layers=3
learning_rate=0.500000
connection_rate=1.000000
network_type=0
learning_momentum=0.000000
training_algorithm=2
train_error_function=1
train_stop_function=0
cascade_output_change_fraction=0.010000
quickprop_decay=-0.000100
quickprop_mu=1.750000
rprop_increase_factor=1.200000
rprop_decrease_factor=0.500000
rprop_delta_min=0.000000
rprop_delta_max=50.000000
rprop_delta_zero=0.100000
cascade_output_stagnation_epochs=12
cascade_candidate_change_fraction=0.010000
cascade_candidate_stagnation_epochs=12
cascade_max_out_epochs=150
cascade_min_out_epochs=50
cascade_max_cand_epochs=150
cascade_min_cand_epochs=50
cascade_num_candidate_groups=2
bit_fail_limit=3.49999994039535522461e-01
cascade_candidate_limit=1.00000000000000000000e+03
cascade_weight_multiplier=4.00000005960464477539e-01
cascade_activation_functions_count=10
cascade_activation_functions=3 5 7 8 10 11 14 15 16 17 
cascade_activation_steepnesses_count=4
cascade_activation_steepnesses=2.50000000000000000000e-01 5.00000000000000000000e-01 7.50000000000000000000e-01 1.00000000000000000000e+00 
layer_sizes=10 3 2 
scale_included=0
neurons (num_inputs, activation_function, activation_steepness)=(0, 0, 0.00000000000000000000e+00) (0, 0, 0.00000000000000000000e+00) (0, 0, 0.00000000000000000000e+00) (0, 0, 0.00000000000000000000e+00) (0, 0, 0.00000000000000000000e+00) (0, 0, 0.00000000000000000000e+00) (0, 0, 0.00000000000000000000e+00) (0, 0, 0.00000000000000000000e+00) (0, 0, 0.00000000000000000000e+00) (0, 0, 0.00000000000000000000e+00) (10, 3, 5.00000000000000000000e-01) (10, 3, 5.00000000000000000000e-01) (0, 3, 0.00000000000000000000e+00) (3, 3, 5.00000000000000000000e-01) (0, 3, 0.00000000000000000000e+00) 
connections (connected_to_neuron, weight)=(0, 8.57907199859619140625e+00) (1, -2.89183712005615234375e+01) (2, -2.13980560302734375000e+01) (3, 6.94847059249877929688e+00) (4, 2.50158333778381347656e+00) (5, -2.19517126679420471191e-01) (6, 3.11302986145019531250e+01) (7, 8.17138016223907470703e-01) (8, 1.01205360889434814453e+00) (9, 2.58352208137512207031e+00) (0, 6.50814628601074218750e+00) (1, -4.13023662567138671875e+00) (2, 2.64329284667968750000e+02) (3, -2.06765182495117187500e+02) (4, -1.52988185882568359375e+01) (5, 5.01356983184814453125e+00) (6, -4.63728427886962890625e+00) (7, -1.06624782085418701172e+00) (8, 3.81224012374877929688e+00) (9, -7.05533361434936523438e+00) (10, -3.00797724723815917969e+00) (11, -3.04327011108398437500e+00) (12, 3.86075663566589355469e+00) 
