FANN_FLO_2.1
num_layers=3
learning_rate=0.400000
connection_rate=1.000000
network_type=0
learning_momentum=0.000000
training_algorithm=2
train_error_function=1
train_stop_function=0
cascade_output_change_fraction=0.010000
quickprop_decay=-0.000100
quickprop_mu=1.750000
rprop_increase_factor=1.200000
rprop_decrease_factor=0.500000
rprop_delta_min=0.000000
rprop_delta_max=50.000000
rprop_delta_zero=0.100000
cascade_output_stagnation_epochs=12
cascade_candidate_change_fraction=0.010000
cascade_candidate_stagnation_epochs=12
cascade_max_out_epochs=150
cascade_min_out_epochs=50
cascade_max_cand_epochs=150
cascade_min_cand_epochs=50
cascade_num_candidate_groups=2
bit_fail_limit=3.49999994039535522461e-01
cascade_candidate_limit=1.00000000000000000000e+03
cascade_weight_multiplier=4.00000005960464477539e-01
cascade_activation_functions_count=10
cascade_activation_functions=3 5 7 8 10 11 14 15 16 17 
cascade_activation_steepnesses_count=4
cascade_activation_steepnesses=2.50000000000000000000e-01 5.00000000000000000000e-01 7.50000000000000000000e-01 1.00000000000000000000e+00 
layer_sizes=19 3 3 
scale_included=0
neurons (num_inputs, activation_function, activation_steepness)=(0, 0, 0.00000000000000000000e+00) (0, 0, 0.00000000000000000000e+00) (0, 0, 0.00000000000000000000e+00) (0, 0, 0.00000000000000000000e+00) (0, 0, 0.00000000000000000000e+00) (0, 0, 0.00000000000000000000e+00) (0, 0, 0.00000000000000000000e+00) (0, 0, 0.00000000000000000000e+00) (0, 0, 0.00000000000000000000e+00) (0, 0, 0.00000000000000000000e+00) (0, 0, 0.00000000000000000000e+00) (0, 0, 0.00000000000000000000e+00) (0, 0, 0.00000000000000000000e+00) (0, 0, 0.00000000000000000000e+00) (0, 0, 0.00000000000000000000e+00) (0, 0, 0.00000000000000000000e+00) (0, 0, 0.00000000000000000000e+00) (0, 0, 0.00000000000000000000e+00) (0, 0, 0.00000000000000000000e+00) (19, 3, 5.00000000000000000000e-01) (19, 3, 5.00000000000000000000e-01) (0, 3, 0.00000000000000000000e+00) (3, 3, 5.00000000000000000000e-01) (3, 3, 5.00000000000000000000e-01) (0, 3, 0.00000000000000000000e+00) 
connections (connected_to_neuron, weight)=(0, -1.02596559524536132812e+01) (1, 9.74710464477539062500e+00) (2, 5.65296125411987304688e+00) (3, -1.26478424072265625000e+01) (4, 4.52546072006225585938e+00) (5, 3.07294321060180664062e+00) (6, 1.67192440032958984375e+01) (7, 4.71845483779907226562e+00) (8, 2.02725410461425781250e+01) (9, -5.08314275741577148438e+00) (10, 4.27230262756347656250e+00) (11, -1.04993934631347656250e+01) (12, -8.85140800476074218750e+00) (13, 4.21823215484619140625e+00) (14, -8.30059337615966796875e+00) (15, -2.90032291412353515625e+00) (16, -2.66696214675903320312e-01) (17, -3.46232652664184570312e+00) (18, 4.08935928344726562500e+00) (0, 1.86867082118988037109e+00) (1, -2.62263703346252441406e+00) (2, -4.49056053161621093750e+00) (3, 1.79745614528656005859e+00) (4, -5.94377636909484863281e-01) (5, -2.49632906913757324219e+00) (6, -3.23513555526733398438e+00) (7, -1.69819796085357666016e+00) (8, -6.25568056106567382812e+00) (9, 1.57725703716278076172e+00) (10, -2.34624609351158142090e-01) (11, 4.83961868286132812500e+00) (12, 2.10628676414489746094e+00) (13, -1.35802790522575378418e-01) (14, 2.62488770484924316406e+00) (15, 1.15095794200897216797e+00) (16, 3.12558650970458984375e-01) (17, 2.62466812133789062500e+00) (18, -2.67973041534423828125e+00) (19, -1.87842106819152832031e+00) (20, -2.98153448104858398438e+00) (21, 1.39386296272277832031e+00) (19, 1.87927389144897460938e+00) (20, 2.98248243331909179688e+00) (21, -1.39392352104187011719e+00) 
