FANN_FLO_2.1
num_layers=4
learning_rate=0.500000
connection_rate=1.000000
network_type=0
learning_momentum=0.000000
training_algorithm=2
train_error_function=1
train_stop_function=0
cascade_output_change_fraction=0.010000
quickprop_decay=-0.000100
quickprop_mu=1.750000
rprop_increase_factor=1.200000
rprop_decrease_factor=0.500000
rprop_delta_min=0.000000
rprop_delta_max=50.000000
rprop_delta_zero=0.100000
cascade_output_stagnation_epochs=12
cascade_candidate_change_fraction=0.010000
cascade_candidate_stagnation_epochs=12
cascade_max_out_epochs=150
cascade_min_out_epochs=50
cascade_max_cand_epochs=150
cascade_min_cand_epochs=50
cascade_num_candidate_groups=2
bit_fail_limit=3.49999994039535522461e-01
cascade_candidate_limit=1.00000000000000000000e+03
cascade_weight_multiplier=4.00000005960464477539e-01
cascade_activation_functions_count=10
cascade_activation_functions=3 5 7 8 10 11 14 15 16 17 
cascade_activation_steepnesses_count=4
cascade_activation_steepnesses=2.50000000000000000000e-01 5.00000000000000000000e-01 7.50000000000000000000e-01 1.00000000000000000000e+00 
layer_sizes=10 5 3 2 
scale_included=0
neurons (num_inputs, activation_function, activation_steepness)=(0, 0, 0.00000000000000000000e+00) (0, 0, 0.00000000000000000000e+00) (0, 0, 0.00000000000000000000e+00) (0, 0, 0.00000000000000000000e+00) (0, 0, 0.00000000000000000000e+00) (0, 0, 0.00000000000000000000e+00) (0, 0, 0.00000000000000000000e+00) (0, 0, 0.00000000000000000000e+00) (0, 0, 0.00000000000000000000e+00) (0, 0, 0.00000000000000000000e+00) (10, 3, 5.00000000000000000000e-01) (10, 3, 5.00000000000000000000e-01) (10, 3, 5.00000000000000000000e-01) (10, 3, 5.00000000000000000000e-01) (0, 3, 0.00000000000000000000e+00) (5, 3, 5.00000000000000000000e-01) (5, 3, 5.00000000000000000000e-01) (0, 3, 0.00000000000000000000e+00) (3, 3, 5.00000000000000000000e-01) (0, 3, 0.00000000000000000000e+00) 
connections (connected_to_neuron, weight)=(0, -1.34382143020629882812e+01) (1, -1.42204103469848632812e+01) (2, -1.00875549316406250000e+01) (3, 6.56158494949340820312e+00) (4, 9.09341716766357421875e+00) (5, -1.29039204120635986328e+00) (6, 1.23439226150512695312e+01) (7, 1.49753892421722412109e+00) (8, 1.10003054141998291016e+00) (9, 6.64248287677764892578e-01) (0, -1.54316830635070800781e+00) (1, 4.16586518287658691406e-01) (2, 1.11820888519287109375e+00) (3, 2.68568205833435058594e+00) (4, -3.64364981651306152344e-01) (5, 1.59111289978027343750e+01) (6, 9.98577177524566650391e-02) (7, -1.51519584655761718750e+01) (8, -3.88952922821044921875e+00) (9, 4.11732703447341918945e-01) (0, 4.15607362985610961914e-01) (1, 8.48242950439453125000e+00) (2, 1.62419903278350830078e+00) (3, -2.50228786468505859375e+00) (4, 2.76091980934143066406e+00) (5, 7.75917291641235351562e-01) (6, -9.56116294860839843750e+00) (7, -1.07968068122863769531e+00) (8, 4.65818554162979125977e-01) (9, 2.22438144683837890625e+00) (0, -7.78093814849853515625e+00) (1, 2.92198681831359863281e+00) (2, 1.22310924530029296875e+00) (3, 1.11564300954341888428e-01) (4, 3.32877898216247558594e+00) (5, 9.52357006072998046875e+00) (6, -1.62401847839355468750e+01) (7, -3.88869732618331909180e-01) (8, 1.40050992369651794434e-01) (9, 7.36685037612915039062e-01) (10, 1.03400230407714843750e+01) (11, 6.79338073730468750000e+00) (12, -4.54726505279541015625e+00) (13, 6.28372001647949218750e+00) (14, -8.41446757316589355469e-01) (10, 1.03182277679443359375e+01) (11, 7.16716003417968750000e+00) (12, -4.69584035873413085938e+00) (13, 9.08637619018554687500e+00) (14, -9.36346888542175292969e-01) (15, 1.34098958969116210938e+00) (16, 1.39646637439727783203e+00) (17, -1.86420154571533203125e+00) 
