FANN_FLO_2.1
num_layers=4
learning_rate=0.500000
connection_rate=1.000000
network_type=0
learning_momentum=0.000000
training_algorithm=2
train_error_function=1
train_stop_function=0
cascade_output_change_fraction=0.010000
quickprop_decay=-0.000100
quickprop_mu=1.750000
rprop_increase_factor=1.200000
rprop_decrease_factor=0.500000
rprop_delta_min=0.000000
rprop_delta_max=50.000000
rprop_delta_zero=0.100000
cascade_output_stagnation_epochs=12
cascade_candidate_change_fraction=0.010000
cascade_candidate_stagnation_epochs=12
cascade_max_out_epochs=150
cascade_min_out_epochs=50
cascade_max_cand_epochs=150
cascade_min_cand_epochs=50
cascade_num_candidate_groups=2
bit_fail_limit=3.49999994039535522461e-01
cascade_candidate_limit=1.00000000000000000000e+03
cascade_weight_multiplier=4.00000005960464477539e-01
cascade_activation_functions_count=10
cascade_activation_functions=3 5 7 8 10 11 14 15 16 17 
cascade_activation_steepnesses_count=4
cascade_activation_steepnesses=2.50000000000000000000e-01 5.00000000000000000000e-01 7.50000000000000000000e-01 1.00000000000000000000e+00 
layer_sizes=10 9 5 2 
scale_included=0
neurons (num_inputs, activation_function, activation_steepness)=(0, 0, 0.00000000000000000000e+00) (0, 0, 0.00000000000000000000e+00) (0, 0, 0.00000000000000000000e+00) (0, 0, 0.00000000000000000000e+00) (0, 0, 0.00000000000000000000e+00) (0, 0, 0.00000000000000000000e+00) (0, 0, 0.00000000000000000000e+00) (0, 0, 0.00000000000000000000e+00) (0, 0, 0.00000000000000000000e+00) (0, 0, 0.00000000000000000000e+00) (10, 3, 5.00000000000000000000e-01) (10, 3, 5.00000000000000000000e-01) (10, 3, 5.00000000000000000000e-01) (10, 3, 5.00000000000000000000e-01) (10, 3, 5.00000000000000000000e-01) (10, 3, 5.00000000000000000000e-01) (10, 3, 5.00000000000000000000e-01) (10, 3, 5.00000000000000000000e-01) (0, 3, 0.00000000000000000000e+00) (9, 3, 5.00000000000000000000e-01) (9, 3, 5.00000000000000000000e-01) (9, 3, 5.00000000000000000000e-01) (9, 3, 5.00000000000000000000e-01) (0, 3, 0.00000000000000000000e+00) (5, 3, 5.00000000000000000000e-01) (0, 3, 0.00000000000000000000e+00) 
connections (connected_to_neuron, weight)=(0, -2.75963366031646728516e-01) (1, -1.50171220302581787109e-01) (2, 5.44112730026245117188e+00) (3, -9.39602375030517578125e-01) (4, 3.91721129417419433594e-01) (5, 9.99327301979064941406e-01) (6, -6.86633944511413574219e-01) (7, -6.38232421875000000000e+00) (8, -6.90207004547119140625e+00) (9, 1.00669896602630615234e+00) (0, -6.12569284439086914062e+00) (1, -7.92882025241851806641e-01) (2, -1.28990192413330078125e+01) (3, 3.40859460830688476562e+00) (4, 2.05025032162666320801e-01) (5, -4.35431957244873046875e+00) (6, 1.47166595458984375000e+01) (7, -8.94729718565940856934e-02) (8, -8.98908913135528564453e-01) (9, 3.19052487611770629883e-01) (0, -2.27950409054756164551e-01) (1, 9.43167805671691894531e-02) (2, 5.44016361236572265625e+00) (3, -9.63309228420257568359e-01) (4, 2.10673823952674865723e-01) (5, 1.12808907032012939453e+00) (6, -6.88341081142425537109e-01) (7, -6.37693595886230468750e+00) (8, -7.10995578765869140625e+00) (9, 9.91579890251159667969e-01) (0, 2.50239448547363281250e+01) (1, 1.08059167861938476562e+01) (2, 6.80034729003906250000e+02) (3, 2.04327273368835449219e+00) (4, 4.83705854415893554688e+00) (5, 6.40697692871093750000e+02) (6, 9.73860085010528564453e-01) (7, 1.31848297119140625000e+01) (8, 1.04609228515625000000e+03) (9, 2.29524469375610351562e+00) (0, -9.82337760925292968750e+00) (1, -2.80927038192749023438e+00) (2, -1.13897621631622314453e+00) (3, 2.41475129127502441406e+00) (4, 9.31585356593132019043e-02) (5, -3.64826679229736328125e+00) (6, 9.45400905609130859375e+00) (7, -7.31093406677246093750e-01) (8, -1.59856355190277099609e+00) (9, 4.25696045160293579102e-01) (0, -5.51421761512756347656e-01) (1, -8.04049134254455566406e-01) (2, -9.87362957000732421875e+00) (3, 2.17219805717468261719e+00) (4, 9.73840802907943725586e-02) (5, -1.22040522098541259766e+00) (6, 2.70498228073120117188e+00) (7, -1.51369590312242507935e-02) (8, -1.77435207366943359375e+00) (9, 1.06171190738677978516e-01) (0, -4.95215386152267456055e-01) (1, 2.86349743604660034180e-01) (2, -1.19287848472595214844e+00) (3, 7.56321251392364501953e-01) (4, 5.77754616737365722656e-01) (5, -6.18192338943481445312e+00) (6, 4.69936013221740722656e-01) (7, -1.39713394641876220703e+00) (8, -1.44476184844970703125e+01) (9, 1.24310493469238281250e+00) (0, 5.77611505985260009766e-01) (1, 2.41110372543334960938e+00) (2, 1.91335058212280273438e+00) (3, 3.76510739326477050781e-01) (4, 1.26525774598121643066e-01) (5, 1.45897805690765380859e+00) (6, 1.35466575622558593750e-01) (7, -1.85549736022949218750e+00) (8, -1.28311290740966796875e+01) (9, 1.76463174819946289062e+00) (10, 8.77465896606445312500e+01) (11, 5.02720375061035156250e+01) (12, 8.77778701782226562500e+01) (13, -1.50675606727600097656e+00) (14, 7.42674484252929687500e+01) (15, -3.34157228469848632812e+00) (16, -1.63327846527099609375e+01) (17, 3.01394224166870117188e+00) (18, -2.65318813323974609375e+01) (10, 1.14353208541870117188e+01) (11, 8.57022476196289062500e+00) (12, 1.14370794296264648438e+01) (13, -4.10967111587524414062e-01) (14, 7.67409467697143554688e+00) (15, -3.51847410202026367188e+00) (16, -1.10885028839111328125e+01) (17, 1.01359128952026367188e+01) (18, -4.14545965194702148438e+00) (10, 8.77389144897460937500e+01) (11, 5.01404380798339843750e+01) (12, 8.77581558227539062500e+01) (13, -1.58699440956115722656e+00) (14, 7.42247314453125000000e+01) (15, -3.85430812835693359375e+00) (16, -1.62023735046386718750e+01) (17, 2.94740581512451171875e+00) (18, -2.64317989349365234375e+01) (10, 1.23370037078857421875e+01) (11, 1.43411951065063476562e+01) (12, 1.23152685165405273438e+01) (13, -5.32195210456848144531e-01) (14, 1.06869087219238281250e+01) (15, -1.00310459136962890625e+01) (16, -1.80941238403320312500e+01) (17, 9.79638481140136718750e+00) (18, -4.19791507720947265625e+00) (19, 5.55892765522003173828e-01) (20, 2.47828692197799682617e-01) (21, 5.50529360771179199219e-01) (22, 2.93129116296768188477e-01) (23, -7.77798771858215332031e-01) 
