FANN_FLO_2.1
num_layers=4
learning_rate=0.500000
connection_rate=1.000000
network_type=0
learning_momentum=0.000000
training_algorithm=2
train_error_function=1
train_stop_function=0
cascade_output_change_fraction=0.010000
quickprop_decay=-0.000100
quickprop_mu=1.750000
rprop_increase_factor=1.200000
rprop_decrease_factor=0.500000
rprop_delta_min=0.000000
rprop_delta_max=50.000000
rprop_delta_zero=0.100000
cascade_output_stagnation_epochs=12
cascade_candidate_change_fraction=0.010000
cascade_candidate_stagnation_epochs=12
cascade_max_out_epochs=150
cascade_min_out_epochs=50
cascade_max_cand_epochs=150
cascade_min_cand_epochs=50
cascade_num_candidate_groups=2
bit_fail_limit=3.49999994039535522461e-01
cascade_candidate_limit=1.00000000000000000000e+03
cascade_weight_multiplier=4.00000005960464477539e-01
cascade_activation_functions_count=10
cascade_activation_functions=3 5 7 8 10 11 14 15 16 17 
cascade_activation_steepnesses_count=4
cascade_activation_steepnesses=2.50000000000000000000e-01 5.00000000000000000000e-01 7.50000000000000000000e-01 1.00000000000000000000e+00 
layer_sizes=2 5 3 3 
scale_included=0
neurons (num_inputs, activation_function, activation_steepness)=(0, 0, 0.00000000000000000000e+00) (0, 0, 0.00000000000000000000e+00) (2, 3, 5.00000000000000000000e-01) (2, 3, 5.00000000000000000000e-01) (2, 3, 5.00000000000000000000e-01) (2, 3, 5.00000000000000000000e-01) (0, 3, 0.00000000000000000000e+00) (5, 3, 5.00000000000000000000e-01) (5, 3, 5.00000000000000000000e-01) (0, 3, 0.00000000000000000000e+00) (3, 0, 5.00000000000000000000e-01) (3, 0, 5.00000000000000000000e-01) (0, 0, 0.00000000000000000000e+00) 
connections (connected_to_neuron, weight)=(0, 1.50000000000000000000e+03) (1, -2.20816543579101562500e+02) (0, -8.96750869750976562500e+01) (1, 3.07116336822509765625e+01) (0, -7.63496475219726562500e+01) (1, 2.68796272277832031250e+01) (0, 1.50000000000000000000e+03) (1, -1.56427886962890625000e+02) (2, 1.50000000000000000000e+03) (3, 4.13080120086669921875e+00) (4, 5.18413400650024414062e+00) (5, 1.50000000000000000000e+03) (6, -1.18523159027099609375e+01) (2, 1.49650341796875000000e+03) (3, -1.49980041503906250000e+03) (4, -1.49980041503906250000e+03) (5, 1.49947375488281250000e+03) (6, 2.65091252326965332031e+00) (7, -1.55395233631134033203e+00) (8, 2.96690464019775390625e-01) (9, -1.53604865074157714844e-01) (7, -6.64407551288604736328e-01) (8, -2.53228330612182617188e+00) (9, 1.97665810585021972656e+00) 
