FANN_FLO_2.1
num_layers=4
learning_rate=0.400000
connection_rate=1.000000
network_type=0
learning_momentum=0.000000
training_algorithm=2
train_error_function=1
train_stop_function=0
cascade_output_change_fraction=0.010000
quickprop_decay=-0.000100
quickprop_mu=1.750000
rprop_increase_factor=1.200000
rprop_decrease_factor=0.500000
rprop_delta_min=0.000000
rprop_delta_max=50.000000
rprop_delta_zero=0.100000
cascade_output_stagnation_epochs=12
cascade_candidate_change_fraction=0.010000
cascade_candidate_stagnation_epochs=12
cascade_max_out_epochs=150
cascade_min_out_epochs=50
cascade_max_cand_epochs=150
cascade_min_cand_epochs=50
cascade_num_candidate_groups=2
bit_fail_limit=3.49999994039535522461e-01
cascade_candidate_limit=1.00000000000000000000e+03
cascade_weight_multiplier=4.00000005960464477539e-01
cascade_activation_functions_count=10
cascade_activation_functions=3 5 7 8 10 11 14 15 16 17 
cascade_activation_steepnesses_count=4
cascade_activation_steepnesses=2.50000000000000000000e-01 5.00000000000000000000e-01 7.50000000000000000000e-01 1.00000000000000000000e+00 
layer_sizes=7 5 3 2 
scale_included=0
neurons (num_inputs, activation_function, activation_steepness)=(0, 0, 0.00000000000000000000e+00) (0, 0, 0.00000000000000000000e+00) (0, 0, 0.00000000000000000000e+00) (0, 0, 0.00000000000000000000e+00) (0, 0, 0.00000000000000000000e+00) (0, 0, 0.00000000000000000000e+00) (0, 0, 0.00000000000000000000e+00) (7, 3, 5.00000000000000000000e-01) (7, 3, 5.00000000000000000000e-01) (7, 3, 5.00000000000000000000e-01) (7, 3, 5.00000000000000000000e-01) (0, 3, 0.00000000000000000000e+00) (5, 3, 5.00000000000000000000e-01) (5, 3, 5.00000000000000000000e-01) (0, 3, 0.00000000000000000000e+00) (3, 3, 5.00000000000000000000e-01) (0, 3, 0.00000000000000000000e+00) 
connections (connected_to_neuron, weight)=(0, 6.32337463378906250000e+02) (1, -1.27944177246093750000e+03) (2, -1.35737805175781250000e+03) (3, -1.33964306640625000000e+03) (4, 2.57314270019531250000e+02) (5, 9.64071411132812500000e+02) (6, -2.18281459808349609375e+00) (0, -1.43458081054687500000e+03) (1, -5.32851013183593750000e+02) (2, -1.40120507812500000000e+03) (3, 3.98873779296875000000e+02) (4, 8.58148986816406250000e+02) (5, 9.88872375488281250000e+02) (6, 9.28343582153320312500e+00) (0, -8.84372520446777343750e+00) (1, 7.78255367279052734375e+00) (2, 1.05437870025634765625e+01) (3, -1.26547651290893554688e+01) (4, -5.19197225570678710938e+00) (5, 1.65523719787597656250e+00) (6, 4.29750013351440429688e+00) (0, -1.43458081054687500000e+03) (1, -5.32851013183593750000e+02) (2, -1.40120507812500000000e+03) (3, 3.98873779296875000000e+02) (4, 8.58148986816406250000e+02) (5, 9.88872375488281250000e+02) (6, 9.28021621704101562500e+00) (7, 5.47881584167480468750e+01) (8, -1.16235103607177734375e+01) (9, 1.50000000000000000000e+03) (10, -1.16235103607177734375e+01) (11, -2.64571609497070312500e+01) (7, 1.50000000000000000000e+03) (8, 3.55079698562622070312e+00) (9, 1.50000000000000000000e+03) (10, 3.55079698562622070312e+00) (11, -7.37446069717407226562e-01) (12, -1.19877529144287109375e+00) (13, -9.53923285007476806641e-01) (14, -9.73448991775512695312e-01) 
