FANN_FLO_2.1
num_layers=3
learning_rate=0.500000
connection_rate=1.000000
network_type=0
learning_momentum=0.000000
training_algorithm=2
train_error_function=1
train_stop_function=0
cascade_output_change_fraction=0.010000
quickprop_decay=-0.000100
quickprop_mu=1.750000
rprop_increase_factor=1.200000
rprop_decrease_factor=0.500000
rprop_delta_min=0.000000
rprop_delta_max=50.000000
rprop_delta_zero=0.100000
cascade_output_stagnation_epochs=12
cascade_candidate_change_fraction=0.010000
cascade_candidate_stagnation_epochs=12
cascade_max_out_epochs=150
cascade_min_out_epochs=50
cascade_max_cand_epochs=150
cascade_min_cand_epochs=50
cascade_num_candidate_groups=2
bit_fail_limit=3.49999994039535522461e-01
cascade_candidate_limit=1.00000000000000000000e+03
cascade_weight_multiplier=4.00000005960464477539e-01
cascade_activation_functions_count=10
cascade_activation_functions=3 5 7 8 10 11 14 15 16 17 
cascade_activation_steepnesses_count=4
cascade_activation_steepnesses=2.50000000000000000000e-01 5.00000000000000000000e-01 7.50000000000000000000e-01 1.00000000000000000000e+00 
layer_sizes=10 9 2 
scale_included=0
neurons (num_inputs, activation_function, activation_steepness)=(0, 0, 0.00000000000000000000e+00) (0, 0, 0.00000000000000000000e+00) (0, 0, 0.00000000000000000000e+00) (0, 0, 0.00000000000000000000e+00) (0, 0, 0.00000000000000000000e+00) (0, 0, 0.00000000000000000000e+00) (0, 0, 0.00000000000000000000e+00) (0, 0, 0.00000000000000000000e+00) (0, 0, 0.00000000000000000000e+00) (0, 0, 0.00000000000000000000e+00) (10, 3, 5.00000000000000000000e-01) (10, 3, 5.00000000000000000000e-01) (10, 3, 5.00000000000000000000e-01) (10, 3, 5.00000000000000000000e-01) (10, 3, 5.00000000000000000000e-01) (10, 3, 5.00000000000000000000e-01) (10, 3, 5.00000000000000000000e-01) (10, 3, 5.00000000000000000000e-01) (0, 3, 0.00000000000000000000e+00) (9, 3, 5.00000000000000000000e-01) (0, 3, 0.00000000000000000000e+00) 
connections (connected_to_neuron, weight)=(0, 2.13874650001525878906e+00) (1, 2.17741060256958007812e+00) (2, 5.99257612228393554688e+00) (3, 5.47597706317901611328e-01) (4, 2.13116478919982910156e+00) (5, 4.37206745147705078125e+00) (6, -4.04927682876586914062e+00) (7, -1.53792448043823242188e+01) (8, -7.95312166213989257812e+00) (9, 2.03232526779174804688e+00) (0, -5.81158304214477539062e+00) (1, 2.41221293807029724121e-01) (2, 3.46396446228027343750e+00) (3, -1.53714275360107421875e+00) (4, -4.66307736933231353760e-02) (5, -5.17151927947998046875e+00) (6, -2.77604967355728149414e-01) (7, -2.11664009094238281250e+00) (8, -1.70125520229339599609e+00) (9, 1.77398586273193359375e+00) (0, -4.44146394729614257812e+00) (1, -2.24457532167434692383e-01) (2, -1.50000000000000000000e+03) (3, -3.78782510757446289062e+00) (4, -1.20743012428283691406e+00) (5, -1.50000000000000000000e+03) (6, 2.66921830177307128906e+00) (7, -3.71315509080886840820e-01) (8, -1.50000000000000000000e+03) (9, 3.18518131971359252930e-01) (0, -3.14914822578430175781e+00) (1, -2.10060572624206542969e+00) (2, -2.28406763076782226562e+00) (3, 8.23896217346191406250e+00) (4, 1.05576109886169433594e+00) (5, -5.12431287765502929688e+00) (6, 3.33717197179794311523e-01) (7, 1.47346627712249755859e+00) (8, -2.51971483230590820312e+00) (9, 1.74938166141510009766e+00) (0, 1.50000000000000000000e+03) (1, 1.50000000000000000000e+03) (2, 1.50000000000000000000e+03) (3, 1.50000000000000000000e+03) (4, 1.50000000000000000000e+03) (5, 1.50000000000000000000e+03) (6, 1.50000000000000000000e+03) (7, 1.50000000000000000000e+03) (8, 1.50000000000000000000e+03) (9, 6.99346601963043212891e-01) (0, -5.21821355819702148438e+00) (1, -1.12870585918426513672e+00) (2, -4.70659703016281127930e-01) (3, 1.48233640193939208984e+00) (4, 5.24791896343231201172e-01) (5, -5.09780228137969970703e-01) (6, 1.41107618808746337891e+00) (7, 2.33917522430419921875e+00) (8, -9.10843193531036376953e-01) (9, 4.54242050647735595703e-01) (0, -2.16941571235656738281e+00) (1, -9.37302529811859130859e-01) (2, -6.72698616981506347656e-01) (3, 3.00004839897155761719e+00) (4, 4.17448073625564575195e-01) (5, -5.01887738704681396484e-01) (6, -5.34095525741577148438e-01) (7, -2.19527053833007812500e+00) (8, -1.95475316047668457031e+00) (9, 1.79684412479400634766e+00) (0, -1.16042280197143554688e+00) (1, -7.87838160991668701172e-01) (2, -6.92959606647491455078e-01) (3, 2.90390372276306152344e+00) (4, 2.51271039247512817383e-01) (5, -1.71979874372482299805e-01) (6, -3.45898687839508056641e-01) (7, -2.57443213462829589844e+00) (8, -3.54133462905883789062e+00) (9, 1.73550724983215332031e+00) (10, 2.69144058227539062500e+00) (11, 1.89287221431732177734e+00) (12, 3.23722934722900390625e+00) (13, 1.48328232765197753906e+00) (14, -1.59191682934761047363e-01) (15, 1.38579976558685302734e+00) (16, 9.14994001388549804688e-01) (17, 8.15850377082824707031e-01) (18, -2.70982503890991210938e+00) 
