FANN_FLO_2.1
num_layers=4
learning_rate=0.500000
connection_rate=1.000000
network_type=0
learning_momentum=0.000000
training_algorithm=2
train_error_function=1
train_stop_function=0
cascade_output_change_fraction=0.010000
quickprop_decay=-0.000100
quickprop_mu=1.750000
rprop_increase_factor=1.200000
rprop_decrease_factor=0.500000
rprop_delta_min=0.000000
rprop_delta_max=50.000000
rprop_delta_zero=0.100000
cascade_output_stagnation_epochs=12
cascade_candidate_change_fraction=0.010000
cascade_candidate_stagnation_epochs=12
cascade_max_out_epochs=150
cascade_min_out_epochs=50
cascade_max_cand_epochs=150
cascade_min_cand_epochs=50
cascade_num_candidate_groups=2
bit_fail_limit=3.49999994039535522461e-01
cascade_candidate_limit=1.00000000000000000000e+03
cascade_weight_multiplier=4.00000005960464477539e-01
cascade_activation_functions_count=10
cascade_activation_functions=3 5 7 8 10 11 14 15 16 17 
cascade_activation_steepnesses_count=4
cascade_activation_steepnesses=2.50000000000000000000e-01 5.00000000000000000000e-01 7.50000000000000000000e-01 1.00000000000000000000e+00 
layer_sizes=10 3 3 2 
scale_included=0
neurons (num_inputs, activation_function, activation_steepness)=(0, 0, 0.00000000000000000000e+00) (0, 0, 0.00000000000000000000e+00) (0, 0, 0.00000000000000000000e+00) (0, 0, 0.00000000000000000000e+00) (0, 0, 0.00000000000000000000e+00) (0, 0, 0.00000000000000000000e+00) (0, 0, 0.00000000000000000000e+00) (0, 0, 0.00000000000000000000e+00) (0, 0, 0.00000000000000000000e+00) (0, 0, 0.00000000000000000000e+00) (10, 3, 5.00000000000000000000e-01) (10, 3, 5.00000000000000000000e-01) (0, 3, 0.00000000000000000000e+00) (3, 3, 5.00000000000000000000e-01) (3, 3, 5.00000000000000000000e-01) (0, 3, 0.00000000000000000000e+00) (3, 3, 5.00000000000000000000e-01) (0, 3, 0.00000000000000000000e+00) 
connections (connected_to_neuron, weight)=(0, -1.20762729644775390625e+00) (1, -2.09839749336242675781e+00) (2, -5.22221469879150390625e+00) (3, 1.39587783813476562500e+01) (4, 2.58296108245849609375e+00) (5, -6.52402114868164062500e+00) (6, 6.78798103332519531250e+00) (7, 3.39178025722503662109e-01) (8, -1.62598896026611328125e+01) (9, 4.78043138980865478516e-01) (0, 3.77515405416488647461e-02) (1, 1.04746360778808593750e+01) (2, 1.96984839439392089844e+00) (3, -1.24526052474975585938e+01) (4, -4.04516220092773437500e+00) (5, 1.37822647094726562500e+01) (6, -7.82363462448120117188e+00) (7, 1.15658009052276611328e+00) (8, 1.21004439890384674072e-01) (9, -4.57955169677734375000e+00) (10, 2.06660594940185546875e+01) (11, 1.40242538452148437500e+01) (12, -8.90658950805664062500e+00) (10, 2.61745147705078125000e+01) (11, 7.35094909667968750000e+01) (12, -6.86348915100097656250e+00) (13, 1.50311231613159179688e+00) (14, 1.10856509208679199219e+00) (15, -1.72999560832977294922e+00) 
