FANN_FLO_2.1
num_layers=3
learning_rate=0.400000
connection_rate=1.000000
network_type=0
learning_momentum=0.000000
training_algorithm=2
train_error_function=1
train_stop_function=0
cascade_output_change_fraction=0.010000
quickprop_decay=-0.000100
quickprop_mu=1.750000
rprop_increase_factor=1.200000
rprop_decrease_factor=0.500000
rprop_delta_min=0.000000
rprop_delta_max=50.000000
rprop_delta_zero=0.100000
cascade_output_stagnation_epochs=12
cascade_candidate_change_fraction=0.010000
cascade_candidate_stagnation_epochs=12
cascade_max_out_epochs=150
cascade_min_out_epochs=50
cascade_max_cand_epochs=150
cascade_min_cand_epochs=50
cascade_num_candidate_groups=2
bit_fail_limit=3.49999994039535522461e-01
cascade_candidate_limit=1.00000000000000000000e+03
cascade_weight_multiplier=4.00000005960464477539e-01
cascade_activation_functions_count=10
cascade_activation_functions=3 5 7 8 10 11 14 15 16 17 
cascade_activation_steepnesses_count=4
cascade_activation_steepnesses=2.50000000000000000000e-01 5.00000000000000000000e-01 7.50000000000000000000e-01 1.00000000000000000000e+00 
layer_sizes=7 9 2 
scale_included=0
neurons (num_inputs, activation_function, activation_steepness)=(0, 0, 0.00000000000000000000e+00) (0, 0, 0.00000000000000000000e+00) (0, 0, 0.00000000000000000000e+00) (0, 0, 0.00000000000000000000e+00) (0, 0, 0.00000000000000000000e+00) (0, 0, 0.00000000000000000000e+00) (0, 0, 0.00000000000000000000e+00) (7, 3, 5.00000000000000000000e-01) (7, 3, 5.00000000000000000000e-01) (7, 3, 5.00000000000000000000e-01) (7, 3, 5.00000000000000000000e-01) (7, 3, 5.00000000000000000000e-01) (7, 3, 5.00000000000000000000e-01) (7, 3, 5.00000000000000000000e-01) (7, 3, 5.00000000000000000000e-01) (0, 3, 0.00000000000000000000e+00) (9, 3, 5.00000000000000000000e-01) (0, 3, 0.00000000000000000000e+00) 
connections (connected_to_neuron, weight)=(0, -8.88917148113250732422e-01) (1, -2.11784577369689941406e+00) (2, -1.86142861843109130859e+00) (3, 2.09005069732666015625e+00) (4, -2.17287942767143249512e-01) (5, 6.22514200210571289062e+00) (6, -2.72153043746948242188e+00) (0, -2.57318049669265747070e-01) (1, -2.17556715011596679688e+00) (2, -1.89235329627990722656e+00) (3, 1.66269838809967041016e+00) (4, -2.06979423761367797852e-01) (5, 3.71110224723815917969e+00) (6, -1.71465945243835449219e+00) (0, -5.63677132129669189453e-01) (1, -2.05707812309265136719e+00) (2, -1.36244428157806396484e+00) (3, 1.80270469188690185547e+00) (4, 3.92379574477672576904e-02) (5, 3.10875654220581054688e+00) (6, -1.44765615463256835938e+00) (0, -2.45915198326110839844e+00) (1, -1.27836358547210693359e+00) (2, 4.68222379684448242188e+00) (3, 1.80065378546714782715e-01) (4, 7.61846005916595458984e-01) (5, 2.39151120185852050781e+00) (6, -1.33963704109191894531e+00) (0, -3.49929475784301757812e+00) (1, -6.66966199874877929688e+00) (2, -2.69059133529663085938e+00) (3, 1.83750295639038085938e+00) (4, 2.80895996093750000000e+00) (5, 2.43565082550048828125e+00) (6, -1.69155752658843994141e+00) (0, 9.98237073421478271484e-01) (1, 3.17178189754486083984e-01) (2, -1.83390820026397705078e+00) (3, -1.86083614826202392578e+00) (4, -1.51648366451263427734e+00) (5, 1.79957127571105957031e+00) (6, 2.34214329719543457031e+00) (0, -3.09262096881866455078e-01) (1, -2.17112016677856445312e+00) (2, -1.62071883678436279297e+00) (3, 1.93606686592102050781e+00) (4, -9.28387105464935302734e-01) (5, 4.32487726211547851562e+00) (6, -1.57781469821929931641e+00) (0, 3.12704539299011230469e+00) (1, 4.52973842620849609375e-01) (2, -5.88649797439575195312e+00) (3, -1.69946587085723876953e+00) (4, -6.73178291320800781250e+00) (5, 1.48719120025634765625e+01) (6, 1.00109219551086425781e+00) (7, 2.01636815071105957031e+00) (8, 8.10943841934204101562e-01) (9, 6.75963521003723144531e-01) (10, 1.00416493415832519531e+00) (11, 2.39220881462097167969e+00) (12, -1.65671110153198242188e+00) (13, 8.55028867721557617188e-01) (14, -2.74814152717590332031e+00) (15, -3.36514636874198913574e-02) 
