FANN_FLO_2.1
num_layers=4
learning_rate=0.500000
connection_rate=1.000000
network_type=0
learning_momentum=0.000000
training_algorithm=2
train_error_function=1
train_stop_function=0
cascade_output_change_fraction=0.010000
quickprop_decay=-0.000100
quickprop_mu=1.750000
rprop_increase_factor=1.200000
rprop_decrease_factor=0.500000
rprop_delta_min=0.000000
rprop_delta_max=50.000000
rprop_delta_zero=0.100000
cascade_output_stagnation_epochs=12
cascade_candidate_change_fraction=0.010000
cascade_candidate_stagnation_epochs=12
cascade_max_out_epochs=150
cascade_min_out_epochs=50
cascade_max_cand_epochs=150
cascade_min_cand_epochs=50
cascade_num_candidate_groups=2
bit_fail_limit=3.49999994039535522461e-01
cascade_candidate_limit=1.00000000000000000000e+03
cascade_weight_multiplier=4.00000005960464477539e-01
cascade_activation_functions_count=10
cascade_activation_functions=3 5 7 8 10 11 14 15 16 17 
cascade_activation_steepnesses_count=4
cascade_activation_steepnesses=2.50000000000000000000e-01 5.00000000000000000000e-01 7.50000000000000000000e-01 1.00000000000000000000e+00 
layer_sizes=10 5 5 2 
scale_included=0
neurons (num_inputs, activation_function, activation_steepness)=(0, 0, 0.00000000000000000000e+00) (0, 0, 0.00000000000000000000e+00) (0, 0, 0.00000000000000000000e+00) (0, 0, 0.00000000000000000000e+00) (0, 0, 0.00000000000000000000e+00) (0, 0, 0.00000000000000000000e+00) (0, 0, 0.00000000000000000000e+00) (0, 0, 0.00000000000000000000e+00) (0, 0, 0.00000000000000000000e+00) (0, 0, 0.00000000000000000000e+00) (10, 3, 5.00000000000000000000e-01) (10, 3, 5.00000000000000000000e-01) (10, 3, 5.00000000000000000000e-01) (10, 3, 5.00000000000000000000e-01) (0, 3, 0.00000000000000000000e+00) (5, 3, 5.00000000000000000000e-01) (5, 3, 5.00000000000000000000e-01) (5, 3, 5.00000000000000000000e-01) (5, 3, 5.00000000000000000000e-01) (0, 3, 0.00000000000000000000e+00) (5, 3, 5.00000000000000000000e-01) (0, 3, 0.00000000000000000000e+00) 
connections (connected_to_neuron, weight)=(0, 1.52453088760375976562e+01) (1, -1.53475475311279296875e+00) (2, 6.93499877929687500000e+02) (3, 2.70572453737258911133e-01) (4, -5.19471502304077148438e+00) (5, -6.89050064086914062500e+01) (6, -3.79691410064697265625e+00) (7, 3.88014197349548339844e+00) (8, 1.49904003906250000000e+03) (9, -4.06202173233032226562e+00) (0, 2.04308242797851562500e+01) (1, -1.68400001525878906250e+00) (2, 5.55014324188232421875e+00) (3, 1.13551847636699676514e-01) (4, -1.25617063045501708984e+00) (5, 1.44812476634979248047e+00) (6, -3.78227448463439941406e+00) (7, 4.00808143615722656250e+00) (8, -2.68347034454345703125e+01) (9, 3.43528747558593750000e+00) (0, -2.53219580650329589844e+00) (1, -7.33628749847412109375e+00) (2, -1.10267782211303710938e+01) (3, 1.09307579696178436279e-01) (4, -9.15879845619201660156e-01) (5, 1.52480611801147460938e+01) (6, 1.47089147567749023438e+00) (7, 8.53370571136474609375e+00) (8, 3.64009618759155273438e+00) (9, -9.32925999164581298828e-01) (0, 1.50000000000000000000e+03) (1, 1.50000000000000000000e+03) (2, 1.50000000000000000000e+03) (3, -1.13236641883850097656e+00) (4, 1.49996069335937500000e+03) (5, 1.49998107910156250000e+03) (6, -1.28860009765625000000e+03) (7, -1.48830224609375000000e+03) (8, 1.49904003906250000000e+03) (9, 4.55906333923339843750e+01) (10, -1.49606408691406250000e+03) (11, -1.46232983398437500000e+03) (12, -1.47673876953125000000e+03) (13, -1.48776110839843750000e+03) (14, -2.62842102050781250000e+01) (10, -2.35262393951416015625e+00) (11, -1.61324620246887207031e+00) (12, -2.33492183685302734375e+00) (13, 2.24589258432388305664e-01) (14, 4.09702682495117187500e+00) (10, -1.49606408691406250000e+03) (11, -1.46232983398437500000e+03) (12, -1.47673876953125000000e+03) (13, -1.48776110839843750000e+03) (14, -2.62243728637695312500e+01) (10, -1.19624543190002441406e+00) (11, 6.64504146575927734375e+00) (12, 2.01332950592041015625e+00) (13, -6.09427022933959960938e+00) (14, -4.25610005855560302734e-01) (15, 1.50000000000000000000e+03) (16, 6.44128799438476562500e+00) (17, 1.50000000000000000000e+03) (18, -2.96253800392150878906e+00) (19, -1.78131377696990966797e+00) 
