FANN_FLO_2.1
num_layers=3
learning_rate=0.400000
connection_rate=1.000000
network_type=0
learning_momentum=0.000000
training_algorithm=2
train_error_function=1
train_stop_function=0
cascade_output_change_fraction=0.010000
quickprop_decay=-0.000100
quickprop_mu=1.750000
rprop_increase_factor=1.200000
rprop_decrease_factor=0.500000
rprop_delta_min=0.000000
rprop_delta_max=50.000000
rprop_delta_zero=0.100000
cascade_output_stagnation_epochs=12
cascade_candidate_change_fraction=0.010000
cascade_candidate_stagnation_epochs=12
cascade_max_out_epochs=150
cascade_min_out_epochs=50
cascade_max_cand_epochs=150
cascade_min_cand_epochs=50
cascade_num_candidate_groups=2
bit_fail_limit=3.49999994039535522461e-01
cascade_candidate_limit=1.00000000000000000000e+03
cascade_weight_multiplier=4.00000005960464477539e-01
cascade_activation_functions_count=10
cascade_activation_functions=3 5 7 8 10 11 14 15 16 17 
cascade_activation_steepnesses_count=4
cascade_activation_steepnesses=2.50000000000000000000e-01 5.00000000000000000000e-01 7.50000000000000000000e-01 1.00000000000000000000e+00 
layer_sizes=7 9 2 
scale_included=0
neurons (num_inputs, activation_function, activation_steepness)=(0, 0, 0.00000000000000000000e+00) (0, 0, 0.00000000000000000000e+00) (0, 0, 0.00000000000000000000e+00) (0, 0, 0.00000000000000000000e+00) (0, 0, 0.00000000000000000000e+00) (0, 0, 0.00000000000000000000e+00) (0, 0, 0.00000000000000000000e+00) (7, 3, 5.00000000000000000000e-01) (7, 3, 5.00000000000000000000e-01) (7, 3, 5.00000000000000000000e-01) (7, 3, 5.00000000000000000000e-01) (7, 3, 5.00000000000000000000e-01) (7, 3, 5.00000000000000000000e-01) (7, 3, 5.00000000000000000000e-01) (7, 3, 5.00000000000000000000e-01) (0, 3, 0.00000000000000000000e+00) (9, 3, 5.00000000000000000000e-01) (0, 3, 0.00000000000000000000e+00) 
connections (connected_to_neuron, weight)=(0, 1.10997533798217773438e+00) (1, 3.58965724706649780273e-01) (2, 5.03330588340759277344e-01) (3, 1.95505487918853759766e+00) (4, 1.29720830917358398438e+00) (5, 1.06487274169921875000e+00) (6, -2.20247483253479003906e+00) (0, -1.16871692240238189697e-01) (1, -9.27215158939361572266e-01) (2, -1.72144189476966857910e-01) (3, -8.09813663363456726074e-02) (4, 3.00452685356140136719e+00) (5, 3.32876873016357421875e+00) (6, -1.84170556068420410156e+00) (0, 5.88220405578613281250e+00) (1, 7.04531574249267578125e+00) (2, 5.70595741271972656250e+00) (3, -7.35601711273193359375e+00) (4, 4.42729949951171875000e+00) (5, -1.25602655410766601562e+01) (6, 2.55893111228942871094e+00) (0, 5.29672431945800781250e+00) (1, 6.94927978515625000000e+00) (2, 4.55982255935668945312e+00) (3, -2.40861105918884277344e+00) (4, -4.41610670089721679688e+00) (5, -2.82591104507446289062e+00) (6, 1.19637906551361083984e+00) (0, 9.93894040584564208984e-01) (1, 2.57886338233947753906e+00) (2, -4.61123418807983398438e+00) (3, -2.68815803527832031250e+00) (4, -7.30367326736450195312e+00) (5, 1.55362472534179687500e+01) (6, 4.48068797588348388672e-01) (0, -7.75103420019149780273e-02) (1, -1.71869903802871704102e-01) (2, 1.66770434379577636719e+00) (3, 6.07491791248321533203e-01) (4, 9.04926061630249023438e-01) (5, 1.92570924758911132812e+00) (6, -2.44701266288757324219e+00) (0, 6.35388270020484924316e-02) (1, 2.32893601059913635254e-01) (2, 6.21546030044555664062e-01) (3, 1.08887791633605957031e+00) (4, -6.05901420116424560547e-01) (5, -2.37057471275329589844e+00) (6, 1.05528779327869415283e-01) (0, 1.34915339946746826172e+00) (1, 3.14600419998168945312e+00) (2, -5.36747121810913085938e+00) (3, 1.77095890045166015625e+00) (4, -5.59779357910156250000e+00) (5, 1.12640123367309570312e+01) (6, 4.12300348281860351562e-01) (7, 2.19118952751159667969e+00) (8, 2.35812282562255859375e+00) (9, -1.19516515731811523438e+00) (10, -2.21839618682861328125e+00) (11, -9.40436542034149169922e-01) (12, 1.39320206642150878906e+00) (13, -3.78771305084228515625e-01) (14, -1.45021140575408935547e+00) (15, 3.85779999196529388428e-02) 
