FANN_FLO_2.1
num_layers=4
learning_rate=0.500000
connection_rate=1.000000
network_type=0
learning_momentum=0.000000
training_algorithm=2
train_error_function=1
train_stop_function=0
cascade_output_change_fraction=0.010000
quickprop_decay=-0.000100
quickprop_mu=1.750000
rprop_increase_factor=1.200000
rprop_decrease_factor=0.500000
rprop_delta_min=0.000000
rprop_delta_max=50.000000
rprop_delta_zero=0.100000
cascade_output_stagnation_epochs=12
cascade_candidate_change_fraction=0.010000
cascade_candidate_stagnation_epochs=12
cascade_max_out_epochs=150
cascade_min_out_epochs=50
cascade_max_cand_epochs=150
cascade_min_cand_epochs=50
cascade_num_candidate_groups=2
bit_fail_limit=3.49999994039535522461e-01
cascade_candidate_limit=1.00000000000000000000e+03
cascade_weight_multiplier=4.00000005960464477539e-01
cascade_activation_functions_count=10
cascade_activation_functions=3 5 7 8 10 11 14 15 16 17 
cascade_activation_steepnesses_count=4
cascade_activation_steepnesses=2.50000000000000000000e-01 5.00000000000000000000e-01 7.50000000000000000000e-01 1.00000000000000000000e+00 
layer_sizes=10 9 9 2 
scale_included=0
neurons (num_inputs, activation_function, activation_steepness)=(0, 0, 0.00000000000000000000e+00) (0, 0, 0.00000000000000000000e+00) (0, 0, 0.00000000000000000000e+00) (0, 0, 0.00000000000000000000e+00) (0, 0, 0.00000000000000000000e+00) (0, 0, 0.00000000000000000000e+00) (0, 0, 0.00000000000000000000e+00) (0, 0, 0.00000000000000000000e+00) (0, 0, 0.00000000000000000000e+00) (0, 0, 0.00000000000000000000e+00) (10, 3, 5.00000000000000000000e-01) (10, 3, 5.00000000000000000000e-01) (10, 3, 5.00000000000000000000e-01) (10, 3, 5.00000000000000000000e-01) (10, 3, 5.00000000000000000000e-01) (10, 3, 5.00000000000000000000e-01) (10, 3, 5.00000000000000000000e-01) (10, 3, 5.00000000000000000000e-01) (0, 3, 0.00000000000000000000e+00) (9, 3, 5.00000000000000000000e-01) (9, 3, 5.00000000000000000000e-01) (9, 3, 5.00000000000000000000e-01) (9, 3, 5.00000000000000000000e-01) (9, 3, 5.00000000000000000000e-01) (9, 3, 5.00000000000000000000e-01) (9, 3, 5.00000000000000000000e-01) (9, 3, 5.00000000000000000000e-01) (0, 3, 0.00000000000000000000e+00) (9, 3, 5.00000000000000000000e-01) (0, 3, 0.00000000000000000000e+00) 
connections (connected_to_neuron, weight)=(0, -3.43434753417968750000e+02) (1, 1.50000000000000000000e+03) (2, 1.49981420898437500000e+03) (3, 1.90616035461425781250e+00) (4, 1.27776765823364257812e+00) (5, 2.23785781860351562500e+01) (6, 2.50181531906127929688e+00) (7, 3.36976349353790283203e-01) (8, -2.31782684326171875000e+01) (9, -2.70420694351196289062e+00) (0, -1.51191263198852539062e+01) (1, -2.28455257415771484375e+01) (2, 1.93575611114501953125e+01) (3, 2.03401184082031250000e+00) (4, 1.86949765682220458984e+00) (5, 2.10885925292968750000e+01) (6, 9.33793663978576660156e-01) (7, -1.95545423030853271484e+00) (8, -7.00006902217864990234e-01) (9, -7.28652402758598327637e-02) (0, 8.41713428497314453125e-01) (1, -3.38654685020446777344e+00) (2, -2.01134376525878906250e+01) (3, -1.35403537750244140625e+00) (4, 2.45100528001785278320e-01) (5, 5.99090480804443359375e+00) (6, 1.43464069366455078125e+01) (7, 2.01070671081542968750e+01) (8, 6.74288868904113769531e-01) (9, -6.33423948287963867188e+00) (0, -3.42609222412109375000e+02) (1, 1.50000000000000000000e+03) (2, 1.50000000000000000000e+03) (3, -1.50000000000000000000e+03) (4, 1.78929229736328125000e+02) (5, -1.43932299804687500000e+03) (6, 1.50000000000000000000e+03) (7, 1.50000000000000000000e+03) (8, 1.50000000000000000000e+03) (9, 3.21280593872070312500e+01) (0, -8.25750648975372314453e-01) (1, 2.49161958694458007812e-01) (2, -1.50000000000000000000e+03) (3, 2.53914093971252441406e+00) (4, -1.18947044014930725098e-01) (5, 1.49741296386718750000e+03) (6, 4.31614446640014648438e+00) (7, 1.53031241893768310547e+00) (8, -1.50000000000000000000e+03) (9, -2.94450354576110839844e+00) (0, -3.41513305664062500000e+02) (1, 1.50000000000000000000e+03) (2, 1.49703295898437500000e+03) (3, -1.50000000000000000000e+03) (4, -2.84748840332031250000e+01) (5, -1.26140087890625000000e+03) (6, 1.50000000000000000000e+03) (7, 1.50000000000000000000e+03) (8, 1.50000000000000000000e+03) (9, 4.03072395324707031250e+01) (0, 1.07717304229736328125e+01) (1, -1.21429271697998046875e+01) (2, 1.50000000000000000000e+03) (3, -2.89488267898559570312e+00) (4, 4.95501995086669921875e-01) (5, -1.47929284667968750000e+03) (6, 2.57916331291198730469e+00) (7, 1.12886786460876464844e+00) (8, 1.50000000000000000000e+03) (9, -1.49079251289367675781e+00) (0, -3.43434753417968750000e+02) (1, 1.50000000000000000000e+03) (2, 1.49981420898437500000e+03) (3, -8.85301494598388671875e+00) (4, 2.15028738975524902344e+00) (5, -1.50000000000000000000e+03) (6, 7.24314165115356445312e+00) (7, 5.07716417312622070312e+00) (8, 1.50000000000000000000e+03) (9, -1.53448009490966796875e+00) (10, -8.12631189823150634766e-01) (11, 1.50723056867718696594e-02) (12, -6.22363865375518798828e-01) (13, 7.16162323951721191406e-01) (14, 1.29030442237854003906e+00) (15, -1.36197552084922790527e-01) (16, -2.87388842552900314331e-02) (17, -1.60284733772277832031e+00) (18, 2.43944212794303894043e-01) (10, -1.44547436523437500000e+03) (11, -1.49999987792968750000e+03) (12, -1.11751647949218750000e+03) (13, -3.32321350097656250000e+02) (14, 8.07637878417968750000e+02) (15, -1.49862390136718750000e+03) (16, -1.42503955078125000000e+03) (17, -1.46922338867187500000e+03) (18, -4.23945331573486328125e+00) (10, 1.06208872795104980469e+00) (11, -9.65243637561798095703e-01) (12, -3.88420939445495605469e+00) (13, -9.71641242504119873047e-01) (14, 2.68330240249633789062e+00) (15, -7.47754991054534912109e-01) (16, -6.65091335773468017578e-01) (17, 2.41580247879028320312e+00) (18, 1.11838757991790771484e+00) (10, 1.45808315277099609375e+00) (11, -2.72098779678344726562e+00) (12, -7.73823308944702148438e+00) (13, -6.01840078830718994141e-01) (14, 7.80593261718750000000e+01) (15, -1.29168495535850524902e-01) (16, -5.45110523700714111328e-01) (17, 4.74783480167388916016e-01) (18, 4.85625314712524414062e+00) (10, -3.74978149414062500000e+02) (11, 2.61033382415771484375e+01) (12, 1.23297853469848632812e+01) (13, -9.74007225036621093750e+00) (14, 1.33223907470703125000e+02) (15, 1.73553100585937500000e+02) (16, 2.22214965820312500000e+01) (17, -1.02733161926269531250e+02) (18, -1.76269280910491943359e+00) (10, -3.69057678222656250000e+02) (11, 2.22745056152343750000e+01) (12, 1.23903512954711914062e+01) (13, -9.66053867340087890625e+00) (14, 1.30955520629882812500e+02) (15, 1.74552093505859375000e+02) (16, 2.17382888793945312500e+01) (17, -1.02267860412597656250e+02) (18, -2.09708595275878906250e+00) (10, -8.14883947372436523438e-01) (11, -1.51081576943397521973e-01) (12, -2.90570110082626342773e-01) (13, 2.88347214460372924805e-01) (14, 2.11696815490722656250e+00) (15, -3.42180550098419189453e-01) (16, -1.84603616595268249512e-01) (17, -1.59004449844360351562e+00) (18, 2.21717253327369689941e-01) (10, -3.69600250244140625000e+02) (11, 2.68355598449707031250e+01) (12, 1.22687606811523437500e+01) (13, -9.79615116119384765625e+00) (14, 1.43821456909179687500e+02) (15, 1.74397476196289062500e+02) (16, 2.25949344635009765625e+01) (17, -1.02246475219726562500e+02) (18, -2.09376120567321777344e+00) (19, 1.52511250972747802734e+00) (20, 1.50000000000000000000e+03) (21, 2.90017938613891601562e+00) (22, 5.94110429286956787109e-01) (23, 1.34503340721130371094e+00) (24, 9.09317791461944580078e-01) (25, 9.05029058456420898438e-01) (26, 7.44191408157348632812e-01) (27, -2.41118001937866210938e+00) 
