FANN_FLO_2.1
num_layers=4
learning_rate=0.500000
connection_rate=1.000000
network_type=0
learning_momentum=0.000000
training_algorithm=2
train_error_function=1
train_stop_function=0
cascade_output_change_fraction=0.010000
quickprop_decay=-0.000100
quickprop_mu=1.750000
rprop_increase_factor=1.200000
rprop_decrease_factor=0.500000
rprop_delta_min=0.000000
rprop_delta_max=50.000000
rprop_delta_zero=0.100000
cascade_output_stagnation_epochs=12
cascade_candidate_change_fraction=0.010000
cascade_candidate_stagnation_epochs=12
cascade_max_out_epochs=150
cascade_min_out_epochs=50
cascade_max_cand_epochs=150
cascade_min_cand_epochs=50
cascade_num_candidate_groups=2
bit_fail_limit=3.49999994039535522461e-01
cascade_candidate_limit=1.00000000000000000000e+03
cascade_weight_multiplier=4.00000005960464477539e-01
cascade_activation_functions_count=10
cascade_activation_functions=3 5 7 8 10 11 14 15 16 17 
cascade_activation_steepnesses_count=4
cascade_activation_steepnesses=2.50000000000000000000e-01 5.00000000000000000000e-01 7.50000000000000000000e-01 1.00000000000000000000e+00 
layer_sizes=2 5 5 3 
scale_included=0
neurons (num_inputs, activation_function, activation_steepness)=(0, 0, 0.00000000000000000000e+00) (0, 0, 0.00000000000000000000e+00) (2, 3, 5.00000000000000000000e-01) (2, 3, 5.00000000000000000000e-01) (2, 3, 5.00000000000000000000e-01) (2, 3, 5.00000000000000000000e-01) (0, 3, 0.00000000000000000000e+00) (5, 3, 5.00000000000000000000e-01) (5, 3, 5.00000000000000000000e-01) (5, 3, 5.00000000000000000000e-01) (5, 3, 5.00000000000000000000e-01) (0, 3, 0.00000000000000000000e+00) (5, 0, 5.00000000000000000000e-01) (5, 0, 5.00000000000000000000e-01) (0, 0, 0.00000000000000000000e+00) 
connections (connected_to_neuron, weight)=(0, -2.32772865295410156250e+01) (1, 1.97655451297760009766e+00) (0, -1.56027154922485351562e+01) (1, 4.84013032913208007812e+00) (0, 1.13631753921508789062e+01) (1, 1.28507316112518310547e+00) (0, 1.62348995208740234375e+01) (1, 4.75592553615570068359e-01) (2, -1.83291149139404296875e+00) (3, -2.63692545890808105469e+00) (4, 6.58110380172729492188e-01) (5, 8.82145941257476806641e-01) (6, 9.21104133129119873047e-01) (2, 4.36520397663116455078e-01) (3, 9.57105445861816406250e+00) (4, -2.26239204406738281250e+00) (5, -1.94495117664337158203e+00) (6, -5.52499103546142578125e+00) (2, -1.58148040771484375000e+01) (3, 1.71789894104003906250e+01) (4, -9.19313371181488037109e-01) (5, 2.73212902247905731201e-02) (6, -7.63062655925750732422e-01) (2, -5.31607341766357421875e+00) (3, 6.21865272521972656250e+00) (4, -2.04791307449340820312e+00) (5, -8.74792098999023437500e-01) (6, 1.96192581206560134888e-02) (7, -4.35830235481262207031e-01) (8, 1.33401918411254882812e+00) (9, -1.71731352806091308594e+00) (10, -1.13930833339691162109e+00) (11, 8.23271095752716064453e-01) (7, -2.26245117187500000000e+00) (8, 2.00337719917297363281e+00) (9, 5.10924220085144042969e-01) (10, 1.27808272838592529297e+00) (11, -2.56968826055526733398e-01) 
