FANN_FLO_2.1
num_layers=3
learning_rate=0.400000
connection_rate=1.000000
network_type=0
learning_momentum=0.000000
training_algorithm=2
train_error_function=1
train_stop_function=0
cascade_output_change_fraction=0.010000
quickprop_decay=-0.000100
quickprop_mu=1.750000
rprop_increase_factor=1.200000
rprop_decrease_factor=0.500000
rprop_delta_min=0.000000
rprop_delta_max=50.000000
rprop_delta_zero=0.100000
cascade_output_stagnation_epochs=12
cascade_candidate_change_fraction=0.010000
cascade_candidate_stagnation_epochs=12
cascade_max_out_epochs=150
cascade_min_out_epochs=50
cascade_max_cand_epochs=150
cascade_min_cand_epochs=50
cascade_num_candidate_groups=2
bit_fail_limit=3.49999994039535522461e-01
cascade_candidate_limit=1.00000000000000000000e+03
cascade_weight_multiplier=4.00000005960464477539e-01
cascade_activation_functions_count=10
cascade_activation_functions=3 5 7 8 10 11 14 15 16 17 
cascade_activation_steepnesses_count=4
cascade_activation_steepnesses=2.50000000000000000000e-01 5.00000000000000000000e-01 7.50000000000000000000e-01 1.00000000000000000000e+00 
layer_sizes=65 5 65 
scale_included=0
neurons (num_inputs, activation_function, activation_steepness)=(0, 0, 0.00000000000000000000e+00) (0, 0, 0.00000000000000000000e+00) (0, 0, 0.00000000000000000000e+00) (0, 0, 0.00000000000000000000e+00) (0, 0, 0.00000000000000000000e+00) (0, 0, 0.00000000000000000000e+00) (0, 0, 0.00000000000000000000e+00) (0, 0, 0.00000000000000000000e+00) (0, 0, 0.00000000000000000000e+00) (0, 0, 0.00000000000000000000e+00) (0, 0, 0.00000000000000000000e+00) (0, 0, 0.00000000000000000000e+00) (0, 0, 0.00000000000000000000e+00) (0, 0, 0.00000000000000000000e+00) (0, 0, 0.00000000000000000000e+00) (0, 0, 0.00000000000000000000e+00) (0, 0, 0.00000000000000000000e+00) (0, 0, 0.00000000000000000000e+00) (0, 0, 0.00000000000000000000e+00) (0, 0, 0.00000000000000000000e+00) (0, 0, 0.00000000000000000000e+00) (0, 0, 0.00000000000000000000e+00) (0, 0, 0.00000000000000000000e+00) (0, 0, 0.00000000000000000000e+00) (0, 0, 0.00000000000000000000e+00) (0, 0, 0.00000000000000000000e+00) (0, 0, 0.00000000000000000000e+00) (0, 0, 0.00000000000000000000e+00) (0, 0, 0.00000000000000000000e+00) (0, 0, 0.00000000000000000000e+00) (0, 0, 0.00000000000000000000e+00) (0, 0, 0.00000000000000000000e+00) (0, 0, 0.00000000000000000000e+00) (0, 0, 0.00000000000000000000e+00) (0, 0, 0.00000000000000000000e+00) (0, 0, 0.00000000000000000000e+00) (0, 0, 0.00000000000000000000e+00) (0, 0, 0.00000000000000000000e+00) (0, 0, 0.00000000000000000000e+00) (0, 0, 0.00000000000000000000e+00) (0, 0, 0.00000000000000000000e+00) (0, 0, 0.00000000000000000000e+00) (0, 0, 0.00000000000000000000e+00) (0, 0, 0.00000000000000000000e+00) (0, 0, 0.00000000000000000000e+00) (0, 0, 0.00000000000000000000e+00) (0, 0, 0.00000000000000000000e+00) (0, 0, 0.00000000000000000000e+00) (0, 0, 0.00000000000000000000e+00) (0, 0, 0.00000000000000000000e+00) (0, 0, 0.00000000000000000000e+00) (0, 0, 0.00000000000000000000e+00) (0, 0, 0.00000000000000000000e+00) (0, 0, 0.00000000000000000000e+00) (0, 0, 0.00000000000000000000e+00) (0, 0, 0.00000000000000000000e+00) (0, 0, 0.00000000000000000000e+00) (0, 0, 0.00000000000000000000e+00) (0, 0, 0.00000000000000000000e+00) (0, 0, 0.00000000000000000000e+00) (0, 0, 0.00000000000000000000e+00) (0, 0, 0.00000000000000000000e+00) (0, 0, 0.00000000000000000000e+00) (0, 0, 0.00000000000000000000e+00) (0, 0, 0.00000000000000000000e+00) (65, 3, 5.00000000000000000000e-01) (65, 3, 5.00000000000000000000e-01) (65, 3, 5.00000000000000000000e-01) (65, 3, 5.00000000000000000000e-01) (0, 3, 0.00000000000000000000e+00) (5, 5, 5.00000000000000000000e-01) (5, 5, 5.00000000000000000000e-01) (5, 5, 5.00000000000000000000e-01) (5, 5, 5.00000000000000000000e-01) (5, 5, 5.00000000000000000000e-01) (5, 5, 5.00000000000000000000e-01) (5, 5, 5.00000000000000000000e-01) (5, 5, 5.00000000000000000000e-01) (5, 5, 5.00000000000000000000e-01) (5, 5, 5.00000000000000000000e-01) (5, 5, 5.00000000000000000000e-01) (5, 5, 5.00000000000000000000e-01) (5, 5, 5.00000000000000000000e-01) (5, 5, 5.00000000000000000000e-01) (5, 5, 5.00000000000000000000e-01) (5, 5, 5.00000000000000000000e-01) (5, 5, 5.00000000000000000000e-01) (5, 5, 5.00000000000000000000e-01) (5, 5, 5.00000000000000000000e-01) (5, 5, 5.00000000000000000000e-01) (5, 5, 5.00000000000000000000e-01) (5, 5, 5.00000000000000000000e-01) (5, 5, 5.00000000000000000000e-01) (5, 5, 5.00000000000000000000e-01) (5, 5, 5.00000000000000000000e-01) (5, 5, 5.00000000000000000000e-01) (5, 5, 5.00000000000000000000e-01) (5, 5, 5.00000000000000000000e-01) (5, 5, 5.00000000000000000000e-01) (5, 5, 5.00000000000000000000e-01) (5, 5, 5.00000000000000000000e-01) (5, 5, 5.00000000000000000000e-01) (5, 5, 5.00000000000000000000e-01) (5, 5, 5.00000000000000000000e-01) (5, 5, 5.00000000000000000000e-01) (5, 5, 5.00000000000000000000e-01) (5, 5, 5.00000000000000000000e-01) (5, 5, 5.00000000000000000000e-01) (5, 5, 5.00000000000000000000e-01) (5, 5, 5.00000000000000000000e-01) (5, 5, 5.00000000000000000000e-01) (5, 5, 5.00000000000000000000e-01) (5, 5, 5.00000000000000000000e-01) (5, 5, 5.00000000000000000000e-01) (5, 5, 5.00000000000000000000e-01) (5, 5, 5.00000000000000000000e-01) (5, 5, 5.00000000000000000000e-01) (5, 5, 5.00000000000000000000e-01) (5, 5, 5.00000000000000000000e-01) (5, 5, 5.00000000000000000000e-01) (5, 5, 5.00000000000000000000e-01) (5, 5, 5.00000000000000000000e-01) (5, 5, 5.00000000000000000000e-01) (5, 5, 5.00000000000000000000e-01) (5, 5, 5.00000000000000000000e-01) (5, 5, 5.00000000000000000000e-01) (5, 5, 5.00000000000000000000e-01) (5, 5, 5.00000000000000000000e-01) (5, 5, 5.00000000000000000000e-01) (5, 5, 5.00000000000000000000e-01) (5, 5, 5.00000000000000000000e-01) (5, 5, 5.00000000000000000000e-01) (5, 5, 5.00000000000000000000e-01) (5, 5, 5.00000000000000000000e-01) (0, 5, 0.00000000000000000000e+00) 
connections (connected_to_neuron, weight)=(0, 1.93345677107572555542e-02) (1, 8.47257822751998901367e-02) (2, 4.23642724752426147461e-01) (3, -8.90695899724960327148e-02) (4, -3.16029898822307586670e-02) (5, -3.16627234220504760742e-01) (6, -1.30999580025672912598e-01) (7, -1.93244799971580505371e-01) (8, 2.76565067470073699951e-02) (9, 2.16622948646545410156e-01) (10, 1.17685317993164062500e-01) (11, 3.07016726583242416382e-02) (12, -1.84622555971145629883e-01) (13, -3.19603472948074340820e-01) (14, -4.12905402481555938721e-03) (15, -3.32582175731658935547e-01) (16, 9.44129750132560729980e-02) (17, 1.69642731547355651855e-01) (18, -1.79088577628135681152e-01) (19, 7.36837508156895637512e-03) (20, -2.66699437052011489868e-02) (21, 3.16041596233844757080e-02) (22, -1.85957297682762145996e-01) (23, -1.83628395199775695801e-01) (24, 4.48509395122528076172e-01) (25, 1.66184619069099426270e-01) (26, -3.41075249016284942627e-02) (27, -3.24493572115898132324e-02) (28, -1.76583498716354370117e-01) (29, 1.33089959621429443359e-01) (30, -1.67385652661323547363e-01) (31, -1.39444500207901000977e-01) (32, 1.42224896699190139771e-02) (33, 1.40135839581489562988e-01) (34, -1.16472862660884857178e-01) (35, -4.68748174607753753662e-02) (36, -2.08320826292037963867e-01) (37, -2.31358468532562255859e-01) (38, -1.27647504210472106934e-01) (39, -1.46402701735496520996e-01) (40, 1.57038629055023193359e-01) (41, 1.84001803398132324219e-01) (42, -6.00565224885940551758e-02) (43, -2.20886975526809692383e-01) (44, -2.15203359723091125488e-01) (45, -1.32372975349426269531e-01) (46, -2.07262396812438964844e-01) (47, -1.85432031750679016113e-01) (48, -1.10464312136173248291e-01) (49, 1.31289049983024597168e-01) (50, -4.55297790467739105225e-02) (51, 2.23856315016746520996e-01) (52, -7.93606340885162353516e-02) (53, -1.96747183799743652344e-01) (54, -1.55300557613372802734e-01) (55, -3.26766446232795715332e-02) (56, 2.11716238409280776978e-02) (57, 1.67341306805610656738e-01) (58, -1.61175325512886047363e-01) (59, 3.40012550354003906250e-01) (60, -1.90971806645393371582e-01) (61, -1.12265884876251220703e-01) (62, -8.35413485765457153320e-02) (63, -1.90529420971870422363e-01) (64, -7.47605085372924804688e-01) (0, 1.79785709381103515625e+01) (1, 5.21855413913726806641e-01) (2, 1.04859963059425354004e-01) (3, 1.19878089427947998047e+00) (4, 9.90386009216308593750e-02) (5, 1.27207577228546142578e-01) (6, 2.88514643907546997070e-01) (7, 3.81318300962448120117e-01) (8, 4.74288797378540039062e+00) (9, -4.06310968101024627686e-02) (10, 1.62756100296974182129e-01) (11, 5.64522838592529296875e+00) (12, 4.38710060119628906250e+01) (13, 1.54756426811218261719e-01) (14, 1.07797515392303466797e+00) (15, 2.50745797157287597656e+00) (16, 2.66068530082702636719e+00) (17, 7.17164993286132812500e+00) (18, 2.86744189262390136719e+00) (19, 4.10008937120437622070e-01) (20, 2.19978833198547363281e+00) (21, 4.84906375408172607422e-01) (22, 4.88603919744491577148e-01) (23, 3.22381329536437988281e+00) (24, 5.77028319239616394043e-02) (25, -1.75079393386840820312e+00) (26, 9.40859392285346984863e-02) (27, 3.34267944097518920898e-01) (28, 5.87076008319854736328e-01) (29, -3.19451212882995605469e-01) (30, -6.81185007095336914062e-01) (31, -1.21118011474609375000e+01) (32, -3.52288037538528442383e-02) (33, 2.83685296773910522461e-01) (34, 1.74763154983520507812e+00) (35, 2.34857869148254394531e+00) (36, 6.37220501899719238281e-01) (37, 2.02069067955017089844e+00) (38, 3.16305488348007202148e-01) (39, 6.36962354183197021484e-01) (40, -4.87936019897460937500e+00) (41, 5.87368667125701904297e-01) (42, 1.57826364040374755859e-01) (43, 4.26091241836547851562e+00) (44, 4.22047413885593414307e-02) (45, 1.52082741260528564453e-01) (46, 2.50880092382431030273e-01) (47, -4.45236349105834960938e+00) (48, -4.86355185508728027344e-01) (49, -8.64015197753906250000e+00) (50, 2.39662677049636840820e-02) (51, 4.18654584884643554688e+00) (52, 3.87566275894641876221e-02) (53, 3.13919000327587127686e-02) (54, 3.30142915248870849609e-01) (55, -4.97888135910034179688e+00) (56, -5.27486419677734375000e+01) (57, -1.36899054050445556641e+00) (58, 4.71416525542736053467e-02) (59, 8.17058145999908447266e-01) (60, 7.33685567975044250488e-02) (61, 8.74953716993331909180e-02) (62, 4.04790759086608886719e-01) (63, -1.16361694335937500000e+01) (64, -1.77029838562011718750e+01) (0, -1.00711993873119354248e-01) (1, 2.94178634881973266602e-01) (2, -1.28908991813659667969e-01) (3, 6.20709776878356933594e-01) (4, -7.69456028938293457031e-02) (5, -7.90645629167556762695e-02) (6, 5.10973099153488874435e-04) (7, 7.56239667534828186035e-02) (8, 2.36044228076934814453e-01) (9, 5.29755890369415283203e-01) (10, 5.03284148871898651123e-02) (11, -6.68604299426078796387e-02) (12, -9.44763869047164916992e-02) (13, -1.00461117923259735107e-01) (14, -1.84711068868637084961e-01) (15, -5.07961988449096679688e-01) (16, 2.89787352085113525391e-01) (17, 1.31382063031196594238e-01) (18, 1.42722427845001220703e-01) (19, 8.70942473411560058594e-02) (20, -6.81504607200622558594e-02) (21, 9.62420925498008728027e-02) (22, -1.25896438956260681152e-01) (23, -8.49982947111129760742e-02) (24, 3.99943888187408447266e-01) (25, -6.24321028590202331543e-02) (26, 4.80324327945709228516e-01) (27, 1.62479071877896785736e-03) (28, -7.52585455775260925293e-02) (29, 5.64133077859878540039e-02) (30, 3.38655672967433929443e-02) (31, -1.18931964039802551270e-01) (32, 4.31623309850692749023e-01) (33, 4.05675917863845825195e-01) (34, -7.53268301486968994141e-02) (35, 1.08810607343912124634e-03) (36, -1.77679732441902160645e-02) (37, -3.66824008524417877197e-02) (38, -3.70280891656875610352e-01) (39, 1.52987418696284294128e-02) (40, 2.49703899025917053223e-01) (41, 9.58141759037971496582e-02) (42, 2.29951757937669754028e-02) (43, 1.87941253185272216797e-01) (44, -3.52782867848873138428e-02) (45, 2.73275319486856460571e-02) (46, -2.09990635514259338379e-01) (47, -1.24337770044803619385e-01) (48, 1.49267166852951049805e-01) (49, 4.33577656745910644531e-01) (50, -9.59056541323661804199e-02) (51, 6.54241368174552917480e-02) (52, -1.62205621600151062012e-01) (53, -1.41540532931685447693e-02) (54, -4.52709682285785675049e-02) (55, -1.43441811203956604004e-01) (56, -7.51811385154724121094e-01) (57, 4.23919916152954101562e-01) (58, 3.58078330755233764648e-02) (59, -2.75821685791015625000e-02) (60, -6.12538941204547882080e-02) (61, 5.55792674422264099121e-02) (62, -9.76644605398178100586e-02) (63, -1.27484217286109924316e-01) (64, -1.38078284263610839844e+00) (0, 6.75575790405273437500e+01) (1, 6.53761291503906250000e+00) (2, 1.26151478290557861328e+00) (3, 9.94263350963592529297e-01) (4, 1.11211264133453369141e+00) (5, 2.69256591796875000000e-01) (6, 2.41826438903808593750e+00) (7, 1.71596164703369140625e+01) (8, 1.20104049682617187500e+02) (9, 3.11470770835876464844e+00) (10, 1.14911806583404541016e+00) (11, 9.34142649173736572266e-01) (12, 1.60569298267364501953e+00) (13, 1.60228788852691650391e+00) (14, 2.62194232940673828125e+01) (15, 4.12546386718750000000e+01) (16, 6.00882568359375000000e+01) (17, 4.41570425033569335938e+00) (18, 5.97672998905181884766e-01) (19, -1.36497482657432556152e-01) (20, 3.85635077953338623047e-01) (21, 7.34678030014038085938e-01) (22, 4.35461902618408203125e+00) (23, 1.07578666687011718750e+02) (24, 3.19336223602294921875e+00) (25, 2.30967688560485839844e+00) (26, -1.05240192413330078125e+01) (27, -2.52907299995422363281e+00) (28, -9.14362311363220214844e-01) (29, 4.24193441867828369141e-01) (30, -8.92398282885551452637e-02) (31, 6.38141822814941406250e+01) (32, 1.47526752948760986328e+00) (33, -6.53300464153289794922e-01) (34, -9.86440181732177734375e+00) (35, -5.16457796096801757812e+00) (36, -5.83870506286621093750e+00) (37, -4.22693818807601928711e-01) (38, -4.46689039468765258789e-01) (39, 1.71841411590576171875e+01) (40, 5.08239889144897460938e+00) (41, 1.10393810272216796875e+00) (42, -5.99205055236816406250e+01) (43, -5.32937164306640625000e+01) (44, -6.71621131896972656250e+00) (45, -1.74684572219848632812e+00) (46, -4.38186526298522949219e-01) (47, 6.92826366424560546875e+00) (48, 3.81128525733947753906e+00) (49, -1.18197798728942871094e+00) (50, -7.76086521148681640625e+00) (51, -1.49118057250976562500e+02) (52, -1.95163059234619140625e+00) (53, -1.61394941806793212891e+00) (54, 8.41768324375152587891e-01) (55, 7.07335519790649414062e+00) (56, 1.08902370929718017578e+00) (57, -1.49333488941192626953e+00) (58, -1.42078313827514648438e+01) (59, -1.93655410766601562500e+02) (60, -2.06823229789733886719e+00) (61, -1.84094190597534179688e+00) (62, 5.91247856616973876953e-01) (63, 7.31124448776245117188e+00) (64, -5.07419433593750000000e+01) (65, -1.07856345176696777344e+00) (66, -1.05541564524173736572e-01) (67, 1.39047479629516601562e+00) (68, 8.91307182610034942627e-03) (69, 6.53962865471839904785e-02) (65, 3.84754240512847900391e-01) (66, -1.09512507915496826172e-01) (67, 7.04477727413177490234e-01) (68, -1.87760237604379653931e-02) (69, -2.74792224168777465820e-01) (65, 2.34888270497322082520e-02) (66, 2.53348145633935928345e-02) (67, 8.88338163495063781738e-02) (68, 3.99370193481445312500e-02) (69, -2.67547499388456344604e-02) (65, 4.11490071564912796021e-03) (66, -8.40822681784629821777e-02) (67, 6.09739916399121284485e-03) (68, 1.60497531760483980179e-03) (69, -2.95800110325217247009e-03) (65, 6.91330879926681518555e-02) (66, 1.34636595845222473145e-01) (67, 1.32193773984909057617e-01) (68, -8.63308273255825042725e-03) (69, -4.79583591222763061523e-02) (65, -1.40766995027661323547e-02) (66, -1.40157890319824218750e+00) (67, -2.09340360015630722046e-02) (68, 1.17041803896427154541e-01) (69, 5.74087025597691535950e-03) (65, 4.82866168022155761719e-03) (66, -3.87444019317626953125e-01) (67, 4.51385825872421264648e-02) (68, -4.49998900294303894043e-02) (69, -1.19023760780692100525e-02) (65, 3.08868680149316787720e-02) (66, 1.96562677621841430664e-01) (67, 2.45062448084354400635e-03) (68, -4.25135251134634017944e-04) (69, -8.40731896460056304932e-03) (65, -1.39684733003377914429e-02) (66, 1.82748865336179733276e-02) (67, -3.58675010502338409424e-02) (68, 3.19541012868285179138e-03) (69, 1.09185501933097839355e-02) (65, -5.38788083940744400024e-03) (66, 1.56638827174901962280e-02) (67, -1.33178168907761573792e-02) (68, 7.89147336035966873169e-03) (69, 3.86849837377667427063e-03) (65, -7.67539240769110620022e-05) (66, -5.37087861448526382446e-03) (67, 9.43471270147711038589e-04) (68, -3.96737013943493366241e-04) (69, 1.36191374622285366058e-07) (65, -8.40001180768013000488e-03) (66, -3.11576630920171737671e-02) (67, -1.22208520770072937012e-02) (68, 2.78321211226284503937e-03) (69, 4.19823080301284790039e-03) (65, 9.73297189921140670776e-03) (66, 4.29151505231857299805e-02) (67, 1.64207490161061286926e-03) (68, -2.90941505227237939835e-04) (69, -3.08619090355932712555e-03) (65, -3.99623019620776176453e-03) (66, -3.72440069913864135742e-02) (67, -1.62626076489686965942e-02) (68, 2.13264604099094867706e-03) (69, 5.09507395327091217041e-03) (65, 8.94759432412683963776e-06) (66, -1.67709961533546447754e-02) (67, 2.16898624785244464874e-03) (68, 7.77215277776122093201e-03) (69, -1.23901653569191694260e-03) (65, 7.97489075921475887299e-04) (66, -2.34456826001405715942e-02) (67, -4.31946158641949295998e-04) (68, -6.50303950533270835876e-03) (69, -3.25167755363509058952e-04) (65, 2.14845663867890834808e-03) (66, -2.59967353194952011108e-02) (67, -1.88689655624330043793e-03) (68, 1.30272971000522375107e-03) (69, -1.20445074571762233973e-04) (65, 5.42434444651007652283e-03) (66, -9.17553454637527465820e-02) (67, 1.05107072740793228149e-02) (68, 7.98891269369050860405e-05) (69, -3.65830073133111000061e-03) (65, -4.86143957823514938354e-03) (66, 1.05031747370958328247e-02) (67, -5.62270451337099075317e-03) (68, 1.03217456489801406860e-03) (69, 2.25866772234439849854e-03) (65, -1.28395028878003358841e-03) (66, 1.84033683035522699356e-03) (67, -2.73299915716052055359e-03) (68, -3.75955933122895658016e-05) (69, 6.95097201969474554062e-04) (65, 2.11157705052755773067e-04) (66, -1.46492454223334789276e-03) (67, 7.63580319471657276154e-04) (68, -1.33229856146499514580e-04) (69, 3.49917099811136722565e-05) (65, -1.23960475320927798748e-04) (66, -2.55286067840643227100e-06) (67, 4.12863191741053014994e-05) (68, 5.31320729351136833429e-05) (69, 1.11728586489334702492e-04) (65, 2.39788583712652325630e-04) (66, 2.54547194344922900200e-04) (67, 1.22524550533853471279e-04) (68, 2.22943010157905519009e-04) (69, 9.14438132895156741142e-05) (65, -1.58035036292858421803e-05) (66, 1.41334778163582086563e-04) (67, -1.08603569970000535250e-04) (68, 5.33274142071604728699e-05) (69, 1.44578749313950538635e-04) (65, -1.00696342997252941132e-03) (66, -4.41760150715708732605e-03) (67, -2.05880776047706604004e-03) (68, -5.31151425093412399292e-04) (69, 8.82420164998620748520e-04) (65, 4.40603325841948390007e-04) (66, 4.30080406367778778076e-02) (67, 1.82090047746896743774e-03) (68, 2.52090481808409094810e-04) (69, -5.80653257202357053757e-04) (65, -1.22049602214246988297e-03) (66, -4.30894270539283752441e-02) (67, 3.12190211843699216843e-04) (68, -2.00991285964846611023e-04) (69, 2.83248518826439976692e-04) (65, 2.35070101916790008545e-03) (66, 2.90898010134696960449e-02) (67, 2.81570805236697196960e-03) (68, 6.88212132081389427185e-03) (69, -1.38665910344570875168e-03) (65, -5.42445559403859078884e-05) (66, -1.56510126544162631035e-04) (67, -2.35362997045740485191e-04) (68, -1.50435953401029109955e-04) (69, -1.08039188489783555269e-04) (65, -1.44085811916738748550e-03) (66, -4.33140918612480163574e-02) (67, -3.57149110641330480576e-04) (68, -2.85586211248300969601e-05) (69, 4.31044492870569229126e-04) (65, -2.00538488570600748062e-06) (66, -1.79612979991361498833e-04) (67, 3.72369395336136221886e-05) (68, -4.15617541875690221786e-05) (69, -8.45406830194406211376e-05) (65, -4.64407130493782460690e-05) (66, -3.59122859663330018520e-05) (67, 1.34043075377121567726e-05) (68, -1.22205325169488787651e-04) (69, -1.78887101355940103531e-04) (65, -3.21498955599963665009e-05) (66, -3.22649226291105151176e-04) (67, 9.44288840400986373425e-05) (68, 1.11426619696430861950e-04) (69, -8.15237217466346919537e-05) (65, 1.90455830306746065617e-05) (66, -2.99492327030748128891e-04) (67, 1.31435983348637819290e-04) (68, 4.69081496703438460827e-05) (69, 8.17552063381299376488e-06) (65, 2.48935102717950940132e-04) (66, 1.53517699800431728363e-04) (67, 4.23221063101664185524e-04) (68, 6.49260182399302721024e-05) (69, -7.97025350038893520832e-05) (65, 1.16282652015797793865e-04) (66, 2.93517950922250747681e-04) (67, -4.13279849453829228878e-06) (68, 1.38335104566067457199e-04) (69, 1.66726837051101028919e-04) (65, 1.76748464582487940788e-04) (66, 3.40761354891583323479e-04) (67, 1.44191726576536893845e-04) (68, 2.25574331125244498253e-06) (69, 1.53034605318680405617e-04) (65, 2.25111740292049944401e-04) (66, -2.93139310088008642197e-04) (67, 4.11615590564906597137e-04) (68, 8.20588247734121978283e-05) (69, -2.13625680771656334400e-05) (65, 1.77707595867104828358e-04) (66, -2.91710020974278450012e-04) (67, 4.55470581073313951492e-04) (68, 1.04786442534532397985e-04) (69, -1.23909048852510750294e-05) (65, 1.11592060420662164688e-04) (66, 4.78994224977213889360e-05) (67, 3.12442949507385492325e-04) (68, 1.55598099809139966965e-04) (69, 9.97551396721974015236e-05) (65, 3.24900844134390354156e-04) (66, -1.07334919448476284742e-04) (67, 5.53150952327996492386e-04) (68, -6.68873472022823989391e-05) (69, -2.03810166567564010620e-04) (65, 4.38482267782092094421e-04) (66, 5.08979661390185356140e-04) (67, 8.62903951201587915421e-04) (68, 3.00272949971258640289e-04) (69, -2.25414521992206573486e-04) (65, 9.55800860538147389889e-05) (66, -3.85626131901517510414e-04) (67, 7.00914184562861919403e-04) (68, 1.43130528158508241177e-04) (69, -6.88357249600812792778e-06) (65, 3.96679752157069742680e-05) (66, -3.09096722048707306385e-05) (67, -1.53576940647326409817e-04) (68, 5.47387026017531752586e-06) (69, 7.85899683251045644283e-05) (65, 2.73030163953080773354e-04) (66, -1.51463318616151809692e-04) (67, 5.08762372191995382309e-04) (68, 2.44111739448271691799e-04) (69, -1.07833831862080842257e-04) (65, 1.63154181791469454765e-04) (66, 2.71775468718260526657e-04) (67, 1.42577802762389183044e-04) (68, 2.53386300755664706230e-04) (69, 1.63215707289054989815e-04) (65, -9.14068950805813074112e-05) (66, -2.24700474063865840435e-04) (67, 1.03412414318881928921e-04) (68, -2.70021300821099430323e-05) (69, -6.72955793561413884163e-05) (65, -5.39085085620172321796e-05) (66, 2.52908532274886965752e-04) (67, -1.49831757880747318268e-04) (68, 6.58053613733500242233e-05) (69, 1.58816372277215123177e-04) (65, -6.10943970968946814537e-05) (66, 9.95218797470442950726e-05) (67, 4.63545220554806292057e-05) (68, 6.39922727714292705059e-05) (69, 7.63948410167358815670e-05) (65, 2.12609287700615823269e-04) (66, 2.17127279029227793217e-04) (67, 2.93343095108866691589e-04) (68, 2.32731414143927395344e-04) (69, -4.61647650809027254581e-05) (65, -2.03968666028231382370e-05) (66, 5.18494562129490077496e-05) (67, 1.26589671708643436432e-04) (68, -2.35695042647421360016e-05) (69, -6.53525567031465470791e-05) (65, 2.90084193693473935127e-04) (66, 1.20825527119450271130e-04) (67, 3.92390880733728408813e-04) (68, 3.56564851244911551476e-06) (69, 7.09694431861862540245e-05) (65, 3.78352124243974685669e-05) (66, 5.68142568226903676987e-05) (67, -3.52087226929143071175e-06) (68, 7.81183698563836514950e-05) (69, 1.28840911202132701874e-04) (65, 1.65326331625692546368e-04) (66, 3.97530420741531997919e-05) (67, 1.93510510143823921680e-04) (68, 1.17915667942725121975e-04) (69, 8.74861580086871981621e-05) (65, 6.39875870547257363796e-05) (66, 7.36055881134234368801e-05) (67, -7.48784077586606144905e-06) (68, 3.80397905246354639530e-05) (69, 2.32441307161934673786e-05) (65, 6.92015673848800361156e-05) (66, -3.16852892865426838398e-05) (67, 2.82992463326081633568e-04) (68, 2.67505747615359723568e-05) (69, -6.60957739455625414848e-05) (65, -8.19404303911142051220e-05) (66, 1.39984913403168320656e-05) (67, -2.42544338107109069824e-04) (68, -3.91854264307767152786e-05) (69, 3.09684692183509469032e-05) (65, -1.28661020426079630852e-04) (66, -5.17844979185611009598e-04) (67, -9.61385376285761594772e-06) (68, -1.41482567414641380310e-04) (69, -1.48600927786901593208e-04) (65, -1.58190086949616670609e-04) (66, -9.75769580691121518612e-05) (67, -8.51665608934126794338e-05) (68, 4.84243537357542663813e-05) (69, -1.44689023727551102638e-04) (65, 1.52163644088432192802e-04) (66, -4.90881539008114486933e-05) (67, 3.38350015226751565933e-04) (68, -1.05600942333694547415e-04) (69, -4.10342508985195308924e-05) (65, 6.43024977762252092361e-05) (66, -1.14779373689088970423e-04) (67, -2.06350989174097776413e-04) (68, 2.38967768382281064987e-04) (69, 1.16610208351630717516e-04) (65, 2.36642546951770782471e-04) (66, 1.71800144016742706299e-04) (67, 4.35750029282644391060e-04) (68, 1.87858269782736897469e-04) (69, 1.01224009995348751545e-04) (65, 1.90980994375422596931e-04) (66, -2.12266109883785247803e-04) (67, 8.49011921673081815243e-05) (68, -5.20263492944650352001e-05) (69, -1.12701112811919301748e-04) (65, 9.16833232622593641281e-06) (66, -7.35136200091801583767e-05) (67, -1.08555104816332459450e-05) (68, -7.42324700695462524891e-05) (69, -1.37308583362028002739e-04) 
