FANN_FLO_2.1
num_layers=4
learning_rate=0.400000
connection_rate=1.000000
network_type=0
learning_momentum=0.000000
training_algorithm=2
train_error_function=1
train_stop_function=0
cascade_output_change_fraction=0.010000
quickprop_decay=-0.000100
quickprop_mu=1.750000
rprop_increase_factor=1.200000
rprop_decrease_factor=0.500000
rprop_delta_min=0.000000
rprop_delta_max=50.000000
rprop_delta_zero=0.100000
cascade_output_stagnation_epochs=12
cascade_candidate_change_fraction=0.010000
cascade_candidate_stagnation_epochs=12
cascade_max_out_epochs=150
cascade_min_out_epochs=50
cascade_max_cand_epochs=150
cascade_min_cand_epochs=50
cascade_num_candidate_groups=2
bit_fail_limit=3.49999994039535522461e-01
cascade_candidate_limit=1.00000000000000000000e+03
cascade_weight_multiplier=4.00000005960464477539e-01
cascade_activation_functions_count=10
cascade_activation_functions=3 5 7 8 10 11 14 15 16 17 
cascade_activation_steepnesses_count=4
cascade_activation_steepnesses=2.50000000000000000000e-01 5.00000000000000000000e-01 7.50000000000000000000e-01 1.00000000000000000000e+00 
layer_sizes=7 9 9 2 
scale_included=0
neurons (num_inputs, activation_function, activation_steepness)=(0, 0, 0.00000000000000000000e+00) (0, 0, 0.00000000000000000000e+00) (0, 0, 0.00000000000000000000e+00) (0, 0, 0.00000000000000000000e+00) (0, 0, 0.00000000000000000000e+00) (0, 0, 0.00000000000000000000e+00) (0, 0, 0.00000000000000000000e+00) (7, 3, 5.00000000000000000000e-01) (7, 3, 5.00000000000000000000e-01) (7, 3, 5.00000000000000000000e-01) (7, 3, 5.00000000000000000000e-01) (7, 3, 5.00000000000000000000e-01) (7, 3, 5.00000000000000000000e-01) (7, 3, 5.00000000000000000000e-01) (7, 3, 5.00000000000000000000e-01) (0, 3, 0.00000000000000000000e+00) (9, 3, 5.00000000000000000000e-01) (9, 3, 5.00000000000000000000e-01) (9, 3, 5.00000000000000000000e-01) (9, 3, 5.00000000000000000000e-01) (9, 3, 5.00000000000000000000e-01) (9, 3, 5.00000000000000000000e-01) (9, 3, 5.00000000000000000000e-01) (9, 3, 5.00000000000000000000e-01) (0, 3, 0.00000000000000000000e+00) (9, 3, 5.00000000000000000000e-01) (0, 3, 0.00000000000000000000e+00) 
connections (connected_to_neuron, weight)=(0, 2.11523056030273437500e+00) (1, -7.25855112075805664062e+00) (2, -6.12184814453125000000e+02) (3, -1.50000000000000000000e+03) (4, -3.15859079360961914062e+00) (5, 9.79674682617187500000e+01) (6, 3.49584430456161499023e-01) (0, -1.03018093109130859375e+00) (1, -7.45694160461425781250e+00) (2, -3.86188430786132812500e+01) (3, -6.59337615966796875000e+00) (4, -5.13662109375000000000e+02) (5, 2.59266754150390625000e+02) (6, 3.96512222290039062500e+00) (0, 2.27004691958427429199e-01) (1, 4.33707046508789062500e+00) (2, -1.27572799682617187500e+02) (3, -1.60198459625244140625e+01) (4, 4.43974025547504425049e-02) (5, 2.74464726448059082031e+00) (6, -7.75116622447967529297e-01) (0, -1.20486926269531250000e+03) (1, -3.51208984375000000000e+02) (2, -1.03560534667968750000e+03) (3, -1.50000000000000000000e+03) (4, 1.49918798828125000000e+03) (5, 1.42246337890625000000e+03) (6, 6.33309006690979003906e-01) (0, -1.46792883300781250000e+03) (1, -6.51264099121093750000e+02) (2, -6.02481018066406250000e+02) (3, -1.50000000000000000000e+03) (4, -6.75723266601562500000e+01) (5, 1.40248291015625000000e+03) (6, -2.32931241393089294434e-01) (0, 9.62495803833007812500e-01) (1, -8.15051651000976562500e+00) (2, 6.90251235961914062500e+01) (3, 1.67418122291564941406e+00) (4, -2.78548259735107421875e+01) (5, 2.99087643623352050781e+00) (6, 7.58124017715454101562e+00) (0, 1.94611132144927978516e+00) (1, -2.81384348869323730469e-01) (2, 4.42639503479003906250e+01) (3, -4.94730339050292968750e+01) (4, -1.66571855545043945312e-01) (5, 4.70017910003662109375e+00) (6, 3.81559991836547851562e+00) (0, -8.63179969787597656250e+00) (1, 8.26533603668212890625e+00) (2, -3.12414407730102539062e+00) (3, -4.78689622879028320312e+00) (4, -1.40496134757995605469e+00) (5, -5.26962900161743164062e+00) (6, 1.25242292881011962891e+00) (7, 1.50000000000000000000e+03) (8, -1.10726539611816406250e+02) (9, -1.50000000000000000000e+03) (10, -7.74001693725585937500e+00) (11, 1.50000000000000000000e+03) (12, 1.50000000000000000000e+03) (13, 1.50000000000000000000e+03) (14, 1.50000000000000000000e+03) (15, -8.65879118442535400391e-01) (7, 1.50000000000000000000e+03) (8, 4.46197547912597656250e+01) (9, -1.50000000000000000000e+03) (10, -5.71844940185546875000e+01) (11, 1.50000000000000000000e+03) (12, 1.50000000000000000000e+03) (13, 1.50000000000000000000e+03) (14, 1.50000000000000000000e+03) (15, 4.71414451599121093750e+01) (7, 1.50000000000000000000e+03) (8, -1.02736579895019531250e+02) (9, -1.50000000000000000000e+03) (10, -1.83652084350585937500e+02) (11, 1.50000000000000000000e+03) (12, 1.50000000000000000000e+03) (13, 1.50000000000000000000e+03) (14, 1.80991134643554687500e+02) (15, -3.67565956115722656250e+01) (7, 1.50000000000000000000e+03) (8, 2.16172927856445312500e+02) (9, -1.50000000000000000000e+03) (10, -1.19769622802734375000e+02) (11, 1.50000000000000000000e+03) (12, 1.50000000000000000000e+03) (13, 1.50000000000000000000e+03) (14, 8.46294403076171875000e+01) (15, -2.22028770446777343750e+01) (7, 1.50000000000000000000e+03) (8, -1.93068313598632812500e+02) (9, -1.50000000000000000000e+03) (10, 5.89258041381835937500e+01) (11, 1.50000000000000000000e+03) (12, 1.50000000000000000000e+03) (13, 1.50000000000000000000e+03) (14, 1.50000000000000000000e+03) (15, 1.73630714416503906250e+01) (7, 1.50000000000000000000e+03) (8, 1.90974502563476562500e+01) (9, -1.15498608398437500000e+03) (10, 8.50166503906250000000e+02) (11, 1.50000000000000000000e+03) (12, -8.55337047576904296875e+00) (13, 1.50000000000000000000e+03) (14, 9.64992218017578125000e+01) (15, -7.83783578872680664062e+00) (7, 1.50000000000000000000e+03) (8, 3.19138469696044921875e+01) (9, -1.50000000000000000000e+03) (10, 4.48732900619506835938e+00) (11, 1.50000000000000000000e+03) (12, 1.50000000000000000000e+03) (13, 1.50000000000000000000e+03) (14, 1.50000000000000000000e+03) (15, -3.40605676174163818359e-01) (7, 1.50000000000000000000e+03) (8, -9.16224975585937500000e+01) (9, -1.50000000000000000000e+03) (10, 7.40267822265625000000e+02) (11, 1.50000000000000000000e+03) (12, 1.50000000000000000000e+03) (13, 1.50000000000000000000e+03) (14, 1.50000000000000000000e+03) (15, 7.75164842605590820312e+00) (16, -1.11634746193885803223e-01) (17, -3.67365509271621704102e-01) (18, -5.30467033386230468750e-01) (19, -3.54242056608200073242e-01) (20, -3.41857850551605224609e-01) (21, -8.19373369216918945312e-01) (22, -3.16294282674789428711e-01) (23, -2.03845381736755371094e-01) (24, -2.93770134449005126953e-01) 
