FANN_FLO_2.1
num_layers=3
learning_rate=0.400000
connection_rate=1.000000
network_type=0
learning_momentum=0.000000
training_algorithm=2
train_error_function=1
train_stop_function=0
cascade_output_change_fraction=0.010000
quickprop_decay=-0.000100
quickprop_mu=1.750000
rprop_increase_factor=1.200000
rprop_decrease_factor=0.500000
rprop_delta_min=0.000000
rprop_delta_max=50.000000
rprop_delta_zero=0.100000
cascade_output_stagnation_epochs=12
cascade_candidate_change_fraction=0.010000
cascade_candidate_stagnation_epochs=12
cascade_max_out_epochs=150
cascade_min_out_epochs=50
cascade_max_cand_epochs=150
cascade_min_cand_epochs=50
cascade_num_candidate_groups=2
bit_fail_limit=3.49999994039535522461e-01
cascade_candidate_limit=1.00000000000000000000e+03
cascade_weight_multiplier=4.00000005960464477539e-01
cascade_activation_functions_count=10
cascade_activation_functions=3 5 7 8 10 11 14 15 16 17 
cascade_activation_steepnesses_count=4
cascade_activation_steepnesses=2.50000000000000000000e-01 5.00000000000000000000e-01 7.50000000000000000000e-01 1.00000000000000000000e+00 
layer_sizes=19 3 3 
scale_included=0
neurons (num_inputs, activation_function, activation_steepness)=(0, 0, 0.00000000000000000000e+00) (0, 0, 0.00000000000000000000e+00) (0, 0, 0.00000000000000000000e+00) (0, 0, 0.00000000000000000000e+00) (0, 0, 0.00000000000000000000e+00) (0, 0, 0.00000000000000000000e+00) (0, 0, 0.00000000000000000000e+00) (0, 0, 0.00000000000000000000e+00) (0, 0, 0.00000000000000000000e+00) (0, 0, 0.00000000000000000000e+00) (0, 0, 0.00000000000000000000e+00) (0, 0, 0.00000000000000000000e+00) (0, 0, 0.00000000000000000000e+00) (0, 0, 0.00000000000000000000e+00) (0, 0, 0.00000000000000000000e+00) (0, 0, 0.00000000000000000000e+00) (0, 0, 0.00000000000000000000e+00) (0, 0, 0.00000000000000000000e+00) (0, 0, 0.00000000000000000000e+00) (19, 3, 5.00000000000000000000e-01) (19, 3, 5.00000000000000000000e-01) (0, 3, 0.00000000000000000000e+00) (3, 3, 5.00000000000000000000e-01) (3, 3, 5.00000000000000000000e-01) (0, 3, 0.00000000000000000000e+00) 
connections (connected_to_neuron, weight)=(0, 3.92984533309936523438e+00) (1, -6.58199787139892578125e-02) (2, -6.16432762145996093750e+00) (3, 2.17152571678161621094e+00) (4, -8.72282981872558593750e-01) (5, -6.10236263275146484375e+00) (6, 4.49335050582885742188e+00) (7, -2.71583288908004760742e-01) (8, -6.91772174835205078125e+00) (9, -4.46678590774536132812e+00) (10, -1.81348252296447753906e+00) (11, 6.29078769683837890625e+00) (12, -2.93584299087524414062e+00) (13, -3.64626258611679077148e-01) (14, 5.33513402938842773438e+00) (15, -1.77284687757492065430e-01) (16, 6.38313293457031250000e-02) (17, 5.86494588851928710938e+00) (18, -2.69299530982971191406e+00) (0, -4.35768222808837890625e+00) (1, -1.02550220489501953125e+00) (2, 5.66700506210327148438e+00) (3, -3.23806464672088623047e-01) (4, -1.77292883396148681641e+00) (5, 1.13659963607788085938e+01) (6, -1.80064511299133300781e+00) (7, 1.26741027832031250000e+00) (8, 6.70288562774658203125e+00) (9, -5.77368795871734619141e-01) (10, 7.56891250610351562500e-01) (11, -1.24580192565917968750e+01) (12, 1.57366502285003662109e+00) (13, 2.05024695396423339844e+00) (14, -6.62371253967285156250e+00) (15, -1.39399254322052001953e+00) (16, 3.57748913764953613281e+00) (17, -5.29937553405761718750e+00) (18, -3.79274368286132812500e+00) (19, -1.34693086147308349609e+00) (20, -1.32583522796630859375e+00) (21, 1.30530700087547302246e-01) (19, 1.34726905822753906250e+00) (20, 1.32553052902221679688e+00) (21, -1.31279736757278442383e-01) 
