FANN_FLO_2.1
num_layers=4
learning_rate=0.500000
connection_rate=1.000000
network_type=0
learning_momentum=0.000000
training_algorithm=2
train_error_function=1
train_stop_function=0
cascade_output_change_fraction=0.010000
quickprop_decay=-0.000100
quickprop_mu=1.750000
rprop_increase_factor=1.200000
rprop_decrease_factor=0.500000
rprop_delta_min=0.000000
rprop_delta_max=50.000000
rprop_delta_zero=0.100000
cascade_output_stagnation_epochs=12
cascade_candidate_change_fraction=0.010000
cascade_candidate_stagnation_epochs=12
cascade_max_out_epochs=150
cascade_min_out_epochs=50
cascade_max_cand_epochs=150
cascade_min_cand_epochs=50
cascade_num_candidate_groups=2
bit_fail_limit=3.49999994039535522461e-01
cascade_candidate_limit=1.00000000000000000000e+03
cascade_weight_multiplier=4.00000005960464477539e-01
cascade_activation_functions_count=10
cascade_activation_functions=3 5 7 8 10 11 14 15 16 17 
cascade_activation_steepnesses_count=4
cascade_activation_steepnesses=2.50000000000000000000e-01 5.00000000000000000000e-01 7.50000000000000000000e-01 1.00000000000000000000e+00 
layer_sizes=10 3 3 2 
scale_included=0
neurons (num_inputs, activation_function, activation_steepness)=(0, 0, 0.00000000000000000000e+00) (0, 0, 0.00000000000000000000e+00) (0, 0, 0.00000000000000000000e+00) (0, 0, 0.00000000000000000000e+00) (0, 0, 0.00000000000000000000e+00) (0, 0, 0.00000000000000000000e+00) (0, 0, 0.00000000000000000000e+00) (0, 0, 0.00000000000000000000e+00) (0, 0, 0.00000000000000000000e+00) (0, 0, 0.00000000000000000000e+00) (10, 3, 5.00000000000000000000e-01) (10, 3, 5.00000000000000000000e-01) (0, 3, 0.00000000000000000000e+00) (3, 3, 5.00000000000000000000e-01) (3, 3, 5.00000000000000000000e-01) (0, 3, 0.00000000000000000000e+00) (3, 3, 5.00000000000000000000e-01) (0, 3, 0.00000000000000000000e+00) 
connections (connected_to_neuron, weight)=(0, -2.54476623535156250000e+02) (1, 6.75752639770507812500e+00) (2, 2.17856431007385253906e+00) (3, -1.53003066778182983398e-01) (4, 8.06301689147949218750e+00) (5, 1.98738014698028564453e+00) (6, -3.28864550590515136719e+00) (7, 2.28030136108398437500e+02) (8, 4.20675009489059448242e-01) (9, 8.29121410846710205078e-01) (0, -4.21483516693115234375e+00) (1, 2.54353690147399902344e+00) (2, -1.41553926467895507812e+00) (3, -1.23076808452606201172e+00) (4, 6.31509208679199218750e+00) (5, 1.86994755268096923828e+00) (6, -1.99707126617431640625e+00) (7, -4.30031567811965942383e-01) (8, -3.15753936767578125000e+00) (9, 6.53273642063140869141e-01) (10, 2.84471184015274047852e-01) (11, 4.44150000810623168945e-01) (12, 4.17324841022491455078e-01) (10, 1.66579856872558593750e+01) (11, 1.08487768173217773438e+01) (12, -4.80482769012451171875e+00) (13, -1.70856070518493652344e+00) (14, 2.98206925392150878906e+00) (15, -8.32453072071075439453e-01) 
