FANN_FLO_2.1
num_layers=3
learning_rate=0.500000
connection_rate=1.000000
network_type=0
learning_momentum=0.000000
training_algorithm=2
train_error_function=1
train_stop_function=0
cascade_output_change_fraction=0.010000
quickprop_decay=-0.000100
quickprop_mu=1.750000
rprop_increase_factor=1.200000
rprop_decrease_factor=0.500000
rprop_delta_min=0.000000
rprop_delta_max=50.000000
rprop_delta_zero=0.100000
cascade_output_stagnation_epochs=12
cascade_candidate_change_fraction=0.010000
cascade_candidate_stagnation_epochs=12
cascade_max_out_epochs=150
cascade_min_out_epochs=50
cascade_max_cand_epochs=150
cascade_min_cand_epochs=50
cascade_num_candidate_groups=2
bit_fail_limit=3.49999994039535522461e-01
cascade_candidate_limit=1.00000000000000000000e+03
cascade_weight_multiplier=4.00000005960464477539e-01
cascade_activation_functions_count=10
cascade_activation_functions=3 5 7 8 10 11 14 15 16 17 
cascade_activation_steepnesses_count=4
cascade_activation_steepnesses=2.50000000000000000000e-01 5.00000000000000000000e-01 7.50000000000000000000e-01 1.00000000000000000000e+00 
layer_sizes=10 5 2 
scale_included=0
neurons (num_inputs, activation_function, activation_steepness)=(0, 0, 0.00000000000000000000e+00) (0, 0, 0.00000000000000000000e+00) (0, 0, 0.00000000000000000000e+00) (0, 0, 0.00000000000000000000e+00) (0, 0, 0.00000000000000000000e+00) (0, 0, 0.00000000000000000000e+00) (0, 0, 0.00000000000000000000e+00) (0, 0, 0.00000000000000000000e+00) (0, 0, 0.00000000000000000000e+00) (0, 0, 0.00000000000000000000e+00) (10, 3, 5.00000000000000000000e-01) (10, 3, 5.00000000000000000000e-01) (10, 3, 5.00000000000000000000e-01) (10, 3, 5.00000000000000000000e-01) (0, 3, 0.00000000000000000000e+00) (5, 3, 5.00000000000000000000e-01) (0, 3, 0.00000000000000000000e+00) 
connections (connected_to_neuron, weight)=(0, 1.15541982650756835938e+00) (1, 2.18299694061279296875e+01) (2, 3.46957755088806152344e+00) (3, -3.36704993247985839844e+00) (4, -5.25811004638671875000e+00) (5, 1.02154703140258789062e+01) (6, -2.70273933410644531250e+01) (7, -6.19540548324584960938e+00) (8, -4.39667320251464843750e+00) (9, 2.95387339591979980469e+00) (0, 4.97231371700763702393e-02) (1, 1.88261836767196655273e-01) (2, -1.49989611816406250000e+03) (3, 4.24565047025680541992e-01) (4, -1.05237536132335662842e-01) (5, -6.64259672164916992188e-01) (6, 1.25500178337097167969e+00) (7, 1.44212591648101806641e+00) (8, 3.65722412109375000000e+02) (9, 5.32224476337432861328e-01) (0, 3.41671675443649291992e-01) (1, 5.56073844432830810547e-01) (2, -1.49974475097656250000e+03) (3, 7.15022027492523193359e-01) (4, 5.71352243423461914062e-02) (5, -2.51158237457275390625e+00) (6, 1.44537317752838134766e+00) (7, 1.99650335311889648438e+00) (8, 3.65980072021484375000e+02) (9, 3.64114403724670410156e-01) (0, -2.35388422012329101562e+00) (1, -7.68583476543426513672e-01) (2, -1.49999645996093750000e+03) (3, 2.69092130661010742188e+00) (4, 2.59527564048767089844e-02) (5, -3.87377071380615234375e+00) (6, 2.15426516532897949219e+00) (7, 1.35755026340484619141e+00) (8, 3.68428314208984375000e+02) (9, 2.83049166202545166016e-01) (10, 3.55415320396423339844e+00) (11, 1.14265811443328857422e+00) (12, 1.09477746486663818359e+00) (13, 1.58141255378723144531e+00) (14, -2.65139889717102050781e+00) 
