FANN_FLO_2.1
num_layers=4
learning_rate=0.400000
connection_rate=1.000000
network_type=0
learning_momentum=0.000000
training_algorithm=2
train_error_function=1
train_stop_function=0
cascade_output_change_fraction=0.010000
quickprop_decay=-0.000100
quickprop_mu=1.750000
rprop_increase_factor=1.200000
rprop_decrease_factor=0.500000
rprop_delta_min=0.000000
rprop_delta_max=50.000000
rprop_delta_zero=0.100000
cascade_output_stagnation_epochs=12
cascade_candidate_change_fraction=0.010000
cascade_candidate_stagnation_epochs=12
cascade_max_out_epochs=150
cascade_min_out_epochs=50
cascade_max_cand_epochs=150
cascade_min_cand_epochs=50
cascade_num_candidate_groups=2
bit_fail_limit=3.49999994039535522461e-01
cascade_candidate_limit=1.00000000000000000000e+03
cascade_weight_multiplier=4.00000005960464477539e-01
cascade_activation_functions_count=10
cascade_activation_functions=3 5 7 8 10 11 14 15 16 17 
cascade_activation_steepnesses_count=4
cascade_activation_steepnesses=2.50000000000000000000e-01 5.00000000000000000000e-01 7.50000000000000000000e-01 1.00000000000000000000e+00 
layer_sizes=7 9 9 2 
scale_included=0
neurons (num_inputs, activation_function, activation_steepness)=(0, 0, 0.00000000000000000000e+00) (0, 0, 0.00000000000000000000e+00) (0, 0, 0.00000000000000000000e+00) (0, 0, 0.00000000000000000000e+00) (0, 0, 0.00000000000000000000e+00) (0, 0, 0.00000000000000000000e+00) (0, 0, 0.00000000000000000000e+00) (7, 3, 5.00000000000000000000e-01) (7, 3, 5.00000000000000000000e-01) (7, 3, 5.00000000000000000000e-01) (7, 3, 5.00000000000000000000e-01) (7, 3, 5.00000000000000000000e-01) (7, 3, 5.00000000000000000000e-01) (7, 3, 5.00000000000000000000e-01) (7, 3, 5.00000000000000000000e-01) (0, 3, 0.00000000000000000000e+00) (9, 3, 5.00000000000000000000e-01) (9, 3, 5.00000000000000000000e-01) (9, 3, 5.00000000000000000000e-01) (9, 3, 5.00000000000000000000e-01) (9, 3, 5.00000000000000000000e-01) (9, 3, 5.00000000000000000000e-01) (9, 3, 5.00000000000000000000e-01) (9, 3, 5.00000000000000000000e-01) (0, 3, 0.00000000000000000000e+00) (9, 3, 5.00000000000000000000e-01) (0, 3, 0.00000000000000000000e+00) 
connections (connected_to_neuron, weight)=(0, -1.59372959136962890625e+01) (1, 1.47785816192626953125e+01) (2, -1.53114786148071289062e+01) (3, -5.27444267272949218750e+00) (4, -2.04905033111572265625e+00) (5, 1.41273339843750000000e+03) (6, 2.96549463272094726562e+00) (0, -1.94482684135437011719e+00) (1, -1.49723266601562500000e+03) (2, 1.09072425842285156250e+02) (3, -1.47416027832031250000e+03) (4, -1.39058483886718750000e+03) (5, 1.50000000000000000000e+03) (6, -6.93097352981567382812e+00) (0, -2.50478229522705078125e+01) (1, -1.75401992797851562500e+01) (2, 9.87254211425781250000e+02) (3, -4.45593353271484375000e+02) (4, -1.45348205566406250000e+03) (5, 1.48270385742187500000e+03) (6, 3.82602643966674804688e+00) (0, -2.02475309371948242188e+00) (1, -2.40682339668273925781e+00) (2, 2.76751184463500976562e+00) (3, -5.38281345367431640625e+00) (4, -2.39215230941772460938e+00) (5, 6.32667660713195800781e-01) (6, 5.22360420227050781250e+00) (0, -2.08021426200866699219e+00) (1, -4.90299377441406250000e+01) (2, 2.96886100769042968750e+01) (3, -5.49018363952636718750e+01) (4, -4.55586984753608703613e-02) (5, 9.32700157165527343750e+00) (6, 3.86190071105957031250e+01) (0, -2.73525848388671875000e+02) (1, -1.47520666503906250000e+03) (2, 3.08671836853027343750e+01) (3, -3.31871490478515625000e+02) (4, -2.74473972320556640625e+01) (5, 1.50000000000000000000e+03) (6, 2.13363599777221679688e+00) (0, -1.56935377120971679688e+01) (1, 1.49530992507934570312e+01) (2, -5.68986129760742187500e+00) (3, -4.30549573898315429688e+00) (4, -2.02847719192504882812e+00) (5, 1.41273339843750000000e+03) (6, 2.01915144920349121094e+00) (0, 6.92287778854370117188e+00) (1, -2.33363822102546691895e-01) (2, -7.06797540187835693359e-01) (3, -2.60754299163818359375e+00) (4, -5.43927431106567382812e-01) (5, -1.31338415527343750000e+03) (6, -7.95038938522338867188e-01) (7, 1.50000000000000000000e+03) (8, 1.50000000000000000000e+03) (9, 1.50000000000000000000e+03) (10, 1.50000000000000000000e+03) (11, 1.50000000000000000000e+03) (12, 1.50000000000000000000e+03) (13, 1.50000000000000000000e+03) (14, -9.89729690551757812500e+01) (15, 6.19137287139892578125e+00) (7, 1.50000000000000000000e+03) (8, 1.50000000000000000000e+03) (9, 1.50000000000000000000e+03) (10, 1.50000000000000000000e+03) (11, 1.50000000000000000000e+03) (12, 1.50000000000000000000e+03) (13, 1.50000000000000000000e+03) (14, -9.91172180175781250000e+01) (15, 6.83120918273925781250e+00) (7, 1.50000000000000000000e+03) (8, 1.50000000000000000000e+03) (9, 1.50000000000000000000e+03) (10, 1.50000000000000000000e+03) (11, 1.50000000000000000000e+03) (12, 1.50000000000000000000e+03) (13, 1.50000000000000000000e+03) (14, -7.64280029296875000000e+02) (15, -1.62929940223693847656e+00) (7, 1.50000000000000000000e+03) (8, 1.50000000000000000000e+03) (9, 1.50000000000000000000e+03) (10, 1.50000000000000000000e+03) (11, 1.50000000000000000000e+03) (12, 1.50000000000000000000e+03) (13, 1.50000000000000000000e+03) (14, -9.70528182983398437500e+01) (15, 4.84799242019653320312e+00) (7, 1.50000000000000000000e+03) (8, 1.50000000000000000000e+03) (9, 1.50000000000000000000e+03) (10, 1.50000000000000000000e+03) (11, 1.50000000000000000000e+03) (12, 1.50000000000000000000e+03) (13, 1.50000000000000000000e+03) (14, -9.90987625122070312500e+01) (15, 6.26603269577026367188e+00) (7, 1.50000000000000000000e+03) (8, 1.50000000000000000000e+03) (9, 1.50000000000000000000e+03) (10, 1.50000000000000000000e+03) (11, 1.50000000000000000000e+03) (12, 1.50000000000000000000e+03) (13, 1.50000000000000000000e+03) (14, -3.41565521240234375000e+02) (15, 8.44463157653808593750e+00) (7, 1.50000000000000000000e+03) (8, 1.50000000000000000000e+03) (9, 1.50000000000000000000e+03) (10, 1.50000000000000000000e+03) (11, 1.50000000000000000000e+03) (12, 1.50000000000000000000e+03) (13, 1.50000000000000000000e+03) (14, -9.56093521118164062500e+01) (15, 3.41641712188720703125e+00) (7, 1.50000000000000000000e+03) (8, 1.50000000000000000000e+03) (9, 1.50000000000000000000e+03) (10, 1.50000000000000000000e+03) (11, 1.50000000000000000000e+03) (12, 1.50000000000000000000e+03) (13, 1.50000000000000000000e+03) (14, -9.56908798217773437500e+01) (15, 3.44631481170654296875e+00) (16, -2.10477411746978759766e-01) (17, -2.81218618154525756836e-01) (18, -1.08892107009887695312e+00) (19, -2.63170182704925537109e-01) (20, -3.03954064846038818359e-01) (21, -3.45422625541687011719e-01) (22, -1.98603227734565734863e-01) (23, -2.30912268161773681641e-01) (24, -2.82505247741937637329e-02) 
