FANN_FLO_2.1
num_layers=4
learning_rate=0.500000
connection_rate=1.000000
network_type=0
learning_momentum=0.000000
training_algorithm=2
train_error_function=1
train_stop_function=0
cascade_output_change_fraction=0.010000
quickprop_decay=-0.000100
quickprop_mu=1.750000
rprop_increase_factor=1.200000
rprop_decrease_factor=0.500000
rprop_delta_min=0.000000
rprop_delta_max=50.000000
rprop_delta_zero=0.100000
cascade_output_stagnation_epochs=12
cascade_candidate_change_fraction=0.010000
cascade_candidate_stagnation_epochs=12
cascade_max_out_epochs=150
cascade_min_out_epochs=50
cascade_max_cand_epochs=150
cascade_min_cand_epochs=50
cascade_num_candidate_groups=2
bit_fail_limit=3.49999994039535522461e-01
cascade_candidate_limit=1.00000000000000000000e+03
cascade_weight_multiplier=4.00000005960464477539e-01
cascade_activation_functions_count=10
cascade_activation_functions=3 5 7 8 10 11 14 15 16 17 
cascade_activation_steepnesses_count=4
cascade_activation_steepnesses=2.50000000000000000000e-01 5.00000000000000000000e-01 7.50000000000000000000e-01 1.00000000000000000000e+00 
layer_sizes=2 5 5 3 
scale_included=0
neurons (num_inputs, activation_function, activation_steepness)=(0, 0, 0.00000000000000000000e+00) (0, 0, 0.00000000000000000000e+00) (2, 3, 5.00000000000000000000e-01) (2, 3, 5.00000000000000000000e-01) (2, 3, 5.00000000000000000000e-01) (2, 3, 5.00000000000000000000e-01) (0, 3, 0.00000000000000000000e+00) (5, 3, 5.00000000000000000000e-01) (5, 3, 5.00000000000000000000e-01) (5, 3, 5.00000000000000000000e-01) (5, 3, 5.00000000000000000000e-01) (0, 3, 0.00000000000000000000e+00) (5, 0, 5.00000000000000000000e-01) (5, 0, 5.00000000000000000000e-01) (0, 0, 0.00000000000000000000e+00) 
connections (connected_to_neuron, weight)=(0, -8.02308940887451171875e+00) (1, 7.12353467941284179688e-01) (0, -1.00288162231445312500e+01) (1, 8.86003434658050537109e-01) (0, -6.89576435089111328125e+00) (1, 1.41709005832672119141e+00) (0, -1.21730918884277343750e+01) (1, 4.09645032882690429688e+00) (2, 2.06364893913269042969e+00) (3, 3.22103953361511230469e+00) (4, 4.27258104085922241211e-01) (5, 6.22172403335571289062e+00) (6, -5.73716783523559570312e+00) (2, -5.56167244911193847656e-01) (3, -5.57293534278869628906e-01) (4, -8.11454868316650390625e+00) (5, -9.66960608959197998047e-01) (6, 6.73837041854858398438e+00) (2, -3.22646789550781250000e+01) (3, 3.01514244079589843750e+00) (4, 3.25598740577697753906e+00) (5, 2.08497905731201171875e+01) (6, -3.13758730888366699219e+00) (2, 2.23557209968566894531e+00) (3, 2.78945112228393554688e+00) (4, 7.32859253883361816406e-01) (5, 9.56941604614257812500e+00) (6, -4.81662893295288085938e+00) (7, -5.71889221668243408203e-01) (8, -2.42590022087097167969e+00) (9, -1.37525200843811035156e+00) (10, -6.91544353961944580078e-01) (11, 2.55223703384399414062e+00) (7, 1.76622426509857177734e+00) (8, -1.75607252120971679688e+00) (9, 4.19188410043716430664e-01) (10, 7.51368224620819091797e-01) (11, -4.35540437698364257812e-01) 
