FANN_FLO_2.1
num_layers=4
learning_rate=0.500000
connection_rate=1.000000
network_type=0
learning_momentum=0.000000
training_algorithm=2
train_error_function=1
train_stop_function=0
cascade_output_change_fraction=0.010000
quickprop_decay=-0.000100
quickprop_mu=1.750000
rprop_increase_factor=1.200000
rprop_decrease_factor=0.500000
rprop_delta_min=0.000000
rprop_delta_max=50.000000
rprop_delta_zero=0.100000
cascade_output_stagnation_epochs=12
cascade_candidate_change_fraction=0.010000
cascade_candidate_stagnation_epochs=12
cascade_max_out_epochs=150
cascade_min_out_epochs=50
cascade_max_cand_epochs=150
cascade_min_cand_epochs=50
cascade_num_candidate_groups=2
bit_fail_limit=3.49999994039535522461e-01
cascade_candidate_limit=1.00000000000000000000e+03
cascade_weight_multiplier=4.00000005960464477539e-01
cascade_activation_functions_count=10
cascade_activation_functions=3 5 7 8 10 11 14 15 16 17 
cascade_activation_steepnesses_count=4
cascade_activation_steepnesses=2.50000000000000000000e-01 5.00000000000000000000e-01 7.50000000000000000000e-01 1.00000000000000000000e+00 
layer_sizes=10 9 9 2 
scale_included=0
neurons (num_inputs, activation_function, activation_steepness)=(0, 0, 0.00000000000000000000e+00) (0, 0, 0.00000000000000000000e+00) (0, 0, 0.00000000000000000000e+00) (0, 0, 0.00000000000000000000e+00) (0, 0, 0.00000000000000000000e+00) (0, 0, 0.00000000000000000000e+00) (0, 0, 0.00000000000000000000e+00) (0, 0, 0.00000000000000000000e+00) (0, 0, 0.00000000000000000000e+00) (0, 0, 0.00000000000000000000e+00) (10, 3, 5.00000000000000000000e-01) (10, 3, 5.00000000000000000000e-01) (10, 3, 5.00000000000000000000e-01) (10, 3, 5.00000000000000000000e-01) (10, 3, 5.00000000000000000000e-01) (10, 3, 5.00000000000000000000e-01) (10, 3, 5.00000000000000000000e-01) (10, 3, 5.00000000000000000000e-01) (0, 3, 0.00000000000000000000e+00) (9, 3, 5.00000000000000000000e-01) (9, 3, 5.00000000000000000000e-01) (9, 3, 5.00000000000000000000e-01) (9, 3, 5.00000000000000000000e-01) (9, 3, 5.00000000000000000000e-01) (9, 3, 5.00000000000000000000e-01) (9, 3, 5.00000000000000000000e-01) (9, 3, 5.00000000000000000000e-01) (0, 3, 0.00000000000000000000e+00) (9, 3, 5.00000000000000000000e-01) (0, 3, 0.00000000000000000000e+00) 
connections (connected_to_neuron, weight)=(0, 3.90299558639526367188e-01) (1, 8.18731129169464111328e-01) (2, 4.93525892496109008789e-01) (3, 1.79403185844421386719e-01) (4, 3.45310509204864501953e-01) (5, 5.50924003124237060547e-01) (6, -1.91567683219909667969e+00) (7, 4.28333878517150878906e-01) (8, -1.80144941806793212891e+00) (9, 1.20851717889308929443e-01) (0, -1.50000000000000000000e+03) (1, -3.27649235725402832031e+00) (2, -1.05603647232055664062e+00) (3, -2.32943505048751831055e-01) (4, -9.59896519780158996582e-02) (5, 1.15779668092727661133e-01) (6, 4.20314148068428039551e-02) (7, 3.18716692924499511719e+00) (8, 1.31842768192291259766e+00) (9, -6.51127636432647705078e-01) (0, -3.07896304130554199219e+00) (1, -2.02962136268615722656e+00) (2, -2.33051300048828125000e+00) (3, -3.95464509725570678711e-01) (4, -1.39503031969070434570e-01) (5, -1.64048358798027038574e-01) (6, 9.09808874130249023438e-01) (7, -5.75235188007354736328e-01) (8, 1.24519884586334228516e+00) (9, -1.22674472630023956299e-01) (0, -1.12356128692626953125e+01) (1, -3.66571211814880371094e+00) (2, -1.13196097314357757568e-01) (3, 8.06314826011657714844e-01) (4, -1.27073541283607482910e-01) (5, 2.20793294906616210938e+00) (6, -3.52177470922470092773e-02) (7, 2.29591757059097290039e-01) (8, 7.66916573047637939453e-01) (9, -1.96693494915962219238e-01) (0, -1.13688297271728515625e+01) (1, -4.03632545471191406250e+00) (2, -1.99798032641410827637e-01) (3, 3.41335922479629516602e-01) (4, -1.69843405485153198242e-01) (5, 2.07655858993530273438e+00) (6, -1.92230120301246643066e-02) (7, -1.84879601001739501953e-01) (8, 7.72840619087219238281e-01) (9, -2.99708638340234756470e-02) (0, -2.78852790594100952148e-01) (1, 2.64509868621826171875e+00) (2, -5.38686573505401611328e-01) (3, 5.42799495160579681396e-02) (4, 1.67725682258605957031e+00) (5, -1.84753799438476562500e+00) (6, -4.83690977096557617188e+00) (7, 8.12440872192382812500e-01) (8, -1.74889504909515380859e+00) (9, 2.60585844516754150391e-01) (0, 3.08165407180786132812e+00) (1, 2.96456527709960937500e+00) (2, 2.30442214012145996094e+00) (3, 1.26159340143203735352e-01) (4, 1.70271706581115722656e+00) (5, 1.23318684101104736328e+00) (6, -2.97100448608398437500e+00) (7, 3.73804301023483276367e-01) (8, -2.15137267112731933594e+00) (9, 3.15207213163375854492e-01) (0, 7.28929996490478515625e-01) (1, 2.06650376319885253906e+00) (2, 2.76465535163879394531e-01) (3, -1.05270266532897949219e+00) (4, -1.35502800345420837402e-01) (5, 7.37780809402465820312e-01) (6, -1.41549682617187500000e+01) (7, -2.23331883549690246582e-01) (8, -2.07769587635993957520e-01) (9, -5.09717881679534912109e-01) (10, 2.70349025726318359375e+00) (11, 5.16553497314453125000e+00) (12, -4.77366018295288085938e+00) (13, 1.24311149120330810547e+00) (14, 9.77518320083618164062e-01) (15, 2.67549490928649902344e+00) (16, 2.71384119987487792969e+00) (17, -8.37670135498046875000e+00) (18, 7.23430663347244262695e-02) (10, 2.82314538955688476562e+00) (11, 2.52129507064819335938e+00) (12, 1.10686540603637695312e-01) (13, 1.79090368747711181641e+00) (14, 1.26902449131011962891e+00) (15, 2.82349658012390136719e+00) (16, 2.82823157310485839844e+00) (17, -7.11546373367309570312e+00) (18, 1.11409150063991546631e-01) (10, 2.74221849441528320312e+00) (11, 3.54403305053710937500e+00) (12, -1.35978177189826965332e-01) (13, 1.39471149444580078125e+00) (14, 1.46576070785522460938e+00) (15, 2.95478153228759765625e+00) (16, 2.82528257369995117188e+00) (17, -7.06644248962402343750e+00) (18, 1.60026222467422485352e-01) (10, -5.03329896926879882812e+00) (11, -1.38616096973419189453e+00) (12, -4.16836440563201904297e-01) (13, -4.05014753341674804688e+00) (14, -1.77199506759643554688e+00) (15, -2.81928801536560058594e+00) (16, -2.53348898887634277344e+00) (17, 1.81148910522460937500e+00) (18, 6.79751455783843994141e-01) (10, -4.87425565719604492188e+00) (11, -1.32999002933502197266e+00) (12, 1.23952465057373046875e+01) (13, -2.85832786560058593750e+00) (14, -9.08987522125244140625e+00) (15, -2.73336315155029296875e+00) (16, -2.45112299919128417969e+00) (17, -6.47639560699462890625e+00) (18, 2.28960275650024414062e+00) (10, 2.69019985198974609375e+00) (11, 1.65637707710266113281e+00) (12, 3.83687824010848999023e-01) (13, 2.40287518501281738281e+00) (14, 1.40128469467163085938e+00) (15, 3.25833582878112792969e+00) (16, 2.85528349876403808594e+00) (17, -9.48174417018890380859e-01) (18, 1.39206841588020324707e-01) (10, 2.36143302917480468750e+00) (11, 6.27886152267456054688e+00) (12, -2.47006416320800781250e+01) (13, 3.66480350494384765625e+00) (14, 9.24065399169921875000e+00) (15, 2.74569010734558105469e+00) (16, 2.51709914207458496094e+00) (17, 5.92117452621459960938e+00) (18, 2.34698727726936340332e-01) (10, -3.78281426429748535156e+00) (11, -1.93453025817871093750e+00) (12, 2.04936408996582031250e+00) (13, -1.24270105361938476562e+00) (14, -1.03975117206573486328e+00) (15, -1.92603242397308349609e+00) (16, -2.02871727943420410156e+00) (17, 8.36370944976806640625e+00) (18, 2.79240727424621582031e-01) (19, 3.00971537828445434570e-01) (20, 3.68434160947799682617e-01) (21, 3.74866515398025512695e-01) (22, -1.34686309814453125000e+02) (23, -3.69053306579589843750e+01) (24, 3.23848515748977661133e-01) (25, 3.72947901487350463867e-01) (26, -3.34824514389038085938e+00) (27, 3.49551171064376831055e-01) 
