FANN_FLO_2.1
num_layers=3
learning_rate=0.400000
connection_rate=1.000000
network_type=0
learning_momentum=0.000000
training_algorithm=2
train_error_function=1
train_stop_function=0
cascade_output_change_fraction=0.010000
quickprop_decay=-0.000100
quickprop_mu=1.750000
rprop_increase_factor=1.200000
rprop_decrease_factor=0.500000
rprop_delta_min=0.000000
rprop_delta_max=50.000000
rprop_delta_zero=0.100000
cascade_output_stagnation_epochs=12
cascade_candidate_change_fraction=0.010000
cascade_candidate_stagnation_epochs=12
cascade_max_out_epochs=150
cascade_min_out_epochs=50
cascade_max_cand_epochs=150
cascade_min_cand_epochs=50
cascade_num_candidate_groups=2
bit_fail_limit=3.49999994039535522461e-01
cascade_candidate_limit=1.00000000000000000000e+03
cascade_weight_multiplier=4.00000005960464477539e-01
cascade_activation_functions_count=10
cascade_activation_functions=3 5 7 8 10 11 14 15 16 17 
cascade_activation_steepnesses_count=4
cascade_activation_steepnesses=2.50000000000000000000e-01 5.00000000000000000000e-01 7.50000000000000000000e-01 1.00000000000000000000e+00 
layer_sizes=7 9 2 
scale_included=0
neurons (num_inputs, activation_function, activation_steepness)=(0, 0, 0.00000000000000000000e+00) (0, 0, 0.00000000000000000000e+00) (0, 0, 0.00000000000000000000e+00) (0, 0, 0.00000000000000000000e+00) (0, 0, 0.00000000000000000000e+00) (0, 0, 0.00000000000000000000e+00) (0, 0, 0.00000000000000000000e+00) (7, 3, 5.00000000000000000000e-01) (7, 3, 5.00000000000000000000e-01) (7, 3, 5.00000000000000000000e-01) (7, 3, 5.00000000000000000000e-01) (7, 3, 5.00000000000000000000e-01) (7, 3, 5.00000000000000000000e-01) (7, 3, 5.00000000000000000000e-01) (7, 3, 5.00000000000000000000e-01) (0, 3, 0.00000000000000000000e+00) (9, 3, 5.00000000000000000000e-01) (0, 3, 0.00000000000000000000e+00) 
connections (connected_to_neuron, weight)=(0, 2.21088036894798278809e-01) (1, 2.40498825907707214355e-01) (2, -1.33374226093292236328e+00) (3, 1.78454482555389404297e+00) (4, -1.76026737689971923828e+00) (5, -1.49507164955139160156e+00) (6, -6.35555759072303771973e-02) (0, -5.93291568756103515625e+00) (1, 5.27287364006042480469e-01) (2, 1.60197150707244873047e+00) (3, -3.88751530647277832031e+00) (4, -3.36849713325500488281e+00) (5, 1.75988924503326416016e+00) (6, 2.66988825798034667969e+00) (0, 8.69618713855743408203e-01) (1, 2.78920936584472656250e+00) (2, 5.51892340183258056641e-01) (3, -6.51243031024932861328e-01) (4, 4.44940090179443359375e+00) (5, -1.39814300537109375000e+01) (6, 5.31589698791503906250e+00) (0, 4.13812494277954101562e+00) (1, 2.79780030250549316406e+00) (2, -1.55479371547698974609e+00) (3, -5.17786455154418945312e+00) (4, 2.32203578948974609375e+00) (5, -2.26983547210693359375e+00) (6, 3.47164344787597656250e+00) (0, -1.22541475296020507812e+00) (1, -1.40927445888519287109e+00) (2, -5.78949117660522460938e+00) (3, 2.29191684722900390625e+00) (4, 6.19903624057769775391e-01) (5, 5.20147037506103515625e+00) (6, -1.42151629924774169922e+00) (0, -1.27080154418945312500e+00) (1, -1.12620842456817626953e+00) (2, -6.51517391204833984375e+00) (3, 3.58713209629058837891e-01) (4, 3.47148060798645019531e+00) (5, 3.02658486366271972656e+00) (6, -2.64774227142333984375e+00) (0, -3.28231239318847656250e+00) (1, -1.47636163234710693359e+00) (2, -3.03217673301696777344e+00) (3, 1.93370211124420166016e+00) (4, 5.29376089572906494141e-01) (5, 1.06456089019775390625e+00) (6, -1.29017889499664306641e+00) (0, -2.13575124740600585938e+00) (1, 8.14012825489044189453e-01) (2, 3.03087711334228515625e+00) (3, 4.31496667861938476562e+00) (4, 2.40721082687377929688e+00) (5, -1.03563385009765625000e+01) (6, -7.55683839321136474609e-01) (7, -2.50046014785766601562e+00) (8, -2.01084756851196289062e+00) (9, -1.94672715663909912109e+00) (10, -3.13866645097732543945e-01) (11, 8.98051977157592773438e-01) (12, 2.49152731895446777344e+00) (13, 2.70275807380676269531e+00) (14, 2.98367309570312500000e+00) (15, 2.85134851932525634766e-01) 
