FANN_FLO_2.1
num_layers=3
learning_rate=0.400000
connection_rate=1.000000
network_type=0
learning_momentum=0.000000
training_algorithm=2
train_error_function=1
train_stop_function=0
cascade_output_change_fraction=0.010000
quickprop_decay=-0.000100
quickprop_mu=1.750000
rprop_increase_factor=1.200000
rprop_decrease_factor=0.500000
rprop_delta_min=0.000000
rprop_delta_max=50.000000
rprop_delta_zero=0.100000
cascade_output_stagnation_epochs=12
cascade_candidate_change_fraction=0.010000
cascade_candidate_stagnation_epochs=12
cascade_max_out_epochs=150
cascade_min_out_epochs=50
cascade_max_cand_epochs=150
cascade_min_cand_epochs=50
cascade_num_candidate_groups=2
bit_fail_limit=3.49999994039535522461e-01
cascade_candidate_limit=1.00000000000000000000e+03
cascade_weight_multiplier=4.00000005960464477539e-01
cascade_activation_functions_count=10
cascade_activation_functions=3 5 7 8 10 11 14 15 16 17 
cascade_activation_steepnesses_count=4
cascade_activation_steepnesses=2.50000000000000000000e-01 5.00000000000000000000e-01 7.50000000000000000000e-01 1.00000000000000000000e+00 
layer_sizes=7 5 2 
scale_included=0
neurons (num_inputs, activation_function, activation_steepness)=(0, 0, 0.00000000000000000000e+00) (0, 0, 0.00000000000000000000e+00) (0, 0, 0.00000000000000000000e+00) (0, 0, 0.00000000000000000000e+00) (0, 0, 0.00000000000000000000e+00) (0, 0, 0.00000000000000000000e+00) (0, 0, 0.00000000000000000000e+00) (7, 3, 5.00000000000000000000e-01) (7, 3, 5.00000000000000000000e-01) (7, 3, 5.00000000000000000000e-01) (7, 3, 5.00000000000000000000e-01) (0, 3, 0.00000000000000000000e+00) (5, 3, 5.00000000000000000000e-01) (0, 3, 0.00000000000000000000e+00) 
connections (connected_to_neuron, weight)=(0, -1.18857240304350852966e-02) (1, -7.62084782123565673828e-01) (2, 1.35339212417602539062e+00) (3, 5.57079672813415527344e-01) (4, 2.18698644638061523438e+00) (5, 2.63698530197143554688e+00) (6, -2.47576642036437988281e+00) (0, 1.43656238913536071777e-01) (1, -3.47495555877685546875e-01) (2, -1.95779621601104736328e+00) (3, -2.86991953849792480469e-01) (4, -4.29284429550170898438e+00) (5, 1.39405412673950195312e+01) (6, -7.66735613346099853516e-01) (0, 1.59894061088562011719e+00) (1, 1.98516738414764404297e+00) (2, 8.99187183380126953125e+00) (3, -2.37721180915832519531e+00) (4, -2.12308788299560546875e+00) (5, -1.14853882789611816406e+00) (6, -6.91309645771980285645e-02) (0, 4.01827383041381835938e+00) (1, 2.31623220443725585938e+00) (2, 3.78375196456909179688e+00) (3, -4.63515710830688476562e+00) (4, 2.91203713417053222656e+00) (5, -7.19990253448486328125e+00) (6, 2.05098676681518554688e+00) (7, 5.21775341033935546875e+00) (8, -2.35225439071655273438e+00) (9, -2.13465476036071777344e+00) (10, -1.55944144725799560547e+00) (11, 5.22591173648834228516e-01) 
