FANN_FLO_2.1
num_layers=3
learning_rate=0.500000
connection_rate=1.000000
network_type=0
learning_momentum=0.000000
training_algorithm=2
train_error_function=1
train_stop_function=0
cascade_output_change_fraction=0.010000
quickprop_decay=-0.000100
quickprop_mu=1.750000
rprop_increase_factor=1.200000
rprop_decrease_factor=0.500000
rprop_delta_min=0.000000
rprop_delta_max=50.000000
rprop_delta_zero=0.100000
cascade_output_stagnation_epochs=12
cascade_candidate_change_fraction=0.010000
cascade_candidate_stagnation_epochs=12
cascade_max_out_epochs=150
cascade_min_out_epochs=50
cascade_max_cand_epochs=150
cascade_min_cand_epochs=50
cascade_num_candidate_groups=2
bit_fail_limit=3.49999994039535522461e-01
cascade_candidate_limit=1.00000000000000000000e+03
cascade_weight_multiplier=4.00000005960464477539e-01
cascade_activation_functions_count=10
cascade_activation_functions=3 5 7 8 10 11 14 15 16 17 
cascade_activation_steepnesses_count=4
cascade_activation_steepnesses=2.50000000000000000000e-01 5.00000000000000000000e-01 7.50000000000000000000e-01 1.00000000000000000000e+00 
layer_sizes=10 9 2 
scale_included=0
neurons (num_inputs, activation_function, activation_steepness)=(0, 0, 0.00000000000000000000e+00) (0, 0, 0.00000000000000000000e+00) (0, 0, 0.00000000000000000000e+00) (0, 0, 0.00000000000000000000e+00) (0, 0, 0.00000000000000000000e+00) (0, 0, 0.00000000000000000000e+00) (0, 0, 0.00000000000000000000e+00) (0, 0, 0.00000000000000000000e+00) (0, 0, 0.00000000000000000000e+00) (0, 0, 0.00000000000000000000e+00) (10, 3, 5.00000000000000000000e-01) (10, 3, 5.00000000000000000000e-01) (10, 3, 5.00000000000000000000e-01) (10, 3, 5.00000000000000000000e-01) (10, 3, 5.00000000000000000000e-01) (10, 3, 5.00000000000000000000e-01) (10, 3, 5.00000000000000000000e-01) (10, 3, 5.00000000000000000000e-01) (0, 3, 0.00000000000000000000e+00) (9, 3, 5.00000000000000000000e-01) (0, 3, 0.00000000000000000000e+00) 
connections (connected_to_neuron, weight)=(0, 5.87097120285034179688e+00) (1, 2.37376141548156738281e+00) (2, -7.27165043354034423828e-01) (3, -1.90369784832000732422e+00) (4, 1.00691127777099609375e+00) (5, 8.97429227828979492188e-01) (6, -1.74530563354492187500e+01) (7, 8.36429476737976074219e-01) (8, 2.94287371635437011719e+00) (9, -1.13809287548065185547e-01) (0, 5.01052761077880859375e+00) (1, 3.03098011016845703125e+00) (2, -3.77197146415710449219e+00) (3, -3.34060692787170410156e+00) (4, 1.39446032047271728516e+00) (5, 5.42332053184509277344e-01) (6, -1.29579544067382812500e+01) (7, 2.16419887542724609375e+00) (8, -1.95523127913475036621e-01) (9, 1.18862020969390869141e+00) (0, 2.67267775535583496094e+00) (1, -1.59609293937683105469e+00) (2, 3.61669719219207763672e-01) (3, -1.72283744812011718750e+00) (4, 4.34307873249053955078e-01) (5, -2.22952842712402343750e+00) (6, -2.69018959999084472656e+00) (7, -4.29890185594558715820e-01) (8, 1.34746098518371582031e+00) (9, 1.58659800887107849121e-01) (0, 1.95955157279968261719e-01) (1, 1.79850649833679199219e+00) (2, 1.57645857334136962891e+00) (3, -1.90459442138671875000e+00) (4, 3.96205037832260131836e-01) (5, -1.55714857578277587891e+00) (6, -1.85080206394195556641e+00) (7, -6.01773917675018310547e-01) (8, 1.65721201896667480469e+00) (9, -3.61740998923778533936e-02) (0, -1.13496132194995880127e-01) (1, -4.32610273361206054688e+00) (2, -1.04258656501770019531e+00) (3, 1.71424224972724914551e-01) (4, -6.95404112339019775391e-02) (5, 1.77037391662597656250e+01) (6, -7.83582305908203125000e+00) (7, -2.73613799363374710083e-02) (8, 3.76034164428710937500e+00) (9, -1.17956288158893585205e-01) (0, -3.00475090742111206055e-01) (1, 1.71635270118713378906e+00) (2, 1.42667210102081298828e+00) (3, -1.58126246929168701172e+00) (4, 2.56367534399032592773e-01) (5, -8.32771003246307373047e-01) (6, -1.52899765968322753906e+00) (7, -5.72495222091674804688e-01) (8, 1.57086932659149169922e+00) (9, -4.35434281826019287109e-02) (0, -8.36366653442382812500e-01) (1, -3.61615037918090820312e+00) (2, 3.73376131057739257812e-01) (3, -2.57944881916046142578e-01) (4, -1.34371548891067504883e-01) (5, 1.44437522888183593750e+01) (6, -4.19426059722900390625e+00) (7, -7.68144905567169189453e-01) (8, 4.13281351327896118164e-01) (9, -7.77993142604827880859e-01) (0, 1.89103138446807861328e+00) (1, 1.12554049491882324219e+00) (2, 9.65120851993560791016e-01) (3, -1.80218112468719482422e+00) (4, 3.78185331821441650391e-01) (5, -2.17838430404663085938e+00) (6, -1.10420250892639160156e+00) (7, -2.90797054767608642578e-01) (8, 4.75097596645355224609e-01) (9, 2.21646338701248168945e-01) (10, 1.25574719905853271484e+00) (11, 1.04797029495239257812e+00) (12, 1.69321751594543457031e+00) (13, 4.79011774063110351562e-01) (14, -1.50153970718383789062e+00) (15, 4.76498723030090332031e-01) (16, -1.53756546974182128906e+00) (17, 9.94403898715972900391e-01) (18, -1.82962119579315185547e-01) 
