FANN_FLO_2.1
num_layers=3
learning_rate=0.500000
connection_rate=1.000000
network_type=0
learning_momentum=0.000000
training_algorithm=2
train_error_function=1
train_stop_function=0
cascade_output_change_fraction=0.010000
quickprop_decay=-0.000100
quickprop_mu=1.750000
rprop_increase_factor=1.200000
rprop_decrease_factor=0.500000
rprop_delta_min=0.000000
rprop_delta_max=50.000000
rprop_delta_zero=0.100000
cascade_output_stagnation_epochs=12
cascade_candidate_change_fraction=0.010000
cascade_candidate_stagnation_epochs=12
cascade_max_out_epochs=150
cascade_min_out_epochs=50
cascade_max_cand_epochs=150
cascade_min_cand_epochs=50
cascade_num_candidate_groups=2
bit_fail_limit=3.49999994039535522461e-01
cascade_candidate_limit=1.00000000000000000000e+03
cascade_weight_multiplier=4.00000005960464477539e-01
cascade_activation_functions_count=10
cascade_activation_functions=3 5 7 8 10 11 14 15 16 17 
cascade_activation_steepnesses_count=4
cascade_activation_steepnesses=2.50000000000000000000e-01 5.00000000000000000000e-01 7.50000000000000000000e-01 1.00000000000000000000e+00 
layer_sizes=10 5 2 
scale_included=0
neurons (num_inputs, activation_function, activation_steepness)=(0, 0, 0.00000000000000000000e+00) (0, 0, 0.00000000000000000000e+00) (0, 0, 0.00000000000000000000e+00) (0, 0, 0.00000000000000000000e+00) (0, 0, 0.00000000000000000000e+00) (0, 0, 0.00000000000000000000e+00) (0, 0, 0.00000000000000000000e+00) (0, 0, 0.00000000000000000000e+00) (0, 0, 0.00000000000000000000e+00) (0, 0, 0.00000000000000000000e+00) (10, 3, 5.00000000000000000000e-01) (10, 3, 5.00000000000000000000e-01) (10, 3, 5.00000000000000000000e-01) (10, 3, 5.00000000000000000000e-01) (0, 3, 0.00000000000000000000e+00) (5, 3, 5.00000000000000000000e-01) (0, 3, 0.00000000000000000000e+00) 
connections (connected_to_neuron, weight)=(0, -7.18385875225067138672e-01) (1, -8.86755064129829406738e-02) (2, -2.48504638671875000000e+00) (3, -3.00469905138015747070e-01) (4, -9.75342273712158203125e-01) (5, -5.32369725406169891357e-02) (6, -5.81045198440551757812e+00) (7, 2.23763275146484375000e+00) (8, 2.06717705726623535156e+00) (9, 1.41752994060516357422e+00) (0, -3.64926546812057495117e-01) (1, 2.58798122406005859375e-01) (2, -5.64807653427124023438e+00) (3, -3.64994072914123535156e+00) (4, -2.18328118324279785156e-01) (5, 3.79646331071853637695e-01) (6, 1.16848669052124023438e+01) (7, -4.62329244613647460938e+00) (8, -2.78500258922576904297e-01) (9, 1.40746128559112548828e+00) (0, -6.53111219406127929688e-01) (1, -4.61892157793045043945e-01) (2, -1.19792114257812500000e+03) (3, -9.23903882503509521484e-01) (4, 6.79093241691589355469e-01) (5, -2.43101835250854492188e+00) (6, 1.60355460643768310547e+00) (7, 2.40922719240188598633e-01) (8, -6.36440455913543701172e-01) (9, 9.06821906566619873047e-01) (0, -1.07693743705749511719e+00) (1, -1.04451775550842285156e+00) (2, -1.11594986915588378906e+00) (3, 2.27177762985229492188e+00) (4, 2.44198155403137207031e+00) (5, 3.38360726833343505859e-01) (6, -9.30722281336784362793e-02) (7, 8.09194183349609375000e+00) (8, -6.04232406616210937500e+00) (9, -1.60221719741821289062e+00) (10, 1.88539981842041015625e+00) (11, 1.73700630664825439453e+00) (12, 3.22872519493103027344e+00) (13, -4.03105115890502929688e+00) (14, 4.13577973842620849609e-01) 
