FANN_FLO_2.1
num_layers=4
learning_rate=0.500000
connection_rate=1.000000
network_type=0
learning_momentum=0.000000
training_algorithm=2
train_error_function=1
train_stop_function=0
cascade_output_change_fraction=0.010000
quickprop_decay=-0.000100
quickprop_mu=1.750000
rprop_increase_factor=1.200000
rprop_decrease_factor=0.500000
rprop_delta_min=0.000000
rprop_delta_max=50.000000
rprop_delta_zero=0.100000
cascade_output_stagnation_epochs=12
cascade_candidate_change_fraction=0.010000
cascade_candidate_stagnation_epochs=12
cascade_max_out_epochs=150
cascade_min_out_epochs=50
cascade_max_cand_epochs=150
cascade_min_cand_epochs=50
cascade_num_candidate_groups=2
bit_fail_limit=3.49999994039535522461e-01
cascade_candidate_limit=1.00000000000000000000e+03
cascade_weight_multiplier=4.00000005960464477539e-01
cascade_activation_functions_count=10
cascade_activation_functions=3 5 7 8 10 11 14 15 16 17 
cascade_activation_steepnesses_count=4
cascade_activation_steepnesses=2.50000000000000000000e-01 5.00000000000000000000e-01 7.50000000000000000000e-01 1.00000000000000000000e+00 
layer_sizes=10 5 3 2 
scale_included=0
neurons (num_inputs, activation_function, activation_steepness)=(0, 0, 0.00000000000000000000e+00) (0, 0, 0.00000000000000000000e+00) (0, 0, 0.00000000000000000000e+00) (0, 0, 0.00000000000000000000e+00) (0, 0, 0.00000000000000000000e+00) (0, 0, 0.00000000000000000000e+00) (0, 0, 0.00000000000000000000e+00) (0, 0, 0.00000000000000000000e+00) (0, 0, 0.00000000000000000000e+00) (0, 0, 0.00000000000000000000e+00) (10, 3, 5.00000000000000000000e-01) (10, 3, 5.00000000000000000000e-01) (10, 3, 5.00000000000000000000e-01) (10, 3, 5.00000000000000000000e-01) (0, 3, 0.00000000000000000000e+00) (5, 3, 5.00000000000000000000e-01) (5, 3, 5.00000000000000000000e-01) (0, 3, 0.00000000000000000000e+00) (3, 3, 5.00000000000000000000e-01) (0, 3, 0.00000000000000000000e+00) 
connections (connected_to_neuron, weight)=(0, -4.64336299896240234375e+00) (1, -2.92072963714599609375e+00) (2, -5.51189184188842773438e+00) (3, -1.98674535751342773438e+00) (4, -1.07878887653350830078e+00) (5, 2.36695140600204467773e-01) (6, 6.84799242019653320312e+00) (7, -9.19337153434753417969e-01) (8, -7.66744470596313476562e+00) (9, 7.56824445724487304688e+00) (0, 2.00072216987609863281e+00) (1, 2.60405564308166503906e+00) (2, 2.83946585655212402344e+00) (3, -3.40371656417846679688e+00) (4, -1.52167999744415283203e+00) (5, 1.09536814689636230469e+00) (6, -1.10830383300781250000e+01) (7, -2.57319235801696777344e+00) (8, -1.36626267433166503906e+00) (9, 2.70151734352111816406e+00) (0, -1.05025317382812500000e+03) (1, -1.49981079101562500000e+03) (2, -1.44197009277343750000e+03) (3, -1.47555859375000000000e+03) (4, -1.43844616699218750000e+03) (5, -1.14920067787170410156e+00) (6, -6.36875271797180175781e-01) (7, -1.42164038085937500000e+03) (8, -1.50000000000000000000e+03) (9, -4.27487121582031250000e+02) (0, -1.45244006347656250000e+03) (1, -1.49981079101562500000e+03) (2, -1.44197009277343750000e+03) (3, -1.47555859375000000000e+03) (4, -1.43844616699218750000e+03) (5, -5.97570478916168212891e-01) (6, -1.76720106601715087891e+00) (7, -1.42157739257812500000e+03) (8, -1.50000000000000000000e+03) (9, -4.27209533691406250000e+02) (10, 1.90605125427246093750e+01) (11, 1.78798961639404296875e+01) (12, 1.50000000000000000000e+03) (13, 1.50000000000000000000e+03) (14, -9.49919033050537109375e+00) (10, 1.91460838317871093750e+01) (11, 1.77424221038818359375e+01) (12, 1.50000000000000000000e+03) (13, 1.50000000000000000000e+03) (14, -9.48999023437500000000e+00) (15, 1.10087990760803222656e+00) (16, 5.06114721298217773438e-01) (17, -7.25840687751770019531e-01) 
