FANN_FLO_2.1
num_layers=3
learning_rate=0.500000
connection_rate=1.000000
network_type=0
learning_momentum=0.000000
training_algorithm=2
train_error_function=1
train_stop_function=0
cascade_output_change_fraction=0.010000
quickprop_decay=-0.000100
quickprop_mu=1.750000
rprop_increase_factor=1.200000
rprop_decrease_factor=0.500000
rprop_delta_min=0.000000
rprop_delta_max=50.000000
rprop_delta_zero=0.100000
cascade_output_stagnation_epochs=12
cascade_candidate_change_fraction=0.010000
cascade_candidate_stagnation_epochs=12
cascade_max_out_epochs=150
cascade_min_out_epochs=50
cascade_max_cand_epochs=150
cascade_min_cand_epochs=50
cascade_num_candidate_groups=2
bit_fail_limit=3.49999994039535522461e-01
cascade_candidate_limit=1.00000000000000000000e+03
cascade_weight_multiplier=4.00000005960464477539e-01
cascade_activation_functions_count=10
cascade_activation_functions=3 5 7 8 10 11 14 15 16 17 
cascade_activation_steepnesses_count=4
cascade_activation_steepnesses=2.50000000000000000000e-01 5.00000000000000000000e-01 7.50000000000000000000e-01 1.00000000000000000000e+00 
layer_sizes=10 3 2 
scale_included=0
neurons (num_inputs, activation_function, activation_steepness)=(0, 0, 0.00000000000000000000e+00) (0, 0, 0.00000000000000000000e+00) (0, 0, 0.00000000000000000000e+00) (0, 0, 0.00000000000000000000e+00) (0, 0, 0.00000000000000000000e+00) (0, 0, 0.00000000000000000000e+00) (0, 0, 0.00000000000000000000e+00) (0, 0, 0.00000000000000000000e+00) (0, 0, 0.00000000000000000000e+00) (0, 0, 0.00000000000000000000e+00) (10, 3, 5.00000000000000000000e-01) (10, 3, 5.00000000000000000000e-01) (0, 3, 0.00000000000000000000e+00) (3, 3, 5.00000000000000000000e-01) (0, 3, 0.00000000000000000000e+00) 
connections (connected_to_neuron, weight)=(0, -4.10942614078521728516e-01) (1, -1.10207028687000274658e-01) (2, -5.95782423019409179688e+00) (3, -5.66104173660278320312e-01) (4, 7.77198791503906250000e+00) (5, 2.14120483398437500000e+00) (6, -8.33284473419189453125e+00) (7, 4.50279295444488525391e-01) (8, -6.14479660987854003906e-01) (9, 3.62005639076232910156e+00) (0, -1.79825735092163085938e+00) (1, -2.68917131423950195312e+00) (2, -3.39633154869079589844e+00) (3, -9.44806873798370361328e-01) (4, 1.80429897308349609375e+01) (5, 8.72732818126678466797e-01) (6, -1.44003839492797851562e+01) (7, 3.09261322021484375000e+00) (8, -2.49769663810729980469e+00) (9, 1.00480246543884277344e+00) (10, 1.15267562866210937500e+00) (11, 3.26866793632507324219e+00) (12, -3.49363589286804199219e+00) 
