FANN_FLO_2.1
num_layers=4
learning_rate=0.400000
connection_rate=1.000000
network_type=0
learning_momentum=0.000000
training_algorithm=2
train_error_function=1
train_stop_function=0
cascade_output_change_fraction=0.010000
quickprop_decay=-0.000100
quickprop_mu=1.750000
rprop_increase_factor=1.200000
rprop_decrease_factor=0.500000
rprop_delta_min=0.000000
rprop_delta_max=50.000000
rprop_delta_zero=0.100000
cascade_output_stagnation_epochs=12
cascade_candidate_change_fraction=0.010000
cascade_candidate_stagnation_epochs=12
cascade_max_out_epochs=150
cascade_min_out_epochs=50
cascade_max_cand_epochs=150
cascade_min_cand_epochs=50
cascade_num_candidate_groups=2
bit_fail_limit=3.49999994039535522461e-01
cascade_candidate_limit=1.00000000000000000000e+03
cascade_weight_multiplier=4.00000005960464477539e-01
cascade_activation_functions_count=10
cascade_activation_functions=3 5 7 8 10 11 14 15 16 17 
cascade_activation_steepnesses_count=4
cascade_activation_steepnesses=2.50000000000000000000e-01 5.00000000000000000000e-01 7.50000000000000000000e-01 1.00000000000000000000e+00 
layer_sizes=7 5 3 2 
scale_included=0
neurons (num_inputs, activation_function, activation_steepness)=(0, 0, 0.00000000000000000000e+00) (0, 0, 0.00000000000000000000e+00) (0, 0, 0.00000000000000000000e+00) (0, 0, 0.00000000000000000000e+00) (0, 0, 0.00000000000000000000e+00) (0, 0, 0.00000000000000000000e+00) (0, 0, 0.00000000000000000000e+00) (7, 3, 5.00000000000000000000e-01) (7, 3, 5.00000000000000000000e-01) (7, 3, 5.00000000000000000000e-01) (7, 3, 5.00000000000000000000e-01) (0, 3, 0.00000000000000000000e+00) (5, 3, 5.00000000000000000000e-01) (5, 3, 5.00000000000000000000e-01) (0, 3, 0.00000000000000000000e+00) (3, 3, 5.00000000000000000000e-01) (0, 3, 0.00000000000000000000e+00) 
connections (connected_to_neuron, weight)=(0, -3.73233604431152343750e+01) (1, -9.31503582000732421875e+00) (2, 1.49904174804687500000e+03) (3, -3.41433105468750000000e+01) (4, -1.50000000000000000000e+03) (5, -1.50000000000000000000e+03) (6, -5.33137283325195312500e+01) (0, 4.35004472732543945312e+00) (1, -4.89422130584716796875e+00) (2, 1.76368784904479980469e+00) (3, -1.19666433334350585938e+00) (4, -2.34561920166015625000e-01) (5, 3.15054345130920410156e+00) (6, -3.55694437026977539062e+00) (0, -5.59783220291137695312e+00) (1, 5.17136049270629882812e+00) (2, 9.63949322700500488281e-01) (3, -1.38820099830627441406e+00) (4, -1.09718310832977294922e+00) (5, -1.50000000000000000000e+03) (6, -5.75354471802711486816e-02) (0, -1.79153692722320556641e+00) (1, 7.35405981540679931641e-01) (2, -9.14818572998046875000e+00) (3, 4.30211305618286132812e-01) (4, 1.18546938896179199219e+00) (5, -1.50000000000000000000e+03) (6, -1.17132402956485748291e-01) (7, 1.50000000000000000000e+03) (8, 8.59175109863281250000e+01) (9, 5.79184875488281250000e+01) (10, -2.55603504180908203125e+01) (11, -1.06890077590942382812e+01) (7, 1.50000000000000000000e+03) (8, 1.17745819091796875000e+01) (9, 8.00776004791259765625e+00) (10, 2.15299677848815917969e+00) (11, -3.52146673202514648438e+00) (12, -4.41889345645904541016e-01) (13, -5.86461353302001953125e+00) (14, -7.73285746574401855469e-01) 
