FANN_FLO_2.1
num_layers=4
learning_rate=0.500000
connection_rate=1.000000
network_type=0
learning_momentum=0.000000
training_algorithm=2
train_error_function=1
train_stop_function=0
cascade_output_change_fraction=0.010000
quickprop_decay=-0.000100
quickprop_mu=1.750000
rprop_increase_factor=1.200000
rprop_decrease_factor=0.500000
rprop_delta_min=0.000000
rprop_delta_max=50.000000
rprop_delta_zero=0.100000
cascade_output_stagnation_epochs=12
cascade_candidate_change_fraction=0.010000
cascade_candidate_stagnation_epochs=12
cascade_max_out_epochs=150
cascade_min_out_epochs=50
cascade_max_cand_epochs=150
cascade_min_cand_epochs=50
cascade_num_candidate_groups=2
bit_fail_limit=3.49999994039535522461e-01
cascade_candidate_limit=1.00000000000000000000e+03
cascade_weight_multiplier=4.00000005960464477539e-01
cascade_activation_functions_count=10
cascade_activation_functions=3 5 7 8 10 11 14 15 16 17 
cascade_activation_steepnesses_count=4
cascade_activation_steepnesses=2.50000000000000000000e-01 5.00000000000000000000e-01 7.50000000000000000000e-01 1.00000000000000000000e+00 
layer_sizes=10 9 5 2 
scale_included=0
neurons (num_inputs, activation_function, activation_steepness)=(0, 0, 0.00000000000000000000e+00) (0, 0, 0.00000000000000000000e+00) (0, 0, 0.00000000000000000000e+00) (0, 0, 0.00000000000000000000e+00) (0, 0, 0.00000000000000000000e+00) (0, 0, 0.00000000000000000000e+00) (0, 0, 0.00000000000000000000e+00) (0, 0, 0.00000000000000000000e+00) (0, 0, 0.00000000000000000000e+00) (0, 0, 0.00000000000000000000e+00) (10, 3, 5.00000000000000000000e-01) (10, 3, 5.00000000000000000000e-01) (10, 3, 5.00000000000000000000e-01) (10, 3, 5.00000000000000000000e-01) (10, 3, 5.00000000000000000000e-01) (10, 3, 5.00000000000000000000e-01) (10, 3, 5.00000000000000000000e-01) (10, 3, 5.00000000000000000000e-01) (0, 3, 0.00000000000000000000e+00) (9, 3, 5.00000000000000000000e-01) (9, 3, 5.00000000000000000000e-01) (9, 3, 5.00000000000000000000e-01) (9, 3, 5.00000000000000000000e-01) (0, 3, 0.00000000000000000000e+00) (5, 3, 5.00000000000000000000e-01) (0, 3, 0.00000000000000000000e+00) 
connections (connected_to_neuron, weight)=(0, -1.47443860769271850586e-01) (1, 1.32062950134277343750e+01) (2, 4.00918436050415039062e+00) (3, 2.63318240642547607422e-01) (4, 1.53751850128173828125e+00) (5, 6.71654939651489257812e-02) (6, -9.57823848724365234375e+00) (7, -4.06227302551269531250e+00) (8, -2.67943630218505859375e+01) (9, 4.02380037307739257812e+00) (0, -2.18556642532348632812e+00) (1, -3.40752422809600830078e-01) (2, -1.64963436126708984375e+00) (3, -1.13524508476257324219e+00) (4, 1.24869740009307861328e+00) (5, -1.42690405249595642090e-01) (6, -1.13942314147949218750e+02) (7, 1.02642803192138671875e+01) (8, -1.23809795379638671875e+01) (9, 1.73854339122772216797e+00) (0, -2.44020271301269531250e+00) (1, -2.24079680442810058594e+00) (2, -6.05280995368957519531e-01) (3, -1.36350238323211669922e+00) (4, 6.58977603912353515625e+00) (5, 2.02291202545166015625e+00) (6, -1.19271576404571533203e+00) (7, -5.54831314086914062500e+00) (8, 5.10085523128509521484e-01) (9, 1.06269681453704833984e+00) (0, -2.19602608680725097656e+00) (1, 1.38018774414062500000e+03) (2, 7.87347602844238281250e+00) (3, 2.46557965874671936035e-01) (4, 6.42632812500000000000e+02) (5, 1.81912193298339843750e+01) (6, -1.12156982421875000000e+03) (7, -3.94417297363281250000e+02) (8, 5.84741882324218750000e+02) (9, 4.20638608932495117188e+00) (0, -2.65229988098144531250e+00) (1, 1.09060406684875488281e+00) (2, 1.80017769336700439453e+00) (3, -8.66437494754791259766e-01) (4, 1.53288059234619140625e+01) (5, 1.89021217823028564453e+00) (6, -1.07177600860595703125e+01) (7, -6.24338102340698242188e+00) (8, -1.09519853591918945312e+01) (9, 3.01117110252380371094e+00) (0, -8.73594522476196289062e-01) (1, -1.16296100616455078125e+01) (2, -9.94067370891571044922e-01) (3, -3.02012395113706588745e-02) (4, 3.84478282928466796875e+00) (5, 2.02613711357116699219e-01) (6, -1.35461914062500000000e+03) (7, -9.91014953613281250000e+02) (8, -2.21566581726074218750e+01) (9, 5.52654647827148437500e+00) (0, -2.14775395393371582031e+00) (1, -5.73101234436035156250e+00) (2, 4.32592421770095825195e-01) (3, -5.90116143226623535156e-01) (4, -1.77054748535156250000e+01) (5, 2.07969903945922851562e+00) (6, -1.32076904296875000000e+03) (7, -7.14039794921875000000e+02) (8, 8.84298229217529296875e+00) (9, 1.13130445480346679688e+01) (0, 1.47048699855804443359e+00) (1, 3.54426145553588867188e+00) (2, -5.25228309631347656250e+00) (3, 8.42626214027404785156e-01) (4, 4.34492111206054687500e+00) (5, -2.70122051239013671875e-01) (6, -4.28089904785156250000e+00) (7, -6.76778173446655273438e+00) (8, -4.59462976455688476562e+00) (9, 1.74701082706451416016e+00) (10, 1.50000000000000000000e+03) (11, -6.54465332031250000000e+02) (12, 1.65857330322265625000e+02) (13, 2.05231285095214843750e+00) (14, -1.56816436767578125000e+02) (15, -6.54465332031250000000e+02) (16, 4.72569427490234375000e+02) (17, -9.43696472167968750000e+02) (18, 5.55558395385742187500e+00) (10, -3.15920806884765625000e+02) (11, -2.85904846191406250000e+02) (12, -3.02682805061340332031e+00) (13, 1.47359240722656250000e+03) (14, -1.72845016479492187500e+02) (15, -2.85905212402343750000e+02) (16, -2.63301940917968750000e+02) (17, -2.88920715332031250000e+02) (18, 1.33567962646484375000e+01) (10, 1.50000000000000000000e+03) (11, -8.53463211059570312500e+01) (12, 1.50000000000000000000e+03) (13, 6.40130162239074707031e-01) (14, 1.50000000000000000000e+03) (15, 6.83996081352233886719e-01) (16, -6.93679504394531250000e+02) (17, 1.50000000000000000000e+03) (18, 6.15324401855468750000e+00) (10, -1.49816516113281250000e+03) (11, 7.55903747558593750000e+02) (12, -4.56008880615234375000e+02) (13, 1.38631494140625000000e+03) (14, -1.49955627441406250000e+03) (15, 7.55903747558593750000e+02) (16, 1.49961608886718750000e+03) (17, -7.79189331054687500000e+02) (18, -9.79565829038619995117e-02) (19, 1.59376844763755798340e-01) (20, -1.62659537792205810547e+00) (21, 2.25029253959655761719e+00) (22, -2.75009870529174804688e+00) (23, 3.38432118296623229980e-02) 
