FANN_FLO_2.1
num_layers=4
learning_rate=0.500000
connection_rate=1.000000
network_type=0
learning_momentum=0.000000
training_algorithm=2
train_error_function=1
train_stop_function=0
cascade_output_change_fraction=0.010000
quickprop_decay=-0.000100
quickprop_mu=1.750000
rprop_increase_factor=1.200000
rprop_decrease_factor=0.500000
rprop_delta_min=0.000000
rprop_delta_max=50.000000
rprop_delta_zero=0.100000
cascade_output_stagnation_epochs=12
cascade_candidate_change_fraction=0.010000
cascade_candidate_stagnation_epochs=12
cascade_max_out_epochs=150
cascade_min_out_epochs=50
cascade_max_cand_epochs=150
cascade_min_cand_epochs=50
cascade_num_candidate_groups=2
bit_fail_limit=3.49999994039535522461e-01
cascade_candidate_limit=1.00000000000000000000e+03
cascade_weight_multiplier=4.00000005960464477539e-01
cascade_activation_functions_count=10
cascade_activation_functions=3 5 7 8 10 11 14 15 16 17 
cascade_activation_steepnesses_count=4
cascade_activation_steepnesses=2.50000000000000000000e-01 5.00000000000000000000e-01 7.50000000000000000000e-01 1.00000000000000000000e+00 
layer_sizes=10 5 5 2 
scale_included=0
neurons (num_inputs, activation_function, activation_steepness)=(0, 0, 0.00000000000000000000e+00) (0, 0, 0.00000000000000000000e+00) (0, 0, 0.00000000000000000000e+00) (0, 0, 0.00000000000000000000e+00) (0, 0, 0.00000000000000000000e+00) (0, 0, 0.00000000000000000000e+00) (0, 0, 0.00000000000000000000e+00) (0, 0, 0.00000000000000000000e+00) (0, 0, 0.00000000000000000000e+00) (0, 0, 0.00000000000000000000e+00) (10, 3, 5.00000000000000000000e-01) (10, 3, 5.00000000000000000000e-01) (10, 3, 5.00000000000000000000e-01) (10, 3, 5.00000000000000000000e-01) (0, 3, 0.00000000000000000000e+00) (5, 3, 5.00000000000000000000e-01) (5, 3, 5.00000000000000000000e-01) (5, 3, 5.00000000000000000000e-01) (5, 3, 5.00000000000000000000e-01) (0, 3, 0.00000000000000000000e+00) (5, 3, 5.00000000000000000000e-01) (0, 3, 0.00000000000000000000e+00) 
connections (connected_to_neuron, weight)=(0, -7.03240275382995605469e-01) (1, 1.28782820701599121094e+00) (2, -1.91267776489257812500e+01) (3, 4.34374332427978515625e+00) (4, 1.53775405883789062500e+00) (5, 3.97846961021423339844e+00) (6, 8.92049598693847656250e+00) (7, 8.48241043090820312500e+00) (8, 8.54376554489135742188e-01) (9, -4.39862918853759765625e+00) (0, 1.08605632781982421875e+01) (1, -6.99502134323120117188e+00) (2, -4.73888778686523437500e+01) (3, 1.37050986289978027344e+00) (4, -8.71990108489990234375e+00) (5, -9.03062248229980468750e+00) (6, 1.41125988960266113281e+00) (7, 1.09065561294555664062e+01) (8, 9.62392997741699218750e+00) (9, 1.73253381252288818359e+00) (0, 4.91019821166992187500e+00) (1, 6.78036022186279296875e+00) (2, -5.28657608032226562500e+01) (3, -1.52690303325653076172e+00) (4, -8.74711513519287109375e+00) (5, -7.76537704467773437500e+00) (6, -1.21384010314941406250e+01) (7, -2.73367953300476074219e+00) (8, 2.47687664031982421875e+01) (9, -2.08521485328674316406e+00) (0, -1.22642123699188232422e+00) (1, 2.18703937530517578125e+01) (2, -1.44762573242187500000e+03) (3, -1.27137839794158935547e+00) (4, 4.82972097396850585938e+00) (5, -2.27587890625000000000e+01) (6, -7.81864976882934570312e+00) (7, -9.09376335144042968750e+00) (8, -2.68971991539001464844e+00) (9, -2.88728713989257812500e-01) (10, 1.12895464897155761719e+00) (11, 1.70690715312957763672e+00) (12, -2.87192504882812500000e+02) (13, 1.49944250488281250000e+03) (14, 5.97300291061401367188e-01) (10, 7.39713287353515625000e+00) (11, 1.59903705120086669922e+00) (12, -5.19651611328125000000e+02) (13, 1.49944250488281250000e+03) (14, -2.61674463748931884766e-01) (10, 3.98541116714477539062e+00) (11, -3.00694227218627929688e+00) (12, -2.83575134277343750000e+01) (13, 9.59237337112426757812e-01) (14, -2.84028697013854980469e+00) (10, -3.01648883819580078125e+01) (11, 1.26001513004302978516e+00) (12, 1.19624832153320312500e+02) (13, 1.49944250488281250000e+03) (14, -5.62498629093170166016e-01) (15, 3.08375191688537597656e+00) (16, 9.40533518791198730469e-01) (17, -1.04584131240844726562e+01) (18, 1.43500947952270507812e+00) (19, -1.62941300868988037109e+00) 
