FANN_FLO_2.1
num_layers=3
learning_rate=0.400000
connection_rate=1.000000
network_type=0
learning_momentum=0.000000
training_algorithm=2
train_error_function=1
train_stop_function=0
cascade_output_change_fraction=0.010000
quickprop_decay=-0.000100
quickprop_mu=1.750000
rprop_increase_factor=1.200000
rprop_decrease_factor=0.500000
rprop_delta_min=0.000000
rprop_delta_max=50.000000
rprop_delta_zero=0.100000
cascade_output_stagnation_epochs=12
cascade_candidate_change_fraction=0.010000
cascade_candidate_stagnation_epochs=12
cascade_max_out_epochs=150
cascade_min_out_epochs=50
cascade_max_cand_epochs=150
cascade_min_cand_epochs=50
cascade_num_candidate_groups=2
bit_fail_limit=3.49999994039535522461e-01
cascade_candidate_limit=1.00000000000000000000e+03
cascade_weight_multiplier=4.00000005960464477539e-01
cascade_activation_functions_count=10
cascade_activation_functions=3 5 7 8 10 11 14 15 16 17 
cascade_activation_steepnesses_count=4
cascade_activation_steepnesses=2.50000000000000000000e-01 5.00000000000000000000e-01 7.50000000000000000000e-01 1.00000000000000000000e+00 
layer_sizes=7 5 2 
scale_included=0
neurons (num_inputs, activation_function, activation_steepness)=(0, 0, 0.00000000000000000000e+00) (0, 0, 0.00000000000000000000e+00) (0, 0, 0.00000000000000000000e+00) (0, 0, 0.00000000000000000000e+00) (0, 0, 0.00000000000000000000e+00) (0, 0, 0.00000000000000000000e+00) (0, 0, 0.00000000000000000000e+00) (7, 3, 5.00000000000000000000e-01) (7, 3, 5.00000000000000000000e-01) (7, 3, 5.00000000000000000000e-01) (7, 3, 5.00000000000000000000e-01) (0, 3, 0.00000000000000000000e+00) (5, 3, 5.00000000000000000000e-01) (0, 3, 0.00000000000000000000e+00) 
connections (connected_to_neuron, weight)=(0, 7.77215480804443359375e+00) (1, -8.08933544158935546875e+00) (2, 4.48973751068115234375e+00) (3, -7.47838377952575683594e-01) (4, -4.59408432245254516602e-01) (5, 3.42539167404174804688e+00) (6, -4.18471956253051757812e+00) (0, -1.45487060546875000000e+01) (1, 1.22382946014404296875e+01) (2, -1.17780566215515136719e+00) (3, -4.72128915786743164062e+00) (4, -1.62297284603118896484e+00) (5, 2.74683332443237304688e+00) (6, 3.48344373703002929688e+00) (0, -1.02050161361694335938e+00) (1, 1.54607403278350830078e+00) (2, 4.20946598052978515625e+00) (3, 1.85454547405242919922e+00) (4, -3.21636986732482910156e+00) (5, -4.80867767333984375000e+00) (6, 4.47369575500488281250e-01) (0, -3.44571924209594726562e+00) (1, 1.00480234622955322266e+00) (2, -1.15968046188354492188e+01) (3, -3.77067852020263671875e+00) (4, 4.54628276824951171875e+00) (5, -3.08180546760559082031e+00) (6, 6.35931909084320068359e-01) (7, -1.04611501693725585938e+01) (8, -2.23923230171203613281e+00) (9, -3.94606137275695800781e+00) (10, -2.75523853302001953125e+00) (11, 1.43814003467559814453e+00) 
