FANN_FLO_2.1
num_layers=3
learning_rate=0.400000
connection_rate=1.000000
network_type=0
learning_momentum=0.000000
training_algorithm=2
train_error_function=1
train_stop_function=0
cascade_output_change_fraction=0.010000
quickprop_decay=-0.000100
quickprop_mu=1.750000
rprop_increase_factor=1.200000
rprop_decrease_factor=0.500000
rprop_delta_min=0.000000
rprop_delta_max=50.000000
rprop_delta_zero=0.100000
cascade_output_stagnation_epochs=12
cascade_candidate_change_fraction=0.010000
cascade_candidate_stagnation_epochs=12
cascade_max_out_epochs=150
cascade_min_out_epochs=50
cascade_max_cand_epochs=150
cascade_min_cand_epochs=50
cascade_num_candidate_groups=2
bit_fail_limit=3.49999994039535522461e-01
cascade_candidate_limit=1.00000000000000000000e+03
cascade_weight_multiplier=4.00000005960464477539e-01
cascade_activation_functions_count=10
cascade_activation_functions=3 5 7 8 10 11 14 15 16 17 
cascade_activation_steepnesses_count=4
cascade_activation_steepnesses=2.50000000000000000000e-01 5.00000000000000000000e-01 7.50000000000000000000e-01 1.00000000000000000000e+00 
layer_sizes=65 3 65 
scale_included=0
neurons (num_inputs, activation_function, activation_steepness)=(0, 0, 0.00000000000000000000e+00) (0, 0, 0.00000000000000000000e+00) (0, 0, 0.00000000000000000000e+00) (0, 0, 0.00000000000000000000e+00) (0, 0, 0.00000000000000000000e+00) (0, 0, 0.00000000000000000000e+00) (0, 0, 0.00000000000000000000e+00) (0, 0, 0.00000000000000000000e+00) (0, 0, 0.00000000000000000000e+00) (0, 0, 0.00000000000000000000e+00) (0, 0, 0.00000000000000000000e+00) (0, 0, 0.00000000000000000000e+00) (0, 0, 0.00000000000000000000e+00) (0, 0, 0.00000000000000000000e+00) (0, 0, 0.00000000000000000000e+00) (0, 0, 0.00000000000000000000e+00) (0, 0, 0.00000000000000000000e+00) (0, 0, 0.00000000000000000000e+00) (0, 0, 0.00000000000000000000e+00) (0, 0, 0.00000000000000000000e+00) (0, 0, 0.00000000000000000000e+00) (0, 0, 0.00000000000000000000e+00) (0, 0, 0.00000000000000000000e+00) (0, 0, 0.00000000000000000000e+00) (0, 0, 0.00000000000000000000e+00) (0, 0, 0.00000000000000000000e+00) (0, 0, 0.00000000000000000000e+00) (0, 0, 0.00000000000000000000e+00) (0, 0, 0.00000000000000000000e+00) (0, 0, 0.00000000000000000000e+00) (0, 0, 0.00000000000000000000e+00) (0, 0, 0.00000000000000000000e+00) (0, 0, 0.00000000000000000000e+00) (0, 0, 0.00000000000000000000e+00) (0, 0, 0.00000000000000000000e+00) (0, 0, 0.00000000000000000000e+00) (0, 0, 0.00000000000000000000e+00) (0, 0, 0.00000000000000000000e+00) (0, 0, 0.00000000000000000000e+00) (0, 0, 0.00000000000000000000e+00) (0, 0, 0.00000000000000000000e+00) (0, 0, 0.00000000000000000000e+00) (0, 0, 0.00000000000000000000e+00) (0, 0, 0.00000000000000000000e+00) (0, 0, 0.00000000000000000000e+00) (0, 0, 0.00000000000000000000e+00) (0, 0, 0.00000000000000000000e+00) (0, 0, 0.00000000000000000000e+00) (0, 0, 0.00000000000000000000e+00) (0, 0, 0.00000000000000000000e+00) (0, 0, 0.00000000000000000000e+00) (0, 0, 0.00000000000000000000e+00) (0, 0, 0.00000000000000000000e+00) (0, 0, 0.00000000000000000000e+00) (0, 0, 0.00000000000000000000e+00) (0, 0, 0.00000000000000000000e+00) (0, 0, 0.00000000000000000000e+00) (0, 0, 0.00000000000000000000e+00) (0, 0, 0.00000000000000000000e+00) (0, 0, 0.00000000000000000000e+00) (0, 0, 0.00000000000000000000e+00) (0, 0, 0.00000000000000000000e+00) (0, 0, 0.00000000000000000000e+00) (0, 0, 0.00000000000000000000e+00) (0, 0, 0.00000000000000000000e+00) (65, 3, 5.00000000000000000000e-01) (65, 3, 5.00000000000000000000e-01) (0, 3, 0.00000000000000000000e+00) (3, 5, 5.00000000000000000000e-01) (3, 5, 5.00000000000000000000e-01) (3, 5, 5.00000000000000000000e-01) (3, 5, 5.00000000000000000000e-01) (3, 5, 5.00000000000000000000e-01) (3, 5, 5.00000000000000000000e-01) (3, 5, 5.00000000000000000000e-01) (3, 5, 5.00000000000000000000e-01) (3, 5, 5.00000000000000000000e-01) (3, 5, 5.00000000000000000000e-01) (3, 5, 5.00000000000000000000e-01) (3, 5, 5.00000000000000000000e-01) (3, 5, 5.00000000000000000000e-01) (3, 5, 5.00000000000000000000e-01) (3, 5, 5.00000000000000000000e-01) (3, 5, 5.00000000000000000000e-01) (3, 5, 5.00000000000000000000e-01) (3, 5, 5.00000000000000000000e-01) (3, 5, 5.00000000000000000000e-01) (3, 5, 5.00000000000000000000e-01) (3, 5, 5.00000000000000000000e-01) (3, 5, 5.00000000000000000000e-01) (3, 5, 5.00000000000000000000e-01) (3, 5, 5.00000000000000000000e-01) (3, 5, 5.00000000000000000000e-01) (3, 5, 5.00000000000000000000e-01) (3, 5, 5.00000000000000000000e-01) (3, 5, 5.00000000000000000000e-01) (3, 5, 5.00000000000000000000e-01) (3, 5, 5.00000000000000000000e-01) (3, 5, 5.00000000000000000000e-01) (3, 5, 5.00000000000000000000e-01) (3, 5, 5.00000000000000000000e-01) (3, 5, 5.00000000000000000000e-01) (3, 5, 5.00000000000000000000e-01) (3, 5, 5.00000000000000000000e-01) (3, 5, 5.00000000000000000000e-01) (3, 5, 5.00000000000000000000e-01) (3, 5, 5.00000000000000000000e-01) (3, 5, 5.00000000000000000000e-01) (3, 5, 5.00000000000000000000e-01) (3, 5, 5.00000000000000000000e-01) (3, 5, 5.00000000000000000000e-01) (3, 5, 5.00000000000000000000e-01) (3, 5, 5.00000000000000000000e-01) (3, 5, 5.00000000000000000000e-01) (3, 5, 5.00000000000000000000e-01) (3, 5, 5.00000000000000000000e-01) (3, 5, 5.00000000000000000000e-01) (3, 5, 5.00000000000000000000e-01) (3, 5, 5.00000000000000000000e-01) (3, 5, 5.00000000000000000000e-01) (3, 5, 5.00000000000000000000e-01) (3, 5, 5.00000000000000000000e-01) (3, 5, 5.00000000000000000000e-01) (3, 5, 5.00000000000000000000e-01) (3, 5, 5.00000000000000000000e-01) (3, 5, 5.00000000000000000000e-01) (3, 5, 5.00000000000000000000e-01) (3, 5, 5.00000000000000000000e-01) (3, 5, 5.00000000000000000000e-01) (3, 5, 5.00000000000000000000e-01) (3, 5, 5.00000000000000000000e-01) (3, 5, 5.00000000000000000000e-01) (0, 5, 0.00000000000000000000e+00) 
connections (connected_to_neuron, weight)=(0, 2.46407151222229003906e+00) (1, 7.72835373878479003906e-01) (2, -9.48912262916564941406e-01) (3, 2.22902312874794006348e-01) (4, 5.68844795227050781250e+00) (5, 1.96397960186004638672e+00) (6, 2.11953735351562500000e+00) (7, 6.59494921565055847168e-02) (8, 2.45552134513854980469e+00) (9, 3.37574034929275512695e-01) (10, 1.17779389023780822754e-01) (11, 2.21755072474479675293e-01) (12, 3.31578612327575683594e-01) (13, 1.67811468243598937988e-01) (14, -2.16094832867383956909e-02) (15, -1.13789710998535156250e+01) (16, 8.62343120574951171875e+00) (17, 3.40964823961257934570e-01) (18, -2.30037309229373931885e-02) (19, 2.11565807461738586426e-01) (20, 1.32138177752494812012e-01) (21, -1.16140790283679962158e-01) (22, -5.86887180805206298828e-01) (23, -7.31790781021118164062e-01) (24, 6.43918454647064208984e-01) (25, 1.01302877068519592285e-01) (26, 2.88280863314867019653e-02) (27, -7.38385319709777832031e-03) (28, -4.15679439902305603027e-02) (29, -1.58565878868103027344e-01) (30, 1.51794543489813804626e-03) (31, 1.47128567099571228027e-01) (32, 1.34333205223083496094e+00) (33, 1.47156387567520141602e-01) (34, 1.53623312711715698242e-01) (35, -1.03980720043182373047e-01) (36, 2.96951662749052047729e-02) (37, -1.64755570888519287109e+00) (38, -2.55402326583862304688e-01) (39, 5.67753553390502929688e-01) (40, 4.43224757909774780273e-02) (41, 1.96675702929496765137e-01) (42, 6.98111280798912048340e-02) (43, 1.98522463440895080566e-01) (44, 1.06947943568229675293e-01) (45, -4.36279952526092529297e-01) (46, 3.33413258194923400879e-02) (47, -2.04350307583808898926e-01) (48, 7.21189007163047790527e-02) (49, 4.56429386138916015625e+00) (50, 3.61729174852371215820e-01) (51, 1.17187000811100006104e-01) (52, -1.14172212779521942139e-01) (53, -5.73430728912353515625e+00) (54, 2.36171856522560119629e-01) (55, -3.74331355094909667969e-01) (56, -3.10132037848234176636e-02) (57, 1.27748239040374755859e+00) (58, 2.71019726991653442383e-01) (59, -5.05199246108531951904e-02) (60, -5.38177900016307830811e-02) (61, -1.74309000372886657715e-01) (62, 6.65179118514060974121e-02) (63, 3.23361682891845703125e+00) (64, -9.13482666015625000000e+00) (0, -1.59239381551742553711e-01) (1, 8.82864966988563537598e-02) (2, -1.03290535509586334229e-01) (3, 9.34246107935905456543e-02) (4, -9.88664384931325912476e-03) (5, 5.08769303560256958008e-02) (6, 1.16170205175876617432e-01) (7, 1.20348922908306121826e-01) (8, 1.36020466685295104980e-01) (9, 1.51696339249610900879e-01) (10, -7.26544037461280822754e-02) (11, -1.72320250421762466431e-02) (12, 1.09038636088371276855e-01) (13, -2.04654354602098464966e-02) (14, -4.20460551977157592773e-02) (15, -8.25634300708770751953e-02) (16, 3.31160239875316619873e-02) (17, 2.05069109797477722168e-01) (18, 7.82872065901756286621e-02) (19, 1.52925357222557067871e-01) (20, 9.04781147837638854980e-02) (21, -1.12906754016876220703e-01) (22, 9.20205861330032348633e-02) (23, 7.87827298045158386230e-02) (24, 2.93989013880491256714e-02) (25, 5.09300641715526580811e-02) (26, 1.91619336605072021484e-01) (27, -1.32602266967296600342e-02) (28, 4.77465279400348663330e-02) (29, 4.93432991206645965576e-02) (30, 1.68534874916076660156e-01) (31, 1.62072464823722839355e-01) (32, 2.88301911205053329468e-02) (33, -1.00517310202121734619e-01) (34, 1.71031847596168518066e-01) (35, 1.29111200571060180664e-01) (36, 1.00636214017868041992e-01) (37, -1.99113875627517700195e-01) (38, 6.51787668466567993164e-02) (39, -2.31876283884048461914e-01) (40, -7.50398337841033935547e-02) (41, -1.58870637416839599609e-01) (42, 1.36099278926849365234e-01) (43, -2.82937854528427124023e-01) (44, 1.68912857770919799805e-01) (45, 6.70933350920677185059e-02) (46, 1.14607149735093116760e-02) (47, -6.89190179109573364258e-02) (48, 1.09031163156032562256e-01) (49, -1.03753218427300453186e-02) (50, 1.43237277865409851074e-01) (51, 4.22173626720905303955e-02) (52, -2.17111870646476745605e-01) (53, 1.52681067585945129395e-01) (54, 2.11220800876617431641e-01) (55, -2.46713265776634216309e-01) (56, 1.58901393413543701172e-01) (57, -3.15004527568817138672e-01) (58, 2.78362091630697250366e-02) (59, 8.95177572965621948242e-02) (60, 1.60039484500885009766e-01) (61, 1.22457996010780334473e-01) (62, 2.34701037406921386719e-01) (63, 1.19106419384479522705e-01) (64, -1.12417674064636230469e+00) (65, -8.95327478647232055664e-02) (66, 2.47390890121459960938e+00) (67, -6.24379694461822509766e-01) (65, 5.37686538696289062500e+00) (66, -4.32615995407104492188e-01) (67, 8.47359225153923034668e-02) (65, 1.31048572063446044922e+00) (66, -9.24484357237815856934e-02) (67, 2.33625713735818862915e-02) (65, -1.11522093415260314941e-01) (66, -6.54622772708535194397e-03) (67, 3.20978113450109958649e-03) (65, 4.09577637910842895508e-01) (66, -5.16860522329807281494e-02) (67, 1.15763796493411064148e-02) (65, 1.92110419273376464844e+00) (66, -1.96875244379043579102e-01) (67, 3.69287431240081787109e-02) (65, 3.91553699970245361328e-01) (66, -2.89314538240432739258e-02) (67, 5.39430044591426849365e-03) (65, 3.80101948976516723633e-02) (66, 3.67921148426830768585e-03) (67, -1.85627397149801254272e-03) (65, -2.57950812578201293945e-01) (66, 3.40353883802890777588e-03) (67, -5.32469188328832387924e-04) (65, 8.67128521203994750977e-02) (66, -1.03334262967109680176e-02) (67, 2.10650544613599777222e-03) (65, -3.65375005640089511871e-03) (66, -2.67534074373543262482e-03) (67, 1.04081642348319292068e-03) (65, 4.98754456639289855957e-02) (66, -2.33687437139451503754e-03) (67, 3.23759450111538171768e-04) (65, -1.59749612212181091309e-01) (66, 4.45039477199316024780e-04) (67, 1.87827201443724334240e-04) (65, -3.12951087951660156250e-01) (66, 1.41823710873723030090e-02) (67, -2.99157900735735893250e-03) (65, -5.88652640581130981445e-02) (66, -1.48572796024382114410e-03) (67, 4.95954358484596014023e-04) (65, -1.58352847211062908173e-03) (66, -1.63956498727202415466e-03) (67, 3.30930168274790048599e-04) (65, -2.93691575527191162109e-01) (66, 2.01878007501363754272e-02) (67, -3.86961759068071842194e-03) (65, -6.44541457295417785645e-02) (66, 2.35115038231015205383e-03) (67, -2.83528526779264211655e-04) (65, 4.56543313339352607727e-03) (66, -2.81873275525867938995e-03) (67, 7.75632041040807962418e-04) (65, 2.51893023960292339325e-03) (66, -9.39691904932260513306e-04) (67, 9.69762768363580107689e-05) (65, 1.66238925885409116745e-03) (66, -4.02818550355732440948e-04) (67, -1.58303271746262907982e-04) (65, -4.69366961624473333359e-04) (66, -7.65966979088261723518e-05) (67, 6.39321151538752019405e-05) (65, -2.93955439701676368713e-04) (66, 1.29001433379016816616e-04) (67, 1.59720249939709901810e-04) (65, 3.73724556993693113327e-04) (66, 3.72501031961292028427e-04) (67, -1.26514074509032070637e-04) (65, -4.91621857509016990662e-03) (66, 2.80463020317256450653e-03) (67, -6.71723857522010803223e-04) (65, -3.74997849576175212860e-03) (66, -1.69279112014919519424e-04) (67, 2.24805335165001451969e-04) (65, -7.45169296860694885254e-02) (66, 7.01712490990757942200e-03) (67, -1.60550535656511783600e-03) (65, 1.60339195281267166138e-03) (66, -8.19455381133593618870e-05) (67, 1.18276024295482784510e-04) (65, 9.56168281845748424530e-04) (66, -9.89130785455927252769e-05) (67, 5.24383431184105575085e-05) (65, -3.17952362820506095886e-04) (66, 1.05373743281234055758e-04) (67, 7.73192368797026574612e-05) (65, 6.76812604069709777832e-02) (66, -4.13060840219259262085e-03) (67, 8.59062070958316326141e-04) (65, 4.44994453573599457741e-04) (66, -1.48728111525997519493e-04) (67, 9.74670474533922970295e-05) (65, 2.00941110961139202118e-03) (66, -7.75605076341889798641e-05) (67, -5.60248372494243085384e-05) (65, -4.30151441833004355431e-04) (66, 2.26887059397995471954e-05) (67, 1.30458734929561614990e-04) (65, 1.08635146170854568481e-03) (66, -1.24225771287456154823e-04) (67, 1.00746816315222531557e-04) (65, -7.44676071917638182640e-05) (66, 1.68617189046926796436e-04) (67, 1.27124469145201146603e-04) (65, -3.93793627154082059860e-04) (66, 1.44112651469185948372e-04) (67, 3.63724830094724893570e-05) (65, 8.82685068063437938690e-04) (66, -4.32373853982426226139e-05) (67, -2.22482049139216542244e-06) (65, -2.52159754745662212372e-03) (66, 5.23279159097000956535e-05) (67, -1.27684994367882609367e-04) (65, 5.57980732992291450500e-04) (66, -9.85282094916328787804e-05) (67, 1.46636666613630950451e-05) (65, 1.08624971471726894379e-03) (66, -1.83943600859493017197e-04) (67, 1.34934962261468172073e-04) (65, 6.62875324487686157227e-02) (66, -4.18394617736339569092e-03) (67, 7.91426980867981910706e-04) (65, 8.04941373644396662712e-05) (66, 3.10696923406794667244e-04) (67, 7.99789122538641095161e-05) (65, 1.69805396581068634987e-04) (66, -1.60656287334859371185e-04) (67, -7.02816105331294238567e-05) (65, -1.66896381415426731110e-03) (66, 7.77007589931599795818e-05) (67, -4.90694656036794185638e-05) (65, 7.56345223635435104370e-04) (66, 1.20880031317938119173e-04) (67, 3.21005936712026596069e-05) (65, 1.84933669515885412693e-04) (66, -1.49729195982217788696e-04) (67, -9.16486387723125517368e-05) (65, 5.17317734193056821823e-04) (66, 1.47600818309001624584e-04) (67, 1.17392643005587160587e-04) (65, 5.71613083593547344208e-04) (66, 4.02881451009307056665e-05) (67, 1.23767982586286962032e-04) (65, 4.24945086706429719925e-04) (66, -1.18884789117146283388e-04) (67, -1.51885906234383583069e-04) (65, -1.01454753894358873367e-03) (66, 1.59796356456354260445e-04) (67, -2.99640596495009958744e-05) (65, 9.88785992376506328583e-04) (66, -2.25270399823784828186e-04) (67, 1.21471799502614885569e-04) (65, 6.63074199110269546509e-04) (66, -6.87820283928886055946e-05) (67, -6.94652117090299725533e-05) (65, 3.82400117814540863037e-04) (66, 2.86607864836696535349e-05) (67, 1.35117545141838490963e-04) (65, -7.70360697060823440552e-04) (66, -1.44214136525988578796e-04) (67, -1.19409647595603018999e-04) (65, 3.75681120203807950020e-04) (66, 2.15967484109569340944e-05) (67, 1.60686293384060263634e-04) (65, 1.96833629161119461060e-03) (66, 1.17037598101887851954e-05) (67, 1.28973697428591549397e-04) (65, -1.71236786991357803345e-03) (66, 1.52640597661957144737e-04) (67, -2.29409852181561291218e-05) (65, -1.13285600673407316208e-03) (66, 3.58234683517366647720e-04) (67, 5.86927126278169453144e-05) (65, 1.74390414031222462654e-04) (66, -1.94133841432631015778e-04) (67, -7.57999077904969453812e-06) (65, 4.77559195132926106453e-04) (66, -1.16538212751038372517e-05) (67, 6.71123634674586355686e-05) (65, -2.11758282966911792755e-03) (66, 1.20399359730072319508e-04) (67, 3.04502100334502756596e-06) (65, 3.94017493817955255508e-04) (66, 1.12510715553071349859e-04) (67, -5.04188865306787192822e-05) (65, -1.47900334559381008148e-03) (66, 1.02968850114848464727e-04) (67, -1.01642290246672928333e-04) 
