FANN_FLO_2.1
num_layers=3
learning_rate=0.500000
connection_rate=1.000000
network_type=0
learning_momentum=0.000000
training_algorithm=2
train_error_function=1
train_stop_function=0
cascade_output_change_fraction=0.010000
quickprop_decay=-0.000100
quickprop_mu=1.750000
rprop_increase_factor=1.200000
rprop_decrease_factor=0.500000
rprop_delta_min=0.000000
rprop_delta_max=50.000000
rprop_delta_zero=0.100000
cascade_output_stagnation_epochs=12
cascade_candidate_change_fraction=0.010000
cascade_candidate_stagnation_epochs=12
cascade_max_out_epochs=150
cascade_min_out_epochs=50
cascade_max_cand_epochs=150
cascade_min_cand_epochs=50
cascade_num_candidate_groups=2
bit_fail_limit=3.49999994039535522461e-01
cascade_candidate_limit=1.00000000000000000000e+03
cascade_weight_multiplier=4.00000005960464477539e-01
cascade_activation_functions_count=10
cascade_activation_functions=3 5 7 8 10 11 14 15 16 17 
cascade_activation_steepnesses_count=4
cascade_activation_steepnesses=2.50000000000000000000e-01 5.00000000000000000000e-01 7.50000000000000000000e-01 1.00000000000000000000e+00 
layer_sizes=10 9 2 
scale_included=0
neurons (num_inputs, activation_function, activation_steepness)=(0, 0, 0.00000000000000000000e+00) (0, 0, 0.00000000000000000000e+00) (0, 0, 0.00000000000000000000e+00) (0, 0, 0.00000000000000000000e+00) (0, 0, 0.00000000000000000000e+00) (0, 0, 0.00000000000000000000e+00) (0, 0, 0.00000000000000000000e+00) (0, 0, 0.00000000000000000000e+00) (0, 0, 0.00000000000000000000e+00) (0, 0, 0.00000000000000000000e+00) (10, 3, 5.00000000000000000000e-01) (10, 3, 5.00000000000000000000e-01) (10, 3, 5.00000000000000000000e-01) (10, 3, 5.00000000000000000000e-01) (10, 3, 5.00000000000000000000e-01) (10, 3, 5.00000000000000000000e-01) (10, 3, 5.00000000000000000000e-01) (10, 3, 5.00000000000000000000e-01) (0, 3, 0.00000000000000000000e+00) (9, 3, 5.00000000000000000000e-01) (0, 3, 0.00000000000000000000e+00) 
connections (connected_to_neuron, weight)=(0, -8.28600168228149414062e-01) (1, -5.62875330448150634766e-01) (2, -1.39182701706886291504e-01) (3, 9.92179930210113525391e-01) (4, -5.77904395759105682373e-02) (5, 7.79998421669006347656e-01) (6, -9.29707437753677368164e-02) (7, -1.28045344352722167969e+00) (8, -1.55898439884185791016e+00) (9, 6.36976778507232666016e-01) (0, 1.00533461570739746094e+00) (1, -4.11609172821044921875e-01) (2, 1.92890286445617675781e-01) (3, 2.31097126007080078125e+00) (4, -4.96064759790897369385e-02) (5, -3.33909988403320312500e-01) (6, 9.10436153411865234375e-01) (7, -1.14442789554595947266e+00) (8, -2.67951321601867675781e+00) (9, 2.73790031671524047852e-01) (0, -1.22995126247406005859e+00) (1, -8.29310953617095947266e-01) (2, -6.27441227436065673828e-01) (3, 1.03367376327514648438e+00) (4, -2.91238099336624145508e-01) (5, 5.96328437328338623047e-01) (6, 3.25228460133075714111e-03) (7, -1.30448031425476074219e+00) (8, -8.82035195827484130859e-01) (9, 3.01935911178588867188e-01) (0, -1.35095083713531494141e+00) (1, -7.54030585289001464844e-01) (2, -3.96851390600204467773e-01) (3, -2.56451576948165893555e-01) (4, -2.89859861135482788086e-01) (5, -1.05654859542846679688e+00) (6, 5.34191906452178955078e-01) (7, -6.66925549507141113281e-01) (8, -1.86143410205841064453e+00) (9, 1.05372369289398193359e+00) (0, -5.93750894069671630859e-01) (1, -5.21190702915191650391e-01) (2, -7.89889037609100341797e-01) (3, 7.13367521762847900391e-01) (4, 1.43422976136207580566e-01) (5, 6.87511265277862548828e-01) (6, 1.41462728381156921387e-01) (7, -7.81913042068481445312e-01) (8, -1.74787759780883789062e+00) (9, 5.70550858974456787109e-01) (0, -6.75722360610961914062e-01) (1, 1.81214511394500732422e+00) (2, 2.88151055574417114258e-01) (3, -2.37937355041503906250e+00) (4, -1.09822642803192138672e+00) (5, -4.11439657211303710938e+00) (6, 3.92976069450378417969e+00) (7, 4.92009115219116210938e+00) (8, 2.25101590156555175781e+00) (9, 4.36477549374103546143e-03) (0, -5.10154581069946289062e+00) (1, -4.05730992555618286133e-01) (2, 9.80769097805023193359e-02) (3, -5.34959614276885986328e-01) (4, -1.40624105930328369141e-01) (5, -2.10761356353759765625e+00) (6, 6.22132837772369384766e-01) (7, 1.14706087112426757812e+00) (8, -6.35310590267181396484e-01) (9, 8.92336845397949218750e-01) (0, -3.66452425718307495117e-01) (1, 2.00622487068176269531e+00) (2, -2.87256860733032226562e+00) (3, -4.75086593627929687500e+00) (4, -2.73844093084335327148e-01) (5, -1.12910676002502441406e+00) (6, 1.33713424205780029297e+00) (7, 7.37907314300537109375e+00) (8, 7.88795173168182373047e-01) (9, 1.46993324160575866699e-01) (10, 1.60185348987579345703e+00) (11, 1.68666088581085205078e+00) (12, 9.30180668830871582031e-01) (13, 3.94280838966369628906e+00) (14, 1.57484996318817138672e+00) (15, -1.12823903560638427734e+00) (16, 3.20073747634887695312e+00) (17, -3.35871124267578125000e+00) (18, -3.57043623924255371094e-01) 
