FANN_FLO_2.1
num_layers=3
learning_rate=0.500000
connection_rate=1.000000
network_type=0
learning_momentum=0.000000
training_algorithm=2
train_error_function=1
train_stop_function=0
cascade_output_change_fraction=0.010000
quickprop_decay=-0.000100
quickprop_mu=1.750000
rprop_increase_factor=1.200000
rprop_decrease_factor=0.500000
rprop_delta_min=0.000000
rprop_delta_max=50.000000
rprop_delta_zero=0.100000
cascade_output_stagnation_epochs=12
cascade_candidate_change_fraction=0.010000
cascade_candidate_stagnation_epochs=12
cascade_max_out_epochs=150
cascade_min_out_epochs=50
cascade_max_cand_epochs=150
cascade_min_cand_epochs=50
cascade_num_candidate_groups=2
bit_fail_limit=3.49999994039535522461e-01
cascade_candidate_limit=1.00000000000000000000e+03
cascade_weight_multiplier=4.00000005960464477539e-01
cascade_activation_functions_count=10
cascade_activation_functions=3 5 7 8 10 11 14 15 16 17 
cascade_activation_steepnesses_count=4
cascade_activation_steepnesses=2.50000000000000000000e-01 5.00000000000000000000e-01 7.50000000000000000000e-01 1.00000000000000000000e+00 
layer_sizes=10 3 2 
scale_included=0
neurons (num_inputs, activation_function, activation_steepness)=(0, 0, 0.00000000000000000000e+00) (0, 0, 0.00000000000000000000e+00) (0, 0, 0.00000000000000000000e+00) (0, 0, 0.00000000000000000000e+00) (0, 0, 0.00000000000000000000e+00) (0, 0, 0.00000000000000000000e+00) (0, 0, 0.00000000000000000000e+00) (0, 0, 0.00000000000000000000e+00) (0, 0, 0.00000000000000000000e+00) (0, 0, 0.00000000000000000000e+00) (10, 3, 5.00000000000000000000e-01) (10, 3, 5.00000000000000000000e-01) (0, 3, 0.00000000000000000000e+00) (3, 3, 5.00000000000000000000e-01) (0, 3, 0.00000000000000000000e+00) 
connections (connected_to_neuron, weight)=(0, -4.30684900283813476562e+00) (1, -1.06686429977416992188e+01) (2, -1.11397819519042968750e+01) (3, -3.30760812759399414062e+00) (4, 1.85056149959564208984e+00) (5, 8.22279512882232666016e-01) (6, 1.07808780670166015625e+01) (7, 1.27692546844482421875e+01) (8, 3.14250969886779785156e+00) (9, 1.41195368766784667969e+00) (0, -1.37560281753540039062e+01) (1, -7.72867321968078613281e-01) (2, -5.36715936660766601562e+00) (3, 9.20071423053741455078e-01) (4, 1.29953587055206298828e+00) (5, 3.55836200714111328125e+00) (6, 1.06284742355346679688e+01) (7, 1.37318298220634460449e-01) (8, 1.66118752956390380859e+00) (9, -1.14538443088531494141e+00) (10, -5.02145910263061523438e+00) (11, 5.00662708282470703125e+00) (12, 8.82494926452636718750e-01) 
