FANN_FLO_2.1
num_layers=4
learning_rate=0.500000
connection_rate=1.000000
network_type=0
learning_momentum=0.000000
training_algorithm=2
train_error_function=1
train_stop_function=0
cascade_output_change_fraction=0.010000
quickprop_decay=-0.000100
quickprop_mu=1.750000
rprop_increase_factor=1.200000
rprop_decrease_factor=0.500000
rprop_delta_min=0.000000
rprop_delta_max=50.000000
rprop_delta_zero=0.100000
cascade_output_stagnation_epochs=12
cascade_candidate_change_fraction=0.010000
cascade_candidate_stagnation_epochs=12
cascade_max_out_epochs=150
cascade_min_out_epochs=50
cascade_max_cand_epochs=150
cascade_min_cand_epochs=50
cascade_num_candidate_groups=2
bit_fail_limit=3.49999994039535522461e-01
cascade_candidate_limit=1.00000000000000000000e+03
cascade_weight_multiplier=4.00000005960464477539e-01
cascade_activation_functions_count=10
cascade_activation_functions=3 5 7 8 10 11 14 15 16 17 
cascade_activation_steepnesses_count=4
cascade_activation_steepnesses=2.50000000000000000000e-01 5.00000000000000000000e-01 7.50000000000000000000e-01 1.00000000000000000000e+00 
layer_sizes=10 9 9 2 
scale_included=0
neurons (num_inputs, activation_function, activation_steepness)=(0, 0, 0.00000000000000000000e+00) (0, 0, 0.00000000000000000000e+00) (0, 0, 0.00000000000000000000e+00) (0, 0, 0.00000000000000000000e+00) (0, 0, 0.00000000000000000000e+00) (0, 0, 0.00000000000000000000e+00) (0, 0, 0.00000000000000000000e+00) (0, 0, 0.00000000000000000000e+00) (0, 0, 0.00000000000000000000e+00) (0, 0, 0.00000000000000000000e+00) (10, 3, 5.00000000000000000000e-01) (10, 3, 5.00000000000000000000e-01) (10, 3, 5.00000000000000000000e-01) (10, 3, 5.00000000000000000000e-01) (10, 3, 5.00000000000000000000e-01) (10, 3, 5.00000000000000000000e-01) (10, 3, 5.00000000000000000000e-01) (10, 3, 5.00000000000000000000e-01) (0, 3, 0.00000000000000000000e+00) (9, 3, 5.00000000000000000000e-01) (9, 3, 5.00000000000000000000e-01) (9, 3, 5.00000000000000000000e-01) (9, 3, 5.00000000000000000000e-01) (9, 3, 5.00000000000000000000e-01) (9, 3, 5.00000000000000000000e-01) (9, 3, 5.00000000000000000000e-01) (9, 3, 5.00000000000000000000e-01) (0, 3, 0.00000000000000000000e+00) (9, 3, 5.00000000000000000000e-01) (0, 3, 0.00000000000000000000e+00) 
connections (connected_to_neuron, weight)=(0, 1.06618394851684570312e+01) (1, 1.69314300537109375000e+02) (2, 1.50000000000000000000e+03) (3, 8.33234548568725585938e-01) (4, -1.57663822174072265625e+00) (5, -4.45160436630249023438e+00) (6, -2.03522741794586181641e-01) (7, -2.85399891436100006104e-02) (8, 1.86791634559631347656e+00) (9, 5.17711162567138671875e-01) (0, -1.17109441757202148438e+00) (1, -1.03285932540893554688e+01) (2, 1.41843662261962890625e+01) (3, 4.64610129594802856445e-01) (4, -1.67575478553771972656e+00) (5, -1.93686866760253906250e+00) (6, -1.17589247226715087891e+00) (7, -1.73580959439277648926e-01) (8, 3.81278514862060546875e+00) (9, -3.90878766775131225586e-01) (0, 1.77383911609649658203e+00) (1, -4.29751062393188476562e+00) (2, 3.58200216293334960938e+00) (3, 8.93045365810394287109e-01) (4, -1.31516265869140625000e+00) (5, -2.14161872863769531250e+00) (6, 1.35239005088806152344e-01) (7, 5.22454619407653808594e-01) (8, 3.68290877342224121094e+00) (9, -1.96197241544723510742e-01) (0, 1.50000000000000000000e+03) (1, 1.49845642089843750000e+03) (2, 1.49944604492187500000e+03) (3, 1.50000000000000000000e+03) (4, 1.49966491699218750000e+03) (5, 1.49996325683593750000e+03) (6, 1.49995837402343750000e+03) (7, 1.50000000000000000000e+03) (8, 1.50000000000000000000e+03) (9, 1.19769706726074218750e+01) (0, 5.19150114059448242188e+00) (1, 1.01953434944152832031e+00) (2, 2.91665434837341308594e+00) (3, -6.46358668804168701172e-01) (4, -2.53956198692321777344e+00) (5, 5.97402513027191162109e-01) (6, -8.39286625385284423828e-01) (7, -4.92761230468750000000e+00) (8, -4.95160531997680664062e+00) (9, 3.45222294330596923828e-01) (0, 6.59229755401611328125e-02) (1, 1.32168281078338623047e+00) (2, 3.50589245557785034180e-01) (3, -1.85234432220458984375e+01) (4, -2.36224845051765441895e-01) (5, 5.49348115921020507812e+00) (6, -9.31802451610565185547e-01) (7, -8.26043859124183654785e-02) (8, -1.33877992630004882812e-01) (9, 4.70212191343307495117e-01) (0, 7.92132806777954101562e+00) (1, -2.22676801681518554688e+00) (2, 1.50000000000000000000e+03) (3, 4.97376054525375366211e-01) (4, -3.24946165084838867188e+00) (5, 2.65228629112243652344e-01) (6, -3.29875379800796508789e-01) (7, -4.46783351898193359375e+00) (8, 2.52530431747436523438e+00) (9, -7.51758158206939697266e-01) (0, 6.69186462402343750000e+02) (1, 1.50000000000000000000e+03) (2, 1.50000000000000000000e+03) (3, 1.90622580051422119141e+00) (4, -1.59465551376342773438e+00) (5, -4.70217323303222656250e+00) (6, -1.56879186630249023438e-01) (7, 1.98232173919677734375e-01) (8, 2.26974201202392578125e+00) (9, -2.70563602447509765625e-01) (10, -1.37046289443969726562e+00) (11, -1.30794239044189453125e+00) (12, -3.17326903343200683594e+00) (13, 2.24067163467407226562e+00) (14, 1.90826225280761718750e+01) (15, 3.66094446182250976562e+00) (16, -2.32345318794250488281e+00) (17, -1.32479822635650634766e+00) (18, 1.74853801727294921875e+00) (10, 7.14291334152221679688e-01) (11, 1.02606534957885742188e+00) (12, 7.01519608497619628906e-01) (13, 1.68735623359680175781e-01) (14, 2.43250484466552734375e+01) (15, -5.06184673309326171875e+00) (16, 1.74899077415466308594e+00) (17, 9.14087951183319091797e-01) (18, -1.41926455497741699219e+00) (10, -5.86152434349060058594e-01) (11, -6.37104988098144531250e-01) (12, -4.20479345321655273438e+00) (13, 3.78362476825714111328e-01) (14, 7.84861612319946289062e+00) (15, 9.43825840950012207031e-01) (16, -4.38026523590087890625e+00) (17, -7.12567269802093505859e-01) (18, -2.77845133095979690552e-02) (10, -7.45902895927429199219e-01) (11, -7.26561963558197021484e-01) (12, -5.51239252090454101562e-01) (13, 5.87723910808563232422e-01) (14, -9.49162578582763671875e+00) (15, 2.98139762878417968750e+00) (16, -4.74159765243530273438e+00) (17, -8.80821347236633300781e-01) (18, -3.77249643206596374512e-02) (10, -1.21067631244659423828e+00) (11, -2.07111382484436035156e+00) (12, -1.21869266033172607422e+00) (13, 8.69734942913055419922e-01) (14, 1.17106065750122070312e+01) (15, 5.74398183822631835938e+00) (16, -1.91397714614868164062e+00) (17, -8.17593097686767578125e-01) (18, 1.58185601234436035156e+00) (10, 5.44175643920898437500e+01) (11, 1.50000000000000000000e+03) (12, 1.50000000000000000000e+03) (13, 1.16372448730468750000e+03) (14, -4.66959089040756225586e-01) (15, 5.54385070800781250000e+01) (16, 2.70244903564453125000e+02) (17, 5.42324371337890625000e+01) (18, -1.70203340053558349609e+00) (10, -6.95480287075042724609e-01) (11, -7.56910324096679687500e-01) (12, -4.35998558998107910156e-01) (13, 6.25046551227569580078e-01) (14, -9.67817497253417968750e+00) (15, 3.00233125686645507812e+00) (16, -4.72003841400146484375e+00) (17, -9.14278805255889892578e-01) (18, -7.34581276774406433105e-02) (10, -8.15780699253082275391e-01) (11, -5.17575681209564208984e-01) (12, -5.44827401638031005859e-01) (13, 5.37924528121948242188e-01) (14, -9.35323905944824218750e+00) (15, 2.94057464599609375000e+00) (16, -4.67952013015747070312e+00) (17, -8.56297969818115234375e-01) (18, 7.10125789046287536621e-02) (19, 1.50719213485717773438e+00) (20, -1.14258241653442382812e+00) (21, 5.50186753273010253906e-01) (22, 4.50353533029556274414e-01) (23, 1.24044990539550781250e+00) (24, -5.11821627616882324219e-01) (25, 4.52450871467590332031e-01) (26, 4.51340675354003906250e-01) (27, -3.72141063213348388672e-01) 
