FANN_FLO_2.1
num_layers=4
learning_rate=0.500000
connection_rate=1.000000
network_type=0
learning_momentum=0.000000
training_algorithm=2
train_error_function=1
train_stop_function=0
cascade_output_change_fraction=0.010000
quickprop_decay=-0.000100
quickprop_mu=1.750000
rprop_increase_factor=1.200000
rprop_decrease_factor=0.500000
rprop_delta_min=0.000000
rprop_delta_max=50.000000
rprop_delta_zero=0.100000
cascade_output_stagnation_epochs=12
cascade_candidate_change_fraction=0.010000
cascade_candidate_stagnation_epochs=12
cascade_max_out_epochs=150
cascade_min_out_epochs=50
cascade_max_cand_epochs=150
cascade_min_cand_epochs=50
cascade_num_candidate_groups=2
bit_fail_limit=3.49999994039535522461e-01
cascade_candidate_limit=1.00000000000000000000e+03
cascade_weight_multiplier=4.00000005960464477539e-01
cascade_activation_functions_count=10
cascade_activation_functions=3 5 7 8 10 11 14 15 16 17 
cascade_activation_steepnesses_count=4
cascade_activation_steepnesses=2.50000000000000000000e-01 5.00000000000000000000e-01 7.50000000000000000000e-01 1.00000000000000000000e+00 
layer_sizes=2 5 3 3 
scale_included=0
neurons (num_inputs, activation_function, activation_steepness)=(0, 0, 0.00000000000000000000e+00) (0, 0, 0.00000000000000000000e+00) (2, 3, 5.00000000000000000000e-01) (2, 3, 5.00000000000000000000e-01) (2, 3, 5.00000000000000000000e-01) (2, 3, 5.00000000000000000000e-01) (0, 3, 0.00000000000000000000e+00) (5, 3, 5.00000000000000000000e-01) (5, 3, 5.00000000000000000000e-01) (0, 3, 0.00000000000000000000e+00) (3, 0, 5.00000000000000000000e-01) (3, 0, 5.00000000000000000000e-01) (0, 0, 0.00000000000000000000e+00) 
connections (connected_to_neuron, weight)=(0, -2.10511360168457031250e+01) (1, 2.11907649040222167969e+00) (0, -1.20905971527099609375e+01) (1, 3.27275586128234863281e+00) (0, -7.80937744140625000000e+02) (1, 5.61341857910156250000e+00) (0, -1.58347187042236328125e+01) (1, 3.79106307029724121094e+00) (2, -5.00635004043579101562e+00) (3, 1.21248664855957031250e+01) (4, -9.72338691353797912598e-02) (5, -5.58020353317260742188e+00) (6, -1.36123323440551757812e+00) (2, -1.79503929615020751953e+00) (3, -2.98427796363830566406e+00) (4, -3.05333226919174194336e-01) (5, 4.12989854812622070312e-01) (6, 1.49834311008453369141e+00) (7, -3.57106375694274902344e+00) (8, -1.59410047531127929688e+00) (9, 2.13206624984741210938e+00) (7, 7.40120530128479003906e-01) (8, -5.30756235122680664062e+00) (9, 1.85898196697235107422e+00) 
