FANN_FLO_2.1
num_layers=3
learning_rate=0.400000
connection_rate=1.000000
network_type=0
learning_momentum=0.000000
training_algorithm=2
train_error_function=1
train_stop_function=0
cascade_output_change_fraction=0.010000
quickprop_decay=-0.000100
quickprop_mu=1.750000
rprop_increase_factor=1.200000
rprop_decrease_factor=0.500000
rprop_delta_min=0.000000
rprop_delta_max=50.000000
rprop_delta_zero=0.100000
cascade_output_stagnation_epochs=12
cascade_candidate_change_fraction=0.010000
cascade_candidate_stagnation_epochs=12
cascade_max_out_epochs=150
cascade_min_out_epochs=50
cascade_max_cand_epochs=150
cascade_min_cand_epochs=50
cascade_num_candidate_groups=2
bit_fail_limit=3.49999994039535522461e-01
cascade_candidate_limit=1.00000000000000000000e+03
cascade_weight_multiplier=4.00000005960464477539e-01
cascade_activation_functions_count=10
cascade_activation_functions=3 5 7 8 10 11 14 15 16 17 
cascade_activation_steepnesses_count=4
cascade_activation_steepnesses=2.50000000000000000000e-01 5.00000000000000000000e-01 7.50000000000000000000e-01 1.00000000000000000000e+00 
layer_sizes=7 9 2 
scale_included=0
neurons (num_inputs, activation_function, activation_steepness)=(0, 0, 0.00000000000000000000e+00) (0, 0, 0.00000000000000000000e+00) (0, 0, 0.00000000000000000000e+00) (0, 0, 0.00000000000000000000e+00) (0, 0, 0.00000000000000000000e+00) (0, 0, 0.00000000000000000000e+00) (0, 0, 0.00000000000000000000e+00) (7, 3, 5.00000000000000000000e-01) (7, 3, 5.00000000000000000000e-01) (7, 3, 5.00000000000000000000e-01) (7, 3, 5.00000000000000000000e-01) (7, 3, 5.00000000000000000000e-01) (7, 3, 5.00000000000000000000e-01) (7, 3, 5.00000000000000000000e-01) (7, 3, 5.00000000000000000000e-01) (0, 3, 0.00000000000000000000e+00) (9, 3, 5.00000000000000000000e-01) (0, 3, 0.00000000000000000000e+00) 
connections (connected_to_neuron, weight)=(0, -2.76576012372970581055e-01) (1, 5.96586242318153381348e-02) (2, -6.38893699645996093750e+00) (3, -9.14659082889556884766e-01) (4, 1.54368817806243896484e-01) (5, -6.75891447067260742188e+00) (6, 2.62885749340057373047e-01) (0, 1.05619013309478759766e+00) (1, -1.39751350879669189453e+00) (2, -6.67168092727661132812e+00) (3, -4.62818002700805664062e+00) (4, -1.88913989067077636719e+00) (5, 2.54883823394775390625e+01) (6, 1.16372144222259521484e+00) (0, 3.26293736696243286133e-01) (1, -1.89182147979736328125e+01) (2, 8.91502571105957031250e+00) (3, -9.79023218154907226562e-01) (4, -1.38216185569763183594e+00) (5, 5.84630012512207031250e+00) (6, 2.88610368967056274414e-01) (0, -1.31737842559814453125e+01) (1, 1.18497591018676757812e+01) (2, -2.10606074333190917969e+00) (3, -2.84682822227478027344e+00) (4, -1.24073219299316406250e+00) (5, 7.08121871948242187500e+00) (6, 1.60197901725769042969e+00) (0, -5.73205852508544921875e+00) (1, 1.17731976509094238281e+00) (2, 1.06964147090911865234e+00) (3, -2.40456804633140563965e-01) (4, -2.89345240592956542969e+00) (5, -1.49966638183593750000e+03) (6, 3.30868959426879882812e+00) (0, 2.37151217460632324219e+00) (1, -4.64698410034179687500e+00) (2, 1.26011681556701660156e+00) (3, -9.96576309204101562500e-01) (4, 9.72413778305053710938e-01) (5, 9.68056559562683105469e-01) (6, 2.32261538505554199219e-01) (0, 1.18324937820434570312e+01) (1, -4.85479640960693359375e+00) (2, 9.62169766426086425781e-01) (3, -4.46880435943603515625e+00) (4, -2.48282980918884277344e+00) (5, 1.53304412961006164551e-01) (6, -3.50059485435485839844e+00) (0, -6.83530187606811523438e+00) (1, 4.21794319152832031250e+00) (2, -2.59338588714599609375e+01) (3, 5.34317827224731445312e+00) (4, -9.22089219093322753906e-01) (5, 7.02580118179321289062e+00) (6, 2.71601414680480957031e+00) (7, -1.28536844253540039062e+00) (8, 3.88929867744445800781e+00) (9, -9.10313510894775390625e+00) (10, -4.88462543487548828125e+00) (11, -1.30450546741485595703e+00) (12, -2.33896708488464355469e+00) (13, -2.32284021377563476562e+00) (14, -3.85657548904418945312e-01) (15, 5.83534479141235351562e-01) 
