FANN_FLO_2.1
num_layers=3
learning_rate=0.500000
connection_rate=1.000000
network_type=0
learning_momentum=0.000000
training_algorithm=2
train_error_function=1
train_stop_function=0
cascade_output_change_fraction=0.010000
quickprop_decay=-0.000100
quickprop_mu=1.750000
rprop_increase_factor=1.200000
rprop_decrease_factor=0.500000
rprop_delta_min=0.000000
rprop_delta_max=50.000000
rprop_delta_zero=0.100000
cascade_output_stagnation_epochs=12
cascade_candidate_change_fraction=0.010000
cascade_candidate_stagnation_epochs=12
cascade_max_out_epochs=150
cascade_min_out_epochs=50
cascade_max_cand_epochs=150
cascade_min_cand_epochs=50
cascade_num_candidate_groups=2
bit_fail_limit=3.49999994039535522461e-01
cascade_candidate_limit=1.00000000000000000000e+03
cascade_weight_multiplier=4.00000005960464477539e-01
cascade_activation_functions_count=10
cascade_activation_functions=3 5 7 8 10 11 14 15 16 17 
cascade_activation_steepnesses_count=4
cascade_activation_steepnesses=2.50000000000000000000e-01 5.00000000000000000000e-01 7.50000000000000000000e-01 1.00000000000000000000e+00 
layer_sizes=10 3 2 
scale_included=0
neurons (num_inputs, activation_function, activation_steepness)=(0, 0, 0.00000000000000000000e+00) (0, 0, 0.00000000000000000000e+00) (0, 0, 0.00000000000000000000e+00) (0, 0, 0.00000000000000000000e+00) (0, 0, 0.00000000000000000000e+00) (0, 0, 0.00000000000000000000e+00) (0, 0, 0.00000000000000000000e+00) (0, 0, 0.00000000000000000000e+00) (0, 0, 0.00000000000000000000e+00) (0, 0, 0.00000000000000000000e+00) (10, 3, 5.00000000000000000000e-01) (10, 3, 5.00000000000000000000e-01) (0, 3, 0.00000000000000000000e+00) (3, 3, 5.00000000000000000000e-01) (0, 3, 0.00000000000000000000e+00) 
connections (connected_to_neuron, weight)=(0, 3.05811405181884765625e+00) (1, -1.44611816406250000000e+01) (2, -1.53561143875122070312e+01) (3, 3.21028828620910644531e+00) (4, 1.83851408958435058594e+00) (5, 9.55452859401702880859e-01) (6, 2.14666690826416015625e+01) (7, 1.96458294987678527832e-01) (8, -4.98519212007522583008e-01) (9, 7.24272549152374267578e-01) (0, -5.85027790069580078125e+00) (1, -1.93425483703613281250e+01) (2, -2.24825477600097656250e+00) (3, -1.30945014953613281250e+00) (4, 6.52212953567504882812e+00) (5, -8.29974365234375000000e+00) (6, 3.27884483337402343750e+01) (7, 6.64236593246459960938e+00) (8, -6.96125125885009765625e+00) (9, -3.35440754890441894531e+00) (10, -5.31288814544677734375e+00) (11, 5.35895395278930664062e+00) (12, 8.24933469295501708984e-01) 
