FANN_FLO_2.1
num_layers=4
learning_rate=0.500000
connection_rate=1.000000
network_type=0
learning_momentum=0.000000
training_algorithm=2
train_error_function=1
train_stop_function=0
cascade_output_change_fraction=0.010000
quickprop_decay=-0.000100
quickprop_mu=1.750000
rprop_increase_factor=1.200000
rprop_decrease_factor=0.500000
rprop_delta_min=0.000000
rprop_delta_max=50.000000
rprop_delta_zero=0.100000
cascade_output_stagnation_epochs=12
cascade_candidate_change_fraction=0.010000
cascade_candidate_stagnation_epochs=12
cascade_max_out_epochs=150
cascade_min_out_epochs=50
cascade_max_cand_epochs=150
cascade_min_cand_epochs=50
cascade_num_candidate_groups=2
bit_fail_limit=3.49999994039535522461e-01
cascade_candidate_limit=1.00000000000000000000e+03
cascade_weight_multiplier=4.00000005960464477539e-01
cascade_activation_functions_count=10
cascade_activation_functions=3 5 7 8 10 11 14 15 16 17 
cascade_activation_steepnesses_count=4
cascade_activation_steepnesses=2.50000000000000000000e-01 5.00000000000000000000e-01 7.50000000000000000000e-01 1.00000000000000000000e+00 
layer_sizes=10 9 3 2 
scale_included=0
neurons (num_inputs, activation_function, activation_steepness)=(0, 0, 0.00000000000000000000e+00) (0, 0, 0.00000000000000000000e+00) (0, 0, 0.00000000000000000000e+00) (0, 0, 0.00000000000000000000e+00) (0, 0, 0.00000000000000000000e+00) (0, 0, 0.00000000000000000000e+00) (0, 0, 0.00000000000000000000e+00) (0, 0, 0.00000000000000000000e+00) (0, 0, 0.00000000000000000000e+00) (0, 0, 0.00000000000000000000e+00) (10, 3, 5.00000000000000000000e-01) (10, 3, 5.00000000000000000000e-01) (10, 3, 5.00000000000000000000e-01) (10, 3, 5.00000000000000000000e-01) (10, 3, 5.00000000000000000000e-01) (10, 3, 5.00000000000000000000e-01) (10, 3, 5.00000000000000000000e-01) (10, 3, 5.00000000000000000000e-01) (0, 3, 0.00000000000000000000e+00) (9, 3, 5.00000000000000000000e-01) (9, 3, 5.00000000000000000000e-01) (0, 3, 0.00000000000000000000e+00) (3, 3, 5.00000000000000000000e-01) (0, 3, 0.00000000000000000000e+00) 
connections (connected_to_neuron, weight)=(0, 6.72526419162750244141e-01) (1, 3.79085421562194824219e+00) (2, 4.32905340194702148438e+00) (3, 4.76018524169921875000e+00) (4, 3.77945327758789062500e+00) (5, 2.58932486176490783691e-02) (6, -6.15209221839904785156e-01) (7, 5.87746858596801757812e-01) (8, -2.53440856933593750000e+01) (9, 1.13145429641008377075e-02) (0, 4.84554231166839599609e-01) (1, 3.55027198791503906250e+00) (2, -1.96778059005737304688e+00) (3, 6.77671074867248535156e-01) (4, 7.77117061614990234375e+00) (5, 1.07569539546966552734e+00) (6, 1.11857689917087554932e-01) (7, 1.87855970859527587891e+00) (8, 1.15719187259674072266e+00) (9, -5.10644626617431640625e+00) (0, 4.73450422286987304688e+00) (1, -5.18608617782592773438e+00) (2, 4.48799324035644531250e+00) (3, 9.17968451976776123047e-01) (4, -4.27421379089355468750e+00) (5, -1.54346454143524169922e+00) (6, 5.24154853820800781250e+00) (7, -4.14646983146667480469e-01) (8, -6.73718452453613281250e+00) (9, 1.70170164108276367188e+00) (0, -3.67567181587219238281e-01) (1, 3.46261978149414062500e+00) (2, -1.25070035457611083984e+00) (3, 3.70435953140258789062e+00) (4, 3.40261673927307128906e+00) (5, 5.91993890702724456787e-02) (6, -1.11613297462463378906e+00) (7, 4.14209365844726562500e-01) (8, -1.96051006317138671875e+01) (9, 3.36328804492950439453e-01) (0, 1.84196472167968750000e+01) (1, 9.89116847515106201172e-01) (2, 1.21876068115234375000e+01) (3, 3.72997790575027465820e-01) (4, -2.49245715141296386719e+00) (5, -1.02072429656982421875e+01) (6, -5.17135620117187500000e-01) (7, -1.43371944427490234375e+01) (8, -5.02718019485473632812e+00) (9, 3.69562816619873046875e+00) (0, 1.28651082515716552734e+00) (1, 3.72219395637512207031e+00) (2, -9.72983658313751220703e-01) (3, 3.58087515830993652344e+00) (4, 3.57232284545898437500e+00) (5, 2.29247406125068664551e-01) (6, -1.65849491953849792480e-01) (7, 8.77014756202697753906e-01) (8, -1.88289489746093750000e+01) (9, 8.57275426387786865234e-01) (0, -2.93180608749389648438e+00) (1, 2.09352254867553710938e+00) (2, -2.08481478691101074219e+00) (3, -6.20718657970428466797e-01) (4, 7.52320718765258789062e+00) (5, 4.49257469177246093750e+00) (6, -7.22837686538696289062e-01) (7, 1.30716785788536071777e-01) (8, 4.20889806747436523438e+00) (9, -5.04362249374389648438e+00) (0, 2.91281652450561523438e+00) (1, 3.69857192039489746094e+00) (2, -1.15123033523559570312e+00) (3, 3.34315729141235351562e+00) (4, 3.45789933204650878906e+00) (5, -2.39080414175987243652e-02) (6, -5.03646969795227050781e-01) (7, 8.97004127502441406250e-01) (8, -1.87645435333251953125e+01) (9, 8.19891810417175292969e-01) (10, 3.51491212844848632812e+00) (11, 5.86757898330688476562e-01) (12, -4.16409969329833984375e+00) (13, -5.49374532699584960938e+00) (14, -2.00564503669738769531e+00) (15, 3.51692056655883789062e+00) (16, 6.31131362915039062500e+00) (17, 7.67421579360961914062e+00) (18, -2.09776312112808227539e-01) (10, 3.45551586151123046875e+00) (11, 2.05920267105102539062e+00) (12, -4.05678319931030273438e+00) (13, 5.00389194488525390625e+00) (14, -2.30381560325622558594e+00) (15, 8.75006675720214843750e-01) (16, 4.87178421020507812500e+00) (17, 3.66178423166275024414e-01) (18, -8.11079442501068115234e-02) (19, 1.56552505493164062500e+00) (20, 1.12707388401031494141e+00) (21, -1.79604852199554443359e+00) 
