FANN_FLO_2.1
num_layers=4
learning_rate=0.500000
connection_rate=1.000000
network_type=0
learning_momentum=0.000000
training_algorithm=2
train_error_function=1
train_stop_function=0
cascade_output_change_fraction=0.010000
quickprop_decay=-0.000100
quickprop_mu=1.750000
rprop_increase_factor=1.200000
rprop_decrease_factor=0.500000
rprop_delta_min=0.000000
rprop_delta_max=50.000000
rprop_delta_zero=0.100000
cascade_output_stagnation_epochs=12
cascade_candidate_change_fraction=0.010000
cascade_candidate_stagnation_epochs=12
cascade_max_out_epochs=150
cascade_min_out_epochs=50
cascade_max_cand_epochs=150
cascade_min_cand_epochs=50
cascade_num_candidate_groups=2
bit_fail_limit=3.49999994039535522461e-01
cascade_candidate_limit=1.00000000000000000000e+03
cascade_weight_multiplier=4.00000005960464477539e-01
cascade_activation_functions_count=10
cascade_activation_functions=3 5 7 8 10 11 14 15 16 17 
cascade_activation_steepnesses_count=4
cascade_activation_steepnesses=2.50000000000000000000e-01 5.00000000000000000000e-01 7.50000000000000000000e-01 1.00000000000000000000e+00 
layer_sizes=10 9 3 2 
scale_included=0
neurons (num_inputs, activation_function, activation_steepness)=(0, 0, 0.00000000000000000000e+00) (0, 0, 0.00000000000000000000e+00) (0, 0, 0.00000000000000000000e+00) (0, 0, 0.00000000000000000000e+00) (0, 0, 0.00000000000000000000e+00) (0, 0, 0.00000000000000000000e+00) (0, 0, 0.00000000000000000000e+00) (0, 0, 0.00000000000000000000e+00) (0, 0, 0.00000000000000000000e+00) (0, 0, 0.00000000000000000000e+00) (10, 3, 5.00000000000000000000e-01) (10, 3, 5.00000000000000000000e-01) (10, 3, 5.00000000000000000000e-01) (10, 3, 5.00000000000000000000e-01) (10, 3, 5.00000000000000000000e-01) (10, 3, 5.00000000000000000000e-01) (10, 3, 5.00000000000000000000e-01) (10, 3, 5.00000000000000000000e-01) (0, 3, 0.00000000000000000000e+00) (9, 3, 5.00000000000000000000e-01) (9, 3, 5.00000000000000000000e-01) (0, 3, 0.00000000000000000000e+00) (3, 3, 5.00000000000000000000e-01) (0, 3, 0.00000000000000000000e+00) 
connections (connected_to_neuron, weight)=(0, -7.49302327632904052734e-01) (1, -3.55013632774353027344e+00) (2, -1.40859460830688476562e+00) (3, 7.50750839710235595703e-01) (4, -3.69584232568740844727e-01) (5, 6.36775568127632141113e-02) (6, 1.50000000000000000000e+03) (7, 1.44502818584442138672e+00) (8, 3.81092119216918945312e+00) (9, -2.21961021423339843750e+00) (0, -8.46998751163482666016e-01) (1, -5.01375579833984375000e+00) (2, 3.94805788993835449219e+00) (3, 1.36023926734924316406e+00) (4, -3.83760660886764526367e-01) (5, 9.17498230934143066406e-01) (6, 3.95375919342041015625e+00) (7, 9.84809875488281250000e-01) (8, 3.71688604354858398438e+00) (9, -1.94685101509094238281e+00) (0, -1.04385638236999511719e+00) (1, -1.74302330017089843750e+01) (2, 1.07761516571044921875e+01) (3, 1.05744338035583496094e+00) (4, -7.67337024211883544922e-01) (5, -5.78820854425430297852e-02) (6, 1.94128570556640625000e+01) (7, 1.97649550437927246094e+00) (8, 8.61555194854736328125e+00) (9, -5.24650049209594726562e+00) (0, -9.56387996673583984375e-01) (1, 1.08360075950622558594e+00) (2, 1.16577959060668945312e+00) (3, -4.54203754663467407227e-01) (4, -1.54000788927078247070e-01) (5, -7.92384505271911621094e-01) (6, -8.23307006835937500000e+02) (7, -8.42644333839416503906e-01) (8, 4.40340489149093627930e-01) (9, 2.32570910453796386719e+00) (0, -7.92213678359985351562e-01) (1, -6.82064831256866455078e-01) (2, 4.31121206283569335938e+00) (3, 4.48118716478347778320e-01) (4, -1.63758659362792968750e+00) (5, -2.16929078102111816406e-01) (6, 4.11974811553955078125e+00) (7, 7.38008081912994384766e-01) (8, 3.84208989143371582031e+00) (9, -1.55082964897155761719e+00) (0, -8.71863126754760742188e-01) (1, -1.56811952590942382812e+00) (2, 3.88364386558532714844e+00) (3, 6.78796052932739257812e-01) (4, -1.26280888915061950684e-01) (5, 1.42879295349121093750e+00) (6, 2.86425566673278808594e+00) (7, 1.12035143375396728516e+00) (8, 3.79838347434997558594e+00) (9, -1.91526126861572265625e+00) (0, -2.43127137422561645508e-01) (1, 4.84788036346435546875e+00) (2, -1.35888040065765380859e+00) (3, -1.98982250690460205078e+00) (4, 1.97596406936645507812e+00) (5, -2.51883983612060546875e+00) (6, -2.62631249427795410156e+00) (7, -2.22713351249694824219e+00) (8, -1.87993955612182617188e+00) (9, 9.42140042781829833984e-01) (0, -7.50516772270202636719e-01) (1, -8.76025104522705078125e+00) (2, 9.15830612182617187500e+00) (3, 1.00903320312500000000e+00) (4, -2.74923419952392578125e+00) (5, 8.80115330219268798828e-01) (6, 8.96290969848632812500e+00) (7, 3.26587271690368652344e+00) (8, 7.39193725585937500000e+00) (9, -5.33514642715454101562e+00) (10, -7.86570358276367187500e+00) (11, -2.00607395172119140625e+01) (12, -2.66931213378906250000e+02) (13, 1.50000000000000000000e+03) (14, -1.21417272090911865234e+00) (15, -1.32555139064788818359e+00) (16, 1.49908520507812500000e+03) (17, -1.10309928894042968750e+02) (18, 3.10302346944808959961e-01) (10, -2.06466865539550781250e+00) (11, -4.93922615051269531250e+00) (12, -2.79194087982177734375e+01) (13, 1.50000000000000000000e+03) (14, -7.29545414447784423828e-01) (15, -9.77438211441040039062e-01) (16, 4.71058685302734375000e+02) (17, -1.15741300582885742188e+01) (18, -1.09285943210124969482e-01) (19, 1.43499374389648437500e+00) (20, 1.85108709335327148438e+00) (21, -2.43148422241210937500e+00) 
