FANN_FLO_2.1
num_layers=3
learning_rate=0.400000
connection_rate=1.000000
network_type=0
learning_momentum=0.000000
training_algorithm=2
train_error_function=1
train_stop_function=0
cascade_output_change_fraction=0.010000
quickprop_decay=-0.000100
quickprop_mu=1.750000
rprop_increase_factor=1.200000
rprop_decrease_factor=0.500000
rprop_delta_min=0.000000
rprop_delta_max=50.000000
rprop_delta_zero=0.100000
cascade_output_stagnation_epochs=12
cascade_candidate_change_fraction=0.010000
cascade_candidate_stagnation_epochs=12
cascade_max_out_epochs=150
cascade_min_out_epochs=50
cascade_max_cand_epochs=150
cascade_min_cand_epochs=50
cascade_num_candidate_groups=2
bit_fail_limit=3.49999994039535522461e-01
cascade_candidate_limit=1.00000000000000000000e+03
cascade_weight_multiplier=4.00000005960464477539e-01
cascade_activation_functions_count=10
cascade_activation_functions=3 5 7 8 10 11 14 15 16 17 
cascade_activation_steepnesses_count=4
cascade_activation_steepnesses=2.50000000000000000000e-01 5.00000000000000000000e-01 7.50000000000000000000e-01 1.00000000000000000000e+00 
layer_sizes=65 3 65 
scale_included=0
neurons (num_inputs, activation_function, activation_steepness)=(0, 0, 0.00000000000000000000e+00) (0, 0, 0.00000000000000000000e+00) (0, 0, 0.00000000000000000000e+00) (0, 0, 0.00000000000000000000e+00) (0, 0, 0.00000000000000000000e+00) (0, 0, 0.00000000000000000000e+00) (0, 0, 0.00000000000000000000e+00) (0, 0, 0.00000000000000000000e+00) (0, 0, 0.00000000000000000000e+00) (0, 0, 0.00000000000000000000e+00) (0, 0, 0.00000000000000000000e+00) (0, 0, 0.00000000000000000000e+00) (0, 0, 0.00000000000000000000e+00) (0, 0, 0.00000000000000000000e+00) (0, 0, 0.00000000000000000000e+00) (0, 0, 0.00000000000000000000e+00) (0, 0, 0.00000000000000000000e+00) (0, 0, 0.00000000000000000000e+00) (0, 0, 0.00000000000000000000e+00) (0, 0, 0.00000000000000000000e+00) (0, 0, 0.00000000000000000000e+00) (0, 0, 0.00000000000000000000e+00) (0, 0, 0.00000000000000000000e+00) (0, 0, 0.00000000000000000000e+00) (0, 0, 0.00000000000000000000e+00) (0, 0, 0.00000000000000000000e+00) (0, 0, 0.00000000000000000000e+00) (0, 0, 0.00000000000000000000e+00) (0, 0, 0.00000000000000000000e+00) (0, 0, 0.00000000000000000000e+00) (0, 0, 0.00000000000000000000e+00) (0, 0, 0.00000000000000000000e+00) (0, 0, 0.00000000000000000000e+00) (0, 0, 0.00000000000000000000e+00) (0, 0, 0.00000000000000000000e+00) (0, 0, 0.00000000000000000000e+00) (0, 0, 0.00000000000000000000e+00) (0, 0, 0.00000000000000000000e+00) (0, 0, 0.00000000000000000000e+00) (0, 0, 0.00000000000000000000e+00) (0, 0, 0.00000000000000000000e+00) (0, 0, 0.00000000000000000000e+00) (0, 0, 0.00000000000000000000e+00) (0, 0, 0.00000000000000000000e+00) (0, 0, 0.00000000000000000000e+00) (0, 0, 0.00000000000000000000e+00) (0, 0, 0.00000000000000000000e+00) (0, 0, 0.00000000000000000000e+00) (0, 0, 0.00000000000000000000e+00) (0, 0, 0.00000000000000000000e+00) (0, 0, 0.00000000000000000000e+00) (0, 0, 0.00000000000000000000e+00) (0, 0, 0.00000000000000000000e+00) (0, 0, 0.00000000000000000000e+00) (0, 0, 0.00000000000000000000e+00) (0, 0, 0.00000000000000000000e+00) (0, 0, 0.00000000000000000000e+00) (0, 0, 0.00000000000000000000e+00) (0, 0, 0.00000000000000000000e+00) (0, 0, 0.00000000000000000000e+00) (0, 0, 0.00000000000000000000e+00) (0, 0, 0.00000000000000000000e+00) (0, 0, 0.00000000000000000000e+00) (0, 0, 0.00000000000000000000e+00) (0, 0, 0.00000000000000000000e+00) (65, 3, 5.00000000000000000000e-01) (65, 3, 5.00000000000000000000e-01) (0, 3, 0.00000000000000000000e+00) (3, 5, 5.00000000000000000000e-01) (3, 5, 5.00000000000000000000e-01) (3, 5, 5.00000000000000000000e-01) (3, 5, 5.00000000000000000000e-01) (3, 5, 5.00000000000000000000e-01) (3, 5, 5.00000000000000000000e-01) (3, 5, 5.00000000000000000000e-01) (3, 5, 5.00000000000000000000e-01) (3, 5, 5.00000000000000000000e-01) (3, 5, 5.00000000000000000000e-01) (3, 5, 5.00000000000000000000e-01) (3, 5, 5.00000000000000000000e-01) (3, 5, 5.00000000000000000000e-01) (3, 5, 5.00000000000000000000e-01) (3, 5, 5.00000000000000000000e-01) (3, 5, 5.00000000000000000000e-01) (3, 5, 5.00000000000000000000e-01) (3, 5, 5.00000000000000000000e-01) (3, 5, 5.00000000000000000000e-01) (3, 5, 5.00000000000000000000e-01) (3, 5, 5.00000000000000000000e-01) (3, 5, 5.00000000000000000000e-01) (3, 5, 5.00000000000000000000e-01) (3, 5, 5.00000000000000000000e-01) (3, 5, 5.00000000000000000000e-01) (3, 5, 5.00000000000000000000e-01) (3, 5, 5.00000000000000000000e-01) (3, 5, 5.00000000000000000000e-01) (3, 5, 5.00000000000000000000e-01) (3, 5, 5.00000000000000000000e-01) (3, 5, 5.00000000000000000000e-01) (3, 5, 5.00000000000000000000e-01) (3, 5, 5.00000000000000000000e-01) (3, 5, 5.00000000000000000000e-01) (3, 5, 5.00000000000000000000e-01) (3, 5, 5.00000000000000000000e-01) (3, 5, 5.00000000000000000000e-01) (3, 5, 5.00000000000000000000e-01) (3, 5, 5.00000000000000000000e-01) (3, 5, 5.00000000000000000000e-01) (3, 5, 5.00000000000000000000e-01) (3, 5, 5.00000000000000000000e-01) (3, 5, 5.00000000000000000000e-01) (3, 5, 5.00000000000000000000e-01) (3, 5, 5.00000000000000000000e-01) (3, 5, 5.00000000000000000000e-01) (3, 5, 5.00000000000000000000e-01) (3, 5, 5.00000000000000000000e-01) (3, 5, 5.00000000000000000000e-01) (3, 5, 5.00000000000000000000e-01) (3, 5, 5.00000000000000000000e-01) (3, 5, 5.00000000000000000000e-01) (3, 5, 5.00000000000000000000e-01) (3, 5, 5.00000000000000000000e-01) (3, 5, 5.00000000000000000000e-01) (3, 5, 5.00000000000000000000e-01) (3, 5, 5.00000000000000000000e-01) (3, 5, 5.00000000000000000000e-01) (3, 5, 5.00000000000000000000e-01) (3, 5, 5.00000000000000000000e-01) (3, 5, 5.00000000000000000000e-01) (3, 5, 5.00000000000000000000e-01) (3, 5, 5.00000000000000000000e-01) (3, 5, 5.00000000000000000000e-01) (0, 5, 0.00000000000000000000e+00) 
connections (connected_to_neuron, weight)=(0, 1.59907847642898559570e-01) (1, -9.86191108822822570801e-02) (2, 1.84512007981538772583e-02) (3, 1.61906808614730834961e-01) (4, 1.34585490450263023376e-02) (5, -2.79102772474288940430e-02) (6, 1.91414188593626022339e-02) (7, 1.66334107518196105957e-01) (8, 1.54021725058555603027e-01) (9, -1.15987375378608703613e-01) (10, 6.83537945151329040527e-02) (11, 1.75006613135337829590e-01) (12, -3.63161810673773288727e-03) (13, 9.58725288510322570801e-02) (14, -1.80730968713760375977e-01) (15, -3.33113782107830047607e-02) (16, 1.41542796045541763306e-02) (17, 1.40095949172973632812e-01) (18, 1.18611223995685577393e-01) (19, 9.66747477650642395020e-02) (20, 1.10787704586982727051e-01) (21, 1.67516529560089111328e-01) (22, -4.98304665088653564453e-02) (23, 4.90234866738319396973e-02) (24, 1.33162498474121093750e-01) (25, 8.31889212131500244141e-02) (26, 1.46065950393676757812e-01) (27, 1.53524354100227355957e-01) (28, 1.25634521245956420898e-01) (29, 1.15324169397354125977e-01) (30, 8.34649726748466491699e-02) (31, 1.01510442793369293213e-01) (32, 7.19326362013816833496e-02) (33, 8.98943189531564712524e-03) (34, 8.98168459534645080566e-02) (35, 1.65453404188156127930e-02) (36, -1.50729417800903320312e-01) (37, -5.45012904331088066101e-03) (38, -1.87293589115142822266e-02) (39, -1.50995785370469093323e-02) (40, 1.52818530797958374023e-01) (41, 8.19061696529388427734e-02) (42, 6.31945878267288208008e-02) (43, 3.91527451574802398682e-02) (44, 4.15741316974163055420e-02) (45, 1.24887049198150634766e-01) (46, 6.13731369376182556152e-02) (47, 1.68114081025123596191e-01) (48, -5.05128391087055206299e-02) (49, 2.10520299151539802551e-03) (50, -5.55007942020893096924e-02) (51, 9.64831281453371047974e-03) (52, 1.12191580235958099365e-01) (53, -4.87090907990932464600e-02) (54, 1.11555710434913635254e-01) (55, -2.21902225166559219360e-02) (56, -1.81365553289651870728e-02) (57, 1.43208608031272888184e-01) (58, 1.82575255632400512695e-01) (59, 2.15846851468086242676e-01) (60, 5.01508489251136779785e-02) (61, -9.11256521940231323242e-02) (62, -3.31414490938186645508e-02) (63, -1.57702893018722534180e-01) (64, -3.17116677761077880859e-01) (0, 7.73268491029739379883e-02) (1, -1.59991085529327392578e-01) (2, 8.41460283845663070679e-03) (3, -2.12568547576665878296e-02) (4, 2.79444247484207153320e-01) (5, 6.64156526327133178711e-02) (6, 2.01544120907783508301e-01) (7, 1.98595389723777770996e-01) (8, 4.98329522088170051575e-03) (9, -2.87188649177551269531e-01) (10, -2.12806090712547302246e-01) (11, 1.33969798684120178223e-01) (12, 1.13969117403030395508e-01) (13, 1.92143946886062622070e-01) (14, 2.50270143151283264160e-02) (15, 3.38826812803745269775e-02) (16, -4.98645193874835968018e-02) (17, -1.29766106605529785156e-01) (18, 2.90484465658664703369e-02) (19, -1.87369510531425476074e-01) (20, 2.76861608028411865234e-01) (21, 2.07149296998977661133e-01) (22, 3.96440401673316955566e-02) (23, -2.54015475511550903320e-02) (24, -4.82627563178539276123e-02) (25, -1.39611661434173583984e-01) (26, 4.67241927981376647949e-02) (27, -7.11170956492424011230e-02) (28, 6.53504133224487304688e-02) (29, 1.36018648743629455566e-01) (30, 1.38287603855133056641e-01) (31, 6.79760500788688659668e-02) (32, -6.29101321101188659668e-02) (33, -2.79025375843048095703e-01) (34, -1.69270217418670654297e-01) (35, 1.04009233415126800537e-01) (36, 6.81607127189636230469e-02) (37, 4.77349795401096343994e-02) (38, 1.15537025034427642822e-01) (39, 1.12007170915603637695e-01) (40, -6.13783262670040130615e-02) (41, -9.87766459584236145020e-02) (42, -3.35432738065719604492e-01) (43, 3.36481891572475433350e-02) (44, 9.87084433436393737793e-02) (45, 1.48047357797622680664e-01) (46, -3.65150645375251770020e-02) (47, 3.24454367160797119141e-01) (48, -1.80590376257896423340e-01) (49, -2.93865174055099487305e-01) (50, -3.19116599857807159424e-02) (51, 4.37208823859691619873e-02) (52, 1.46743521094322204590e-01) (53, 1.36462330818176269531e-01) (54, 2.89982676506042480469e-01) (55, 1.42477914690971374512e-01) (56, 1.72351121902465820312e-01) (57, -3.42922151088714599609e-01) (58, 1.05475056916475296021e-02) (59, 4.86734583973884582520e-02) (60, 3.08766793459653854370e-02) (61, 6.70556277036666870117e-02) (62, 1.62213116884231567383e-01) (63, -5.03171533346176147461e-02) (64, -1.58025169372558593750e+00) (65, 1.21796143054962158203e+00) (66, 4.08652514219284057617e-01) (67, -5.91514110565185546875e-01) (65, 4.52885597944259643555e-01) (66, -1.70005214214324951172e+00) (67, 1.04011125862598419189e-01) (65, 6.65036682039499282837e-03) (66, -6.15857588127255439758e-03) (67, 1.32755027152597904205e-03) (65, -1.65334567427635192871e-02) (66, 2.76733785867691040039e-02) (67, 2.51559470780193805695e-03) (65, -2.21763737499713897705e-02) (66, 2.40622274577617645264e-02) (67, 5.39160333573818206787e-03) (65, -1.23372144997119903564e-01) (66, 1.78143590688705444336e-01) (67, 2.20177434384822845459e-02) (65, -3.90426896046847105026e-04) (66, 2.40397527813911437988e-02) (67, -5.53385214880108833313e-03) (65, 1.79414507001638412476e-02) (66, -2.29240395128726959229e-02) (67, -4.01128223165869712830e-03) (65, -1.43519006669521331787e-02) (66, 6.88334414735436439514e-03) (67, 6.71566510573029518127e-03) (65, -1.06715178117156028748e-02) (66, 2.67205946147441864014e-02) (67, 9.61886951699852943420e-04) (65, 2.75620329193770885468e-03) (66, 1.08323583845049142838e-03) (67, -1.68083165772259235382e-03) (65, 1.01595511659979820251e-03) (66, -2.49643321149051189423e-03) (67, -1.69378021382726728916e-04) (65, 3.90078662894666194916e-03) (66, -2.87877023220062255859e-02) (67, 3.92898218706250190735e-03) (65, 1.71883800067007541656e-03) (66, 3.63118350505828857422e-02) (67, -7.95051921159029006958e-03) (65, 6.95896521210670471191e-03) (66, -7.01440451666712760925e-03) (67, -2.98351189121603965759e-03) (65, -2.13231018278747797012e-04) (66, 4.01757744839414954185e-04) (67, 5.86269015911966562271e-05) (65, -3.29301133751869201660e-03) (66, 8.25851224362850189209e-03) (67, -4.58205540780909359455e-05) (65, 1.87316583469510078430e-03) (66, 3.55406408198177814484e-03) (67, -1.56243273522704839706e-03) (65, -1.49793364107608795166e-03) (66, 1.15547014866024255753e-03) (67, 3.98708216380327939987e-04) (65, -1.92843179684132337570e-03) (66, 8.57681594789028167725e-03) (67, -1.21782347559928894043e-03) (65, 6.82856712955981492996e-04) (66, 7.91861792095005512238e-04) (67, -5.65817405004054307938e-04) (65, 5.76750971958972513676e-06) (66, 3.68684588465839624405e-04) (67, 1.22525045298971235752e-04) (65, 2.16667191125452518463e-04) (66, 1.85584212886169552803e-04) (67, -2.02305353013798594475e-04) (65, 3.66864667739719152451e-04) (66, 1.86832016333937644958e-03) (67, -3.76554293325170874596e-04) (65, -1.82749325176700949669e-04) (66, 1.63301345310173928738e-04) (67, -3.54209041688591241837e-04) (65, -2.23331735469400882721e-04) (66, -7.65626260545104742050e-04) (67, -4.03353988076560199261e-05) (65, 7.98094479250721633434e-05) (66, -3.93757451092824339867e-04) (67, 1.70229759532958269119e-06) (65, -1.14691101771313697100e-04) (66, 4.11338638514280319214e-04) (67, -2.17497261473909020424e-04) (65, 2.33494734857231378555e-04) (66, -5.05141855683177709579e-04) (67, 2.42950540268793702126e-04) (65, -3.85497725801542401314e-04) (66, 1.35598168708384037018e-03) (67, 1.78095069713890552521e-05) (65, -4.38085291534662246704e-04) (66, -1.09957659151405096054e-03) (67, 4.73874359158799052238e-04) (65, -3.65336774848401546478e-04) (66, -1.82472157757729291916e-03) (67, 3.63378727342933416367e-04) (65, 2.82159366179257631302e-04) (66, -8.39171931147575378418e-04) (67, 1.79246664629317820072e-04) (65, 1.81609080755151808262e-04) (66, -2.41638917941600084305e-04) (67, 1.21673707326408475637e-04) (65, 1.57040820340625941753e-04) (66, 1.05689643532969057560e-04) (67, -2.85623740637674927711e-04) (65, -1.58303315402008593082e-04) (66, 7.25570425856858491898e-04) (67, -2.54911501542665064335e-05) (65, 1.14060829218942672014e-04) (66, 3.52559523889794945717e-04) (67, 3.33036878146231174469e-05) (65, 7.35326175345107913017e-05) (66, 6.84192054904997348785e-04) (67, 3.75411218556109815836e-05) (65, 8.92956886673346161842e-05) (66, -1.05005712248384952545e-03) (67, -6.26824548817239701748e-05) (65, -1.01591867860406637192e-04) (66, 2.97454273095354437828e-04) (67, 7.94297666288912296295e-05) (65, 1.57444446813315153122e-07) (66, 1.73085340065881609917e-04) (67, 2.33837417908944189548e-05) (65, 1.17195209895726293325e-04) (66, -5.45626564417034387589e-04) (67, -4.29317587986588478088e-05) (65, -1.05013512074947357178e-03) (66, 1.61037989892065525055e-03) (67, 3.38557350914925336838e-04) (65, 2.15717300307005643845e-05) (66, 3.56258358806371688843e-04) (67, 2.85029527731239795685e-05) (65, -3.81470090360380709171e-05) (66, 2.11561651667580008507e-04) (67, -2.27270429604686796665e-05) (65, 4.66291996417567133904e-04) (66, -4.58998983958736062050e-04) (67, 5.91898387938272207975e-05) (65, 1.08054533484391868114e-04) (66, 5.21167705301195383072e-04) (67, 1.38872273964807391167e-04) (65, 4.94133273605257272720e-05) (66, 1.74854139913804829121e-04) (67, 1.08842410554643720388e-04) (65, -2.30470497626811265945e-04) (66, 3.93593654735013842583e-04) (67, -1.16028968477621674538e-05) (65, 9.73929345491342246532e-05) (66, 9.97625102172605693340e-05) (67, 1.05328123026993125677e-04) (65, 1.94517648196779191494e-04) (66, -2.34381455811671912670e-04) (67, 4.36084264947567135096e-05) (65, 3.52039714925922453403e-05) (66, 1.14102855150122195482e-04) (67, 2.03973395400680601597e-05) (65, 2.04600255528930574656e-05) (66, 6.51925161946564912796e-04) (67, 6.17943151155486702919e-05) (65, 3.06230271235108375549e-04) (66, -3.58628429239615797997e-04) (67, 1.87762125278823077679e-04) (65, 2.86836700979620218277e-04) (66, -1.19227755931206047535e-04) (67, -3.13520504278130829334e-05) (65, -8.90602314029820263386e-05) (66, 2.93552700895816087723e-04) (67, 1.18554751679766923189e-04) (65, 3.58583929482847452164e-06) (66, -7.95697793364524841309e-04) (67, -8.86204288690350949764e-05) (65, -1.70740997418761253357e-04) (66, 2.80628592008724808693e-04) (67, -8.02661088528111577034e-05) (65, -1.35637761559337377548e-04) (66, 2.94060533633455634117e-04) (67, -1.00113415101077407598e-04) (65, 1.46771286381408572197e-04) (66, -1.00243545603007078171e-04) (67, 3.88508560718037188053e-05) (65, 2.21104390220716595650e-04) (66, -7.62831768952310085297e-04) (67, -7.28176310076378285885e-05) (65, 9.74793510977178812027e-06) (66, -2.94926649075932800770e-05) (67, -1.42460397910326719284e-04) (65, 6.21332292212173342705e-05) (66, -3.14538832753896713257e-04) (67, -1.17864583444315940142e-04) (65, -2.83316039713099598885e-05) (66, 2.77902814559638500214e-04) (67, -1.37886643642559647560e-04) 
