FANN_FLO_2.1
num_layers=3
learning_rate=0.400000
connection_rate=1.000000
network_type=0
learning_momentum=0.000000
training_algorithm=2
train_error_function=1
train_stop_function=0
cascade_output_change_fraction=0.010000
quickprop_decay=-0.000100
quickprop_mu=1.750000
rprop_increase_factor=1.200000
rprop_decrease_factor=0.500000
rprop_delta_min=0.000000
rprop_delta_max=50.000000
rprop_delta_zero=0.100000
cascade_output_stagnation_epochs=12
cascade_candidate_change_fraction=0.010000
cascade_candidate_stagnation_epochs=12
cascade_max_out_epochs=150
cascade_min_out_epochs=50
cascade_max_cand_epochs=150
cascade_min_cand_epochs=50
cascade_num_candidate_groups=2
bit_fail_limit=3.49999994039535522461e-01
cascade_candidate_limit=1.00000000000000000000e+03
cascade_weight_multiplier=4.00000005960464477539e-01
cascade_activation_functions_count=10
cascade_activation_functions=3 5 7 8 10 11 14 15 16 17 
cascade_activation_steepnesses_count=4
cascade_activation_steepnesses=2.50000000000000000000e-01 5.00000000000000000000e-01 7.50000000000000000000e-01 1.00000000000000000000e+00 
layer_sizes=7 9 2 
scale_included=0
neurons (num_inputs, activation_function, activation_steepness)=(0, 0, 0.00000000000000000000e+00) (0, 0, 0.00000000000000000000e+00) (0, 0, 0.00000000000000000000e+00) (0, 0, 0.00000000000000000000e+00) (0, 0, 0.00000000000000000000e+00) (0, 0, 0.00000000000000000000e+00) (0, 0, 0.00000000000000000000e+00) (7, 3, 5.00000000000000000000e-01) (7, 3, 5.00000000000000000000e-01) (7, 3, 5.00000000000000000000e-01) (7, 3, 5.00000000000000000000e-01) (7, 3, 5.00000000000000000000e-01) (7, 3, 5.00000000000000000000e-01) (7, 3, 5.00000000000000000000e-01) (7, 3, 5.00000000000000000000e-01) (0, 3, 0.00000000000000000000e+00) (9, 3, 5.00000000000000000000e-01) (0, 3, 0.00000000000000000000e+00) 
connections (connected_to_neuron, weight)=(0, -2.14029863476753234863e-01) (1, -3.22987437248229980469e-01) (2, -1.23899245262145996094e+00) (3, 1.24669976532459259033e-01) (4, -1.05026721954345703125e+00) (5, 6.47547915577888488770e-02) (6, 1.18202097713947296143e-01) (0, -3.97396850585937500000e+00) (1, -2.37301516532897949219e+00) (2, -1.92864561080932617188e+00) (3, 1.51469099521636962891e+00) (4, 1.09565687179565429688e+00) (5, 1.03755772113800048828e+00) (6, -1.29351675510406494141e+00) (0, -2.03629994392395019531e+00) (1, -2.04721736907958984375e+00) (2, -5.86769914627075195312e+00) (3, 3.21136927604675292969e+00) (4, -1.03696621954441070557e-01) (5, 6.14453268051147460938e+00) (6, -1.75592911243438720703e+00) (0, -1.33610144257545471191e-01) (1, -1.24934256076812744141e-01) (2, -1.50325906276702880859e+00) (3, 1.19739904999732971191e-01) (4, -1.20404541492462158203e+00) (5, -6.42557919025421142578e-01) (6, 7.09796786308288574219e-01) (0, 1.45206022262573242188e+00) (1, 2.68744021654129028320e-01) (2, -4.28656148910522460938e+00) (3, -4.10096168518066406250e+00) (4, -3.82863378524780273438e+00) (5, 1.60180816650390625000e+01) (6, -1.56482146121561527252e-03) (0, 2.31577897071838378906e+00) (1, -1.07835066318511962891e+00) (2, -7.70388841629028320312e-01) (3, 1.45688676834106445312e+00) (4, 5.23467361927032470703e-01) (5, 3.54933261871337890625e+00) (6, -3.66295433044433593750e+00) (0, -3.96592807769775390625e+00) (1, -3.71814012527465820312e+00) (2, -1.65874528884887695312e+00) (3, 1.52683186531066894531e+00) (4, 1.57288968563079833984e+00) (5, 1.29416465759277343750e+00) (6, -9.30885910987854003906e-01) (0, 2.95712399482727050781e+00) (1, -1.28112149238586425781e+00) (2, -1.85978269577026367188e+00) (3, 1.93326961994171142578e+00) (4, -2.30628752708435058594e+00) (5, 4.04473495483398437500e+00) (6, -2.50215411186218261719e+00) (7, -1.12988185882568359375e+00) (8, 1.53699409961700439453e+00) (9, 9.85652208328247070312e-01) (10, -2.19416904449462890625e+00) (11, -2.73827767372131347656e+00) (12, 2.26389575004577636719e+00) (13, 3.44694328308105468750e+00) (14, 1.03576874732971191406e+00) (15, 2.90092408657073974609e-01) 
