FANN_FLO_2.1
num_layers=4
learning_rate=0.500000
connection_rate=1.000000
network_type=0
learning_momentum=0.000000
training_algorithm=2
train_error_function=1
train_stop_function=0
cascade_output_change_fraction=0.010000
quickprop_decay=-0.000100
quickprop_mu=1.750000
rprop_increase_factor=1.200000
rprop_decrease_factor=0.500000
rprop_delta_min=0.000000
rprop_delta_max=50.000000
rprop_delta_zero=0.100000
cascade_output_stagnation_epochs=12
cascade_candidate_change_fraction=0.010000
cascade_candidate_stagnation_epochs=12
cascade_max_out_epochs=150
cascade_min_out_epochs=50
cascade_max_cand_epochs=150
cascade_min_cand_epochs=50
cascade_num_candidate_groups=2
bit_fail_limit=3.49999994039535522461e-01
cascade_candidate_limit=1.00000000000000000000e+03
cascade_weight_multiplier=4.00000005960464477539e-01
cascade_activation_functions_count=10
cascade_activation_functions=3 5 7 8 10 11 14 15 16 17 
cascade_activation_steepnesses_count=4
cascade_activation_steepnesses=2.50000000000000000000e-01 5.00000000000000000000e-01 7.50000000000000000000e-01 1.00000000000000000000e+00 
layer_sizes=10 9 9 2 
scale_included=0
neurons (num_inputs, activation_function, activation_steepness)=(0, 0, 0.00000000000000000000e+00) (0, 0, 0.00000000000000000000e+00) (0, 0, 0.00000000000000000000e+00) (0, 0, 0.00000000000000000000e+00) (0, 0, 0.00000000000000000000e+00) (0, 0, 0.00000000000000000000e+00) (0, 0, 0.00000000000000000000e+00) (0, 0, 0.00000000000000000000e+00) (0, 0, 0.00000000000000000000e+00) (0, 0, 0.00000000000000000000e+00) (10, 3, 5.00000000000000000000e-01) (10, 3, 5.00000000000000000000e-01) (10, 3, 5.00000000000000000000e-01) (10, 3, 5.00000000000000000000e-01) (10, 3, 5.00000000000000000000e-01) (10, 3, 5.00000000000000000000e-01) (10, 3, 5.00000000000000000000e-01) (10, 3, 5.00000000000000000000e-01) (0, 3, 0.00000000000000000000e+00) (9, 3, 5.00000000000000000000e-01) (9, 3, 5.00000000000000000000e-01) (9, 3, 5.00000000000000000000e-01) (9, 3, 5.00000000000000000000e-01) (9, 3, 5.00000000000000000000e-01) (9, 3, 5.00000000000000000000e-01) (9, 3, 5.00000000000000000000e-01) (9, 3, 5.00000000000000000000e-01) (0, 3, 0.00000000000000000000e+00) (9, 3, 5.00000000000000000000e-01) (0, 3, 0.00000000000000000000e+00) 
connections (connected_to_neuron, weight)=(0, -2.63278846740722656250e+01) (1, -4.77620201110839843750e+01) (2, -3.10095748901367187500e+01) (3, -1.20999829101562500000e+03) (4, -2.65290489196777343750e+01) (5, -1.24037438964843750000e+03) (6, 6.58679382324218750000e+02) (7, -1.05200332641601562500e+02) (8, -2.85568771362304687500e+01) (9, -8.69170665740966796875e-01) (0, 9.35259222984313964844e-01) (1, 2.37134814262390136719e+00) (2, 2.00588893890380859375e+00) (3, 4.30126115679740905762e-02) (4, -1.00376464426517486572e-01) (5, -4.74501609802246093750e-01) (6, -2.64131021499633789062e+00) (7, -8.22294056415557861328e-01) (8, -1.11882591247558593750e+01) (9, 6.70052826404571533203e-01) (0, -6.90555667877197265625e+00) (1, -6.78819656372070312500e+01) (2, -3.81154084205627441406e+00) (3, -8.59999656677246093750e-01) (4, -5.53982198238372802734e-01) (5, -4.25016355514526367188e+00) (6, 5.19893913269042968750e+01) (7, -5.68799853324890136719e-01) (8, 1.63177454471588134766e+00) (9, 1.95185089111328125000e+00) (0, 6.61887884140014648438e-01) (1, 1.30787551403045654297e+00) (2, 1.69403767585754394531e+00) (3, 6.70262500643730163574e-02) (4, -9.35474131256341934204e-03) (5, -2.95908957719802856445e-01) (6, -2.47948980331420898438e+00) (7, -9.75315809249877929688e-01) (8, -1.25885343551635742188e+01) (9, 8.88391971588134765625e-01) (0, 6.87782382965087890625e+00) (1, -8.57572746276855468750e+00) (2, -1.11596431732177734375e+01) (3, -1.35638797283172607422e+00) (4, 2.01639711856842041016e-01) (5, -7.46708273887634277344e-01) (6, 2.62889051437377929688e+00) (7, -4.15399789810180664062e+00) (8, -1.08684384822845458984e+00) (9, 2.82374143600463867188e+00) (0, -4.53599023818969726562e+00) (1, -3.46467018127441406250e-01) (2, -1.31943568587303161621e-01) (3, -1.04031264781951904297e+00) (4, 1.52967762947082519531e+00) (5, -9.63653400540351867676e-02) (6, -2.18052327632904052734e-01) (7, -1.94811713695526123047e+00) (8, 2.85890340805053710938e-01) (9, 2.89939284324645996094e+00) (0, 6.79695367813110351562e-01) (1, 5.43187379837036132812e+00) (2, 2.32860875129699707031e+00) (3, 1.74843251705169677734e-01) (4, 3.52147608995437622070e-01) (5, -9.57677900791168212891e-01) (6, -1.35671949386596679688e+00) (7, -6.17476761341094970703e-01) (8, -2.36893920898437500000e+01) (9, 1.64596498012542724609e+00) (0, 5.83341062068939208984e-01) (1, 1.56177437305450439453e+00) (2, 1.57887148857116699219e+00) (3, 1.76016792654991149902e-01) (4, 1.45944699645042419434e-01) (5, -7.76428461074829101562e-01) (6, -1.03141915798187255859e+00) (7, -7.81954586505889892578e-01) (8, -6.12964534759521484375e+00) (9, 6.28349661827087402344e-01) (10, 1.50000000000000000000e+03) (11, 8.78193569183349609375e+00) (12, 1.20269519042968750000e+03) (13, 2.90793085098266601562e+00) (14, -2.10315322875976562500e+01) (15, 7.66969501972198486328e-01) (16, 4.62661266326904296875e+00) (17, 1.14778299331665039062e+01) (18, -2.49206328392028808594e+00) (10, 1.07469738769531250000e+03) (11, -3.22436141967773437500e+00) (12, -1.56292986869812011719e+00) (13, -3.42052674293518066406e+00) (14, -3.68258309364318847656e+00) (15, -2.77274084091186523438e+00) (16, -2.95650577545166015625e+00) (17, -4.54894590377807617188e+00) (18, 1.93534111976623535156e+00) (10, 1.50000000000000000000e+03) (11, -1.35654174804687500000e+03) (12, 5.32405151367187500000e+02) (13, -1.50000000000000000000e+03) (14, 2.23313255310058593750e+01) (15, -7.12111091613769531250e+00) (16, -1.50000000000000000000e+03) (17, -5.17510864257812500000e+02) (18, -3.58951926231384277344e+00) (10, 1.50000000000000000000e+03) (11, 9.90920352935791015625e+00) (12, 1.66947143554687500000e+02) (13, -2.94405555725097656250e+00) (14, 1.08332092285156250000e+03) (15, -2.30265784263610839844e+00) (16, -8.59232711791992187500e+00) (17, 1.17882990837097167969e+00) (18, 1.18569111824035644531e+00) (10, 1.07469738769531250000e+03) (11, -2.72401094436645507812e+00) (12, 1.11530292034149169922e+00) (13, -1.91938471794128417969e+00) (14, -2.90687203407287597656e+00) (15, -2.92773675918579101562e+00) (16, -1.61934173107147216797e+00) (17, -5.30846357345581054688e+00) (18, 1.91199207305908203125e+00) (10, 1.07469738769531250000e+03) (11, -3.37630772590637207031e+00) (12, 1.91452944278717041016e+00) (13, -3.41336250305175781250e+00) (14, -2.50968790054321289062e+00) (15, -2.53786849975585937500e+00) (16, -2.73011589050292968750e+00) (17, -4.70929098129272460938e+00) (18, 1.91033697128295898438e+00) (10, 1.50000000000000000000e+03) (11, -4.76430664062500000000e+01) (12, 1.31936181640625000000e+03) (13, -7.68596496582031250000e+01) (14, -8.48532497882843017578e-01) (15, 1.54292118549346923828e+00) (16, -4.85452941894531250000e+02) (17, 6.80025939941406250000e+01) (18, -1.01370182037353515625e+01) (10, 1.50000000000000000000e+03) (11, 6.47449779510498046875e+00) (12, 1.66947143554687500000e+02) (13, 2.35280942916870117188e+00) (14, -2.49693546295166015625e+01) (15, 4.60328531265258789062e+00) (16, 1.02238330841064453125e+01) (17, 7.74868011474609375000e+00) (18, -2.29104685783386230469e+00) (19, 4.15538221597671508789e-01) (20, -6.96943938732147216797e-01) (21, 4.57374602556228637695e-01) (22, 1.74309715628623962402e-01) (23, -1.07532262802124023438e+00) (24, -1.24023973941802978516e+00) (25, 3.68385493755340576172e-01) (26, 2.31448426842689514160e-01) (27, 1.49197682738304138184e-01) 
