FANN_FLO_2.1
num_layers=3
learning_rate=0.400000
connection_rate=1.000000
network_type=0
learning_momentum=0.000000
training_algorithm=2
train_error_function=1
train_stop_function=0
cascade_output_change_fraction=0.010000
quickprop_decay=-0.000100
quickprop_mu=1.750000
rprop_increase_factor=1.200000
rprop_decrease_factor=0.500000
rprop_delta_min=0.000000
rprop_delta_max=50.000000
rprop_delta_zero=0.100000
cascade_output_stagnation_epochs=12
cascade_candidate_change_fraction=0.010000
cascade_candidate_stagnation_epochs=12
cascade_max_out_epochs=150
cascade_min_out_epochs=50
cascade_max_cand_epochs=150
cascade_min_cand_epochs=50
cascade_num_candidate_groups=2
bit_fail_limit=3.49999994039535522461e-01
cascade_candidate_limit=1.00000000000000000000e+03
cascade_weight_multiplier=4.00000005960464477539e-01
cascade_activation_functions_count=10
cascade_activation_functions=3 5 7 8 10 11 14 15 16 17 
cascade_activation_steepnesses_count=4
cascade_activation_steepnesses=2.50000000000000000000e-01 5.00000000000000000000e-01 7.50000000000000000000e-01 1.00000000000000000000e+00 
layer_sizes=7 9 2 
scale_included=0
neurons (num_inputs, activation_function, activation_steepness)=(0, 0, 0.00000000000000000000e+00) (0, 0, 0.00000000000000000000e+00) (0, 0, 0.00000000000000000000e+00) (0, 0, 0.00000000000000000000e+00) (0, 0, 0.00000000000000000000e+00) (0, 0, 0.00000000000000000000e+00) (0, 0, 0.00000000000000000000e+00) (7, 3, 5.00000000000000000000e-01) (7, 3, 5.00000000000000000000e-01) (7, 3, 5.00000000000000000000e-01) (7, 3, 5.00000000000000000000e-01) (7, 3, 5.00000000000000000000e-01) (7, 3, 5.00000000000000000000e-01) (7, 3, 5.00000000000000000000e-01) (7, 3, 5.00000000000000000000e-01) (0, 3, 0.00000000000000000000e+00) (9, 3, 5.00000000000000000000e-01) (0, 3, 0.00000000000000000000e+00) 
connections (connected_to_neuron, weight)=(0, -1.07554113864898681641e+00) (1, -1.23758697509765625000e+00) (2, -5.17477154731750488281e-01) (3, 8.86149704456329345703e-01) (4, -3.62938165664672851562e+00) (5, 4.36480808258056640625e+00) (6, -1.28983509540557861328e+00) (0, -1.12751471996307373047e+00) (1, 3.66077512502670288086e-01) (2, -6.04862868785858154297e-01) (3, -1.13324022293090820312e+00) (4, -3.05207824707031250000e+00) (5, -3.36315989494323730469e-01) (6, 5.20673394203186035156e-01) (0, -2.06299614906311035156e+00) (1, 5.43295800685882568359e-01) (2, -4.49733063578605651855e-02) (3, -1.44352495670318603516e+00) (4, -3.20386242866516113281e+00) (5, -1.55101284384727478027e-01) (6, 1.14533567428588867188e+00) (0, -1.31375336647033691406e+00) (1, -1.22322380542755126953e+00) (2, -1.55077469348907470703e+00) (3, 1.00152564048767089844e+00) (4, 6.68709039688110351562e-01) (5, 3.52467370033264160156e+00) (6, -1.13099992275238037109e+00) (0, -1.57308888435363769531e+00) (1, 2.44312778115272521973e-01) (2, -2.60376840829849243164e-01) (3, -1.28306019306182861328e+00) (4, -2.99512791633605957031e+00) (5, -2.21401304006576538086e-01) (6, 9.30663168430328369141e-01) (0, -2.32951974868774414062e+00) (1, -7.14460432529449462891e-01) (2, -3.77035164833068847656e+00) (3, 2.23262047767639160156e+00) (4, -1.05134451389312744141e+00) (5, 1.26217355728149414062e+01) (6, -5.51239252090454101562e-01) (0, -3.36298036575317382812e+00) (1, -4.06960964202880859375e+00) (2, -2.25893425941467285156e+00) (3, 9.79736864566802978516e-01) (4, 3.24864935874938964844e+00) (5, 5.49810171127319335938e-01) (6, -1.20763647556304931641e+00) (0, -1.14497888088226318359e+00) (1, -1.28162753582000732422e+00) (2, -1.39305531978607177734e+00) (3, 9.32805836200714111328e-01) (4, 6.15602314472198486328e-01) (5, 3.69291400909423828125e+00) (6, -1.88393700122833251953e+00) (7, 2.48683691024780273438e+00) (8, -1.89003491401672363281e+00) (9, -8.43575382232666015625e+00) (10, 1.55124688148498535156e+00) (11, -9.24516439437866210938e-01) (12, -2.76222705841064453125e+00) (13, 4.30057287216186523438e+00) (14, 1.27735376358032226562e+00) (15, 6.96407139301300048828e-01) 
