FANN_FLO_2.1
num_layers=3
learning_rate=0.400000
connection_rate=1.000000
network_type=0
learning_momentum=0.000000
training_algorithm=2
train_error_function=1
train_stop_function=0
cascade_output_change_fraction=0.010000
quickprop_decay=-0.000100
quickprop_mu=1.750000
rprop_increase_factor=1.200000
rprop_decrease_factor=0.500000
rprop_delta_min=0.000000
rprop_delta_max=50.000000
rprop_delta_zero=0.100000
cascade_output_stagnation_epochs=12
cascade_candidate_change_fraction=0.010000
cascade_candidate_stagnation_epochs=12
cascade_max_out_epochs=150
cascade_min_out_epochs=50
cascade_max_cand_epochs=150
cascade_min_cand_epochs=50
cascade_num_candidate_groups=2
bit_fail_limit=3.49999994039535522461e-01
cascade_candidate_limit=1.00000000000000000000e+03
cascade_weight_multiplier=4.00000005960464477539e-01
cascade_activation_functions_count=10
cascade_activation_functions=3 5 7 8 10 11 14 15 16 17 
cascade_activation_steepnesses_count=4
cascade_activation_steepnesses=2.50000000000000000000e-01 5.00000000000000000000e-01 7.50000000000000000000e-01 1.00000000000000000000e+00 
layer_sizes=7 9 2 
scale_included=0
neurons (num_inputs, activation_function, activation_steepness)=(0, 0, 0.00000000000000000000e+00) (0, 0, 0.00000000000000000000e+00) (0, 0, 0.00000000000000000000e+00) (0, 0, 0.00000000000000000000e+00) (0, 0, 0.00000000000000000000e+00) (0, 0, 0.00000000000000000000e+00) (0, 0, 0.00000000000000000000e+00) (7, 3, 5.00000000000000000000e-01) (7, 3, 5.00000000000000000000e-01) (7, 3, 5.00000000000000000000e-01) (7, 3, 5.00000000000000000000e-01) (7, 3, 5.00000000000000000000e-01) (7, 3, 5.00000000000000000000e-01) (7, 3, 5.00000000000000000000e-01) (7, 3, 5.00000000000000000000e-01) (0, 3, 0.00000000000000000000e+00) (9, 3, 5.00000000000000000000e-01) (0, 3, 0.00000000000000000000e+00) 
connections (connected_to_neuron, weight)=(0, -3.53558564186096191406e+00) (1, -3.60469770431518554688e+00) (2, -1.88580000400543212891e+00) (3, 7.83772170543670654297e-01) (4, 8.73480200767517089844e-01) (5, 1.16627895832061767578e+00) (6, -4.17912155389785766602e-01) (0, -1.82088196277618408203e+00) (1, 1.39010906219482421875e-01) (2, -1.05914130806922912598e-01) (3, -7.77782320976257324219e-01) (4, -3.21531128883361816406e+00) (5, 5.41505627334117889404e-02) (6, 4.85251307487487792969e-01) (0, -3.64822530746459960938e+00) (1, -3.40222859382629394531e+00) (2, -1.98273980617523193359e+00) (3, 7.19219863414764404297e-01) (4, 8.93529057502746582031e-01) (5, 1.17095756530761718750e+00) (6, -3.65806788206100463867e-01) (0, -1.65946543216705322266e-01) (1, 1.34841173887252807617e-01) (2, -4.37816190719604492188e+00) (3, -4.83146429061889648438e+00) (4, -2.66559553146362304688e+00) (5, 1.55636854171752929688e+01) (6, 5.50026297569274902344e-01) (0, 4.87631893157958984375e+00) (1, 5.00956177711486816406e-01) (2, -5.83400583267211914062e+00) (3, -6.30613899230957031250e+00) (4, -9.76323246955871582031e-01) (5, 8.20772457122802734375e+00) (6, 4.04401123523712158203e-01) (0, 3.03559708595275878906e+00) (1, -2.32751631736755371094e+00) (2, -3.73743176460266113281e+00) (3, 8.09360027313232421875e-01) (4, -3.01363635063171386719e+00) (5, 8.09503459930419921875e+00) (6, -3.02257633209228515625e+00) (0, -3.44972085952758789062e+00) (1, -4.25653028488159179688e+00) (2, -2.31252336502075195312e+00) (3, 3.43513548374176025391e-01) (4, 1.69211125373840332031e+00) (5, 1.00130319595336914062e+00) (6, -6.06569759547710418701e-02) (0, -5.30005264282226562500e+00) (1, -2.99631524085998535156e+00) (2, -1.22854959964752197266e+00) (3, 2.07189011573791503906e+00) (4, 2.25994855165481567383e-01) (5, 1.91522252559661865234e+00) (6, -8.60912129282951354980e-02) (7, 8.48757207393646240234e-01) (8, -9.59685325622558593750e+00) (9, 8.15908253192901611328e-01) (10, -1.56229770183563232422e+00) (11, -9.94426906108856201172e-01) (12, 2.78124165534973144531e+00) (13, 1.60922753810882568359e+00) (14, 1.49609470367431640625e+00) (15, 5.60616791248321533203e-01) 
