FANN_FLO_2.1
num_layers=3
learning_rate=0.400000
connection_rate=1.000000
network_type=0
learning_momentum=0.000000
training_algorithm=2
train_error_function=1
train_stop_function=0
cascade_output_change_fraction=0.010000
quickprop_decay=-0.000100
quickprop_mu=1.750000
rprop_increase_factor=1.200000
rprop_decrease_factor=0.500000
rprop_delta_min=0.000000
rprop_delta_max=50.000000
rprop_delta_zero=0.100000
cascade_output_stagnation_epochs=12
cascade_candidate_change_fraction=0.010000
cascade_candidate_stagnation_epochs=12
cascade_max_out_epochs=150
cascade_min_out_epochs=50
cascade_max_cand_epochs=150
cascade_min_cand_epochs=50
cascade_num_candidate_groups=2
bit_fail_limit=3.49999994039535522461e-01
cascade_candidate_limit=1.00000000000000000000e+03
cascade_weight_multiplier=4.00000005960464477539e-01
cascade_activation_functions_count=10
cascade_activation_functions=3 5 7 8 10 11 14 15 16 17 
cascade_activation_steepnesses_count=4
cascade_activation_steepnesses=2.50000000000000000000e-01 5.00000000000000000000e-01 7.50000000000000000000e-01 1.00000000000000000000e+00 
layer_sizes=7 5 2 
scale_included=0
neurons (num_inputs, activation_function, activation_steepness)=(0, 0, 0.00000000000000000000e+00) (0, 0, 0.00000000000000000000e+00) (0, 0, 0.00000000000000000000e+00) (0, 0, 0.00000000000000000000e+00) (0, 0, 0.00000000000000000000e+00) (0, 0, 0.00000000000000000000e+00) (0, 0, 0.00000000000000000000e+00) (7, 3, 5.00000000000000000000e-01) (7, 3, 5.00000000000000000000e-01) (7, 3, 5.00000000000000000000e-01) (7, 3, 5.00000000000000000000e-01) (0, 3, 0.00000000000000000000e+00) (5, 3, 5.00000000000000000000e-01) (0, 3, 0.00000000000000000000e+00) 
connections (connected_to_neuron, weight)=(0, 6.84989213943481445312e+00) (1, -8.80735969543457031250e+00) (2, 7.46012544631958007812e+00) (3, -3.24373269081115722656e+00) (4, -8.30773174762725830078e-01) (5, -1.43371844291687011719e+00) (6, 3.93264698982238769531e+00) (0, -1.32931337356567382812e+01) (1, 1.47868032455444335938e+01) (2, -1.18589782714843750000e+01) (3, 2.12268376350402832031e+00) (4, 2.71018505096435546875e-01) (5, 5.85347843170166015625e+00) (6, -1.12122344970703125000e+00) (0, 2.92651534080505371094e-01) (1, -2.69975185394287109375e+00) (2, 2.50374269485473632812e+00) (3, -3.80421805381774902344e+00) (4, -1.16148877143859863281e+00) (5, 2.48380732536315917969e+00) (6, 3.81630015373229980469e+00) (0, -2.58264923095703125000e+00) (1, -1.95005789399147033691e-01) (2, 8.35336017608642578125e+00) (3, -2.81252765655517578125e+00) (4, -1.22628295421600341797e+00) (5, -1.47895483398437500000e+03) (6, 2.99864220619201660156e+00) (7, -3.56415557861328125000e+00) (8, -3.94370412826538085938e+00) (9, -8.30243051052093505859e-01) (10, -1.75302886962890625000e+00) (11, 3.54195165634155273438e+00) 
