FANN_FLO_2.1
num_layers=4
learning_rate=0.500000
connection_rate=1.000000
network_type=0
learning_momentum=0.000000
training_algorithm=2
train_error_function=1
train_stop_function=0
cascade_output_change_fraction=0.010000
quickprop_decay=-0.000100
quickprop_mu=1.750000
rprop_increase_factor=1.200000
rprop_decrease_factor=0.500000
rprop_delta_min=0.000000
rprop_delta_max=50.000000
rprop_delta_zero=0.100000
cascade_output_stagnation_epochs=12
cascade_candidate_change_fraction=0.010000
cascade_candidate_stagnation_epochs=12
cascade_max_out_epochs=150
cascade_min_out_epochs=50
cascade_max_cand_epochs=150
cascade_min_cand_epochs=50
cascade_num_candidate_groups=2
bit_fail_limit=3.49999994039535522461e-01
cascade_candidate_limit=1.00000000000000000000e+03
cascade_weight_multiplier=4.00000005960464477539e-01
cascade_activation_functions_count=10
cascade_activation_functions=3 5 7 8 10 11 14 15 16 17 
cascade_activation_steepnesses_count=4
cascade_activation_steepnesses=2.50000000000000000000e-01 5.00000000000000000000e-01 7.50000000000000000000e-01 1.00000000000000000000e+00 
layer_sizes=10 5 3 2 
scale_included=0
neurons (num_inputs, activation_function, activation_steepness)=(0, 0, 0.00000000000000000000e+00) (0, 0, 0.00000000000000000000e+00) (0, 0, 0.00000000000000000000e+00) (0, 0, 0.00000000000000000000e+00) (0, 0, 0.00000000000000000000e+00) (0, 0, 0.00000000000000000000e+00) (0, 0, 0.00000000000000000000e+00) (0, 0, 0.00000000000000000000e+00) (0, 0, 0.00000000000000000000e+00) (0, 0, 0.00000000000000000000e+00) (10, 3, 5.00000000000000000000e-01) (10, 3, 5.00000000000000000000e-01) (10, 3, 5.00000000000000000000e-01) (10, 3, 5.00000000000000000000e-01) (0, 3, 0.00000000000000000000e+00) (5, 3, 5.00000000000000000000e-01) (5, 3, 5.00000000000000000000e-01) (0, 3, 0.00000000000000000000e+00) (3, 3, 5.00000000000000000000e-01) (0, 3, 0.00000000000000000000e+00) 
connections (connected_to_neuron, weight)=(0, 1.04670829772949218750e+01) (1, -6.35949552059173583984e-01) (2, 8.06887722015380859375e+00) (3, 8.80143404006958007812e-01) (4, -5.05233144760131835938e+00) (5, 4.48531866073608398438e+00) (6, -4.14617300033569335938e+00) (7, 2.65245556831359863281e+00) (8, 3.35521650314331054688e+00) (9, -1.18956174850463867188e+01) (0, 1.15429651737213134766e+00) (1, -5.18513250350952148438e+00) (2, 5.47830867767333984375e+00) (3, -3.90845513343811035156e+00) (4, -1.04345102310180664062e+01) (5, -2.67324781417846679688e+00) (6, 1.23512659072875976562e+01) (7, 2.76285624504089355469e+00) (8, -4.25605201721191406250e+00) (9, 1.44866144657135009766e+00) (0, 4.42136001586914062500e+00) (1, -1.45186862945556640625e+01) (2, 8.01539993286132812500e+00) (3, -5.27557754516601562500e+00) (4, -8.14212894439697265625e+00) (5, -3.69915056228637695312e+00) (6, 6.09180164337158203125e+00) (7, 1.08206629753112792969e+00) (8, 2.24905991554260253906e+00) (9, 1.48069548606872558594e+00) (0, 3.26971554756164550781e+00) (1, -1.30170907974243164062e+01) (2, 6.95740270614624023438e+00) (3, -4.37992095947265625000e+00) (4, -7.55051946640014648438e+00) (5, -5.48819780349731445312e+00) (6, 2.92821693420410156250e+00) (7, 5.10168373584747314453e-01) (8, 5.79281663894653320312e+00) (9, 1.43591928482055664062e+00) (10, -3.61686730384826660156e+00) (11, 2.23510313034057617188e+00) (12, 1.45661535263061523438e+01) (13, 3.29552769660949707031e+00) (14, 3.40715110301971435547e-01) (10, -4.25052785873413085938e+00) (11, -2.62799930572509765625e+00) (12, -2.15325889587402343750e+01) (13, -1.19402256011962890625e+01) (14, 3.56170248985290527344e+00) (15, 1.66235995292663574219e+00) (16, 3.02714490890502929688e+00) (17, -3.01498126983642578125e+00) 
