FANN_FLO_2.1
num_layers=4
learning_rate=0.400000
connection_rate=1.000000
network_type=0
learning_momentum=0.000000
training_algorithm=2
train_error_function=1
train_stop_function=0
cascade_output_change_fraction=0.010000
quickprop_decay=-0.000100
quickprop_mu=1.750000
rprop_increase_factor=1.200000
rprop_decrease_factor=0.500000
rprop_delta_min=0.000000
rprop_delta_max=50.000000
rprop_delta_zero=0.100000
cascade_output_stagnation_epochs=12
cascade_candidate_change_fraction=0.010000
cascade_candidate_stagnation_epochs=12
cascade_max_out_epochs=150
cascade_min_out_epochs=50
cascade_max_cand_epochs=150
cascade_min_cand_epochs=50
cascade_num_candidate_groups=2
bit_fail_limit=3.49999994039535522461e-01
cascade_candidate_limit=1.00000000000000000000e+03
cascade_weight_multiplier=4.00000005960464477539e-01
cascade_activation_functions_count=10
cascade_activation_functions=3 5 7 8 10 11 14 15 16 17 
cascade_activation_steepnesses_count=4
cascade_activation_steepnesses=2.50000000000000000000e-01 5.00000000000000000000e-01 7.50000000000000000000e-01 1.00000000000000000000e+00 
layer_sizes=7 9 5 2 
scale_included=0
neurons (num_inputs, activation_function, activation_steepness)=(0, 0, 0.00000000000000000000e+00) (0, 0, 0.00000000000000000000e+00) (0, 0, 0.00000000000000000000e+00) (0, 0, 0.00000000000000000000e+00) (0, 0, 0.00000000000000000000e+00) (0, 0, 0.00000000000000000000e+00) (0, 0, 0.00000000000000000000e+00) (7, 3, 5.00000000000000000000e-01) (7, 3, 5.00000000000000000000e-01) (7, 3, 5.00000000000000000000e-01) (7, 3, 5.00000000000000000000e-01) (7, 3, 5.00000000000000000000e-01) (7, 3, 5.00000000000000000000e-01) (7, 3, 5.00000000000000000000e-01) (7, 3, 5.00000000000000000000e-01) (0, 3, 0.00000000000000000000e+00) (9, 3, 5.00000000000000000000e-01) (9, 3, 5.00000000000000000000e-01) (9, 3, 5.00000000000000000000e-01) (9, 3, 5.00000000000000000000e-01) (0, 3, 0.00000000000000000000e+00) (5, 3, 5.00000000000000000000e-01) (0, 3, 0.00000000000000000000e+00) 
connections (connected_to_neuron, weight)=(0, 1.08371162414550781250e+01) (1, -5.17296552658081054688e+00) (2, 3.14465847015380859375e+01) (3, 6.05120611190795898438e+00) (4, -1.17581863403320312500e+01) (5, 1.24787292480468750000e+01) (6, -6.92162096500396728516e-01) (0, -1.34044104003906250000e+03) (1, 5.97244796752929687500e+01) (2, -5.51206115722656250000e+02) (3, -1.18470300292968750000e+03) (4, 1.18810236454010009766e+00) (5, 1.14092260742187500000e+03) (6, 1.47321510314941406250e+00) (0, -6.64607604980468750000e+02) (1, 1.50871791839599609375e+01) (2, -1.01041992187500000000e+02) (3, 1.72979095458984375000e+02) (4, 3.63931503295898437500e+01) (5, 7.15395935058593750000e+02) (6, 9.47333455085754394531e-01) (0, -7.30606794357299804688e+00) (1, -8.58136057853698730469e-01) (2, -1.08426952362060546875e+01) (3, 1.37696415185928344727e-01) (4, 2.44740080833435058594e+00) (5, 9.89850952148437500000e+02) (6, -3.23139160871505737305e-01) (0, -5.36795186996459960938e+00) (1, 4.75722789764404296875e+00) (2, 3.01121497154235839844e+00) (3, -1.07138490676879882812e+00) (4, -1.93212807178497314453e+00) (5, -7.58074331283569335938e+00) (6, 1.22303295135498046875e+00) (0, -1.55754017829895019531e+00) (1, 8.00517845153808593750e+00) (2, -4.70156288146972656250e+01) (3, -7.31985998153686523438e+00) (4, 1.45514988899230957031e+00) (5, 1.12056159973144531250e+02) (6, -4.12892484664916992188e+00) (0, -3.17312407493591308594e+00) (1, -4.80859279632568359375e+00) (2, 5.95126247406005859375e+00) (3, -1.10309782028198242188e+01) (4, -1.03384470939636230469e+00) (5, 8.36386394500732421875e+00) (6, 9.91953372955322265625e-01) (0, -1.41061267089843750000e+03) (1, -2.65417449951171875000e+02) (2, 5.44459411621093750000e+02) (3, -4.17738311767578125000e+02) (4, -2.26519760131835937500e+02) (5, 1.42277563476562500000e+03) (6, -5.84911870956420898438e+00) (7, -7.01331794261932373047e-01) (8, -1.50000000000000000000e+03) (9, 1.07254479980468750000e+03) (10, 8.58169555664062500000e+00) (11, 4.04846115112304687500e+01) (12, 3.32061614990234375000e+02) (13, 1.50000000000000000000e+03) (14, -1.04508959960937500000e+03) (15, -3.18147206306457519531e+00) (7, -1.60317707061767578125e+00) (8, -4.92530155181884765625e+00) (9, -2.14702963829040527344e+00) (10, 2.50920343399047851562e+00) (11, 1.01538076400756835938e+01) (12, 1.68249070644378662109e+00) (13, 4.31916389465332031250e+01) (14, -1.18311452865600585938e+01) (15, -2.93908929824829101562e+00) (7, -4.28797197341918945312e+00) (8, -3.54077506065368652344e+00) (9, -6.25166416168212890625e+00) (10, 1.85965442657470703125e+00) (11, 1.25843820571899414062e+01) (12, 4.33969068527221679688e+00) (13, -1.10973525047302246094e+00) (14, 9.73509693145751953125e+00) (15, -5.25844478607177734375e+00) (7, 1.42936742305755615234e+00) (8, 1.36358749866485595703e+00) (9, -1.70585746765136718750e+01) (10, 1.64346427917480468750e+01) (11, 5.75089931488037109375e+00) (12, 5.15996456146240234375e+00) (13, 9.98696804046630859375e+00) (14, -8.30648612976074218750e+00) (15, -2.43192076683044433594e+00) (16, -5.72647988796234130859e-01) (17, -1.57495188713073730469e+00) (18, -1.88228750228881835938e+00) (19, -8.51086437702178955078e-01) (20, -2.31349900364875793457e-01) 
