FANN_FLO_2.1
num_layers=3
learning_rate=0.400000
connection_rate=1.000000
network_type=0
learning_momentum=0.000000
training_algorithm=2
train_error_function=1
train_stop_function=0
cascade_output_change_fraction=0.010000
quickprop_decay=-0.000100
quickprop_mu=1.750000
rprop_increase_factor=1.200000
rprop_decrease_factor=0.500000
rprop_delta_min=0.000000
rprop_delta_max=50.000000
rprop_delta_zero=0.100000
cascade_output_stagnation_epochs=12
cascade_candidate_change_fraction=0.010000
cascade_candidate_stagnation_epochs=12
cascade_max_out_epochs=150
cascade_min_out_epochs=50
cascade_max_cand_epochs=150
cascade_min_cand_epochs=50
cascade_num_candidate_groups=2
bit_fail_limit=3.49999994039535522461e-01
cascade_candidate_limit=1.00000000000000000000e+03
cascade_weight_multiplier=4.00000005960464477539e-01
cascade_activation_functions_count=10
cascade_activation_functions=3 5 7 8 10 11 14 15 16 17 
cascade_activation_steepnesses_count=4
cascade_activation_steepnesses=2.50000000000000000000e-01 5.00000000000000000000e-01 7.50000000000000000000e-01 1.00000000000000000000e+00 
layer_sizes=7 5 2 
scale_included=0
neurons (num_inputs, activation_function, activation_steepness)=(0, 0, 0.00000000000000000000e+00) (0, 0, 0.00000000000000000000e+00) (0, 0, 0.00000000000000000000e+00) (0, 0, 0.00000000000000000000e+00) (0, 0, 0.00000000000000000000e+00) (0, 0, 0.00000000000000000000e+00) (0, 0, 0.00000000000000000000e+00) (7, 3, 5.00000000000000000000e-01) (7, 3, 5.00000000000000000000e-01) (7, 3, 5.00000000000000000000e-01) (7, 3, 5.00000000000000000000e-01) (0, 3, 0.00000000000000000000e+00) (5, 3, 5.00000000000000000000e-01) (0, 3, 0.00000000000000000000e+00) 
connections (connected_to_neuron, weight)=(0, -1.53567123413085937500e+00) (1, -5.32378971576690673828e-01) (2, -1.04324117302894592285e-01) (3, -5.35942435264587402344e-01) (4, -1.22762978076934814453e+00) (5, -1.72542738914489746094e+00) (6, 2.08317995071411132812e+00) (0, -7.61003077030181884766e-01) (1, -3.17664885520935058594e+00) (2, 4.63079643249511718750e+00) (3, -4.29235267639160156250e+00) (4, 9.09275436401367187500e+00) (5, -8.42989730834960937500e+00) (6, -2.81815004348754882812e+00) (0, -5.91450071334838867188e+00) (1, -1.64830577373504638672e+00) (2, -1.94708383083343505859e+00) (3, 1.36601853370666503906e+00) (4, 2.16433930397033691406e+00) (5, 4.71272133290767669678e-02) (6, -2.61742591857910156250e-01) (0, -4.05213832855224609375e+00) (1, -2.64295911788940429688e+00) (2, -3.75792717933654785156e+00) (3, 3.15089702606201171875e+00) (4, -2.98325848579406738281e+00) (5, 4.84457063674926757812e+00) (6, 2.79140651226043701172e-01) (7, -7.88329744338989257812e+00) (8, 2.65914416313171386719e+00) (9, 4.50222063064575195312e+00) (10, 2.04070067405700683594e+00) (11, 3.02545666694641113281e-01) 
