FANN_FLO_2.1
num_layers=4
learning_rate=0.500000
connection_rate=1.000000
network_type=0
learning_momentum=0.000000
training_algorithm=2
train_error_function=1
train_stop_function=0
cascade_output_change_fraction=0.010000
quickprop_decay=-0.000100
quickprop_mu=1.750000
rprop_increase_factor=1.200000
rprop_decrease_factor=0.500000
rprop_delta_min=0.000000
rprop_delta_max=50.000000
rprop_delta_zero=0.100000
cascade_output_stagnation_epochs=12
cascade_candidate_change_fraction=0.010000
cascade_candidate_stagnation_epochs=12
cascade_max_out_epochs=150
cascade_min_out_epochs=50
cascade_max_cand_epochs=150
cascade_min_cand_epochs=50
cascade_num_candidate_groups=2
bit_fail_limit=3.49999994039535522461e-01
cascade_candidate_limit=1.00000000000000000000e+03
cascade_weight_multiplier=4.00000005960464477539e-01
cascade_activation_functions_count=10
cascade_activation_functions=3 5 7 8 10 11 14 15 16 17 
cascade_activation_steepnesses_count=4
cascade_activation_steepnesses=2.50000000000000000000e-01 5.00000000000000000000e-01 7.50000000000000000000e-01 1.00000000000000000000e+00 
layer_sizes=2 5 5 3 
scale_included=0
neurons (num_inputs, activation_function, activation_steepness)=(0, 0, 0.00000000000000000000e+00) (0, 0, 0.00000000000000000000e+00) (2, 3, 5.00000000000000000000e-01) (2, 3, 5.00000000000000000000e-01) (2, 3, 5.00000000000000000000e-01) (2, 3, 5.00000000000000000000e-01) (0, 3, 0.00000000000000000000e+00) (5, 3, 5.00000000000000000000e-01) (5, 3, 5.00000000000000000000e-01) (5, 3, 5.00000000000000000000e-01) (5, 3, 5.00000000000000000000e-01) (0, 3, 0.00000000000000000000e+00) (5, 0, 5.00000000000000000000e-01) (5, 0, 5.00000000000000000000e-01) (0, 0, 0.00000000000000000000e+00) 
connections (connected_to_neuron, weight)=(0, 1.50000000000000000000e+03) (1, -1.29011245727539062500e+02) (0, 1.50000000000000000000e+03) (1, 3.40677986145019531250e+01) (0, 1.50000000000000000000e+03) (1, 2.63722442626953125000e+02) (0, 1.50000000000000000000e+03) (1, 2.91455535888671875000e+01) (2, 2.53745613098144531250e+01) (3, 7.03144490718841552734e-01) (4, -2.67003879547119140625e+01) (5, 3.59807157516479492188e+00) (6, 1.85223668813705444336e-01) (2, -9.43017196655273437500e+01) (3, 1.12982597351074218750e+01) (4, -9.97912673950195312500e+01) (5, 8.11632308959960937500e+01) (6, 1.07838046550750732422e+00) (2, -1.50000000000000000000e+03) (3, 1.50000000000000000000e+03) (4, 1.50000000000000000000e+03) (5, 1.50000000000000000000e+03) (6, 1.50000000000000000000e+03) (2, -1.36937219238281250000e+03) (3, -9.75742614746093750000e+02) (4, -1.15175183105468750000e+03) (5, -1.42593078613281250000e+03) (6, -1.54501676559448242188e+01) (7, -8.94807457923889160156e-01) (8, 2.12873703002929687500e+02) (9, -9.89185452461242675781e-01) (10, 1.50000000000000000000e+03) (11, 3.70159745216369628906e-01) (7, -1.30890882015228271484e+00) (8, 4.99498107910156250000e+02) (9, 1.02239906787872314453e+00) (10, 1.50000000000000000000e+03) (11, -1.31146423518657684326e-02) 
