FANN_FLO_2.1
num_layers=4
learning_rate=0.400000
connection_rate=1.000000
network_type=0
learning_momentum=0.000000
training_algorithm=2
train_error_function=1
train_stop_function=0
cascade_output_change_fraction=0.010000
quickprop_decay=-0.000100
quickprop_mu=1.750000
rprop_increase_factor=1.200000
rprop_decrease_factor=0.500000
rprop_delta_min=0.000000
rprop_delta_max=50.000000
rprop_delta_zero=0.100000
cascade_output_stagnation_epochs=12
cascade_candidate_change_fraction=0.010000
cascade_candidate_stagnation_epochs=12
cascade_max_out_epochs=150
cascade_min_out_epochs=50
cascade_max_cand_epochs=150
cascade_min_cand_epochs=50
cascade_num_candidate_groups=2
bit_fail_limit=3.49999994039535522461e-01
cascade_candidate_limit=1.00000000000000000000e+03
cascade_weight_multiplier=4.00000005960464477539e-01
cascade_activation_functions_count=10
cascade_activation_functions=3 5 7 8 10 11 14 15 16 17 
cascade_activation_steepnesses_count=4
cascade_activation_steepnesses=2.50000000000000000000e-01 5.00000000000000000000e-01 7.50000000000000000000e-01 1.00000000000000000000e+00 
layer_sizes=7 9 5 2 
scale_included=0
neurons (num_inputs, activation_function, activation_steepness)=(0, 0, 0.00000000000000000000e+00) (0, 0, 0.00000000000000000000e+00) (0, 0, 0.00000000000000000000e+00) (0, 0, 0.00000000000000000000e+00) (0, 0, 0.00000000000000000000e+00) (0, 0, 0.00000000000000000000e+00) (0, 0, 0.00000000000000000000e+00) (7, 3, 5.00000000000000000000e-01) (7, 3, 5.00000000000000000000e-01) (7, 3, 5.00000000000000000000e-01) (7, 3, 5.00000000000000000000e-01) (7, 3, 5.00000000000000000000e-01) (7, 3, 5.00000000000000000000e-01) (7, 3, 5.00000000000000000000e-01) (7, 3, 5.00000000000000000000e-01) (0, 3, 0.00000000000000000000e+00) (9, 3, 5.00000000000000000000e-01) (9, 3, 5.00000000000000000000e-01) (9, 3, 5.00000000000000000000e-01) (9, 3, 5.00000000000000000000e-01) (0, 3, 0.00000000000000000000e+00) (5, 3, 5.00000000000000000000e-01) (0, 3, 0.00000000000000000000e+00) 
connections (connected_to_neuron, weight)=(0, 1.90507781505584716797e+00) (1, 4.64259414672851562500e+01) (2, 1.50000000000000000000e+03) (3, -7.03642456054687500000e+02) (4, -6.80750366210937500000e+02) (5, 8.70081115722656250000e+02) (6, 1.58324096679687500000e+02) (0, -9.07397568225860595703e-01) (1, -2.24298782348632812500e+01) (2, 5.50949035644531250000e+02) (3, -1.32347265625000000000e+03) (4, 1.42198120117187500000e+03) (5, 1.49588342285156250000e+03) (6, -2.19316726684570312500e+02) (0, 1.32471790313720703125e+01) (1, 2.11521244049072265625e+01) (2, -1.50397811889648437500e+02) (3, -1.07934455871582031250e+01) (4, 4.64364337921142578125e+00) (5, -3.01563024520874023438e+00) (6, -8.09861373901367187500e+00) (0, -7.66489334106445312500e+01) (1, -1.01166656494140625000e+02) (2, 8.63562988281250000000e+02) (3, -1.31845922851562500000e+03) (4, -1.46523144531250000000e+03) (5, 1.49377209472656250000e+03) (6, 5.33218688964843750000e+01) (0, 2.15462946891784667969e+00) (1, 1.17971496582031250000e+03) (2, 5.11205078125000000000e+02) (3, -1.50000000000000000000e+03) (4, -1.50000000000000000000e+03) (5, 1.49138708496093750000e+03) (6, 1.16998367309570312500e+01) (0, -2.73012924194335937500e+00) (1, 2.67441868782043457031e+00) (2, 2.08776493072509765625e+01) (3, -5.02658348083496093750e+01) (4, -8.74153423309326171875e+00) (5, 4.59702301025390625000e+00) (6, 1.64762325286865234375e+01) (0, 2.13788909912109375000e+01) (1, 5.14995455741882324219e-01) (2, 1.49516381835937500000e+03) (3, -1.38196484375000000000e+03) (4, -6.64069946289062500000e+02) (5, 9.64156265258789062500e+01) (6, 9.57790279388427734375e+00) (0, -6.68989062309265136719e-01) (1, 4.91524648666381835938e+00) (2, 3.54435081481933593750e+01) (3, -3.95777587890625000000e+01) (4, -1.75649833679199218750e+01) (5, -3.46577423095703125000e+02) (6, 1.04764909744262695312e+01) (7, 1.44476928710937500000e+02) (8, -1.45346765136718750000e+03) (9, -1.02151837158203125000e+03) (10, 1.31991027832031250000e+02) (11, 3.02176605224609375000e+02) (12, 1.50000000000000000000e+03) (13, 1.50000000000000000000e+03) (14, 1.50000000000000000000e+03) (15, 1.02247814941406250000e+03) (7, -6.29963874816894531250e-01) (8, -8.57411623001098632812e-01) (9, -4.82978248596191406250e+00) (10, -1.13032567501068115234e+00) (11, -4.71079051494598388672e-01) (12, 1.50000000000000000000e+03) (13, 1.50000000000000000000e+03) (14, 1.50000000000000000000e+03) (15, 4.04405832290649414062e+00) (7, -1.13913200378417968750e+02) (8, 3.34445434570312500000e+02) (9, -4.54804138183593750000e+02) (10, 8.36623954772949218750e+00) (11, -6.79285907745361328125e+00) (12, 1.50000000000000000000e+03) (13, 1.50000000000000000000e+03) (14, 1.50000000000000000000e+03) (15, 4.56163940429687500000e+02) (7, 1.08370349121093750000e+03) (8, 4.56740600585937500000e+02) (9, -1.49184069824218750000e+03) (10, 1.00082502365112304688e+01) (11, -6.79285907745361328125e+00) (12, 1.50000000000000000000e+03) (13, 1.50000000000000000000e+03) (14, 1.50000000000000000000e+03) (15, 2.19039750099182128906e+00) (16, -6.94887876510620117188e-01) (17, -8.96450281143188476562e-01) (18, -2.84701526165008544922e-01) (19, -4.69659715890884399414e-01) (20, -8.73390376567840576172e-01) 
