FANN_FLO_2.1
num_layers=4
learning_rate=0.500000
connection_rate=1.000000
network_type=0
learning_momentum=0.000000
training_algorithm=2
train_error_function=1
train_stop_function=0
cascade_output_change_fraction=0.010000
quickprop_decay=-0.000100
quickprop_mu=1.750000
rprop_increase_factor=1.200000
rprop_decrease_factor=0.500000
rprop_delta_min=0.000000
rprop_delta_max=50.000000
rprop_delta_zero=0.100000
cascade_output_stagnation_epochs=12
cascade_candidate_change_fraction=0.010000
cascade_candidate_stagnation_epochs=12
cascade_max_out_epochs=150
cascade_min_out_epochs=50
cascade_max_cand_epochs=150
cascade_min_cand_epochs=50
cascade_num_candidate_groups=2
bit_fail_limit=3.49999994039535522461e-01
cascade_candidate_limit=1.00000000000000000000e+03
cascade_weight_multiplier=4.00000005960464477539e-01
cascade_activation_functions_count=10
cascade_activation_functions=3 5 7 8 10 11 14 15 16 17 
cascade_activation_steepnesses_count=4
cascade_activation_steepnesses=2.50000000000000000000e-01 5.00000000000000000000e-01 7.50000000000000000000e-01 1.00000000000000000000e+00 
layer_sizes=10 9 3 2 
scale_included=0
neurons (num_inputs, activation_function, activation_steepness)=(0, 0, 0.00000000000000000000e+00) (0, 0, 0.00000000000000000000e+00) (0, 0, 0.00000000000000000000e+00) (0, 0, 0.00000000000000000000e+00) (0, 0, 0.00000000000000000000e+00) (0, 0, 0.00000000000000000000e+00) (0, 0, 0.00000000000000000000e+00) (0, 0, 0.00000000000000000000e+00) (0, 0, 0.00000000000000000000e+00) (0, 0, 0.00000000000000000000e+00) (10, 3, 5.00000000000000000000e-01) (10, 3, 5.00000000000000000000e-01) (10, 3, 5.00000000000000000000e-01) (10, 3, 5.00000000000000000000e-01) (10, 3, 5.00000000000000000000e-01) (10, 3, 5.00000000000000000000e-01) (10, 3, 5.00000000000000000000e-01) (10, 3, 5.00000000000000000000e-01) (0, 3, 0.00000000000000000000e+00) (9, 3, 5.00000000000000000000e-01) (9, 3, 5.00000000000000000000e-01) (0, 3, 0.00000000000000000000e+00) (3, 3, 5.00000000000000000000e-01) (0, 3, 0.00000000000000000000e+00) 
connections (connected_to_neuron, weight)=(0, 2.09891200065612792969e+00) (1, 7.11764633655548095703e-01) (2, -5.29697875976562500000e+01) (3, 4.06249761581420898438e+00) (4, 9.27770233154296875000e+00) (5, 2.03697643280029296875e+01) (6, 1.76964104175567626953e-01) (7, 2.74520134925842285156e+00) (8, 1.38084733486175537109e+00) (9, -5.11043930053710937500e+00) (0, -1.84722173213958740234e+00) (1, -1.88989460468292236328e-01) (2, -7.67792367935180664062e+00) (3, 2.42595624923706054688e+00) (4, 8.87214899063110351562e-01) (5, 2.11999610066413879395e-01) (6, 2.24721536040306091309e-01) (7, 3.72678017616271972656e+00) (8, 5.40448904037475585938e+00) (9, -1.87194991111755371094e+00) (0, -6.28722620010375976562e+00) (1, 1.19790530204772949219e+00) (2, -1.75455057621002197266e+00) (3, -4.64910411834716796875e+00) (4, 6.27760314941406250000e+00) (5, 6.16119623184204101562e-01) (6, -6.88875436782836914062e+00) (7, 1.62453100085258483887e-01) (8, 2.14457511901855468750e+00) (9, -2.70164042711257934570e-01) (0, -2.72293496131896972656e+00) (1, 7.31826007366180419922e-01) (2, 4.02888202667236328125e+00) (3, -4.19595098495483398438e+00) (4, -3.46864080429077148438e+00) (5, 1.31968152523040771484e+00) (6, 4.23295974731445312500e+00) (7, 6.05777621269226074219e-01) (8, 7.93347537517547607422e-01) (9, 1.46288347244262695312e+00) (0, -5.77762842178344726562e+00) (1, -9.63737845420837402344e-01) (2, -1.66905534267425537109e+00) (3, -5.27101135253906250000e+00) (4, -3.98453450202941894531e+00) (5, 2.58709549903869628906e+00) (6, 1.33169615268707275391e+00) (7, 1.31597530841827392578e+00) (8, 2.71217608451843261719e+00) (9, 1.50944542884826660156e+00) (0, 2.79479827880859375000e+02) (1, 1.08881628513336181641e+00) (2, 8.51660339355468750000e+02) (3, 9.83244895935058593750e+00) (4, 1.48971313476562500000e+03) (5, 1.71254531860351562500e+02) (6, 3.68146575927734375000e+02) (7, -1.10951814651489257812e+01) (8, 4.80934143066406250000e-01) (9, 2.26649131774902343750e+01) (0, -9.38198566436767578125e+00) (1, -1.20126068592071533203e+00) (2, -1.40405857563018798828e+00) (3, -1.03705463409423828125e+01) (4, -3.60422849655151367188e+00) (5, 1.11739099025726318359e+00) (6, 1.01040279865264892578e+00) (7, 1.17255532741546630859e+00) (8, 1.04367494583129882812e+01) (9, 2.90480995178222656250e+00) (0, -8.87598609924316406250e+00) (1, -2.22170591354370117188e-01) (2, -3.34586334228515625000e+00) (3, 1.60154271125793457031e+00) (4, 1.03978300094604492188e+00) (5, 9.71663072705268859863e-02) (6, 2.39818140864372253418e-01) (7, 1.23202695846557617188e+01) (8, 1.70135831832885742188e+00) (9, -1.14078450202941894531e+00) (10, 1.50000000000000000000e+03) (11, 5.14408645629882812500e+01) (12, 1.50000000000000000000e+03) (13, 3.13994216918945312500e+00) (14, 1.50000000000000000000e+03) (15, -2.50063300132751464844e+00) (16, 1.50000000000000000000e+03) (17, -8.32459564208984375000e+01) (18, -1.19217300415039062500e+00) (10, 1.50000000000000000000e+03) (11, -2.25275573730468750000e+02) (12, 1.50000000000000000000e+03) (13, 2.71280956268310546875e+01) (14, 1.50000000000000000000e+03) (15, 6.59923601150512695312e+00) (16, 1.50000000000000000000e+03) (17, -2.46142635345458984375e+01) (18, 2.31393545866012573242e-01) (19, 6.08338534832000732422e-01) (20, 1.76976704597473144531e+00) (21, -1.60720062255859375000e+00) 
