FANN_FLO_2.1
num_layers=3
learning_rate=0.500000
connection_rate=1.000000
network_type=0
learning_momentum=0.000000
training_algorithm=2
train_error_function=1
train_stop_function=0
cascade_output_change_fraction=0.010000
quickprop_decay=-0.000100
quickprop_mu=1.750000
rprop_increase_factor=1.200000
rprop_decrease_factor=0.500000
rprop_delta_min=0.000000
rprop_delta_max=50.000000
rprop_delta_zero=0.100000
cascade_output_stagnation_epochs=12
cascade_candidate_change_fraction=0.010000
cascade_candidate_stagnation_epochs=12
cascade_max_out_epochs=150
cascade_min_out_epochs=50
cascade_max_cand_epochs=150
cascade_min_cand_epochs=50
cascade_num_candidate_groups=2
bit_fail_limit=3.49999994039535522461e-01
cascade_candidate_limit=1.00000000000000000000e+03
cascade_weight_multiplier=4.00000005960464477539e-01
cascade_activation_functions_count=10
cascade_activation_functions=3 5 7 8 10 11 14 15 16 17 
cascade_activation_steepnesses_count=4
cascade_activation_steepnesses=2.50000000000000000000e-01 5.00000000000000000000e-01 7.50000000000000000000e-01 1.00000000000000000000e+00 
layer_sizes=10 3 2 
scale_included=0
neurons (num_inputs, activation_function, activation_steepness)=(0, 0, 0.00000000000000000000e+00) (0, 0, 0.00000000000000000000e+00) (0, 0, 0.00000000000000000000e+00) (0, 0, 0.00000000000000000000e+00) (0, 0, 0.00000000000000000000e+00) (0, 0, 0.00000000000000000000e+00) (0, 0, 0.00000000000000000000e+00) (0, 0, 0.00000000000000000000e+00) (0, 0, 0.00000000000000000000e+00) (0, 0, 0.00000000000000000000e+00) (10, 3, 5.00000000000000000000e-01) (10, 3, 5.00000000000000000000e-01) (0, 3, 0.00000000000000000000e+00) (3, 3, 5.00000000000000000000e-01) (0, 3, 0.00000000000000000000e+00) 
connections (connected_to_neuron, weight)=(0, -1.53869688510894775391e+00) (1, 7.67932558059692382812e+00) (2, -7.07076454162597656250e+00) (3, 2.95245981216430664062e+00) (4, -1.04343041777610778809e-01) (5, 1.60450494289398193359e+00) (6, -2.10004973411560058594e+00) (7, -3.12199234962463378906e+00) (8, 1.78350269794464111328e+00) (9, 2.41765454411506652832e-01) (0, -7.87480640411376953125e+00) (1, 5.06971836090087890625e+00) (2, -7.64896059036254882812e+00) (3, -1.74215972423553466797e+00) (4, 2.51598119735717773438e+00) (5, 4.86357593536376953125e+00) (6, -6.27156829833984375000e+00) (7, -3.26411223411560058594e+00) (8, -1.07668638229370117188e+00) (9, 6.55922746658325195312e+00) (10, 4.33336305618286132812e+00) (11, 2.20800304412841796875e+00) (12, -4.32918453216552734375e+00) 
