FANN_FLO_2.1
num_layers=4
learning_rate=0.500000
connection_rate=1.000000
network_type=0
learning_momentum=0.000000
training_algorithm=2
train_error_function=1
train_stop_function=0
cascade_output_change_fraction=0.010000
quickprop_decay=-0.000100
quickprop_mu=1.750000
rprop_increase_factor=1.200000
rprop_decrease_factor=0.500000
rprop_delta_min=0.000000
rprop_delta_max=50.000000
rprop_delta_zero=0.100000
cascade_output_stagnation_epochs=12
cascade_candidate_change_fraction=0.010000
cascade_candidate_stagnation_epochs=12
cascade_max_out_epochs=150
cascade_min_out_epochs=50
cascade_max_cand_epochs=150
cascade_min_cand_epochs=50
cascade_num_candidate_groups=2
bit_fail_limit=3.49999994039535522461e-01
cascade_candidate_limit=1.00000000000000000000e+03
cascade_weight_multiplier=4.00000005960464477539e-01
cascade_activation_functions_count=10
cascade_activation_functions=3 5 7 8 10 11 14 15 16 17 
cascade_activation_steepnesses_count=4
cascade_activation_steepnesses=2.50000000000000000000e-01 5.00000000000000000000e-01 7.50000000000000000000e-01 1.00000000000000000000e+00 
layer_sizes=10 5 5 2 
scale_included=0
neurons (num_inputs, activation_function, activation_steepness)=(0, 0, 0.00000000000000000000e+00) (0, 0, 0.00000000000000000000e+00) (0, 0, 0.00000000000000000000e+00) (0, 0, 0.00000000000000000000e+00) (0, 0, 0.00000000000000000000e+00) (0, 0, 0.00000000000000000000e+00) (0, 0, 0.00000000000000000000e+00) (0, 0, 0.00000000000000000000e+00) (0, 0, 0.00000000000000000000e+00) (0, 0, 0.00000000000000000000e+00) (10, 3, 5.00000000000000000000e-01) (10, 3, 5.00000000000000000000e-01) (10, 3, 5.00000000000000000000e-01) (10, 3, 5.00000000000000000000e-01) (0, 3, 0.00000000000000000000e+00) (5, 3, 5.00000000000000000000e-01) (5, 3, 5.00000000000000000000e-01) (5, 3, 5.00000000000000000000e-01) (5, 3, 5.00000000000000000000e-01) (0, 3, 0.00000000000000000000e+00) (5, 3, 5.00000000000000000000e-01) (0, 3, 0.00000000000000000000e+00) 
connections (connected_to_neuron, weight)=(0, -1.89373478293418884277e-01) (1, -2.25854367017745971680e-01) (2, 2.03693370819091796875e+01) (3, 4.28665494918823242188e+00) (4, 6.64315819740295410156e-01) (5, 6.25753402709960937500e-01) (6, 2.59002041816711425781e+00) (7, 6.00421571731567382812e+00) (8, -1.52843255996704101562e+01) (9, -1.12323293685913085938e+01) (0, 5.20365297794342041016e-01) (1, 1.25894296169281005859e+00) (2, -7.32268857955932617188e+00) (3, -1.63108855485916137695e-01) (4, -1.25818979740142822266e+00) (5, 1.66408360004425048828e+00) (6, -7.02802062034606933594e-01) (7, -9.57403063774108886719e-01) (8, 2.14778137207031250000e+00) (9, -1.29814982414245605469e-01) (0, -1.53604733943939208984e+00) (1, -2.01984357833862304688e+00) (2, 1.82870140075683593750e+01) (3, -8.24852108955383300781e-01) (4, -1.63031053543090820312e+00) (5, 5.79178892076015472412e-02) (6, -2.03531002998352050781e+00) (7, -7.01518476009368896484e-01) (8, -1.12393846511840820312e+01) (9, -3.56179499626159667969e+00) (0, -3.92040349543094635010e-02) (1, -2.15355798602104187012e-01) (2, 4.58918905258178710938e+00) (3, -3.03755235671997070312e+00) (4, -4.99552860856056213379e-02) (5, -1.41953099519014358521e-02) (6, -8.11764955520629882812e-01) (7, -9.08053696155548095703e-01) (8, -6.69126272201538085938e-01) (9, -7.82165676355361938477e-02) (10, -8.67994689941406250000e+00) (11, -4.29009914398193359375e-01) (12, 1.72592353820800781250e+01) (13, -9.96905624866485595703e-01) (14, 9.15106534957885742188e-01) (10, -6.80362510681152343750e+00) (11, -5.48969805240631103516e-01) (12, 4.98098611831665039062e+00) (13, -1.69334387779235839844e+00) (14, 6.68272554874420166016e-01) (10, -7.78106307983398437500e+00) (11, -3.99693042039871215820e-01) (12, -4.33894491195678710938e+00) (13, -1.03573894500732421875e+00) (14, 8.29910576343536376953e-01) (10, -6.98321199417114257812e+00) (11, -5.25686800479888916016e-01) (12, -7.97650575637817382812e+00) (13, -1.43298077583312988281e+00) (14, 6.44342184066772460938e-01) (15, 3.96712684631347656250e+00) (16, 1.06981837749481201172e+00) (17, 9.74946856498718261719e-01) (18, 1.18591332435607910156e+00) (19, -3.64761829376220703125e+00) 
