FANN_FLO_2.1
num_layers=3
learning_rate=0.400000
connection_rate=1.000000
network_type=0
learning_momentum=0.000000
training_algorithm=2
train_error_function=1
train_stop_function=0
cascade_output_change_fraction=0.010000
quickprop_decay=-0.000100
quickprop_mu=1.750000
rprop_increase_factor=1.200000
rprop_decrease_factor=0.500000
rprop_delta_min=0.000000
rprop_delta_max=50.000000
rprop_delta_zero=0.100000
cascade_output_stagnation_epochs=12
cascade_candidate_change_fraction=0.010000
cascade_candidate_stagnation_epochs=12
cascade_max_out_epochs=150
cascade_min_out_epochs=50
cascade_max_cand_epochs=150
cascade_min_cand_epochs=50
cascade_num_candidate_groups=2
bit_fail_limit=3.49999994039535522461e-01
cascade_candidate_limit=1.00000000000000000000e+03
cascade_weight_multiplier=4.00000005960464477539e-01
cascade_activation_functions_count=10
cascade_activation_functions=3 5 7 8 10 11 14 15 16 17 
cascade_activation_steepnesses_count=4
cascade_activation_steepnesses=2.50000000000000000000e-01 5.00000000000000000000e-01 7.50000000000000000000e-01 1.00000000000000000000e+00 
layer_sizes=7 5 2 
scale_included=0
neurons (num_inputs, activation_function, activation_steepness)=(0, 0, 0.00000000000000000000e+00) (0, 0, 0.00000000000000000000e+00) (0, 0, 0.00000000000000000000e+00) (0, 0, 0.00000000000000000000e+00) (0, 0, 0.00000000000000000000e+00) (0, 0, 0.00000000000000000000e+00) (0, 0, 0.00000000000000000000e+00) (7, 3, 5.00000000000000000000e-01) (7, 3, 5.00000000000000000000e-01) (7, 3, 5.00000000000000000000e-01) (7, 3, 5.00000000000000000000e-01) (0, 3, 0.00000000000000000000e+00) (5, 3, 5.00000000000000000000e-01) (0, 3, 0.00000000000000000000e+00) 
connections (connected_to_neuron, weight)=(0, -3.96550655364990234375e+00) (1, -1.79669916629791259766e+00) (2, -1.46937477588653564453e+00) (3, -4.19519710540771484375e+00) (4, 3.72247004508972167969e+00) (5, 5.00276088714599609375e+00) (6, -5.29655992984771728516e-01) (0, -2.14928388595581054688e+00) (1, 4.47983169555664062500e+00) (2, 1.03503835201263427734e+00) (3, -7.91706323623657226562e+00) (4, 6.66857194900512695312e+00) (5, -2.88414239883422851562e+00) (6, 2.71353697776794433594e+00) (0, 6.20371341705322265625e-01) (1, -1.23818540573120117188e+00) (2, 5.77169942855834960938e+00) (3, 7.06899738311767578125e+00) (4, 8.86814177036285400391e-01) (5, -1.42709465026855468750e+01) (6, -1.61815273761749267578e+00) (0, -3.41063857078552246094e+00) (1, -1.75073039531707763672e+00) (2, -1.59790694713592529297e+00) (3, 2.47643470764160156250e+00) (4, 3.11557602882385253906e+00) (5, 2.47891330718994140625e+00) (6, -4.75171136856079101562e+00) (7, 2.62547278404235839844e+00) (8, -2.33704209327697753906e+00) (9, 2.82867288589477539062e+00) (10, 4.26895427703857421875e+00) (11, -3.31436604261398315430e-01) 
