FANN_FLO_2.1
num_layers=4
learning_rate=0.400000
connection_rate=1.000000
network_type=0
learning_momentum=0.000000
training_algorithm=2
train_error_function=1
train_stop_function=0
cascade_output_change_fraction=0.010000
quickprop_decay=-0.000100
quickprop_mu=1.750000
rprop_increase_factor=1.200000
rprop_decrease_factor=0.500000
rprop_delta_min=0.000000
rprop_delta_max=50.000000
rprop_delta_zero=0.100000
cascade_output_stagnation_epochs=12
cascade_candidate_change_fraction=0.010000
cascade_candidate_stagnation_epochs=12
cascade_max_out_epochs=150
cascade_min_out_epochs=50
cascade_max_cand_epochs=150
cascade_min_cand_epochs=50
cascade_num_candidate_groups=2
bit_fail_limit=3.49999994039535522461e-01
cascade_candidate_limit=1.00000000000000000000e+03
cascade_weight_multiplier=4.00000005960464477539e-01
cascade_activation_functions_count=10
cascade_activation_functions=3 5 7 8 10 11 14 15 16 17 
cascade_activation_steepnesses_count=4
cascade_activation_steepnesses=2.50000000000000000000e-01 5.00000000000000000000e-01 7.50000000000000000000e-01 1.00000000000000000000e+00 
layer_sizes=7 5 3 2 
scale_included=0
neurons (num_inputs, activation_function, activation_steepness)=(0, 0, 0.00000000000000000000e+00) (0, 0, 0.00000000000000000000e+00) (0, 0, 0.00000000000000000000e+00) (0, 0, 0.00000000000000000000e+00) (0, 0, 0.00000000000000000000e+00) (0, 0, 0.00000000000000000000e+00) (0, 0, 0.00000000000000000000e+00) (7, 3, 5.00000000000000000000e-01) (7, 3, 5.00000000000000000000e-01) (7, 3, 5.00000000000000000000e-01) (7, 3, 5.00000000000000000000e-01) (0, 3, 0.00000000000000000000e+00) (5, 3, 5.00000000000000000000e-01) (5, 3, 5.00000000000000000000e-01) (0, 3, 0.00000000000000000000e+00) (3, 3, 5.00000000000000000000e-01) (0, 3, 0.00000000000000000000e+00) 
connections (connected_to_neuron, weight)=(0, -4.77409057617187500000e+02) (1, 8.14119567871093750000e+01) (2, -4.16102996826171875000e+02) (3, 7.98993164062500000000e+02) (4, 1.44622253417968750000e+02) (5, -1.75624710083007812500e+02) (6, 3.37905716896057128906e+00) (0, -1.25933065414428710938e+01) (1, 5.35471630096435546875e+00) (2, 1.47054672241210937500e+01) (3, -1.31286001205444335938e+01) (4, -5.39545202255249023438e+00) (5, 2.66144847869873046875e+00) (6, 8.86666584014892578125e+00) (0, -4.15943298339843750000e+02) (1, 1.01976989746093750000e+02) (2, 1.48043542480468750000e+03) (3, 1.38546582031250000000e+03) (4, 2.94394287109375000000e+02) (5, 8.61164093017578125000e+00) (6, -4.32300529479980468750e+01) (0, -1.49746179199218750000e+03) (1, 2.49065429687500000000e+02) (2, -1.26079235839843750000e+03) (3, 1.06009619140625000000e+03) (4, -1.79324829101562500000e+02) (5, 4.67320861816406250000e+02) (6, 2.71134233474731445312e+00) (7, -2.27372455596923828125e+00) (8, 1.50000000000000000000e+03) (9, -6.09367523193359375000e+01) (10, 6.81482162475585937500e+01) (11, -1.26979315280914306641e+00) (7, 7.01342678070068359375e+00) (8, 1.50000000000000000000e+03) (9, -1.24173889160156250000e+01) (10, -1.81686515808105468750e+01) (11, -1.36277663707733154297e+00) (12, -9.13557589054107666016e-01) (13, -7.04889893531799316406e-01) (14, -1.59800052642822265625e+00) 
