FANN_FLO_2.1
num_layers=3
learning_rate=0.400000
connection_rate=1.000000
network_type=0
learning_momentum=0.000000
training_algorithm=2
train_error_function=1
train_stop_function=0
cascade_output_change_fraction=0.010000
quickprop_decay=-0.000100
quickprop_mu=1.750000
rprop_increase_factor=1.200000
rprop_decrease_factor=0.500000
rprop_delta_min=0.000000
rprop_delta_max=50.000000
rprop_delta_zero=0.100000
cascade_output_stagnation_epochs=12
cascade_candidate_change_fraction=0.010000
cascade_candidate_stagnation_epochs=12
cascade_max_out_epochs=150
cascade_min_out_epochs=50
cascade_max_cand_epochs=150
cascade_min_cand_epochs=50
cascade_num_candidate_groups=2
bit_fail_limit=3.49999994039535522461e-01
cascade_candidate_limit=1.00000000000000000000e+03
cascade_weight_multiplier=4.00000005960464477539e-01
cascade_activation_functions_count=10
cascade_activation_functions=3 5 7 8 10 11 14 15 16 17 
cascade_activation_steepnesses_count=4
cascade_activation_steepnesses=2.50000000000000000000e-01 5.00000000000000000000e-01 7.50000000000000000000e-01 1.00000000000000000000e+00 
layer_sizes=7 9 2 
scale_included=0
neurons (num_inputs, activation_function, activation_steepness)=(0, 0, 0.00000000000000000000e+00) (0, 0, 0.00000000000000000000e+00) (0, 0, 0.00000000000000000000e+00) (0, 0, 0.00000000000000000000e+00) (0, 0, 0.00000000000000000000e+00) (0, 0, 0.00000000000000000000e+00) (0, 0, 0.00000000000000000000e+00) (7, 3, 5.00000000000000000000e-01) (7, 3, 5.00000000000000000000e-01) (7, 3, 5.00000000000000000000e-01) (7, 3, 5.00000000000000000000e-01) (7, 3, 5.00000000000000000000e-01) (7, 3, 5.00000000000000000000e-01) (7, 3, 5.00000000000000000000e-01) (7, 3, 5.00000000000000000000e-01) (0, 3, 0.00000000000000000000e+00) (9, 3, 5.00000000000000000000e-01) (0, 3, 0.00000000000000000000e+00) 
connections (connected_to_neuron, weight)=(0, -1.71967792510986328125e+01) (1, 1.27421312332153320312e+01) (2, -2.51403665542602539062e+00) (3, -2.95039415359497070312e+00) (4, -1.29561567306518554688e+00) (5, 3.92422914505004882812e+00) (6, 3.95004224777221679688e+00) (0, -7.48078680038452148438e+00) (1, -4.15528345108032226562e+00) (2, -7.26550979614257812500e+01) (3, -1.63477096557617187500e+01) (4, -1.60985684394836425781e+00) (5, 1.22974987030029296875e+01) (6, 6.16712808609008789062e+00) (0, -7.46316313743591308594e-01) (1, 3.66454094648361206055e-01) (2, 2.64294028282165527344e-01) (3, -3.92803359031677246094e+00) (4, -3.76563811302185058594e+00) (5, 1.65610909461975097656e-02) (6, -1.66509225964546203613e-01) (0, 1.12516009807586669922e+00) (1, 8.89005005359649658203e-01) (2, -2.77663841247558593750e+01) (3, -1.74311904907226562500e+01) (4, 4.83000135421752929688e+00) (5, 4.08563464879989624023e-01) (6, -6.61535084247589111328e-01) (0, -3.57036501169204711914e-01) (1, 6.46637535095214843750e+00) (2, -1.36824121475219726562e+01) (3, -4.56480884552001953125e+00) (4, -4.32230949401855468750e+00) (5, 6.73080778121948242188e+00) (6, -9.68147218227386474609e-01) (0, 7.52934634685516357422e-01) (1, 2.08876075744628906250e+01) (2, -4.87820663452148437500e+01) (3, 4.62642574310302734375e+00) (4, -9.44069442749023437500e+01) (5, 1.40561866760253906250e+00) (6, -4.73221492767333984375e+00) (0, 4.90893214941024780273e-01) (1, 4.34938383102416992188e+00) (2, -1.60559141635894775391e+00) (3, -3.98143196105957031250e+00) (4, -5.37838840484619140625e+00) (5, -7.37130418419837951660e-02) (6, 2.80117839574813842773e-01) (0, 1.27791080474853515625e+01) (1, -1.38106441497802734375e+01) (2, 7.77763175964355468750e+00) (3, -1.07991993427276611328e+00) (4, 2.21732147037982940674e-02) (5, -5.91410541534423828125e+00) (6, 6.39506101608276367188e+00) (7, -3.04909729957580566406e+00) (8, -4.76516455411911010742e-01) (9, 3.15871548652648925781e+00) (10, -9.42852258682250976562e-01) (11, -6.84885084629058837891e-01) (12, -5.05414307117462158203e-01) (13, -4.28875803947448730469e-01) (14, -3.91822457313537597656e+00) (15, 2.69954609870910644531e+00) 
