FANN_FLO_2.1
num_layers=4
learning_rate=0.500000
connection_rate=1.000000
network_type=0
learning_momentum=0.000000
training_algorithm=2
train_error_function=1
train_stop_function=0
cascade_output_change_fraction=0.010000
quickprop_decay=-0.000100
quickprop_mu=1.750000
rprop_increase_factor=1.200000
rprop_decrease_factor=0.500000
rprop_delta_min=0.000000
rprop_delta_max=50.000000
rprop_delta_zero=0.100000
cascade_output_stagnation_epochs=12
cascade_candidate_change_fraction=0.010000
cascade_candidate_stagnation_epochs=12
cascade_max_out_epochs=150
cascade_min_out_epochs=50
cascade_max_cand_epochs=150
cascade_min_cand_epochs=50
cascade_num_candidate_groups=2
bit_fail_limit=3.49999994039535522461e-01
cascade_candidate_limit=1.00000000000000000000e+03
cascade_weight_multiplier=4.00000005960464477539e-01
cascade_activation_functions_count=10
cascade_activation_functions=3 5 7 8 10 11 14 15 16 17 
cascade_activation_steepnesses_count=4
cascade_activation_steepnesses=2.50000000000000000000e-01 5.00000000000000000000e-01 7.50000000000000000000e-01 1.00000000000000000000e+00 
layer_sizes=10 9 3 2 
scale_included=0
neurons (num_inputs, activation_function, activation_steepness)=(0, 0, 0.00000000000000000000e+00) (0, 0, 0.00000000000000000000e+00) (0, 0, 0.00000000000000000000e+00) (0, 0, 0.00000000000000000000e+00) (0, 0, 0.00000000000000000000e+00) (0, 0, 0.00000000000000000000e+00) (0, 0, 0.00000000000000000000e+00) (0, 0, 0.00000000000000000000e+00) (0, 0, 0.00000000000000000000e+00) (0, 0, 0.00000000000000000000e+00) (10, 3, 5.00000000000000000000e-01) (10, 3, 5.00000000000000000000e-01) (10, 3, 5.00000000000000000000e-01) (10, 3, 5.00000000000000000000e-01) (10, 3, 5.00000000000000000000e-01) (10, 3, 5.00000000000000000000e-01) (10, 3, 5.00000000000000000000e-01) (10, 3, 5.00000000000000000000e-01) (0, 3, 0.00000000000000000000e+00) (9, 3, 5.00000000000000000000e-01) (9, 3, 5.00000000000000000000e-01) (0, 3, 0.00000000000000000000e+00) (3, 3, 5.00000000000000000000e-01) (0, 3, 0.00000000000000000000e+00) 
connections (connected_to_neuron, weight)=(0, -1.01615202426910400391e+00) (1, -1.69720411300659179688e+00) (2, -1.97481870651245117188e+00) (3, 4.47771966457366943359e-01) (4, -1.99917584657669067383e-01) (5, 2.40227818489074707031e+00) (6, -1.21347747743129730225e-01) (7, -1.31699645519256591797e+00) (8, 8.19602012634277343750e+00) (9, -5.17265915870666503906e-01) (0, -1.32940798997879028320e-01) (1, 2.60591697692871093750e+00) (2, 2.08159732818603515625e+00) (3, 3.00578270107507705688e-02) (4, 7.50693082809448242188e-01) (5, -4.89166069030761718750e+00) (6, -1.64719724655151367188e+00) (7, 1.38996946811676025391e+00) (8, -6.13427591323852539062e+00) (9, 1.44807326793670654297e+00) (0, 1.41373467445373535156e+00) (1, 2.21666240692138671875e+00) (2, 2.34413766860961914062e+00) (3, 3.56295973062515258789e-01) (4, 1.92225545644760131836e-01) (5, -4.93709516525268554688e+00) (6, 1.04412715882062911987e-02) (7, 2.95907109975814819336e-01) (8, -8.00461673736572265625e+00) (9, 1.25292563438415527344e+00) (0, 2.18552541732788085938e+00) (1, 3.62392711639404296875e+00) (2, 9.30093169212341308594e-01) (3, -3.94422364234924316406e+00) (4, 1.27658092975616455078e+00) (5, -2.10297897458076477051e-01) (6, -8.34861660003662109375e+00) (7, 1.55127003788948059082e-01) (8, -5.27706384658813476562e-01) (9, 1.22442996501922607422e+00) (0, 1.09988129138946533203e+00) (1, -1.76416635513305664062e+00) (2, -4.89438474178314208984e-01) (3, 2.42367267608642578125e+00) (4, -1.08240365982055664062e-01) (5, -1.05619885027408599854e-01) (6, 1.83512961864471435547e+00) (7, -1.35386914014816284180e-01) (8, 2.84788751602172851562e+00) (9, -8.92327666282653808594e-01) (0, -8.40771719813346862793e-02) (1, 3.05824565887451171875e+00) (2, 2.37930822372436523438e+00) (3, 5.87525367736816406250e-01) (4, 4.84642118215560913086e-01) (5, -4.64745140075683593750e+00) (6, -2.80910849571228027344e+00) (7, 3.62863153219223022461e-01) (8, -5.93171405792236328125e+00) (9, 1.85267043113708496094e+00) (0, 4.53939437866210937500e-01) (1, 2.52190208435058593750e+00) (2, 2.38186740875244140625e+00) (3, 7.04248070716857910156e-01) (4, 1.85788229107856750488e-01) (5, -5.09445381164550781250e+00) (6, -4.77916840463876724243e-03) (7, 2.94830054044723510742e-01) (8, -7.41415977478027343750e+00) (9, 1.21621954441070556641e+00) (0, -2.22950026392936706543e-01) (1, -1.21126674115657806396e-01) (2, 5.48047959804534912109e-01) (3, 1.86361640691757202148e-01) (4, -4.87826973199844360352e-01) (5, -2.05905008316040039062e+00) (6, -2.17057302594184875488e-01) (7, -6.61659717559814453125e+00) (8, 3.42517167329788208008e-01) (9, 2.44085103273391723633e-01) (10, 9.38294351100921630859e-01) (11, -1.52837073802947998047e+00) (12, -1.82374954223632812500e+00) (13, -7.37540578842163085938e+00) (14, 3.07043284177780151367e-01) (15, -2.69669532775878906250e+00) (16, -1.61969339847564697266e+00) (17, 1.60328216552734375000e+01) (18, 1.85811078548431396484e+00) (10, -3.34503006935119628906e+00) (11, 2.36098885536193847656e-01) (12, 4.19366693496704101562e+00) (13, 6.48734807968139648438e+00) (14, -3.90172910690307617188e+00) (15, 2.98697805404663085938e+00) (16, 7.14436149597167968750e+00) (17, -2.83664302825927734375e+01) (18, -4.07896414399147033691e-02) (19, -2.17300343513488769531e+00) (20, 1.36358189582824707031e+00) (21, -4.55961197614669799805e-01) 
