FANN_FLO_2.1
num_layers=3
learning_rate=0.400000
connection_rate=1.000000
network_type=0
learning_momentum=0.000000
training_algorithm=2
train_error_function=1
train_stop_function=0
cascade_output_change_fraction=0.010000
quickprop_decay=-0.000100
quickprop_mu=1.750000
rprop_increase_factor=1.200000
rprop_decrease_factor=0.500000
rprop_delta_min=0.000000
rprop_delta_max=50.000000
rprop_delta_zero=0.100000
cascade_output_stagnation_epochs=12
cascade_candidate_change_fraction=0.010000
cascade_candidate_stagnation_epochs=12
cascade_max_out_epochs=150
cascade_min_out_epochs=50
cascade_max_cand_epochs=150
cascade_min_cand_epochs=50
cascade_num_candidate_groups=2
bit_fail_limit=3.49999994039535522461e-01
cascade_candidate_limit=1.00000000000000000000e+03
cascade_weight_multiplier=4.00000005960464477539e-01
cascade_activation_functions_count=10
cascade_activation_functions=3 5 7 8 10 11 14 15 16 17 
cascade_activation_steepnesses_count=4
cascade_activation_steepnesses=2.50000000000000000000e-01 5.00000000000000000000e-01 7.50000000000000000000e-01 1.00000000000000000000e+00 
layer_sizes=7 5 2 
scale_included=0
neurons (num_inputs, activation_function, activation_steepness)=(0, 0, 0.00000000000000000000e+00) (0, 0, 0.00000000000000000000e+00) (0, 0, 0.00000000000000000000e+00) (0, 0, 0.00000000000000000000e+00) (0, 0, 0.00000000000000000000e+00) (0, 0, 0.00000000000000000000e+00) (0, 0, 0.00000000000000000000e+00) (7, 3, 5.00000000000000000000e-01) (7, 3, 5.00000000000000000000e-01) (7, 3, 5.00000000000000000000e-01) (7, 3, 5.00000000000000000000e-01) (0, 3, 0.00000000000000000000e+00) (5, 3, 5.00000000000000000000e-01) (0, 3, 0.00000000000000000000e+00) 
connections (connected_to_neuron, weight)=(0, 7.45451974868774414062e+00) (1, -8.31060695648193359375e+00) (2, 7.07503128051757812500e+00) (3, -1.59210884571075439453e+00) (4, -3.00290137529373168945e-01) (5, 3.79645442962646484375e+00) (6, -4.51591205596923828125e+00) (0, -5.33981323242187500000e+00) (1, 5.22668504714965820312e+00) (2, -1.19051420688629150391e+00) (3, -1.31604349613189697266e+00) (4, 4.65296894311904907227e-01) (5, -4.08659362792968750000e+00) (6, -9.33634698390960693359e-01) (0, -5.42250919342041015625e+00) (1, -9.11960303783416748047e-01) (2, 2.33717327117919921875e+01) (3, -5.69083261489868164062e+00) (4, -6.97503042221069335938e+00) (5, 3.95639419555664062500e+00) (6, 9.33340835571289062500e+00) (0, -8.66693210601806640625e+00) (1, 3.48119664192199707031e+00) (2, -7.86582088470458984375e+00) (3, 3.10756039619445800781e+00) (4, -4.32016706466674804688e+00) (5, 8.27878723144531250000e+02) (6, 5.34021520614624023438e+00) (7, -1.12858276367187500000e+01) (8, -8.86987304687500000000e+00) (9, -9.62021529674530029297e-01) (10, -4.75701957941055297852e-01) (11, 2.44932353496551513672e-01) 
