FANN_FLO_2.1
num_layers=4
learning_rate=0.500000
connection_rate=1.000000
network_type=0
learning_momentum=0.000000
training_algorithm=2
train_error_function=1
train_stop_function=0
cascade_output_change_fraction=0.010000
quickprop_decay=-0.000100
quickprop_mu=1.750000
rprop_increase_factor=1.200000
rprop_decrease_factor=0.500000
rprop_delta_min=0.000000
rprop_delta_max=50.000000
rprop_delta_zero=0.100000
cascade_output_stagnation_epochs=12
cascade_candidate_change_fraction=0.010000
cascade_candidate_stagnation_epochs=12
cascade_max_out_epochs=150
cascade_min_out_epochs=50
cascade_max_cand_epochs=150
cascade_min_cand_epochs=50
cascade_num_candidate_groups=2
bit_fail_limit=3.49999994039535522461e-01
cascade_candidate_limit=1.00000000000000000000e+03
cascade_weight_multiplier=4.00000005960464477539e-01
cascade_activation_functions_count=10
cascade_activation_functions=3 5 7 8 10 11 14 15 16 17 
cascade_activation_steepnesses_count=4
cascade_activation_steepnesses=2.50000000000000000000e-01 5.00000000000000000000e-01 7.50000000000000000000e-01 1.00000000000000000000e+00 
layer_sizes=10 5 3 2 
scale_included=0
neurons (num_inputs, activation_function, activation_steepness)=(0, 0, 0.00000000000000000000e+00) (0, 0, 0.00000000000000000000e+00) (0, 0, 0.00000000000000000000e+00) (0, 0, 0.00000000000000000000e+00) (0, 0, 0.00000000000000000000e+00) (0, 0, 0.00000000000000000000e+00) (0, 0, 0.00000000000000000000e+00) (0, 0, 0.00000000000000000000e+00) (0, 0, 0.00000000000000000000e+00) (0, 0, 0.00000000000000000000e+00) (10, 3, 5.00000000000000000000e-01) (10, 3, 5.00000000000000000000e-01) (10, 3, 5.00000000000000000000e-01) (10, 3, 5.00000000000000000000e-01) (0, 3, 0.00000000000000000000e+00) (5, 3, 5.00000000000000000000e-01) (5, 3, 5.00000000000000000000e-01) (0, 3, 0.00000000000000000000e+00) (3, 3, 5.00000000000000000000e-01) (0, 3, 0.00000000000000000000e+00) 
connections (connected_to_neuron, weight)=(0, -6.26955938339233398438e+00) (1, -1.37175463867187500000e+03) (2, -1.28526806640625000000e+03) (3, -1.23310437011718750000e+03) (4, -1.33914086914062500000e+03) (5, 1.07005871582031250000e+03) (6, 1.07911071777343750000e+03) (7, 6.64947204589843750000e+02) (8, 1.48174487304687500000e+03) (9, 2.23231163024902343750e+01) (0, 2.50646424293518066406e+00) (1, 2.54679131507873535156e+00) (2, 1.08606643676757812500e+01) (3, 1.16780209541320800781e+00) (4, 8.26327705383300781250e+00) (5, 2.77922213077545166016e-01) (6, -1.58108348846435546875e+01) (7, -4.88933706283569335938e+00) (8, -8.50627708435058593750e+00) (9, -3.28926181793212890625e+00) (0, 2.38401627540588378906e+00) (1, 1.80247592926025390625e+00) (2, 5.68918085098266601562e+00) (3, 3.16919827461242675781e+00) (4, 1.92076740264892578125e+01) (5, -2.11041393280029296875e+01) (6, -2.62412428855895996094e-02) (7, -7.15817642211914062500e+00) (8, -5.73219251632690429688e+00) (9, -2.25407528877258300781e+00) (0, -8.81517585366964340210e-03) (1, 1.63916718959808349609e+00) (2, 5.35175943374633789062e+00) (3, -5.08962154388427734375e-01) (4, 1.08693103790283203125e+01) (5, 3.04180562496185302734e-01) (6, -1.51955242156982421875e+01) (7, -6.16126346588134765625e+00) (8, -9.74618732929229736328e-01) (9, -3.48569393157958984375e+00) (10, 9.22061401367187500000e+02) (11, 8.67692947387695312500e+00) (12, 3.27195663452148437500e+01) (13, 7.10125366210937500000e+02) (14, -1.85581512451171875000e+01) (10, 7.89061401367187500000e+02) (11, -1.06236244201660156250e+02) (12, 6.09149360656738281250e+01) (13, 1.25029968261718750000e+03) (14, -1.85563011169433593750e+01) (15, 1.91938471794128417969e+00) (16, 8.50762486457824707031e-01) (17, -1.89663827419281005859e+00) 
