FANN_FLO_2.1
num_layers=4
learning_rate=0.400000
connection_rate=1.000000
network_type=0
learning_momentum=0.000000
training_algorithm=2
train_error_function=1
train_stop_function=0
cascade_output_change_fraction=0.010000
quickprop_decay=-0.000100
quickprop_mu=1.750000
rprop_increase_factor=1.200000
rprop_decrease_factor=0.500000
rprop_delta_min=0.000000
rprop_delta_max=50.000000
rprop_delta_zero=0.100000
cascade_output_stagnation_epochs=12
cascade_candidate_change_fraction=0.010000
cascade_candidate_stagnation_epochs=12
cascade_max_out_epochs=150
cascade_min_out_epochs=50
cascade_max_cand_epochs=150
cascade_min_cand_epochs=50
cascade_num_candidate_groups=2
bit_fail_limit=3.49999994039535522461e-01
cascade_candidate_limit=1.00000000000000000000e+03
cascade_weight_multiplier=4.00000005960464477539e-01
cascade_activation_functions_count=10
cascade_activation_functions=3 5 7 8 10 11 14 15 16 17 
cascade_activation_steepnesses_count=4
cascade_activation_steepnesses=2.50000000000000000000e-01 5.00000000000000000000e-01 7.50000000000000000000e-01 1.00000000000000000000e+00 
layer_sizes=7 3 3 2 
scale_included=0
neurons (num_inputs, activation_function, activation_steepness)=(0, 0, 0.00000000000000000000e+00) (0, 0, 0.00000000000000000000e+00) (0, 0, 0.00000000000000000000e+00) (0, 0, 0.00000000000000000000e+00) (0, 0, 0.00000000000000000000e+00) (0, 0, 0.00000000000000000000e+00) (0, 0, 0.00000000000000000000e+00) (7, 3, 5.00000000000000000000e-01) (7, 3, 5.00000000000000000000e-01) (0, 3, 0.00000000000000000000e+00) (3, 3, 5.00000000000000000000e-01) (3, 3, 5.00000000000000000000e-01) (0, 3, 0.00000000000000000000e+00) (3, 3, 5.00000000000000000000e-01) (0, 3, 0.00000000000000000000e+00) 
connections (connected_to_neuron, weight)=(0, -4.23205137252807617188e+00) (1, -1.43849822998046875000e+02) (2, 2.01032676696777343750e+01) (3, -2.58087341308593750000e+02) (4, -1.24453668594360351562e+01) (5, 1.88640563964843750000e+02) (6, 3.44644212722778320312e+00) (0, -5.44410228729248046875e+00) (1, -4.45411384105682373047e-01) (2, 1.81572699546813964844e+00) (3, -9.95232486724853515625e+00) (4, -3.30163574218750000000e+00) (5, 7.64078140258789062500e-01) (6, 7.48942232131958007812e+00) (7, 1.50000000000000000000e+03) (8, 1.50000000000000000000e+03) (9, 2.55437118530273437500e+02) (7, 1.50000000000000000000e+03) (8, 1.50000000000000000000e+03) (9, -6.46105880737304687500e+01) (10, -9.22533094882965087891e-01) (11, -1.39022636413574218750e+00) (12, -8.19672405719757080078e-01) 
