FANN_FLO_2.1
num_layers=4
learning_rate=0.500000
connection_rate=1.000000
network_type=0
learning_momentum=0.000000
training_algorithm=2
train_error_function=1
train_stop_function=0
cascade_output_change_fraction=0.010000
quickprop_decay=-0.000100
quickprop_mu=1.750000
rprop_increase_factor=1.200000
rprop_decrease_factor=0.500000
rprop_delta_min=0.000000
rprop_delta_max=50.000000
rprop_delta_zero=0.100000
cascade_output_stagnation_epochs=12
cascade_candidate_change_fraction=0.010000
cascade_candidate_stagnation_epochs=12
cascade_max_out_epochs=150
cascade_min_out_epochs=50
cascade_max_cand_epochs=150
cascade_min_cand_epochs=50
cascade_num_candidate_groups=2
bit_fail_limit=3.49999994039535522461e-01
cascade_candidate_limit=1.00000000000000000000e+03
cascade_weight_multiplier=4.00000005960464477539e-01
cascade_activation_functions_count=10
cascade_activation_functions=3 5 7 8 10 11 14 15 16 17 
cascade_activation_steepnesses_count=4
cascade_activation_steepnesses=2.50000000000000000000e-01 5.00000000000000000000e-01 7.50000000000000000000e-01 1.00000000000000000000e+00 
layer_sizes=10 5 3 2 
scale_included=0
neurons (num_inputs, activation_function, activation_steepness)=(0, 0, 0.00000000000000000000e+00) (0, 0, 0.00000000000000000000e+00) (0, 0, 0.00000000000000000000e+00) (0, 0, 0.00000000000000000000e+00) (0, 0, 0.00000000000000000000e+00) (0, 0, 0.00000000000000000000e+00) (0, 0, 0.00000000000000000000e+00) (0, 0, 0.00000000000000000000e+00) (0, 0, 0.00000000000000000000e+00) (0, 0, 0.00000000000000000000e+00) (10, 3, 5.00000000000000000000e-01) (10, 3, 5.00000000000000000000e-01) (10, 3, 5.00000000000000000000e-01) (10, 3, 5.00000000000000000000e-01) (0, 3, 0.00000000000000000000e+00) (5, 3, 5.00000000000000000000e-01) (5, 3, 5.00000000000000000000e-01) (0, 3, 0.00000000000000000000e+00) (3, 3, 5.00000000000000000000e-01) (0, 3, 0.00000000000000000000e+00) 
connections (connected_to_neuron, weight)=(0, -6.76761090755462646484e-01) (1, -1.32737994194030761719e-01) (2, 1.26367359161376953125e+01) (3, 3.80085766315460205078e-01) (4, -1.17633371353149414062e+01) (5, -5.84476470947265625000e-01) (6, 6.20948982238769531250e+00) (7, 8.00614166259765625000e+00) (8, 2.88800191879272460938e+00) (9, -3.71833324432373046875e+00) (0, -4.16620683670043945312e+00) (1, -4.69493389129638671875e+00) (2, -5.05408287048339843750e-01) (3, 7.66875743865966796875e-01) (4, 4.08819198608398437500e-01) (5, 4.82187181711196899414e-01) (6, 1.46877250671386718750e+01) (7, 2.61018896102905273438e+00) (8, 1.39609074592590332031e+00) (9, -5.01669406890869140625e+00) (0, 1.01087665557861328125e+01) (1, -1.14554885864257812500e+02) (2, 1.47197131347656250000e+03) (3, 4.99190300703048706055e-01) (4, -8.27652954101562500000e+02) (5, -4.67543542385101318359e-01) (6, -2.42563461303710937500e+02) (7, 5.86196231842041015625e+00) (8, 1.08960318565368652344e+00) (9, -1.83163928985595703125e+00) (0, -2.89310956001281738281e+00) (1, -6.22391510009765625000e+00) (2, 4.27455753087997436523e-01) (3, 6.98897421360015869141e-01) (4, -2.59559822082519531250e+00) (5, -4.39768940210342407227e-01) (6, 1.85526351928710937500e+01) (7, 1.57136690616607666016e+00) (8, -4.94919985532760620117e-01) (9, -1.73965609073638916016e+00) (10, 2.06138563156127929688e+00) (11, 1.98091673851013183594e+00) (12, 1.89334893226623535156e+00) (13, -1.64739437103271484375e+01) (14, 9.53261375427246093750e+00) (10, -1.96155464649200439453e+00) (11, -8.87560844421386718750e+00) (12, -4.50494796037673950195e-01) (13, -9.56231784820556640625e+00) (14, 9.56749439239501953125e+00) (15, -4.64605522155761718750e+00) (16, 4.54372739791870117188e+00) (17, 9.00931298732757568359e-01) 
