FANN_FLO_2.1
num_layers=4
learning_rate=0.500000
connection_rate=1.000000
network_type=0
learning_momentum=0.000000
training_algorithm=2
train_error_function=1
train_stop_function=0
cascade_output_change_fraction=0.010000
quickprop_decay=-0.000100
quickprop_mu=1.750000
rprop_increase_factor=1.200000
rprop_decrease_factor=0.500000
rprop_delta_min=0.000000
rprop_delta_max=50.000000
rprop_delta_zero=0.100000
cascade_output_stagnation_epochs=12
cascade_candidate_change_fraction=0.010000
cascade_candidate_stagnation_epochs=12
cascade_max_out_epochs=150
cascade_min_out_epochs=50
cascade_max_cand_epochs=150
cascade_min_cand_epochs=50
cascade_num_candidate_groups=2
bit_fail_limit=3.49999994039535522461e-01
cascade_candidate_limit=1.00000000000000000000e+03
cascade_weight_multiplier=4.00000005960464477539e-01
cascade_activation_functions_count=10
cascade_activation_functions=3 5 7 8 10 11 14 15 16 17 
cascade_activation_steepnesses_count=4
cascade_activation_steepnesses=2.50000000000000000000e-01 5.00000000000000000000e-01 7.50000000000000000000e-01 1.00000000000000000000e+00 
layer_sizes=2 5 3 3 
scale_included=0
neurons (num_inputs, activation_function, activation_steepness)=(0, 0, 0.00000000000000000000e+00) (0, 0, 0.00000000000000000000e+00) (2, 3, 5.00000000000000000000e-01) (2, 3, 5.00000000000000000000e-01) (2, 3, 5.00000000000000000000e-01) (2, 3, 5.00000000000000000000e-01) (0, 3, 0.00000000000000000000e+00) (5, 3, 5.00000000000000000000e-01) (5, 3, 5.00000000000000000000e-01) (0, 3, 0.00000000000000000000e+00) (3, 0, 5.00000000000000000000e-01) (3, 0, 5.00000000000000000000e-01) (0, 0, 0.00000000000000000000e+00) 
connections (connected_to_neuron, weight)=(0, 7.69172515869140625000e+01) (1, -2.63985180854797363281e+00) (0, 1.85459938049316406250e+01) (1, -2.28392052650451660156e+00) (0, 1.46319351196289062500e+01) (1, -5.35514402389526367188e+00) (0, 6.71329116821289062500e+01) (1, -7.34476613998413085938e+00) (2, 9.59974169731140136719e-01) (3, 1.82253384590148925781e+00) (4, 6.54457235336303710938e+00) (5, 2.17567443847656250000e-01) (6, -2.73616480827331542969e+00) (2, 8.58891487121582031250e-01) (3, -1.95325538516044616699e-01) (4, -3.46914196014404296875e+00) (5, 9.26927030086517333984e-01) (6, 6.66431725025177001953e-01) (7, -1.81918072700500488281e+00) (8, -4.04931926727294921875e+00) (9, 2.82275390625000000000e+00) (7, -3.58160924911499023438e+00) (8, 2.33638501167297363281e+00) (9, 7.14593827724456787109e-01) 
