FANN_FLO_2.1
num_layers=4
learning_rate=0.500000
connection_rate=1.000000
network_type=0
learning_momentum=0.000000
training_algorithm=2
train_error_function=1
train_stop_function=0
cascade_output_change_fraction=0.010000
quickprop_decay=-0.000100
quickprop_mu=1.750000
rprop_increase_factor=1.200000
rprop_decrease_factor=0.500000
rprop_delta_min=0.000000
rprop_delta_max=50.000000
rprop_delta_zero=0.100000
cascade_output_stagnation_epochs=12
cascade_candidate_change_fraction=0.010000
cascade_candidate_stagnation_epochs=12
cascade_max_out_epochs=150
cascade_min_out_epochs=50
cascade_max_cand_epochs=150
cascade_min_cand_epochs=50
cascade_num_candidate_groups=2
bit_fail_limit=3.49999994039535522461e-01
cascade_candidate_limit=1.00000000000000000000e+03
cascade_weight_multiplier=4.00000005960464477539e-01
cascade_activation_functions_count=10
cascade_activation_functions=3 5 7 8 10 11 14 15 16 17 
cascade_activation_steepnesses_count=4
cascade_activation_steepnesses=2.50000000000000000000e-01 5.00000000000000000000e-01 7.50000000000000000000e-01 1.00000000000000000000e+00 
layer_sizes=10 5 5 2 
scale_included=0
neurons (num_inputs, activation_function, activation_steepness)=(0, 0, 0.00000000000000000000e+00) (0, 0, 0.00000000000000000000e+00) (0, 0, 0.00000000000000000000e+00) (0, 0, 0.00000000000000000000e+00) (0, 0, 0.00000000000000000000e+00) (0, 0, 0.00000000000000000000e+00) (0, 0, 0.00000000000000000000e+00) (0, 0, 0.00000000000000000000e+00) (0, 0, 0.00000000000000000000e+00) (0, 0, 0.00000000000000000000e+00) (10, 3, 5.00000000000000000000e-01) (10, 3, 5.00000000000000000000e-01) (10, 3, 5.00000000000000000000e-01) (10, 3, 5.00000000000000000000e-01) (0, 3, 0.00000000000000000000e+00) (5, 3, 5.00000000000000000000e-01) (5, 3, 5.00000000000000000000e-01) (5, 3, 5.00000000000000000000e-01) (5, 3, 5.00000000000000000000e-01) (0, 3, 0.00000000000000000000e+00) (5, 3, 5.00000000000000000000e-01) (0, 3, 0.00000000000000000000e+00) 
connections (connected_to_neuron, weight)=(0, -1.73538913726806640625e+01) (1, 3.44798851013183593750e+01) (2, -1.03139257431030273438e+01) (3, 2.39787559509277343750e+01) (4, 1.56070957183837890625e+01) (5, 3.19051551818847656250e+00) (6, -3.12478218078613281250e+01) (7, -2.15944156646728515625e+01) (8, -3.43230628967285156250e+00) (9, 8.22847366333007812500e-01) (0, -1.49998339843750000000e+03) (1, -1.49977026367187500000e+03) (2, -1.44800000000000000000e+03) (3, -5.90097732543945312500e+01) (4, 2.53651943206787109375e+01) (5, 3.93390595912933349609e-01) (6, -1.38716357421875000000e+03) (7, -3.87341003417968750000e+01) (8, -6.18134832382202148438e+00) (9, 8.26273441314697265625e+00) (0, 1.24041929244995117188e+01) (1, 2.88608050346374511719e+00) (2, 1.87532627582550048828e+00) (3, -7.52513742446899414062e+00) (4, 1.54968204498291015625e+01) (5, -7.10143029689788818359e-01) (6, -1.51111354827880859375e+01) (7, -8.44238948822021484375e+00) (8, -1.31802034378051757812e+00) (9, -4.85791355371475219727e-01) (0, -5.42482912540435791016e-01) (1, -3.47249448299407958984e-01) (2, -1.30689802169799804688e+01) (3, -3.08080911636352539062e+00) (4, 3.35872554779052734375e+00) (5, 4.56768013536930084229e-02) (6, -2.70064330101013183594e+00) (7, 1.86996400356292724609e-01) (8, -2.30933237075805664062e+00) (9, 9.26668226718902587891e-01) (10, -1.50040075182914733887e-01) (11, -5.59169982910156250000e+02) (12, 9.60861492156982421875e+00) (13, 3.24737739562988281250e+01) (14, -5.42757987976074218750e+00) (10, -5.30325695872306823730e-02) (11, -5.34732543945312500000e+02) (12, 1.05529251098632812500e+01) (13, 3.25440101623535156250e+01) (14, -6.00356245040893554688e+00) (10, -1.44799752160906791687e-03) (11, -5.53631408691406250000e+02) (12, 8.72249031066894531250e+00) (13, 3.34345321655273437500e+01) (14, -4.89609766006469726562e+00) (10, 1.50000000000000000000e+03) (11, 2.09272975921630859375e+01) (12, 6.22028112411499023438e-01) (13, 1.77756099700927734375e+01) (14, -1.03210922241210937500e+02) (15, 5.71906208992004394531e-01) (16, 1.04424738883972167969e+00) (17, 7.19649195671081542969e-01) (18, -1.42308866977691650391e+00) (19, -1.82542745023965835571e-02) 
