FANN_FLO_2.1
num_layers=4
learning_rate=0.500000
connection_rate=1.000000
network_type=0
learning_momentum=0.000000
training_algorithm=2
train_error_function=1
train_stop_function=0
cascade_output_change_fraction=0.010000
quickprop_decay=-0.000100
quickprop_mu=1.750000
rprop_increase_factor=1.200000
rprop_decrease_factor=0.500000
rprop_delta_min=0.000000
rprop_delta_max=50.000000
rprop_delta_zero=0.100000
cascade_output_stagnation_epochs=12
cascade_candidate_change_fraction=0.010000
cascade_candidate_stagnation_epochs=12
cascade_max_out_epochs=150
cascade_min_out_epochs=50
cascade_max_cand_epochs=150
cascade_min_cand_epochs=50
cascade_num_candidate_groups=2
bit_fail_limit=3.49999994039535522461e-01
cascade_candidate_limit=1.00000000000000000000e+03
cascade_weight_multiplier=4.00000005960464477539e-01
cascade_activation_functions_count=10
cascade_activation_functions=3 5 7 8 10 11 14 15 16 17 
cascade_activation_steepnesses_count=4
cascade_activation_steepnesses=2.50000000000000000000e-01 5.00000000000000000000e-01 7.50000000000000000000e-01 1.00000000000000000000e+00 
layer_sizes=2 5 5 3 
scale_included=0
neurons (num_inputs, activation_function, activation_steepness)=(0, 0, 0.00000000000000000000e+00) (0, 0, 0.00000000000000000000e+00) (2, 3, 5.00000000000000000000e-01) (2, 3, 5.00000000000000000000e-01) (2, 3, 5.00000000000000000000e-01) (2, 3, 5.00000000000000000000e-01) (0, 3, 0.00000000000000000000e+00) (5, 3, 5.00000000000000000000e-01) (5, 3, 5.00000000000000000000e-01) (5, 3, 5.00000000000000000000e-01) (5, 3, 5.00000000000000000000e-01) (0, 3, 0.00000000000000000000e+00) (5, 0, 5.00000000000000000000e-01) (5, 0, 5.00000000000000000000e-01) (0, 0, 0.00000000000000000000e+00) 
connections (connected_to_neuron, weight)=(0, 5.32299518585205078125e+00) (1, -4.32277888059616088867e-01) (0, -2.81732349395751953125e+01) (1, 1.17547693252563476562e+01) (0, 5.30316162109375000000e+02) (1, 1.02310791015625000000e+01) (0, 6.65922451019287109375e+00) (1, -1.14268016815185546875e+00) (2, -3.83801198005676269531e+00) (3, 6.36423730850219726562e+00) (4, -1.34938657283782958984e+00) (5, -4.20190483331680297852e-01) (6, -4.11336362361907958984e-01) (2, 3.97730708122253417969e+00) (3, -4.56962089538574218750e+01) (4, 4.47448120117187500000e+01) (5, 5.53889703750610351562e+00) (6, -2.90692663192749023438e+00) (2, -3.76538276672363281250e+01) (3, 3.61823081970214843750e+01) (4, -2.93426275253295898438e+00) (5, -8.98418998718261718750e+00) (6, -5.80545604228973388672e-01) (2, 7.81172141432762145996e-02) (3, -9.64299499511718750000e+02) (4, 9.25910797119140625000e+01) (5, 2.13795706629753112793e-01) (6, 3.16750793457031250000e+01) (7, -1.49799144268035888672e+00) (8, -3.46803998947143554688e+00) (9, -3.64406675100326538086e-01) (10, 4.45142412185668945312e+00) (11, 2.69202566146850585938e+00) (7, 1.52126598358154296875e+00) (8, -1.90872716903686523438e+00) (9, 1.19791626930236816406e+00) (10, -4.55132365226745605469e-01) (11, -4.13244664669036865234e-02) 
