FANN_FLO_2.1
num_layers=3
learning_rate=0.400000
connection_rate=1.000000
network_type=0
learning_momentum=0.000000
training_algorithm=2
train_error_function=1
train_stop_function=0
cascade_output_change_fraction=0.010000
quickprop_decay=-0.000100
quickprop_mu=1.750000
rprop_increase_factor=1.200000
rprop_decrease_factor=0.500000
rprop_delta_min=0.000000
rprop_delta_max=50.000000
rprop_delta_zero=0.100000
cascade_output_stagnation_epochs=12
cascade_candidate_change_fraction=0.010000
cascade_candidate_stagnation_epochs=12
cascade_max_out_epochs=150
cascade_min_out_epochs=50
cascade_max_cand_epochs=150
cascade_min_cand_epochs=50
cascade_num_candidate_groups=2
bit_fail_limit=3.49999994039535522461e-01
cascade_candidate_limit=1.00000000000000000000e+03
cascade_weight_multiplier=4.00000005960464477539e-01
cascade_activation_functions_count=10
cascade_activation_functions=3 5 7 8 10 11 14 15 16 17 
cascade_activation_steepnesses_count=4
cascade_activation_steepnesses=2.50000000000000000000e-01 5.00000000000000000000e-01 7.50000000000000000000e-01 1.00000000000000000000e+00 
layer_sizes=19 3 3 
scale_included=0
neurons (num_inputs, activation_function, activation_steepness)=(0, 0, 0.00000000000000000000e+00) (0, 0, 0.00000000000000000000e+00) (0, 0, 0.00000000000000000000e+00) (0, 0, 0.00000000000000000000e+00) (0, 0, 0.00000000000000000000e+00) (0, 0, 0.00000000000000000000e+00) (0, 0, 0.00000000000000000000e+00) (0, 0, 0.00000000000000000000e+00) (0, 0, 0.00000000000000000000e+00) (0, 0, 0.00000000000000000000e+00) (0, 0, 0.00000000000000000000e+00) (0, 0, 0.00000000000000000000e+00) (0, 0, 0.00000000000000000000e+00) (0, 0, 0.00000000000000000000e+00) (0, 0, 0.00000000000000000000e+00) (0, 0, 0.00000000000000000000e+00) (0, 0, 0.00000000000000000000e+00) (0, 0, 0.00000000000000000000e+00) (0, 0, 0.00000000000000000000e+00) (19, 3, 5.00000000000000000000e-01) (19, 3, 5.00000000000000000000e-01) (0, 3, 0.00000000000000000000e+00) (3, 3, 5.00000000000000000000e-01) (3, 3, 5.00000000000000000000e-01) (0, 3, 0.00000000000000000000e+00) 
connections (connected_to_neuron, weight)=(0, 2.81678509712219238281e+00) (1, 1.46920716762542724609e+00) (2, -8.46544361114501953125e+00) (3, 2.00908064842224121094e+00) (4, 7.75887060165405273438e+00) (5, 7.84270858764648437500e+00) (6, 1.64779329299926757812e+00) (7, -1.46870505809783935547e+00) (8, -2.32608065009117126465e-01) (9, 1.02252082824707031250e+01) (10, -8.55479955673217773438e-01) (11, -1.04568791389465332031e+00) (12, -9.84607219696044921875e+00) (13, 6.17106580734252929688e+00) (14, 1.29868545532226562500e+01) (15, 1.00984945297241210938e+01) (16, -3.25140237808227539062e-01) (17, -9.14557266235351562500e+00) (18, -8.04645633697509765625e+00) (0, -5.96564292907714843750e+00) (1, -8.14340114593505859375e+00) (2, -4.67434453964233398438e+00) (3, -7.58738613128662109375e+00) (4, 6.44385516643524169922e-02) (5, 2.95229697227478027344e+00) (6, -1.06720559298992156982e-01) (7, 7.45621919631958007812e+00) (8, 1.21559476852416992188e+01) (9, -6.58076167106628417969e-01) (10, 4.92318201065063476562e+00) (11, -1.66394138336181640625e+00) (12, 1.12693300247192382812e+01) (13, -8.42945575714111328125e+00) (14, -2.36595649719238281250e+01) (15, 4.18875265121459960938e+00) (16, 1.83880925178527832031e+00) (17, 2.92596282958984375000e+01) (18, 3.26397275924682617188e+00) (19, -9.90181267261505126953e-01) (20, -7.31903672218322753906e-01) (21, 8.32839548587799072266e-01) (19, 9.90246653556823730469e-01) (20, 7.32241570949554443359e-01) (21, -8.33673119544982910156e-01) 
