FANN_FLO_2.1
num_layers=4
learning_rate=0.500000
connection_rate=1.000000
network_type=0
learning_momentum=0.000000
training_algorithm=2
train_error_function=1
train_stop_function=0
cascade_output_change_fraction=0.010000
quickprop_decay=-0.000100
quickprop_mu=1.750000
rprop_increase_factor=1.200000
rprop_decrease_factor=0.500000
rprop_delta_min=0.000000
rprop_delta_max=50.000000
rprop_delta_zero=0.100000
cascade_output_stagnation_epochs=12
cascade_candidate_change_fraction=0.010000
cascade_candidate_stagnation_epochs=12
cascade_max_out_epochs=150
cascade_min_out_epochs=50
cascade_max_cand_epochs=150
cascade_min_cand_epochs=50
cascade_num_candidate_groups=2
bit_fail_limit=3.49999994039535522461e-01
cascade_candidate_limit=1.00000000000000000000e+03
cascade_weight_multiplier=4.00000005960464477539e-01
cascade_activation_functions_count=10
cascade_activation_functions=3 5 7 8 10 11 14 15 16 17 
cascade_activation_steepnesses_count=4
cascade_activation_steepnesses=2.50000000000000000000e-01 5.00000000000000000000e-01 7.50000000000000000000e-01 1.00000000000000000000e+00 
layer_sizes=10 9 3 2 
scale_included=0
neurons (num_inputs, activation_function, activation_steepness)=(0, 0, 0.00000000000000000000e+00) (0, 0, 0.00000000000000000000e+00) (0, 0, 0.00000000000000000000e+00) (0, 0, 0.00000000000000000000e+00) (0, 0, 0.00000000000000000000e+00) (0, 0, 0.00000000000000000000e+00) (0, 0, 0.00000000000000000000e+00) (0, 0, 0.00000000000000000000e+00) (0, 0, 0.00000000000000000000e+00) (0, 0, 0.00000000000000000000e+00) (10, 3, 5.00000000000000000000e-01) (10, 3, 5.00000000000000000000e-01) (10, 3, 5.00000000000000000000e-01) (10, 3, 5.00000000000000000000e-01) (10, 3, 5.00000000000000000000e-01) (10, 3, 5.00000000000000000000e-01) (10, 3, 5.00000000000000000000e-01) (10, 3, 5.00000000000000000000e-01) (0, 3, 0.00000000000000000000e+00) (9, 3, 5.00000000000000000000e-01) (9, 3, 5.00000000000000000000e-01) (0, 3, 0.00000000000000000000e+00) (3, 3, 5.00000000000000000000e-01) (0, 3, 0.00000000000000000000e+00) 
connections (connected_to_neuron, weight)=(0, 1.30240144729614257812e+01) (1, 2.49694871902465820312e+00) (2, 2.18436050415039062500e+00) (3, 1.78180694580078125000e+00) (4, 3.32194183349609375000e+02) (5, -2.13486170768737792969e+00) (6, -1.81844924926757812500e+02) (7, -3.81513535976409912109e-01) (8, 5.02075493335723876953e-01) (9, -4.28093373775482177734e-01) (0, 7.01374084472656250000e+02) (1, 1.38039465332031250000e+03) (2, 1.25254321289062500000e+03) (3, 1.46070703125000000000e+03) (4, -4.41326111555099487305e-01) (5, -1.39622616767883300781e+00) (6, 1.49902197265625000000e+03) (7, -8.16067981719970703125e+00) (8, -7.80390620231628417969e-01) (9, -9.81089115142822265625e-01) (0, -7.13943557739257812500e+01) (1, -9.32805053710937500000e+02) (2, -4.99831359863281250000e+02) (3, -4.63233661651611328125e+00) (4, -4.14407463073730468750e+01) (5, 4.33730133056640625000e+02) (6, -1.47155664062500000000e+03) (7, 1.26183190917968750000e+03) (8, 5.96404846191406250000e+02) (9, -6.46392643451690673828e-01) (0, 1.30948822021484375000e+02) (1, 1.38080566406250000000e+03) (2, 1.25291857910156250000e+03) (3, 1.23372253417968750000e+03) (4, -4.00758743286132812500e-01) (5, -2.80122661590576171875e+00) (6, 1.49902197265625000000e+03) (7, -1.61137008666992187500e+00) (8, 1.13540244102478027344e+00) (9, -3.44178617000579833984e-01) (0, 7.03484436035156250000e+02) (1, 1.38101843261718750000e+03) (2, 1.25352014160156250000e+03) (3, 1.37733068847656250000e+03) (4, -2.09867693483829498291e-02) (5, 1.38455128669738769531e+00) (6, 1.49902197265625000000e+03) (7, -6.83461952209472656250e+00) (8, 8.86460319161415100098e-02) (9, -4.13641035556793212891e-01) (0, 3.01741085052490234375e+01) (1, 3.52384114265441894531e+00) (2, -3.87904815673828125000e+01) (3, 2.37981820106506347656e+00) (4, 8.60711765289306640625e+00) (5, -4.67996031045913696289e-01) (6, -6.85176773071289062500e+01) (7, 3.36034774780273437500e+01) (8, 2.58585286140441894531e+00) (9, 2.28996706008911132812e+00) (0, 7.03528320312500000000e+02) (1, 1.38038256835937500000e+03) (2, 1.25291857910156250000e+03) (3, 8.11620971679687500000e+02) (4, -4.40634632110595703125e+00) (5, 6.83286190032958984375e-01) (6, 1.49902197265625000000e+03) (7, -2.79616127014160156250e+01) (8, 4.54446732997894287109e-01) (9, -5.03667652606964111328e-01) (0, 1.42759002685546875000e+02) (1, -5.79139221191406250000e+02) (2, -4.52947113037109375000e+02) (3, 1.13440132141113281250e+00) (4, 1.22954437255859375000e+02) (5, 2.46239776611328125000e+01) (6, -1.94994873046875000000e+02) (7, 1.40198352050781250000e+03) (8, 1.00328207015991210938e+01) (9, 3.36722040176391601562e+00) (10, 1.32440563964843750000e+03) (11, -1.63405639648437500000e+02) (12, 8.32632873535156250000e+02) (13, -1.96041244506835937500e+02) (14, -2.95069396972656250000e+02) (15, 8.99549560546875000000e+02) (16, -1.63405639648437500000e+02) (17, -1.33332250976562500000e+03) (18, -1.62879240512847900391e+00) (10, 8.92208456993103027344e-01) (11, -2.71874022483825683594e+00) (12, 7.29370727539062500000e+02) (13, -2.34652370214462280273e-01) (14, 1.79728615283966064453e+00) (15, -3.13523006439208984375e+00) (16, 1.75909101963043212891e-01) (17, -7.45339155197143554688e+00) (18, 9.83616828918457031250e+00) (19, 1.57848906517028808594e+00) (20, 9.66619670391082763672e-01) (21, -1.65777266025543212891e+00) 
