FANN_FLO_2.1
num_layers=3
learning_rate=0.400000
connection_rate=1.000000
network_type=0
learning_momentum=0.000000
training_algorithm=2
train_error_function=1
train_stop_function=0
cascade_output_change_fraction=0.010000
quickprop_decay=-0.000100
quickprop_mu=1.750000
rprop_increase_factor=1.200000
rprop_decrease_factor=0.500000
rprop_delta_min=0.000000
rprop_delta_max=50.000000
rprop_delta_zero=0.100000
cascade_output_stagnation_epochs=12
cascade_candidate_change_fraction=0.010000
cascade_candidate_stagnation_epochs=12
cascade_max_out_epochs=150
cascade_min_out_epochs=50
cascade_max_cand_epochs=150
cascade_min_cand_epochs=50
cascade_num_candidate_groups=2
bit_fail_limit=3.49999994039535522461e-01
cascade_candidate_limit=1.00000000000000000000e+03
cascade_weight_multiplier=4.00000005960464477539e-01
cascade_activation_functions_count=10
cascade_activation_functions=3 5 7 8 10 11 14 15 16 17 
cascade_activation_steepnesses_count=4
cascade_activation_steepnesses=2.50000000000000000000e-01 5.00000000000000000000e-01 7.50000000000000000000e-01 1.00000000000000000000e+00 
layer_sizes=65 3 65 
scale_included=0
neurons (num_inputs, activation_function, activation_steepness)=(0, 0, 0.00000000000000000000e+00) (0, 0, 0.00000000000000000000e+00) (0, 0, 0.00000000000000000000e+00) (0, 0, 0.00000000000000000000e+00) (0, 0, 0.00000000000000000000e+00) (0, 0, 0.00000000000000000000e+00) (0, 0, 0.00000000000000000000e+00) (0, 0, 0.00000000000000000000e+00) (0, 0, 0.00000000000000000000e+00) (0, 0, 0.00000000000000000000e+00) (0, 0, 0.00000000000000000000e+00) (0, 0, 0.00000000000000000000e+00) (0, 0, 0.00000000000000000000e+00) (0, 0, 0.00000000000000000000e+00) (0, 0, 0.00000000000000000000e+00) (0, 0, 0.00000000000000000000e+00) (0, 0, 0.00000000000000000000e+00) (0, 0, 0.00000000000000000000e+00) (0, 0, 0.00000000000000000000e+00) (0, 0, 0.00000000000000000000e+00) (0, 0, 0.00000000000000000000e+00) (0, 0, 0.00000000000000000000e+00) (0, 0, 0.00000000000000000000e+00) (0, 0, 0.00000000000000000000e+00) (0, 0, 0.00000000000000000000e+00) (0, 0, 0.00000000000000000000e+00) (0, 0, 0.00000000000000000000e+00) (0, 0, 0.00000000000000000000e+00) (0, 0, 0.00000000000000000000e+00) (0, 0, 0.00000000000000000000e+00) (0, 0, 0.00000000000000000000e+00) (0, 0, 0.00000000000000000000e+00) (0, 0, 0.00000000000000000000e+00) (0, 0, 0.00000000000000000000e+00) (0, 0, 0.00000000000000000000e+00) (0, 0, 0.00000000000000000000e+00) (0, 0, 0.00000000000000000000e+00) (0, 0, 0.00000000000000000000e+00) (0, 0, 0.00000000000000000000e+00) (0, 0, 0.00000000000000000000e+00) (0, 0, 0.00000000000000000000e+00) (0, 0, 0.00000000000000000000e+00) (0, 0, 0.00000000000000000000e+00) (0, 0, 0.00000000000000000000e+00) (0, 0, 0.00000000000000000000e+00) (0, 0, 0.00000000000000000000e+00) (0, 0, 0.00000000000000000000e+00) (0, 0, 0.00000000000000000000e+00) (0, 0, 0.00000000000000000000e+00) (0, 0, 0.00000000000000000000e+00) (0, 0, 0.00000000000000000000e+00) (0, 0, 0.00000000000000000000e+00) (0, 0, 0.00000000000000000000e+00) (0, 0, 0.00000000000000000000e+00) (0, 0, 0.00000000000000000000e+00) (0, 0, 0.00000000000000000000e+00) (0, 0, 0.00000000000000000000e+00) (0, 0, 0.00000000000000000000e+00) (0, 0, 0.00000000000000000000e+00) (0, 0, 0.00000000000000000000e+00) (0, 0, 0.00000000000000000000e+00) (0, 0, 0.00000000000000000000e+00) (0, 0, 0.00000000000000000000e+00) (0, 0, 0.00000000000000000000e+00) (0, 0, 0.00000000000000000000e+00) (65, 3, 5.00000000000000000000e-01) (65, 3, 5.00000000000000000000e-01) (0, 3, 0.00000000000000000000e+00) (3, 5, 5.00000000000000000000e-01) (3, 5, 5.00000000000000000000e-01) (3, 5, 5.00000000000000000000e-01) (3, 5, 5.00000000000000000000e-01) (3, 5, 5.00000000000000000000e-01) (3, 5, 5.00000000000000000000e-01) (3, 5, 5.00000000000000000000e-01) (3, 5, 5.00000000000000000000e-01) (3, 5, 5.00000000000000000000e-01) (3, 5, 5.00000000000000000000e-01) (3, 5, 5.00000000000000000000e-01) (3, 5, 5.00000000000000000000e-01) (3, 5, 5.00000000000000000000e-01) (3, 5, 5.00000000000000000000e-01) (3, 5, 5.00000000000000000000e-01) (3, 5, 5.00000000000000000000e-01) (3, 5, 5.00000000000000000000e-01) (3, 5, 5.00000000000000000000e-01) (3, 5, 5.00000000000000000000e-01) (3, 5, 5.00000000000000000000e-01) (3, 5, 5.00000000000000000000e-01) (3, 5, 5.00000000000000000000e-01) (3, 5, 5.00000000000000000000e-01) (3, 5, 5.00000000000000000000e-01) (3, 5, 5.00000000000000000000e-01) (3, 5, 5.00000000000000000000e-01) (3, 5, 5.00000000000000000000e-01) (3, 5, 5.00000000000000000000e-01) (3, 5, 5.00000000000000000000e-01) (3, 5, 5.00000000000000000000e-01) (3, 5, 5.00000000000000000000e-01) (3, 5, 5.00000000000000000000e-01) (3, 5, 5.00000000000000000000e-01) (3, 5, 5.00000000000000000000e-01) (3, 5, 5.00000000000000000000e-01) (3, 5, 5.00000000000000000000e-01) (3, 5, 5.00000000000000000000e-01) (3, 5, 5.00000000000000000000e-01) (3, 5, 5.00000000000000000000e-01) (3, 5, 5.00000000000000000000e-01) (3, 5, 5.00000000000000000000e-01) (3, 5, 5.00000000000000000000e-01) (3, 5, 5.00000000000000000000e-01) (3, 5, 5.00000000000000000000e-01) (3, 5, 5.00000000000000000000e-01) (3, 5, 5.00000000000000000000e-01) (3, 5, 5.00000000000000000000e-01) (3, 5, 5.00000000000000000000e-01) (3, 5, 5.00000000000000000000e-01) (3, 5, 5.00000000000000000000e-01) (3, 5, 5.00000000000000000000e-01) (3, 5, 5.00000000000000000000e-01) (3, 5, 5.00000000000000000000e-01) (3, 5, 5.00000000000000000000e-01) (3, 5, 5.00000000000000000000e-01) (3, 5, 5.00000000000000000000e-01) (3, 5, 5.00000000000000000000e-01) (3, 5, 5.00000000000000000000e-01) (3, 5, 5.00000000000000000000e-01) (3, 5, 5.00000000000000000000e-01) (3, 5, 5.00000000000000000000e-01) (3, 5, 5.00000000000000000000e-01) (3, 5, 5.00000000000000000000e-01) (3, 5, 5.00000000000000000000e-01) (0, 5, 0.00000000000000000000e+00) 
connections (connected_to_neuron, weight)=(0, 4.47257846593856811523e-01) (1, -5.20432829856872558594e-01) (2, -3.91744881868362426758e-01) (3, -4.88668203353881835938e-01) (4, -4.27570044994354248047e-01) (5, 3.59919905662536621094e+00) (6, 2.63768625259399414062e+00) (7, 6.41229248046875000000e+00) (8, -4.69293951988220214844e-01) (9, -3.60598891973495483398e-01) (10, -4.57192778587341308594e-01) (11, -5.56711733341217041016e-01) (12, 4.55439567565917968750e-01) (13, 4.35898733139038085938e+00) (14, 1.48939752578735351562e+00) (15, 6.55165958404541015625e+00) (16, -4.89678323268890380859e-01) (17, -4.72276926040649414062e-01) (18, -6.34218156337738037109e-01) (19, -4.92785483598709106445e-01) (20, -5.43166577816009521484e-01) (21, 8.69534984230995178223e-02) (22, 7.75666773319244384766e-01) (23, 1.68618831634521484375e+01) (24, -7.07416653633117675781e-01) (25, -4.33279424905776977539e-01) (26, -5.42925059795379638672e-01) (27, -4.55299407243728637695e-01) (28, -3.39842140674591064453e-01) (29, -2.81382948160171508789e-01) (30, 2.06636160612106323242e-01) (31, 4.73446235656738281250e+01) (32, -4.47506070137023925781e-01) (33, -6.64611995220184326172e-01) (34, -5.83587288856506347656e-01) (35, -6.29369318485260009766e-01) (36, -3.57289493083953857422e-01) (37, -3.41122537851333618164e-01) (38, 5.45787572860717773438e-01) (39, 6.77641296386718750000e+01) (40, -3.53072690963745117188e+00) (41, -9.77817416191101074219e-01) (42, -7.36768066883087158203e-01) (43, -5.47307312488555908203e-01) (44, -6.53688013553619384766e-01) (45, -2.38041400909423828125e-01) (46, 2.33165919780731201172e-02) (47, 2.59688701629638671875e+01) (48, -3.57379913330078125000e+01) (49, -5.88910520076751708984e-01) (50, -9.54884350299835205078e-01) (51, -3.43400502204895019531e+00) (52, -3.83034586906433105469e+00) (53, -8.03124964237213134766e-01) (54, -5.60763180255889892578e-01) (55, 2.47285938262939453125e+01) (56, -6.05591249465942382812e+00) (57, -2.72956733703613281250e+01) (58, -5.23496551513671875000e+01) (59, -8.15601921081542968750e+00) (60, -2.94518303871154785156e+00) (61, -9.97366714477539062500e+00) (62, -2.21889438629150390625e+01) (63, 5.80463066101074218750e+01) (64, -4.13831253051757812500e+01) (0, 2.38287951797246932983e-02) (1, 5.88254220783710479736e-02) (2, 1.29346534609794616699e-01) (3, -6.94928914308547973633e-02) (4, 4.41404543817043304443e-02) (5, 6.17827884852886199951e-02) (6, 6.06027804315090179443e-02) (7, 1.41013264656066894531e-01) (8, 2.66573995351791381836e-01) (9, 4.01383899152278900146e-02) (10, -2.75936722755432128906e-01) (11, 7.63377696275711059570e-02) (12, 1.26333937048912048340e-01) (13, 1.64221376180648803711e-01) (14, 1.12862169742584228516e-01) (15, 3.73584836721420288086e-01) (16, 1.57685235142707824707e-01) (17, 4.68346588313579559326e-02) (18, 3.71176414191722869873e-02) (19, 1.14363040775060653687e-02) (20, 9.89032611250877380371e-02) (21, 4.32766564190387725830e-02) (22, 1.75647079944610595703e-01) (23, -7.33908474445343017578e-01) (24, -6.49994388222694396973e-02) (25, 1.44233167171478271484e-01) (26, -1.45057160407304763794e-02) (27, 2.53279171884059906006e-02) (28, 1.01044513285160064697e-01) (29, 7.05576315522193908691e-02) (30, 6.34866654872894287109e-02) (31, -8.84881126694381237030e-04) (32, 5.23348376154899597168e-02) (33, 1.11879937350749969482e-01) (34, -1.20783578604459762573e-02) (35, 4.93148751556873321533e-02) (36, 2.14453339576721191406e-02) (37, 1.68550699949264526367e-01) (38, 9.87420137971639633179e-03) (39, 3.61171275377273559570e-01) (40, -6.79613128304481506348e-02) (41, -1.02460317313671112061e-01) (42, 1.66772529482841491699e-01) (43, 2.03259260160848498344e-05) (44, 7.99723193049430847168e-02) (45, 3.47881883382797241211e-01) (46, 9.57654714584350585938e-02) (47, 1.40259806066751480103e-02) (48, 5.62669150531291961670e-02) (49, 2.02535852789878845215e-01) (50, 5.63341155648231506348e-02) (51, 1.41657635569572448730e-01) (52, 2.48440466821193695068e-02) (53, 7.02395588159561157227e-02) (54, -9.02726128697395324707e-02) (55, -8.61148349940776824951e-03) (56, 1.68628856539726257324e-01) (57, 6.43505603075027465820e-02) (58, -1.79183557629585266113e-02) (59, 1.08515359461307525635e-01) (60, 2.47610341757535934448e-02) (61, 9.40408334136009216309e-02) (62, -1.61339342594146728516e-01) (63, 1.31860062479972839355e-01) (64, -2.18844145536422729492e-01) (65, 4.04564943164587020874e-03) (66, 1.18487036228179931641e+00) (67, -5.35557150840759277344e-01) (65, -2.20973193645477294922e-01) (66, -1.66270341724157333374e-02) (67, 1.73174273222684860229e-02) (65, -3.58944982290267944336e-02) (66, 3.83509658277034759521e-02) (67, -2.08968259394168853760e-02) (65, -1.40164070762693881989e-03) (66, -9.86720062792301177979e-03) (67, 5.34812966361641883850e-03) (65, 2.94125862419605255127e-02) (66, -9.79205314069986343384e-03) (67, 3.88196134008467197418e-03) (65, 1.82616543024778366089e-02) (66, -5.48380613327026367188e-02) (67, 2.27311514317989349365e-02) (65, -6.09555514529347419739e-04) (66, 1.21576758101582527161e-02) (67, -5.37994923070073127747e-03) (65, -2.99924914725124835968e-03) (66, 1.86638231389224529266e-03) (67, 1.48389348760247230530e-03) (65, 1.06678279116749763489e-02) (66, -1.02081717923283576965e-02) (67, 5.57942176237702369690e-03) (65, -1.78751710336655378342e-03) (66, 6.19795499369502067566e-03) (67, -4.21618297696113586426e-03) (65, -2.66356189968064427376e-04) (66, -2.66103568719699978828e-04) (67, 1.11950226710177958012e-04) (65, 5.50443166866898536682e-03) (66, -1.12530554179102182388e-03) (67, 2.38046108279377222061e-04) (65, -4.76994784548878669739e-03) (66, -2.40139290690422058105e-03) (67, -4.45026671513915061951e-04) (65, -2.77433590963482856750e-03) (66, -3.97329637780785560608e-03) (67, 2.42583686485886573792e-03) (65, 6.60849222913384437561e-03) (66, -4.86160162836313247681e-03) (67, 1.37811060994863510132e-03) (65, 6.44530460704118013382e-04) (66, 3.45773156732320785522e-03) (67, -1.87308480963110923767e-03) (65, 5.23867923766374588013e-03) (66, 2.94796959497034549713e-03) (67, -1.04125030338764190674e-03) (65, -1.28733413293957710266e-03) (66, -2.80943047255277633667e-03) (67, 1.46404060069471597672e-03) (65, -1.26183382235467433929e-03) (66, -7.07468891050666570663e-04) (67, 4.39089228166267275810e-04) (65, 3.28167201951146125793e-03) (66, 1.16564799100160598755e-03) (67, -1.01269606966525316238e-03) (65, 1.38192190206609666348e-04) (66, 5.13704027980566024780e-04) (67, -2.57554755080491304398e-04) (65, -7.80153131927363574505e-05) (66, -8.12665894045494496822e-05) (67, -4.49867220595479011536e-05) (65, -4.52768726972863078117e-05) (66, 1.32847635541111230850e-05) (67, -2.81947432085871696472e-05) (65, -5.73149809497408568859e-05) (66, 1.03201884485315531492e-04) (67, -1.43163546454161405563e-04) (65, -1.32983503863215446472e-03) (66, 6.54714065603911876678e-04) (67, -4.65110380901023745537e-04) (65, -1.63269694894552230835e-03) (66, 7.61266419431194663048e-05) (67, -1.48204402648843824863e-04) (65, 2.85889510996639728546e-03) (66, 3.97412193706259131432e-04) (67, -3.46014821843709796667e-05) (65, -2.56040366366505622864e-03) (66, -4.98157343827188014984e-04) (67, 1.75084918737411499023e-04) (65, 1.28577157738618552685e-04) (66, 9.72695270320400595665e-05) (67, 1.14832815597765147686e-04) (65, 4.88631339976564049721e-05) (66, -2.90050520561635494232e-04) (67, 8.95414996193721890450e-06) (65, -2.84528432530350983143e-05) (66, 1.22431316412985324860e-04) (67, -5.93538425164297223091e-06) (65, 1.91194427316077053547e-04) (66, 1.29798077978193759918e-03) (67, -4.48770675575360655785e-04) (65, 1.26122744404710829258e-04) (66, 2.36809923080727458000e-04) (67, 1.14741138531826436520e-04) (65, -4.77781286463141441345e-05) (66, 1.58617476699873805046e-05) (67, -8.09254052001051604748e-05) (65, -5.70483898627571761608e-05) (66, -3.64134102710522711277e-05) (67, 4.53486427431926131248e-06) (65, 1.34892034111544489861e-04) (66, -2.08350793400313705206e-05) (67, 2.15267980820499360561e-04) (65, -3.29106951539870351553e-05) (66, -3.00800056720618158579e-05) (67, 8.65930996951647102833e-06) (65, -6.80678422213532030582e-05) (66, -5.85520538152195513248e-05) (67, -1.05911145510617643595e-04) (65, -7.98136388766579329967e-05) (66, -2.65933922491967678070e-05) (67, -4.20890282839536666870e-05) (65, 6.16053148405626416206e-05) (66, 6.31302391411736607552e-05) (67, 1.97692468645982444286e-04) (65, 2.38107895711436867714e-04) (66, -1.03518992546014487743e-04) (67, 2.11637743632309138775e-04) (65, 1.18162643047980964184e-04) (66, 2.70609220024198293686e-04) (67, 8.63447639858350157738e-05) (65, 6.87091960571706295013e-05) (66, -2.80580861726775765419e-04) (67, 9.71571062109433114529e-05) (65, 4.86241697217337787151e-06) (66, 4.47440281277522444725e-04) (67, -2.16946806176565587521e-04) (65, 1.26447892398573458195e-04) (66, 1.57260205014608800411e-04) (67, 9.60088655119761824608e-05) (65, 9.09594673430547118187e-05) (66, 1.83074109372682869434e-04) (67, 1.59108953084796667099e-04) (65, 1.18495954666286706924e-05) (66, 1.08014493889641016722e-04) (67, 9.21864339034073054790e-05) (65, 1.31115390104241669178e-04) (66, 1.33625930175185203552e-04) (67, 1.81119947228580713272e-04) (65, -1.55871646711602807045e-04) (66, -1.10187720565591007471e-04) (67, -8.21299108793027698994e-05) (65, -2.51088422373868525028e-05) (66, 4.59292714367620646954e-05) (67, -8.42763256514444947243e-06) (65, -5.05775897181592881680e-05) (66, 2.86931754089891910553e-06) (67, -2.08166602533310651779e-05) (65, -1.23969250125810503960e-04) (66, -1.09227119537536054850e-04) (67, -1.04280341474805027246e-04) (65, 1.06393839814700186253e-04) (66, 7.83031136961653828621e-05) (67, 1.28117724671028554440e-04) (65, -2.91752585326321423054e-05) (66, 3.11453914036974310875e-06) (67, -3.39799589710310101509e-06) (65, 9.65292420005425810814e-05) (66, 1.70250888913869857788e-04) (67, 1.63305405294522643089e-04) (65, -6.87624778947792947292e-05) (66, -9.75969232968054711819e-05) (67, -5.76978127355687320232e-05) (65, 3.15940051223151385784e-05) (66, -1.11628927697893232107e-04) (67, 2.14600528124719858170e-04) (65, 1.05827828519977629185e-04) (66, 7.76277884142473340034e-05) (67, 2.23379669478163123131e-04) (65, -1.69504521181806921959e-04) (66, -1.26061786431819200516e-04) (67, -6.66485648253001272678e-05) (65, 9.38943921937607228756e-05) (66, -1.87469704542309045792e-04) (67, -1.74191518453881144524e-05) (65, 5.49831966054625809193e-05) (66, 1.04621853097341954708e-04) (67, 1.16139111923985183239e-04) (65, -2.76270584436133503914e-05) (66, 4.50046209152787923813e-05) (67, -8.33941085147671401501e-05) (65, 5.49986762052867561579e-05) (66, -1.36263464810326695442e-04) (67, -1.45346595672890543938e-04) (65, 6.27599292783997952938e-05) (66, 6.24230597168207168579e-06) (67, 1.19661570352036505938e-04) 
