FANN_FLO_2.1
num_layers=4
learning_rate=0.400000
connection_rate=1.000000
network_type=0
learning_momentum=0.000000
training_algorithm=2
train_error_function=1
train_stop_function=0
cascade_output_change_fraction=0.010000
quickprop_decay=-0.000100
quickprop_mu=1.750000
rprop_increase_factor=1.200000
rprop_decrease_factor=0.500000
rprop_delta_min=0.000000
rprop_delta_max=50.000000
rprop_delta_zero=0.100000
cascade_output_stagnation_epochs=12
cascade_candidate_change_fraction=0.010000
cascade_candidate_stagnation_epochs=12
cascade_max_out_epochs=150
cascade_min_out_epochs=50
cascade_max_cand_epochs=150
cascade_min_cand_epochs=50
cascade_num_candidate_groups=2
bit_fail_limit=3.49999994039535522461e-01
cascade_candidate_limit=1.00000000000000000000e+03
cascade_weight_multiplier=4.00000005960464477539e-01
cascade_activation_functions_count=10
cascade_activation_functions=3 5 7 8 10 11 14 15 16 17 
cascade_activation_steepnesses_count=4
cascade_activation_steepnesses=2.50000000000000000000e-01 5.00000000000000000000e-01 7.50000000000000000000e-01 1.00000000000000000000e+00 
layer_sizes=7 9 3 2 
scale_included=0
neurons (num_inputs, activation_function, activation_steepness)=(0, 0, 0.00000000000000000000e+00) (0, 0, 0.00000000000000000000e+00) (0, 0, 0.00000000000000000000e+00) (0, 0, 0.00000000000000000000e+00) (0, 0, 0.00000000000000000000e+00) (0, 0, 0.00000000000000000000e+00) (0, 0, 0.00000000000000000000e+00) (7, 3, 5.00000000000000000000e-01) (7, 3, 5.00000000000000000000e-01) (7, 3, 5.00000000000000000000e-01) (7, 3, 5.00000000000000000000e-01) (7, 3, 5.00000000000000000000e-01) (7, 3, 5.00000000000000000000e-01) (7, 3, 5.00000000000000000000e-01) (7, 3, 5.00000000000000000000e-01) (0, 3, 0.00000000000000000000e+00) (9, 3, 5.00000000000000000000e-01) (9, 3, 5.00000000000000000000e-01) (0, 3, 0.00000000000000000000e+00) (3, 3, 5.00000000000000000000e-01) (0, 3, 0.00000000000000000000e+00) 
connections (connected_to_neuron, weight)=(0, -2.26353549957275390625e+01) (1, 1.63604030609130859375e+01) (2, -1.05727729797363281250e+01) (3, -6.76403999328613281250e+00) (4, -4.47102928161621093750e+00) (5, -1.48889831542968750000e+03) (6, 1.09093685150146484375e+01) (0, -4.24126853942871093750e+01) (1, 1.44486360549926757812e+01) (2, -7.12629455566406250000e+02) (3, -2.30828905105590820312e+00) (4, -1.62366199493408203125e+00) (5, 3.26631584167480468750e+01) (6, -1.37305176258087158203e+00) (0, -3.95028686523437500000e+00) (1, -1.24976949691772460938e+01) (2, 6.37814979553222656250e+01) (3, -2.63438873291015625000e+01) (4, -3.65856361389160156250e+01) (5, 5.50392570495605468750e+01) (6, -8.33540856838226318359e-01) (0, -1.50000000000000000000e+03) (1, -1.50000000000000000000e+03) (2, 2.87811431884765625000e+02) (3, -1.50000000000000000000e+03) (4, -1.50000000000000000000e+03) (5, -1.48889831542968750000e+03) (6, 1.09430732727050781250e+01) (0, -7.40737731933593750000e+02) (1, -1.43614025878906250000e+03) (2, 1.36186004638671875000e+02) (3, -1.36966625976562500000e+03) (4, 1.23147924804687500000e+03) (5, 1.92172546386718750000e+02) (6, 3.10792398452758789062e+00) (0, -3.57153415679931640625e+00) (1, 3.37286162376403808594e+00) (2, -3.80156364440917968750e+01) (3, -2.51548290252685546875e+01) (4, 3.41380745172500610352e-01) (5, 6.50168609619140625000e+00) (6, 4.60182285308837890625e+00) (0, -1.50000000000000000000e+03) (1, -1.50000000000000000000e+03) (2, 1.43833435058593750000e+03) (3, -1.50000000000000000000e+03) (4, -1.50000000000000000000e+03) (5, -1.48889831542968750000e+03) (6, -2.17975254058837890625e+01) (0, 1.50000000000000000000e+03) (1, 1.50000000000000000000e+03) (2, 1.85725326538085937500e+02) (3, 1.50000000000000000000e+03) (4, 1.50000000000000000000e+03) (5, 1.50000000000000000000e+03) (6, 6.50141296386718750000e+01) (7, 1.50000000000000000000e+03) (8, -1.49270520019531250000e+03) (9, 1.40641491699218750000e+03) (10, 1.50000000000000000000e+03) (11, 4.34649871826171875000e+02) (12, 1.50000000000000000000e+03) (13, 1.50000000000000000000e+03) (14, -1.20876525878906250000e+03) (15, -1.44856977462768554688e+01) (7, 1.50000000000000000000e+03) (8, -1.49862121582031250000e+03) (9, -2.39621677398681640625e+01) (10, 1.50000000000000000000e+03) (11, -9.97222656250000000000e+02) (12, 1.50000000000000000000e+03) (13, 1.50000000000000000000e+03) (14, 2.24749191284179687500e+02) (15, -1.20017862319946289062e+01) (16, -1.32977700233459472656e+00) (17, -1.02626740932464599609e+00) (18, -8.11946988105773925781e-01) 
