FANN_FLO_2.1
num_layers=3
learning_rate=0.400000
connection_rate=1.000000
network_type=0
learning_momentum=0.000000
training_algorithm=2
train_error_function=1
train_stop_function=0
cascade_output_change_fraction=0.010000
quickprop_decay=-0.000100
quickprop_mu=1.750000
rprop_increase_factor=1.200000
rprop_decrease_factor=0.500000
rprop_delta_min=0.000000
rprop_delta_max=50.000000
rprop_delta_zero=0.100000
cascade_output_stagnation_epochs=12
cascade_candidate_change_fraction=0.010000
cascade_candidate_stagnation_epochs=12
cascade_max_out_epochs=150
cascade_min_out_epochs=50
cascade_max_cand_epochs=150
cascade_min_cand_epochs=50
cascade_num_candidate_groups=2
bit_fail_limit=3.49999994039535522461e-01
cascade_candidate_limit=1.00000000000000000000e+03
cascade_weight_multiplier=4.00000005960464477539e-01
cascade_activation_functions_count=10
cascade_activation_functions=3 5 7 8 10 11 14 15 16 17 
cascade_activation_steepnesses_count=4
cascade_activation_steepnesses=2.50000000000000000000e-01 5.00000000000000000000e-01 7.50000000000000000000e-01 1.00000000000000000000e+00 
layer_sizes=65 3 65 
scale_included=0
neurons (num_inputs, activation_function, activation_steepness)=(0, 0, 0.00000000000000000000e+00) (0, 0, 0.00000000000000000000e+00) (0, 0, 0.00000000000000000000e+00) (0, 0, 0.00000000000000000000e+00) (0, 0, 0.00000000000000000000e+00) (0, 0, 0.00000000000000000000e+00) (0, 0, 0.00000000000000000000e+00) (0, 0, 0.00000000000000000000e+00) (0, 0, 0.00000000000000000000e+00) (0, 0, 0.00000000000000000000e+00) (0, 0, 0.00000000000000000000e+00) (0, 0, 0.00000000000000000000e+00) (0, 0, 0.00000000000000000000e+00) (0, 0, 0.00000000000000000000e+00) (0, 0, 0.00000000000000000000e+00) (0, 0, 0.00000000000000000000e+00) (0, 0, 0.00000000000000000000e+00) (0, 0, 0.00000000000000000000e+00) (0, 0, 0.00000000000000000000e+00) (0, 0, 0.00000000000000000000e+00) (0, 0, 0.00000000000000000000e+00) (0, 0, 0.00000000000000000000e+00) (0, 0, 0.00000000000000000000e+00) (0, 0, 0.00000000000000000000e+00) (0, 0, 0.00000000000000000000e+00) (0, 0, 0.00000000000000000000e+00) (0, 0, 0.00000000000000000000e+00) (0, 0, 0.00000000000000000000e+00) (0, 0, 0.00000000000000000000e+00) (0, 0, 0.00000000000000000000e+00) (0, 0, 0.00000000000000000000e+00) (0, 0, 0.00000000000000000000e+00) (0, 0, 0.00000000000000000000e+00) (0, 0, 0.00000000000000000000e+00) (0, 0, 0.00000000000000000000e+00) (0, 0, 0.00000000000000000000e+00) (0, 0, 0.00000000000000000000e+00) (0, 0, 0.00000000000000000000e+00) (0, 0, 0.00000000000000000000e+00) (0, 0, 0.00000000000000000000e+00) (0, 0, 0.00000000000000000000e+00) (0, 0, 0.00000000000000000000e+00) (0, 0, 0.00000000000000000000e+00) (0, 0, 0.00000000000000000000e+00) (0, 0, 0.00000000000000000000e+00) (0, 0, 0.00000000000000000000e+00) (0, 0, 0.00000000000000000000e+00) (0, 0, 0.00000000000000000000e+00) (0, 0, 0.00000000000000000000e+00) (0, 0, 0.00000000000000000000e+00) (0, 0, 0.00000000000000000000e+00) (0, 0, 0.00000000000000000000e+00) (0, 0, 0.00000000000000000000e+00) (0, 0, 0.00000000000000000000e+00) (0, 0, 0.00000000000000000000e+00) (0, 0, 0.00000000000000000000e+00) (0, 0, 0.00000000000000000000e+00) (0, 0, 0.00000000000000000000e+00) (0, 0, 0.00000000000000000000e+00) (0, 0, 0.00000000000000000000e+00) (0, 0, 0.00000000000000000000e+00) (0, 0, 0.00000000000000000000e+00) (0, 0, 0.00000000000000000000e+00) (0, 0, 0.00000000000000000000e+00) (0, 0, 0.00000000000000000000e+00) (65, 3, 5.00000000000000000000e-01) (65, 3, 5.00000000000000000000e-01) (0, 3, 0.00000000000000000000e+00) (3, 5, 5.00000000000000000000e-01) (3, 5, 5.00000000000000000000e-01) (3, 5, 5.00000000000000000000e-01) (3, 5, 5.00000000000000000000e-01) (3, 5, 5.00000000000000000000e-01) (3, 5, 5.00000000000000000000e-01) (3, 5, 5.00000000000000000000e-01) (3, 5, 5.00000000000000000000e-01) (3, 5, 5.00000000000000000000e-01) (3, 5, 5.00000000000000000000e-01) (3, 5, 5.00000000000000000000e-01) (3, 5, 5.00000000000000000000e-01) (3, 5, 5.00000000000000000000e-01) (3, 5, 5.00000000000000000000e-01) (3, 5, 5.00000000000000000000e-01) (3, 5, 5.00000000000000000000e-01) (3, 5, 5.00000000000000000000e-01) (3, 5, 5.00000000000000000000e-01) (3, 5, 5.00000000000000000000e-01) (3, 5, 5.00000000000000000000e-01) (3, 5, 5.00000000000000000000e-01) (3, 5, 5.00000000000000000000e-01) (3, 5, 5.00000000000000000000e-01) (3, 5, 5.00000000000000000000e-01) (3, 5, 5.00000000000000000000e-01) (3, 5, 5.00000000000000000000e-01) (3, 5, 5.00000000000000000000e-01) (3, 5, 5.00000000000000000000e-01) (3, 5, 5.00000000000000000000e-01) (3, 5, 5.00000000000000000000e-01) (3, 5, 5.00000000000000000000e-01) (3, 5, 5.00000000000000000000e-01) (3, 5, 5.00000000000000000000e-01) (3, 5, 5.00000000000000000000e-01) (3, 5, 5.00000000000000000000e-01) (3, 5, 5.00000000000000000000e-01) (3, 5, 5.00000000000000000000e-01) (3, 5, 5.00000000000000000000e-01) (3, 5, 5.00000000000000000000e-01) (3, 5, 5.00000000000000000000e-01) (3, 5, 5.00000000000000000000e-01) (3, 5, 5.00000000000000000000e-01) (3, 5, 5.00000000000000000000e-01) (3, 5, 5.00000000000000000000e-01) (3, 5, 5.00000000000000000000e-01) (3, 5, 5.00000000000000000000e-01) (3, 5, 5.00000000000000000000e-01) (3, 5, 5.00000000000000000000e-01) (3, 5, 5.00000000000000000000e-01) (3, 5, 5.00000000000000000000e-01) (3, 5, 5.00000000000000000000e-01) (3, 5, 5.00000000000000000000e-01) (3, 5, 5.00000000000000000000e-01) (3, 5, 5.00000000000000000000e-01) (3, 5, 5.00000000000000000000e-01) (3, 5, 5.00000000000000000000e-01) (3, 5, 5.00000000000000000000e-01) (3, 5, 5.00000000000000000000e-01) (3, 5, 5.00000000000000000000e-01) (3, 5, 5.00000000000000000000e-01) (3, 5, 5.00000000000000000000e-01) (3, 5, 5.00000000000000000000e-01) (3, 5, 5.00000000000000000000e-01) (3, 5, 5.00000000000000000000e-01) (0, 5, 0.00000000000000000000e+00) 
connections (connected_to_neuron, weight)=(0, -3.61217111349105834961e-01) (1, -2.54761520773172378540e-03) (2, 3.72086822986602783203e-01) (3, -1.68910309672355651855e-01) (4, -6.05685487389564514160e-02) (5, 3.88275682926177978516e-02) (6, -1.11649304628372192383e-01) (7, -1.59756541252136230469e-01) (8, -2.09217667579650878906e-01) (9, -3.73294293880462646484e-01) (10, -6.34933821856975555420e-04) (11, 6.16956092417240142822e-02) (12, 9.15213748812675476074e-02) (13, -8.36927518248558044434e-02) (14, 4.41693998873233795166e-02) (15, 6.81861862540245056152e-02) (16, -2.01622098684310913086e-01) (17, -1.08635449409484863281e+00) (18, -6.49263197556138038635e-03) (19, 2.83630520105361938477e-01) (20, 2.26034134626388549805e-01) (21, -1.02327004075050354004e-01) (22, -3.82439568638801574707e-02) (23, 3.42280179262161254883e-01) (24, -2.16303676366806030273e-01) (25, 3.49529385566711425781e-01) (26, -2.83274333924055099487e-02) (27, 1.87501549720764160156e-01) (28, -5.10227456688880920410e-02) (29, 2.72016990929841995239e-02) (30, -3.63207697868347167969e-01) (31, 1.40260666608810424805e-01) (32, 3.20200145244598388672e-01) (33, -5.68362027406692504883e-02) (34, -8.81529524922370910645e-02) (35, 8.57712998986244201660e-02) (36, 3.83533127605915069580e-02) (37, -9.82462614774703979492e-02) (38, 1.79241262376308441162e-02) (39, 6.29780471324920654297e-01) (40, -2.57563591003417968750e-01) (41, -2.46192872524261474609e-01) (42, -6.49498254060745239258e-02) (43, -1.52910128235816955566e-01) (44, -1.32774949073791503906e-01) (45, -1.18530020117759704590e-01) (46, 1.96941331028938293457e-01) (47, 8.76598358154296875000e-02) (48, -2.68963009119033813477e-01) (49, -5.53084127604961395264e-02) (50, -3.44119101762771606445e-01) (51, -3.21535021066665649414e-02) (52, -3.85237038135528564453e-02) (53, 1.40483707189559936523e-01) (54, 1.75394266843795776367e-01) (55, -4.92083057761192321777e-02) (56, -2.86965519189834594727e-01) (57, 2.25928321480751037598e-01) (58, -2.40772172808647155762e-01) (59, -2.77521256357431411743e-02) (60, 2.23612502217292785645e-01) (61, 5.31143993139266967773e-02) (62, -1.60321984440088272095e-02) (63, -1.22313171625137329102e-01) (64, -1.06847214698791503906e+00) (0, -6.69014155864715576172e-02) (1, 3.11005674302577972412e-02) (2, 5.84105513989925384521e-02) (3, 3.88132184743881225586e-02) (4, 1.39138102531433105469e-01) (5, 2.53166049718856811523e-01) (6, -2.66915768384933471680e-01) (7, -7.86716118454933166504e-02) (8, -4.42519515752792358398e-01) (9, -2.56963204592466354370e-02) (10, 4.18327897787094116211e-02) (11, 9.93669405579566955566e-02) (12, 5.38541078567504882812e-02) (13, 3.07344645261764526367e-01) (14, 3.21153819561004638672e-01) (15, 6.04805909097194671631e-02) (16, -1.54995337128639221191e-01) (17, 2.13643442839384078979e-02) (18, 6.57724738121032714844e-02) (19, 1.12923666834831237793e-01) (20, -4.43074433133006095886e-03) (21, 2.60771900415420532227e-01) (22, -8.36331620812416076660e-02) (23, 1.95820584893226623535e-01) (24, -2.24128320813179016113e-01) (25, 5.48721216619014739990e-02) (26, 3.82329255342483520508e-01) (27, -6.51537179946899414062e-01) (28, 2.21354118548333644867e-03) (29, 2.20327839255332946777e-01) (30, 1.09012022614479064941e-01) (31, 8.23197215795516967773e-02) (32, -1.41605436801910400391e-01) (33, -1.33053556084632873535e-01) (34, 1.15767560899257659912e-01) (35, 7.29063749313354492188e-02) (36, 2.34104350209236145020e-01) (37, -6.37183934450149536133e-02) (38, 4.04999125748872756958e-03) (39, -2.06684079021215438843e-02) (40, 2.30257883667945861816e-02) (41, -2.36670840531587600708e-02) (42, 3.84403988718986511230e-02) (43, -1.03643782436847686768e-01) (44, 2.22469389438629150391e-01) (45, 3.12118567526340484619e-02) (46, 1.21489159762859344482e-01) (47, -3.43202829360961914062e-01) (48, -6.79758042097091674805e-02) (49, -1.15134976804256439209e-01) (50, -1.74843341112136840820e-01) (51, 2.38885253667831420898e-01) (52, 3.13774764537811279297e-01) (53, 1.09279274940490722656e-01) (54, 1.12244307994842529297e-01) (55, -9.57913696765899658203e-02) (56, 1.61025635898113250732e-02) (57, -5.83803579211235046387e-02) (58, -1.50605499744415283203e-01) (59, 1.03701293468475341797e-01) (60, 1.86263129115104675293e-01) (61, 9.53226462006568908691e-02) (62, 9.44038257002830505371e-02) (63, 3.43112677335739135742e-01) (64, -6.54646456241607666016e-01) (65, -1.13192129135131835938e+00) (66, 1.42320477962493896484e+00) (67, -2.00026705861091613770e-01) (65, -8.64992439746856689453e-01) (66, -7.12095797061920166016e-01) (67, 4.72747772932052612305e-01) (65, -8.78478884696960449219e-02) (66, 3.77909885719418525696e-03) (67, 2.62765344232320785522e-02) (65, 1.67378671467304229736e-02) (66, -2.54898592829704284668e-02) (67, 3.99947073310613632202e-03) (65, 3.95892858505249023438e-02) (66, -4.52792970463633537292e-03) (67, -1.02144721895456314087e-02) (65, -1.69190689921379089355e-01) (66, -2.50968158245086669922e-01) (67, 1.32420614361763000488e-01) (65, 2.08338610827922821045e-02) (66, 2.71514803171157836914e-03) (67, -7.30466609820723533630e-03) (65, -2.61630974709987640381e-02) (66, 5.65662267035804688931e-05) (67, 7.63018056750297546387e-03) (65, -4.33439621701836585999e-03) (66, 7.75575498118996620178e-03) (67, -3.72439855709671974182e-03) (65, -2.24851304665207862854e-03) (66, 2.14699609205126762390e-03) (67, -5.80872234422713518143e-04) (65, 4.35807649046182632446e-03) (66, -2.45497329160571098328e-03) (67, 3.37214616592973470688e-04) (65, 8.42474494129419326782e-03) (66, 2.75164935737848281860e-03) (67, -2.72752996534109115601e-03) (65, 3.40909399092197418213e-02) (66, 3.58672924339771270752e-02) (67, -2.17430796474218368530e-02) (65, -1.61031819880008697510e-02) (66, -1.46948657929897308350e-02) (67, 1.00772287696599960327e-02) (65, 1.09501853585243225098e-02) (66, 8.60746577382087707520e-03) (67, -6.78025791421532630920e-03) (65, -2.27233697660267353058e-03) (66, -4.03166399337351322174e-04) (67, 4.69066784717142581940e-04) (65, -2.19467771239578723907e-03) (66, -4.29340638220310211182e-03) (67, 2.09654006175696849823e-03) (65, 1.68516281992197036743e-02) (66, 1.72990467399358749390e-02) (67, -1.07621280476450920105e-02) (65, 9.24342777580022811890e-03) (66, 7.43837095797061920166e-03) (67, -4.88499552011489868164e-03) (65, 1.00071064662188291550e-03) (66, 4.32817218825221061707e-03) (67, -1.70640309806913137436e-03) (65, 4.39239986008033156395e-04) (66, -4.34295681770890951157e-04) (67, 2.15224092244170606136e-04) (65, 6.90673914505168795586e-06) (66, 2.82407345366664230824e-05) (67, 4.99830712215043604374e-05) (65, -8.51209100801497697830e-04) (66, -1.32095348089933395386e-03) (67, 6.22137973550707101822e-04) (65, -1.10162585042417049408e-03) (66, -1.63298379629850387573e-03) (67, 6.79755816236138343811e-04) (65, -4.03114501386880874634e-03) (66, -4.42408607341349124908e-04) (67, 1.18664337787777185440e-03) (65, -5.59928081929683685303e-03) (66, -4.16277861222624778748e-03) (67, 3.00937588326632976532e-03) (65, -1.85653800144791603088e-03) (66, -1.32261216640472412109e-03) (67, 1.00919569376856088638e-03) (65, -3.30598093569278717041e-04) (66, 1.18777994066476821899e-03) (67, -5.68595598451793193817e-04) (65, 3.43607462127692997456e-05) (66, 1.41672557219862937927e-03) (67, -4.51491010608151555061e-04) (65, 3.05471512547228485346e-05) (66, 1.66777244885452091694e-04) (67, 1.69180406373925507069e-04) (65, 1.02459649497177451849e-04) (66, -4.84538977616466581821e-05) (67, 6.00634593865834176540e-05) (65, -2.00925068929791450500e-03) (66, -2.16256803832948207855e-03) (67, 1.34824845008552074432e-03) (65, -1.07108637166675180197e-04) (66, -2.22605303861200809479e-05) (67, 1.21182529255747795105e-06) (65, -1.00782977824565023184e-04) (66, 2.11349833989515900612e-05) (67, -2.81623506452888250351e-05) (65, 8.70416552061215043068e-05) (66, 2.23607392399571835995e-04) (67, 1.27892373711802065372e-04) (65, 1.80596834979951381683e-05) (66, -9.23142579267732799053e-05) (67, -6.60959631204605102539e-06) (65, 6.44314277451485395432e-04) (66, 6.02641317527741193771e-04) (67, -9.08217771211639046669e-05) (65, 2.14662766666151583195e-04) (66, 2.06760050787124782801e-05) (67, 1.17944829980842769146e-04) (65, -4.81339156976900994778e-06) (66, 1.21325327199883759022e-04) (67, 2.06603741389699280262e-04) (65, -1.27915205666795372963e-04) (66, -9.90216140053234994411e-05) (67, -3.35783843183889985085e-05) (65, -1.06284933281131088734e-05) (66, -9.96173184830695390701e-07) (67, 4.62070238427259027958e-05) (65, 3.98150586988776922226e-05) (66, -1.18705000204499810934e-04) (67, -5.49223259440623223782e-05) (65, 1.21809120173566043377e-04) (66, 2.30258883675560355186e-04) (67, 1.54950481373816728592e-04) (65, 1.16040100692771375179e-04) (66, -1.33492518216371536255e-03) (67, 6.89143256749957799911e-04) (65, 2.65707494691014289856e-05) (66, 4.86903591081500053406e-05) (67, 1.09433814941439777613e-04) (65, -1.50522377225570380688e-04) (66, -1.01648489362560212612e-04) (67, 5.93203512835316359997e-05) (65, -1.36038928758352994919e-04) (66, -1.85656273970380425453e-04) (67, -7.68769459682516753674e-05) (65, -1.10645814856979995966e-04) (66, -6.70777881168760359287e-05) (67, -8.47585688461549580097e-05) (65, -1.18205578473862260580e-04) (66, -1.74227345269173383713e-04) (67, 4.73004183731973171234e-05) (65, 8.58727580634877085686e-05) (66, 1.20141732622869312763e-04) (67, 1.12731577246449887753e-04) (65, 1.20971308206208050251e-05) (66, 5.25847499375231564045e-05) (67, 3.84167724405415356159e-05) (65, 1.35387293994426727295e-04) (66, 2.10174082894809544086e-04) (67, 2.83537374343723058701e-05) (65, 2.20867441385053098202e-04) (66, 1.01942532637622207403e-04) (67, 7.67270903452299535275e-05) (65, -4.83489056932739913464e-05) (66, 5.07174845552071928978e-05) (67, -2.18153523746877908707e-04) (65, -2.63000343693420290947e-04) (66, -4.71221210318617522717e-05) (67, -8.08237455203197896481e-05) (65, -1.17083436634857207537e-04) (66, -6.93419060553424060345e-05) (67, -1.23354984680190682411e-04) (65, -1.04852319054771214724e-04) (66, -6.35889664408750832081e-05) (67, 1.80510149220936000347e-04) (65, -8.19660417619161307812e-05) (66, 2.06108961720019578934e-06) (67, -4.54009277746081352234e-05) (65, 4.08731430070474743843e-04) (66, 2.51906021730974316597e-04) (67, 5.79594452574383467436e-05) (65, -2.84589623333886265755e-06) (66, 1.43648721859790384769e-05) (67, 5.71217169635929167271e-05) (65, 6.19737838860601186752e-05) (66, 1.25553342513740062714e-04) (67, 5.01932809129357337952e-05) (65, 1.63098593475297093391e-06) (66, 1.49728599353693425655e-04) (67, 1.26032609841786324978e-04) (65, -7.84741641837172210217e-05) (66, -5.70576448808424174786e-05) (67, -3.79341945517808198929e-05) (65, 3.55173076968640089035e-04) (66, 1.52395106852054595947e-04) (67, -5.90710296819452196360e-05) 
