FANN_FLO_2.1
num_layers=3
learning_rate=0.400000
connection_rate=1.000000
network_type=0
learning_momentum=0.000000
training_algorithm=2
train_error_function=1
train_stop_function=0
cascade_output_change_fraction=0.010000
quickprop_decay=-0.000100
quickprop_mu=1.750000
rprop_increase_factor=1.200000
rprop_decrease_factor=0.500000
rprop_delta_min=0.000000
rprop_delta_max=50.000000
rprop_delta_zero=0.100000
cascade_output_stagnation_epochs=12
cascade_candidate_change_fraction=0.010000
cascade_candidate_stagnation_epochs=12
cascade_max_out_epochs=150
cascade_min_out_epochs=50
cascade_max_cand_epochs=150
cascade_min_cand_epochs=50
cascade_num_candidate_groups=2
bit_fail_limit=3.49999994039535522461e-01
cascade_candidate_limit=1.00000000000000000000e+03
cascade_weight_multiplier=4.00000005960464477539e-01
cascade_activation_functions_count=10
cascade_activation_functions=3 5 7 8 10 11 14 15 16 17 
cascade_activation_steepnesses_count=4
cascade_activation_steepnesses=2.50000000000000000000e-01 5.00000000000000000000e-01 7.50000000000000000000e-01 1.00000000000000000000e+00 
layer_sizes=7 5 2 
scale_included=0
neurons (num_inputs, activation_function, activation_steepness)=(0, 0, 0.00000000000000000000e+00) (0, 0, 0.00000000000000000000e+00) (0, 0, 0.00000000000000000000e+00) (0, 0, 0.00000000000000000000e+00) (0, 0, 0.00000000000000000000e+00) (0, 0, 0.00000000000000000000e+00) (0, 0, 0.00000000000000000000e+00) (7, 3, 5.00000000000000000000e-01) (7, 3, 5.00000000000000000000e-01) (7, 3, 5.00000000000000000000e-01) (7, 3, 5.00000000000000000000e-01) (0, 3, 0.00000000000000000000e+00) (5, 3, 5.00000000000000000000e-01) (0, 3, 0.00000000000000000000e+00) 
connections (connected_to_neuron, weight)=(0, 1.01520814895629882812e+01) (1, 1.86288475990295410156e+00) (2, 2.15096449851989746094e+00) (3, -3.63145279884338378906e+00) (4, -9.68346238136291503906e-01) (5, -3.86681461334228515625e+00) (6, 1.46342241764068603516e+00) (0, 1.06789674758911132812e+01) (1, -2.37264466285705566406e+00) (2, -8.19154739379882812500e+00) (3, -1.17108764648437500000e+01) (4, 1.64628124237060546875e+01) (5, -2.44023680686950683594e-01) (6, -1.35431373119354248047e+00) (0, 3.01999783515930175781e+00) (1, 1.90698575973510742188e+00) (2, -2.88639664649963378906e+00) (3, -1.27655696868896484375e+01) (4, 3.20916533470153808594e+00) (5, 1.71782135963439941406e-01) (6, 6.66868925094604492188e+00) (0, 1.50000000000000000000e+03) (1, 1.50000000000000000000e+03) (2, 1.50000000000000000000e+03) (3, 3.63325317382812500000e+02) (4, -1.50000000000000000000e+03) (5, 1.50000000000000000000e+03) (6, 2.36276388168334960938e+00) (7, -2.50245976448059082031e+00) (8, 2.10170865058898925781e+00) (9, -2.00885891914367675781e+00) (10, 1.09376966953277587891e+00) (11, 1.04633474349975585938e+00) 
