FANN_FLO_2.1
num_layers=3
learning_rate=0.400000
connection_rate=1.000000
network_type=0
learning_momentum=0.000000
training_algorithm=2
train_error_function=1
train_stop_function=0
cascade_output_change_fraction=0.010000
quickprop_decay=-0.000100
quickprop_mu=1.750000
rprop_increase_factor=1.200000
rprop_decrease_factor=0.500000
rprop_delta_min=0.000000
rprop_delta_max=50.000000
rprop_delta_zero=0.100000
cascade_output_stagnation_epochs=12
cascade_candidate_change_fraction=0.010000
cascade_candidate_stagnation_epochs=12
cascade_max_out_epochs=150
cascade_min_out_epochs=50
cascade_max_cand_epochs=150
cascade_min_cand_epochs=50
cascade_num_candidate_groups=2
bit_fail_limit=3.49999994039535522461e-01
cascade_candidate_limit=1.00000000000000000000e+03
cascade_weight_multiplier=4.00000005960464477539e-01
cascade_activation_functions_count=10
cascade_activation_functions=3 5 7 8 10 11 14 15 16 17 
cascade_activation_steepnesses_count=4
cascade_activation_steepnesses=2.50000000000000000000e-01 5.00000000000000000000e-01 7.50000000000000000000e-01 1.00000000000000000000e+00 
layer_sizes=7 9 2 
scale_included=0
neurons (num_inputs, activation_function, activation_steepness)=(0, 0, 0.00000000000000000000e+00) (0, 0, 0.00000000000000000000e+00) (0, 0, 0.00000000000000000000e+00) (0, 0, 0.00000000000000000000e+00) (0, 0, 0.00000000000000000000e+00) (0, 0, 0.00000000000000000000e+00) (0, 0, 0.00000000000000000000e+00) (7, 3, 5.00000000000000000000e-01) (7, 3, 5.00000000000000000000e-01) (7, 3, 5.00000000000000000000e-01) (7, 3, 5.00000000000000000000e-01) (7, 3, 5.00000000000000000000e-01) (7, 3, 5.00000000000000000000e-01) (7, 3, 5.00000000000000000000e-01) (7, 3, 5.00000000000000000000e-01) (0, 3, 0.00000000000000000000e+00) (9, 3, 5.00000000000000000000e-01) (0, 3, 0.00000000000000000000e+00) 
connections (connected_to_neuron, weight)=(0, -2.95211148262023925781e+00) (1, 3.73544842004776000977e-01) (2, 2.28838503360748291016e-01) (3, -2.33596190810203552246e-01) (4, -1.92336046695709228516e+00) (5, 9.11915600299835205078e-01) (6, 3.12147915363311767578e-01) (0, -8.13842487335205078125e+00) (1, -3.03598189353942871094e+00) (2, -4.18056964874267578125e-01) (3, 1.85397231578826904297e+00) (4, 1.48834633827209472656e+00) (5, 2.01351308822631835938e+00) (6, 1.45670637488365173340e-01) (0, -7.31178462505340576172e-01) (1, 4.92714673280715942383e-01) (2, -3.18547177314758300781e+00) (3, -7.81686604022979736328e-01) (4, -5.49884843826293945312e+00) (5, 1.55887451171875000000e+01) (6, 8.04564535617828369141e-01) (0, -1.47659194469451904297e+00) (1, -1.39630675315856933594e+00) (2, 2.93580842018127441406e+00) (3, -4.09073710441589355469e-01) (4, 4.29205560684204101562e+00) (5, -6.68367147445678710938e+00) (6, -1.28207194805145263672e+00) (0, 2.84241527318954467773e-01) (1, 5.56223869323730468750e-01) (2, 5.42958199977874755859e-01) (3, 1.08740174770355224609e+00) (4, -1.52811634540557861328e+00) (5, 6.49143159389495849609e-01) (6, 4.70246016979217529297e-01) (0, 2.13911771774291992188e+00) (1, 4.60278481245040893555e-01) (2, -7.53150320053100585938e+00) (3, 2.65819406509399414062e+00) (4, -1.72595858573913574219e+00) (5, 1.25997848510742187500e+01) (6, 4.38445866107940673828e-01) (0, -4.67907714843750000000e+00) (1, 6.89074322581291198730e-02) (2, 1.91151678562164306641e+00) (3, -1.55714857578277587891e+00) (4, -2.55733633041381835938e+00) (5, 1.78702378273010253906e+00) (6, 4.06018197536468505859e-01) (0, 1.74515783786773681641e+00) (1, -1.64769470691680908203e+00) (2, -1.62553143501281738281e+00) (3, 1.66297817230224609375e+00) (4, -1.44294309616088867188e+00) (5, 7.96659994125366210938e+00) (6, -4.76828336715698242188e+00) (7, -4.36477780342102050781e-01) (8, 3.07641386985778808594e+00) (9, -1.22882723808288574219e+00) (10, 1.47187852859497070312e+00) (11, -4.09122467041015625000e-01) (12, -9.53489542007446289062e-01) (13, -2.95115900039672851562e+00) (14, 3.25457715988159179688e+00) (15, 7.53798987716436386108e-03) 
