FANN_FLO_2.1
num_layers=3
learning_rate=0.400000
connection_rate=1.000000
network_type=0
learning_momentum=0.000000
training_algorithm=2
train_error_function=1
train_stop_function=0
cascade_output_change_fraction=0.010000
quickprop_decay=-0.000100
quickprop_mu=1.750000
rprop_increase_factor=1.200000
rprop_decrease_factor=0.500000
rprop_delta_min=0.000000
rprop_delta_max=50.000000
rprop_delta_zero=0.100000
cascade_output_stagnation_epochs=12
cascade_candidate_change_fraction=0.010000
cascade_candidate_stagnation_epochs=12
cascade_max_out_epochs=150
cascade_min_out_epochs=50
cascade_max_cand_epochs=150
cascade_min_cand_epochs=50
cascade_num_candidate_groups=2
bit_fail_limit=3.49999994039535522461e-01
cascade_candidate_limit=1.00000000000000000000e+03
cascade_weight_multiplier=4.00000005960464477539e-01
cascade_activation_functions_count=10
cascade_activation_functions=3 5 7 8 10 11 14 15 16 17 
cascade_activation_steepnesses_count=4
cascade_activation_steepnesses=2.50000000000000000000e-01 5.00000000000000000000e-01 7.50000000000000000000e-01 1.00000000000000000000e+00 
layer_sizes=7 9 2 
scale_included=0
neurons (num_inputs, activation_function, activation_steepness)=(0, 0, 0.00000000000000000000e+00) (0, 0, 0.00000000000000000000e+00) (0, 0, 0.00000000000000000000e+00) (0, 0, 0.00000000000000000000e+00) (0, 0, 0.00000000000000000000e+00) (0, 0, 0.00000000000000000000e+00) (0, 0, 0.00000000000000000000e+00) (7, 3, 5.00000000000000000000e-01) (7, 3, 5.00000000000000000000e-01) (7, 3, 5.00000000000000000000e-01) (7, 3, 5.00000000000000000000e-01) (7, 3, 5.00000000000000000000e-01) (7, 3, 5.00000000000000000000e-01) (7, 3, 5.00000000000000000000e-01) (7, 3, 5.00000000000000000000e-01) (0, 3, 0.00000000000000000000e+00) (9, 3, 5.00000000000000000000e-01) (0, 3, 0.00000000000000000000e+00) 
connections (connected_to_neuron, weight)=(0, 8.70797157287597656250e+00) (1, 2.78185784816741943359e-01) (2, 6.04461669921875000000e-01) (3, 3.53777194023132324219e+00) (4, 6.34095001220703125000e+00) (5, 4.71507629394531250000e+02) (6, 5.04960536956787109375e-01) (0, -2.14852261543273925781e+00) (1, -1.64389610290527343750e+00) (2, -3.74462532997131347656e+00) (3, 1.80505073070526123047e+00) (4, -3.24702143669128417969e-01) (5, 4.04382991790771484375e+00) (6, -1.63173604011535644531e+00) (0, -4.26382350921630859375e+00) (1, -1.75279760360717773438e+00) (2, -2.40032410621643066406e+00) (3, 1.17503046989440917969e+00) (4, 2.29308056831359863281e+00) (5, 7.72639691829681396484e-01) (6, -1.20302391052246093750e+00) (0, -1.44537937641143798828e+00) (1, -1.31993627548217773438e+00) (2, -4.09098148345947265625e+00) (3, 3.60961842536926269531e+00) (4, 5.98848760128021240234e-01) (5, 4.42889451980590820312e+00) (6, -2.29775500297546386719e+00) (0, 4.38271427154541015625e+00) (1, 2.36520218849182128906e+00) (2, -3.11110205948352813721e-02) (3, -2.23423647880554199219e+00) (4, -2.76910632848739624023e-01) (5, -1.38042628765106201172e+00) (6, 1.81772339344024658203e+00) (0, 1.08415758609771728516e+00) (1, 2.07568883895874023438e+00) (2, -5.36487627029418945312e+00) (3, -1.22940530776977539062e+01) (4, -6.90638005733489990234e-01) (5, 1.40272808074951171875e+01) (6, 1.73656082153320312500e+00) (0, 3.84191775321960449219e+00) (1, -3.74328315258026123047e-01) (2, -8.13476026058197021484e-01) (3, -7.30718672275543212891e-01) (4, -4.14215993881225585938e+00) (5, 5.04738807678222656250e+00) (6, -4.68785572052001953125e+00) (0, -5.37329018115997314453e-02) (1, 3.17629128694534301758e-01) (2, 2.99944090843200683594e+00) (3, -2.99237895011901855469e+00) (4, 5.79531669616699218750e+00) (5, -9.55507373809814453125e+00) (6, -2.66727089881896972656e+00) (7, 1.35794207453727722168e-01) (8, 1.20161354541778564453e+00) (9, 2.99021577835083007812e+00) (10, 1.02046251296997070312e+00) (11, -1.54441058635711669922e+00) (12, -1.12694227695465087891e+00) (13, 5.02408266067504882812e+00) (14, 2.59774971008300781250e+00) (15, -3.31647098064422607422e-02) 
