FANN_FLO_2.1
num_layers=3
learning_rate=0.400000
connection_rate=1.000000
network_type=0
learning_momentum=0.000000
training_algorithm=2
train_error_function=1
train_stop_function=0
cascade_output_change_fraction=0.010000
quickprop_decay=-0.000100
quickprop_mu=1.750000
rprop_increase_factor=1.200000
rprop_decrease_factor=0.500000
rprop_delta_min=0.000000
rprop_delta_max=50.000000
rprop_delta_zero=0.100000
cascade_output_stagnation_epochs=12
cascade_candidate_change_fraction=0.010000
cascade_candidate_stagnation_epochs=12
cascade_max_out_epochs=150
cascade_min_out_epochs=50
cascade_max_cand_epochs=150
cascade_min_cand_epochs=50
cascade_num_candidate_groups=2
bit_fail_limit=3.49999994039535522461e-01
cascade_candidate_limit=1.00000000000000000000e+03
cascade_weight_multiplier=4.00000005960464477539e-01
cascade_activation_functions_count=10
cascade_activation_functions=3 5 7 8 10 11 14 15 16 17 
cascade_activation_steepnesses_count=4
cascade_activation_steepnesses=2.50000000000000000000e-01 5.00000000000000000000e-01 7.50000000000000000000e-01 1.00000000000000000000e+00 
layer_sizes=7 5 2 
scale_included=0
neurons (num_inputs, activation_function, activation_steepness)=(0, 0, 0.00000000000000000000e+00) (0, 0, 0.00000000000000000000e+00) (0, 0, 0.00000000000000000000e+00) (0, 0, 0.00000000000000000000e+00) (0, 0, 0.00000000000000000000e+00) (0, 0, 0.00000000000000000000e+00) (0, 0, 0.00000000000000000000e+00) (7, 3, 5.00000000000000000000e-01) (7, 3, 5.00000000000000000000e-01) (7, 3, 5.00000000000000000000e-01) (7, 3, 5.00000000000000000000e-01) (0, 3, 0.00000000000000000000e+00) (5, 3, 5.00000000000000000000e-01) (0, 3, 0.00000000000000000000e+00) 
connections (connected_to_neuron, weight)=(0, -8.78307247161865234375e+00) (1, 8.77815628051757812500e+00) (2, -3.65686130523681640625e+00) (3, -1.84936034679412841797e+00) (4, -7.37395286560058593750e-01) (5, -1.44836779785156250000e+03) (6, -6.35998964309692382812e-01) (0, 9.03395843505859375000e+00) (1, -1.03230934143066406250e+01) (2, 3.89141273498535156250e+00) (3, -2.88582873344421386719e+00) (4, -1.29760593175888061523e-01) (5, 6.04168319702148437500e+00) (6, -6.20503139495849609375e+00) (0, -3.69038796424865722656e+00) (1, -3.19208592176437377930e-01) (2, 3.78313601016998291016e-01) (3, -8.52991676330566406250e+00) (4, -2.74157428741455078125e+00) (5, -5.67326903343200683594e-01) (6, 1.00893344879150390625e+01) (0, -8.70983409881591796875e+00) (1, -3.38713109493255615234e-01) (2, 1.04309244155883789062e+01) (3, 3.02617287635803222656e+00) (4, -1.32290256023406982422e+00) (5, 6.80009937286376953125e+00) (6, 5.50614976882934570312e+00) (7, -9.00386810302734375000e+00) (8, -9.36230087280273437500e+00) (9, -8.13403010368347167969e-01) (10, -5.89679181575775146484e-01) (11, -3.35394650697708129883e-01) 
