FANN_FLO_2.1
num_layers=3
learning_rate=0.400000
connection_rate=1.000000
network_type=0
learning_momentum=0.000000
training_algorithm=2
train_error_function=1
train_stop_function=0
cascade_output_change_fraction=0.010000
quickprop_decay=-0.000100
quickprop_mu=1.750000
rprop_increase_factor=1.200000
rprop_decrease_factor=0.500000
rprop_delta_min=0.000000
rprop_delta_max=50.000000
rprop_delta_zero=0.100000
cascade_output_stagnation_epochs=12
cascade_candidate_change_fraction=0.010000
cascade_candidate_stagnation_epochs=12
cascade_max_out_epochs=150
cascade_min_out_epochs=50
cascade_max_cand_epochs=150
cascade_min_cand_epochs=50
cascade_num_candidate_groups=2
bit_fail_limit=3.49999994039535522461e-01
cascade_candidate_limit=1.00000000000000000000e+03
cascade_weight_multiplier=4.00000005960464477539e-01
cascade_activation_functions_count=10
cascade_activation_functions=3 5 7 8 10 11 14 15 16 17 
cascade_activation_steepnesses_count=4
cascade_activation_steepnesses=2.50000000000000000000e-01 5.00000000000000000000e-01 7.50000000000000000000e-01 1.00000000000000000000e+00 
layer_sizes=65 3 65 
scale_included=0
neurons (num_inputs, activation_function, activation_steepness)=(0, 0, 0.00000000000000000000e+00) (0, 0, 0.00000000000000000000e+00) (0, 0, 0.00000000000000000000e+00) (0, 0, 0.00000000000000000000e+00) (0, 0, 0.00000000000000000000e+00) (0, 0, 0.00000000000000000000e+00) (0, 0, 0.00000000000000000000e+00) (0, 0, 0.00000000000000000000e+00) (0, 0, 0.00000000000000000000e+00) (0, 0, 0.00000000000000000000e+00) (0, 0, 0.00000000000000000000e+00) (0, 0, 0.00000000000000000000e+00) (0, 0, 0.00000000000000000000e+00) (0, 0, 0.00000000000000000000e+00) (0, 0, 0.00000000000000000000e+00) (0, 0, 0.00000000000000000000e+00) (0, 0, 0.00000000000000000000e+00) (0, 0, 0.00000000000000000000e+00) (0, 0, 0.00000000000000000000e+00) (0, 0, 0.00000000000000000000e+00) (0, 0, 0.00000000000000000000e+00) (0, 0, 0.00000000000000000000e+00) (0, 0, 0.00000000000000000000e+00) (0, 0, 0.00000000000000000000e+00) (0, 0, 0.00000000000000000000e+00) (0, 0, 0.00000000000000000000e+00) (0, 0, 0.00000000000000000000e+00) (0, 0, 0.00000000000000000000e+00) (0, 0, 0.00000000000000000000e+00) (0, 0, 0.00000000000000000000e+00) (0, 0, 0.00000000000000000000e+00) (0, 0, 0.00000000000000000000e+00) (0, 0, 0.00000000000000000000e+00) (0, 0, 0.00000000000000000000e+00) (0, 0, 0.00000000000000000000e+00) (0, 0, 0.00000000000000000000e+00) (0, 0, 0.00000000000000000000e+00) (0, 0, 0.00000000000000000000e+00) (0, 0, 0.00000000000000000000e+00) (0, 0, 0.00000000000000000000e+00) (0, 0, 0.00000000000000000000e+00) (0, 0, 0.00000000000000000000e+00) (0, 0, 0.00000000000000000000e+00) (0, 0, 0.00000000000000000000e+00) (0, 0, 0.00000000000000000000e+00) (0, 0, 0.00000000000000000000e+00) (0, 0, 0.00000000000000000000e+00) (0, 0, 0.00000000000000000000e+00) (0, 0, 0.00000000000000000000e+00) (0, 0, 0.00000000000000000000e+00) (0, 0, 0.00000000000000000000e+00) (0, 0, 0.00000000000000000000e+00) (0, 0, 0.00000000000000000000e+00) (0, 0, 0.00000000000000000000e+00) (0, 0, 0.00000000000000000000e+00) (0, 0, 0.00000000000000000000e+00) (0, 0, 0.00000000000000000000e+00) (0, 0, 0.00000000000000000000e+00) (0, 0, 0.00000000000000000000e+00) (0, 0, 0.00000000000000000000e+00) (0, 0, 0.00000000000000000000e+00) (0, 0, 0.00000000000000000000e+00) (0, 0, 0.00000000000000000000e+00) (0, 0, 0.00000000000000000000e+00) (0, 0, 0.00000000000000000000e+00) (65, 3, 5.00000000000000000000e-01) (65, 3, 5.00000000000000000000e-01) (0, 3, 0.00000000000000000000e+00) (3, 5, 5.00000000000000000000e-01) (3, 5, 5.00000000000000000000e-01) (3, 5, 5.00000000000000000000e-01) (3, 5, 5.00000000000000000000e-01) (3, 5, 5.00000000000000000000e-01) (3, 5, 5.00000000000000000000e-01) (3, 5, 5.00000000000000000000e-01) (3, 5, 5.00000000000000000000e-01) (3, 5, 5.00000000000000000000e-01) (3, 5, 5.00000000000000000000e-01) (3, 5, 5.00000000000000000000e-01) (3, 5, 5.00000000000000000000e-01) (3, 5, 5.00000000000000000000e-01) (3, 5, 5.00000000000000000000e-01) (3, 5, 5.00000000000000000000e-01) (3, 5, 5.00000000000000000000e-01) (3, 5, 5.00000000000000000000e-01) (3, 5, 5.00000000000000000000e-01) (3, 5, 5.00000000000000000000e-01) (3, 5, 5.00000000000000000000e-01) (3, 5, 5.00000000000000000000e-01) (3, 5, 5.00000000000000000000e-01) (3, 5, 5.00000000000000000000e-01) (3, 5, 5.00000000000000000000e-01) (3, 5, 5.00000000000000000000e-01) (3, 5, 5.00000000000000000000e-01) (3, 5, 5.00000000000000000000e-01) (3, 5, 5.00000000000000000000e-01) (3, 5, 5.00000000000000000000e-01) (3, 5, 5.00000000000000000000e-01) (3, 5, 5.00000000000000000000e-01) (3, 5, 5.00000000000000000000e-01) (3, 5, 5.00000000000000000000e-01) (3, 5, 5.00000000000000000000e-01) (3, 5, 5.00000000000000000000e-01) (3, 5, 5.00000000000000000000e-01) (3, 5, 5.00000000000000000000e-01) (3, 5, 5.00000000000000000000e-01) (3, 5, 5.00000000000000000000e-01) (3, 5, 5.00000000000000000000e-01) (3, 5, 5.00000000000000000000e-01) (3, 5, 5.00000000000000000000e-01) (3, 5, 5.00000000000000000000e-01) (3, 5, 5.00000000000000000000e-01) (3, 5, 5.00000000000000000000e-01) (3, 5, 5.00000000000000000000e-01) (3, 5, 5.00000000000000000000e-01) (3, 5, 5.00000000000000000000e-01) (3, 5, 5.00000000000000000000e-01) (3, 5, 5.00000000000000000000e-01) (3, 5, 5.00000000000000000000e-01) (3, 5, 5.00000000000000000000e-01) (3, 5, 5.00000000000000000000e-01) (3, 5, 5.00000000000000000000e-01) (3, 5, 5.00000000000000000000e-01) (3, 5, 5.00000000000000000000e-01) (3, 5, 5.00000000000000000000e-01) (3, 5, 5.00000000000000000000e-01) (3, 5, 5.00000000000000000000e-01) (3, 5, 5.00000000000000000000e-01) (3, 5, 5.00000000000000000000e-01) (3, 5, 5.00000000000000000000e-01) (3, 5, 5.00000000000000000000e-01) (3, 5, 5.00000000000000000000e-01) (0, 5, 0.00000000000000000000e+00) 
connections (connected_to_neuron, weight)=(0, -1.47920206189155578613e-01) (1, -1.15896509960293769836e-02) (2, 3.55564713478088378906e-01) (3, 1.24925442039966583252e-01) (4, 1.31828874349594116211e-01) (5, -3.55170398950576782227e-01) (6, 7.21581652760505676270e-03) (7, 3.46370749175548553467e-02) (8, -1.72393452376127243042e-02) (9, 3.59867125749588012695e-01) (10, 1.02014280855655670166e-01) (11, 2.90343940258026123047e-01) (12, -6.49044588208198547363e-02) (13, -9.40066203474998474121e-02) (14, 9.93615388870239257812e-01) (15, 1.25351950526237487793e-01) (16, 1.39956235885620117188e-01) (17, -9.64582264423370361328e-02) (18, 1.82655714452266693115e-02) (19, 9.80012193322181701660e-02) (20, 1.32064521312713623047e-01) (21, -3.13000306487083435059e-02) (22, 8.93666669726371765137e-02) (23, -3.23633968830108642578e-01) (24, 9.32851061224937438965e-03) (25, 3.34147542715072631836e-01) (26, -1.69553250074386596680e-01) (27, 3.05039614439010620117e-01) (28, 1.78960692137479782104e-02) (29, 6.46262243390083312988e-02) (30, -5.64097650349140167236e-02) (31, -3.55543382465839385986e-03) (32, 8.31690430641174316406e-02) (33, -2.98170804977416992188e-01) (34, 4.86200191080570220947e-02) (35, 2.64547348022460937500e-01) (36, -1.38381659984588623047e-01) (37, 1.59737125039100646973e-01) (38, 2.96593643724918365479e-02) (39, 1.73182606697082519531e-01) (40, -1.84645801782608032227e-01) (41, 1.81941851973533630371e-01) (42, -1.76989018917083740234e-01) (43, 2.20854997634887695312e-01) (44, 4.45501565933227539062e-01) (45, -8.89123827219009399414e-02) (46, 2.76480894535779953003e-02) (47, -3.07639360427856445312e-01) (48, 5.07678389549255371094e-01) (49, 1.29247352480888366699e-01) (50, 1.26865029335021972656e-01) (51, 1.79429575800895690918e-02) (52, -2.44452673941850662231e-02) (53, 3.52392792701721191406e-02) (54, -7.33407139778137207031e-02) (55, 4.79902148246765136719e-01) (56, -3.11072051525115966797e-01) (57, 2.62785285711288452148e-01) (58, -1.19055263698101043701e-01) (59, 2.95851975679397583008e-01) (60, 2.41390109062194824219e-01) (61, 5.59269897639751434326e-02) (62, 2.92921245098114013672e-01) (63, 1.17083499208092689514e-03) (64, -6.03954195976257324219e-02) (0, 6.07493448257446289062e+00) (1, 1.90796146392822265625e+01) (2, 1.94274199008941650391e+00) (3, 3.55320453643798828125e-01) (4, -5.80185949802398681641e-01) (5, -1.20767414569854736328e+00) (6, -1.66276252269744873047e+00) (7, -9.92485904693603515625e+00) (8, 5.24137115478515625000e+00) (9, 2.98195838928222656250e+01) (10, 2.09975218772888183594e+00) (11, -1.44804626703262329102e-01) (12, 1.29313722252845764160e-01) (13, -4.30600452423095703125e+00) (14, -3.86915564537048339844e+00) (15, -1.08865690231323242188e+01) (16, 1.63490715026855468750e+01) (17, 1.21607007980346679688e+01) (18, 2.77850198745727539062e+00) (19, -4.83833551406860351562e-02) (20, -2.88259387016296386719e-01) (21, -9.27133178710937500000e+00) (22, -1.10328559875488281250e+01) (23, -2.85316181182861328125e+00) (24, 9.31516571044921875000e+01) (25, 1.45855932235717773438e+01) (26, 2.83435535430908203125e+00) (27, 8.19276332855224609375e-01) (28, -2.73871719837188720703e-01) (29, -5.00006389617919921875e+00) (30, -1.85273857116699218750e+01) (31, -9.17237091064453125000e+00) (32, 4.62649497985839843750e+01) (33, 6.13532161712646484375e+00) (34, 4.92025470733642578125e+00) (35, 7.28439748287200927734e-01) (36, 2.60157942771911621094e-01) (37, -5.64192581176757812500e+00) (38, -2.00559616088867187500e+01) (39, -1.18875112533569335938e+01) (40, 5.11546564102172851562e+00) (41, 4.80722522735595703125e+00) (42, 3.72349119186401367188e+00) (43, 1.72544586658477783203e+00) (44, 8.62833082675933837891e-01) (45, -1.19086718559265136719e+00) (46, -5.47129106521606445312e+00) (47, -3.79504948854446411133e-01) (48, 5.05310869216918945312e+00) (49, 4.08535909652709960938e+00) (50, 3.49373769760131835938e+00) (51, 2.25231218338012695312e+00) (52, 1.68067321181297302246e-01) (53, -2.20730233192443847656e+00) (54, -1.80610000610351562500e+02) (55, -1.19635477066040039062e+01) (56, 5.62131214141845703125e+00) (57, 4.17911148071289062500e+00) (58, 3.21599531173706054688e+00) (59, 3.36585855484008789062e+00) (60, 1.44517481327056884766e+00) (61, -4.95999383926391601562e+00) (62, -9.48314476013183593750e+00) (63, -7.26085472106933593750e+00) (64, -4.27030334472656250000e+01) (65, 9.65837180614471435547e-01) (66, 4.97328769415616989136e-03) (67, -4.73014205694198608398e-01) (65, 7.67778046429157257080e-03) (66, 1.96273267269134521484e-01) (67, -1.86099112033843994141e-02) (65, 9.26855672150850296021e-03) (66, 1.27152413129806518555e-01) (67, -7.93185643851757049561e-03) (65, -8.53519048541784286499e-03) (66, -9.73521359264850616455e-03) (67, 4.15027374401688575745e-03) (65, 1.41738327220082283020e-02) (66, -4.54901158809661865234e-02) (67, -7.76232732459902763367e-03) (65, -5.25948777794837951660e-03) (66, -1.37009483296424150467e-03) (67, 3.21219861507415771484e-03) (65, -3.25861852616071701050e-03) (66, 7.95563776046037673950e-03) (67, 2.94710439629852771759e-03) (65, 1.03890243917703628540e-02) (66, -1.40308786649256944656e-03) (67, -4.98504983261227607727e-03) (65, -2.20224913209676742554e-03) (66, -1.00925909355282783508e-02) (67, 2.99602840095758438110e-03) (65, 2.34349607490003108978e-03) (66, 2.22196127288043498993e-03) (67, -1.46468833554536104202e-03) (65, -6.06480636633932590485e-04) (66, 2.51617771573364734650e-03) (67, 2.48614560405258089304e-05) (65, 4.03301179176196455956e-04) (66, 8.07440374046564102173e-03) (67, -8.83499567862600088120e-04) (65, -1.80173141416162252426e-03) (66, 6.79429247975349426270e-03) (67, -2.67284085566643625498e-05) (65, 1.56133412383496761322e-03) (66, -2.50056455843150615692e-03) (67, -1.97530281729996204376e-03) (65, 1.03133998345583677292e-03) (66, -5.53655627300031483173e-05) (67, -7.93913786765187978745e-04) (65, -1.63766753394156694412e-03) (66, 4.75875660777091979980e-03) (67, 1.03219156153500080109e-03) (65, 1.67827832046896219254e-03) (66, -3.76087287440896034241e-03) (67, -5.62143570277839899063e-04) (65, -2.59413127787411212921e-03) (66, 9.05756652355194091797e-03) (67, 9.25052794627845287323e-04) (65, 4.98490058816969394684e-04) (66, -1.86323723755776882172e-03) (67, -1.48886538227088749409e-05) (65, -5.84734916628804057837e-05) (66, 3.01235704682767391205e-04) (67, 2.22137095988728106022e-04) (65, -6.32374954875558614731e-04) (66, -3.51035443600267171860e-04) (67, 3.96185758290812373161e-04) (65, 5.09840647282544523478e-05) (66, 2.98583909170702099800e-05) (67, 5.73198522033635526896e-05) (65, 3.54465737473219633102e-05) (66, 1.17836221761535853148e-04) (67, 1.27587205497547984123e-04) (65, 1.04009814094752073288e-05) (66, 1.40803947579115629196e-03) (67, 2.41204907069914042950e-04) (65, 1.69879768509417772293e-03) (66, -6.28817419055849313736e-04) (67, -1.21801719069480895996e-03) (65, 2.76469829259440302849e-04) (66, 4.36527552665211260319e-05) (67, -1.76133733475580811501e-04) (65, -5.66549191717058420181e-04) (66, 1.60991621669381856918e-03) (67, 2.47929448960348963737e-04) (65, 5.83748151257168501616e-05) (66, 3.40563507052138447762e-04) (67, -2.59661581367254257202e-04) (65, 4.84529737150296568871e-04) (66, 9.60184479481540620327e-05) (67, -3.10146133415400981903e-04) (65, -3.53685245499946177006e-05) (66, -8.23043010313995182514e-05) (67, 2.62512359768152236938e-04) (65, 3.52473653038032352924e-05) (66, 1.03188060165848582983e-04) (67, -2.14633590076118707657e-04) (65, 3.30973707605153322220e-04) (66, 1.46012098412029445171e-04) (67, -4.47359110694378614426e-04) (65, -6.49532710667699575424e-04) (66, -7.57999296183697879314e-05) (67, 3.38360288878902792931e-04) (65, -1.46364909596741199493e-05) (66, -4.27826598752290010452e-05) (67, -4.16630937252193689346e-05) (65, -1.95253698620945215225e-04) (66, -1.25386897707358002663e-04) (67, -7.41037001716904342175e-05) (65, -1.17434574349317699671e-05) (66, -2.03549025172833353281e-05) (67, 1.31475462694652378559e-06) (65, 1.82631614734418690205e-04) (66, 1.53201952343806624413e-04) (67, 1.46346108522266149521e-04) (65, -2.28399585466831922531e-06) (66, -3.00905085168778896332e-05) (67, -4.67717472929507493973e-05) (65, 1.09060041722841560841e-04) (66, 1.57159243826754391193e-04) (67, 2.05435819225385785103e-04) (65, 3.42589686624705791473e-04) (66, 1.17098985356278717518e-04) (67, 6.73460090183652937412e-06) (65, 6.92462781444191932678e-05) (66, 7.75331791373901069164e-05) (67, 9.77591771516017615795e-05) (65, 2.60419401456601917744e-05) (66, -3.17539452225901186466e-05) (67, 4.96216889587230980396e-05) (65, 3.46070155501365661621e-05) (66, -6.43898747512139379978e-05) (67, 2.12101484066806733608e-04) (65, 1.38915042043663561344e-04) (66, 1.10742657852824777365e-04) (67, 9.69066604739055037498e-05) (65, -1.11839392047841101885e-04) (66, -1.22106284834444522858e-04) (67, -8.97086065378971397877e-05) (65, 1.94454798474907875061e-04) (66, 1.80615461431443691254e-04) (67, 1.56365480506792664528e-04) (65, 1.43636920256540179253e-04) (66, -6.53038296150043606758e-06) (67, 5.97643083892762660980e-05) (65, 8.73660901561379432678e-05) (66, 6.90242741256952285767e-05) (67, 3.46285560226533561945e-05) (65, 1.22880504932254552841e-04) (66, 2.24184928811155259609e-04) (67, 1.76186440512537956238e-05) (65, 1.45320402225479483604e-04) (66, 1.41430849907919764519e-04) (67, 1.12784895463846623898e-04) (65, 8.34025122458115220070e-05) (66, 2.61317181866616010666e-04) (67, 1.23440971947275102139e-04) (65, 4.23800374846905469894e-05) (66, 1.10249129647854715586e-04) (67, 1.10602275526616722345e-04) (65, 6.35219039395451545715e-05) (66, 2.22636255784891545773e-04) (67, 4.90880629513412714005e-05) (65, -9.03956679394468665123e-05) (66, -4.79403897770680487156e-05) (67, -5.72631761315278708935e-05) (65, -3.12897391268052160740e-05) (66, 3.71071291738189756870e-05) (67, 4.05510290875099599361e-05) (65, 2.99173698294907808304e-05) (66, 1.29522872157394886017e-04) (67, 1.34105968754738569260e-04) (65, 9.88613683148287236691e-05) (66, 2.45445044129155576229e-05) (67, 9.11924144020304083824e-06) (65, 9.54526913119480013847e-05) (66, 9.56105650402605533600e-05) (67, 1.20159922516904771328e-04) (65, 1.26360464491881430149e-05) (66, -9.51812398852780461311e-06) (67, 2.31340600294061005116e-05) (65, 1.66631536558270454407e-04) (66, 1.73338557942770421505e-04) (67, 1.35487847728654742241e-04) (65, 2.94512501568533480167e-05) (66, 2.95213321805931627750e-05) (67, 1.07191808638162910938e-05) (65, 1.34953617816790938377e-04) (66, 1.55866553541272878647e-04) (67, 1.73156469827517867088e-04) (65, -7.40619725547730922699e-07) (66, -5.08232260472141206264e-05) (67, -1.02762998722027987242e-04) (65, 5.03832648973912000656e-04) (66, -1.54179288074374198914e-04) (67, -2.70573422312736511230e-04) 
