FANN_FLO_2.1
num_layers=4
learning_rate=0.500000
connection_rate=1.000000
network_type=0
learning_momentum=0.000000
training_algorithm=2
train_error_function=1
train_stop_function=0
cascade_output_change_fraction=0.010000
quickprop_decay=-0.000100
quickprop_mu=1.750000
rprop_increase_factor=1.200000
rprop_decrease_factor=0.500000
rprop_delta_min=0.000000
rprop_delta_max=50.000000
rprop_delta_zero=0.100000
cascade_output_stagnation_epochs=12
cascade_candidate_change_fraction=0.010000
cascade_candidate_stagnation_epochs=12
cascade_max_out_epochs=150
cascade_min_out_epochs=50
cascade_max_cand_epochs=150
cascade_min_cand_epochs=50
cascade_num_candidate_groups=2
bit_fail_limit=3.49999994039535522461e-01
cascade_candidate_limit=1.00000000000000000000e+03
cascade_weight_multiplier=4.00000005960464477539e-01
cascade_activation_functions_count=10
cascade_activation_functions=3 5 7 8 10 11 14 15 16 17 
cascade_activation_steepnesses_count=4
cascade_activation_steepnesses=2.50000000000000000000e-01 5.00000000000000000000e-01 7.50000000000000000000e-01 1.00000000000000000000e+00 
layer_sizes=2 5 3 3 
scale_included=0
neurons (num_inputs, activation_function, activation_steepness)=(0, 0, 0.00000000000000000000e+00) (0, 0, 0.00000000000000000000e+00) (2, 3, 5.00000000000000000000e-01) (2, 3, 5.00000000000000000000e-01) (2, 3, 5.00000000000000000000e-01) (2, 3, 5.00000000000000000000e-01) (0, 3, 0.00000000000000000000e+00) (5, 3, 5.00000000000000000000e-01) (5, 3, 5.00000000000000000000e-01) (0, 3, 0.00000000000000000000e+00) (3, 0, 5.00000000000000000000e-01) (3, 0, 5.00000000000000000000e-01) (0, 0, 0.00000000000000000000e+00) 
connections (connected_to_neuron, weight)=(0, 1.35102138519287109375e+01) (1, -1.89292109012603759766e+00) (0, 1.77300739288330078125e+01) (1, -9.74599003791809082031e-01) (0, 1.01896667480468750000e+01) (1, -3.31270647048950195312e+00) (0, 1.70314235687255859375e+01) (1, -6.68075418472290039062e+00) (2, 6.21227681636810302734e-01) (3, 3.06982994079589843750e+00) (4, 9.63046550750732421875e-01) (5, -4.27076673507690429688e+00) (6, -1.84072387218475341797e+00) (2, -1.05846071243286132812e+00) (3, -6.23361840844154357910e-02) (4, -2.65065193176269531250e+00) (5, -1.20659995079040527344e+00) (6, 1.07387006282806396484e+00) (7, -3.31341552734375000000e+00) (8, 4.24116820096969604492e-01) (9, 6.56929671764373779297e-01) (7, 6.06080055236816406250e-01) (8, 6.12057590484619140625e+00) (9, -2.42043781280517578125e+00) 
