FANN_FLO_2.1
num_layers=4
learning_rate=0.500000
connection_rate=1.000000
network_type=0
learning_momentum=0.000000
training_algorithm=2
train_error_function=1
train_stop_function=0
cascade_output_change_fraction=0.010000
quickprop_decay=-0.000100
quickprop_mu=1.750000
rprop_increase_factor=1.200000
rprop_decrease_factor=0.500000
rprop_delta_min=0.000000
rprop_delta_max=50.000000
rprop_delta_zero=0.100000
cascade_output_stagnation_epochs=12
cascade_candidate_change_fraction=0.010000
cascade_candidate_stagnation_epochs=12
cascade_max_out_epochs=150
cascade_min_out_epochs=50
cascade_max_cand_epochs=150
cascade_min_cand_epochs=50
cascade_num_candidate_groups=2
bit_fail_limit=3.49999994039535522461e-01
cascade_candidate_limit=1.00000000000000000000e+03
cascade_weight_multiplier=4.00000005960464477539e-01
cascade_activation_functions_count=10
cascade_activation_functions=3 5 7 8 10 11 14 15 16 17 
cascade_activation_steepnesses_count=4
cascade_activation_steepnesses=2.50000000000000000000e-01 5.00000000000000000000e-01 7.50000000000000000000e-01 1.00000000000000000000e+00 
layer_sizes=10 3 3 2 
scale_included=0
neurons (num_inputs, activation_function, activation_steepness)=(0, 0, 0.00000000000000000000e+00) (0, 0, 0.00000000000000000000e+00) (0, 0, 0.00000000000000000000e+00) (0, 0, 0.00000000000000000000e+00) (0, 0, 0.00000000000000000000e+00) (0, 0, 0.00000000000000000000e+00) (0, 0, 0.00000000000000000000e+00) (0, 0, 0.00000000000000000000e+00) (0, 0, 0.00000000000000000000e+00) (0, 0, 0.00000000000000000000e+00) (10, 3, 5.00000000000000000000e-01) (10, 3, 5.00000000000000000000e-01) (0, 3, 0.00000000000000000000e+00) (3, 3, 5.00000000000000000000e-01) (3, 3, 5.00000000000000000000e-01) (0, 3, 0.00000000000000000000e+00) (3, 3, 5.00000000000000000000e-01) (0, 3, 0.00000000000000000000e+00) 
connections (connected_to_neuron, weight)=(0, -1.09435594081878662109e+00) (1, -1.32375431060791015625e+01) (2, -4.41402387619018554688e+00) (3, 1.18312966823577880859e+00) (4, -2.71736693382263183594e+00) (5, 1.97168409824371337891e+00) (6, 6.73884963989257812500e+00) (7, 4.06753635406494140625e+00) (8, 1.25890274047851562500e+01) (9, 2.91679978370666503906e-01) (0, 2.62638181447982788086e-01) (1, -1.28483304977416992188e+01) (2, -5.34661626815795898438e+00) (3, 1.35910809040069580078e+00) (4, -2.36114072799682617188e+00) (5, 1.94196450710296630859e+00) (6, 1.95494115352630615234e+00) (7, 7.65323352813720703125e+00) (8, 1.28904895782470703125e+01) (9, 1.58526420593261718750e-01) (10, -6.39973640441894531250e+00) (11, -6.44671297073364257812e+00) (12, 7.41889858245849609375e+00) (10, -5.74029207229614257812e+00) (11, -7.15825128555297851562e+00) (12, 7.47223043441772460938e+00) (13, 1.34303092956542968750e+00) (14, 2.77365505695343017578e-01) (15, -7.21065580844879150391e-01) 
