FANN_FLO_2.1
num_layers=4
learning_rate=0.500000
connection_rate=1.000000
network_type=0
learning_momentum=0.000000
training_algorithm=2
train_error_function=1
train_stop_function=0
cascade_output_change_fraction=0.010000
quickprop_decay=-0.000100
quickprop_mu=1.750000
rprop_increase_factor=1.200000
rprop_decrease_factor=0.500000
rprop_delta_min=0.000000
rprop_delta_max=50.000000
rprop_delta_zero=0.100000
cascade_output_stagnation_epochs=12
cascade_candidate_change_fraction=0.010000
cascade_candidate_stagnation_epochs=12
cascade_max_out_epochs=150
cascade_min_out_epochs=50
cascade_max_cand_epochs=150
cascade_min_cand_epochs=50
cascade_num_candidate_groups=2
bit_fail_limit=3.49999994039535522461e-01
cascade_candidate_limit=1.00000000000000000000e+03
cascade_weight_multiplier=4.00000005960464477539e-01
cascade_activation_functions_count=10
cascade_activation_functions=3 5 7 8 10 11 14 15 16 17 
cascade_activation_steepnesses_count=4
cascade_activation_steepnesses=2.50000000000000000000e-01 5.00000000000000000000e-01 7.50000000000000000000e-01 1.00000000000000000000e+00 
layer_sizes=10 9 9 2 
scale_included=0
neurons (num_inputs, activation_function, activation_steepness)=(0, 0, 0.00000000000000000000e+00) (0, 0, 0.00000000000000000000e+00) (0, 0, 0.00000000000000000000e+00) (0, 0, 0.00000000000000000000e+00) (0, 0, 0.00000000000000000000e+00) (0, 0, 0.00000000000000000000e+00) (0, 0, 0.00000000000000000000e+00) (0, 0, 0.00000000000000000000e+00) (0, 0, 0.00000000000000000000e+00) (0, 0, 0.00000000000000000000e+00) (10, 3, 5.00000000000000000000e-01) (10, 3, 5.00000000000000000000e-01) (10, 3, 5.00000000000000000000e-01) (10, 3, 5.00000000000000000000e-01) (10, 3, 5.00000000000000000000e-01) (10, 3, 5.00000000000000000000e-01) (10, 3, 5.00000000000000000000e-01) (10, 3, 5.00000000000000000000e-01) (0, 3, 0.00000000000000000000e+00) (9, 3, 5.00000000000000000000e-01) (9, 3, 5.00000000000000000000e-01) (9, 3, 5.00000000000000000000e-01) (9, 3, 5.00000000000000000000e-01) (9, 3, 5.00000000000000000000e-01) (9, 3, 5.00000000000000000000e-01) (9, 3, 5.00000000000000000000e-01) (9, 3, 5.00000000000000000000e-01) (0, 3, 0.00000000000000000000e+00) (9, 3, 5.00000000000000000000e-01) (0, 3, 0.00000000000000000000e+00) 
connections (connected_to_neuron, weight)=(0, -1.46108776855468750000e+03) (1, 1.53155717849731445312e+01) (2, -4.34184844970703125000e+02) (3, -1.23043591308593750000e+03) (4, 5.98577308654785156250e+00) (5, 4.82616615295410156250e+00) (6, 8.17770996093750000000e+02) (7, 4.09537658691406250000e+02) (8, -1.59726896286010742188e+01) (9, 3.69383311271667480469e+00) (0, -1.90501956939697265625e+01) (1, -1.07991577148437500000e+02) (2, 4.84151275634765625000e+02) (3, 2.51704421997070312500e+02) (4, -1.35705444335937500000e+02) (5, 6.08995513916015625000e+01) (6, -1.19190742492675781250e+02) (7, -3.25978485107421875000e+02) (8, -6.17265075683593750000e+02) (9, 7.67098093032836914062e+00) (0, -4.58565330505371093750e+01) (1, 3.64774169921875000000e+02) (2, 6.54517211914062500000e+01) (3, -6.37383911132812500000e+02) (4, 1.22411823272705078125e+01) (5, 4.61117744445800781250e+00) (6, 1.01215408325195312500e+02) (7, 4.88369018554687500000e+02) (8, -1.32198171615600585938e+01) (9, -7.18131721019744873047e-01) (0, -4.50517129898071289062e+00) (1, -7.70826518535614013672e-01) (2, -1.23369722366333007812e+01) (3, -7.27024536132812500000e+01) (4, 2.69188518524169921875e+01) (5, -2.04399228096008300781e+00) (6, 4.72661056518554687500e+01) (7, 1.65017223358154296875e+01) (8, -8.67949295043945312500e+00) (9, 9.48108768463134765625e+00) (0, 1.49695971679687500000e+03) (1, -1.36607275390625000000e+03) (2, -4.89852691650390625000e+02) (3, 2.29541198730468750000e+02) (4, -1.13983192443847656250e+01) (5, -1.42888069152832031250e+01) (6, 4.39544921875000000000e+02) (7, -2.33882598876953125000e+02) (8, -4.56138954162597656250e+01) (9, 9.19038867950439453125e+00) (0, 2.09894447326660156250e+01) (1, 3.07639932632446289062e+00) (2, -7.67688751220703125000e+01) (3, 6.42566084861755371094e-01) (4, 5.12104392051696777344e-01) (5, 7.12803573608398437500e+01) (6, 1.92021026611328125000e+01) (7, 8.05854797363281250000e+00) (8, -1.91117076873779296875e+01) (9, 1.40105724334716796875e+00) (0, -1.13232269287109375000e+01) (1, -3.13443899154663085938e+00) (2, -9.05058383941650390625e+00) (3, 8.46831738948822021484e-01) (4, -2.81773877143859863281e+00) (5, 3.25042581558227539062e+00) (6, 3.80391979217529296875e+00) (7, 1.71115255355834960938e+00) (8, 2.39642963409423828125e+01) (9, -2.66867190599441528320e-01) (0, 1.49952551269531250000e+03) (1, -1.31052465820312500000e+03) (2, 1.82801620483398437500e+02) (3, -5.38964843750000000000e+02) (4, -2.63522624969482421875e+00) (5, -1.64359436035156250000e+01) (6, -5.33438758850097656250e+01) (7, -1.84483833312988281250e+01) (8, 8.05770301818847656250e+00) (9, 1.43870264291763305664e-01) (10, 5.59536621093750000000e+02) (11, 4.01347442626953125000e+02) (12, 1.26742541790008544922e+00) (13, -3.34373569488525390625e+00) (14, 9.48141956329345703125e+00) (15, -3.67658996582031250000e+00) (16, 1.95430028438568115234e+00) (17, -7.11638784408569335938e+00) (18, 9.35746669769287109375e-01) (10, 5.59536621093750000000e+02) (11, 3.01347259521484375000e+02) (12, -1.56036961078643798828e+00) (13, 1.44461143016815185547e+00) (14, 7.06400096416473388672e-01) (15, 6.88443481922149658203e-01) (16, -4.62204837799072265625e+00) (17, 1.27424597740173339844e-01) (18, 1.38381922245025634766e+00) (10, 5.59536621093750000000e+02) (11, 4.01347442626953125000e+02) (12, -2.28029968261718750000e+02) (13, -1.49177551269531250000e+03) (14, -1.47188195800781250000e+03) (15, -1.19096875000000000000e+03) (16, -4.20617790222167968750e+01) (17, 1.60725802183151245117e-01) (18, -2.84848499298095703125e+00) (10, 1.66832000732421875000e+02) (11, 1.05177230834960937500e+02) (12, 1.48423516750335693359e+00) (13, -2.26947116851806640625e+00) (14, 1.50000000000000000000e+03) (15, 4.67516136169433593750e+01) (16, 2.10004583001136779785e-01) (17, -2.40938329696655273438e+00) (18, -2.68850624561309814453e-01) (10, -1.50000000000000000000e+03) (11, 2.33511295318603515625e+01) (12, 3.99050045013427734375e+00) (13, -6.84250549316406250000e+02) (14, 7.32706985473632812500e+01) (15, 1.99979603290557861328e-01) (16, -2.66933383941650390625e+01) (17, -3.70727539062500000000e+00) (18, -3.62661051750183105469e+00) (10, 5.59536621093750000000e+02) (11, 4.01347442626953125000e+02) (12, -3.79962205886840820312e-01) (13, 3.42268276214599609375e+00) (14, 8.58157409667968750000e+02) (15, -1.49765151977539062500e+02) (16, 4.67699432373046875000e+00) (17, 1.53022158145904541016e+00) (18, 1.04539775848388671875e+00) (10, 1.66832000732421875000e+02) (11, 1.05177230834960937500e+02) (12, 6.63845717906951904297e-01) (13, 1.98877465724945068359e+00) (14, 1.50000000000000000000e+03) (15, -4.02859830856323242188e+00) (16, 8.40354251861572265625e+00) (17, -1.08598411083221435547e+00) (18, -3.16343140602111816406e+00) (10, 5.59536621093750000000e+02) (11, 5.14328796386718750000e+02) (12, 4.67960643768310546875e+00) (13, 1.35504560470581054688e+01) (14, -1.00833264160156250000e+03) (15, -1.07886389160156250000e+03) (16, -1.73864936828613281250e+01) (17, 6.63481903076171875000e+01) (18, 3.47661972045898437500e+00) (19, 1.29021608829498291016e+00) (20, 1.31381881237030029297e+00) (21, 1.50000000000000000000e+03) (22, -2.93488293886184692383e-01) (23, 3.28081220388412475586e-01) (24, 3.15541267395019531250e-01) (25, -1.68276023864746093750e+00) (26, 9.89547729492187500000e-01) (27, 2.99455393105745315552e-02) 
