FANN_FLO_2.1
num_layers=3
learning_rate=0.500000
connection_rate=1.000000
network_type=0
learning_momentum=0.000000
training_algorithm=2
train_error_function=1
train_stop_function=0
cascade_output_change_fraction=0.010000
quickprop_decay=-0.000100
quickprop_mu=1.750000
rprop_increase_factor=1.200000
rprop_decrease_factor=0.500000
rprop_delta_min=0.000000
rprop_delta_max=50.000000
rprop_delta_zero=0.100000
cascade_output_stagnation_epochs=12
cascade_candidate_change_fraction=0.010000
cascade_candidate_stagnation_epochs=12
cascade_max_out_epochs=150
cascade_min_out_epochs=50
cascade_max_cand_epochs=150
cascade_min_cand_epochs=50
cascade_num_candidate_groups=2
bit_fail_limit=3.49999994039535522461e-01
cascade_candidate_limit=1.00000000000000000000e+03
cascade_weight_multiplier=4.00000005960464477539e-01
cascade_activation_functions_count=10
cascade_activation_functions=3 5 7 8 10 11 14 15 16 17 
cascade_activation_steepnesses_count=4
cascade_activation_steepnesses=2.50000000000000000000e-01 5.00000000000000000000e-01 7.50000000000000000000e-01 1.00000000000000000000e+00 
layer_sizes=10 5 2 
scale_included=0
neurons (num_inputs, activation_function, activation_steepness)=(0, 0, 0.00000000000000000000e+00) (0, 0, 0.00000000000000000000e+00) (0, 0, 0.00000000000000000000e+00) (0, 0, 0.00000000000000000000e+00) (0, 0, 0.00000000000000000000e+00) (0, 0, 0.00000000000000000000e+00) (0, 0, 0.00000000000000000000e+00) (0, 0, 0.00000000000000000000e+00) (0, 0, 0.00000000000000000000e+00) (0, 0, 0.00000000000000000000e+00) (10, 3, 5.00000000000000000000e-01) (10, 3, 5.00000000000000000000e-01) (10, 3, 5.00000000000000000000e-01) (10, 3, 5.00000000000000000000e-01) (0, 3, 0.00000000000000000000e+00) (5, 3, 5.00000000000000000000e-01) (0, 3, 0.00000000000000000000e+00) 
connections (connected_to_neuron, weight)=(0, -2.55128753662109375000e+02) (1, -1.46460400390625000000e+03) (2, -1.41953320312500000000e+03) (3, -6.50035095214843750000e+00) (4, -1.19559753417968750000e+03) (5, -2.11499824523925781250e+01) (6, 1.49900598144531250000e+03) (7, 2.81179845333099365234e-01) (8, 1.50000000000000000000e+03) (9, -2.69214115142822265625e+01) (0, 3.67567169189453125000e+02) (1, -1.50000000000000000000e+03) (2, -1.47673046875000000000e+03) (3, 8.12391281127929687500e+01) (4, -1.90987060546875000000e+02) (5, -1.42640578746795654297e+00) (6, 1.49924304199218750000e+03) (7, 4.89512503147125244141e-01) (8, 1.48116601562500000000e+03) (9, 4.61806106567382812500e+00) (0, -1.53903687000274658203e+00) (1, -8.79435539245605468750e+00) (2, -4.32250499725341796875e-01) (3, 1.06193199157714843750e+01) (4, -1.18829517364501953125e+01) (5, 2.95645976066589355469e+00) (6, -3.97962033748626708984e-01) (7, 8.66917896270751953125e+00) (8, 1.42986047267913818359e+00) (9, 1.50205343961715698242e-01) (0, 8.58516296386718750000e+02) (1, -1.49518957519531250000e+03) (2, -1.48790722656250000000e+03) (3, -7.97999978065490722656e-01) (4, -1.23835998535156250000e+02) (5, 1.06581640243530273438e+01) (6, 1.50000000000000000000e+03) (7, -5.64889311790466308594e-01) (8, 1.50000000000000000000e+03) (9, -4.19359713792800903320e-01) (10, 3.13184404373168945312e+00) (11, 3.18977147340774536133e-01) (12, -4.14690542221069335938e+00) (13, 5.34725844860076904297e-01) (14, 1.01194202899932861328e+00) 
