FANN_FLO_2.1
num_layers=4
learning_rate=0.500000
connection_rate=1.000000
network_type=0
learning_momentum=0.000000
training_algorithm=2
train_error_function=1
train_stop_function=0
cascade_output_change_fraction=0.010000
quickprop_decay=-0.000100
quickprop_mu=1.750000
rprop_increase_factor=1.200000
rprop_decrease_factor=0.500000
rprop_delta_min=0.000000
rprop_delta_max=50.000000
rprop_delta_zero=0.100000
cascade_output_stagnation_epochs=12
cascade_candidate_change_fraction=0.010000
cascade_candidate_stagnation_epochs=12
cascade_max_out_epochs=150
cascade_min_out_epochs=50
cascade_max_cand_epochs=150
cascade_min_cand_epochs=50
cascade_num_candidate_groups=2
bit_fail_limit=3.49999994039535522461e-01
cascade_candidate_limit=1.00000000000000000000e+03
cascade_weight_multiplier=4.00000005960464477539e-01
cascade_activation_functions_count=10
cascade_activation_functions=3 5 7 8 10 11 14 15 16 17 
cascade_activation_steepnesses_count=4
cascade_activation_steepnesses=2.50000000000000000000e-01 5.00000000000000000000e-01 7.50000000000000000000e-01 1.00000000000000000000e+00 
layer_sizes=10 9 3 2 
scale_included=0
neurons (num_inputs, activation_function, activation_steepness)=(0, 0, 0.00000000000000000000e+00) (0, 0, 0.00000000000000000000e+00) (0, 0, 0.00000000000000000000e+00) (0, 0, 0.00000000000000000000e+00) (0, 0, 0.00000000000000000000e+00) (0, 0, 0.00000000000000000000e+00) (0, 0, 0.00000000000000000000e+00) (0, 0, 0.00000000000000000000e+00) (0, 0, 0.00000000000000000000e+00) (0, 0, 0.00000000000000000000e+00) (10, 3, 5.00000000000000000000e-01) (10, 3, 5.00000000000000000000e-01) (10, 3, 5.00000000000000000000e-01) (10, 3, 5.00000000000000000000e-01) (10, 3, 5.00000000000000000000e-01) (10, 3, 5.00000000000000000000e-01) (10, 3, 5.00000000000000000000e-01) (10, 3, 5.00000000000000000000e-01) (0, 3, 0.00000000000000000000e+00) (9, 3, 5.00000000000000000000e-01) (9, 3, 5.00000000000000000000e-01) (0, 3, 0.00000000000000000000e+00) (3, 3, 5.00000000000000000000e-01) (0, 3, 0.00000000000000000000e+00) 
connections (connected_to_neuron, weight)=(0, 1.86125493049621582031e+00) (1, 1.99984610080718994141e+00) (2, 1.97072410583496093750e+00) (3, -1.10513219833374023438e+01) (4, 5.47883570194244384766e-01) (5, 8.48421859741210937500e+00) (6, -6.32138872146606445312e+00) (7, -7.35364735126495361328e-01) (8, 5.08320951461791992188e+00) (9, -6.44609749317169189453e-01) (0, 4.16495418548583984375e+00) (1, 1.70625841617584228516e+00) (2, 1.62589502334594726562e+00) (3, -1.51878643035888671875e+01) (4, 1.15507197380065917969e+00) (5, 1.50796642303466796875e+01) (6, -1.90211105346679687500e+00) (7, -6.78020143508911132812e+00) (8, 4.30918788909912109375e+00) (9, -3.56755518913269042969e+00) (0, -1.44005641937255859375e+01) (1, -5.71909606456756591797e-01) (2, -2.36056938171386718750e+01) (3, 3.61017150878906250000e+01) (4, 4.30227637290954589844e-01) (5, 1.09614109992980957031e+00) (6, -7.82238149642944335938e+00) (7, -1.17573404312133789062e+00) (8, 8.08030784130096435547e-01) (9, -1.83681988716125488281e+00) (0, 3.93706107139587402344e+00) (1, 2.03687906265258789062e+00) (2, 2.05366945266723632812e+00) (3, -1.31077947616577148438e+01) (4, 2.16459369659423828125e+00) (5, 1.22887496948242187500e+01) (6, -1.95826852321624755859e+00) (7, -3.52687239646911621094e+00) (8, 4.49627542495727539062e+00) (9, -2.93501543998718261719e+00) (0, -1.00754553222656250000e+03) (1, -1.59408342838287353516e+00) (2, -9.86877059936523437500e+00) (3, -4.37022644042968750000e+02) (4, 2.38973602652549743652e-01) (5, 7.94368028640747070312e-01) (6, -1.35342968750000000000e+03) (7, -5.85554361343383789062e+00) (8, -1.10878845214843750000e+03) (9, 4.40628349781036376953e-01) (0, -1.37325963973999023438e+01) (1, -5.25500595569610595703e-01) (2, -2.35786418914794921875e+01) (3, 3.61649169921875000000e+01) (4, 4.10955548286437988281e-01) (5, 8.59246373176574707031e-01) (6, -5.96003150939941406250e+00) (7, -2.67641842365264892578e-01) (8, 8.37215662002563476562e-01) (9, -1.69948852062225341797e+00) (0, -2.87969923019409179688e+00) (1, -2.21792105585336685181e-02) (2, 1.39355230331420898438e+00) (3, -8.39844665527343750000e+02) (4, 9.95575487613677978516e-01) (5, 4.08519601821899414062e+00) (6, -2.16163754463195800781e+00) (7, -1.37695002555847167969e+00) (8, 4.29175079345703125000e+02) (9, 3.01159381866455078125e+00) (0, 5.49448156356811523438e+00) (1, 1.92735862731933593750e+00) (2, 2.23722028732299804688e+00) (3, -1.30781183242797851562e+01) (4, 1.69077205657958984375e+00) (5, 9.58582878112792968750e+00) (6, -8.36724472045898437500e+00) (7, 2.03770327568054199219e+00) (8, 5.90496397018432617188e+00) (9, -4.20091342926025390625e+00) (10, -2.74932503700256347656e+00) (11, 9.44046115875244140625e+00) (12, 5.41228151321411132812e+00) (13, 6.99764299392700195312e+00) (14, 1.50000000000000000000e+03) (15, 5.25725936889648437500e+00) (16, 3.90334558486938476562e+00) (17, -2.91045117378234863281e+00) (18, -5.94670248031616210938e+00) (10, 2.36524605751037597656e+00) (11, 4.50501632690429687500e+00) (12, 1.02472667694091796875e+01) (13, 2.58094459772109985352e-01) (14, 1.50000000000000000000e+03) (15, 5.19972419738769531250e+00) (16, 1.51085436344146728516e+00) (17, 9.53186702728271484375e+00) (18, -1.12805728912353515625e+01) (19, 1.86915183067321777344e+00) (20, 2.50048607587814331055e-01) (21, -1.23153674602508544922e+00) 
