FANN_FLO_2.1
num_layers=4
learning_rate=0.400000
connection_rate=1.000000
network_type=0
learning_momentum=0.000000
training_algorithm=2
train_error_function=1
train_stop_function=0
cascade_output_change_fraction=0.010000
quickprop_decay=-0.000100
quickprop_mu=1.750000
rprop_increase_factor=1.200000
rprop_decrease_factor=0.500000
rprop_delta_min=0.000000
rprop_delta_max=50.000000
rprop_delta_zero=0.100000
cascade_output_stagnation_epochs=12
cascade_candidate_change_fraction=0.010000
cascade_candidate_stagnation_epochs=12
cascade_max_out_epochs=150
cascade_min_out_epochs=50
cascade_max_cand_epochs=150
cascade_min_cand_epochs=50
cascade_num_candidate_groups=2
bit_fail_limit=3.49999994039535522461e-01
cascade_candidate_limit=1.00000000000000000000e+03
cascade_weight_multiplier=4.00000005960464477539e-01
cascade_activation_functions_count=10
cascade_activation_functions=3 5 7 8 10 11 14 15 16 17 
cascade_activation_steepnesses_count=4
cascade_activation_steepnesses=2.50000000000000000000e-01 5.00000000000000000000e-01 7.50000000000000000000e-01 1.00000000000000000000e+00 
layer_sizes=7 5 5 2 
scale_included=0
neurons (num_inputs, activation_function, activation_steepness)=(0, 0, 0.00000000000000000000e+00) (0, 0, 0.00000000000000000000e+00) (0, 0, 0.00000000000000000000e+00) (0, 0, 0.00000000000000000000e+00) (0, 0, 0.00000000000000000000e+00) (0, 0, 0.00000000000000000000e+00) (0, 0, 0.00000000000000000000e+00) (7, 3, 5.00000000000000000000e-01) (7, 3, 5.00000000000000000000e-01) (7, 3, 5.00000000000000000000e-01) (7, 3, 5.00000000000000000000e-01) (0, 3, 0.00000000000000000000e+00) (5, 3, 5.00000000000000000000e-01) (5, 3, 5.00000000000000000000e-01) (5, 3, 5.00000000000000000000e-01) (5, 3, 5.00000000000000000000e-01) (0, 3, 0.00000000000000000000e+00) (5, 3, 5.00000000000000000000e-01) (0, 3, 0.00000000000000000000e+00) 
connections (connected_to_neuron, weight)=(0, -7.92756080627441406250e+00) (1, 6.78874731063842773438e+00) (2, -3.02049875259399414062e+00) (3, -2.94964003562927246094e+00) (4, -1.51246440410614013672e+00) (5, -4.54956674575805664062e+00) (6, 2.11550378799438476562e+00) (0, 3.04966807365417480469e+00) (1, -2.16467809677124023438e+00) (2, -6.87687444686889648438e+00) (3, -1.26547002792358398438e+01) (4, -3.03631234169006347656e+00) (5, 3.10411000251770019531e+00) (6, 9.94660198688507080078e-01) (0, -2.27146410942077636719e+00) (1, -1.97670102119445800781e+00) (2, 2.07620029449462890625e+01) (3, -1.34246520996093750000e+01) (4, -1.80886292457580566406e+00) (5, 4.13146877288818359375e+00) (6, 1.62124085426330566406e+00) (0, -1.53207588195800781250e+00) (1, -4.71951522827148437500e+01) (2, -1.26046362304687500000e+03) (3, 1.13080186843872070312e+01) (4, -1.28518859863281250000e+02) (5, 1.47892074584960937500e+02) (6, 4.52359110116958618164e-01) (7, 1.50000000000000000000e+03) (8, -7.64884704589843750000e+02) (9, 1.49263745117187500000e+03) (10, 7.99695587158203125000e+01) (11, 8.65659427642822265625e+00) (7, 7.65695381164550781250e+00) (8, -1.37211112976074218750e+01) (9, 2.29712486267089843750e+01) (10, 8.75399875640869140625e+00) (11, -4.47875595092773437500e+00) (7, 2.20264835357666015625e+01) (8, 2.39880737304687500000e+02) (9, 1.59795471191406250000e+02) (10, -1.10338907241821289062e+01) (11, -2.91589021682739257812e+00) (7, 1.24669258117675781250e+02) (8, -1.61127090454101562500e+02) (9, 6.53360229492187500000e+02) (10, -1.49916320800781250000e+02) (11, -3.72300415039062500000e+01) (12, -6.00857138633728027344e-01) (13, -1.37943589687347412109e+00) (14, -9.76283311843872070312e-01) (15, -6.59036993980407714844e-01) (16, -4.26172614097595214844e-01) 
