FANN_FLO_2.1
num_layers=3
learning_rate=0.500000
connection_rate=1.000000
network_type=0
learning_momentum=0.000000
training_algorithm=2
train_error_function=1
train_stop_function=0
cascade_output_change_fraction=0.010000
quickprop_decay=-0.000100
quickprop_mu=1.750000
rprop_increase_factor=1.200000
rprop_decrease_factor=0.500000
rprop_delta_min=0.000000
rprop_delta_max=50.000000
rprop_delta_zero=0.100000
cascade_output_stagnation_epochs=12
cascade_candidate_change_fraction=0.010000
cascade_candidate_stagnation_epochs=12
cascade_max_out_epochs=150
cascade_min_out_epochs=50
cascade_max_cand_epochs=150
cascade_min_cand_epochs=50
cascade_num_candidate_groups=2
bit_fail_limit=3.49999994039535522461e-01
cascade_candidate_limit=1.00000000000000000000e+03
cascade_weight_multiplier=4.00000005960464477539e-01
cascade_activation_functions_count=10
cascade_activation_functions=3 5 7 8 10 11 14 15 16 17 
cascade_activation_steepnesses_count=4
cascade_activation_steepnesses=2.50000000000000000000e-01 5.00000000000000000000e-01 7.50000000000000000000e-01 1.00000000000000000000e+00 
layer_sizes=10 9 2 
scale_included=0
neurons (num_inputs, activation_function, activation_steepness)=(0, 0, 0.00000000000000000000e+00) (0, 0, 0.00000000000000000000e+00) (0, 0, 0.00000000000000000000e+00) (0, 0, 0.00000000000000000000e+00) (0, 0, 0.00000000000000000000e+00) (0, 0, 0.00000000000000000000e+00) (0, 0, 0.00000000000000000000e+00) (0, 0, 0.00000000000000000000e+00) (0, 0, 0.00000000000000000000e+00) (0, 0, 0.00000000000000000000e+00) (10, 3, 5.00000000000000000000e-01) (10, 3, 5.00000000000000000000e-01) (10, 3, 5.00000000000000000000e-01) (10, 3, 5.00000000000000000000e-01) (10, 3, 5.00000000000000000000e-01) (10, 3, 5.00000000000000000000e-01) (10, 3, 5.00000000000000000000e-01) (10, 3, 5.00000000000000000000e-01) (0, 3, 0.00000000000000000000e+00) (9, 3, 5.00000000000000000000e-01) (0, 3, 0.00000000000000000000e+00) 
connections (connected_to_neuron, weight)=(0, -1.34498202800750732422e+00) (1, -2.23041892051696777344e+00) (2, -1.58583796024322509766e+00) (3, -1.40846908092498779297e-01) (4, -3.11428260803222656250e+00) (5, 3.02552318572998046875e+00) (6, -4.24945783615112304688e+00) (7, 7.33427667617797851562e+00) (8, 2.42640566825866699219e+00) (9, -7.48580276966094970703e-01) (0, 2.25026774406433105469e+00) (1, 2.12317657470703125000e+00) (2, 2.01595997810363769531e+00) (3, 8.97837951779365539551e-02) (4, 1.32570588588714599609e+00) (5, 1.31914734840393066406e+00) (6, -5.35446740686893463135e-02) (7, 9.00549650192260742188e-01) (8, 6.90605759620666503906e-01) (9, -3.04847264289855957031e+00) (0, -2.01996917724609375000e+01) (1, -3.82378697395324707031e-01) (2, -4.71218967437744140625e+00) (3, 1.09306991100311279297e+00) (4, 1.46716940402984619141e+00) (5, 3.03142452239990234375e+00) (6, -6.38739347457885742188e-01) (7, 2.23054265975952148438e+00) (8, 5.90806424617767333984e-01) (9, -1.24871015548706054688e+00) (0, -4.27567386627197265625e+00) (1, -5.88030529022216796875e+00) (2, 1.35506439208984375000e+00) (3, -7.85403108596801757812e+00) (4, 8.74803513288497924805e-02) (5, -5.47775220870971679688e+00) (6, 3.97464203834533691406e+00) (7, 5.88909816741943359375e+00) (8, 1.79874305725097656250e+01) (9, -3.70235681533813476562e-01) (0, -9.89915430545806884766e-01) (1, -2.80033540725708007812e+00) (2, -4.35710519552230834961e-01) (3, 1.29266357421875000000e+00) (4, 3.22204440832138061523e-01) (5, 1.02457892894744873047e+00) (6, -2.56068408489227294922e-01) (7, 6.87836551666259765625e+00) (8, 2.87081650458276271820e-03) (9, -4.92175668478012084961e-01) (0, -7.51270437240600585938e+00) (1, -1.44580345153808593750e+01) (2, 1.72743558883666992188e+00) (3, -1.92316401004791259766e+00) (4, -2.05577588081359863281e+00) (5, -2.61268973350524902344e+00) (6, 1.20332384109497070312e+01) (7, 1.28903646469116210938e+01) (8, 9.90001106262207031250e+00) (9, -3.08982640504837036133e-01) (0, -9.54650580883026123047e-01) (1, -3.04470157623291015625e+00) (2, 1.00552999973297119141e+00) (3, -1.47517412900924682617e-01) (4, -1.52985620498657226562e+01) (5, 2.92191243171691894531e+00) (6, -2.90593355894088745117e-01) (7, 5.02426290512084960938e+00) (8, -8.58304560184478759766e-01) (9, -3.34732264280319213867e-01) (0, -3.95655274391174316406e+00) (1, -1.88491249084472656250e+01) (2, 1.67596745491027832031e+00) (3, 5.56922793388366699219e-01) (4, -6.47670149803161621094e-01) (5, -3.98832845687866210938e+00) (6, 6.30893898010253906250e+00) (7, 1.37331256866455078125e+01) (8, 9.98297786712646484375e+00) (9, -2.81346589326858520508e-01) (10, 1.41319072246551513672e+00) (11, 5.68467438220977783203e-01) (12, 1.51712834835052490234e+00) (13, -3.97568613290786743164e-01) (14, 5.43216347694396972656e-01) (15, -1.27825069427490234375e+00) (16, 1.71068227291107177734e+00) (17, -1.12122929096221923828e+00) (18, 1.48174926638603210449e-01) 
