FANN_FLO_2.1
num_layers=4
learning_rate=0.500000
connection_rate=1.000000
network_type=0
learning_momentum=0.000000
training_algorithm=2
train_error_function=1
train_stop_function=0
cascade_output_change_fraction=0.010000
quickprop_decay=-0.000100
quickprop_mu=1.750000
rprop_increase_factor=1.200000
rprop_decrease_factor=0.500000
rprop_delta_min=0.000000
rprop_delta_max=50.000000
rprop_delta_zero=0.100000
cascade_output_stagnation_epochs=12
cascade_candidate_change_fraction=0.010000
cascade_candidate_stagnation_epochs=12
cascade_max_out_epochs=150
cascade_min_out_epochs=50
cascade_max_cand_epochs=150
cascade_min_cand_epochs=50
cascade_num_candidate_groups=2
bit_fail_limit=3.49999994039535522461e-01
cascade_candidate_limit=1.00000000000000000000e+03
cascade_weight_multiplier=4.00000005960464477539e-01
cascade_activation_functions_count=10
cascade_activation_functions=3 5 7 8 10 11 14 15 16 17 
cascade_activation_steepnesses_count=4
cascade_activation_steepnesses=2.50000000000000000000e-01 5.00000000000000000000e-01 7.50000000000000000000e-01 1.00000000000000000000e+00 
layer_sizes=10 9 3 2 
scale_included=0
neurons (num_inputs, activation_function, activation_steepness)=(0, 0, 0.00000000000000000000e+00) (0, 0, 0.00000000000000000000e+00) (0, 0, 0.00000000000000000000e+00) (0, 0, 0.00000000000000000000e+00) (0, 0, 0.00000000000000000000e+00) (0, 0, 0.00000000000000000000e+00) (0, 0, 0.00000000000000000000e+00) (0, 0, 0.00000000000000000000e+00) (0, 0, 0.00000000000000000000e+00) (0, 0, 0.00000000000000000000e+00) (10, 3, 5.00000000000000000000e-01) (10, 3, 5.00000000000000000000e-01) (10, 3, 5.00000000000000000000e-01) (10, 3, 5.00000000000000000000e-01) (10, 3, 5.00000000000000000000e-01) (10, 3, 5.00000000000000000000e-01) (10, 3, 5.00000000000000000000e-01) (10, 3, 5.00000000000000000000e-01) (0, 3, 0.00000000000000000000e+00) (9, 3, 5.00000000000000000000e-01) (9, 3, 5.00000000000000000000e-01) (0, 3, 0.00000000000000000000e+00) (3, 3, 5.00000000000000000000e-01) (0, 3, 0.00000000000000000000e+00) 
connections (connected_to_neuron, weight)=(0, 1.03450894355773925781e+00) (1, 7.11350560188293457031e-01) (2, 8.64581346511840820312e-01) (3, 5.08805561065673828125e+00) (4, -4.92460441589355468750e+00) (5, -1.23890056610107421875e+01) (6, 1.64452648162841796875e+01) (7, 1.32928056716918945312e+01) (8, -4.86676979064941406250e+00) (9, -8.41354072093963623047e-01) (0, -1.60413479804992675781e+00) (1, -9.60703134536743164062e-01) (2, 1.71583423614501953125e+01) (3, 1.98412156105041503906e+00) (4, -1.06642923355102539062e+01) (5, 9.32604980468750000000e+00) (6, -1.72988843917846679688e+00) (7, -1.13497495651245117188e+01) (8, -7.14260578155517578125e+00) (9, 8.46345797181129455566e-02) (0, -4.42413139343261718750e+00) (1, -7.43195676803588867188e+00) (2, -3.48431396484375000000e+00) (3, 1.54088973999023437500e+00) (4, 1.78627169132232666016e+00) (5, 9.31189346313476562500e+00) (6, -2.09240722656250000000e+00) (7, -1.03371429443359375000e+01) (8, 2.48946857452392578125e+00) (9, -2.38158464431762695312e-01) (0, 3.46252751350402832031e+00) (1, 6.01129722595214843750e+00) (2, 1.40545821189880371094e+00) (3, 6.01091289520263671875e+00) (4, -1.23075361251831054688e+01) (5, -3.39446997642517089844e+00) (6, 6.13645553588867187500e+00) (7, 1.82832384109497070312e+00) (8, -1.75291597843170166016e+00) (9, 2.78781771659851074219e-01) (0, -5.20117950439453125000e+00) (1, -1.81814718246459960938e+00) (2, -3.64675611257553100586e-01) (3, -1.19040453433990478516e+00) (4, 2.49602627754211425781e+00) (5, 9.26340866088867187500e+00) (6, -5.61872816085815429688e+00) (7, -1.13370847702026367188e+01) (8, 3.52031755447387695312e+00) (9, -5.09895443916320800781e-01) (0, -5.05109119415283203125e+00) (1, -2.68611216545104980469e+00) (2, -3.65670919418334960938e-01) (3, 1.80020415782928466797e+00) (4, 1.11830759048461914062e+00) (5, 1.09415969848632812500e+01) (6, -3.47029638290405273438e+00) (7, -1.49649610519409179688e+01) (8, 2.36391234397888183594e+00) (9, 7.67576768994331359863e-02) (0, -5.01340198516845703125e+00) (1, -1.23476247787475585938e+01) (2, -1.49522352218627929688e+00) (3, 1.94110429286956787109e+00) (4, -4.38155502080917358398e-01) (5, 9.31850242614746093750e+00) (6, -9.55251038074493408203e-01) (7, -1.19134445190429687500e+01) (8, 6.66016721725463867188e+00) (9, -3.86493951082229614258e-01) (0, -5.38107061386108398438e+00) (1, -1.42503404617309570312e+01) (2, -6.15919860839843750000e+02) (3, 1.48657965660095214844e+00) (4, 9.62571740150451660156e-01) (5, 1.06594638824462890625e+01) (6, -1.73973667621612548828e+00) (7, -1.41785907745361328125e+01) (8, 2.07879853248596191406e+00) (9, 1.23854637145996093750e+00) (10, -1.91332840919494628906e+00) (11, 5.98042678833007812500e+00) (12, -1.30939885973930358887e-01) (13, -5.37270307540893554688e+00) (14, 1.18087415695190429688e+01) (15, -1.03934574127197265625e+01) (16, 9.86553382873535156250e+00) (17, 3.68948478698730468750e+01) (18, 1.50106775760650634766e+00) (10, -9.51416110992431640625e+00) (11, 2.82698097229003906250e+01) (12, 2.41241455078125000000e+00) (13, -3.32538199424743652344e+00) (14, 6.67495870590209960938e+00) (15, -2.71965770721435546875e+01) (16, 8.56694507598876953125e+00) (17, 8.13496494293212890625e+00) (18, 1.58195102214813232422e+00) (19, 6.97648882865905761719e-01) (20, 1.85119891166687011719e+00) (21, -1.32877743244171142578e+00) 
