FANN_FLO_2.1
num_layers=3
learning_rate=0.500000
connection_rate=1.000000
network_type=0
learning_momentum=0.000000
training_algorithm=2
train_error_function=1
train_stop_function=0
cascade_output_change_fraction=0.010000
quickprop_decay=-0.000100
quickprop_mu=1.750000
rprop_increase_factor=1.200000
rprop_decrease_factor=0.500000
rprop_delta_min=0.000000
rprop_delta_max=50.000000
rprop_delta_zero=0.100000
cascade_output_stagnation_epochs=12
cascade_candidate_change_fraction=0.010000
cascade_candidate_stagnation_epochs=12
cascade_max_out_epochs=150
cascade_min_out_epochs=50
cascade_max_cand_epochs=150
cascade_min_cand_epochs=50
cascade_num_candidate_groups=2
bit_fail_limit=3.49999994039535522461e-01
cascade_candidate_limit=1.00000000000000000000e+03
cascade_weight_multiplier=4.00000005960464477539e-01
cascade_activation_functions_count=10
cascade_activation_functions=3 5 7 8 10 11 14 15 16 17 
cascade_activation_steepnesses_count=4
cascade_activation_steepnesses=2.50000000000000000000e-01 5.00000000000000000000e-01 7.50000000000000000000e-01 1.00000000000000000000e+00 
layer_sizes=10 9 2 
scale_included=0
neurons (num_inputs, activation_function, activation_steepness)=(0, 0, 0.00000000000000000000e+00) (0, 0, 0.00000000000000000000e+00) (0, 0, 0.00000000000000000000e+00) (0, 0, 0.00000000000000000000e+00) (0, 0, 0.00000000000000000000e+00) (0, 0, 0.00000000000000000000e+00) (0, 0, 0.00000000000000000000e+00) (0, 0, 0.00000000000000000000e+00) (0, 0, 0.00000000000000000000e+00) (0, 0, 0.00000000000000000000e+00) (10, 3, 5.00000000000000000000e-01) (10, 3, 5.00000000000000000000e-01) (10, 3, 5.00000000000000000000e-01) (10, 3, 5.00000000000000000000e-01) (10, 3, 5.00000000000000000000e-01) (10, 3, 5.00000000000000000000e-01) (10, 3, 5.00000000000000000000e-01) (10, 3, 5.00000000000000000000e-01) (0, 3, 0.00000000000000000000e+00) (9, 3, 5.00000000000000000000e-01) (0, 3, 0.00000000000000000000e+00) 
connections (connected_to_neuron, weight)=(0, 2.40988135337829589844e+00) (1, 2.60281391143798828125e+01) (2, 1.68619617819786071777e-01) (3, -1.19930315017700195312e+00) (4, 1.31390094757080078125e+00) (5, -9.74934637546539306641e-01) (6, -2.05894255638122558594e+00) (7, -1.14004983901977539062e+01) (8, -2.43593463897705078125e+01) (9, 4.17673230171203613281e-01) (0, -1.50000000000000000000e+03) (1, -6.99158630371093750000e+01) (2, 5.92092514038085937500e-01) (3, 1.49992810058593750000e+03) (4, 5.86775390625000000000e+02) (5, 8.26673889160156250000e+02) (6, 2.41471042633056640625e+01) (7, 1.49561840820312500000e+03) (8, 2.92720246315002441406e+00) (9, 4.93455082178115844727e-01) (0, -2.94801449775695800781e+00) (1, 5.36151409149169921875e-01) (2, 5.06590247154235839844e-01) (3, 1.09674727916717529297e+00) (4, 9.33226644992828369141e-01) (5, 1.15156781673431396484e+00) (6, -3.10826134681701660156e+00) (7, -2.96958416700363159180e-01) (8, -1.16296043395996093750e+01) (9, 1.82551920413970947266e-01) (0, -1.50000000000000000000e+03) (1, -1.56734298706054687500e+02) (2, 2.91586804389953613281e+00) (3, 1.11108142089843750000e+03) (4, 1.11158532714843750000e+03) (5, 1.50000000000000000000e+03) (6, 1.36777008056640625000e+02) (7, 1.49561840820312500000e+03) (8, 6.28247108459472656250e+01) (9, 4.41269516944885253906e-01) (0, -1.66470611095428466797e+00) (1, -6.56438589096069335938e-01) (2, -3.09339008331298828125e+01) (3, -4.99421983957290649414e-01) (4, -3.12930321693420410156e+00) (5, 4.22580420970916748047e-01) (6, 6.06049728393554687500e+00) (7, 7.47493219375610351562e+00) (8, 6.59603261947631835938e+00) (9, -3.06577086448669433594e-01) (0, -5.66827535629272460938e+00) (1, 3.20797622203826904297e-01) (2, -2.06679000854492187500e+01) (3, -1.40736222267150878906e+00) (4, -1.93814076483249664307e-02) (5, 5.23583352565765380859e-01) (6, 3.89670819044113159180e-01) (7, 7.38404810428619384766e-01) (8, 2.26381340026855468750e+01) (9, -1.18194687366485595703e+00) (0, 2.75369971990585327148e-01) (1, 2.01826429367065429688e+00) (2, 6.14002752304077148438e+00) (3, -2.86108136177062988281e-01) (4, 3.42630177736282348633e-01) (5, 9.23313903808593750000e+00) (6, 8.82618725299835205078e-01) (7, -2.18488254547119140625e+01) (8, -3.68923091888427734375e+00) (9, 5.32764866948127746582e-02) (0, 4.11639392375946044922e-01) (1, 1.27024827525019645691e-02) (2, -1.18864512443542480469e+00) (3, 1.57771170139312744141e+00) (4, 2.12804958224296569824e-01) (5, -1.55002564191818237305e-01) (6, 2.73421615362167358398e-01) (7, 4.40686130523681640625e+00) (8, -1.71569347381591796875e+00) (9, 2.81333535909652709961e-01) (10, 2.32416582107543945312e+00) (11, -2.36662074923515319824e-01) (12, -1.46213495731353759766e+00) (13, -6.71963214874267578125e-01) (14, 7.91445314884185791016e-01) (15, 2.13128781318664550781e+00) (16, 1.20245242118835449219e+00) (17, -9.98942375183105468750e-01) (18, -1.85516849160194396973e-01) 
