FANN_FLO_2.1
num_layers=4
learning_rate=0.500000
connection_rate=1.000000
network_type=0
learning_momentum=0.000000
training_algorithm=2
train_error_function=1
train_stop_function=0
cascade_output_change_fraction=0.010000
quickprop_decay=-0.000100
quickprop_mu=1.750000
rprop_increase_factor=1.200000
rprop_decrease_factor=0.500000
rprop_delta_min=0.000000
rprop_delta_max=50.000000
rprop_delta_zero=0.100000
cascade_output_stagnation_epochs=12
cascade_candidate_change_fraction=0.010000
cascade_candidate_stagnation_epochs=12
cascade_max_out_epochs=150
cascade_min_out_epochs=50
cascade_max_cand_epochs=150
cascade_min_cand_epochs=50
cascade_num_candidate_groups=2
bit_fail_limit=3.49999994039535522461e-01
cascade_candidate_limit=1.00000000000000000000e+03
cascade_weight_multiplier=4.00000005960464477539e-01
cascade_activation_functions_count=10
cascade_activation_functions=3 5 7 8 10 11 14 15 16 17 
cascade_activation_steepnesses_count=4
cascade_activation_steepnesses=2.50000000000000000000e-01 5.00000000000000000000e-01 7.50000000000000000000e-01 1.00000000000000000000e+00 
layer_sizes=2 5 5 3 
scale_included=0
neurons (num_inputs, activation_function, activation_steepness)=(0, 0, 0.00000000000000000000e+00) (0, 0, 0.00000000000000000000e+00) (2, 3, 5.00000000000000000000e-01) (2, 3, 5.00000000000000000000e-01) (2, 3, 5.00000000000000000000e-01) (2, 3, 5.00000000000000000000e-01) (0, 3, 0.00000000000000000000e+00) (5, 3, 5.00000000000000000000e-01) (5, 3, 5.00000000000000000000e-01) (5, 3, 5.00000000000000000000e-01) (5, 3, 5.00000000000000000000e-01) (0, 3, 0.00000000000000000000e+00) (5, 0, 5.00000000000000000000e-01) (5, 0, 5.00000000000000000000e-01) (0, 0, 0.00000000000000000000e+00) 
connections (connected_to_neuron, weight)=(0, -9.57150936126708984375e+00) (1, 1.69358089566230773926e-01) (0, -1.28744792938232421875e+01) (1, -8.25609862804412841797e-01) (0, -9.32208251953125000000e+00) (1, 4.60263371467590332031e-01) (0, -1.37974166870117187500e+01) (1, 5.26711750030517578125e+00) (2, -2.35333538055419921875e+00) (3, -5.29743194580078125000e+00) (4, -2.87155437469482421875e+00) (5, -2.91528201103210449219e+00) (6, 4.19663000106811523438e+00) (2, -3.00688862800598144531e+00) (3, 8.29761803150177001953e-01) (4, -3.02902913093566894531e+00) (5, 2.71647214889526367188e+00) (6, 1.87190890312194824219e-01) (2, 3.44392746686935424805e-01) (3, 2.07429552078247070312e+00) (4, 4.27947431802749633789e-01) (5, -2.70623588562011718750e+00) (6, -3.77889096736907958984e-01) (2, 1.95304660797119140625e+01) (3, -2.42337982177734375000e+02) (4, 9.59296512603759765625e+00) (5, -1.13379490375518798828e+00) (6, -4.15336430072784423828e-01) (7, -9.38386380672454833984e-01) (8, -2.40750455856323242188e+00) (9, 6.09939384460449218750e+00) (10, 5.35042583942413330078e-01) (11, 2.91876196861267089844e-01) (7, -3.23137784004211425781e+00) (8, 1.16463828086853027344e+00) (9, -2.69662767648696899414e-01) (10, -3.13352251052856445312e+00) (11, 1.64880383014678955078e+00) 
