FANN_FLO_2.1
num_layers=4
learning_rate=0.500000
connection_rate=1.000000
network_type=0
learning_momentum=0.000000
training_algorithm=2
train_error_function=1
train_stop_function=0
cascade_output_change_fraction=0.010000
quickprop_decay=-0.000100
quickprop_mu=1.750000
rprop_increase_factor=1.200000
rprop_decrease_factor=0.500000
rprop_delta_min=0.000000
rprop_delta_max=50.000000
rprop_delta_zero=0.100000
cascade_output_stagnation_epochs=12
cascade_candidate_change_fraction=0.010000
cascade_candidate_stagnation_epochs=12
cascade_max_out_epochs=150
cascade_min_out_epochs=50
cascade_max_cand_epochs=150
cascade_min_cand_epochs=50
cascade_num_candidate_groups=2
bit_fail_limit=3.49999994039535522461e-01
cascade_candidate_limit=1.00000000000000000000e+03
cascade_weight_multiplier=4.00000005960464477539e-01
cascade_activation_functions_count=10
cascade_activation_functions=3 5 7 8 10 11 14 15 16 17 
cascade_activation_steepnesses_count=4
cascade_activation_steepnesses=2.50000000000000000000e-01 5.00000000000000000000e-01 7.50000000000000000000e-01 1.00000000000000000000e+00 
layer_sizes=10 9 9 2 
scale_included=0
neurons (num_inputs, activation_function, activation_steepness)=(0, 0, 0.00000000000000000000e+00) (0, 0, 0.00000000000000000000e+00) (0, 0, 0.00000000000000000000e+00) (0, 0, 0.00000000000000000000e+00) (0, 0, 0.00000000000000000000e+00) (0, 0, 0.00000000000000000000e+00) (0, 0, 0.00000000000000000000e+00) (0, 0, 0.00000000000000000000e+00) (0, 0, 0.00000000000000000000e+00) (0, 0, 0.00000000000000000000e+00) (10, 3, 5.00000000000000000000e-01) (10, 3, 5.00000000000000000000e-01) (10, 3, 5.00000000000000000000e-01) (10, 3, 5.00000000000000000000e-01) (10, 3, 5.00000000000000000000e-01) (10, 3, 5.00000000000000000000e-01) (10, 3, 5.00000000000000000000e-01) (10, 3, 5.00000000000000000000e-01) (0, 3, 0.00000000000000000000e+00) (9, 3, 5.00000000000000000000e-01) (9, 3, 5.00000000000000000000e-01) (9, 3, 5.00000000000000000000e-01) (9, 3, 5.00000000000000000000e-01) (9, 3, 5.00000000000000000000e-01) (9, 3, 5.00000000000000000000e-01) (9, 3, 5.00000000000000000000e-01) (9, 3, 5.00000000000000000000e-01) (0, 3, 0.00000000000000000000e+00) (9, 3, 5.00000000000000000000e-01) (0, 3, 0.00000000000000000000e+00) 
connections (connected_to_neuron, weight)=(0, -2.37285923957824707031e+00) (1, 9.06100690364837646484e-01) (2, -1.71564314514398574829e-02) (3, -5.83617866039276123047e-01) (4, 9.08949255943298339844e-01) (5, -1.14771437644958496094e+00) (6, -1.60646513104438781738e-02) (7, -1.70277607440948486328e+00) (8, -5.96502161026000976562e+00) (9, 3.98973762989044189453e-01) (0, 2.01709532737731933594e+00) (1, 1.01785743236541748047e+00) (2, 1.17898416519165039062e+00) (3, 2.37674176692962646484e-01) (4, 4.98593181371688842773e-01) (5, -4.87082391977310180664e-01) (6, -7.50055611133575439453e-01) (7, -3.46631318330764770508e-01) (8, -7.85714626312255859375e+00) (9, 5.34548699855804443359e-01) (0, 2.16132715344429016113e-01) (1, 8.90345335006713867188e-01) (2, 2.10975989699363708496e-01) (3, -2.64419674873352050781e-01) (4, 1.81185886263847351074e-01) (5, -1.28622937202453613281e+00) (6, -7.25526571273803710938e-01) (7, -1.66055154800415039062e+00) (8, -2.34811782836914062500e+00) (9, 3.53141039609909057617e-01) (0, -5.17798376083374023438e+00) (1, -1.98052465915679931641e+00) (2, -5.08966386318206787109e-01) (3, -9.07747209072113037109e-01) (4, 5.95856368541717529297e-01) (5, 9.72920775413513183594e-01) (6, 2.25175714492797851562e+00) (7, -9.59921240806579589844e-01) (8, -7.75405168533325195312e-02) (9, 5.48760533332824707031e-01) (0, 1.43262696266174316406e+00) (1, 1.81890273094177246094e+00) (2, 2.53699731826782226562e+00) (3, 4.10511970520019531250e-01) (4, 7.00315117835998535156e-01) (5, 3.97210478782653808594e-01) (6, -3.53964519500732421875e+00) (7, -3.44157218933105468750e-01) (8, -8.04576778411865234375e+00) (9, 7.99533367156982421875e-01) (0, 1.50434494018554687500e+00) (1, 1.03476047515869140625e+00) (2, 1.12886095046997070312e+00) (3, -4.24145162105560302734e-02) (4, 4.40884381532669067383e-01) (5, -9.64959979057312011719e-01) (6, -1.73080101609230041504e-01) (7, -4.06196236610412597656e-01) (8, -7.19180774688720703125e+00) (9, 6.40057384967803955078e-01) (0, 1.49013650417327880859e+00) (1, 1.25035750865936279297e+00) (2, 9.07144844532012939453e-01) (3, 2.49578416347503662109e-01) (4, 7.81451761722564697266e-01) (5, -2.30224037170410156250e+00) (6, 6.22232615947723388672e-01) (7, -3.20429146289825439453e-01) (8, -7.91000509262084960938e+00) (9, 1.04842531681060791016e+00) (0, -1.23695887625217437744e-01) (1, -9.44151878356933593750e-02) (2, 1.27739101648330688477e-01) (3, 9.85260158777236938477e-02) (4, 2.31512024998664855957e-01) (5, -3.95133525133132934570e-01) (6, -6.44652783870697021484e-01) (7, -1.59311461448669433594e+00) (8, -2.42356514930725097656e+00) (9, 2.32993453741073608398e-01) (10, 1.25070638656616210938e+01) (11, -2.71439361572265625000e+00) (12, -1.60817515850067138672e+00) (13, -9.16727447509765625000e+00) (14, -5.73168754577636718750e+00) (15, -1.51747727394104003906e+00) (16, -1.34017038345336914062e+00) (17, 1.16693899035453796387e-01) (18, 2.30710434913635253906e+00) (10, -8.55847263336181640625e+00) (11, 1.65337944030761718750e+00) (12, 9.03672397136688232422e-01) (13, 8.19690990447998046875e+00) (14, 4.19233226776123046875e+00) (15, 8.35114359855651855469e-01) (16, 5.49867331981658935547e-01) (17, 3.87600868940353393555e-01) (18, -3.14736038446426391602e-01) (10, 9.27137565612792968750e+00) (11, -1.39604091644287109375e+00) (12, -7.33319163322448730469e-01) (13, -6.96391916275024414062e+00) (14, -5.10340499877929687500e+00) (15, -1.09841918945312500000e+00) (16, -9.06934201717376708984e-01) (17, -9.90113057196140289307e-03) (18, 6.18238270282745361328e-01) (10, -9.08575820922851562500e+00) (11, 1.14094913005828857422e+00) (12, 1.73858761787414550781e+00) (13, 7.74540138244628906250e+00) (14, 4.21178102493286132812e+00) (15, 1.04892444610595703125e+00) (16, 6.47461473941802978516e-01) (17, 5.48927545547485351562e-01) (18, -3.99829775094985961914e-01) (10, 1.18463535308837890625e+01) (11, -1.69220542907714843750e+00) (12, -1.61459887027740478516e+00) (13, -9.54164791107177734375e+00) (14, -6.40483331680297851562e+00) (15, -1.41214275360107421875e+00) (16, -1.73593962192535400391e+00) (17, 7.20213294029235839844e-01) (18, 2.31751799583435058594e+00) (10, -1.11079330444335937500e+01) (11, 1.10644602775573730469e+00) (12, 1.18273222446441650391e+00) (13, 1.85653388500213623047e+00) (14, 4.95425319671630859375e+00) (15, 1.30243027210235595703e+00) (16, 6.93613409996032714844e-01) (17, 9.91317331790924072266e-01) (18, 6.31767436861991882324e-02) (10, -8.56811332702636718750e+00) (11, 1.19384539127349853516e+00) (12, 2.07575917243957519531e+00) (13, 7.71843004226684570312e+00) (14, 4.10291290283203125000e+00) (15, 7.96690821647644042969e-01) (16, 6.30191087722778320312e-01) (17, 1.46273463964462280273e-01) (18, -3.03410291671752929688e-01) (10, -8.32033920288085937500e+00) (11, 1.17513275146484375000e+00) (12, 1.07457423210144042969e+00) (13, 8.29076194763183593750e+00) (14, 4.63565206527709960938e+00) (15, 1.01827800273895263672e+00) (16, 2.61653423309326171875e-01) (17, 1.02518625557422637939e-01) (18, -3.33036601543426513672e-01) (19, -1.99437713623046875000e+00) (20, 2.18212589621543884277e-01) (21, -6.37299478054046630859e-01) (22, 2.72186249494552612305e-01) (23, -2.06671786308288574219e+00) (24, 1.43651664257049560547e-01) (25, 2.51575231552124023438e-01) (26, 2.34045222401618957520e-01) (27, -2.07779705524444580078e-01) 
