FANN_FLO_2.1
num_layers=4
learning_rate=0.500000
connection_rate=1.000000
network_type=0
learning_momentum=0.000000
training_algorithm=2
train_error_function=1
train_stop_function=0
cascade_output_change_fraction=0.010000
quickprop_decay=-0.000100
quickprop_mu=1.750000
rprop_increase_factor=1.200000
rprop_decrease_factor=0.500000
rprop_delta_min=0.000000
rprop_delta_max=50.000000
rprop_delta_zero=0.100000
cascade_output_stagnation_epochs=12
cascade_candidate_change_fraction=0.010000
cascade_candidate_stagnation_epochs=12
cascade_max_out_epochs=150
cascade_min_out_epochs=50
cascade_max_cand_epochs=150
cascade_min_cand_epochs=50
cascade_num_candidate_groups=2
bit_fail_limit=3.49999994039535522461e-01
cascade_candidate_limit=1.00000000000000000000e+03
cascade_weight_multiplier=4.00000005960464477539e-01
cascade_activation_functions_count=10
cascade_activation_functions=3 5 7 8 10 11 14 15 16 17 
cascade_activation_steepnesses_count=4
cascade_activation_steepnesses=2.50000000000000000000e-01 5.00000000000000000000e-01 7.50000000000000000000e-01 1.00000000000000000000e+00 
layer_sizes=10 5 5 2 
scale_included=0
neurons (num_inputs, activation_function, activation_steepness)=(0, 0, 0.00000000000000000000e+00) (0, 0, 0.00000000000000000000e+00) (0, 0, 0.00000000000000000000e+00) (0, 0, 0.00000000000000000000e+00) (0, 0, 0.00000000000000000000e+00) (0, 0, 0.00000000000000000000e+00) (0, 0, 0.00000000000000000000e+00) (0, 0, 0.00000000000000000000e+00) (0, 0, 0.00000000000000000000e+00) (0, 0, 0.00000000000000000000e+00) (10, 3, 5.00000000000000000000e-01) (10, 3, 5.00000000000000000000e-01) (10, 3, 5.00000000000000000000e-01) (10, 3, 5.00000000000000000000e-01) (0, 3, 0.00000000000000000000e+00) (5, 3, 5.00000000000000000000e-01) (5, 3, 5.00000000000000000000e-01) (5, 3, 5.00000000000000000000e-01) (5, 3, 5.00000000000000000000e-01) (0, 3, 0.00000000000000000000e+00) (5, 3, 5.00000000000000000000e-01) (0, 3, 0.00000000000000000000e+00) 
connections (connected_to_neuron, weight)=(0, 1.50000000000000000000e+03) (1, 1.50000000000000000000e+03) (2, 1.50000000000000000000e+03) (3, 1.44015966796875000000e+03) (4, -1.41395361328125000000e+03) (5, 1.49979467773437500000e+03) (6, 1.02918383789062500000e+03) (7, 7.77723144531250000000e+02) (8, -1.07537182617187500000e+03) (9, 2.45632438659667968750e+01) (0, -1.50000000000000000000e+03) (1, -1.50000000000000000000e+03) (2, -1.50000000000000000000e+03) (3, -9.86332885742187500000e+02) (4, 4.10971107482910156250e+01) (5, -6.16859257221221923828e-01) (6, -1.06866601562500000000e+03) (7, 4.56063079833984375000e+01) (8, 1.23571850585937500000e+03) (9, 3.76477313041687011719e+00) (0, -3.15800048828125000000e+02) (1, -2.92968750000000000000e+02) (2, 1.50000000000000000000e+03) (3, -1.16935058593750000000e+03) (4, 1.76666625976562500000e+02) (5, 1.53875164687633514404e-02) (6, -6.88042236328125000000e+02) (7, 1.44936141967773437500e+02) (8, 1.50000000000000000000e+03) (9, -2.71085000038146972656e+00) (0, -9.00895786285400390625e+00) (1, -7.98829364776611328125e+00) (2, -2.39526786804199218750e+01) (3, 4.97758817672729492188e+00) (4, 9.19376468658447265625e+00) (5, 9.38359722495079040527e-02) (6, -1.95405268669128417969e+00) (7, -1.28096914291381835938e+00) (8, 3.72798080444335937500e+01) (9, 1.52859973907470703125e+00) (10, -5.79139852523803710938e+00) (11, 1.50000000000000000000e+03) (12, 3.42277893066406250000e+02) (13, -1.80898799896240234375e+01) (14, 1.11613922119140625000e+01) (10, -1.42289013671875000000e+03) (11, 1.50000000000000000000e+03) (12, -5.04592681884765625000e+02) (13, -1.50000000000000000000e+03) (14, -4.10960102081298828125e+00) (10, 2.92535457611083984375e+01) (11, 1.50000000000000000000e+03) (12, 9.71685791015625000000e+02) (13, 7.17209672927856445312e+00) (14, -3.68466110229492187500e+01) (10, 9.69974398612976074219e-01) (11, 1.50000000000000000000e+03) (12, -1.13834667968750000000e+03) (13, -3.04912624359130859375e+01) (14, 1.05315876007080078125e+01) (15, 2.60605067014694213867e-01) (16, 1.50000000000000000000e+03) (17, 1.40640759468078613281e+00) (18, 1.49363291263580322266e+00) (19, -1.00725412368774414062e+00) 
