FANN_FLO_2.1
num_layers=4
learning_rate=0.400000
connection_rate=1.000000
network_type=0
learning_momentum=0.000000
training_algorithm=2
train_error_function=1
train_stop_function=0
cascade_output_change_fraction=0.010000
quickprop_decay=-0.000100
quickprop_mu=1.750000
rprop_increase_factor=1.200000
rprop_decrease_factor=0.500000
rprop_delta_min=0.000000
rprop_delta_max=50.000000
rprop_delta_zero=0.100000
cascade_output_stagnation_epochs=12
cascade_candidate_change_fraction=0.010000
cascade_candidate_stagnation_epochs=12
cascade_max_out_epochs=150
cascade_min_out_epochs=50
cascade_max_cand_epochs=150
cascade_min_cand_epochs=50
cascade_num_candidate_groups=2
bit_fail_limit=3.49999994039535522461e-01
cascade_candidate_limit=1.00000000000000000000e+03
cascade_weight_multiplier=4.00000005960464477539e-01
cascade_activation_functions_count=10
cascade_activation_functions=3 5 7 8 10 11 14 15 16 17 
cascade_activation_steepnesses_count=4
cascade_activation_steepnesses=2.50000000000000000000e-01 5.00000000000000000000e-01 7.50000000000000000000e-01 1.00000000000000000000e+00 
layer_sizes=7 5 3 2 
scale_included=0
neurons (num_inputs, activation_function, activation_steepness)=(0, 0, 0.00000000000000000000e+00) (0, 0, 0.00000000000000000000e+00) (0, 0, 0.00000000000000000000e+00) (0, 0, 0.00000000000000000000e+00) (0, 0, 0.00000000000000000000e+00) (0, 0, 0.00000000000000000000e+00) (0, 0, 0.00000000000000000000e+00) (7, 3, 5.00000000000000000000e-01) (7, 3, 5.00000000000000000000e-01) (7, 3, 5.00000000000000000000e-01) (7, 3, 5.00000000000000000000e-01) (0, 3, 0.00000000000000000000e+00) (5, 3, 5.00000000000000000000e-01) (5, 3, 5.00000000000000000000e-01) (0, 3, 0.00000000000000000000e+00) (3, 3, 5.00000000000000000000e-01) (0, 3, 0.00000000000000000000e+00) 
connections (connected_to_neuron, weight)=(0, -9.77896118164062500000e+00) (1, 8.26693153381347656250e+00) (2, -1.53109610080718994141e+00) (3, -1.74728393554687500000e+00) (4, -1.09333872795104980469e+00) (5, -8.19814819335937500000e+02) (6, 1.11572337150573730469e+00) (0, -3.83476042747497558594e+00) (1, 1.66767966747283935547e+00) (2, -2.78218936920166015625e+00) (3, -2.88601899147033691406e+00) (4, -1.13594973087310791016e+00) (5, -2.14287796020507812500e+01) (6, 2.40489697456359863281e+00) (0, 6.14216184616088867188e+00) (1, -6.40189790725708007812e+00) (2, 4.88622426986694335938e+00) (3, -2.35118126869201660156e+00) (4, -5.06665468215942382812e-01) (5, 6.56739664077758789062e+00) (6, -5.77579545974731445312e+00) (0, 3.67707824707031250000e+00) (1, -3.26507568359375000000e+01) (2, -1.22676382064819335938e+01) (3, 1.11915760040283203125e+01) (4, 8.28338444232940673828e-01) (5, 9.80279827117919921875e+00) (6, 4.09416466951370239258e-01) (7, 8.11782073974609375000e+00) (8, -2.29742264747619628906e+00) (9, 4.22733640670776367188e+00) (10, 5.94811022281646728516e-01) (11, -2.58896899223327636719e+00) (7, -1.24890718460083007812e+01) (8, 2.48082523345947265625e+01) (9, 4.13049173355102539062e+00) (10, 3.04664433002471923828e-01) (11, -1.83264946937561035156e+00) (12, -5.78175830841064453125e+00) (13, -1.22940480709075927734e+00) (14, -2.67823040485382080078e-01) 
