FANN_FLO_2.1
num_layers=4
learning_rate=0.400000
connection_rate=1.000000
network_type=0
learning_momentum=0.000000
training_algorithm=2
train_error_function=1
train_stop_function=0
cascade_output_change_fraction=0.010000
quickprop_decay=-0.000100
quickprop_mu=1.750000
rprop_increase_factor=1.200000
rprop_decrease_factor=0.500000
rprop_delta_min=0.000000
rprop_delta_max=50.000000
rprop_delta_zero=0.100000
cascade_output_stagnation_epochs=12
cascade_candidate_change_fraction=0.010000
cascade_candidate_stagnation_epochs=12
cascade_max_out_epochs=150
cascade_min_out_epochs=50
cascade_max_cand_epochs=150
cascade_min_cand_epochs=50
cascade_num_candidate_groups=2
bit_fail_limit=3.49999994039535522461e-01
cascade_candidate_limit=1.00000000000000000000e+03
cascade_weight_multiplier=4.00000005960464477539e-01
cascade_activation_functions_count=10
cascade_activation_functions=3 5 7 8 10 11 14 15 16 17 
cascade_activation_steepnesses_count=4
cascade_activation_steepnesses=2.50000000000000000000e-01 5.00000000000000000000e-01 7.50000000000000000000e-01 1.00000000000000000000e+00 
layer_sizes=7 9 3 2 
scale_included=0
neurons (num_inputs, activation_function, activation_steepness)=(0, 0, 0.00000000000000000000e+00) (0, 0, 0.00000000000000000000e+00) (0, 0, 0.00000000000000000000e+00) (0, 0, 0.00000000000000000000e+00) (0, 0, 0.00000000000000000000e+00) (0, 0, 0.00000000000000000000e+00) (0, 0, 0.00000000000000000000e+00) (7, 3, 5.00000000000000000000e-01) (7, 3, 5.00000000000000000000e-01) (7, 3, 5.00000000000000000000e-01) (7, 3, 5.00000000000000000000e-01) (7, 3, 5.00000000000000000000e-01) (7, 3, 5.00000000000000000000e-01) (7, 3, 5.00000000000000000000e-01) (7, 3, 5.00000000000000000000e-01) (0, 3, 0.00000000000000000000e+00) (9, 3, 5.00000000000000000000e-01) (9, 3, 5.00000000000000000000e-01) (0, 3, 0.00000000000000000000e+00) (3, 3, 5.00000000000000000000e-01) (0, 3, 0.00000000000000000000e+00) 
connections (connected_to_neuron, weight)=(0, -1.59561370849609375000e+02) (1, 2.09261337280273437500e+02) (2, -2.04030944824218750000e+02) (3, -1.50000000000000000000e+03) (4, -4.59513092041015625000e+02) (5, 1.50000000000000000000e+03) (6, 9.51936828613281250000e+02) (0, -1.37021850585937500000e+02) (1, 2.35111587524414062500e+02) (2, 4.40811370849609375000e+02) (3, -1.50000000000000000000e+03) (4, -1.48130297851562500000e+03) (5, 1.50000000000000000000e+03) (6, 3.52025573730468750000e+02) (0, -3.56639160156250000000e+02) (1, 3.02906455993652343750e+01) (2, 6.48360900878906250000e+02) (3, -1.50000000000000000000e+03) (4, -1.47185766601562500000e+03) (5, 1.50000000000000000000e+03) (6, 1.49999658203125000000e+03) (0, -5.93248229980468750000e+02) (1, -7.14721069335937500000e+02) (2, -6.50058227539062500000e+02) (3, 9.25478515625000000000e+02) (4, 6.68921813964843750000e+02) (5, -1.50000000000000000000e+03) (6, 5.25957584381103515625e+00) (0, -1.04356393814086914062e+01) (1, 1.09265336990356445312e+01) (2, 6.69471206665039062500e+01) (3, -5.00419158935546875000e+01) (4, -7.50705146789550781250e+00) (5, 8.55049037933349609375e+00) (6, 1.18923330307006835938e+01) (0, -1.32198510742187500000e+03) (1, 1.09563171386718750000e+02) (2, 7.81542053222656250000e+01) (3, -1.50000000000000000000e+03) (4, 3.08277038574218750000e+02) (5, 1.50000000000000000000e+03) (6, -2.64964866638183593750e+00) (0, -1.23319931030273437500e+02) (1, 3.44849731445312500000e+02) (2, 8.77941894531250000000e+02) (3, -1.48915710449218750000e+03) (4, 5.72704223632812500000e+02) (5, 1.50000000000000000000e+03) (6, 3.62535667419433593750e+01) (0, -3.46915802001953125000e+02) (1, 1.22280319213867187500e+02) (2, 3.52575454711914062500e+01) (3, -1.50000000000000000000e+03) (4, -1.49220739746093750000e+03) (5, 1.50000000000000000000e+03) (6, 3.80427246093750000000e+02) (7, 1.40370959472656250000e+03) (8, 1.50000000000000000000e+03) (9, 1.50000000000000000000e+03) (10, -7.41693054199218750000e+02) (11, 1.50000000000000000000e+03) (12, 1.50000000000000000000e+03) (13, 7.78139892578125000000e+02) (14, 1.50000000000000000000e+03) (15, -2.27392272949218750000e+01) (7, 1.41069274902343750000e+03) (8, 1.50000000000000000000e+03) (9, 1.50000000000000000000e+03) (10, -5.91647277832031250000e+02) (11, 1.50000000000000000000e+03) (12, 1.50000000000000000000e+03) (13, 6.07850097656250000000e+02) (14, 1.50000000000000000000e+03) (15, -9.29752469062805175781e-01) (16, -1.00334966182708740234e+00) (17, -3.94031882286071777344e-01) (18, -1.52322673797607421875e+00) 
