FANN_FLO_2.1
num_layers=3
learning_rate=0.500000
connection_rate=1.000000
network_type=0
learning_momentum=0.000000
training_algorithm=2
train_error_function=1
train_stop_function=0
cascade_output_change_fraction=0.010000
quickprop_decay=-0.000100
quickprop_mu=1.750000
rprop_increase_factor=1.200000
rprop_decrease_factor=0.500000
rprop_delta_min=0.000000
rprop_delta_max=50.000000
rprop_delta_zero=0.100000
cascade_output_stagnation_epochs=12
cascade_candidate_change_fraction=0.010000
cascade_candidate_stagnation_epochs=12
cascade_max_out_epochs=150
cascade_min_out_epochs=50
cascade_max_cand_epochs=150
cascade_min_cand_epochs=50
cascade_num_candidate_groups=2
bit_fail_limit=3.49999994039535522461e-01
cascade_candidate_limit=1.00000000000000000000e+03
cascade_weight_multiplier=4.00000005960464477539e-01
cascade_activation_functions_count=10
cascade_activation_functions=3 5 7 8 10 11 14 15 16 17 
cascade_activation_steepnesses_count=4
cascade_activation_steepnesses=2.50000000000000000000e-01 5.00000000000000000000e-01 7.50000000000000000000e-01 1.00000000000000000000e+00 
layer_sizes=10 9 2 
scale_included=0
neurons (num_inputs, activation_function, activation_steepness)=(0, 0, 0.00000000000000000000e+00) (0, 0, 0.00000000000000000000e+00) (0, 0, 0.00000000000000000000e+00) (0, 0, 0.00000000000000000000e+00) (0, 0, 0.00000000000000000000e+00) (0, 0, 0.00000000000000000000e+00) (0, 0, 0.00000000000000000000e+00) (0, 0, 0.00000000000000000000e+00) (0, 0, 0.00000000000000000000e+00) (0, 0, 0.00000000000000000000e+00) (10, 3, 5.00000000000000000000e-01) (10, 3, 5.00000000000000000000e-01) (10, 3, 5.00000000000000000000e-01) (10, 3, 5.00000000000000000000e-01) (10, 3, 5.00000000000000000000e-01) (10, 3, 5.00000000000000000000e-01) (10, 3, 5.00000000000000000000e-01) (10, 3, 5.00000000000000000000e-01) (0, 3, 0.00000000000000000000e+00) (9, 3, 5.00000000000000000000e-01) (0, 3, 0.00000000000000000000e+00) 
connections (connected_to_neuron, weight)=(0, 1.09577476978302001953e+00) (1, 1.10950148105621337891e+00) (2, 1.27913188934326171875e+00) (3, -1.34605681896209716797e+00) (4, 2.60167539119720458984e-01) (5, -1.61583125591278076172e-01) (6, -5.00262594223022460938e+00) (7, -1.48255932331085205078e+00) (8, -1.65490806102752685547e-01) (9, 7.17445433139801025391e-01) (0, 1.03194570541381835938e+00) (1, 1.11231815814971923828e+00) (2, 1.27361619472503662109e+00) (3, -7.35523521900177001953e-01) (4, 7.54341006278991699219e-01) (5, 2.80176699161529541016e-01) (6, -4.50483894348144531250e+00) (7, -1.79353034496307373047e+00) (8, -8.36598455905914306641e-01) (9, 3.35108965635299682617e-01) (0, 9.20824706554412841797e-01) (1, 1.16905927658081054688e+00) (2, 1.47378456592559814453e+00) (3, -9.57329034805297851562e-01) (4, 8.17082673311233520508e-02) (5, -1.31465941667556762695e-01) (6, -6.12411642074584960938e+00) (7, -1.82998073101043701172e+00) (8, -4.22130413353443145752e-02) (9, 1.34743571281433105469e+00) (0, 1.02679216861724853516e+00) (1, 1.15409791469573974609e+00) (2, 1.30554306507110595703e+00) (3, -1.02402126789093017578e+00) (4, 3.11006903648376464844e-01) (5, 3.75667065382003784180e-02) (6, -5.21619033813476562500e+00) (7, -1.65478682518005371094e+00) (8, -1.06160990893840789795e-01) (9, 6.39653384685516357422e-01) (0, -8.19186782836914062500e+00) (1, 2.74987244606018066406e+00) (2, -8.55186998844146728516e-01) (3, 3.59839820861816406250e+00) (4, 3.49761605262756347656e+00) (5, -6.56704616546630859375e+00) (6, 3.16109204292297363281e+00) (7, 1.40219659805297851562e+01) (8, -3.72253584861755371094e+00) (9, -1.11160719394683837891e+00) (0, -3.91515040397644042969e+00) (1, -9.93014499545097351074e-02) (2, 1.05043387413024902344e+00) (3, 2.68219065666198730469e+00) (4, 3.16072320938110351562e+00) (5, 2.64001250267028808594e+00) (6, 1.11500549316406250000e+00) (7, -1.19769268035888671875e+01) (8, 1.63338124752044677734e-01) (9, -1.72459328174591064453e+00) (0, 2.60373473167419433594e+00) (1, 9.21413230895996093750e+00) (2, 8.44601058959960937500e+00) (3, -1.14095172882080078125e+01) (4, 3.41922044754028320312e-01) (5, 6.28414535522460937500e+00) (6, -2.80332803726196289062e+00) (7, -8.08870673179626464844e-01) (8, -3.61650854349136352539e-01) (9, -2.22308516502380371094e+00) (0, 1.11869299411773681641e+00) (1, 1.09945392608642578125e+00) (2, 1.23453724384307861328e+00) (3, -1.01296293735504150391e+00) (4, -6.74322843551635742188e-02) (5, -8.93772467970848083496e-02) (6, -5.24961185455322265625e+00) (7, -1.46736359596252441406e+00) (8, -6.33879452943801879883e-02) (9, 7.89584636688232421875e-01) (10, 4.35941785573959350586e-01) (11, 6.96992754936218261719e-01) (12, 4.41136091947555541992e-01) (13, 6.70958757400512695312e-01) (14, -1.77914941310882568359e+00) (15, -2.97744917869567871094e+00) (16, 1.68043053150177001953e+00) (17, 4.00228410959243774414e-01) (18, -1.12229466438293457031e+00) 
