FANN_FLO_2.1
num_layers=3
learning_rate=0.500000
connection_rate=1.000000
network_type=0
learning_momentum=0.000000
training_algorithm=2
train_error_function=1
train_stop_function=0
cascade_output_change_fraction=0.010000
quickprop_decay=-0.000100
quickprop_mu=1.750000
rprop_increase_factor=1.200000
rprop_decrease_factor=0.500000
rprop_delta_min=0.000000
rprop_delta_max=50.000000
rprop_delta_zero=0.100000
cascade_output_stagnation_epochs=12
cascade_candidate_change_fraction=0.010000
cascade_candidate_stagnation_epochs=12
cascade_max_out_epochs=150
cascade_min_out_epochs=50
cascade_max_cand_epochs=150
cascade_min_cand_epochs=50
cascade_num_candidate_groups=2
bit_fail_limit=3.49999994039535522461e-01
cascade_candidate_limit=1.00000000000000000000e+03
cascade_weight_multiplier=4.00000005960464477539e-01
cascade_activation_functions_count=10
cascade_activation_functions=3 5 7 8 10 11 14 15 16 17 
cascade_activation_steepnesses_count=4
cascade_activation_steepnesses=2.50000000000000000000e-01 5.00000000000000000000e-01 7.50000000000000000000e-01 1.00000000000000000000e+00 
layer_sizes=10 9 2 
scale_included=0
neurons (num_inputs, activation_function, activation_steepness)=(0, 0, 0.00000000000000000000e+00) (0, 0, 0.00000000000000000000e+00) (0, 0, 0.00000000000000000000e+00) (0, 0, 0.00000000000000000000e+00) (0, 0, 0.00000000000000000000e+00) (0, 0, 0.00000000000000000000e+00) (0, 0, 0.00000000000000000000e+00) (0, 0, 0.00000000000000000000e+00) (0, 0, 0.00000000000000000000e+00) (0, 0, 0.00000000000000000000e+00) (10, 3, 5.00000000000000000000e-01) (10, 3, 5.00000000000000000000e-01) (10, 3, 5.00000000000000000000e-01) (10, 3, 5.00000000000000000000e-01) (10, 3, 5.00000000000000000000e-01) (10, 3, 5.00000000000000000000e-01) (10, 3, 5.00000000000000000000e-01) (10, 3, 5.00000000000000000000e-01) (0, 3, 0.00000000000000000000e+00) (9, 3, 5.00000000000000000000e-01) (0, 3, 0.00000000000000000000e+00) 
connections (connected_to_neuron, weight)=(0, 1.32288992404937744141e+00) (1, -9.97613191604614257812e-01) (2, 1.96200809478759765625e+01) (3, -8.23061656951904296875e+00) (4, -1.17660403251647949219e+00) (5, -8.93374323844909667969e-01) (6, -8.45276772975921630859e-01) (7, 2.87784171104431152344e+00) (8, -1.58957093954086303711e-01) (9, 4.75409068167209625244e-02) (0, -2.60176038742065429688e+00) (1, 1.74800896644592285156e+00) (2, 1.07178889214992523193e-01) (3, 2.44784784317016601562e+00) (4, 2.20638585090637207031e+00) (5, 1.80825591087341308594e+00) (6, -3.56860160827636718750e+00) (7, -3.09247517585754394531e+00) (8, 2.39918851852416992188e+00) (9, 7.62383282184600830078e-01) (0, -4.52545261383056640625e+00) (1, 2.24234485626220703125e+00) (2, 9.04389023780822753906e-01) (3, -1.00814092159271240234e+00) (4, 4.37522172927856445312e+00) (5, 2.78419327735900878906e+00) (6, -7.10354185104370117188e+00) (7, -6.56309175491333007812e+00) (8, 4.91723871231079101562e+00) (9, 1.24423193931579589844e+00) (0, 2.95288592576980590820e-01) (1, -7.95043528079986572266e-01) (2, 1.73522460460662841797e+00) (3, -2.92554140090942382812e+00) (4, 2.59647822380065917969e+00) (5, -1.99485695362091064453e+00) (6, 2.27138251066207885742e-01) (7, 3.64408278465270996094e+00) (8, 1.41825926303863525391e+00) (9, -6.99608445167541503906e-01) (0, -3.84088110923767089844e+00) (1, 4.71420049667358398438e+00) (2, 6.29146397113800048828e-02) (3, -3.01048660278320312500e+00) (4, 5.27121639251708984375e+00) (5, 3.31725716590881347656e+00) (6, -4.32333946228027343750e+00) (7, 4.31143671274185180664e-01) (8, 4.57005691528320312500e+00) (9, 3.38847905397415161133e-01) (0, 1.48973047733306884766e+00) (1, -7.00341892242431640625e+00) (2, 9.94892895221710205078e-01) (3, -8.59562015533447265625e+00) (4, -7.60035142302513122559e-02) (5, -1.38570392131805419922e+00) (6, 6.20007336139678955078e-01) (7, 5.39995133876800537109e-01) (8, -2.90371060371398925781e-01) (9, 2.56803601980209350586e-01) (0, 4.88016724586486816406e-01) (1, -1.84750723838806152344e+00) (2, 1.61450207233428955078e+00) (3, -3.16628551483154296875e+00) (4, 5.41096401214599609375e+00) (5, -1.79451560974121093750e+00) (6, 3.81431579589843750000e-01) (7, 3.48938465118408203125e+00) (8, 1.64442643523216247559e-01) (9, -1.12664675712585449219e+00) (0, 1.14072954654693603516e+00) (1, -3.64919543266296386719e+00) (2, -2.68284156918525695801e-02) (3, 5.00065565109252929688e-01) (4, -7.31673908233642578125e+00) (5, -3.60012388229370117188e+00) (6, 2.79484987258911132812e+00) (7, 2.09908723831176757812e+00) (8, -1.01595306396484375000e+00) (9, 1.02320075035095214844e+00) (10, -1.81836760044097900391e+00) (11, 1.17653048038482666016e+00) (12, 1.80670225620269775391e+00) (13, -7.30578482151031494141e-01) (14, 1.25160443782806396484e+00) (15, -1.40323925018310546875e+00) (16, -7.88407206535339355469e-01) (17, -1.21804513931274414062e+01) (18, -7.30479285120964050293e-02) 
