FANN_FLO_2.1
num_layers=4
learning_rate=0.500000
connection_rate=1.000000
network_type=0
learning_momentum=0.000000
training_algorithm=2
train_error_function=1
train_stop_function=0
cascade_output_change_fraction=0.010000
quickprop_decay=-0.000100
quickprop_mu=1.750000
rprop_increase_factor=1.200000
rprop_decrease_factor=0.500000
rprop_delta_min=0.000000
rprop_delta_max=50.000000
rprop_delta_zero=0.100000
cascade_output_stagnation_epochs=12
cascade_candidate_change_fraction=0.010000
cascade_candidate_stagnation_epochs=12
cascade_max_out_epochs=150
cascade_min_out_epochs=50
cascade_max_cand_epochs=150
cascade_min_cand_epochs=50
cascade_num_candidate_groups=2
bit_fail_limit=3.49999994039535522461e-01
cascade_candidate_limit=1.00000000000000000000e+03
cascade_weight_multiplier=4.00000005960464477539e-01
cascade_activation_functions_count=10
cascade_activation_functions=3 5 7 8 10 11 14 15 16 17 
cascade_activation_steepnesses_count=4
cascade_activation_steepnesses=2.50000000000000000000e-01 5.00000000000000000000e-01 7.50000000000000000000e-01 1.00000000000000000000e+00 
layer_sizes=10 9 5 2 
scale_included=0
neurons (num_inputs, activation_function, activation_steepness)=(0, 0, 0.00000000000000000000e+00) (0, 0, 0.00000000000000000000e+00) (0, 0, 0.00000000000000000000e+00) (0, 0, 0.00000000000000000000e+00) (0, 0, 0.00000000000000000000e+00) (0, 0, 0.00000000000000000000e+00) (0, 0, 0.00000000000000000000e+00) (0, 0, 0.00000000000000000000e+00) (0, 0, 0.00000000000000000000e+00) (0, 0, 0.00000000000000000000e+00) (10, 3, 5.00000000000000000000e-01) (10, 3, 5.00000000000000000000e-01) (10, 3, 5.00000000000000000000e-01) (10, 3, 5.00000000000000000000e-01) (10, 3, 5.00000000000000000000e-01) (10, 3, 5.00000000000000000000e-01) (10, 3, 5.00000000000000000000e-01) (10, 3, 5.00000000000000000000e-01) (0, 3, 0.00000000000000000000e+00) (9, 3, 5.00000000000000000000e-01) (9, 3, 5.00000000000000000000e-01) (9, 3, 5.00000000000000000000e-01) (9, 3, 5.00000000000000000000e-01) (0, 3, 0.00000000000000000000e+00) (5, 3, 5.00000000000000000000e-01) (0, 3, 0.00000000000000000000e+00) 
connections (connected_to_neuron, weight)=(0, -1.19024467468261718750e+01) (1, 1.71157181262969970703e-01) (2, -1.51238660812377929688e+01) (3, 1.07359737157821655273e-01) (4, 2.85811710357666015625e+00) (5, 6.43903136253356933594e-01) (6, 4.79246437549591064453e-01) (7, 3.63475736230611801147e-03) (8, 1.18353612720966339111e-01) (9, 2.98218309879302978516e-01) (0, -2.77015298604965209961e-01) (1, -1.04483209550380706787e-01) (2, 1.91042506694793701172e+00) (3, -2.93321788311004638672e-01) (4, -9.91462528705596923828e-01) (5, 9.99329853057861328125e+00) (6, -4.99759101867675781250e+00) (7, -1.92362678050994873047e+00) (8, -3.83417558670043945312e+00) (9, -2.41382226347923278809e-01) (0, -1.60062896728515625000e+02) (1, -1.35614562988281250000e+03) (2, -8.09981689453125000000e+02) (3, -1.10417382812500000000e+03) (4, -3.98366127014160156250e+01) (5, -4.43656492233276367188e+00) (6, -1.12967492675781250000e+03) (7, -1.90465621948242187500e+02) (8, -5.03133535385131835938e+00) (9, -3.99963879585266113281e+00) (0, 9.19734761118888854980e-02) (1, -5.47850847244262695312e-01) (2, -1.80969123840332031250e+01) (3, -1.88674777746200561523e-02) (4, 1.13786783218383789062e+01) (5, 4.60002332925796508789e-01) (6, -6.74039459228515625000e+00) (7, -1.52556455135345458984e+00) (8, -1.82106721401214599609e+00) (9, 6.66691362857818603516e-01) (0, 9.64046120643615722656e-02) (1, 9.89576056599617004395e-02) (2, 6.98972396850585937500e+01) (3, -4.31960374116897583008e-01) (4, 3.04296836853027343750e+01) (5, 2.24138998985290527344e+00) (6, 1.11146830022335052490e-01) (7, -7.51324295997619628906e-02) (8, 7.64092624187469482422e-01) (9, 6.13061450421810150146e-02) (0, -9.62829813361167907715e-02) (1, 4.97792065143585205078e-01) (2, 1.12224750518798828125e+01) (3, -1.56643062829971313477e-01) (4, 2.35694527626037597656e+00) (5, 7.17436373233795166016e-01) (6, -2.27149391174316406250e+00) (7, -4.46473419666290283203e-01) (8, -4.98636335134506225586e-01) (9, 4.80868369340896606445e-02) (0, -1.85203838348388671875e+00) (1, -9.13245105743408203125e+00) (2, 1.34822833538055419922e+00) (3, 2.44919562339782714844e+00) (4, -7.63570499420166015625e+00) (5, -1.18442130088806152344e+00) (6, 4.52581548690795898438e+00) (7, -1.65479466319084167480e-01) (8, -1.21311634778976440430e-01) (9, 2.48159861564636230469e+00) (0, -1.69186472892761230469e+00) (1, -6.50024712085723876953e-01) (2, -1.55692186355590820312e+01) (3, -8.98470208048820495605e-02) (4, 1.18516094982624053955e-01) (5, 1.00044643878936767578e+00) (6, -7.49636590480804443359e-02) (7, 2.63261222839355468750e+00) (8, 1.99958801269531250000e+00) (9, -2.98286825418472290039e-01) (10, 1.00529146194458007812e+00) (11, 4.58579444885253906250e+00) (12, 1.50000000000000000000e+03) (13, 1.91579761505126953125e+01) (14, 4.57725465297698974609e-01) (15, 1.55609750747680664062e+00) (16, -2.70578289031982421875e+01) (17, 1.00108728408813476562e+01) (18, -5.09202666580677032471e-02) (10, 8.36381852626800537109e-01) (11, 1.65457496643066406250e+01) (12, 1.50000000000000000000e+03) (13, 8.03307723999023437500e+00) (14, -3.57142972946166992188e+00) (15, -5.59404253959655761719e-01) (16, -3.84834327697753906250e+01) (17, 3.28400955200195312500e+01) (18, 3.61737944185733795166e-02) (10, 6.37844324111938476562e-01) (11, 5.94568347930908203125e+00) (12, 1.25138916015625000000e+03) (13, 8.65343272686004638672e-01) (14, 1.83358776569366455078e+00) (15, 3.01466017961502075195e-01) (16, -4.48981857299804687500e+01) (17, 4.09546394348144531250e+01) (18, 3.36295187473297119141e-01) (10, 3.34043264389038085938e+00) (11, 2.11631393432617187500e+00) (12, 1.21016918945312500000e+03) (13, 3.54029011726379394531e+00) (14, 1.31875014305114746094e+00) (15, 5.42576694488525390625e+00) (16, -4.23152580261230468750e+01) (17, 3.27846221923828125000e+01) (18, -1.43600210547447204590e-01) (19, 2.61411637067794799805e-01) (20, 5.91244161128997802734e-01) (21, 5.29082417488098144531e-01) (22, 8.27670395374298095703e-01) (23, -1.33801424503326416016e+00) 
