FANN_FLO_2.1
num_layers=3
learning_rate=0.500000
connection_rate=1.000000
network_type=0
learning_momentum=0.000000
training_algorithm=2
train_error_function=1
train_stop_function=0
cascade_output_change_fraction=0.010000
quickprop_decay=-0.000100
quickprop_mu=1.750000
rprop_increase_factor=1.200000
rprop_decrease_factor=0.500000
rprop_delta_min=0.000000
rprop_delta_max=50.000000
rprop_delta_zero=0.100000
cascade_output_stagnation_epochs=12
cascade_candidate_change_fraction=0.010000
cascade_candidate_stagnation_epochs=12
cascade_max_out_epochs=150
cascade_min_out_epochs=50
cascade_max_cand_epochs=150
cascade_min_cand_epochs=50
cascade_num_candidate_groups=2
bit_fail_limit=3.49999994039535522461e-01
cascade_candidate_limit=1.00000000000000000000e+03
cascade_weight_multiplier=4.00000005960464477539e-01
cascade_activation_functions_count=10
cascade_activation_functions=3 5 7 8 10 11 14 15 16 17 
cascade_activation_steepnesses_count=4
cascade_activation_steepnesses=2.50000000000000000000e-01 5.00000000000000000000e-01 7.50000000000000000000e-01 1.00000000000000000000e+00 
layer_sizes=10 9 2 
scale_included=0
neurons (num_inputs, activation_function, activation_steepness)=(0, 0, 0.00000000000000000000e+00) (0, 0, 0.00000000000000000000e+00) (0, 0, 0.00000000000000000000e+00) (0, 0, 0.00000000000000000000e+00) (0, 0, 0.00000000000000000000e+00) (0, 0, 0.00000000000000000000e+00) (0, 0, 0.00000000000000000000e+00) (0, 0, 0.00000000000000000000e+00) (0, 0, 0.00000000000000000000e+00) (0, 0, 0.00000000000000000000e+00) (10, 3, 5.00000000000000000000e-01) (10, 3, 5.00000000000000000000e-01) (10, 3, 5.00000000000000000000e-01) (10, 3, 5.00000000000000000000e-01) (10, 3, 5.00000000000000000000e-01) (10, 3, 5.00000000000000000000e-01) (10, 3, 5.00000000000000000000e-01) (10, 3, 5.00000000000000000000e-01) (0, 3, 0.00000000000000000000e+00) (9, 3, 5.00000000000000000000e-01) (0, 3, 0.00000000000000000000e+00) 
connections (connected_to_neuron, weight)=(0, -6.73706769943237304688e-01) (1, 8.61176300048828125000e+00) (2, 1.87312889099121093750e+01) (3, -2.64783203601837158203e-01) (4, 3.97541642189025878906e+00) (5, 7.98061937093734741211e-02) (6, -9.08203697204589843750e+00) (7, -1.81911582946777343750e+01) (8, -5.10564088821411132812e+00) (9, -1.11516296863555908203e+00) (0, -4.50501298904418945312e+00) (1, 1.62221741676330566406e+00) (2, -1.57716289162635803223e-01) (3, 5.08049190044403076172e-01) (4, 5.78199958801269531250e+00) (5, 2.73135721683502197266e-01) (6, -3.70896005630493164062e+00) (7, -6.38495326042175292969e-01) (8, -2.10662436485290527344e+00) (9, 1.42373406887054443359e+00) (0, 4.35091781616210937500e+00) (1, 1.36740553379058837891e+00) (2, 9.00883178710937500000e+02) (3, -5.96422424316406250000e+02) (4, -8.50229203701019287109e-01) (5, 9.97020184993743896484e-01) (6, -2.07790336608886718750e+01) (7, -6.23921871185302734375e-01) (8, -1.61084264516830444336e-01) (9, 4.85104501247406005859e-01) (0, -1.05759930610656738281e+00) (1, -9.92801547050476074219e-01) (2, 4.49326992034912109375e+00) (3, 3.64460468292236328125e+00) (4, 1.27097666263580322266e+00) (5, 2.33823418617248535156e+00) (6, -6.88671827316284179688e+00) (7, -5.30669021606445312500e+00) (8, -1.12267208099365234375e+00) (9, 1.69787660241127014160e-01) (0, 1.06209564208984375000e+00) (1, 6.37535691261291503906e-01) (2, 1.46467187500000000000e+03) (3, 2.08345723152160644531e+00) (4, 2.91206091642379760742e-01) (5, 1.53935432434082031250e+01) (6, -1.11730566024780273438e+01) (7, -4.63661003112792968750e+00) (8, -6.55436754226684570312e+00) (9, 8.18233203887939453125e+00) (0, -2.64620018005371093750e+00) (1, 1.07551980018615722656e+00) (2, 3.16488742828369140625e-02) (3, 2.92513442039489746094e+00) (4, 3.98801040649414062500e+00) (5, -9.15854871273040771484e-02) (6, -3.60202026367187500000e+00) (7, -2.76448631286621093750e+00) (8, -1.89317154884338378906e+00) (9, 2.16249823570251464844e+00) (0, -8.76132369041442871094e-01) (1, 2.68791615962982177734e-01) (2, -1.50918304920196533203e+00) (3, 2.51247429847717285156e+00) (4, 3.05862450599670410156e+00) (5, -7.08705708384513854980e-02) (6, -2.91609907150268554688e+00) (7, -3.32039189338684082031e+00) (8, -2.24701929092407226562e+00) (9, 2.26712679862976074219e+00) (0, -3.37904047966003417969e+00) (1, 1.19757807254791259766e+00) (2, -1.10599264502525329590e-01) (3, 2.63703799247741699219e+00) (4, 5.92593383789062500000e+00) (5, -3.16741973161697387695e-01) (6, -3.51991415023803710938e+00) (7, -3.62392187118530273438e+00) (8, -1.34638011455535888672e+00) (9, 1.44210636615753173828e+00) (10, 3.68075609207153320312e+00) (11, 4.80087250471115112305e-01) (12, -3.05470395088195800781e+00) (13, -1.25371754169464111328e+00) (14, -6.13614022731781005859e-01) (15, 6.88212871551513671875e-01) (16, 6.26015841960906982422e-01) (17, 7.27227926254272460938e-01) (18, -3.63211721181869506836e-01) 
