FANN_FLO_2.1
num_layers=4
learning_rate=0.400000
connection_rate=1.000000
network_type=0
learning_momentum=0.000000
training_algorithm=2
train_error_function=1
train_stop_function=0
cascade_output_change_fraction=0.010000
quickprop_decay=-0.000100
quickprop_mu=1.750000
rprop_increase_factor=1.200000
rprop_decrease_factor=0.500000
rprop_delta_min=0.000000
rprop_delta_max=50.000000
rprop_delta_zero=0.100000
cascade_output_stagnation_epochs=12
cascade_candidate_change_fraction=0.010000
cascade_candidate_stagnation_epochs=12
cascade_max_out_epochs=150
cascade_min_out_epochs=50
cascade_max_cand_epochs=150
cascade_min_cand_epochs=50
cascade_num_candidate_groups=2
bit_fail_limit=3.49999994039535522461e-01
cascade_candidate_limit=1.00000000000000000000e+03
cascade_weight_multiplier=4.00000005960464477539e-01
cascade_activation_functions_count=10
cascade_activation_functions=3 5 7 8 10 11 14 15 16 17 
cascade_activation_steepnesses_count=4
cascade_activation_steepnesses=2.50000000000000000000e-01 5.00000000000000000000e-01 7.50000000000000000000e-01 1.00000000000000000000e+00 
layer_sizes=7 9 9 2 
scale_included=0
neurons (num_inputs, activation_function, activation_steepness)=(0, 0, 0.00000000000000000000e+00) (0, 0, 0.00000000000000000000e+00) (0, 0, 0.00000000000000000000e+00) (0, 0, 0.00000000000000000000e+00) (0, 0, 0.00000000000000000000e+00) (0, 0, 0.00000000000000000000e+00) (0, 0, 0.00000000000000000000e+00) (7, 3, 5.00000000000000000000e-01) (7, 3, 5.00000000000000000000e-01) (7, 3, 5.00000000000000000000e-01) (7, 3, 5.00000000000000000000e-01) (7, 3, 5.00000000000000000000e-01) (7, 3, 5.00000000000000000000e-01) (7, 3, 5.00000000000000000000e-01) (7, 3, 5.00000000000000000000e-01) (0, 3, 0.00000000000000000000e+00) (9, 3, 5.00000000000000000000e-01) (9, 3, 5.00000000000000000000e-01) (9, 3, 5.00000000000000000000e-01) (9, 3, 5.00000000000000000000e-01) (9, 3, 5.00000000000000000000e-01) (9, 3, 5.00000000000000000000e-01) (9, 3, 5.00000000000000000000e-01) (9, 3, 5.00000000000000000000e-01) (0, 3, 0.00000000000000000000e+00) (9, 3, 5.00000000000000000000e-01) (0, 3, 0.00000000000000000000e+00) 
connections (connected_to_neuron, weight)=(0, -5.30749267578125000000e+02) (1, 4.05431836843490600586e-01) (2, -1.48805969238281250000e+03) (3, -1.62045249938964843750e+01) (4, 1.87326217651367187500e+02) (5, 1.19432945251464843750e+02) (6, 7.85588681697845458984e-01) (0, -4.57239747047424316406e-01) (1, 6.05980396270751953125e+00) (2, 1.44753761291503906250e+01) (3, -6.60690116882324218750e+00) (4, -4.22520065307617187500e+00) (5, 5.08468704223632812500e+01) (6, 3.09911638498306274414e-01) (0, -6.17937850952148437500e+00) (1, 2.24923396110534667969e+00) (2, -3.44149475097656250000e+01) (3, -1.37903845310211181641e+00) (4, 1.46184349060058593750e+00) (5, 1.35641540527343750000e+02) (6, 9.88917469978332519531e-01) (0, 6.30301742553710937500e+01) (1, 5.36046104431152343750e+01) (2, -1.45419189453125000000e+03) (3, 8.93458862304687500000e+01) (4, -6.21457580566406250000e+02) (5, 6.02372680664062500000e+02) (6, 1.66651523113250732422e+00) (0, -3.33776283264160156250e+01) (1, 6.27066254615783691406e-01) (2, -3.18496734619140625000e+02) (3, -2.30090885162353515625e+01) (4, -2.65333652496337890625e+00) (5, -1.33843566894531250000e+02) (6, 8.21119785308837890625e-01) (0, -1.15664982795715332031e+00) (1, -4.44626927375793457031e-01) (2, 2.78939867019653320312e+00) (3, -3.21437406539916992188e+00) (4, -3.26729595661163330078e-01) (5, 3.94476175308227539062e-01) (6, 1.73284006118774414062e+00) (0, -8.47505264282226562500e+01) (1, 8.96744995117187500000e+01) (2, -9.34545898437500000000e+02) (3, 5.62552307128906250000e+02) (4, -2.51543151855468750000e+02) (5, 1.31621923446655273438e+01) (6, -1.63452743530273437500e+02) (0, -2.04060482978820800781e+00) (1, -1.02939879894256591797e+00) (2, 5.58440704345703125000e+01) (3, -2.23152208328247070312e+00) (4, -5.00271081924438476562e+00) (5, 2.34069514274597167969e+00) (6, 3.40505838394165039062e+00) (7, -1.13104505538940429688e+01) (8, 2.77971792221069335938e+00) (9, 7.14150094985961914062e+00) (10, 5.37703084945678710938e+00) (11, 1.50000000000000000000e+03) (12, 7.21301198005676269531e-01) (13, 1.37270092773437500000e+03) (14, 3.82873296737670898438e-01) (15, -2.06643605232238769531e+00) (7, -1.37076406478881835938e+01) (8, 2.53350758552551269531e+00) (9, 5.04581356048583984375e+00) (10, 8.05011463165283203125e+00) (11, 1.50000000000000000000e+03) (12, 1.25296678543090820312e+01) (13, 1.37270092773437500000e+03) (14, -1.88469254970550537109e+00) (15, -2.61975097656250000000e+00) (7, 9.51843872070312500000e+02) (8, 1.62686252593994140625e+01) (9, -4.17145109176635742188e+00) (10, -8.89941040039062500000e+02) (11, -1.50000000000000000000e+03) (12, -4.76992988586425781250e+00) (13, 1.14427929687500000000e+03) (14, -1.18655490875244140625e+00) (15, 5.05153417587280273438e+00) (7, 3.02270721435546875000e+02) (8, -5.39766216278076171875e+00) (9, 1.96301536560058593750e+01) (10, -9.23374389648437500000e+02) (11, 1.50000000000000000000e+03) (12, 1.27835550308227539062e+01) (13, 1.37270092773437500000e+03) (14, 6.35910129547119140625e+00) (15, -7.91200733184814453125e+00) (7, 1.50000000000000000000e+03) (8, 3.45999336242675781250e+01) (9, 8.69479614257812500000e+02) (10, 1.20923388671875000000e+03) (11, -1.50000000000000000000e+03) (12, -6.11346197128295898438e+00) (13, 1.09632751464843750000e+03) (14, -1.13551704406738281250e+02) (15, 6.38515777587890625000e+01) (7, 1.50000000000000000000e+03) (8, -4.31441162109375000000e+02) (9, 4.46966981887817382812e+00) (10, 2.35858016967773437500e+02) (11, -1.50000000000000000000e+03) (12, -1.50000000000000000000e+03) (13, 9.24245239257812500000e+02) (14, -1.27497607421875000000e+03) (15, -1.09613311290740966797e+00) (7, 3.02270721435546875000e+02) (8, 8.73622360229492187500e+01) (9, -1.42732650756835937500e+02) (10, -7.87077758789062500000e+02) (11, 1.50000000000000000000e+03) (12, 1.50000000000000000000e+03) (13, 1.37270092773437500000e+03) (14, 1.50000000000000000000e+03) (15, -1.18021547794342041016e+00) (7, 7.72768878936767578125e+00) (8, 9.98591384887695312500e+01) (9, -1.26541023254394531250e+01) (10, -1.32765304565429687500e+02) (11, 1.50000000000000000000e+03) (12, 2.31094207763671875000e+01) (13, 1.37270092773437500000e+03) (14, 3.59078788757324218750e+01) (15, -1.41442251205444335938e+00) (16, -8.00557076930999755859e-01) (17, -1.49440693855285644531e+00) (18, 3.90808552503585815430e-01) (19, -5.22742807865142822266e-01) (20, 2.33425185084342956543e-01) (21, 4.35384483337402343750e+01) (22, -2.42568522691726684570e-01) (23, -7.02937066555023193359e-01) (24, -1.21568784117698669434e-01) 
