FANN_FLO_2.1
num_layers=3
learning_rate=0.400000
connection_rate=1.000000
network_type=0
learning_momentum=0.000000
training_algorithm=2
train_error_function=1
train_stop_function=0
cascade_output_change_fraction=0.010000
quickprop_decay=-0.000100
quickprop_mu=1.750000
rprop_increase_factor=1.200000
rprop_decrease_factor=0.500000
rprop_delta_min=0.000000
rprop_delta_max=50.000000
rprop_delta_zero=0.100000
cascade_output_stagnation_epochs=12
cascade_candidate_change_fraction=0.010000
cascade_candidate_stagnation_epochs=12
cascade_max_out_epochs=150
cascade_min_out_epochs=50
cascade_max_cand_epochs=150
cascade_min_cand_epochs=50
cascade_num_candidate_groups=2
bit_fail_limit=3.49999994039535522461e-01
cascade_candidate_limit=1.00000000000000000000e+03
cascade_weight_multiplier=4.00000005960464477539e-01
cascade_activation_functions_count=10
cascade_activation_functions=3 5 7 8 10 11 14 15 16 17 
cascade_activation_steepnesses_count=4
cascade_activation_steepnesses=2.50000000000000000000e-01 5.00000000000000000000e-01 7.50000000000000000000e-01 1.00000000000000000000e+00 
layer_sizes=65 3 65 
scale_included=0
neurons (num_inputs, activation_function, activation_steepness)=(0, 0, 0.00000000000000000000e+00) (0, 0, 0.00000000000000000000e+00) (0, 0, 0.00000000000000000000e+00) (0, 0, 0.00000000000000000000e+00) (0, 0, 0.00000000000000000000e+00) (0, 0, 0.00000000000000000000e+00) (0, 0, 0.00000000000000000000e+00) (0, 0, 0.00000000000000000000e+00) (0, 0, 0.00000000000000000000e+00) (0, 0, 0.00000000000000000000e+00) (0, 0, 0.00000000000000000000e+00) (0, 0, 0.00000000000000000000e+00) (0, 0, 0.00000000000000000000e+00) (0, 0, 0.00000000000000000000e+00) (0, 0, 0.00000000000000000000e+00) (0, 0, 0.00000000000000000000e+00) (0, 0, 0.00000000000000000000e+00) (0, 0, 0.00000000000000000000e+00) (0, 0, 0.00000000000000000000e+00) (0, 0, 0.00000000000000000000e+00) (0, 0, 0.00000000000000000000e+00) (0, 0, 0.00000000000000000000e+00) (0, 0, 0.00000000000000000000e+00) (0, 0, 0.00000000000000000000e+00) (0, 0, 0.00000000000000000000e+00) (0, 0, 0.00000000000000000000e+00) (0, 0, 0.00000000000000000000e+00) (0, 0, 0.00000000000000000000e+00) (0, 0, 0.00000000000000000000e+00) (0, 0, 0.00000000000000000000e+00) (0, 0, 0.00000000000000000000e+00) (0, 0, 0.00000000000000000000e+00) (0, 0, 0.00000000000000000000e+00) (0, 0, 0.00000000000000000000e+00) (0, 0, 0.00000000000000000000e+00) (0, 0, 0.00000000000000000000e+00) (0, 0, 0.00000000000000000000e+00) (0, 0, 0.00000000000000000000e+00) (0, 0, 0.00000000000000000000e+00) (0, 0, 0.00000000000000000000e+00) (0, 0, 0.00000000000000000000e+00) (0, 0, 0.00000000000000000000e+00) (0, 0, 0.00000000000000000000e+00) (0, 0, 0.00000000000000000000e+00) (0, 0, 0.00000000000000000000e+00) (0, 0, 0.00000000000000000000e+00) (0, 0, 0.00000000000000000000e+00) (0, 0, 0.00000000000000000000e+00) (0, 0, 0.00000000000000000000e+00) (0, 0, 0.00000000000000000000e+00) (0, 0, 0.00000000000000000000e+00) (0, 0, 0.00000000000000000000e+00) (0, 0, 0.00000000000000000000e+00) (0, 0, 0.00000000000000000000e+00) (0, 0, 0.00000000000000000000e+00) (0, 0, 0.00000000000000000000e+00) (0, 0, 0.00000000000000000000e+00) (0, 0, 0.00000000000000000000e+00) (0, 0, 0.00000000000000000000e+00) (0, 0, 0.00000000000000000000e+00) (0, 0, 0.00000000000000000000e+00) (0, 0, 0.00000000000000000000e+00) (0, 0, 0.00000000000000000000e+00) (0, 0, 0.00000000000000000000e+00) (0, 0, 0.00000000000000000000e+00) (65, 3, 5.00000000000000000000e-01) (65, 3, 5.00000000000000000000e-01) (0, 3, 0.00000000000000000000e+00) (3, 5, 5.00000000000000000000e-01) (3, 5, 5.00000000000000000000e-01) (3, 5, 5.00000000000000000000e-01) (3, 5, 5.00000000000000000000e-01) (3, 5, 5.00000000000000000000e-01) (3, 5, 5.00000000000000000000e-01) (3, 5, 5.00000000000000000000e-01) (3, 5, 5.00000000000000000000e-01) (3, 5, 5.00000000000000000000e-01) (3, 5, 5.00000000000000000000e-01) (3, 5, 5.00000000000000000000e-01) (3, 5, 5.00000000000000000000e-01) (3, 5, 5.00000000000000000000e-01) (3, 5, 5.00000000000000000000e-01) (3, 5, 5.00000000000000000000e-01) (3, 5, 5.00000000000000000000e-01) (3, 5, 5.00000000000000000000e-01) (3, 5, 5.00000000000000000000e-01) (3, 5, 5.00000000000000000000e-01) (3, 5, 5.00000000000000000000e-01) (3, 5, 5.00000000000000000000e-01) (3, 5, 5.00000000000000000000e-01) (3, 5, 5.00000000000000000000e-01) (3, 5, 5.00000000000000000000e-01) (3, 5, 5.00000000000000000000e-01) (3, 5, 5.00000000000000000000e-01) (3, 5, 5.00000000000000000000e-01) (3, 5, 5.00000000000000000000e-01) (3, 5, 5.00000000000000000000e-01) (3, 5, 5.00000000000000000000e-01) (3, 5, 5.00000000000000000000e-01) (3, 5, 5.00000000000000000000e-01) (3, 5, 5.00000000000000000000e-01) (3, 5, 5.00000000000000000000e-01) (3, 5, 5.00000000000000000000e-01) (3, 5, 5.00000000000000000000e-01) (3, 5, 5.00000000000000000000e-01) (3, 5, 5.00000000000000000000e-01) (3, 5, 5.00000000000000000000e-01) (3, 5, 5.00000000000000000000e-01) (3, 5, 5.00000000000000000000e-01) (3, 5, 5.00000000000000000000e-01) (3, 5, 5.00000000000000000000e-01) (3, 5, 5.00000000000000000000e-01) (3, 5, 5.00000000000000000000e-01) (3, 5, 5.00000000000000000000e-01) (3, 5, 5.00000000000000000000e-01) (3, 5, 5.00000000000000000000e-01) (3, 5, 5.00000000000000000000e-01) (3, 5, 5.00000000000000000000e-01) (3, 5, 5.00000000000000000000e-01) (3, 5, 5.00000000000000000000e-01) (3, 5, 5.00000000000000000000e-01) (3, 5, 5.00000000000000000000e-01) (3, 5, 5.00000000000000000000e-01) (3, 5, 5.00000000000000000000e-01) (3, 5, 5.00000000000000000000e-01) (3, 5, 5.00000000000000000000e-01) (3, 5, 5.00000000000000000000e-01) (3, 5, 5.00000000000000000000e-01) (3, 5, 5.00000000000000000000e-01) (3, 5, 5.00000000000000000000e-01) (3, 5, 5.00000000000000000000e-01) (3, 5, 5.00000000000000000000e-01) (0, 5, 0.00000000000000000000e+00) 
connections (connected_to_neuron, weight)=(0, -2.50026434659957885742e-01) (1, -1.82590067386627197266e-01) (2, -1.26095497980713844299e-02) (3, -1.09342113137245178223e-01) (4, 4.48033809661865234375e-02) (5, 6.33480548858642578125e-02) (6, 6.26032948493957519531e-02) (7, 1.07670120894908905029e-01) (8, -1.21703848242759704590e-01) (9, -1.69939324259757995605e-01) (10, -1.19658276438713073730e-01) (11, -5.20136058330535888672e-02) (12, 8.68717022240161895752e-03) (13, -1.15381345152854919434e-01) (14, 6.55608624219894409180e-02) (15, 5.88158853352069854736e-02) (16, -1.75100788474082946777e-01) (17, -1.90476626157760620117e-01) (18, 8.17971080541610717773e-02) (19, -2.88459777832031250000e-01) (20, -1.00169226527214050293e-01) (21, 4.51899319887161254883e-02) (22, -7.37902000546455383301e-02) (23, 7.97266792505979537964e-03) (24, -1.04247823357582092285e-01) (25, -2.38723084330558776855e-01) (26, -8.75624567270278930664e-02) (27, -3.98909375071525573730e-02) (28, 9.52476263046264648438e-02) (29, 6.04011788964271545410e-02) (30, -3.03170643746852874756e-02) (31, 4.44806396961212158203e-01) (32, -1.43605843186378479004e-01) (33, -3.25100928544998168945e-01) (34, -1.95620264858007431030e-02) (35, -2.97639030031859874725e-03) (36, 2.65117362141609191895e-02) (37, 3.37587781250476837158e-02) (38, -6.04839548468589782715e-02) (39, 3.48589383065700531006e-02) (40, -1.91784754395484924316e-01) (41, -3.86408716440200805664e-01) (42, -1.41273424029350280762e-01) (43, -1.21305279433727264404e-01) (44, 3.80438975989818572998e-02) (45, -6.39828890562057495117e-02) (46, -3.01900152117013931274e-02) (47, 4.94844675064086914062e-01) (48, -2.32278302311897277832e-01) (49, -9.25996676087379455566e-02) (50, -9.94049459695816040039e-02) (51, -1.64850894361734390259e-02) (52, -6.80410563945770263672e-02) (53, -3.82186882197856903076e-02) (54, 4.75111484527587890625e-01) (55, 3.90658527612686157227e-02) (56, -3.38522583246231079102e-01) (57, -1.96342825889587402344e-01) (58, -1.78668618202209472656e-01) (59, -1.65146663784980773926e-01) (60, -6.85884729027748107910e-02) (61, -1.48833384737372398376e-02) (62, -1.21001554653048515320e-02) (63, 1.03843407705426216125e-02) (64, -2.82327026128768920898e-01) (0, -2.16742828488349914551e-01) (1, 1.84980645775794982910e-01) (2, 1.42625987529754638672e-01) (3, 9.65325087308883666992e-02) (4, -3.87749671936035156250e-02) (5, 1.30956858396530151367e-01) (6, -2.83458884805440902710e-02) (7, 2.31791604310274124146e-02) (8, -2.40482375025749206543e-01) (9, -1.41111630946397781372e-02) (10, -8.97892378270626068115e-03) (11, -3.88313770294189453125e-01) (12, 1.39791458845138549805e-01) (13, 9.70479696989059448242e-02) (14, 1.08097225427627563477e-01) (15, 8.54075923562049865723e-02) (16, -3.11153620481491088867e-01) (17, -5.28441602364182472229e-03) (18, -1.10807530581951141357e-01) (19, -3.02005350589752197266e-01) (20, -1.53980040922760963440e-02) (21, 1.81087821722030639648e-01) (22, 1.42742171883583068848e-01) (23, 1.03236876428127288818e-01) (24, -1.22939847409725189209e-01) (25, 1.23809069395065307617e-01) (26, -1.35962620377540588379e-01) (27, -2.53262430429458618164e-01) (28, 7.55876153707504272461e-02) (29, 6.60298243165016174316e-02) (30, 9.06913280487060546875e-02) (31, 1.96676865220069885254e-01) (32, -4.27055388689041137695e-01) (33, -5.49163185060024261475e-02) (34, -3.02098542451858520508e-02) (35, 2.39186640828847885132e-02) (36, 1.50462552905082702637e-01) (37, 8.32978487014770507812e-02) (38, 1.84517130255699157715e-01) (39, 1.09993569552898406982e-01) (40, 1.44956111907958984375e-02) (41, -6.19641654193401336670e-02) (42, 4.77751381695270538330e-02) (43, 5.88319040834903717041e-02) (44, 4.90523204207420349121e-02) (45, 1.65137693285942077637e-01) (46, 1.30305290222167968750e-01) (47, -1.45094189792871475220e-03) (48, -1.44970014691352844238e-01) (49, 1.16456978023052215576e-01) (50, -1.85336228460073471069e-02) (51, 9.34188961982727050781e-02) (52, 1.18753172457218170166e-01) (53, 3.23634371161460876465e-02) (54, 1.08686231076717376709e-01) (55, 2.33043938875198364258e-01) (56, -1.08915507793426513672e-01) (57, -4.93295229971408843994e-02) (58, 4.81739155948162078857e-02) (59, 1.04054033756256103516e-01) (60, 1.09602935612201690674e-01) (61, 1.74096584320068359375e-01) (62, 1.32631495594978332520e-01) (63, 1.66762620210647583008e-01) (64, -1.15225589275360107422e+00) (65, -8.60457181930541992188e-01) (66, 1.49330437183380126953e+00) (67, 9.06111393123865127563e-03) (65, -3.26814025640487670898e-01) (66, -9.48635339736938476562e-01) (67, 3.73073905706405639648e-01) (65, -1.88543293625116348267e-02) (66, -7.42038711905479431152e-02) (67, 2.61711124330759048462e-02) (65, 2.02644392848014831543e-02) (66, -1.76744889467954635620e-02) (67, -4.53744223341345787048e-03) (65, 3.46958711743354797363e-02) (66, 3.83329093456268310547e-02) (67, -2.63917986303567886353e-02) (65, 4.62308600544929504395e-02) (66, -1.22852005064487457275e-01) (67, 1.15380128845572471619e-02) (65, 1.59910786896944046021e-02) (66, 2.38867923617362976074e-02) (67, -1.24849099665880203247e-02) (65, -4.53543150797486305237e-03) (66, 1.81738182436674833298e-03) (67, 7.78399407863616943359e-04) (65, 1.28954080864787101746e-02) (66, 3.21744680404663085938e-02) (67, -1.27244750037789344788e-02) (65, 2.29550595395267009735e-03) (66, -8.09200137155130505562e-05) (67, -9.41059086471796035767e-04) (65, 4.03777230530977249146e-03) (66, 3.43354023061692714691e-03) (67, -2.46137683279812335968e-03) (65, 6.47505465894937515259e-03) (66, 6.32042391225695610046e-03) (67, -4.22900449484586715698e-03) (65, -1.00550800561904907227e-02) (66, -1.20918569155037403107e-03) (67, 4.33859787881374359131e-03) (65, 9.49636287987232208252e-03) (66, -1.27385230734944343567e-02) (67, 5.70902193430811166763e-04) (65, 1.22315222397446632385e-02) (66, 1.55357196927070617676e-02) (67, -8.41203425079584121704e-03) (65, 1.46746519021689891815e-04) (66, -3.90485767275094985962e-03) (67, 9.41908452659845352173e-04) (65, 3.76634579151868820190e-03) (66, 1.21613601222634315491e-02) (67, -4.60735568776726722717e-03) (65, 2.99043743871152400970e-03) (66, 5.51589997485280036926e-03) (67, -2.94006569311022758484e-03) (65, 2.52431258559226989746e-03) (66, 6.35825842618942260742e-03) (67, -2.82341707497835159302e-03) (65, 2.72573158144950866699e-03) (66, -3.00561077892780303955e-04) (67, -8.45774717163294553757e-04) (65, 7.67475110478699207306e-04) (66, 2.80379154719412326813e-03) (67, -9.62727935984730720520e-04) (65, -7.72870407672598958015e-06) (66, 1.16375813377089798450e-05) (67, 6.42451850580982863903e-05) (65, 1.85742555186152458191e-03) (66, 8.71187075972557067871e-04) (67, -6.56197429634630680084e-04) (65, 5.30692865140736103058e-04) (66, -3.84396128356456756592e-03) (67, 1.29320239648222923279e-03) (65, -1.64014426991343498230e-03) (66, -9.84679721295833587646e-03) (67, 3.47739784047007560730e-03) (65, -8.56966536957770586014e-04) (66, -4.65762568637728691101e-03) (67, 1.60421873442828655243e-03) (65, 3.52023169398307800293e-03) (66, 6.36707805097103118896e-03) (67, -2.59048817679286003113e-03) (65, 1.19646480015944689512e-04) (66, 3.18107224302366375923e-04) (67, -2.43721442529931664467e-04) (65, 1.54579800437204539776e-04) (66, -4.46698359155561774969e-05) (67, 1.36491362354718148708e-04) (65, 9.55426585278473794460e-05) (66, 1.16900606371928006411e-04) (67, -5.69216281292028725147e-05) (65, 1.07946468051522970200e-03) (66, 8.54017620440572500229e-04) (67, -3.17758793244138360023e-04) (65, -4.62012030766345560551e-05) (66, -4.53747995197772979736e-03) (67, 1.49478204548358917236e-03) (65, 1.28767103888094425201e-04) (66, 2.20360074308700859547e-04) (67, -1.48327744682319462299e-05) (65, -3.00314641208387911320e-05) (66, -2.77517901849932968616e-05) (67, 1.00772893347311764956e-04) (65, -4.51023806817829608917e-05) (66, -1.27947685541585087776e-04) (67, -5.72013959754258394241e-06) (65, 2.11550664971582591534e-04) (66, -6.14345844951458275318e-05) (67, 6.98174408171325922012e-05) (65, 1.54552020831033587456e-04) (66, 1.87559635378420352936e-04) (67, 1.75739463884383440018e-04) (65, 2.57535430137068033218e-05) (66, 2.91789037873968482018e-04) (67, -1.07636056782212108374e-04) (65, -1.64347584359347820282e-04) (66, -2.46287003392353653908e-04) (67, 9.37843506108038127422e-05) (65, 1.66323571465909481049e-03) (66, 3.10112792067229747772e-03) (67, -1.29400938749313354492e-03) (65, 3.78919794457033276558e-05) (66, 2.68953095655888319016e-04) (67, -2.44435243075713515282e-04) (65, -4.67062673124019056559e-05) (66, 5.84121626161504536867e-05) (67, -1.24422986118588596582e-05) (65, 3.81456629838794469833e-05) (66, 2.63394758803769946098e-04) (67, -1.75976718310266733170e-04) (65, 8.36935796542093157768e-05) (66, 3.24716442264616489410e-04) (67, 7.41710973670706152916e-05) (65, 2.16789630940183997154e-04) (66, -1.32523346110247075558e-05) (67, 1.02417296147905290127e-04) (65, 2.78548599453642964363e-04) (66, 1.30418717162683606148e-04) (67, 1.12959809484891593456e-04) (65, 2.85236688796430826187e-04) (66, 4.85581869725137948990e-04) (67, -1.35749869514256715775e-04) (65, -1.24113634228706359863e-04) (66, 1.17263552965596318245e-05) (67, -1.24999700346961617470e-04) (65, 1.94234991795383393764e-04) (66, 3.80426179617643356323e-04) (67, 1.80125971382949501276e-05) (65, -5.41055269422940909863e-05) (66, -4.30310494266450405121e-04) (67, -6.33054223726503551006e-05) (65, 2.10014768526889383793e-04) (66, 9.50266112340614199638e-05) (67, 1.41820171847939491272e-04) (65, -5.73728175368160009384e-06) (66, -1.10070679511409252882e-04) (67, -2.07089411560446023941e-04) (65, 4.91751161462161689997e-05) (66, 1.16049428470432758331e-04) (67, 3.91837129427585750818e-05) (65, 1.15977498353458940983e-04) (66, 2.31470097787678241730e-04) (67, 1.61554722581058740616e-04) (65, 1.66229743626900017262e-04) (66, 2.08058641874231398106e-04) (67, 8.30608914839103817940e-05) (65, 2.19356297748163342476e-05) (66, 9.74040813161991536617e-05) (67, -1.20857199362944811583e-04) (65, 5.06090182170737534761e-05) (66, 2.00182097614742815495e-04) (67, 2.16273270780220627785e-04) (65, -4.24271347583271563053e-05) (66, 3.86737301596440374851e-05) (67, 7.05278289387933909893e-05) (65, 9.44272323977202177048e-06) (66, -4.73100953968241810799e-05) (67, -1.08415748400148004293e-04) (65, -8.75865298439748585224e-05) (66, -3.95258830394595861435e-04) (67, -1.96195760508999228477e-05) (65, -9.22850958886556327343e-05) (66, 7.62127892812713980675e-05) (67, -2.07688077352941036224e-04) (65, 3.07405454805120825768e-04) (66, 4.84171672724187374115e-04) (67, -7.25560312275774776936e-05) (65, 6.15380995441228151321e-05) (66, 2.97018355922773480415e-04) (67, 1.11408298835158348083e-05) (65, 1.07341365946922451258e-04) (66, 2.75455939117819070816e-04) (67, -2.78705338132567703724e-05) 
