FANN_FLO_2.1
num_layers=4
learning_rate=0.500000
connection_rate=1.000000
network_type=0
learning_momentum=0.000000
training_algorithm=2
train_error_function=1
train_stop_function=0
cascade_output_change_fraction=0.010000
quickprop_decay=-0.000100
quickprop_mu=1.750000
rprop_increase_factor=1.200000
rprop_decrease_factor=0.500000
rprop_delta_min=0.000000
rprop_delta_max=50.000000
rprop_delta_zero=0.100000
cascade_output_stagnation_epochs=12
cascade_candidate_change_fraction=0.010000
cascade_candidate_stagnation_epochs=12
cascade_max_out_epochs=150
cascade_min_out_epochs=50
cascade_max_cand_epochs=150
cascade_min_cand_epochs=50
cascade_num_candidate_groups=2
bit_fail_limit=3.49999994039535522461e-01
cascade_candidate_limit=1.00000000000000000000e+03
cascade_weight_multiplier=4.00000005960464477539e-01
cascade_activation_functions_count=10
cascade_activation_functions=3 5 7 8 10 11 14 15 16 17 
cascade_activation_steepnesses_count=4
cascade_activation_steepnesses=2.50000000000000000000e-01 5.00000000000000000000e-01 7.50000000000000000000e-01 1.00000000000000000000e+00 
layer_sizes=10 9 9 2 
scale_included=0
neurons (num_inputs, activation_function, activation_steepness)=(0, 0, 0.00000000000000000000e+00) (0, 0, 0.00000000000000000000e+00) (0, 0, 0.00000000000000000000e+00) (0, 0, 0.00000000000000000000e+00) (0, 0, 0.00000000000000000000e+00) (0, 0, 0.00000000000000000000e+00) (0, 0, 0.00000000000000000000e+00) (0, 0, 0.00000000000000000000e+00) (0, 0, 0.00000000000000000000e+00) (0, 0, 0.00000000000000000000e+00) (10, 3, 5.00000000000000000000e-01) (10, 3, 5.00000000000000000000e-01) (10, 3, 5.00000000000000000000e-01) (10, 3, 5.00000000000000000000e-01) (10, 3, 5.00000000000000000000e-01) (10, 3, 5.00000000000000000000e-01) (10, 3, 5.00000000000000000000e-01) (10, 3, 5.00000000000000000000e-01) (0, 3, 0.00000000000000000000e+00) (9, 3, 5.00000000000000000000e-01) (9, 3, 5.00000000000000000000e-01) (9, 3, 5.00000000000000000000e-01) (9, 3, 5.00000000000000000000e-01) (9, 3, 5.00000000000000000000e-01) (9, 3, 5.00000000000000000000e-01) (9, 3, 5.00000000000000000000e-01) (9, 3, 5.00000000000000000000e-01) (0, 3, 0.00000000000000000000e+00) (9, 3, 5.00000000000000000000e-01) (0, 3, 0.00000000000000000000e+00) 
connections (connected_to_neuron, weight)=(0, 1.09817504882812500000e+02) (1, -5.76670467853546142578e-01) (2, 7.78669357299804687500e+00) (3, -2.28194952011108398438e+00) (4, -1.10889120101928710938e+01) (5, 2.60199050903320312500e+01) (6, -1.39919233322143554688e+01) (7, 6.24383010864257812500e+01) (8, -3.70484100341796875000e+02) (9, 2.84937000274658203125e+00) (0, -2.68480324745178222656e+00) (1, 1.41231745481491088867e-01) (2, 2.35965013504028320312e+00) (3, -9.80178737640380859375e+00) (4, -3.20079708099365234375e+00) (5, 2.24571094512939453125e+01) (6, -2.37174320220947265625e+01) (7, -5.33649873733520507812e+00) (8, 2.23735103607177734375e+01) (9, 1.23550713062286376953e+00) (0, 1.07444465160369873047e+00) (1, -1.53532724380493164062e+01) (2, -2.66392111778259277344e+00) (3, -8.57816517353057861328e-01) (4, -1.50164976119995117188e+01) (5, -8.71459960937500000000e+00) (6, 2.98793754577636718750e+01) (7, 1.20663471221923828125e+01) (8, 9.84712505340576171875e+00) (9, 8.02176773548126220703e-01) (0, 5.95041751861572265625e+00) (1, 8.95766317844390869141e-02) (2, 3.62852001190185546875e+00) (3, -3.24545192718505859375e+00) (4, -1.95728511810302734375e+01) (5, 2.90319299697875976562e+00) (6, -3.45083498954772949219e+00) (7, 4.12953406572341918945e-01) (8, 2.07385325431823730469e+00) (9, 3.96178483963012695312e+00) (0, 2.50537633895874023438e+00) (1, -7.17159137129783630371e-02) (2, 2.89922866821289062500e+01) (3, -2.51491522789001464844e+00) (4, -2.04786777496337890625e+00) (5, 1.40855512619018554688e+01) (6, -4.23448133468627929688e+00) (7, 1.88672140240669250488e-01) (8, -1.04252609252929687500e+02) (9, 2.42739715576171875000e+01) (0, 1.16376876831054687500e+02) (1, -5.68020582199096679688e+00) (2, 7.94192428588867187500e+01) (3, -4.00370254516601562500e+01) (4, -1.16358470916748046875e+01) (5, -2.75639915466308593750e+00) (6, -2.90535469055175781250e+01) (7, -4.25816497802734375000e+01) (8, -3.41283454895019531250e+01) (9, 8.98282527923583984375e-01) (0, 6.14243268966674804688e+00) (1, 1.56903222203254699707e-01) (2, 2.04515409469604492188e+00) (3, -1.15174942016601562500e+01) (4, -1.45769548416137695312e+01) (5, -1.55811035074293613434e-03) (6, 1.54088950157165527344e+00) (7, 1.22720956802368164062e+00) (8, 2.29974269866943359375e+00) (9, -3.67738676071166992188e+00) (0, 2.36299777030944824219e+00) (1, -3.06372237205505371094e+00) (2, 1.91436901092529296875e+01) (3, -7.54738092422485351562e+00) (4, -1.57442169189453125000e+01) (5, -2.36389899253845214844e+00) (6, 1.38282752037048339844e+00) (7, -1.22320163249969482422e+00) (8, -2.08176136016845703125e+00) (9, 3.72464799880981445312e+00) (10, -9.25765502929687500000e+02) (11, -1.37666577148437500000e+03) (12, -1.09291967773437500000e+03) (13, -1.50000000000000000000e+03) (14, -1.50000000000000000000e+03) (15, -1.39061108398437500000e+03) (16, -9.50269897460937500000e+02) (17, -1.50000000000000000000e+03) (18, -1.05504913330078125000e+01) (10, -1.35018002986907958984e+00) (11, -5.24822378158569335938e+00) (12, -4.93442916870117187500e+01) (13, -3.23484849929809570312e+00) (14, -7.93468415737152099609e-01) (15, 1.71344494819641113281e+00) (16, -2.45461654663085937500e+00) (17, 1.63192957639694213867e-01) (18, 1.00657644271850585938e+01) (10, -9.98719787597656250000e+02) (11, -1.37666577148437500000e+03) (12, -1.09291967773437500000e+03) (13, -1.50000000000000000000e+03) (14, -1.50000000000000000000e+03) (15, -1.39061108398437500000e+03) (16, -9.50269897460937500000e+02) (17, -1.50000000000000000000e+03) (18, -2.47475051879882812500e+01) (10, -9.25668334960937500000e+02) (11, -1.37666577148437500000e+03) (12, -1.09291967773437500000e+03) (13, -1.50000000000000000000e+03) (14, -1.50000000000000000000e+03) (15, -1.39061108398437500000e+03) (16, -9.50269897460937500000e+02) (17, -1.50000000000000000000e+03) (18, -1.05974597930908203125e+01) (10, -4.84659242630004882812e+00) (11, -6.21374368667602539062e+00) (12, 9.46876811981201171875e+00) (13, -1.20351099967956542969e+00) (14, -1.07095074653625488281e+00) (15, 3.90689492225646972656e-01) (16, 1.39811983108520507812e+01) (17, -6.99649620056152343750e+00) (18, 3.93650621175765991211e-01) (10, -7.39303767681121826172e-01) (11, -5.50401115417480468750e+00) (12, -4.21219673156738281250e+01) (13, -6.57104104757308959961e-02) (14, -4.60137653350830078125e+00) (15, 5.28647243976593017578e-01) (16, 2.99797105789184570312e+00) (17, 4.78148746490478515625e+00) (18, 7.90402412414550781250e+00) (10, 3.19927811622619628906e+00) (11, -1.21864074707031250000e+02) (12, 1.07854446411132812500e+02) (13, -1.07121447753906250000e+03) (14, -8.98727874755859375000e+01) (15, -1.44500000000000000000e+03) (16, 8.13059692382812500000e+02) (17, -1.46880700683593750000e+03) (18, 1.07885608673095703125e+01) (10, -9.25731567382812500000e+02) (11, -1.37666577148437500000e+03) (12, -1.09291967773437500000e+03) (13, -1.50000000000000000000e+03) (14, -1.50000000000000000000e+03) (15, -1.39061108398437500000e+03) (16, -9.50269897460937500000e+02) (17, -1.50000000000000000000e+03) (18, -1.05697698593139648438e+01) (19, 1.50000000000000000000e+03) (20, 1.36368608474731445312e+00) (21, 1.50000000000000000000e+03) (22, 1.50000000000000000000e+03) (23, 1.60820257663726806641e+00) (24, 1.38244616985321044922e+00) (25, 8.27024102210998535156e-01) (26, 1.50000000000000000000e+03) (27, -1.50820612907409667969e+00) 
