FANN_FLO_2.1
num_layers=4
learning_rate=0.400000
connection_rate=1.000000
network_type=0
learning_momentum=0.000000
training_algorithm=2
train_error_function=1
train_stop_function=0
cascade_output_change_fraction=0.010000
quickprop_decay=-0.000100
quickprop_mu=1.750000
rprop_increase_factor=1.200000
rprop_decrease_factor=0.500000
rprop_delta_min=0.000000
rprop_delta_max=50.000000
rprop_delta_zero=0.100000
cascade_output_stagnation_epochs=12
cascade_candidate_change_fraction=0.010000
cascade_candidate_stagnation_epochs=12
cascade_max_out_epochs=150
cascade_min_out_epochs=50
cascade_max_cand_epochs=150
cascade_min_cand_epochs=50
cascade_num_candidate_groups=2
bit_fail_limit=3.49999994039535522461e-01
cascade_candidate_limit=1.00000000000000000000e+03
cascade_weight_multiplier=4.00000005960464477539e-01
cascade_activation_functions_count=10
cascade_activation_functions=3 5 7 8 10 11 14 15 16 17 
cascade_activation_steepnesses_count=4
cascade_activation_steepnesses=2.50000000000000000000e-01 5.00000000000000000000e-01 7.50000000000000000000e-01 1.00000000000000000000e+00 
layer_sizes=7 9 5 2 
scale_included=0
neurons (num_inputs, activation_function, activation_steepness)=(0, 0, 0.00000000000000000000e+00) (0, 0, 0.00000000000000000000e+00) (0, 0, 0.00000000000000000000e+00) (0, 0, 0.00000000000000000000e+00) (0, 0, 0.00000000000000000000e+00) (0, 0, 0.00000000000000000000e+00) (0, 0, 0.00000000000000000000e+00) (7, 3, 5.00000000000000000000e-01) (7, 3, 5.00000000000000000000e-01) (7, 3, 5.00000000000000000000e-01) (7, 3, 5.00000000000000000000e-01) (7, 3, 5.00000000000000000000e-01) (7, 3, 5.00000000000000000000e-01) (7, 3, 5.00000000000000000000e-01) (7, 3, 5.00000000000000000000e-01) (0, 3, 0.00000000000000000000e+00) (9, 3, 5.00000000000000000000e-01) (9, 3, 5.00000000000000000000e-01) (9, 3, 5.00000000000000000000e-01) (9, 3, 5.00000000000000000000e-01) (0, 3, 0.00000000000000000000e+00) (5, 3, 5.00000000000000000000e-01) (0, 3, 0.00000000000000000000e+00) 
connections (connected_to_neuron, weight)=(0, -6.08279602050781250000e+02) (1, -9.73505554199218750000e+02) (2, 8.48280072212219238281e-01) (3, -1.14060778808593750000e+03) (4, -1.34790991210937500000e+03) (5, -1.50000000000000000000e+03) (6, 7.87030124664306640625e+00) (0, 2.62717902660369873047e-01) (1, -8.51642379760742187500e+01) (2, 1.77017761230468750000e+02) (3, -1.68321563720703125000e+02) (4, -1.44388370513916015625e+01) (5, 6.15964469909667968750e+01) (6, 5.11460952758789062500e+01) (0, -1.41313791275024414062e+01) (1, -2.66637783050537109375e+01) (2, -4.23538551330566406250e+01) (3, -5.81510734558105468750e+01) (4, -2.54767990112304687500e+01) (5, 3.49009466171264648438e+00) (6, 5.38952636718750000000e+01) (0, -2.14591445922851562500e+01) (1, -6.84322500228881835938e+00) (2, -1.16376619338989257812e+01) (3, -3.87256774902343750000e+01) (4, -1.70679111480712890625e+01) (5, 2.49507308006286621094e+00) (6, 3.59838600158691406250e+01) (0, -9.88701534271240234375e+00) (1, 5.65340089797973632812e+00) (2, -3.73432111740112304688e+00) (3, -8.32096290588378906250e+00) (4, -2.95908784866333007812e+00) (5, 5.48995852470397949219e-01) (6, 6.35505628585815429688e+00) (0, -1.02047090530395507812e+01) (1, -5.69940605163574218750e+01) (2, 1.63519496917724609375e+01) (3, -1.17812591552734375000e+02) (4, -3.88042283058166503906e+00) (5, 3.58891105651855468750e+01) (6, 5.10421714782714843750e+01) (0, -1.48962353515625000000e+03) (1, -1.44432092285156250000e+03) (2, 9.23058105468750000000e+02) (3, -1.14055480957031250000e+03) (4, -1.43660314941406250000e+03) (5, -5.55106201171875000000e+02) (6, 1.01723730468750000000e+03) (0, -6.08279602050781250000e+02) (1, -9.73505554199218750000e+02) (2, -1.09764118194580078125e+01) (3, -1.14060778808593750000e+03) (4, -1.34790991210937500000e+03) (5, -1.50000000000000000000e+03) (6, 8.35160923004150390625e+00) (7, 1.50000000000000000000e+03) (8, 1.50000000000000000000e+03) (9, 1.50000000000000000000e+03) (10, 1.50000000000000000000e+03) (11, 1.50000000000000000000e+03) (12, 1.50000000000000000000e+03) (13, 1.50000000000000000000e+03) (14, 1.50000000000000000000e+03) (15, -5.17154026031494140625e+00) (7, 1.50000000000000000000e+03) (8, 1.50000000000000000000e+03) (9, 1.50000000000000000000e+03) (10, 1.50000000000000000000e+03) (11, 1.50000000000000000000e+03) (12, 1.50000000000000000000e+03) (13, 1.50000000000000000000e+03) (14, 1.50000000000000000000e+03) (15, -1.78425657749176025391e+00) (7, 1.50000000000000000000e+03) (8, 1.50000000000000000000e+03) (9, 1.50000000000000000000e+03) (10, 1.50000000000000000000e+03) (11, 1.50000000000000000000e+03) (12, 1.50000000000000000000e+03) (13, 1.50000000000000000000e+03) (14, 1.50000000000000000000e+03) (15, -1.00081558227539062500e+02) (7, 1.50000000000000000000e+03) (8, 1.50000000000000000000e+03) (9, 1.50000000000000000000e+03) (10, 1.50000000000000000000e+03) (11, 1.50000000000000000000e+03) (12, 1.50000000000000000000e+03) (13, 1.50000000000000000000e+03) (14, 1.50000000000000000000e+03) (15, -6.66757285594940185547e-01) (16, -5.51494598388671875000e-01) (17, -4.44204360246658325195e-01) (18, -1.31212186813354492188e+00) (19, -2.66190409660339355469e-01) (20, -3.81086558103561401367e-01) 
